tree
version=v2
num_class=1
num_tree_per_iteration=1
label_index=0
max_feature_idx=492
objective=binary sigmoid:1
feature_names=AGER_TYP AKT_DAT_KL ALTER_KIND1 ALTER_KIND2 ALTER_KIND3 ALTER_KIND4 ALTERSKATEGORIE_FEIN ANZ_HAUSHALTE_AKTIV ANZ_HH_TITEL ANZ_KINDER ANZ_PERSONEN ARBEIT BALLRAUM CAMEO_DEUG_2015 CJT_GESAMTTYP CJT_KATALOGNUTZER CJT_TYP_1 CJT_TYP_2 CJT_TYP_3 CJT_TYP_4 CJT_TYP_5 CJT_TYP_6 D19_BANKEN_ANZ_12 D19_BANKEN_ANZ_24 D19_BANKEN_DIREKT D19_BANKEN_GROSS D19_BANKEN_LOKAL D19_BANKEN_ONLINE_QUOTE_12 D19_BANKEN_REST D19_BEKLEIDUNG_GEH D19_BEKLEIDUNG_REST D19_BILDUNG D19_BIO_OEKO D19_BUCH_CD D19_DIGIT_SERV D19_DROGERIEARTIKEL D19_ENERGIE D19_FREIZEIT D19_GARTEN D19_GESAMT_ANZ_12 D19_GESAMT_ANZ_24 D19_GESAMT_ONLINE_QUOTE_12 D19_HANDWERK D19_HAUS_DEKO D19_KINDERARTIKEL D19_KONSUMTYP D19_KONSUMTYP_MAX D19_KOSMETIK D19_LEBENSMITTEL D19_LOTTO D19_NAHRUNGSERGAENZUNG D19_RATGEBER D19_REISEN D19_SAMMELARTIKEL D19_SCHUHE D19_SONSTIGE D19_SOZIALES D19_TECHNIK D19_TELKO_ANZ_12 D19_TELKO_ANZ_24 D19_TELKO_MOBILE D19_TELKO_ONLINE_QUOTE_12 D19_TELKO_REST D19_TIERARTIKEL D19_VERSAND_ANZ_12 D19_VERSAND_ANZ_24 D19_VERSAND_ONLINE_QUOTE_12 D19_VERSAND_REST D19_VERSI_ANZ_12 D19_VERSI_ANZ_24 D19_VERSI_DATUM D19_VERSI_OFFLINE_DATUM D19_VERSI_ONLINE_DATUM D19_VERSI_ONLINE_QUOTE_12 D19_VERSICHERUNGEN D19_VOLLSORTIMENT D19_WEIN_FEINKOST EINGEZOGENAM_HH_JAHR EWDICHTE EXTSEL992 FINANZ_ANLEGER FINANZ_HAUSBAUER FINANZ_MINIMALIST FINANZ_SPARER FINANZ_UNAUFFAELLIGER FINANZ_VORSORGER FINANZTYP FIRMENDICHTE GEBAEUDETYP GEBAEUDETYP_RASTER GEBURTSJAHR GEMEINDETYP GFK_URLAUBERTYP GREEN_AVANTGARDE HEALTH_TYP HH_DELTA_FLAG HH_EINKOMMEN_SCORE INNENSTADT KBA05_ALTER1 KBA05_ALTER2 KBA05_ALTER3 KBA05_ALTER4 KBA05_ANHANG KBA05_ANTG1 KBA05_ANTG2 KBA05_ANTG3 KBA05_ANTG4 KBA05_AUTOQUOT KBA05_BAUMAX KBA05_CCM1 KBA05_CCM2 KBA05_CCM3 KBA05_CCM4 KBA05_DIESEL KBA05_FRAU KBA05_GBZ KBA05_HERST1 KBA05_HERST4 KBA05_HERST5 KBA05_HERSTTEMP KBA05_KRSAQUOT KBA05_KRSHERST1 KBA05_KRSHERST2 KBA05_KRSHERST3 KBA05_KRSOBER KBA05_KRSVAN KBA05_KRSZUL KBA05_KW1 KBA05_KW2 KBA05_KW3 KBA05_MAXAH KBA05_MAXBJ KBA05_MAXHERST KBA05_MAXSEG KBA05_MAXVORB KBA05_MOD1 KBA05_MOD2 KBA05_MOD3 KBA05_MOD4 KBA05_MOD8 KBA05_MODTEMP KBA05_MOTOR KBA05_MOTRAD KBA05_SEG1 KBA05_SEG10 KBA05_SEG2 KBA05_SEG3 KBA05_SEG4 KBA05_SEG5 KBA05_SEG6 KBA05_SEG7 KBA05_SEG8 KBA05_SEG9 KBA05_VORB0 KBA05_VORB1 KBA05_VORB2 KBA05_ZUL1 KBA05_ZUL2 KBA05_ZUL3 KBA05_ZUL4 KBA13_ANTG1 KBA13_ANTG2 KBA13_ANTG3 KBA13_ANTG4 KBA13_ANZAHL_PKW KBA13_AUDI KBA13_AUTOQUOTE KBA13_BAUMAX KBA13_BJ_1999 KBA13_BJ_2000 KBA13_BJ_2004 KBA13_BJ_2006 KBA13_BJ_2008 KBA13_BJ_2009 KBA13_BMW KBA13_CCM_0_1400 KBA13_CCM_1000 KBA13_CCM_1200 KBA13_CCM_1400 KBA13_CCM_1401_2500 KBA13_CCM_1500 KBA13_CCM_1600 KBA13_CCM_1800 KBA13_CCM_2000 KBA13_CCM_2500 KBA13_CCM_2501 KBA13_CCM_3000 KBA13_CCM_3001 KBA13_FAB_ASIEN KBA13_FAB_SONSTIGE KBA13_FIAT KBA13_FORD KBA13_GBZ KBA13_HALTER_20 KBA13_HALTER_25 KBA13_HALTER_30 KBA13_HALTER_35 KBA13_HALTER_40 KBA13_HALTER_45 KBA13_HALTER_50 KBA13_HALTER_55 KBA13_HALTER_60 KBA13_HALTER_65 KBA13_HALTER_66 KBA13_HERST_ASIEN KBA13_HERST_AUDI_VW KBA13_HERST_BMW_BENZ KBA13_HERST_EUROPA KBA13_HERST_FORD_OPEL KBA13_HERST_SONST KBA13_HHZ KBA13_KMH_0_140 KBA13_KMH_110 KBA13_KMH_140 KBA13_KMH_140_210 KBA13_KMH_180 KBA13_KMH_210 KBA13_KMH_250 KBA13_KMH_251 KBA13_KRSAQUOT KBA13_KRSHERST_AUDI_VW KBA13_KRSHERST_BMW_BENZ KBA13_KRSHERST_FORD_OPEL KBA13_KRSSEG_KLEIN KBA13_KRSSEG_OBER KBA13_KRSSEG_VAN KBA13_KRSZUL_NEU KBA13_KW_0_60 KBA13_KW_110 KBA13_KW_120 KBA13_KW_121 KBA13_KW_30 KBA13_KW_40 KBA13_KW_50 KBA13_KW_60 KBA13_KW_61_120 KBA13_KW_70 KBA13_KW_80 KBA13_KW_90 KBA13_MAZDA KBA13_MERCEDES KBA13_MOTOR KBA13_NISSAN KBA13_OPEL KBA13_PEUGEOT KBA13_RENAULT KBA13_SEG_GELAENDEWAGEN KBA13_SEG_KLEINST KBA13_SEG_KLEINWAGEN KBA13_SEG_KOMPAKTKLASSE KBA13_SEG_MINIVANS KBA13_SEG_MINIWAGEN KBA13_SEG_MITTELKLASSE KBA13_SEG_OBEREMITTELKLASSE KBA13_SEG_OBERKLASSE KBA13_SEG_SONSTIGE KBA13_SEG_SPORTWAGEN KBA13_SEG_UTILITIES KBA13_SEG_VAN KBA13_SEG_WOHNMOBILE KBA13_SITZE_4 KBA13_SITZE_5 KBA13_SITZE_6 KBA13_TOYOTA KBA13_VORB_0 KBA13_VORB_1 KBA13_VORB_1_2 KBA13_VORB_2 KBA13_VORB_3 KBA13_VW KK_KUNDENTYP KKK KOMBIALTER KONSUMNAEHE KONSUMZELLE MIN_GEBAEUDEJAHR MOBI_RASTER MOBI_REGIO NATIONALITAET_KZ ONLINE_AFFINITAET ORTSGR_KLS9 OST_WEST_KZ PLZ8_ANTG1 PLZ8_ANTG2 PLZ8_ANTG3 PLZ8_ANTG4 PLZ8_BAUMAX REGIOTYP RELAT_AB RETOURTYP_BK_S RT_KEIN_ANREIZ RT_SCHNAEPPCHEN RT_UEBERGROESSE SEMIO_DOM SEMIO_ERL SEMIO_FAM SEMIO_KAEM SEMIO_KRIT SEMIO_KULT SEMIO_LUST SEMIO_MAT SEMIO_PFLICHT SEMIO_RAT SEMIO_REL SEMIO_SOZ SEMIO_TRADV SEMIO_VERT SHOPPER_TYP SOHO_KZ STRUKTURTYP TITEL_KZ UMFELD_ALT UMFELD_JUNG UNGLEICHENN_FLAG VERDICHTUNGSRAUM VERS_TYP VHA VHN VK_DHT4A VK_DISTANZ VK_ZG11 W_KEIT_KIND_HH WOHNDAUER_2008 WOHNLAGE ZABEOTYP ANREDE_KZ ALTERSKATEGORIE_GROB ALTER_HH_Value_0 CAMEO_DEUINTL_2015_Value_0 CAMEO_DEUINTL_2015_Value_1 D19_BANKEN_DATUM_Value_ACTIVITY_WITHIN_MONTHS D19_BANKEN_DATUM_Value_INCREASE D19_BANKEN_OFFLINE_DATUM_Value_ACTIVITY_WITHIN_MONTHS D19_BANKEN_OFFLINE_DATUM_Value_INCREASE D19_BANKEN_ONLINE_DATUM_Value_ACTIVITY_WITHIN_MONTHS D19_BANKEN_ONLINE_DATUM_Value_INCREASE D19_GESAMT_DATUM_Value_ACTIVITY_WITHIN_MONTHS D19_GESAMT_DATUM_Value_INCREASE D19_GESAMT_OFFLINE_DATUM_Value_ACTIVITY_WITHIN_MONTHS D19_GESAMT_OFFLINE_DATUM_Value_INCREASE D19_GESAMT_ONLINE_DATUM_Value_ACTIVITY_WITHIN_MONTHS D19_GESAMT_ONLINE_DATUM_Value_INCREASE D19_TELKO_DATUM_Value_ACTIVITY_WITHIN_MONTHS D19_TELKO_DATUM_Value_INCREASE D19_TELKO_OFFLINE_DATUM_Value_ACTIVITY_WITHIN_MONTHS D19_TELKO_OFFLINE_DATUM_Value_INCREASE D19_TELKO_ONLINE_DATUM_Value_ACTIVITY_WITHIN_MONTHS D19_TELKO_ONLINE_DATUM_Value_INCREASE D19_VERSAND_DATUM_Value_ACTIVITY_WITHIN_MONTHS D19_VERSAND_DATUM_Value_INCREASE D19_VERSAND_OFFLINE_DATUM_Value_ACTIVITY_WITHIN_MONTHS D19_VERSAND_OFFLINE_DATUM_Value_INCREASE D19_VERSAND_ONLINE_DATUM_Value_ACTIVITY_WITHIN_MONTHS D19_VERSAND_ONLINE_DATUM_Value_INCREASE LP_FAMILIE_FEIN_Value_CHILD LP_FAMILIE_FEIN_Value_FAMILY LP_FAMILIE_FEIN_Value_GENERATIONAL LP_FAMILIE_GROB_Value_FAMILY LP_LEBENSPHASE_FEIN_Value_AGE LP_LEBENSPHASE_FEIN_Value_INCOME LP_LEBENSPHASE_FEIN_Value_OTHER LP_LEBENSPHASE_GROB_Value_AGE LP_LEBENSPHASE_GROB_Value_INCOME LP_STATUS_FEIN_Value_INCOME LP_STATUS_FEIN_Value_OTHER LP_STATUS_GROB_Value_INCOME PRAEGENDE_JUGENDJAHRE_Value_0 PRAEGENDE_JUGENDJAHRE_Value_2 PRAEGENDE_JUGENDJAHRE_Value_3 EINGEFUEGT_AM_Day EINGEFUEGT_AM_DayOfYear EINGEFUEGT_AM_DayOfWeek EINGEFUEGT_AM_DaysInMonth EINGEFUEGT_AM_IsMonthStart EINGEFUEGT_AM_IsMonthEnd EINGEFUEGT_AM_IsQuarterStart EINGEFUEGT_AM_IsQuarterEnd EINGEFUEGT_AM_IsYearStart EINGEFUEGT_AM_IsYearEnd EINGEFUEGT_AM_Season _isMissingUnknown_1 _isMissingUnknown_2 _isMissingUnknown_3 _isMissingUnknown_4 _isMissingUnknown_5 _isMissingUnknown_6 _isMissingUnknown_7 _isMissingUnknown_8 _isMissingUnknown_9 _isMissingUnknown_10 _isMissingUnknown_11 _isMissingUnknown_12 _isMissingUnknown_13 _isMissingUnknown_14 _isMissingUnknown_15 _isMissingUnknown_16 _isMissingUnknown_17 _isMissingUnknown_18 _isMissingUnknown_19 _isMissingUnknown_20 CAMEO_DEU_2015_1A CAMEO_DEU_2015_1B CAMEO_DEU_2015_1C CAMEO_DEU_2015_1D CAMEO_DEU_2015_1E CAMEO_DEU_2015_2A CAMEO_DEU_2015_2B CAMEO_DEU_2015_2C CAMEO_DEU_2015_2D CAMEO_DEU_2015_3A CAMEO_DEU_2015_3B CAMEO_DEU_2015_3C CAMEO_DEU_2015_3D CAMEO_DEU_2015_4A CAMEO_DEU_2015_4B CAMEO_DEU_2015_4C CAMEO_DEU_2015_4D CAMEO_DEU_2015_4E CAMEO_DEU_2015_5A CAMEO_DEU_2015_5B CAMEO_DEU_2015_5C CAMEO_DEU_2015_5D CAMEO_DEU_2015_5E CAMEO_DEU_2015_5F CAMEO_DEU_2015_6A CAMEO_DEU_2015_6B CAMEO_DEU_2015_6C CAMEO_DEU_2015_6D CAMEO_DEU_2015_6E CAMEO_DEU_2015_6F CAMEO_DEU_2015_7A CAMEO_DEU_2015_7B CAMEO_DEU_2015_7C CAMEO_DEU_2015_7D CAMEO_DEU_2015_7E CAMEO_DEU_2015_8A CAMEO_DEU_2015_8B CAMEO_DEU_2015_8C CAMEO_DEU_2015_8D CAMEO_DEU_2015_9A CAMEO_DEU_2015_9B CAMEO_DEU_2015_9C CAMEO_DEU_2015_9D CAMEO_DEU_2015_9E CAMEO_DEU_2015_XX D19_LETZTER_KAUF_BRANCHE_D19_BANKEN_DIREKT D19_LETZTER_KAUF_BRANCHE_D19_BANKEN_GROSS D19_LETZTER_KAUF_BRANCHE_D19_BANKEN_LOKAL D19_LETZTER_KAUF_BRANCHE_D19_BANKEN_REST D19_LETZTER_KAUF_BRANCHE_D19_BEKLEIDUNG_GEH D19_LETZTER_KAUF_BRANCHE_D19_BEKLEIDUNG_REST D19_LETZTER_KAUF_BRANCHE_D19_BILDUNG D19_LETZTER_KAUF_BRANCHE_D19_BIO_OEKO D19_LETZTER_KAUF_BRANCHE_D19_BUCH_CD D19_LETZTER_KAUF_BRANCHE_D19_DIGIT_SERV D19_LETZTER_KAUF_BRANCHE_D19_DROGERIEARTIKEL D19_LETZTER_KAUF_BRANCHE_D19_ENERGIE D19_LETZTER_KAUF_BRANCHE_D19_FREIZEIT D19_LETZTER_KAUF_BRANCHE_D19_GARTEN D19_LETZTER_KAUF_BRANCHE_D19_HANDWERK D19_LETZTER_KAUF_BRANCHE_D19_HAUS_DEKO D19_LETZTER_KAUF_BRANCHE_D19_KINDERARTIKEL D19_LETZTER_KAUF_BRANCHE_D19_KOSMETIK D19_LETZTER_KAUF_BRANCHE_D19_LEBENSMITTEL D19_LETZTER_KAUF_BRANCHE_D19_LOTTO D19_LETZTER_KAUF_BRANCHE_D19_NAHRUNGSERGAENZUNG D19_LETZTER_KAUF_BRANCHE_D19_RATGEBER D19_LETZTER_KAUF_BRANCHE_D19_REISEN D19_LETZTER_KAUF_BRANCHE_D19_SAMMELARTIKEL D19_LETZTER_KAUF_BRANCHE_D19_SCHUHE D19_LETZTER_KAUF_BRANCHE_D19_SONSTIGE D19_LETZTER_KAUF_BRANCHE_D19_TECHNIK D19_LETZTER_KAUF_BRANCHE_D19_TELKO_MOBILE D19_LETZTER_KAUF_BRANCHE_D19_TELKO_REST D19_LETZTER_KAUF_BRANCHE_D19_TIERARTIKEL D19_LETZTER_KAUF_BRANCHE_D19_UNBEKANNT D19_LETZTER_KAUF_BRANCHE_D19_VERSAND_REST D19_LETZTER_KAUF_BRANCHE_D19_VERSICHERUNGEN D19_LETZTER_KAUF_BRANCHE_D19_VOLLSORTIMENT D19_LETZTER_KAUF_BRANCHE_D19_WEIN_FEINKOST PRAEGENDE_JUGENDJAHRE_Value_1_FDJ_-_communist_party_youth_organisation PRAEGENDE_JUGENDJAHRE_Value_1_Generation_Golf PRAEGENDE_JUGENDJAHRE_Value_1_Swords_into_ploughshares PRAEGENDE_JUGENDJAHRE_Value_1_digital_media_kids PRAEGENDE_JUGENDJAHRE_Value_1_ecological_awareness PRAEGENDE_JUGENDJAHRE_Value_1_economic_miracle PRAEGENDE_JUGENDJAHRE_Value_1_family_orientation PRAEGENDE_JUGENDJAHRE_Value_1_generation_68_-_student_protestors PRAEGENDE_JUGENDJAHRE_Value_1_milk_bar_-_Individualisation PRAEGENDE_JUGENDJAHRE_Value_1_opponents_to_the_building_of_the_Wall PRAEGENDE_JUGENDJAHRE_Value_1_peace_movement PRAEGENDE_JUGENDJAHRE_Value_1_reconstruction_years PRAEGENDE_JUGENDJAHRE_Value_1_war_years
feature_infos=[-1:3] [-2:9] [2:18] [5:18] none none [-2:25] [0:353] [0:17] [0:6] [0:24] [-2:9] [-2:7] [-2:9] [-2:6] [-2:5] [-2:5] [-2:5] [-2:5] [-2:5] [-2:5] [-2:5] [0:6] [0:6] [0:7] [0:6] [0:7] [-2:10] [0:7] [0:7] [0:7] [0:7] [0:7] [0:7] [0:7] [0:7] [0:7] [0:7] [0:7] [0:6] [0:6] [-2:10] [0:7] [0:7] [0:7] [-2:9] [1:9] [0:7] [0:7] [-2:7] [0:7] [0:7] [0:7] [0:7] [0:7] [0:7] [-2:5] [0:7] [0:5] [0:5] [0:7] [-2:10] [0:7] [0:7] [0:6] [0:6] [-2:10] [0:7] [0:5] [0:6] [1:10] [1:10] none [-2:10] [0:7] [0:7] [0:7] [-1:3.30078125] [-2:6] [1:56] [1:5] [1:5] [1:5] [1:5] [1:5] [1:5] [1:6] [-2:5] [-2:8] [-2:5] [0:11.300000000000001] [11:50] [1:12] [0:1] [-1:3] [-2:1] [-2:6] [-2:8] [-2:4] [-2:5] [-2:5] [-2:5] [-2:3] [-2:4] [-2:4] [-2:3] [-2:2] [-2:5] [-2:5] [-2:5] [-2:5] [-2:5] [-2:4] [-2:4] [-2:5] [-2:5] [-2:5] [-2:5] [-2:5] [-2:5] [-2:5] [-2:5] [-2:5] [-2:5] [-2:3] [-2:3] [-2:3] [-2:5] [-2:5] [-2:4] [-2:5] [-2:4] [-2:5] [-2:4] [-2:3] [-2:4] [-2:5] [-2:5] [-2:5] [-2:3] [-2:6] [-2:4] [-2:3] [-2:3] [-2:4] [-2:5] [-2:5] [-2:5] [-2:4] [-2:1] [-2:3] [-2:3] [-2:3] [-2:5] [-2:5] [-2:5] [-2:5] [-2:5] [-2:5] [-2:5] [-2:4] [-2:4] [-2:3] [-2:2] [0:2300] [-2:5] [-2:5] [-2:5] [-2:5] [-2:5] [-2:5] [-2:5] [-2:5] [-2:5] [-2:5] [-2:5] [-2:5] [-2:5] [-2:5] [-2:5] [-2:5] [-2:5] [-2:5] [-2:5] [-2:5] [-2:5] [-2:5] [-2:5] [-2:5] [-2:5] [-2:5] [-2:5] [-2:5] [-2:5] [-2:5] [-2:5] [-2:5] [-2:5] [-2:5] [-2:5] [-2:5] [-2:5] [-2:5] [-2:5] [-2:5] [-2:5] [-2:5] [-2:5] [-2:5] [-2:5] [-2:5] [-2:5] [-2:3] [-2:5] [-2:5] [-2:5] [-2:5] [-2:5] [-2:3] [-2:5] [-2:5] [-2:5] [-2:5] [-2:3] [-2:3] [-2:3] [-2:3] [-2:5] [-2:5] [-2:5] [-2:5] [-2:3] [-2:5] [-2:5] [-2:5] [-2:5] [-2:5] [-2:5] [-2:5] [-2:5] [-2:5] [-2:4] [-2:5] [-2:5] [-2:5] [-2:5] [-2:5] [-2:5] [-2:5] [-2:5] [-2:5] [-2:5] [-2:5] [-2:5] [-2:5] [-2:5] [-2:5] [-2:5] [-2:5] [-2:5] [-2:5] [-2:5] [-2:5] [-2:5] [-2:5] [-2:5] [-2:5] [-2:5] [-2:5] [-2:5] [-2:6] [-2:4] [1:9] [-2:7] [-2:1] [-1:3.099609375] [-2:6] [-2:6] [-1:3] [-2:5] [-2:9] [-2:2] [-2:4] [-2:4] [-2:3] [-2:2] [-2:5] [-2:7] [-2:5] [-2:5] [-2:5] [-2:5] [-2:5] [1:7] [1:7] [1:7] [1:7] [1:7] [1:7] [1:7] [1:7] [1:7] [1:7] [1:7] [1:7] [1:7] [1:7] [-1:3] [-2:1] [-2:3] [-2:5] [-2:5] [-2:5] [-2:1] [0:45] [-1:2] [-2:5] [-2:4] [1:11] [1:13] [1:11] [-2:6] [-2:9] [-2:8] [1:6] [1:2] [1:9] [0:10.1015625] [-2:5] [-2:5] [0:5] [0:5] [0:5] [0:5] [0:5] [0:5] [0:5] [0:5] [0:5] [0:5] [0:5] [0:5] [0:5] [0:5] [0:5] [0:5] [0:5] none [0:5] [0:5] [0:5] [0:5] [0:5] [0:5] [-2:3] [-2:8] [-2:3] [-2:4] [-2:5] [-2:7] none [-2:3] [-2:4] [-2:7] [-2:8] [-2:2] [-1:6] [-1:2] [-1:3] [1:31] [2:365] [-2:6] [28:31] [0:1] none none none none none [0:3] [-2.2083146064174635:14.259193305521343] [-5.9007107396731966:6.1135041603235534] [-6.3144945203165612:6.0770542173820825] [-2.616796517584147:8.1530105039188836] [-3.0540729225044014:7.3736377913611442] [-1.5481024585681533:5.7935991918011727] [-1.8367647932651929:3.5991429413803937] [-3.1529604240351721:3.0947390738493477] [-0.93000990082538249:0.9713992095496804] [-0.98049511908664311:1.7887197137894397] [-1.6232912618877773:1.7401795814018106] [-1.5320520748853079:2.4835398028808431] [-1.2020469363457102:1.1916233369037497] [-0.90516040822178256:3.9969032047591613] [-1.4306446823096799:1.4613847047569262] [-0.95433020651213563:1.8634039434443368] [-2.2282674429409637:2.8486835363082426] [-1.2829023721743935:1.2229279825376977] [-1.4705490182854528:1.9169812592173574] [-1.2002262351081203:1.7305862506292544] [0:1] none none [0:1] none [0:1] [0:1] [0:1] [0:1] none none [0:1] [0:1] [0:1] [0:1] [0:1] [0:1] none [0:1] [0:1] [0:1] [0:1] none none none [0:1] [0:1] none [0:1] [0:1] [0:1] [0:1] none none [0:1] [0:1] [0:1] [0:1] [0:1] [0:1] [0:1] [0:1] [0:1] none none [0:1] [0:1] none none [0:1] [0:1] none none [0:1] none [0:1] [0:1] [0:1] none none [0:1] none none [0:1] none [0:1] none none [0:1] [0:1] [0:1] [0:1] [0:1] [0:1] none [0:1] [0:1] [0:1] [0:1] none none [0:1] none [0:1] [0:1] [0:1] [0:1] [0:1] [0:1] [0:1] [0:1] [0:1] [0:1]
tree_sizes=2949 3591 3157 2920 2918

Tree=0
num_leaves=37
num_cat=0
split_feature=56 56 195 77 390 327 79 358 42 137 90 140 326 92 325 49 164 380 197 399 76 366 383 393 358 164 304 325 287 254 318 251 79 164 387 164
split_gain=80936.1 115336 17974.9 4575.73 8417.38 5840.44 4768.89 3153.75 3545.7 2688.38 2983.94 2564.24 2501.14 3380.42 3189.46 2377.09 2661.3 2195.29 2590.52 2072.36 2047.81 1982.46 1918.44 1840.65 1593.21 1565.83 2116.37 1450.65 1231.36 1231.33 1553.03 1172.7 863.009 778.161 422.496 127.806
threshold=1.5000000000000002 1.0000000180025095e-35 1.5000000000000002 1.7500000000000002 0.36378897304785479 8.3515625000000018 53.500000000000007 1.0000000180025095e-35 6.5000000000000009 3.5000000000000004 2.8500000000000001 3.5000000000000004 1.5000000000000002 7.5000000000000009 1.5000000000000002 3.5000000000000004 614.50000000000011 -2.1246210875485896 2.5000000000000004 -0.030555010539126567 5.5000000000000009 2.5000000000000004 -0.1869978938857326 -0.031150798006905411 1.5000000000000002 705.50000000000011 4.5000000000000009 1.5000000000000002 2.5000000000000004 3.5000000000000004 7.5000000000000009 2.5000000000000004 25.500000000000004 466.50000000000006 -0.09203186003222065 942.50000000000011
decision_type=2 2 2 2 2 10 8 2 2 2 2 2 2 8 2 2 8 2 2 2 2 2 2 2 2 10 2 2 2 2 8 2 8 8 2 10
left_child=1 2 12 4 6 -6 9 11 17 21 -11 23 14 24 -1 33 -17 18 19 -9 25 22 -3 -2 27 29 35 -14 -5 -4 -31 -20 -19 -8 -35 -27
right_child=7 3 20 28 5 -7 15 8 -10 10 -12 -13 13 -15 -16 16 -18 32 31 -21 -22 -23 -24 -25 -26 26 -28 -29 -30 30 -32 -33 -34 34 -36 -37
leaf_value=-4.1585836300376799 -4.3940115268003783 -4.2135377745062188 -4.3942902269287201 -4.109106655046272 -4.1674126020075093 -4.3938002395783267 -4.0977914019708237 -4.213683518437743 -4.2485273928355216 -4.1437000191132825 -4.30290307101445 -4.2239934569687279 -4.342078912446782 -4.3938886224914286 -4.2525881224668138 -4.1754896633250702 -4.067341773957363 -4.3218553891703344 -4.3091201550536606 -4.3578228469088902 -4.2703060724455089 -4.0782172207479066 -4.1096072972873845 -4.2685492057835521 -4.1839009404533885 -4.3938289615647621 -4.2573231082382019 -4.251473192876583 -4.0240990371266401 -4.3939119887408076 -4.2725584109527315 -4.3941896491104604 -4.3943124079098368 -4.0031672530677733 -4.0739277763132238 -4.3554075882403032
leaf_count=1090 813 773 4010 515 624 500 527 485 572 474 521 690 669 597 2034 825 700 455 569 489 594 940 612 462 488 528 625 1707 885 629 483 1670 5781 552 455 455
internal_value=0 33.0171 15.6735 47.4103 45.0363 24.9064 47.2053 6.93232 4.78552 41.071 29.8532 16.1554 24.1744 19.1434 28.8024 52.0255 45.2754 3.27463 8.87058 19.1431 5.59433 44.4388 38.0517 8.05255 22.1721 4.0283 11.101 18.9238 56.1372 1.47027 9.19975 3.1386 0.0253355 56.5398 59.4147 2.13756
internal_count=34798 22812 13909 8903 7503 1124 6379 11986 10021 3320 995 1965 6585 3461 3124 3059 1525 9449 3213 974 7324 2325 1385 1275 2864 6730 1608 2376 1400 5122 1112 2239 6236 1534 1007 983
shrinkage=1


Tree=1
num_leaves=45
num_cat=0
split_feature=46 46 96 352 137 390 301 123 182 279 290 390 55 120 321 369 79 76 295 249 164 11 311 100 177 140 326 304 259 75 17 77 80 399 305 237 292 192 158 139 397 52 164 16
split_gain=32548.2 17717.1 12075 4978.34 3408.36 3236.7 3457.85 3413.23 3242 2996.68 3261.34 2757 3439.94 3781.47 3539.49 3089.23 4789.09 2849.84 2450.49 2121.7 2112.4 1915.55 2602.43 1792.23 1764.54 3013.77 1991.52 1603.19 2669.54 1348.78 1212.81 2304.67 1625.3 1205.42 1118.19 1099.62 1082.19 729.553 660.805 374.363 173.949 135.017 116.291 14.7356
threshold=2.5000000000000004 1.5000000000000002 2.5000000000000004 1.0000000180025095e-35 3.5000000000000004 0.25084413587414484 2.5000000000000004 2.5000000000000004 2.5000000000000004 3.5000000000000004 1.5000000000000002 -0.2426926486421839 5.5000000000000009 3.5000000000000004 5.5000000000000009 11.500000000000002 47.500000000000007 2.5000000000000004 4.5000000000000009 3.5000000000000004 1084.5000000000002 2.5000000000000004 2.5000000000000004 3.5000000000000004 2.5000000000000004 2.5000000000000004 1.5000000000000002 3.5000000000000004 2.5000000000000004 2.5000000000000004 1.5000000000000002 1.2500000000000002 1.5000000000000002 -0.016435542017308163 2.5000000000000004 1.5000000000000002 1.5000000000000002 1.5000000000000002 2.5000000000000004 1.5000000000000002 -0.13973034598767117 2.5000000000000004 540.50000000000011 2.5000000000000004
decision_type=2 2 2 2 2 2 2 2 2 2 2 2 2 2 2 8 8 2 2 2 8 2 2 2 2 2 2 2 2 2 2 2 2 2 2 2 2 2 2 2 2 2 10 2
left_child=1 5 4 21 24 6 33 -8 -9 20 -11 15 13 14 -13 16 -5 18 27 41 30 22 -3 29 25 26 43 -14 -29 38 31 40 -33 -1 -31 -7 -28 -32 -23 -15 -4 -12 -35 -2
right_child=2 3 9 11 -6 35 7 8 -10 10 19 12 17 39 -16 -17 -18 -19 -20 -21 -22 23 -24 -25 -26 -27 36 28 -30 34 37 32 -34 42 -36 -37 -38 -39 -40 -41 -42 -43 -44 -45
leaf_value=0.099028723291103085 0.16618135965514752 0.10806733831049171 0.031142336287072435 0.023766521459793306 -0.0057054260081078612 0.082883058689185982 0.21086300936477254 0.16073478997547061 0.01633092707063246 0.17706196961907156 -0.0058034638547607856 0.19199705836176212 0.1033298941358337 -0.0057081497205273531 0.056387548457753539 0.24445336892399064 0.19997754373225501 0.099213335984301751 0.24534319095092622 0.12666227722596757 0.11386827815696973 0.28514484198425105 0.21151479262676118 0.17683645061864187 0.055552798458623362 0.21883575972918232 0.11014125746580522 0.099266690719028022 0.23255082510700345 0.23511534578056106 0.05841268043706855 0.14078045036348499 0.024697640995064711 0.030460830968736044 0.15195451271454735 -0.0059345974533216691 0.039368850933729757 -0.0061091013850899604 0.23093987981784145 0.054837075600204684 -0.0059708371143247611 0.030050217727212118 -0.0056491679022746709 0.14210421262245609
leaf_count=648 569 672 455 498 564 472 648 579 757 478 704 711 673 507 682 741 644 815 573 460 571 487 813 807 754 536 2403 458 483 467 500 590 561 455 463 1089 718 3883 634 460 1323 455 490 2548
internal_value=0 27.7789 14.2086 31.0025 20.2658 14.9643 18.4939 24.0616 15.84 7.56505 15.4237 27.4158 24.5948 17.6125 23.6885 33.0329 25.3193 28.6611 31.7059 8.67612 4.8961 35.2369 29.0851 37.5196 21.2838 22.2814 20.5731 26.6197 31.0909 39.6801 3.45862 7.51723 15.5942 8.82376 33.6302 4.37531 15.8594 0.403191 42.8565 4.27581 0.709373 1.50909 2.04744 24.1731
internal_count=34798 16726 18072 11588 8092 5138 3577 1984 1336 9980 2097 7245 5362 2360 1393 1883 1142 3002 2187 1619 7883 4343 1485 2858 7528 6774 6238 1614 941 2051 7312 2929 1151 1593 930 1561 3121 4383 1121 967 1778 1159 945 3117
shrinkage=0.00610262


Tree=2
num_leaves=39
num_cat=0
split_feature=56 56 8 358 268 42 92 299 24 244 208 380 197 399 136 176 137 49 77 146 381 98 394 382 281 90 385 326 325 92 79 396 325 326 135 132 115 234
split_gain=41404.7 43891.6 11147.7 2352.85 2675.64 2619.1 2266.58 2935.94 2174.18 2101.43 1862.58 1813.18 1877.98 1613.09 2237.23 1560.36 1523.5 1451.03 1401.12 2085.38 1456.81 1859.15 1384.82 1305.16 1134.81 1044.48 840.945 817.324 1564.32 944.478 742.887 657.035 628.296 478.658 439.521 202.786 130.032 63.2654
threshold=1.5000000000000002 1.0000000180025095e-35 1.0000000180025095e-35 1.0000000180025095e-35 1.5000000000000002 6.5000000000000009 4.5000000000000009 4.5000000000000009 4.5000000000000009 4.5000000000000009 3.5000000000000004 -2.1246210875485896 2.5000000000000004 -0.0007175770752946008 2.5000000000000004 1.5000000000000002 2.5000000000000004 1.0000000180025095e-35 1.3500976562500002 3.5000000000000004 0.27966154344294131 1.5000000000000002 -0.05834526527336991 -0.84546133941306989 1.5000000000000002 3.2500000000000004 -0.36700539049433317 1.5000000000000002 1.5000000000000002 7.5000000000000009 25.500000000000004 -0.0097278669729465566 1.5000000000000002 2.5000000000000004 1.5000000000000002 4.5000000000000009 2.5000000000000004 2.5000000000000004
decision_type=2 2 8 2 2 2 10 2 2 2 2 2 2 2 2 2 2 2 2 2 2 2 2 2 2 2 2 2 2 8 8 2 2 2 2 2 2 2
left_child=1 2 9 4 -2 11 7 -3 18 13 15 12 17 23 -15 -9 -6 -5 19 20 -8 22 -22 -1 -14 -23 -20 28 -4 32 -13 -21 -29 -34 -17 -25 -16 -28
right_child=3 6 27 5 16 -7 8 10 -10 -11 -12 30 24 14 36 34 -18 -19 26 31 21 25 -24 35 -26 -27 37 29 -30 -31 -32 -33 33 -35 -36 -37 -38 -39
leaf_value=0.077208063055035511 0.14491006537795525 0.073938122430549202 0.15823728301576212 0.13424247850532561 0.095752742424015116 0.10957917568251675 0.14175902169046278 0.12916056388849834 0.12516905560393812 0.1052822314608423 0.10325562895538563 0.056667508894164255 0.074614355848098515 0.11784365046306057 0.029798503044103364 0.21294885758042473 -0.0059200088097794866 0.025026639091264777 0.17158384875449215 0.093872546364448015 0.10950284198934856 0.24480171236536669 0.18955631622175351 -0.0061240705018194555 -0.0060334500933229328 0.18915404409282904 0.23296376855206316 0.065580166327613015 0.10199064773380347 0.027476841077219576 -0.0061373142260864001 0.15761664136387557 0.093998126504062515 0.13950384166430282 0.17021527039566109 0.028802357001777686 -0.0057817889908458554 0.20498938806276509
leaf_count=469 600 629 1085 501 463 572 566 601 677 686 527 455 513 682 456 550 902 473 457 459 466 505 701 4262 1726 632 585 777 2032 489 5781 456 1053 821 567 458 639 525
internal_value=0 23.0298 12.7481 5.9765 13.1611 4.16742 29.5636 25.4778 31.0813 5.32093 27.5435 2.85847 7.52197 3.74916 10.0804 29.5288 6.12785 15.2099 31.8474 29.8511 31.5428 33.0038 27.724 1.20195 2.7259 36.4837 34.9615 18.6526 20.8474 15.728 -0.04238 21.7845 17.1247 19.0909 32.1523 -0.376133 1.59335 36.5288
internal_count=34798 22812 13909 11986 1965 10021 8903 2874 6029 7652 2245 9449 3213 6966 1777 1718 1365 974 5352 3785 2870 2304 1167 5189 2239 1137 1567 6257 3117 3140 6236 915 2651 1874 1117 4720 1095 1110
shrinkage=0.00610262


Tree=3
num_leaves=36
num_cat=0
split_feature=56 56 8 358 42 268 76 229 380 86 55 320 197 79 222 44 119 392 31 213 13 399 281 384 150 79 15 394 380 389 325 128 316 316 57
split_gain=30581.3 29264 8839.88 2018.12 2233.43 2042.48 2003.69 1730.7 1683.12 1660.39 2345.45 1780.3 1593.82 1374.29 1227.91 1882.94 1635.88 1689.39 1592.68 1561.34 1199.55 1149.53 1034.12 1005.93 806.856 700.162 648.839 1039.02 599.904 518.852 380.45 361.823 784.938 191.877 96.1185
threshold=1.5000000000000002 1.0000000180025095e-35 1.0000000180025095e-35 1.0000000180025095e-35 6.5000000000000009 1.5000000000000002 5.5000000000000009 4.5000000000000009 -2.1246210875485896 2.5000000000000004 5.5000000000000009 4.5000000000000009 2.5000000000000004 27.500000000000004 3.5000000000000004 2.5000000000000004 2.5000000000000004 0.34765709535048561 5.5000000000000009 3.5000000000000004 5.5000000000000009 -0.030555010539126567 1.5000000000000002 0.10927101498850063 1.5000000000000002 25.500000000000004 4.5000000000000009 -0.0033367747830080614 -1.6770485817603606 0.59541762514155583 1.5000000000000002 2.5000000000000004 1.0000000180025095e-35 3.5000000000000004 3.5000000000000004
decision_type=2 2 8 2 2 2 2 2 2 2 2 10 2 10 2 2 2 2 2 2 2 2 2 2 2 8 2 2 2 2 2 2 2 2 2
left_child=1 2 6 5 8 -2 9 14 12 10 11 -1 21 -7 16 19 17 18 20 23 29 -5 -14 -16 31 -10 -4 30 33 -3 -28 -18 -33 -11 -9
right_child=3 7 26 4 -6 13 -8 34 25 28 -12 -13 22 -15 15 -17 24 -19 -20 -21 -22 -23 -24 -25 -26 -27 27 -29 -30 -31 -32 32 -34 -35 -36
leaf_value=0.023117107346690351 0.12543604656351348 0.15591415825014915 0.063896333588749202 0.11814999838918902 0.098135921951501726 0.088475943039872176 0.10090823367638313 0.1186679313499108 0.053401482150548851 -0.0061218073499931403 -0.0059352307653381129 0.1391831351824544 0.069108495121828359 -0.0059257799250204742 0.14052619268588212 0.070378711725125401 0.19391731983868055 0.092726863042406807 0.097460716003354722 0.1721447149136375 0.1233019164354507 0.02400902030407848 -0.0060320581853472062 0.074261481152729139 0.14252378948613956 -0.0061365331057061136 0.11440886283433821 0.14727106447763727 0.053718045767403237 0.19061769121013666 0.08958623257544264 0.18788147736620661 0.14735660408978044 0.02730131245379459 0.090320879446634042
leaf_count=533 600 856 838 485 572 489 634 457 455 3988 1008 563 513 876 480 566 586 715 512 599 639 489 1726 499 698 5781 1459 633 460 502 3327 524 815 466 455
internal_value=0 19.9753 11.7422 5.72885 4.03861 12.0943 5.12163 24.7273 2.79183 3.60453 9.19137 15.7314 7.14701 5.87138 25.2711 21.9049 26.2045 23.7086 25.0311 23.8482 26.4025 13.8267 2.66519 19.0499 28.3233 -0.0421174 16.6128 17.3359 0.726662 28.2396 16.1386 29.407 27.7251 -0.348671 17.5513
internal_count=34798 22812 13909 11986 10021 1965 7652 8903 9449 7018 2104 1096 3213 1365 7991 2144 5847 3224 2509 1578 1997 974 2239 979 2623 6236 6257 5419 4914 1358 4786 1925 1339 4454 912
shrinkage=0.00610262


Tree=4
num_leaves=36
num_cat=0
split_feature=56 56 210 358 42 249 276 90 380 319 350 291 96 389 128 229 255 92 299 326 325 135 110 77 90 255 273 79 255 224 122 325 122 11 307
split_gain=23428.9 20708.1 7158.87 1747.97 1928.57 1645.04 1632 1734.4 1567.28 1502.11 2589.4 1377.54 1741.78 1320.78 1176.53 1924.05 1048.67 963.814 1438.56 906.617 986.468 903.241 1234.55 1417.34 2535.21 828.335 691.023 661.918 545.073 529.102 487.401 441.821 435.939 367.398 323.036
threshold=1.5000000000000002 1.0000000180025095e-35 2.5000000000000004 1.0000000180025095e-35 6.5000000000000009 3.5000000000000004 3.5000000000000004 2.4500000000000006 -2.1246210875485896 6.5000000000000009 1.5000000000000002 4.5000000000000009 3.5000000000000004 0.21539592181824685 1.5000000000000002 4.5000000000000009 3.5000000000000004 4.5000000000000009 4.5000000000000009 1.5000000000000002 1.5000000000000002 1.5000000000000002 2.5000000000000004 1.4501953125000002 2.5500000000000003 2.5000000000000004 4.5000000000000009 25.500000000000004 2.5000000000000004 2.5000000000000004 2.5000000000000004 1.5000000000000002 3.5000000000000004 3.5000000000000004 2.5000000000000004
decision_type=2 2 2 2 2 2 2 2 2 8 2 2 2 2 2 2 2 10 2 2 2 2 2 2 2 2 2 8 2 2 2 2 2 2 2
left_child=1 2 5 6 8 13 7 -2 11 29 16 28 -13 19 -3 17 -11 18 -16 20 -1 22 -19 24 -24 -20 30 -10 -5 -4 -23 -21 -32 -14 -27
right_child=3 14 9 4 -6 -7 -8 -9 27 10 -12 12 33 -15 15 -17 -18 21 25 31 -22 26 23 -25 -26 34 -28 -29 -30 -31 32 -33 -34 -35 -36
leaf_value=0.12058071433771532 0.018099442051689601 0.15363637258581653 -0.0061091303701632715 0.052856814773807811 0.088864873704089131 -0.0056605706772914367 -0.0058115259500214787 0.11542849776348908 0.050478591198660605 -0.0060421539619314813 0.10562758708093642 0.12296722633117159 0.054101118151875717 0.14737487898351254 0.056725884673316969 0.078639076982564171 0.059264998443664382 0.14933282039273427 0.085257544099258453 0.039605326838011629 0.080546726210796657 0.12489308167256655 0.12784515621085296 0.13968593464165066 0.046417361883768771 0.14125339471337031 0.11612687973424994 -0.0061357532699708658 -0.0060224587792042017 0.043770221889395548 0.16542304237303052 0.078209840155172863 0.13482381699378493 -0.0057165809424528742 0.11244720577770122
leaf_count=1082 570 835 2993 460 572 470 533 862 455 1707 888 477 456 515 527 850 809 550 488 842 2019 491 504 495 883 717 584 5781 1355 561 813 2023 537 465 629
internal_value=0 17.6629 10.8841 5.50137 3.91766 14.6676 11.1903 14.341 2.7283 4.44577 7.94786 6.80818 11.7589 15.2333 21.2994 20.6777 3.12652 21.2202 18.6569 14.3442 16.2839 22.1721 20.1236 17.9147 14.7031 19.9703 23.7464 -0.0418572 1.80836 0.519097 24.7134 11.3123 25.7162 4.24312 21.4035
internal_count=34798 22812 13909 11986 10021 6951 1965 1432 9449 6958 3404 3213 1398 6481 8903 8068 2516 7218 2361 5966 3101 4857 2432 1882 1387 1834 2425 6236 1815 3554 1841 2865 1350 921 1346
shrinkage=0.00610262



feature importances:
D19_SOZIALES=8
EXTSEL992=7
ANREDE_KZ=7
KBA13_ANZAHL_PKW=6
ALTERSKATEGORIE_GROB=5
LP_LEBENSPHASE_FEIN_Value_AGE=5
_isMissingUnknown_1=5
EINGEZOGENAM_HH_JAHR=4
GEBURTSJAHR=4
GFK_URLAUBERTYP=4
D19_HANDWERK=4
_isMissingUnknown_20=4
D19_WEIN_FEINKOST=3
KBA05_MOD3=3
KBA13_HALTER_40=3
KBA13_SEG_SONSTIGE=3
_isMissingUnknown_11=3
KBA05_MOD1=2
ANZ_HH_TITEL=2
ARBEIT=2
KBA13_KW_120=2
KBA13_SEG_KOMPAKTKLASSE=2
KBA05_KRSHERST2=2
KBA13_VORB_3=2
OST_WEST_KZ=2
SEMIO_LUST=2
SEMIO_SOZ=2
VHA=2
HH_EINKOMMEN_SCORE=2
KBA05_KW2=2
D19_KONSUMTYP_MAX=2
D19_LOTTO=2
KBA05_MODTEMP=2
_isMissingUnknown_10=2
D19_SONSTIGE=2
_isMissingUnknown_15=2
KBA05_HERSTTEMP=1
KBA05_KRSAQUOT=1
KBA05_KRSHERST3=1
KBA05_MAXHERST=1
KBA05_MOD2=1
KBA05_MOD8=1
KBA05_SEG3=1
KBA05_SEG7=1
KBA05_ZUL3=1
KBA13_CCM_1000=1
KBA13_CCM_1200=1
KBA13_CCM_1800=1
KBA13_GBZ=1
KBA13_HALTER_30=1
KBA13_HERST_FORD_OPEL=1
KBA13_HHZ=1
KBA13_KMH_140=1
KBA13_KRSHERST_FORD_OPEL=1
KBA13_KRSSEG_OBER=1
CAMEO_DEUG_2015=1
KBA13_KW_60=1
KBA13_KW_80=1
KBA13_PEUGEOT=1
CJT_KATALOGNUTZER=1
KBA13_SEG_MINIWAGEN=1
KBA13_SEG_OBERKLASSE=1
CJT_TYP_1=1
KBA13_SEG_WOHNMOBILE=1
CJT_TYP_2=1
KONSUMNAEHE=1
MOBI_RASTER=1
ONLINE_AFFINITAET=1
D19_BANKEN_DIREKT=1
REGIOTYP=1
RT_KEIN_ANREIZ=1
RT_SCHNAEPPCHEN=1
RT_UEBERGROESSE=1
SEMIO_FAM=1
D19_BILDUNG=1
SEMIO_PFLICHT=1
D19_KINDERARTIKEL=1
SEMIO_TRADV=1
SHOPPER_TYP=1
UMFELD_ALT=1
D19_REISEN=1
D19_TECHNIK=1
VK_DISTANZ=1
VK_ZG11=1
W_KEIT_KIND_HH=1
D19_VOLLSORTIMENT=1
FINANZ_ANLEGER=1
ALTER_HH_Value_0=1
D19_VERSAND_OFFLINE_DATUM_Value_ACTIVITY_WITHIN_MONTHS=1
D19_VERSAND_ONLINE_DATUM_Value_ACTIVITY_WITHIN_MONTHS=1
FINANZTYP=1
PRAEGENDE_JUGENDJAHRE_Value_0=1
EINGEFUEGT_AM_Day=1
KBA05_ALTER1=1
VK_DHT4A=1
_isMissingUnknown_3=1
_isMissingUnknown_4=1
_isMissingUnknown_5=1
_isMissingUnknown_6=1
_isMissingUnknown_8=1
KBA05_ALTER3=1
KBA05_CCM2=1
_isMissingUnknown_13=1
_isMissingUnknown_14=1
KBA05_GBZ=1
_isMissingUnknown_17=1
_isMissingUnknown_18=1
_isMissingUnknown_2=1

pandas_categorical:[]
