tree
version=v2
num_class=1
num_tree_per_iteration=1
label_index=0
max_feature_idx=492
objective=binary sigmoid:1
feature_names=AGER_TYP AKT_DAT_KL ALTER_KIND1 ALTER_KIND2 ALTER_KIND3 ALTER_KIND4 ALTERSKATEGORIE_FEIN ANZ_HAUSHALTE_AKTIV ANZ_HH_TITEL ANZ_KINDER ANZ_PERSONEN ARBEIT BALLRAUM CAMEO_DEUG_2015 CJT_GESAMTTYP CJT_KATALOGNUTZER CJT_TYP_1 CJT_TYP_2 CJT_TYP_3 CJT_TYP_4 CJT_TYP_5 CJT_TYP_6 D19_BANKEN_ANZ_12 D19_BANKEN_ANZ_24 D19_BANKEN_DIREKT D19_BANKEN_GROSS D19_BANKEN_LOKAL D19_BANKEN_ONLINE_QUOTE_12 D19_BANKEN_REST D19_BEKLEIDUNG_GEH D19_BEKLEIDUNG_REST D19_BILDUNG D19_BIO_OEKO D19_BUCH_CD D19_DIGIT_SERV D19_DROGERIEARTIKEL D19_ENERGIE D19_FREIZEIT D19_GARTEN D19_GESAMT_ANZ_12 D19_GESAMT_ANZ_24 D19_GESAMT_ONLINE_QUOTE_12 D19_HANDWERK D19_HAUS_DEKO D19_KINDERARTIKEL D19_KONSUMTYP D19_KONSUMTYP_MAX D19_KOSMETIK D19_LEBENSMITTEL D19_LOTTO D19_NAHRUNGSERGAENZUNG D19_RATGEBER D19_REISEN D19_SAMMELARTIKEL D19_SCHUHE D19_SONSTIGE D19_SOZIALES D19_TECHNIK D19_TELKO_ANZ_12 D19_TELKO_ANZ_24 D19_TELKO_MOBILE D19_TELKO_ONLINE_QUOTE_12 D19_TELKO_REST D19_TIERARTIKEL D19_VERSAND_ANZ_12 D19_VERSAND_ANZ_24 D19_VERSAND_ONLINE_QUOTE_12 D19_VERSAND_REST D19_VERSI_ANZ_12 D19_VERSI_ANZ_24 D19_VERSI_DATUM D19_VERSI_OFFLINE_DATUM D19_VERSI_ONLINE_DATUM D19_VERSI_ONLINE_QUOTE_12 D19_VERSICHERUNGEN D19_VOLLSORTIMENT D19_WEIN_FEINKOST EINGEZOGENAM_HH_JAHR EWDICHTE EXTSEL992 FINANZ_ANLEGER FINANZ_HAUSBAUER FINANZ_MINIMALIST FINANZ_SPARER FINANZ_UNAUFFAELLIGER FINANZ_VORSORGER FINANZTYP FIRMENDICHTE GEBAEUDETYP GEBAEUDETYP_RASTER GEBURTSJAHR GEMEINDETYP GFK_URLAUBERTYP GREEN_AVANTGARDE HEALTH_TYP HH_DELTA_FLAG HH_EINKOMMEN_SCORE INNENSTADT KBA05_ALTER1 KBA05_ALTER2 KBA05_ALTER3 KBA05_ALTER4 KBA05_ANHANG KBA05_ANTG1 KBA05_ANTG2 KBA05_ANTG3 KBA05_ANTG4 KBA05_AUTOQUOT KBA05_BAUMAX KBA05_CCM1 KBA05_CCM2 KBA05_CCM3 KBA05_CCM4 KBA05_DIESEL KBA05_FRAU KBA05_GBZ KBA05_HERST1 KBA05_HERST4 KBA05_HERST5 KBA05_HERSTTEMP KBA05_KRSAQUOT KBA05_KRSHERST1 KBA05_KRSHERST2 KBA05_KRSHERST3 KBA05_KRSOBER KBA05_KRSVAN KBA05_KRSZUL KBA05_KW1 KBA05_KW2 KBA05_KW3 KBA05_MAXAH KBA05_MAXBJ KBA05_MAXHERST KBA05_MAXSEG KBA05_MAXVORB KBA05_MOD1 KBA05_MOD2 KBA05_MOD3 KBA05_MOD4 KBA05_MOD8 KBA05_MODTEMP KBA05_MOTOR KBA05_MOTRAD KBA05_SEG1 KBA05_SEG10 KBA05_SEG2 KBA05_SEG3 KBA05_SEG4 KBA05_SEG5 KBA05_SEG6 KBA05_SEG7 KBA05_SEG8 KBA05_SEG9 KBA05_VORB0 KBA05_VORB1 KBA05_VORB2 KBA05_ZUL1 KBA05_ZUL2 KBA05_ZUL3 KBA05_ZUL4 KBA13_ANTG1 KBA13_ANTG2 KBA13_ANTG3 KBA13_ANTG4 KBA13_ANZAHL_PKW KBA13_AUDI KBA13_AUTOQUOTE KBA13_BAUMAX KBA13_BJ_1999 KBA13_BJ_2000 KBA13_BJ_2004 KBA13_BJ_2006 KBA13_BJ_2008 KBA13_BJ_2009 KBA13_BMW KBA13_CCM_0_1400 KBA13_CCM_1000 KBA13_CCM_1200 KBA13_CCM_1400 KBA13_CCM_1401_2500 KBA13_CCM_1500 KBA13_CCM_1600 KBA13_CCM_1800 KBA13_CCM_2000 KBA13_CCM_2500 KBA13_CCM_2501 KBA13_CCM_3000 KBA13_CCM_3001 KBA13_FAB_ASIEN KBA13_FAB_SONSTIGE KBA13_FIAT KBA13_FORD KBA13_GBZ KBA13_HALTER_20 KBA13_HALTER_25 KBA13_HALTER_30 KBA13_HALTER_35 KBA13_HALTER_40 KBA13_HALTER_45 KBA13_HALTER_50 KBA13_HALTER_55 KBA13_HALTER_60 KBA13_HALTER_65 KBA13_HALTER_66 KBA13_HERST_ASIEN KBA13_HERST_AUDI_VW KBA13_HERST_BMW_BENZ KBA13_HERST_EUROPA KBA13_HERST_FORD_OPEL KBA13_HERST_SONST KBA13_HHZ KBA13_KMH_0_140 KBA13_KMH_110 KBA13_KMH_140 KBA13_KMH_140_210 KBA13_KMH_180 KBA13_KMH_210 KBA13_KMH_250 KBA13_KMH_251 KBA13_KRSAQUOT KBA13_KRSHERST_AUDI_VW KBA13_KRSHERST_BMW_BENZ KBA13_KRSHERST_FORD_OPEL KBA13_KRSSEG_KLEIN KBA13_KRSSEG_OBER KBA13_KRSSEG_VAN KBA13_KRSZUL_NEU KBA13_KW_0_60 KBA13_KW_110 KBA13_KW_120 KBA13_KW_121 KBA13_KW_30 KBA13_KW_40 KBA13_KW_50 KBA13_KW_60 KBA13_KW_61_120 KBA13_KW_70 KBA13_KW_80 KBA13_KW_90 KBA13_MAZDA KBA13_MERCEDES KBA13_MOTOR KBA13_NISSAN KBA13_OPEL KBA13_PEUGEOT KBA13_RENAULT KBA13_SEG_GELAENDEWAGEN KBA13_SEG_KLEINST KBA13_SEG_KLEINWAGEN KBA13_SEG_KOMPAKTKLASSE KBA13_SEG_MINIVANS KBA13_SEG_MINIWAGEN KBA13_SEG_MITTELKLASSE KBA13_SEG_OBEREMITTELKLASSE KBA13_SEG_OBERKLASSE KBA13_SEG_SONSTIGE KBA13_SEG_SPORTWAGEN KBA13_SEG_UTILITIES KBA13_SEG_VAN KBA13_SEG_WOHNMOBILE KBA13_SITZE_4 KBA13_SITZE_5 KBA13_SITZE_6 KBA13_TOYOTA KBA13_VORB_0 KBA13_VORB_1 KBA13_VORB_1_2 KBA13_VORB_2 KBA13_VORB_3 KBA13_VW KK_KUNDENTYP KKK KOMBIALTER KONSUMNAEHE KONSUMZELLE MIN_GEBAEUDEJAHR MOBI_RASTER MOBI_REGIO NATIONALITAET_KZ ONLINE_AFFINITAET ORTSGR_KLS9 OST_WEST_KZ PLZ8_ANTG1 PLZ8_ANTG2 PLZ8_ANTG3 PLZ8_ANTG4 PLZ8_BAUMAX REGIOTYP RELAT_AB RETOURTYP_BK_S RT_KEIN_ANREIZ RT_SCHNAEPPCHEN RT_UEBERGROESSE SEMIO_DOM SEMIO_ERL SEMIO_FAM SEMIO_KAEM SEMIO_KRIT SEMIO_KULT SEMIO_LUST SEMIO_MAT SEMIO_PFLICHT SEMIO_RAT SEMIO_REL SEMIO_SOZ SEMIO_TRADV SEMIO_VERT SHOPPER_TYP SOHO_KZ STRUKTURTYP TITEL_KZ UMFELD_ALT UMFELD_JUNG UNGLEICHENN_FLAG VERDICHTUNGSRAUM VERS_TYP VHA VHN VK_DHT4A VK_DISTANZ VK_ZG11 W_KEIT_KIND_HH WOHNDAUER_2008 WOHNLAGE ZABEOTYP ANREDE_KZ ALTERSKATEGORIE_GROB ALTER_HH_Value_0 CAMEO_DEUINTL_2015_Value_0 CAMEO_DEUINTL_2015_Value_1 D19_BANKEN_DATUM_Value_ACTIVITY_WITHIN_MONTHS D19_BANKEN_DATUM_Value_INCREASE D19_BANKEN_OFFLINE_DATUM_Value_ACTIVITY_WITHIN_MONTHS D19_BANKEN_OFFLINE_DATUM_Value_INCREASE D19_BANKEN_ONLINE_DATUM_Value_ACTIVITY_WITHIN_MONTHS D19_BANKEN_ONLINE_DATUM_Value_INCREASE D19_GESAMT_DATUM_Value_ACTIVITY_WITHIN_MONTHS D19_GESAMT_DATUM_Value_INCREASE D19_GESAMT_OFFLINE_DATUM_Value_ACTIVITY_WITHIN_MONTHS D19_GESAMT_OFFLINE_DATUM_Value_INCREASE D19_GESAMT_ONLINE_DATUM_Value_ACTIVITY_WITHIN_MONTHS D19_GESAMT_ONLINE_DATUM_Value_INCREASE D19_TELKO_DATUM_Value_ACTIVITY_WITHIN_MONTHS D19_TELKO_DATUM_Value_INCREASE D19_TELKO_OFFLINE_DATUM_Value_ACTIVITY_WITHIN_MONTHS D19_TELKO_OFFLINE_DATUM_Value_INCREASE D19_TELKO_ONLINE_DATUM_Value_ACTIVITY_WITHIN_MONTHS D19_TELKO_ONLINE_DATUM_Value_INCREASE D19_VERSAND_DATUM_Value_ACTIVITY_WITHIN_MONTHS D19_VERSAND_DATUM_Value_INCREASE D19_VERSAND_OFFLINE_DATUM_Value_ACTIVITY_WITHIN_MONTHS D19_VERSAND_OFFLINE_DATUM_Value_INCREASE D19_VERSAND_ONLINE_DATUM_Value_ACTIVITY_WITHIN_MONTHS D19_VERSAND_ONLINE_DATUM_Value_INCREASE LP_FAMILIE_FEIN_Value_CHILD LP_FAMILIE_FEIN_Value_FAMILY LP_FAMILIE_FEIN_Value_GENERATIONAL LP_FAMILIE_GROB_Value_FAMILY LP_LEBENSPHASE_FEIN_Value_AGE LP_LEBENSPHASE_FEIN_Value_INCOME LP_LEBENSPHASE_FEIN_Value_OTHER LP_LEBENSPHASE_GROB_Value_AGE LP_LEBENSPHASE_GROB_Value_INCOME LP_STATUS_FEIN_Value_INCOME LP_STATUS_FEIN_Value_OTHER LP_STATUS_GROB_Value_INCOME PRAEGENDE_JUGENDJAHRE_Value_0 PRAEGENDE_JUGENDJAHRE_Value_2 PRAEGENDE_JUGENDJAHRE_Value_3 EINGEFUEGT_AM_Day EINGEFUEGT_AM_DayOfYear EINGEFUEGT_AM_DayOfWeek EINGEFUEGT_AM_DaysInMonth EINGEFUEGT_AM_IsMonthStart EINGEFUEGT_AM_IsMonthEnd EINGEFUEGT_AM_IsQuarterStart EINGEFUEGT_AM_IsQuarterEnd EINGEFUEGT_AM_IsYearStart EINGEFUEGT_AM_IsYearEnd EINGEFUEGT_AM_Season _isMissingUnknown_1 _isMissingUnknown_2 _isMissingUnknown_3 _isMissingUnknown_4 _isMissingUnknown_5 _isMissingUnknown_6 _isMissingUnknown_7 _isMissingUnknown_8 _isMissingUnknown_9 _isMissingUnknown_10 _isMissingUnknown_11 _isMissingUnknown_12 _isMissingUnknown_13 _isMissingUnknown_14 _isMissingUnknown_15 _isMissingUnknown_16 _isMissingUnknown_17 _isMissingUnknown_18 _isMissingUnknown_19 _isMissingUnknown_20 CAMEO_DEU_2015_1A CAMEO_DEU_2015_1B CAMEO_DEU_2015_1C CAMEO_DEU_2015_1D CAMEO_DEU_2015_1E CAMEO_DEU_2015_2A CAMEO_DEU_2015_2B CAMEO_DEU_2015_2C CAMEO_DEU_2015_2D CAMEO_DEU_2015_3A CAMEO_DEU_2015_3B CAMEO_DEU_2015_3C CAMEO_DEU_2015_3D CAMEO_DEU_2015_4A CAMEO_DEU_2015_4B CAMEO_DEU_2015_4C CAMEO_DEU_2015_4D CAMEO_DEU_2015_4E CAMEO_DEU_2015_5A CAMEO_DEU_2015_5B CAMEO_DEU_2015_5C CAMEO_DEU_2015_5D CAMEO_DEU_2015_5E CAMEO_DEU_2015_5F CAMEO_DEU_2015_6A CAMEO_DEU_2015_6B CAMEO_DEU_2015_6C CAMEO_DEU_2015_6D CAMEO_DEU_2015_6E CAMEO_DEU_2015_6F CAMEO_DEU_2015_7A CAMEO_DEU_2015_7B CAMEO_DEU_2015_7C CAMEO_DEU_2015_7D CAMEO_DEU_2015_7E CAMEO_DEU_2015_8A CAMEO_DEU_2015_8B CAMEO_DEU_2015_8C CAMEO_DEU_2015_8D CAMEO_DEU_2015_9A CAMEO_DEU_2015_9B CAMEO_DEU_2015_9C CAMEO_DEU_2015_9D CAMEO_DEU_2015_9E CAMEO_DEU_2015_XX D19_LETZTER_KAUF_BRANCHE_D19_BANKEN_DIREKT D19_LETZTER_KAUF_BRANCHE_D19_BANKEN_GROSS D19_LETZTER_KAUF_BRANCHE_D19_BANKEN_LOKAL D19_LETZTER_KAUF_BRANCHE_D19_BANKEN_REST D19_LETZTER_KAUF_BRANCHE_D19_BEKLEIDUNG_GEH D19_LETZTER_KAUF_BRANCHE_D19_BEKLEIDUNG_REST D19_LETZTER_KAUF_BRANCHE_D19_BILDUNG D19_LETZTER_KAUF_BRANCHE_D19_BIO_OEKO D19_LETZTER_KAUF_BRANCHE_D19_BUCH_CD D19_LETZTER_KAUF_BRANCHE_D19_DIGIT_SERV D19_LETZTER_KAUF_BRANCHE_D19_DROGERIEARTIKEL D19_LETZTER_KAUF_BRANCHE_D19_ENERGIE D19_LETZTER_KAUF_BRANCHE_D19_FREIZEIT D19_LETZTER_KAUF_BRANCHE_D19_GARTEN D19_LETZTER_KAUF_BRANCHE_D19_HANDWERK D19_LETZTER_KAUF_BRANCHE_D19_HAUS_DEKO D19_LETZTER_KAUF_BRANCHE_D19_KINDERARTIKEL D19_LETZTER_KAUF_BRANCHE_D19_KOSMETIK D19_LETZTER_KAUF_BRANCHE_D19_LEBENSMITTEL D19_LETZTER_KAUF_BRANCHE_D19_LOTTO D19_LETZTER_KAUF_BRANCHE_D19_NAHRUNGSERGAENZUNG D19_LETZTER_KAUF_BRANCHE_D19_RATGEBER D19_LETZTER_KAUF_BRANCHE_D19_REISEN D19_LETZTER_KAUF_BRANCHE_D19_SAMMELARTIKEL D19_LETZTER_KAUF_BRANCHE_D19_SCHUHE D19_LETZTER_KAUF_BRANCHE_D19_SONSTIGE D19_LETZTER_KAUF_BRANCHE_D19_TECHNIK D19_LETZTER_KAUF_BRANCHE_D19_TELKO_MOBILE D19_LETZTER_KAUF_BRANCHE_D19_TELKO_REST D19_LETZTER_KAUF_BRANCHE_D19_TIERARTIKEL D19_LETZTER_KAUF_BRANCHE_D19_UNBEKANNT D19_LETZTER_KAUF_BRANCHE_D19_VERSAND_REST D19_LETZTER_KAUF_BRANCHE_D19_VERSICHERUNGEN D19_LETZTER_KAUF_BRANCHE_D19_VOLLSORTIMENT D19_LETZTER_KAUF_BRANCHE_D19_WEIN_FEINKOST PRAEGENDE_JUGENDJAHRE_Value_1_FDJ_-_communist_party_youth_organisation PRAEGENDE_JUGENDJAHRE_Value_1_Generation_Golf PRAEGENDE_JUGENDJAHRE_Value_1_Swords_into_ploughshares PRAEGENDE_JUGENDJAHRE_Value_1_digital_media_kids PRAEGENDE_JUGENDJAHRE_Value_1_ecological_awareness PRAEGENDE_JUGENDJAHRE_Value_1_economic_miracle PRAEGENDE_JUGENDJAHRE_Value_1_family_orientation PRAEGENDE_JUGENDJAHRE_Value_1_generation_68_-_student_protestors PRAEGENDE_JUGENDJAHRE_Value_1_milk_bar_-_Individualisation PRAEGENDE_JUGENDJAHRE_Value_1_opponents_to_the_building_of_the_Wall PRAEGENDE_JUGENDJAHRE_Value_1_peace_movement PRAEGENDE_JUGENDJAHRE_Value_1_reconstruction_years PRAEGENDE_JUGENDJAHRE_Value_1_war_years
feature_infos=[-1:3] [-2:9] [2:18] [5:18] none none [-2:25] [0:353] [0:20] [0:6] [0:24] [-2:9] [-2:7] [-2:9] [-2:6] [-2:5] [-2:5] [-2:5] [-2:5] [-2:5] [-2:5] [-2:5] [0:6] [0:6] [0:7] [0:6] [0:7] [-2:10] [0:7] [0:7] [0:7] [0:7] [0:7] [0:7] [0:7] [0:7] [0:7] [0:7] [0:7] [0:6] [0:6] [-2:10] [0:7] [0:7] [0:7] [-2:9] [1:9] [0:7] [0:7] [-2:7] [0:7] [0:7] [0:7] [0:7] [0:7] [0:7] [-2:5] [0:7] [0:5] [0:5] [0:7] [-2:10] [0:7] [0:7] [0:6] [0:6] [-2:10] [0:7] [0:5] [0:6] [1:10] [1:10] none [-2:10] [0:7] [0:7] [0:7] [-1:3.30078125] [-2:6] [1:56] [1:5] [1:5] [1:5] [1:5] [1:5] [1:5] [1:6] [-2:5] [-2:8] [-2:5] [0:11.300000000000001] [11:50] [1:12] [0:1] [-1:3] [-2:1] [-2:6] [-2:8] [-2:4] [-2:5] [-2:5] [-2:5] [-2:3] [-2:4] [-2:4] [-2:3] [-2:2] [-2:5] [-2:5] [-2:5] [-2:5] [-2:5] [-2:4] [-2:4] [-2:5] [-2:5] [-2:5] [-2:5] [-2:5] [-2:5] [-2:5] [-2:5] [-2:5] [-2:5] [-2:3] [-2:3] [-2:3] [-2:5] [-2:5] [-2:4] [-2:5] [-2:4] [-2:5] [-2:4] [-2:3] [-2:4] [-2:5] [-2:5] [-2:5] [-2:3] [-2:6] [-2:4] [-2:3] [-2:3] [-2:4] [-2:5] [-2:5] [-2:5] [-2:4] [-2:1] [-2:3] [-2:3] [-2:3] [-2:5] [-2:5] [-2:5] [-2:5] [-2:5] [-2:5] [-2:5] [-2:4] [-2:4] [-2:3] [-2:2] [0:2300] [-2:5] [-2:5] [-2:5] [-2:5] [-2:5] [-2:5] [-2:5] [-2:5] [-2:5] [-2:5] [-2:5] [-2:5] [-2:5] [-2:5] [-2:5] [-2:5] [-2:5] [-2:5] [-2:5] [-2:5] [-2:5] [-2:5] [-2:5] [-2:5] [-2:5] [-2:5] [-2:5] [-2:5] [-2:5] [-2:5] [-2:5] [-2:5] [-2:5] [-2:5] [-2:5] [-2:5] [-2:5] [-2:5] [-2:5] [-2:5] [-2:5] [-2:5] [-2:5] [-2:5] [-2:5] [-2:5] [-2:5] [-2:3] [-2:5] [-2:5] [-2:5] [-2:5] [-2:5] [-2:3] [-2:5] [-2:5] [-2:5] [-2:5] [-2:3] [-2:3] [-2:3] [-2:3] [-2:5] [-2:5] [-2:5] [-2:5] [-2:3] [-2:5] [-2:5] [-2:5] [-2:5] [-2:5] [-2:5] [-2:5] [-2:5] [-2:5] [-2:4] [-2:5] [-2:5] [-2:5] [-2:5] [-2:5] [-2:5] [-2:5] [-2:5] [-2:5] [-2:5] [-2:5] [-2:5] [-2:5] [-2:5] [-2:5] [-2:5] [-2:5] [-2:5] [-2:5] [-2:5] [-2:5] [-2:5] [-2:5] [-2:5] [-2:5] [-2:5] [-2:5] [-2:5] [-2:6] [-2:4] [1:9] [-2:7] [-2:1] [-1:3.099609375] [-2:6] [-2:6] [-1:3] [-2:5] [-2:9] [-2:2] [-2:4] [-2:4] [-2:3] [-2:2] [-2:5] [-2:7] [-2:5] [-2:5] [-2:5] [-2:5] [-2:5] [1:7] [1:7] [1:7] [1:7] [1:7] [1:7] [1:7] [1:7] [1:7] [1:7] [1:7] [1:7] [1:7] [1:7] [-1:3] [-2:1] [-2:3] [-2:5] [-2:5] [-2:5] [-2:1] [0:45] [-1:2] [-2:5] [-2:4] [1:11] [1:13] [1:11] [-2:6] [-2:9] [-2:8] [1:6] [1:2] [1:9] [0:10.1015625] [-2:5] [-2:5] [0:5] [0:5] [0:5] [0:5] [0:5] [0:5] [0:5] [0:5] [0:5] [0:5] [0:5] [0:5] [0:5] [0:5] [0:5] [0:5] [0:5] none [0:5] [0:5] [0:5] [0:5] [0:5] [0:5] [-2:3] [-2:8] [-2:3] [-2:4] [-2:5] [-2:7] none [-2:3] [-2:4] [-2:7] [-2:8] [-2:2] [-1:6] [-1:2] [-1:3] [1:31] [2:365] [-2:6] [28:31] [0:1] none none none none none [0:3] [-2.2083146064174635:14.259193305521343] [-5.2266586160317701:6.1135041603235534] [-6.3144945203165612:6.0770542173820825] [-2.616796517584147:8.1530105039188836] [-3.0540729225044014:7.3736377913611442] [-1.5481024585681533:5.7935991918011727] [-1.8367647932651929:3.5991429413803937] [-3.1529604240351721:3.0947390738493477] [-0.98093477921175021:0.9713992095496804] [-0.98049511908664311:1.7887197137894397] [-1.6232912618877773:1.7401795814018106] [-1.5320520748853079:2.4835398028808431] [-1.2020469363457102:1.1916233369037497] [-0.90516040822178256:3.9969032047591613] [-1.4306446823096799:1.4613847047569262] [-1.0406915982371046:1.8634039434443368] [-2.7853555493882616:2.8486835363082426] [-1.2829023721743935:1.2229279825376977] [-1.4705490182854528:1.9169812592173574] [-1.2114417118988876:1.7305862506292544] [0:1] none none [0:1] none [0:1] [0:1] [0:1] [0:1] none [0:1] [0:1] [0:1] [0:1] [0:1] [0:1] [0:1] none [0:1] [0:1] [0:1] [0:1] none none none [0:1] [0:1] [0:1] [0:1] [0:1] [0:1] [0:1] none none [0:1] [0:1] [0:1] [0:1] [0:1] [0:1] [0:1] [0:1] [0:1] [0:1] none [0:1] [0:1] none none [0:1] [0:1] none none [0:1] none [0:1] [0:1] [0:1] none none [0:1] none none [0:1] none [0:1] none none [0:1] [0:1] [0:1] [0:1] [0:1] [0:1] none [0:1] [0:1] [0:1] [0:1] none none [0:1] none [0:1] [0:1] [0:1] [0:1] [0:1] [0:1] [0:1] [0:1] [0:1] [0:1]
tree_sizes=726 750 751 752 753 751 751 751 751 753 751 750 755 754 755 757 750 753 753 756 757 755 756 757 757 758 757 759 759 753 756 758 754 756 757 754 753 757 754 757 752 759 759 756 759 759 759 757 757 756 759 672 754 677 758 672 671 753 676 755

Tree=0
num_leaves=8
num_cat=0
split_feature=56 56 8 383 388 173 301
split_gain=140215 175529 43039.4 10693.3 10018.5 9676.37 6515.14
threshold=1.5000000000000002 1.0000000180025095e-35 1.0000000180025095e-35 -1.8202881172513108 0.29295353982342714 1.5000000000000002 6.5000000000000009
decision_type=2 2 8 2 2 2 2
left_child=1 2 -1 -3 5 -2 -6
right_child=4 3 -4 -5 6 -7 -8
leaf_value=-4.3741195447475913 -4.3758328530498805 -4.3766199571416573 -4.3686982009542135 -4.3640553519502152 -4.3754018210413257 -4.3707583714493206 -4.3682999900905397
leaf_count=7733 1586 237 6241 8671 6054 4039 238
internal_value=0 46.5714 25.9396 59.4365 15.2055 22.2207 7.33867
internal_count=34799 22882 13974 8908 11917 5625 6292
shrinkage=1


Tree=1
num_leaves=8
num_cat=0
split_feature=56 56 8 383 388 173 301
split_gain=137309 170841 42379.9 10437.4 9924.25 9570.55 6446.36
threshold=1.5000000000000002 1.0000000180025095e-35 1.0000000180025095e-35 -1.8202881172513108 0.29295353982342714 1.5000000000000002 6.5000000000000009
decision_type=2 2 8 2 2 2 2
left_child=1 2 -1 -3 5 -2 -6
right_child=4 3 -4 -5 6 -7 -8
leaf_value=0.0023012933824580893 0.00059317577745564721 -0.00019346142052172359 0.0076687294980756762 0.01222031642100955 0.001023438133189683 0.0056357613866761646 0.0080619728645171806
leaf_count=7733 1586 237 6241 8671 6054 4039 238
internal_value=0 46.1267 25.7991 58.7169 15.156 22.1169 7.3264
internal_count=34799 22882 13974 8908 11917 5625 6292
shrinkage=0.000206632


Tree=2
num_leaves=8
num_cat=0
split_feature=56 56 8 383 388 173 301
split_gain=134487 166323 41734.4 10190.6 9831.22 9466.4 6378.72
threshold=1.5000000000000002 1.0000000180025095e-35 1.0000000180025095e-35 -1.8202881172513108 0.29295353982342714 1.5000000000000002 6.5000000000000009
decision_type=2 2 8 2 2 2 2
left_child=1 2 -1 -3 5 -2 -6
right_child=4 3 -4 -5 6 -7 -8
leaf_value=0.0022956661098030859 0.00059271288941251425 -0.00019345808010733063 0.0076100793479552337 0.01207315100784334 0.001022207643393585 0.0056037668286855104 0.0079984528890480622
leaf_count=7733 1586 237 6241 8671 6054 4039 238
internal_value=0 45.6905 25.6601 58.0147 15.1068 22.0142 7.31417
internal_count=34799 22882 13974 8908 11917 5625 6292
shrinkage=0.000206632


Tree=3
num_leaves=8
num_cat=0
split_feature=56 56 8 383 388 173 301
split_gain=131744 161969 41102.7 9952.59 9739.4 9363.89 6312.21
threshold=1.5000000000000002 1.0000000180025095e-35 1.0000000180025095e-35 -1.8202881172513108 0.29295353982342714 1.5000000000000002 6.5000000000000009
decision_type=2 2 8 2 2 2 2
left_child=1 2 -1 -3 5 -2 -6
right_child=4 3 -4 -5 6 -7 -8
leaf_value=0.0022900652873511385 0.00059225059586500708 -0.00019345473944365582 0.0075523190973405471 0.011929512132525003 0.0010209799772790049 0.005572131951225889 0.0079359180999669619
leaf_count=7733 1586 237 6241 8671 6054 4039 238
internal_value=0 45.2625 25.5225 57.3293 15.0579 21.9124 7.30198
internal_count=34799 22882 13974 8908 11917 5625 6292
shrinkage=0.000206632


Tree=4
num_leaves=8
num_cat=0
split_feature=56 56 8 383 388 173 301
split_gain=129080 157770 40484.3 9722.9 9648.77 9262.99 6246.78
threshold=1.5000000000000002 1.0000000180025095e-35 1.0000000180025095e-35 -1.8202881172513108 0.29295353982342714 1.5000000000000002 6.5000000000000009
decision_type=2 2 8 2 2 2 2
left_child=1 2 -1 -3 5 -2 -6
right_child=4 3 -4 -5 6 -7 -8
leaf_value=0.0022844908696819364 0.00059178894953458583 -0.00019345139756794872 0.0074954303798650665 0.011789275547481475 0.0010197549411695382 0.0055408501370813245 0.0078743454758561388
leaf_count=7733 1586 237 6241 8671 6054 4039 238
internal_value=0 44.8426 25.3864 56.6599 15.0093 21.8115 7.28983
internal_count=34799 22882 13974 8908 11917 5625 6292
shrinkage=0.000206632


Tree=5
num_leaves=8
num_cat=0
split_feature=56 56 8 388 383 173 301
split_gain=126490 153719 39878.8 9559.3 9501.15 9163.65 6182.43
threshold=1.5000000000000002 1.0000000180025095e-35 1.0000000180025095e-35 0.29295353982342714 -1.8202881172513108 1.5000000000000002 6.5000000000000009
decision_type=2 2 8 2 2 2 2
left_child=1 2 -1 5 -3 -2 -5
right_child=3 4 -4 6 -6 -7 -8
leaf_value=0.0022789429482591057 0.00059132793771172793 -0.00019344804033813678 0.0074393920022162155 0.0010185325805823523 0.011652318152783264 0.005509916244511648 0.0078137146863544466
leaf_count=7733 1586 237 6241 6054 8671 4039 238
internal_value=0 44.4304 25.2518 14.961 56.0061 21.7115 7.27771
internal_count=34799 22882 13974 11917 8908 5625 6292
shrinkage=0.000206632


Tree=6
num_leaves=8
num_cat=0
split_feature=56 56 8 388 383 173 301
split_gain=123972 149810 39285.9 9470.99 9286.98 9065.86 6119.11
threshold=1.5000000000000002 1.0000000180025095e-35 1.0000000180025095e-35 0.29295353982342714 -1.8202881172513108 1.5000000000000002 6.5000000000000009
decision_type=2 2 8 2 2 2 2
left_child=1 2 -1 5 -3 -2 -5
right_child=3 4 -4 6 -6 -7 -8
leaf_value=0.0022734208019332082 0.00059086752813818869 -0.00019344469699825048 0.0073841856604996686 0.0010173130211879734 0.011518529820470648 0.00547932337754137 0.0077540029128166229
leaf_count=7733 1586 237 6241 6054 8671 4039 238
internal_value=0 44.0257 25.1186 14.913 55.3673 21.6124 7.26564
internal_count=34799 22882 13974 11917 8908 5625 6292
shrinkage=0.000206632


Tree=7
num_leaves=8
num_cat=0
split_feature=56 56 8 388 383 173 301
split_gain=121523 146037 38705.3 9383.8 9080.05 8969.56 6056.82
threshold=1.5000000000000002 1.0000000180025095e-35 1.0000000180025095e-35 0.29295353982342714 -1.8202881172513108 1.5000000000000002 6.5000000000000009
decision_type=2 2 8 2 2 2 2
left_child=1 2 -1 5 -3 -2 -5
right_child=3 4 -4 6 -6 -7 -8
leaf_value=0.0022679245537893401 0.00059040775057942656 -0.00019344136755585002 0.0073297928446369783 0.0010160961510352732 0.011387798386214678 0.0054490663694040098 0.0076951900336729127
leaf_count=7733 1586 237 6241 6054 8671 4039 238
internal_value=0 43.6285 24.9868 14.8653 54.743 21.5143 7.2536
internal_count=34799 22882 13974 11917 8908 5625 6292
shrinkage=0.000206632


Tree=8
num_leaves=8
num_cat=0
split_feature=56 56 8 388 383 173 301
split_gain=119141 142393 38136.7 9297.72 8880.04 8874.75 5995.52
threshold=1.5000000000000002 1.0000000180025095e-35 1.0000000180025095e-35 0.29295353982342714 -1.8202881172513108 1.5000000000000002 6.5000000000000009
decision_type=2 2 8 2 2 2 2
left_child=1 2 -1 5 -3 -2 -5
right_child=3 4 -4 6 -6 -7 -8
leaf_value=0.0022624541922132489 0.00058994861512197264 -0.00019343800860834569 0.0072761951495981638 0.0010148819568235098 0.011260022435947096 0.0054191402144352346 0.0076372559985631444
leaf_count=7733 1586 237 6241 6054 8671 4039 238
internal_value=0 43.2383 24.8563 14.818 54.1328 21.417 7.2416
internal_count=34799 22882 13974 11917 8908 5625 6292
shrinkage=0.000206632


Tree=9
num_leaves=8
num_cat=0
split_feature=56 56 8 388 173 383 301
split_gain=116824 138873 37579.7 9212.74 8781.38 8686.63 5935.2
threshold=1.5000000000000002 1.0000000180025095e-35 1.0000000180025095e-35 0.29295353982342714 1.5000000000000002 -1.8202881172513108 6.5000000000000009
decision_type=2 2 8 2 2 2 2
left_child=1 2 -1 4 -2 -3 -5
right_child=3 5 -4 6 -6 -7 -8
leaf_value=0.0022570089611962342 0.00058949012386895288 -0.00019343467770938184 0.0072233769131094996 0.0010136704243854577 0.0053895390605825759 0.011135102740099288 0.0075801809848734447
leaf_count=7733 1586 237 6241 6054 4039 8671 238
internal_value=0 42.8551 24.7272 14.7709 21.3206 53.5361 7.22964
internal_count=34799 22882 13974 11917 5625 8908 6292
shrinkage=0.000206632


Tree=10
num_leaves=8
num_cat=0
split_feature=56 56 8 388 173 383 301
split_gain=114570 135472 37034 9128.83 8689.43 8499.54 5875.83
threshold=1.5000000000000002 1.0000000180025095e-35 1.0000000180025095e-35 0.29295353982342714 1.5000000000000002 -1.8202881172513108 6.5000000000000009
decision_type=2 2 8 2 2 2 2
left_child=1 2 -1 4 -2 -3 -5
right_child=3 5 -4 6 -6 -7 -8
leaf_value=0.0022515893006020923 0.00058903221691417398 -0.0001934313314485669 0.0071713192676058548 0.0010124614479422925 0.0053602578248764486 0.011012942669323298 0.0075239464609875963
leaf_count=7733 1586 237 6241 6054 4039 8671 238
internal_value=0 42.4788 24.5995 14.7241 21.225 52.9525 7.21771
internal_count=34799 22882 13974 11917 5625 8908 6292
shrinkage=0.000206632


Tree=11
num_leaves=8
num_cat=0
split_feature=56 56 8 388 173 383 301
split_gain=112375 132184 36499.3 9045.98 8598.87 8318.5 5817.4
threshold=1.5000000000000002 1.0000000180025095e-35 1.0000000180025095e-35 0.29295353982342714 1.5000000000000002 -1.8202881172513108 6.5000000000000009
decision_type=2 2 8 2 2 2 2
left_child=1 2 -1 4 -2 -3 -5
right_child=3 5 -4 6 -6 -7 -8
leaf_value=0.0022461948038025909 0.00058857490791697535 -0.00019342798493990045 0.0071200071952652244 0.0010112552283854138 0.005331290879088243 0.010893452861126394 0.0074685349772788184
leaf_count=7733 1586 237 6241 6054 4039 8671 238
internal_value=0 42.109 24.473 14.6776 21.1303 52.3815 7.20583
internal_count=34799 22882 13974 11917 5625 8908 6292
shrinkage=0.000206632


Tree=12
num_leaves=8
num_cat=0
split_feature=56 56 8 388 173 383 301
split_gain=110239 129005 35975.4 8964.17 8509.67 8143.24 5759.87
threshold=1.5000000000000002 1.0000000180025095e-35 1.0000000180025095e-35 0.29295353982342714 1.5000000000000002 -1.8202881172513108 6.5000000000000009
decision_type=2 2 8 2 2 2 2
left_child=1 2 -1 4 -2 -3 -5
right_child=3 5 -4 6 -6 -7 -8
leaf_value=0.0022408250290445958 0.00058811827975651678 -0.00019342463721727768 0.0070694238892925363 0.0010100516500094739 0.0053026337013540063 0.010776545702727201 0.0074139267508420556
leaf_count=7733 1586 237 6241 6054 4039 8671 238
internal_value=0 41.7456 24.3478 14.6314 21.0364 51.8229 7.19398
internal_count=34799 22882 13974 11917 5625 8908 6292
shrinkage=0.000206632


Tree=13
num_leaves=8
num_cat=0
split_feature=56 56 8 388 173 383 301
split_gain=108159 125930 35461.9 8883.39 8421.81 7973.53 5703.23
threshold=1.5000000000000002 1.0000000180025095e-35 1.0000000180025095e-35 0.29295353982342714 1.5000000000000002 -1.8202881172513108 6.5000000000000009
decision_type=2 2 8 2 2 2 2
left_child=1 2 -1 4 -2 -3 -5
right_child=3 5 -4 6 -6 -7 -8
leaf_value=0.0022354802928469951 0.00058766221587844172 -0.00019342128924716329 0.0070195551566317356 0.001008850698777261 0.0052742813802308785 0.010662139224127846 0.0073601060287503588
leaf_count=7733 1586 237 6241 6054 4039 8671 238
internal_value=0 41.3885 24.2239 14.5855 20.9434 51.2761 7.18216
internal_count=34799 22882 13974 11917 5625 8908 6292
shrinkage=0.000206632


Tree=14
num_leaves=8
num_cat=0
split_feature=56 56 8 388 173 383 301
split_gain=106133 122955 34958.6 8803.61 8335.25 7809.13 5647.47
threshold=1.5000000000000002 1.0000000180025095e-35 1.0000000180025095e-35 0.29295353982342714 1.5000000000000002 -1.8202881172513108 6.5000000000000009
decision_type=2 2 8 2 2 2 2
left_child=1 2 -1 4 -2 -3 -5
right_child=3 5 -4 6 -6 -7 -8
leaf_value=0.0022301602020030607 0.00058720676282335369 -0.00019341794006261223 0.0069703847801059786 0.0010076523859011513 0.0052462290360733108 0.010550153063969126 0.0073070549610133846
leaf_count=7733 1586 237 6241 6054 4039 8671 238
internal_value=0 41.0374 24.1013 14.5398 20.8511 50.7408 7.17039
internal_count=34799 22882 13974 11917 5625 8908 6292
shrinkage=0.000206632


Tree=15
num_leaves=8
num_cat=0
split_feature=56 56 8 388 173 383 225
split_gain=104160 120076 34465.2 8724.82 8249.98 7649.82 5467.79
threshold=1.5000000000000002 1.0000000180025095e-35 1.0000000180025095e-35 0.29295353982342714 1.5000000000000002 -1.8202881172513108 1.5000000000000002
decision_type=2 2 8 2 2 2 2
left_child=1 2 -1 4 -2 -3 -5
right_child=3 5 -4 6 -6 -7 -8
leaf_value=0.0022248643957696497 0.00058675197364367008 -0.00019341459063093027 0.0069218981955723891 0.0043104518316035298 0.0052184711632767824 0.010440511454731445 0.00053890226986888902
leaf_count=7733 1586 237 6241 1256 4039 8671 5036
internal_value=0 40.6924 23.9799 14.4945 20.7597 50.2166 7.15865
internal_count=34799 22882 13974 11917 5625 8908 6292
shrinkage=0.000206632


Tree=16
num_leaves=8
num_cat=0
split_feature=56 56 195 388 173 383 301
split_gain=102238 117289 32533 8647.09 8165.97 7495.39 5579.72
threshold=1.5000000000000002 1.0000000180025095e-35 1.5000000000000002 0.29295353982342714 1.5000000000000002 -1.8202881172513108 6.5000000000000009
decision_type=2 2 2 2 2 2 2
left_child=1 2 -1 4 -2 -3 -5
right_child=3 5 -4 6 -6 -7 -8
leaf_value=0.0067633787712108968 0.00058629777469554833 -0.00019341123998433145 0.0021783907961707392 0.0010047672464209756 0.0051910039869375113 0.010333142364772376 0.0072397744242409783
leaf_count=6597 1586 237 7377 6054 4039 8671 238
internal_value=0 40.3531 23.8597 14.4493 20.6691 49.7033 7.1469
internal_count=34799 22882 13974 11917 5625 8908 6292
shrinkage=0.000206632


Tree=17
num_leaves=8
num_cat=0
split_feature=56 56 195 388 173 383 301
split_gain=100365 114590 32083.6 8570.24 8083.19 7345.64 5525.87
threshold=1.5000000000000002 1.0000000180025095e-35 1.5000000000000002 0.29295353982342714 1.5000000000000002 -1.8202881172513108 6.5000000000000009
decision_type=2 2 2 2 2 2 2
left_child=1 2 -1 4 -2 -3 -5
right_child=3 5 -4 6 -6 -7 -8
leaf_value=0.0067176915549517118 0.00058584415184033498 -0.00019340788909096338 0.0021733289400359206 0.0010035779068136663 0.0051638228798542669 0.010227974147369723 0.0071884254364062974
leaf_count=6597 1586 237 7377 6054 4039 8671 238
internal_value=0 40.0194 23.7407 14.4045 20.5792 49.2004 7.13523
internal_count=34799 22882 13974 11917 5625 8908 6292
shrinkage=0.000206632


Tree=18
num_leaves=8
num_cat=0
split_feature=56 56 8 388 173 383 301
split_gain=98538.7 111975 33150.2 8494.33 8001.61 7200.39 5472.83
threshold=1.5000000000000002 1.0000000180025095e-35 1.0000000180025095e-35 0.29295353982342714 1.5000000000000002 -1.8202881172513108 6.5000000000000009
decision_type=2 2 8 2 2 2 2
left_child=1 2 -1 4 -2 -3 -5
right_child=3 5 -4 6 -6 -7 -8
leaf_value=0.0022068841953201196 0.00058539123638252054 -0.00019340453698219842 0.0067850044137900134 0.0010023911327793668 0.0051369234932860785 0.010124940425162807 0.0071377955567437455
leaf_count=7733 1586 237 6241 6054 4039 8671 238
internal_value=0 39.6913 23.6228 14.36 20.4901 48.7077 7.1236
internal_count=34799 22882 13974 11917 5625 8908 6292
shrinkage=0.000206632


Tree=19
num_leaves=8
num_cat=0
split_feature=56 56 8 388 173 383 301
split_gain=96758.7 109442 32692.6 8419.35 7921.23 7059.46 5420.59
threshold=1.5000000000000002 1.0000000180025095e-35 1.0000000180025095e-35 0.29295353982342714 1.5000000000000002 -1.8202881172513108 6.5000000000000009
decision_type=2 2 8 2 2 2 2
left_child=1 2 -1 4 -2 -3 -5
right_child=3 5 -4 6 -6 -7 -8
leaf_value=0.0022016947311912041 0.00058493886027161514 -0.00019340119880095386 0.0067390544163677037 0.0010012068568285399 0.0051103006356410935 0.010023977125235119 0.0070878686764300203
leaf_count=7733 1586 237 6241 6054 4039 8671 238
internal_value=0 39.3686 23.5062 14.3157 20.4018 48.2248 7.11201
internal_count=34799 22882 13974 11917 5625 8908 6292
shrinkage=0.000206632


Tree=20
num_leaves=8
num_cat=0
split_feature=56 56 8 388 173 383 225
split_gain=95023.2 106987 32243.7 8345.28 7842.01 6922.67 5389.42
threshold=1.5000000000000002 1.0000000180025095e-35 1.0000000180025095e-35 0.29295353982342714 1.5000000000000002 -1.8202881172513108 1.5000000000000002
decision_type=2 2 8 2 2 2 2
left_child=1 2 -1 4 -2 -3 -5
right_child=3 5 -4 6 -6 -7 -8
leaf_value=0.0021965289837284031 0.00058448712937917932 -0.0001933978452322302 0.0066937225021566713 0.0042607607093967468 0.0050839511020672667 0.0099250208100918284 0.00053454074534716605
leaf_count=7733 1586 237 6241 1256 4039 8671 5036
internal_value=0 39.051 23.3907 14.2718 20.3142 47.7514 7.10045
internal_count=34799 22882 13974 11917 5625 8908 6292
shrinkage=0.000206632


Tree=21
num_leaves=8
num_cat=0
split_feature=56 56 8 388 173 383 301
split_gain=93331.2 104607 31803.4 8272.19 7763.93 6789.86 5356.88
threshold=1.5000000000000002 1.0000000180025095e-35 1.0000000180025095e-35 0.29295353982342714 1.5000000000000002 -1.8202881172513108 6.5000000000000009
decision_type=2 2 8 2 2 2 2
left_child=1 2 -1 4 -2 -3 -5
right_child=3 5 -4 6 -6 -7 -8
leaf_value=0.0021913864738280888 0.00058403595350490307 -0.00019339449141746301 0.00664899627516674 0.00099835978519481616 0.0050578699301861291 0.0098280136673379245 0.0070242225497062147
leaf_count=7733 1586 237 6241 6054 4039 8671 238
internal_value=0 38.7386 23.2763 14.228 20.2274 47.2873 7.08888
internal_count=34799 22882 13974 11917 5625 8908 6292
shrinkage=0.000206632


Tree=22
num_leaves=8
num_cat=0
split_feature=56 56 8 388 173 383 225
split_gain=91680.4 102299 31371.4 8199.92 7686.97 6660.89 5344.11
threshold=1.5000000000000002 1.0000000180025095e-35 1.0000000180025095e-35 0.29295353982342714 1.5000000000000002 -1.8202881172513108 1.5000000000000002
decision_type=2 2 8 2 2 2 2
left_child=1 2 -1 4 -2 -3 -5
right_child=3 5 -4 6 -6 -7 -8
leaf_value=0.0021862672654092163 0.00058358540574627899 -0.00019339115153815855 0.006604864306920373 0.0042347404818923202 0.0050320533729447661 0.0097328987843596036 0.00053317003258754835
leaf_count=7733 1586 237 6241 1256 4039 8671 5036
internal_value=0 38.4312 23.163 14.1845 20.1413 46.8323 7.0774
internal_count=34799 22882 13974 11917 5625 8908 6292
shrinkage=0.000206632


Tree=23
num_leaves=8
num_cat=0
split_feature=56 56 8 77 169 385 390
split_gain=90070.4 100060 30947.6 8144.56 8041.04 7815.89 5012.84
threshold=1.5000000000000002 1.0000000180025095e-35 1.0000000180025095e-35 1.2500000000000002 3.5000000000000004 -0.40446684679860151 0.30802901983357517
decision_type=2 2 8 2 2 2 2
left_child=1 2 -1 5 -5 -2 -3
right_child=3 6 -4 4 -6 -7 -8
leaf_value=0.0021811711263770598 0.0094996382087320294 0.0098076803989666245 0.0065613141913853472 0.0050896030364494657 -0.00020611860172764615 0.0011843493157017793 0.0076584796756536174
leaf_count=7733 139 7477 6241 4040 1107 6631 1431
internal_value=0 38.1287 23.0508 14.1413 20.7531 7.79759 46.3859
internal_count=34799 22882 13974 11917 5147 6770 8908
shrinkage=0.000206632


Tree=24
num_leaves=8
num_cat=0
split_feature=56 56 8 388 173 383 225
split_gain=88499.6 97889.1 30531.7 8094.97 7578.85 6474.82 5295.24
threshold=1.5000000000000002 1.0000000180025095e-35 1.0000000180025095e-35 0.29295353982342714 1.5000000000000002 -1.8202881172513108 1.5000000000000002
decision_type=2 2 8 2 2 2 2
left_child=1 2 -1 4 -2 -3 -5
right_child=3 5 -4 6 -6 -7 -8
leaf_value=0.0021760977700095714 0.00058122079115569317 -0.00019355095694294444 0.0065183337073330058 0.004204889143760401 0.0049894812364419949 0.009548650725180928 0.00053094340302114248
leaf_count=7733 1586 237 6241 1256 4039 8671 5036
internal_value=0 37.831 22.9397 14.0983 19.9906 45.9481 7.04556
internal_count=34799 22882 13974 11917 5625 8908 6292
shrinkage=0.000206632


Tree=25
num_leaves=8
num_cat=0
split_feature=56 56 8 77 169 385 383
split_gain=86966.6 95781.5 30123.6 8036.31 7936.12 7697.62 6355.36
threshold=1.5000000000000002 1.0000000180025095e-35 1.0000000180025095e-35 1.2500000000000002 3.5000000000000004 -0.40446684679860151 -1.8202881172513108
decision_type=2 2 8 2 2 2 2
left_child=1 2 -1 5 -5 -2 -3
right_child=3 6 -4 4 -6 -7 -8
leaf_value=0.0021710473651764136 0.0093838792484033651 -0.00019354763306878727 0.0064759135908219372 0.0050462978583259805 -0.00020613368316298387 0.001179283641073974 0.0094588798988684136
leaf_count=7733 139 237 6241 4040 1107 6631 8671
internal_value=0 37.5378 22.8296 14.0556 20.5941 7.76177 45.5185
internal_count=34799 22882 13974 11917 5147 6770 8908
shrinkage=0.000206632


Tree=26
num_leaves=8
num_cat=0
split_feature=56 56 8 388 173 383 301
split_gain=85470.2 93735.8 29723 7992.02 7473.04 6239.21 5247.89
threshold=1.5000000000000002 1.0000000180025095e-35 1.0000000180025095e-35 0.29295353982342714 1.5000000000000002 -1.8202881172513108 6.5000000000000009
decision_type=2 2 8 2 2 2 2
left_child=1 2 -1 4 -2 -3 -5
right_child=3 5 -4 6 -6 -7 -8
leaf_value=0.0021660196242461981 0.00057887646472868097 -0.00019354428474975744 0.0064340418087115714 0.00098795558631905147 0.0049475914135206842 0.0093707932683008022 0.0069045242807418859
leaf_count=7733 1586 237 6241 6054 4039 8671 238
internal_value=0 37.2492 22.7206 14.0131 19.8421 45.0969 7.01402
internal_count=34799 22882 13974 11917 5625 8908 6292
shrinkage=0.000206632


Tree=27
num_leaves=8
num_cat=0
split_feature=56 56 8 77 169 385 383
split_gain=84009.1 91749.6 29329.9 7930.89 7832.64 7579.66 6126.26
threshold=1.5000000000000002 1.0000000180025095e-35 1.0000000180025095e-35 1.2500000000000002 3.5000000000000004 -0.40446684679860151 -1.8202881172513108
decision_type=2 2 8 2 2 2 2
left_child=1 2 -1 5 -5 -2 -3
right_child=3 6 -4 4 -6 -7 -8
leaf_value=0.0021610142572647739 0.0092684441302463942 -0.00019354095024453992 0.0063927075412331478 0.0050037092787898006 -0.00020614807680179148 0.0011742594186481506 0.0092843432821539448
leaf_count=7733 139 237 6241 4040 1107 6631 8671
internal_value=0 36.9651 22.6126 13.9709 20.4378 7.72616 44.6832
internal_count=34799 22882 13974 11917 5147 6770 8908
shrinkage=0.000206632


Tree=28
num_leaves=8
num_cat=0
split_feature=56 56 8 388 173 383 225
split_gain=82582.8 89820.8 28943.9 7890.95 7369.48 6016.39 5222.84
threshold=1.5000000000000002 1.0000000180025095e-35 1.0000000180025095e-35 0.29295353982342714 1.5000000000000002 -1.8202881172513108 1.5000000000000002
decision_type=2 2 8 2 2 2 2
left_child=1 2 -1 4 -2 -3 -5
right_child=3 5 -4 6 -6 -7 -8
leaf_value=0.0021560311808748564 0.00057655203245427617 -0.00019353762702363389 0.0063519011407975959 0.0041566788467715336 0.0049063687303736291 0.0091994871509694428 0.00052596484215257388
leaf_count=7733 1586 237 6241 1256 4039 8671 5036
internal_value=0 36.6852 22.5057 13.929 19.6957 44.2769 6.98282
internal_count=34799 22882 13974 11917 5625 8908 6292
shrinkage=0.000206632


Tree=29
num_leaves=8
num_cat=0
split_feature=56 56 8 77 169 385 383
split_gain=81190.1 87947.2 28565 7826.81 7732.04 7467.1 5909.49
threshold=1.5000000000000002 1.0000000180025095e-35 1.0000000180025095e-35 1.2500000000000002 3.5000000000000004 -0.40446684679860151 -1.8202881172513108
decision_type=2 2 8 2 2 2 2
left_child=1 2 -1 5 -5 -2 -3
right_child=3 6 -4 4 -6 -7 -8
leaf_value=0.0021510702763386813 0.0091578867716670051 -0.00019353428851447637 0.00631161188443005 0.0049617817276384046 -0.00020616300209680611 0.0011692853776836324 0.009116179216926085
leaf_count=7733 139 237 6241 4040 1107 6631 8671
internal_value=0 36.4096 22.3997 13.8873 20.2834 7.69102 43.8781
internal_count=34799 22882 13974 11917 5147 6770 8908
shrinkage=0.000206632


Tree=30
num_leaves=8
num_cat=0
split_feature=56 56 8 388 173 383 225
split_gain=79829.8 86126.9 28193 7791.85 7268.11 5805.44 5175.88
threshold=1.5000000000000002 1.0000000180025095e-35 1.0000000180025095e-35 0.29295353982342714 1.5000000000000002 -1.8202881172513108 1.5000000000000002
decision_type=2 2 8 2 2 2 2
left_child=1 2 -1 4 -2 -3 -5
right_child=3 5 -4 6 -6 -7 -8
leaf_value=0.0021461314706128051 0.00057424731067421179 -0.00019353096145367053 0.0062718308517102439 0.00412789907248851 0.0048657966529060204 0.0090343769069303748 0.00052379709637439468
leaf_count=7733 1586 237 6241 1256 4039 8671 5036
internal_value=0 36.1382 22.2948 13.8458 19.5513 43.4865 6.95187
internal_count=34799 22882 13974 11917 5625 8908 6292
shrinkage=0.000206632


Tree=31
num_leaves=8
num_cat=0
split_feature=56 56 8 388 173 383 225
split_gain=78501.1 84358 27827.7 7725.77 7198.53 5704.15 5143.32
threshold=1.5000000000000002 1.0000000180025095e-35 1.0000000180025095e-35 0.29295353982342714 1.5000000000000002 -1.8202881172513108 1.5000000000000002
decision_type=2 2 8 2 2 2 2
left_child=1 2 -1 4 -2 -3 -5
right_child=3 5 -4 6 -6 -7 -8
leaf_value=0.0021412144007923535 0.00057380987516825286 -0.00019352762147614285 0.0062325479518699619 0.0041105852989616956 0.0048418878181611096 0.0089540411556101908 0.00052342235866680855
leaf_count=7733 1586 237 6241 1256 4039 8671 5036
internal_value=0 35.8707 22.1908 13.8046 19.4708 43.1018 6.94076
internal_count=34799 22882 13974 11917 5625 8908 6292
shrinkage=0.000206632


Tree=32
num_leaves=8
num_cat=0
split_feature=56 56 8 77 169 385 383
split_gain=77202.9 82638.5 27469 7691.9 7605.18 7334.64 5605.53
threshold=1.5000000000000002 1.0000000180025095e-35 1.0000000180025095e-35 1.2500000000000002 3.5000000000000004 -0.40446684679860151 -1.8202881172513108
decision_type=2 2 8 2 2 2 2
left_child=1 2 -1 5 -5 -2 -3
right_child=3 6 -4 4 -6 -7 -8
leaf_value=0.0021363193083224871 0.0090230477574928594 -0.0001935242711143316 0.0061937542529343411 0.0049042343640265393 -0.00020619391884126685 0.0011610139902181924 0.0088751323969707054
leaf_count=7733 139 237 6241 4040 1107 6631 8671
internal_value=0 35.6073 22.0878 13.7636 20.0661 7.6349 42.7239
internal_count=34799 22882 13974 11917 5147 6770 8908
shrinkage=0.000206632


Tree=33
num_leaves=8
num_cat=0
split_feature=56 56 8 388 173 383 301
split_gain=75934.4 80966.9 27116.7 7629.64 7100.61 5509.47 5114.9
threshold=1.5000000000000002 1.0000000180025095e-35 1.0000000180025095e-35 0.29295353982342714 1.5000000000000002 -1.8202881172513108 6.5000000000000009
decision_type=2 2 8 2 2 2 2
left_child=1 2 -1 4 -2 -3 -5
right_child=3 5 -4 6 -6 -7 -8
leaf_value=0.0021314456206836816 0.000571532156880757 -0.00019352094470999651 0.0061554397829860705 0.00097331591328748794 0.0048023129378766734 0.0087976131295524913 0.0067546209138415556
leaf_count=7733 1586 237 6241 6054 4039 8671 238
internal_value=0 35.3477 21.9857 13.7228 19.3296 42.3526 6.91022
internal_count=34799 22882 13974 11917 5625 8908 6292
shrinkage=0.000206632


Tree=34
num_leaves=8
num_cat=0
split_feature=56 56 8 77 169 385 383
split_gain=74694.3 79341.3 26770.6 7593.22 7508.63 7225.6 5415.89
threshold=1.5000000000000002 1.0000000180025095e-35 1.0000000180025095e-35 1.2500000000000002 3.5000000000000004 -0.40446684679860151 -1.8202881172513108
decision_type=2 2 8 2 2 2 2
left_child=1 2 -1 5 -5 -2 -3
right_child=3 6 -4 4 -6 -7 -8
leaf_value=0.0021265932502560047 0.0089157826700784256 -0.00019351760458976411 0.0061175968355180101 0.0048639076954562653 -0.00020620805625446871 0.001156150095130429 0.0087214453932192189
leaf_count=7733 139 237 6241 4040 1107 6631 8671
internal_value=0 35.0919 21.8845 13.6823 19.9175 7.60046 41.9878
internal_count=34799 22882 13974 11917 5147 6770 8908
shrinkage=0.000206632


Tree=35
num_leaves=8
num_cat=0
split_feature=56 56 8 388 173 383 225
split_gain=73482.6 77760.3 26430.7 7535.23 7004.72 5324.71 5074.38
threshold=1.5000000000000002 1.0000000180025095e-35 1.0000000180025095e-35 0.29295353982342714 1.5000000000000002 -1.8202881172513108 1.5000000000000002
decision_type=2 2 8 2 2 2 2
left_child=1 2 -1 4 -2 -3 -5
right_child=3 5 -4 6 -6 -7 -8
leaf_value=0.0021217624224236821 0.00056927349474206657 -0.0001935142642123698 0.0060802159514819678 0.0040644060843565812 0.004763351719096004 0.0086465964274925356 0.00051858800575667492
leaf_count=7733 1586 237 6241 1256 4039 8671 5036
internal_value=0 34.8398 21.7843 13.642 19.1903 41.6293 6.88
internal_count=34799 22882 13974 11917 5625 8908 6292
shrinkage=0.000206632


Tree=36
num_leaves=8
num_cat=0
split_feature=56 56 8 77 169 385 383
split_gain=72298 76222.2 26096.8 7495.76 7414.73 7121.5 5235.84
threshold=1.5000000000000002 1.0000000180025095e-35 1.0000000180025095e-35 1.2500000000000002 3.5000000000000004 -0.40446684679860151 -1.8202881172513108
decision_type=2 2 8 2 2 2 2
left_child=1 2 -1 5 -5 -2 -3
right_child=3 6 -4 4 -6 -7 -8
leaf_value=0.0021169525575707761 0.0088129911911297813 -0.00019351093275611668 0.0060432887182722368 0.004824191003102476 -0.00020622274594238083 0.0011513338977781641 0.0085730302853079029
leaf_count=7733 139 237 6241 4040 1107 6631 8671
internal_value=0 34.5913 21.685 13.602 19.7706 7.56648 41.2769
internal_count=34799 22882 13974 11917 5147 6770 8908
shrinkage=0.000206632


Tree=37
num_leaves=8
num_cat=0
split_feature=56 56 8 388 173 383 225
split_gain=71139.8 74725.6 25768.7 7442.62 6910.8 5149.21 5029.65
threshold=1.5000000000000002 1.0000000180025095e-35 1.0000000180025095e-35 0.29295353982342714 1.5000000000000002 -1.8202881172513108 1.5000000000000002
decision_type=2 2 8 2 2 2 2
left_child=1 2 -1 4 -2 -3 -5
right_child=3 5 -4 6 -6 -7 -8
leaf_value=0.0021121638565350393 0.00056703361452139253 -0.00019350760088540422 0.0060068077701230021 0.0040368577911989072 0.00472499007129089 0.0085007150603065938 0.00051648347389900422
leaf_count=7733 1586 237 6241 1256 4039 8671 5036
internal_value=0 34.3463 21.5866 13.5622 19.0529 40.9304 6.85001
internal_count=34799 22882 13974 11917 5625 8908 6292
shrinkage=0.000206632


Tree=38
num_leaves=8
num_cat=0
split_feature=56 56 8 77 169 385 383
split_gain=70007.3 73269 25446.3 7400.13 7322.69 7019.8 5064.74
threshold=1.5000000000000002 1.0000000180025095e-35 1.0000000180025095e-35 1.2500000000000002 3.5000000000000004 -0.40446684679860151 -1.8202881172513108
decision_type=2 2 8 2 2 2 2
left_child=1 2 -1 5 -5 -2 -3
right_child=3 6 -4 4 -6 -7 -8
leaf_value=0.002107395915223193 0.008712401543867947 -0.00019350424864881247 0.0059707637351531897 0.0047850880507647707 -0.00020623735484824498 0.0011465602304900728 0.0084296190842939513
leaf_count=7733 139 237 6241 4040 1107 6631 8671
internal_value=0 34.1048 21.4891 13.5226 19.6257 7.53282 40.5898
internal_count=34799 22882 13974 11917 5147 6770 8908
shrinkage=0.000206632


Tree=39
num_leaves=8
num_cat=0
split_feature=56 56 8 388 173 301 383
split_gain=68899.7 71851.2 25129.5 7351.71 6818.81 4998.7 4982.36
threshold=1.5000000000000002 1.0000000180025095e-35 1.0000000180025095e-35 0.29295353982342714 1.5000000000000002 6.5000000000000009 -1.8202881172513108
decision_type=2 2 8 2 2 2 2
left_child=1 2 -1 4 -2 -5 -3
right_child=3 6 -4 5 -6 -7 -8
leaf_value=0.0021026489044708545 0.00056481215079271776 -0.00019350092703683528 0.0059351500732004805 0.00096065964852356058 0.0046872145612320828 0.0066238666476070443 0.0083597121550877482
leaf_count=7733 1586 237 6241 6054 4039 238 8671
internal_value=0 33.8668 21.3924 13.4832 18.9175 6.8203 40.2548
internal_count=34799 22882 13974 11917 5625 6292 8908
shrinkage=0.000206632


Tree=40
num_leaves=8
num_cat=0
split_feature=56 56 8 358 42 90 383
split_gain=67816 70470.8 24818.2 7312.34 10168.8 8626.69 4902
threshold=1.5000000000000002 1.0000000180025095e-35 1.0000000180025095e-35 1.0000000180025095e-35 6.5000000000000009 2.4500000000000006 -1.8202881172513108
decision_type=2 2 8 2 2 2 2
left_child=1 2 -1 5 -5 -2 -3
right_child=3 6 -4 4 -6 -7 -8
leaf_value=0.0020979223898685449 -0.00020470837331648298 -0.00019349758092825829 0.0058999581801165157 0.0015985176810183602 0.0071368364467123864 0.006778358159757249 0.0082909631293570756
leaf_count=7733 721 237 6241 9404 564 1228 8671
internal_value=0 33.632 21.2967 13.4441 10.3497 25.0771 39.9253
internal_count=34799 22882 13974 11917 9968 1949 8908
shrinkage=0.000206632


Tree=41
num_leaves=8
num_cat=0
split_feature=56 56 8 77 397 249 383
split_gain=66756.3 69126.6 24512.2 7280.03 6510.27 5458.75 4823.59
threshold=1.5000000000000002 1.0000000180025095e-35 1.0000000180025095e-35 1.1499023437500002 -0.11000174607609559 4.5000000000000009 -1.8202881172513108
decision_type=2 2 8 2 2 2 2
left_child=1 2 -1 5 -5 -2 -3
right_child=3 6 -4 4 -6 -7 -8
leaf_value=0.0020932163195197017 0.00053230941907743282 -0.00019349423614850364 0.0058651817795359988 0.00093704181847572589 0.0044683204652110351 0.0064365295962761637 0.0082233449942471538
leaf_count=7733 4738 237 6241 1910 4982 287 8671
internal_value=0 33.4005 21.2017 13.4052 17.8887 5.45519 39.6013
internal_count=34799 22882 13974 11917 6892 5025 8908
shrinkage=0.000206632


Tree=42
num_leaves=8
num_cat=0
split_feature=56 56 8 388 173 225 383
split_gain=65719.5 67817.3 24211.5 7236.27 6706.36 4943.47 4747.08
threshold=1.5000000000000002 1.0000000180025095e-35 1.0000000180025095e-35 0.29295353982342714 1.5000000000000002 1.5000000000000002 -1.8202881172513108
decision_type=2 2 8 2 2 2 2
left_child=1 2 -1 4 -2 -5 -3
right_child=3 6 -4 5 -6 -7 -8
leaf_value=0.0020885307296458567 0.00056061142098572634 -0.00019349090268143716 0.0058308119187234428 0.0039785089705353209 0.0046357998212726058 0.0005101942186412395 0.0081568299647056669
leaf_count=7733 1586 237 6241 1256 4039 5036 8671
internal_value=0 33.1722 21.1076 13.3665 18.7271 6.77165 39.2825
internal_count=34799 22882 13974 11917 5625 6292 8908
shrinkage=0.000206632


Tree=43
num_leaves=8
num_cat=0
split_feature=56 56 8 77 169 385 383
split_gain=64704.8 66541.9 23915.8 7198.53 7153.39 6839.79 4672.4
threshold=1.5000000000000002 1.0000000180025095e-35 1.0000000180025095e-35 1.2500000000000002 3.5000000000000004 -0.40446684679860151 -1.8202881172513108
decision_type=2 2 8 2 2 2 2
left_child=1 2 -1 5 -5 -2 -3
right_child=3 6 -4 4 -6 -7 -8
leaf_value=0.0020838651840669195 0.0085246561794693441 -0.00019348755643425596 0.0057968427392537996 0.0046987754816455929 -0.00020630229399662569 0.0011331260587181782 0.0080913900759052963
leaf_count=7733 139 237 6241 4040 1107 6631 8671
internal_value=0 32.947 21.0144 13.328 19.2896 7.44289 38.9688
internal_count=34799 22882 13974 11917 5147 6770 8908
shrinkage=0.000206632


Tree=44
num_leaves=8
num_cat=0
split_feature=56 56 8 358 42 90 383
split_gain=63711.7 65299.2 23625.2 7155.95 9961.01 8422.02 4599.49
threshold=1.5000000000000002 1.0000000180025095e-35 1.0000000180025095e-35 1.0000000180025095e-35 6.5000000000000009 2.4500000000000006 -1.8202881172513108
decision_type=2 2 8 2 2 2 2
left_child=1 2 -1 5 -5 -2 -3
right_child=3 6 -4 4 -6 -7 -8
leaf_value=0.0020792198711494223 -0.00020475906673508306 -0.00019348420993189869 0.0057632663647804866 0.0015819736779227444 0.0070222598824065041 0.0066649942167249466 0.0080270000930406909
leaf_count=7733 721 237 6241 9404 564 1228 8671
internal_value=0 32.7248 20.9219 13.2897 10.2385 24.7117 38.6602
internal_count=34799 22882 13974 11917 9968 1949 8908
shrinkage=0.000206632


Tree=45
num_leaves=8
num_cat=0
split_feature=56 56 8 388 173 225 383
split_gain=62739.8 64088.2 23339.4 7124.39 6595.31 4884.08 4528.29
threshold=1.5000000000000002 1.0000000180025095e-35 1.0000000180025095e-35 0.29295353982342714 1.5000000000000002 1.5000000000000002 -1.8202881172513108
decision_type=2 2 8 2 2 2 2
left_child=1 2 -1 4 -2 -5 -3
right_child=3 6 -4 5 -6 -7 -8
leaf_value=0.0020745944569073305 0.00055659762352578822 -0.00019348088393962679 0.0057300770100242055 0.0039397929369989638 0.0045853714192211868 0.0005065064599945084 0.0079636358784095189
leaf_count=7733 1586 237 6241 1256 4039 5036 8671
internal_value=0 32.5057 20.8303 13.2517 18.5408 6.72351 38.3564
internal_count=34799 22882 13974 11917 5625 6292 8908
shrinkage=0.000206632


Tree=46
num_leaves=8
num_cat=0
split_feature=56 56 8 77 397 249 383
split_gain=61788.4 62907.8 23058.5 7089.52 6356.86 5350.71 4458.77
threshold=1.5000000000000002 1.0000000180025095e-35 1.0000000180025095e-35 1.1499023437500002 -0.11000174607609559 4.5000000000000009 -1.8202881172513108
decision_type=2 2 8 2 2 2 2
left_child=1 2 -1 5 -5 -2 -3
right_child=3 6 -4 4 -6 -7 -8
leaf_value=0.0020699888338848974 0.00052612212005443716 -0.00019347753835522664 0.0056972673373377348 0.00092361450158360658 0.0043906269145927487 0.0063248272423225204 0.0079012714358022377
leaf_count=7733 4738 237 6241 1910 4982 287 8671
internal_value=0 32.2895 20.7394 13.2138 17.5948 5.39566 38.0574
internal_count=34799 22882 13974 11917 6892 5025 8908
shrinkage=0.000206632


Tree=47
num_leaves=8
num_cat=0
split_feature=56 56 8 388 173 301 383
split_gain=60857 61757.1 22782.2 7038.74 6511.35 4844.08 4390.85
threshold=1.5000000000000002 1.0000000180025095e-35 1.0000000180025095e-35 0.29295353982342714 1.5000000000000002 6.5000000000000009 -1.8202881172513108
decision_type=2 2 8 2 2 2 2
left_child=1 2 -1 4 -2 -5 -3
right_child=3 6 -4 5 -6 -7 -8
leaf_value=0.0020654028641444028 0.00055432850249591476 -0.00019347418917321018 0.0056648311910887095 0.00094295754294715698 0.0045497711582327309 0.0064481325699138215 0.0078398838233993684
leaf_count=7733 1586 237 6241 6054 4039 238 8671
internal_value=0 32.0761 20.6494 13.1762 18.4119 6.69507 37.7631
internal_count=34799 22882 13974 11917 5625 6292 8908
shrinkage=0.000206632


Tree=48
num_leaves=8
num_cat=0
split_feature=56 56 8 358 42 90 383
split_gain=59944.6 60635.1 22510.5 7010.64 9750.95 8232.48 4324.49
threshold=1.5000000000000002 1.0000000180025095e-35 1.0000000180025095e-35 1.0000000180025095e-35 6.5000000000000009 2.4500000000000006 -1.8202881172513108
decision_type=2 2 8 2 2 2 2
left_child=1 2 -1 5 -5 -2 -3
right_child=3 6 -4 4 -6 -7 -8
leaf_value=0.0020608367116187833 -0.00020481149373393208 -0.0001934708489320028 0.0056327621673284145 0.001565741499676213 0.0069072203022912974 0.0065578215350655987 0.0077794504105179203
leaf_count=7733 721 237 6241 9404 564 1228 8671
internal_value=0 31.8656 20.5601 13.1388 10.1289 24.3628 37.4733
internal_count=34799 22882 13974 11917 9968 1949 8908
shrinkage=0.000206632


Tree=49
num_leaves=8
num_cat=0
split_feature=56 56 8 77 397 221 383
split_gain=59051.4 59541 22243.3 6982.29 6255.43 5168.93 4259.65
threshold=1.5000000000000002 1.0000000180025095e-35 1.0000000180025095e-35 1.1499023437500002 -0.11000174607609559 1.5000000000000002 -1.8202881172513108
decision_type=2 2 8 2 2 2 2
left_child=1 2 -1 5 -5 -2 -3
right_child=3 6 -4 4 -6 -7 -8
leaf_value=0.0020562897955535855 0.0061552916451033659 -0.00019346751082430501 0.0056010537536423056 0.00091690856761919863 0.0043444011009169366 0.00052370275467375255 0.0077199493389749898
leaf_count=7733 315 237 6241 1910 4982 4710 8671
internal_value=0 31.6579 20.4716 13.1016 17.4244 5.35965 37.188
internal_count=34799 22882 13974 11917 6892 5025 8908
shrinkage=0.000206632


Tree=50
num_leaves=8
num_cat=0
split_feature=56 56 8 388 173 225 383
split_gain=58176.8 58473.8 21980.5 6932.02 6410.42 4798.13 4196.28
threshold=1.5000000000000002 1.0000000180025095e-35 1.0000000180025095e-35 0.29295353982342714 1.5000000000000002 1.5000000000000002 -1.8202881172513108
decision_type=2 2 8 2 2 2 2
left_child=1 2 -1 4 -2 -5 -3
right_child=3 6 -4 5 -6 -7 -8
leaf_value=0.0020517622156165241 0.00055006584545252502 -0.00019346417150528972 0.0055697000734825346 0.0038822486144269269 0.0045016494426658076 0.00050053238656792452 0.0076613592281877486
leaf_count=7733 1586 237 6241 1256 4039 5036 8671
internal_value=0 31.4528 20.3838 13.0646 18.2318 6.64792 36.907
internal_count=34799 22882 13974 11917 5625 6292 8908
shrinkage=0.000206632


Tree=51
num_leaves=7
num_cat=0
split_feature=56 56 195 394 383 42
split_gain=57326.6 54380 21670.9 6690.54 6687.65 5869.38
threshold=2.5000000000000004 1.0000000180025095e-35 1.5000000000000002 0.92533649883618929 -1.8202881172513108 6.5000000000000009
decision_type=2 2 2 2 2 2
left_child=1 2 -1 5 -3 -2
right_child=3 4 -4 -5 -6 -7
leaf_value=0.0055001657753628854 0.0018835018088131841 -0.0001997095592511934 0.001989233038410369 0.010068176218794581 0.0075134932462924712 0.0060620393995926341
leaf_count=6597 10075 377 7377 64 9705 604
internal_value=0 31.0196 20.2968 11.8711 36.0963 10.8833
internal_count=34799 24056 13974 10743 10082 10679
shrinkage=0.000206632


Tree=52
num_leaves=8
num_cat=0
split_feature=56 56 8 77 169 385 383
split_gain=56527.8 56438 21494.3 6884.81 6892.93 6564.2 4074.44
threshold=1.5000000000000002 1.0000000180025095e-35 1.0000000180025095e-35 1.2500000000000002 3.5000000000000004 -0.40446684679860151 -1.8202881172513108
decision_type=2 2 8 2 2 2 2
left_child=1 2 -1 5 -5 -2 -3
right_child=3 6 -4 4 -6 -7 -8
leaf_value=0.002042017307528263 0.0082280967452813044 -0.00019345737236671959 0.0055092123018525736 0.0045559416266717206 -0.00020643041051638617 0.0011078963578046162 0.0075474984000364568
leaf_count=7733 139 237 6241 4040 1107 6631 8671
internal_value=0 31.0525 20.2105 12.9874 18.724 7.27675 36.3609
internal_count=34799 22882 13974 11917 5147 6770 8908
shrinkage=0.000206632


Tree=53
num_leaves=7
num_cat=0
split_feature=56 56 8 394 383 42
split_gain=55726.1 52508 21243.8 6561.44 6502.11 5797.23
threshold=2.5000000000000004 1.0000000180025095e-35 1.0000000180025095e-35 0.92533649883618929 -1.8202881172513108 6.5000000000000009
decision_type=2 2 8 2 2 2
left_child=1 2 -1 5 -3 -2
right_child=3 4 -4 -5 -6 -7
leaf_value=0.0020375502607633969 0.0018743430053871351 -0.00019971476757698521 0.0054788751219564105 0.0099293153619392834 0.0074037334427110406 0.0060108519086990719
leaf_count=7733 10075 377 6241 64 9705 604
internal_value=0 30.6295 20.1249 11.8074 35.5725 10.8273
internal_count=34799 24056 13974 10743 10082 10679
shrinkage=0.000206632


Tree=54
num_leaves=8
num_cat=0
split_feature=56 56 8 77 397 249 383
split_gain=54943.6 54498.4 20997.3 6815.41 6106.56 5200.25 3957.9
threshold=1.5000000000000002 1.0000000180025095e-35 1.0000000180025095e-35 1.1499023437500002 -0.11000174607609559 4.5000000000000009 -1.8202881172513108
decision_type=2 2 8 2 2 2 2
left_child=1 2 -1 5 -5 -2 -3
right_child=3 6 -4 4 -6 -7 -8
leaf_value=0.0020331019462642231 0.00051525122881241584 -0.00019345056917694701 0.0054488698277543306 0.00090423365689351056 0.0042696493728876534 0.0061639692091106585 0.0074369924946765115
leaf_count=7733 4738 237 6241 1910 4982 287 8671
internal_value=0 30.6623 20.0401 12.9111 17.1422 5.29448 35.8308
internal_count=34799 22882 13974 11917 6892 5025 8908
shrinkage=0.000206632


Tree=55
num_leaves=7
num_cat=0
split_feature=56 56 195 394 383 42
split_gain=54192.2 50725.2 20761.8 6448.8 6324.61 5718.89
threshold=2.5000000000000004 1.0000000180025095e-35 1.5000000000000002 0.92533649883618929 -1.8202881172513108 6.5000000000000009
decision_type=2 2 2 2 2 2
left_child=1 2 -1 5 -3 -2
right_child=3 4 -4 -5 -6 -7
leaf_value=0.0053843592072624676 0.0018652619698272354 -0.00019972008841570582 0.0019701847822710616 0.0098055641532854339 0.0072972146843144564 0.005956584746204115
leaf_count=6597 10075 377 7377 64 9705 604
internal_value=0 30.2493 19.956 11.744 35.064 10.7711
internal_count=34799 24056 13974 10743 10082 10679
shrinkage=0.000206632


Tree=56
num_leaves=7
num_cat=0
split_feature=56 56 8 394 383 42
split_gain=53429.5 49858 20541 6358.71 6235.77 5661.45
threshold=2.5000000000000004 1.0000000180025095e-35 1.0000000180025095e-35 0.92533649883618929 -1.8202881172513108 6.5000000000000009
decision_type=2 2 8 2 2 2
left_child=1 2 -1 5 -3 -2
right_child=3 4 -4 -5 -6 -7
leaf_value=0.0020235428073833578 0.001861504496638691 -0.00019971772634204388 0.0053909386338777876 0.0097132176737603527 0.007244845825335214 0.005921307893005906
leaf_count=7733 10075 377 6241 64 9705 604
internal_value=0 30.062 19.8725 11.7141 34.8141 10.7457
internal_count=34799 24056 13974 10743 10082 10679
shrinkage=0.000206632


Tree=57
num_leaves=8
num_cat=0
split_feature=56 56 195 388 173 225 383
split_gain=52703.5 51766.4 20315.6 6739.08 6222.14 4673 3792.66
threshold=1.5000000000000002 1.0000000180025095e-35 1.5000000000000002 0.29295353982342714 1.5000000000000002 1.5000000000000002 -1.8202881172513108
decision_type=2 2 2 2 2 2 2
left_child=1 2 -1 4 -2 -5 -3
right_child=3 6 -4 5 -6 -7 -8
leaf_value=0.0053277250354690645 0.00053824290155781785 -0.00019344032317861662 0.0019611528794570548 0.0037934732805074011 0.0043985742279888836 0.00048971231321801002 0.0072775112366942453
leaf_count=6597 1586 237 7377 1256 4039 5036 8671
internal_value=0 30.096 19.7898 12.7967 17.833 6.51833 35.0657
internal_count=34799 22882 13974 11917 5625 6292 8908
shrinkage=0.000206632


Tree=58
num_leaves=7
num_cat=0
split_feature=56 56 8 394 383 42
split_gain=51981.3 48196.4 20098.5 6242.41 6069.81 5586.67
threshold=2.5000000000000004 1.0000000180025095e-35 1.0000000180025095e-35 0.92533649883618929 -1.8202881172513108 6.5000000000000009
decision_type=2 2 8 2 2 2
left_child=1 2 -1 5 -3 -2
right_child=3 4 -4 -5 -6 -7
leaf_value=0.002014074884882856 0.0018526162211003709 -0.0001997244062994004 0.0053342179556137691 0.0095863388990287124 0.0071428298013036058 0.0058690935290692499
leaf_count=7733 10075 377 6241 64 9705 604
internal_value=0 29.6956 19.7077 11.6519 34.327 10.6908
internal_count=34799 24056 13974 10743 10082 10679
shrinkage=0.000206632


Tree=59
num_leaves=8
num_cat=0
split_feature=56 56 195 77 397 249 390
split_gain=51267.1 50043.2 19882.8 6683.27 5963.76 5098.68 3699.69
threshold=1.5000000000000002 1.0000000180025095e-35 1.5000000000000002 1.1499023437500002 -0.11000174607609559 4.5000000000000009 0.30802901983357517
decision_type=2 2 2 2 2 2 2
left_child=1 2 -1 5 -5 -2 -3
right_child=3 6 -4 4 -6 -7 -8
leaf_value=0.0052722624002686583 0.0005072345242831081 0.0073088687388856701 0.0019522046598841806 0.00089271647873068345 0.0041993510840028425 0.0060537699709753206 0.0057160849032802949
leaf_count=6597 4738 7477 7377 1910 4982 287 1431
internal_value=0 29.7294 19.6263 12.7227 16.8781 5.22065 34.5727
internal_count=34799 22882 13974 11917 6892 5025 8908
shrinkage=0.000206632



feature importances:
D19_SOZIALES=120
_isMissingUnknown_4=58
ANZ_HH_TITEL=54
KBA13_BJ_2009=37
_isMissingUnknown_9=37
SEMIO_PFLICHT=24
EINGEZOGENAM_HH_JAHR=15
KBA13_KRSSEG_VAN=13
KBA13_BJ_2000=10
_isMissingUnknown_6=10
D19_HANDWERK=8
KBA13_HALTER_30=6
_isMissingUnknown_15=5
_isMissingUnknown_18=5
KBA13_SEG_KOMPAKTKLASSE=4
GEBURTSJAHR=3
LP_LEBENSPHASE_FEIN_Value_AGE=3
_isMissingUnknown_11=2
KBA13_KRSHERST_BMW_BENZ=1

pandas_categorical:[]
