tree
version=v2
num_class=1
num_tree_per_iteration=1
label_index=0
max_feature_idx=492
objective=binary sigmoid:1
feature_names=AGER_TYP AKT_DAT_KL ALTER_KIND1 ALTER_KIND2 ALTER_KIND3 ALTER_KIND4 ALTERSKATEGORIE_FEIN ANZ_HAUSHALTE_AKTIV ANZ_HH_TITEL ANZ_KINDER ANZ_PERSONEN ARBEIT BALLRAUM CAMEO_DEUG_2015 CJT_GESAMTTYP CJT_KATALOGNUTZER CJT_TYP_1 CJT_TYP_2 CJT_TYP_3 CJT_TYP_4 CJT_TYP_5 CJT_TYP_6 D19_BANKEN_ANZ_12 D19_BANKEN_ANZ_24 D19_BANKEN_DIREKT D19_BANKEN_GROSS D19_BANKEN_LOKAL D19_BANKEN_ONLINE_QUOTE_12 D19_BANKEN_REST D19_BEKLEIDUNG_GEH D19_BEKLEIDUNG_REST D19_BILDUNG D19_BIO_OEKO D19_BUCH_CD D19_DIGIT_SERV D19_DROGERIEARTIKEL D19_ENERGIE D19_FREIZEIT D19_GARTEN D19_GESAMT_ANZ_12 D19_GESAMT_ANZ_24 D19_GESAMT_ONLINE_QUOTE_12 D19_HANDWERK D19_HAUS_DEKO D19_KINDERARTIKEL D19_KONSUMTYP D19_KONSUMTYP_MAX D19_KOSMETIK D19_LEBENSMITTEL D19_LOTTO D19_NAHRUNGSERGAENZUNG D19_RATGEBER D19_REISEN D19_SAMMELARTIKEL D19_SCHUHE D19_SONSTIGE D19_SOZIALES D19_TECHNIK D19_TELKO_ANZ_12 D19_TELKO_ANZ_24 D19_TELKO_MOBILE D19_TELKO_ONLINE_QUOTE_12 D19_TELKO_REST D19_TIERARTIKEL D19_VERSAND_ANZ_12 D19_VERSAND_ANZ_24 D19_VERSAND_ONLINE_QUOTE_12 D19_VERSAND_REST D19_VERSI_ANZ_12 D19_VERSI_ANZ_24 D19_VERSI_DATUM D19_VERSI_OFFLINE_DATUM D19_VERSI_ONLINE_DATUM D19_VERSI_ONLINE_QUOTE_12 D19_VERSICHERUNGEN D19_VOLLSORTIMENT D19_WEIN_FEINKOST EINGEZOGENAM_HH_JAHR EWDICHTE EXTSEL992 FINANZ_ANLEGER FINANZ_HAUSBAUER FINANZ_MINIMALIST FINANZ_SPARER FINANZ_UNAUFFAELLIGER FINANZ_VORSORGER FINANZTYP FIRMENDICHTE GEBAEUDETYP GEBAEUDETYP_RASTER GEBURTSJAHR GEMEINDETYP GFK_URLAUBERTYP GREEN_AVANTGARDE HEALTH_TYP HH_DELTA_FLAG HH_EINKOMMEN_SCORE INNENSTADT KBA05_ALTER1 KBA05_ALTER2 KBA05_ALTER3 KBA05_ALTER4 KBA05_ANHANG KBA05_ANTG1 KBA05_ANTG2 KBA05_ANTG3 KBA05_ANTG4 KBA05_AUTOQUOT KBA05_BAUMAX KBA05_CCM1 KBA05_CCM2 KBA05_CCM3 KBA05_CCM4 KBA05_DIESEL KBA05_FRAU KBA05_GBZ KBA05_HERST1 KBA05_HERST4 KBA05_HERST5 KBA05_HERSTTEMP KBA05_KRSAQUOT KBA05_KRSHERST1 KBA05_KRSHERST2 KBA05_KRSHERST3 KBA05_KRSOBER KBA05_KRSVAN KBA05_KRSZUL KBA05_KW1 KBA05_KW2 KBA05_KW3 KBA05_MAXAH KBA05_MAXBJ KBA05_MAXHERST KBA05_MAXSEG KBA05_MAXVORB KBA05_MOD1 KBA05_MOD2 KBA05_MOD3 KBA05_MOD4 KBA05_MOD8 KBA05_MODTEMP KBA05_MOTOR KBA05_MOTRAD KBA05_SEG1 KBA05_SEG10 KBA05_SEG2 KBA05_SEG3 KBA05_SEG4 KBA05_SEG5 KBA05_SEG6 KBA05_SEG7 KBA05_SEG8 KBA05_SEG9 KBA05_VORB0 KBA05_VORB1 KBA05_VORB2 KBA05_ZUL1 KBA05_ZUL2 KBA05_ZUL3 KBA05_ZUL4 KBA13_ANTG1 KBA13_ANTG2 KBA13_ANTG3 KBA13_ANTG4 KBA13_ANZAHL_PKW KBA13_AUDI KBA13_AUTOQUOTE KBA13_BAUMAX KBA13_BJ_1999 KBA13_BJ_2000 KBA13_BJ_2004 KBA13_BJ_2006 KBA13_BJ_2008 KBA13_BJ_2009 KBA13_BMW KBA13_CCM_0_1400 KBA13_CCM_1000 KBA13_CCM_1200 KBA13_CCM_1400 KBA13_CCM_1401_2500 KBA13_CCM_1500 KBA13_CCM_1600 KBA13_CCM_1800 KBA13_CCM_2000 KBA13_CCM_2500 KBA13_CCM_2501 KBA13_CCM_3000 KBA13_CCM_3001 KBA13_FAB_ASIEN KBA13_FAB_SONSTIGE KBA13_FIAT KBA13_FORD KBA13_GBZ KBA13_HALTER_20 KBA13_HALTER_25 KBA13_HALTER_30 KBA13_HALTER_35 KBA13_HALTER_40 KBA13_HALTER_45 KBA13_HALTER_50 KBA13_HALTER_55 KBA13_HALTER_60 KBA13_HALTER_65 KBA13_HALTER_66 KBA13_HERST_ASIEN KBA13_HERST_AUDI_VW KBA13_HERST_BMW_BENZ KBA13_HERST_EUROPA KBA13_HERST_FORD_OPEL KBA13_HERST_SONST KBA13_HHZ KBA13_KMH_0_140 KBA13_KMH_110 KBA13_KMH_140 KBA13_KMH_140_210 KBA13_KMH_180 KBA13_KMH_210 KBA13_KMH_250 KBA13_KMH_251 KBA13_KRSAQUOT KBA13_KRSHERST_AUDI_VW KBA13_KRSHERST_BMW_BENZ KBA13_KRSHERST_FORD_OPEL KBA13_KRSSEG_KLEIN KBA13_KRSSEG_OBER KBA13_KRSSEG_VAN KBA13_KRSZUL_NEU KBA13_KW_0_60 KBA13_KW_110 KBA13_KW_120 KBA13_KW_121 KBA13_KW_30 KBA13_KW_40 KBA13_KW_50 KBA13_KW_60 KBA13_KW_61_120 KBA13_KW_70 KBA13_KW_80 KBA13_KW_90 KBA13_MAZDA KBA13_MERCEDES KBA13_MOTOR KBA13_NISSAN KBA13_OPEL KBA13_PEUGEOT KBA13_RENAULT KBA13_SEG_GELAENDEWAGEN KBA13_SEG_KLEINST KBA13_SEG_KLEINWAGEN KBA13_SEG_KOMPAKTKLASSE KBA13_SEG_MINIVANS KBA13_SEG_MINIWAGEN KBA13_SEG_MITTELKLASSE KBA13_SEG_OBEREMITTELKLASSE KBA13_SEG_OBERKLASSE KBA13_SEG_SONSTIGE KBA13_SEG_SPORTWAGEN KBA13_SEG_UTILITIES KBA13_SEG_VAN KBA13_SEG_WOHNMOBILE KBA13_SITZE_4 KBA13_SITZE_5 KBA13_SITZE_6 KBA13_TOYOTA KBA13_VORB_0 KBA13_VORB_1 KBA13_VORB_1_2 KBA13_VORB_2 KBA13_VORB_3 KBA13_VW KK_KUNDENTYP KKK KOMBIALTER KONSUMNAEHE KONSUMZELLE MIN_GEBAEUDEJAHR MOBI_RASTER MOBI_REGIO NATIONALITAET_KZ ONLINE_AFFINITAET ORTSGR_KLS9 OST_WEST_KZ PLZ8_ANTG1 PLZ8_ANTG2 PLZ8_ANTG3 PLZ8_ANTG4 PLZ8_BAUMAX REGIOTYP RELAT_AB RETOURTYP_BK_S RT_KEIN_ANREIZ RT_SCHNAEPPCHEN RT_UEBERGROESSE SEMIO_DOM SEMIO_ERL SEMIO_FAM SEMIO_KAEM SEMIO_KRIT SEMIO_KULT SEMIO_LUST SEMIO_MAT SEMIO_PFLICHT SEMIO_RAT SEMIO_REL SEMIO_SOZ SEMIO_TRADV SEMIO_VERT SHOPPER_TYP SOHO_KZ STRUKTURTYP TITEL_KZ UMFELD_ALT UMFELD_JUNG UNGLEICHENN_FLAG VERDICHTUNGSRAUM VERS_TYP VHA VHN VK_DHT4A VK_DISTANZ VK_ZG11 W_KEIT_KIND_HH WOHNDAUER_2008 WOHNLAGE ZABEOTYP ANREDE_KZ ALTERSKATEGORIE_GROB ALTER_HH_Value_0 CAMEO_DEUINTL_2015_Value_0 CAMEO_DEUINTL_2015_Value_1 D19_BANKEN_DATUM_Value_ACTIVITY_WITHIN_MONTHS D19_BANKEN_DATUM_Value_INCREASE D19_BANKEN_OFFLINE_DATUM_Value_ACTIVITY_WITHIN_MONTHS D19_BANKEN_OFFLINE_DATUM_Value_INCREASE D19_BANKEN_ONLINE_DATUM_Value_ACTIVITY_WITHIN_MONTHS D19_BANKEN_ONLINE_DATUM_Value_INCREASE D19_GESAMT_DATUM_Value_ACTIVITY_WITHIN_MONTHS D19_GESAMT_DATUM_Value_INCREASE D19_GESAMT_OFFLINE_DATUM_Value_ACTIVITY_WITHIN_MONTHS D19_GESAMT_OFFLINE_DATUM_Value_INCREASE D19_GESAMT_ONLINE_DATUM_Value_ACTIVITY_WITHIN_MONTHS D19_GESAMT_ONLINE_DATUM_Value_INCREASE D19_TELKO_DATUM_Value_ACTIVITY_WITHIN_MONTHS D19_TELKO_DATUM_Value_INCREASE D19_TELKO_OFFLINE_DATUM_Value_ACTIVITY_WITHIN_MONTHS D19_TELKO_OFFLINE_DATUM_Value_INCREASE D19_TELKO_ONLINE_DATUM_Value_ACTIVITY_WITHIN_MONTHS D19_TELKO_ONLINE_DATUM_Value_INCREASE D19_VERSAND_DATUM_Value_ACTIVITY_WITHIN_MONTHS D19_VERSAND_DATUM_Value_INCREASE D19_VERSAND_OFFLINE_DATUM_Value_ACTIVITY_WITHIN_MONTHS D19_VERSAND_OFFLINE_DATUM_Value_INCREASE D19_VERSAND_ONLINE_DATUM_Value_ACTIVITY_WITHIN_MONTHS D19_VERSAND_ONLINE_DATUM_Value_INCREASE LP_FAMILIE_FEIN_Value_CHILD LP_FAMILIE_FEIN_Value_FAMILY LP_FAMILIE_FEIN_Value_GENERATIONAL LP_FAMILIE_GROB_Value_FAMILY LP_LEBENSPHASE_FEIN_Value_AGE LP_LEBENSPHASE_FEIN_Value_INCOME LP_LEBENSPHASE_FEIN_Value_OTHER LP_LEBENSPHASE_GROB_Value_AGE LP_LEBENSPHASE_GROB_Value_INCOME LP_STATUS_FEIN_Value_INCOME LP_STATUS_FEIN_Value_OTHER LP_STATUS_GROB_Value_INCOME PRAEGENDE_JUGENDJAHRE_Value_0 PRAEGENDE_JUGENDJAHRE_Value_2 PRAEGENDE_JUGENDJAHRE_Value_3 EINGEFUEGT_AM_Day EINGEFUEGT_AM_DayOfYear EINGEFUEGT_AM_DayOfWeek EINGEFUEGT_AM_DaysInMonth EINGEFUEGT_AM_IsMonthStart EINGEFUEGT_AM_IsMonthEnd EINGEFUEGT_AM_IsQuarterStart EINGEFUEGT_AM_IsQuarterEnd EINGEFUEGT_AM_IsYearStart EINGEFUEGT_AM_IsYearEnd EINGEFUEGT_AM_Season _isMissingUnknown_1 _isMissingUnknown_2 _isMissingUnknown_3 _isMissingUnknown_4 _isMissingUnknown_5 _isMissingUnknown_6 _isMissingUnknown_7 _isMissingUnknown_8 _isMissingUnknown_9 _isMissingUnknown_10 _isMissingUnknown_11 _isMissingUnknown_12 _isMissingUnknown_13 _isMissingUnknown_14 _isMissingUnknown_15 _isMissingUnknown_16 _isMissingUnknown_17 _isMissingUnknown_18 _isMissingUnknown_19 _isMissingUnknown_20 CAMEO_DEU_2015_1A CAMEO_DEU_2015_1B CAMEO_DEU_2015_1C CAMEO_DEU_2015_1D CAMEO_DEU_2015_1E CAMEO_DEU_2015_2A CAMEO_DEU_2015_2B CAMEO_DEU_2015_2C CAMEO_DEU_2015_2D CAMEO_DEU_2015_3A CAMEO_DEU_2015_3B CAMEO_DEU_2015_3C CAMEO_DEU_2015_3D CAMEO_DEU_2015_4A CAMEO_DEU_2015_4B CAMEO_DEU_2015_4C CAMEO_DEU_2015_4D CAMEO_DEU_2015_4E CAMEO_DEU_2015_5A CAMEO_DEU_2015_5B CAMEO_DEU_2015_5C CAMEO_DEU_2015_5D CAMEO_DEU_2015_5E CAMEO_DEU_2015_5F CAMEO_DEU_2015_6A CAMEO_DEU_2015_6B CAMEO_DEU_2015_6C CAMEO_DEU_2015_6D CAMEO_DEU_2015_6E CAMEO_DEU_2015_6F CAMEO_DEU_2015_7A CAMEO_DEU_2015_7B CAMEO_DEU_2015_7C CAMEO_DEU_2015_7D CAMEO_DEU_2015_7E CAMEO_DEU_2015_8A CAMEO_DEU_2015_8B CAMEO_DEU_2015_8C CAMEO_DEU_2015_8D CAMEO_DEU_2015_9A CAMEO_DEU_2015_9B CAMEO_DEU_2015_9C CAMEO_DEU_2015_9D CAMEO_DEU_2015_9E CAMEO_DEU_2015_XX D19_LETZTER_KAUF_BRANCHE_D19_BANKEN_DIREKT D19_LETZTER_KAUF_BRANCHE_D19_BANKEN_GROSS D19_LETZTER_KAUF_BRANCHE_D19_BANKEN_LOKAL D19_LETZTER_KAUF_BRANCHE_D19_BANKEN_REST D19_LETZTER_KAUF_BRANCHE_D19_BEKLEIDUNG_GEH D19_LETZTER_KAUF_BRANCHE_D19_BEKLEIDUNG_REST D19_LETZTER_KAUF_BRANCHE_D19_BILDUNG D19_LETZTER_KAUF_BRANCHE_D19_BIO_OEKO D19_LETZTER_KAUF_BRANCHE_D19_BUCH_CD D19_LETZTER_KAUF_BRANCHE_D19_DIGIT_SERV D19_LETZTER_KAUF_BRANCHE_D19_DROGERIEARTIKEL D19_LETZTER_KAUF_BRANCHE_D19_ENERGIE D19_LETZTER_KAUF_BRANCHE_D19_FREIZEIT D19_LETZTER_KAUF_BRANCHE_D19_GARTEN D19_LETZTER_KAUF_BRANCHE_D19_HANDWERK D19_LETZTER_KAUF_BRANCHE_D19_HAUS_DEKO D19_LETZTER_KAUF_BRANCHE_D19_KINDERARTIKEL D19_LETZTER_KAUF_BRANCHE_D19_KOSMETIK D19_LETZTER_KAUF_BRANCHE_D19_LEBENSMITTEL D19_LETZTER_KAUF_BRANCHE_D19_LOTTO D19_LETZTER_KAUF_BRANCHE_D19_NAHRUNGSERGAENZUNG D19_LETZTER_KAUF_BRANCHE_D19_RATGEBER D19_LETZTER_KAUF_BRANCHE_D19_REISEN D19_LETZTER_KAUF_BRANCHE_D19_SAMMELARTIKEL D19_LETZTER_KAUF_BRANCHE_D19_SCHUHE D19_LETZTER_KAUF_BRANCHE_D19_SONSTIGE D19_LETZTER_KAUF_BRANCHE_D19_TECHNIK D19_LETZTER_KAUF_BRANCHE_D19_TELKO_MOBILE D19_LETZTER_KAUF_BRANCHE_D19_TELKO_REST D19_LETZTER_KAUF_BRANCHE_D19_TIERARTIKEL D19_LETZTER_KAUF_BRANCHE_D19_UNBEKANNT D19_LETZTER_KAUF_BRANCHE_D19_VERSAND_REST D19_LETZTER_KAUF_BRANCHE_D19_VERSICHERUNGEN D19_LETZTER_KAUF_BRANCHE_D19_VOLLSORTIMENT D19_LETZTER_KAUF_BRANCHE_D19_WEIN_FEINKOST PRAEGENDE_JUGENDJAHRE_Value_1_FDJ_-_communist_party_youth_organisation PRAEGENDE_JUGENDJAHRE_Value_1_Generation_Golf PRAEGENDE_JUGENDJAHRE_Value_1_Swords_into_ploughshares PRAEGENDE_JUGENDJAHRE_Value_1_digital_media_kids PRAEGENDE_JUGENDJAHRE_Value_1_ecological_awareness PRAEGENDE_JUGENDJAHRE_Value_1_economic_miracle PRAEGENDE_JUGENDJAHRE_Value_1_family_orientation PRAEGENDE_JUGENDJAHRE_Value_1_generation_68_-_student_protestors PRAEGENDE_JUGENDJAHRE_Value_1_milk_bar_-_Individualisation PRAEGENDE_JUGENDJAHRE_Value_1_opponents_to_the_building_of_the_Wall PRAEGENDE_JUGENDJAHRE_Value_1_peace_movement PRAEGENDE_JUGENDJAHRE_Value_1_reconstruction_years PRAEGENDE_JUGENDJAHRE_Value_1_war_years
feature_infos=[-1:3] [-2:9] [2:18] [5:18] none none [-2:25] [0:347] [0:20] [0:6] [0:24] [-2:9] [-2:7] [-2:9] [-2:6] [-2:5] [-2:5] [-2:5] [-2:5] [-2:5] [-2:5] [-2:5] [0:6] [0:6] [0:7] [0:6] [0:7] [-2:10] [0:7] [0:7] [0:7] [0:7] [0:7] [0:7] [0:7] [0:7] [0:7] [0:7] [0:7] [0:6] [0:6] [-2:10] [0:7] [0:7] [0:7] [-2:9] [1:9] [0:7] [0:7] [-2:7] [0:7] [0:7] [0:7] [0:7] [0:7] [0:7] [-2:5] [0:7] [0:5] [0:5] [0:7] [-2:10] [0:7] [0:7] [0:6] [0:6] [-2:10] [0:7] [0:5] [0:6] [1:10] [1:10] none [-2:10] [0:7] [0:7] [0:7] [-1:3.30078125] [-2:6] [1:56] [1:5] [1:5] [1:5] [1:5] [1:5] [1:5] [1:6] [-2:5] [-2:8] [-2:5] [0:11.300000000000001] [11:50] [1:12] [0:1] [-1:3] [-2:1] [-2:6] [-2:8] [-2:4] [-2:5] [-2:5] [-2:5] [-2:3] [-2:4] [-2:4] [-2:3] [-2:2] [-2:5] [-2:5] [-2:5] [-2:5] [-2:5] [-2:4] [-2:4] [-2:5] [-2:5] [-2:5] [-2:5] [-2:5] [-2:5] [-2:5] [-2:5] [-2:5] [-2:5] [-2:3] [-2:3] [-2:3] [-2:5] [-2:5] [-2:4] [-2:5] [-2:4] [-2:5] [-2:4] [-2:3] [-2:4] [-2:5] [-2:5] [-2:5] [-2:3] [-2:6] [-2:4] [-2:3] [-2:3] [-2:4] [-2:5] [-2:5] [-2:5] [-2:4] [-2:1] [-2:3] [-2:3] [-2:3] [-2:5] [-2:5] [-2:5] [-2:5] [-2:5] [-2:5] [-2:5] [-2:4] [-2:4] [-2:3] [-2:2] [0:2300] [-2:5] [-2:5] [-2:5] [-2:5] [-2:5] [-2:5] [-2:5] [-2:5] [-2:5] [-2:5] [-2:5] [-2:5] [-2:5] [-2:5] [-2:5] [-2:5] [-2:5] [-2:5] [-2:5] [-2:5] [-2:5] [-2:5] [-2:5] [-2:5] [-2:5] [-2:5] [-2:5] [-2:5] [-2:5] [-2:5] [-2:5] [-2:5] [-2:5] [-2:5] [-2:5] [-2:5] [-2:5] [-2:5] [-2:5] [-2:5] [-2:5] [-2:5] [-2:5] [-2:5] [-2:5] [-2:5] [-2:5] [-2:3] [-2:5] [-2:5] [-2:5] [-2:5] [-2:5] [-2:3] [-2:5] [-2:5] [-2:5] [-2:5] [-2:3] [-2:3] [-2:3] [-2:3] [-2:5] [-2:5] [-2:5] [-2:5] [-2:3] [-2:5] [-2:5] [-2:5] [-2:5] [-2:5] [-2:5] [-2:5] [-2:5] [-2:5] [-2:4] [-2:5] [-2:5] [-2:5] [-2:5] [-2:5] [-2:5] [-2:5] [-2:5] [-2:5] [-2:5] [-2:5] [-2:5] [-2:5] [-2:5] [-2:5] [-2:5] [-2:5] [-2:5] [-2:5] [-2:5] [-2:5] [-2:5] [-2:5] [-2:5] [-2:5] [-2:5] [-2:5] [-2:5] [-2:6] [-2:4] [1:9] [-2:7] [-2:1] [-1:3.099609375] [-2:6] [-2:6] [-1:3] [-2:5] [-2:9] [-2:2] [-2:4] [-2:4] [-2:3] [-2:2] [-2:5] [-2:7] [-2:5] [-2:5] [-2:5] [-2:5] [-2:5] [1:7] [1:7] [1:7] [1:7] [1:7] [1:7] [1:7] [1:7] [1:7] [1:7] [1:7] [1:7] [1:7] [1:7] [-1:3] [-2:1] [-2:3] [-2:5] [-2:5] [-2:5] [-2:1] [0:45] [-1:2] [-2:5] [-2:4] [1:11] [1:13] [1:11] [-2:6] [-2:9] [-2:8] [1:6] [1:2] [1:9] [0:10.1015625] [-2:5] [-2:5] [0:5] [0:5] [0:5] [0:5] [0:5] [0:5] [0:5] [0:5] [0:5] [0:5] [0:5] [0:5] [0:5] [0:5] [0:5] [0:5] [0:5] none [0:5] [0:5] [0:5] [0:5] [0:5] [0:5] [-2:3] [-2:8] [-2:3] [-2:4] [-2:5] [-2:7] none [-2:3] [-2:4] [-2:7] [-2:8] [-2:2] [-1:6] [-1:2] [-1:3] [1:31] [2:365] [-2:6] [28:31] [0:1] none none none none none [0:3] [-2.2083146064174635:14.259193305521343] [-5.9007107396731966:6.1135041603235534] [-6.3144945203165612:6.0770542173820825] [-2.616796517584147:8.1530105039188836] [-3.0022355900697004:7.2894652725244127] [-1.5481024585681533:5.7935991918011727] [-1.8367647932651929:3.5991429413803937] [-3.1529604240351721:3.0947390738493477] [-0.98093477921175021:0.9713992095496804] [-0.98049511908664311:1.7887197137894397] [-1.6232912618877773:1.7401795814018106] [-1.5320520748853079:2.4835398028808431] [-1.2020469363457102:1.153501522439681] [-0.90516040822178256:3.9969032047591613] [-1.4306446823096799:1.4613847047569262] [-1.0406915982371046:1.8634039434443368] [-2.7853555493882616:2.8486835363082426] [-1.2829023721743935:1.2229279825376977] [-1.4705490182854528:1.9169812592173574] [-1.2114417118988876:1.7305862506292544] [0:1] none none [0:1] none [0:1] [0:1] [0:1] [0:1] none [0:1] [0:1] [0:1] [0:1] [0:1] [0:1] [0:1] none [0:1] [0:1] [0:1] [0:1] none none none [0:1] [0:1] [0:1] [0:1] [0:1] [0:1] [0:1] [0:1] none [0:1] [0:1] [0:1] [0:1] [0:1] [0:1] [0:1] [0:1] [0:1] [0:1] none [0:1] [0:1] none none [0:1] [0:1] none none [0:1] none [0:1] [0:1] [0:1] none none [0:1] none none [0:1] none [0:1] none none [0:1] [0:1] [0:1] [0:1] [0:1] [0:1] none [0:1] [0:1] [0:1] [0:1] none none [0:1] none [0:1] [0:1] [0:1] [0:1] [0:1] [0:1] [0:1] [0:1] [0:1] [0:1]
tree_sizes=2959 2912 2908 2830 3233 3253

Tree=0
num_leaves=37
num_cat=0
split_feature=56 56 8 390 77 327 128 358 42 33 227 176 395 76 380 197 314 49 13 396 318 394 326 164 194 386 348 212 79 15 302 92 222 171 128 7
split_gain=69281.2 114987 16294.9 5727.36 5494.59 3939.39 3850.99 3677.72 4212.8 3671.46 3627.3 3250.67 3218.53 2651.24 2478.88 4072.89 2089.04 2045.68 5021.51 1827.15 1826.79 1826.51 1737.33 1668.98 1659.37 1620.98 1484.73 1441.42 1252.48 1231.79 1139.14 1121.22 1087.51 2939.79 731.427 222.171
threshold=1.5000000000000002 1.0000000180025095e-35 1.0000000180025095e-35 0.30933078952466581 1.2500000000000002 7.8515625000000009 1.5000000000000002 1.0000000180025095e-35 6.5000000000000009 5.5000000000000009 2.5000000000000004 1.5000000000000002 -0.054881222877850397 5.5000000000000009 -2.1246210875485896 2.5000000000000004 1.0000000180025095e-35 6.5000000000000009 5.5000000000000009 -0.0030467750803490064 1.5000000000000002 -0.0033367747830080614 1.5000000000000002 537.50000000000011 1.5000000000000002 0.3815007761906124 2.5000000000000004 1.5000000000000002 53.500000000000007 4.5000000000000009 4.5000000000000009 6.5000000000000009 2.5000000000000004 3.5000000000000004 1.5000000000000002 17.500000000000004
decision_type=2 2 8 2 2 8 2 2 2 2 2 2 2 2 2 2 8 2 2 2 10 2 2 10 2 2 2 2 8 2 2 8 2 2 2 10
left_child=1 2 13 6 5 -5 -3 10 14 17 -2 12 -11 24 15 20 26 25 -19 -12 -9 22 -4 -18 -1 28 -13 -17 -8 -23 35 -30 33 -26 -34 -16
right_child=7 3 21 4 -6 -7 9 8 -10 11 19 16 -14 -15 30 27 23 18 -20 -21 -22 29 -24 -25 32 -27 -28 -29 31 -31 -32 -33 34 -35 -36 -37
leaf_value=-4.3105064969614366 -4.2167400509341375 -4.0299621094500422 -4.2446293452030721 -4.20637455882515 -4.1095057429877171 -4.4081212519551034 -4.1039559551194946 -4.3414248036901766 -4.2469727871087528 -4.3365290680291979 -4.408345782827098 -4.0637132324303584 -4.1664042543019306 -4.2752555526612523 -4.4086575373304528 -4.4085523546890988 -4.2582183524144783 -4.0954667851270647 -4.2823739953252025 -4.2813858541918828 -4.2083661281810336 -4.2630161864185379 -4.3037039910418056 -4.1374565380833808 -4.4084262753150423 -4.1505679173828076 -4.1635223561541528 -4.3096909111566042 -4.0948551022217892 -4.1698264075924447 -4.334674975306493 -4.0061854501696654 -4.3441995285337072 -4.2579954479699937 -4.4086462677237126 -4.370923110368925
leaf_count=821 718 619 2450 473 475 478 845 506 588 465 780 684 566 661 5005 1787 461 815 468 463 481 685 2459 558 1002 499 509 479 473 628 687 541 532 460 4200 478
internal_value=0 32.7953 15.2961 47.405 33.4704 19.7894 49.2074 8.61925 6.28984 47.4133 18.4966 41.6522 29.594 6.13923 4.60015 10.4628 45.5118 51.2931 43.4158 8.38597 22.8731 23.9854 21.465 36.7304 4.32341 54.3108 50.5517 3.14953 56.4538 31.5697 1.08958 60.4066 2.58698 8.93021 0.36775 -0.401528
internal_count=34799 22827 13898 8929 1426 951 7503 11972 10011 6884 1961 3243 1031 7676 9423 3253 2212 3641 1283 1243 987 6222 4909 1019 7015 2358 1193 2266 1859 1313 6170 1014 6194 1462 4732 5483
shrinkage=1


Tree=1
num_leaves=36
num_cat=0
split_feature=56 56 380 388 323 64 130 195 110 222 92 122 116 123 32 256 350 319 78 143 117 364 317 390 390 139 90 211 393 327 132 260 77 21 202
split_gain=44602.4 62374.1 12327.6 3027.54 2883.52 2995.27 2725.74 2928.69 3010.33 2488.56 5571.36 3417.39 2406.5 3203.58 2122.07 2196.61 2011.13 2966.95 1971.66 1860.73 2673.46 1714.81 1698.34 2150.04 1206.94 974.289 914.494 885.948 731.007 716.363 608.471 517.343 329.588 189.813 158.649
threshold=1.5000000000000002 1.0000000180025095e-35 2.6862963306186498 0.29295353982342714 2.5000000000000004 1.5000000000000002 4.5000000000000009 2.5000000000000004 2.5000000000000004 3.5000000000000004 7.5000000000000009 4.5000000000000009 3.5000000000000004 2.5000000000000004 4.5000000000000009 4.5000000000000009 2.5000000000000004 7.5000000000000009 4.5000000000000009 1.0000000180025095e-35 2.5000000000000004 4.5000000000000009 2.5000000000000004 0.36605914602275236 -0.42590046403863102 1.5000000000000002 3.6500000000000008 2.5000000000000004 -0.01885269021113475 8.8515625000000018 3.5000000000000004 2.5000000000000004 1.0498046875000002 4.5000000000000009 2.5000000000000004
decision_type=2 2 2 2 2 2 2 2 2 2 10 2 2 2 2 2 2 8 2 2 2 2 2 2 2 2 2 2 2 10 2 2 2 2 2
left_child=1 2 14 4 34 6 7 -6 -9 11 18 12 22 -14 15 16 -1 30 -11 20 -5 33 23 24 -3 -24 -10 -22 -12 -21 -18 -7 -26 -4 -2
right_child=3 9 21 19 5 31 -8 8 26 10 28 -13 13 -15 -16 -17 17 -19 -20 29 27 -23 25 -25 32 -27 -28 -29 -30 -31 -32 -33 -34 -35 -36
leaf_value=-0.0061133865281292766 0.031259537402463393 0.19283714037905125 0.19840056417834395 -0.0058846249938413892 0.20974345919717419 0.061740330406712181 0.033854589135266455 0.17774080268835074 -0.0057215102397812183 0.075309895460975981 0.19076665745464949 0.12457686348054206 0.22775638687272287 0.12390333109720451 0.11450744695761515 0.10024239342493921 -0.0059488019679726188 0.14422862141225376 0.17589535642020349 -0.006106355921253059 0.15578014776047314 0.11530237357948833 0.27866437044475018 0.13789500270849181 0.22105617431016789 0.22753669520106143 0.088676744384421649 0.060410734540696863 0.25682604830577133 0.057503744937880102 0.062410129709700564 -0.0058373528671687054 0.26575679535844676 0.14980753998074894 -0.0058974738259186758
leaf_count=4295 457 804 458 948 571 459 856 491 595 903 514 550 847 789 696 804 1224 504 459 3898 456 4857 999 516 636 788 462 487 465 518 463 803 659 597 971
internal_value=0 26.6801 13.8577 8.12545 12.2424 15.2226 19.0051 22.9752 16.1908 35.5444 29.8726 37.0556 37.9089 31.3553 6.24189 4.6786 2.75672 9.06578 19.5496 3.77993 10.4538 21.0689 39.6302 36.3381 38.1046 42.985 6.87373 18.8395 37.8973 0.419769 2.57798 3.61219 40.8578 28.486 1.11332
internal_count=34799 22827 13898 11972 5665 4237 2975 2119 1548 8929 2341 6588 6038 1636 7986 7290 6486 2191 1362 6307 1891 5912 4402 2615 2099 1787 1057 943 979 4416 1687 1262 1295 1055 1428
shrinkage=0.00610262


Tree=2
num_leaves=36
num_cat=0
split_feature=56 56 157 244 388 64 90 381 285 261 29 204 77 6 330 16 316 179 79 169 256 123 273 312 79 158 159 194 397 135 287 370 138 148 317
split_gain=31054.4 38661.5 9662.13 2618.59 2575.27 2373.27 2376.03 2458.48 2499.05 1823.45 1682.15 2266.39 1587.05 4351.37 1914.33 1499.84 1477.22 2283.59 1457.14 1456.03 1267.85 1166.78 1505.18 1083.71 1012.15 1001.39 975.155 893.553 806.574 764.614 752.619 589.916 210.235 206.759 192.61
threshold=1.5000000000000002 1.0000000180025095e-35 1.5000000000000002 4.5000000000000009 0.29295353982342714 1.5000000000000002 2.3500000000000001 0.24992375716524889 1.0000000180025095e-35 1.5000000000000002 5.5000000000000009 4.5000000000000009 1.7500000000000002 13.500000000000002 1.0000000180025095e-35 2.5000000000000004 1.0000000180025095e-35 3.5000000000000004 39.500000000000007 1.5000000000000002 3.5000000000000004 2.5000000000000004 2.5000000000000004 4.5000000000000009 37.500000000000007 2.5000000000000004 2.5000000000000004 2.5000000000000004 0.1084158685718654 1.5000000000000002 2.5000000000000004 47.500000000000007 4.5000000000000009 1.5000000000000002 2.5000000000000004
decision_type=2 2 2 2 2 2 2 2 2 2 2 2 2 2 2 2 2 2 8 2 2 2 2 2 10 2 2 2 2 2 2 10 2 2 2
left_child=1 2 9 19 5 6 24 -8 27 15 11 32 13 16 -15 -1 23 18 33 -4 25 22 -21 29 -2 -20 -25 -9 -19 -3 -14 -7 -6 -18 -10
right_child=4 12 3 -5 10 31 7 8 34 -11 -12 -13 30 14 -16 -17 17 28 20 21 -22 -23 -24 26 -26 -27 -28 -29 -30 -31 -32 -33 -34 -35 -36
leaf_value=0.15729189106033259 -0.0058971186262929487 0.18057500460216486 0.086236018783037105 0.1150812209818551 -0.0061189976679406483 -0.0059627869769700104 0.18217078622913413 0.077824521831701909 0.15235312770143941 0.03460565488113268 0.085628884072222883 0.10070635475021177 0.16394507269677364 0.12792596719940882 0.020502287298222874 0.10457076331646228 0.11134043185174353 0.13876613737031301 0.22137569397445614 0.091480082386907288 0.13574243562158422 -0.0061163248424571035 -0.0058713568304319163 0.13938685478306545 0.081370055978646175 0.17270620275115398 0.1951678374455901 -0.0058541543421692724 0.071607735761665556 0.22960779802273459 0.21203546964005451 0.060001080616454115 0.029960154716768755 0.15162387116426967 0.10283821159563963
leaf_count=908 910 592 606 646 4516 1248 460 458 456 813 805 511 498 698 498 5126 474 513 515 699 576 4226 874 740 460 917 567 754 507 495 880 459 475 459 460
internal_value=0 22.6018 12.6721 5.02041 7.68262 11.2936 14.156 17.8014 13.6015 17.848 3.6707 1.75041 28.6556 27.5336 15.9144 18.8943 28.7552 26.5732 28.4387 3.09524 30.3961 1.5733 7.43285 31.4935 4.85899 32.2099 27.8164 5.27005 18.454 34.4114 32.731 2.41598 -0.37346 21.9888 21.5728
internal_count=34799 22827 13898 7051 11972 5665 3958 2588 2128 6847 6307 5502 8929 7551 1196 6034 6355 3961 2941 6405 2008 5799 1573 2394 1370 1432 1307 1212 1020 1087 1378 1707 4991 933 916
shrinkage=0.00610262


Tree=3
num_leaves=35
num_cat=0
split_feature=56 56 157 358 42 268 244 79 380 197 194 226 267 212 222 92 388 122 24 213 130 370 148 255 237 137 16 302 221 307 338 392 7 96
split_gain=22742.9 26034.9 7710.07 2438.97 2893.07 2431.89 2205.19 1966.34 1849.81 2688.42 1410.28 1334.91 1598.19 1095.94 1090.21 2635.39 1854.7 1442.73 1210.83 1179.49 1082.49 1059.9 1589.17 1365.05 1320.8 1090.88 1007.43 951.118 624.153 601.837 400.491 208.612 200.112 187.265
threshold=1.5000000000000002 1.0000000180025095e-35 1.5000000000000002 1.0000000180025095e-35 6.5000000000000009 1.5000000000000002 4.5000000000000009 27.500000000000004 -2.1246210875485896 2.5000000000000004 1.5000000000000002 2.5000000000000004 2.5000000000000004 1.5000000000000002 3.5000000000000004 6.5000000000000009 0.29229501291667187 4.5000000000000009 4.5000000000000009 2.5000000000000004 3.5000000000000004 102.50000000000001 2.5000000000000004 2.5000000000000004 2.5000000000000004 3.5000000000000004 2.5000000000000004 4.5000000000000009 4.5000000000000009 1.5000000000000002 4.5000000000000009 0.36939833930615179 17.500000000000004 3.5000000000000004
decision_type=2 2 2 2 2 2 2 10 2 2 2 2 2 2 2 10 2 2 2 2 2 10 2 2 2 2 2 2 2 2 2 2 10 2
left_child=1 2 10 5 8 -2 11 -7 9 20 26 28 -13 -11 17 16 -16 18 21 -17 -5 22 23 24 -3 30 -1 32 31 -24 33 -4 -10 -25
right_child=3 14 6 4 -6 7 -8 -9 27 13 -12 12 -14 -15 15 19 -18 -19 -20 -21 -22 -23 29 25 -26 -27 -28 -29 -30 -31 -32 -33 -34 -35
leaf_value=0.13451395925178941 0.14540500295024195 0.15129217394204078 -0.0061164976838835481 0.13838948391059067 0.11746751187857409 0.106659519155792 0.10248859351818784 -0.0059102095693610961 -0.0061249033052185623 -0.0060338284247586785 0.033060592061534222 0.10014197525968069 -0.0057804805993541186 0.072233730881756442 0.12291085380269549 0.10841187606433825 0.0274867438299389 0.093873395109732888 0.1122597783828953 0.16704798818906233 0.048416253542308309 0.18220787874376951 0.13964008665453306 0.19522000125591252 0.08178418824995555 0.13803135802650024 0.09397504997683355 0.057259695000170675 0.055939895173002394 0.092331081946695551 0.15092189756281657 0.029970520448427528 0.028047366965147758 0.17019841052565271
leaf_count=910 592 599 4113 500 588 493 646 876 5005 1787 814 715 664 479 455 531 647 550 660 708 487 711 494 542 480 819 5123 687 458 609 474 455 478 650
internal_value=0 19.6548 11.6741 7.28987 5.42591 14.3518 4.84016 7.60595 4.00425 8.51144 15.9632 3.01874 9.72319 2.65968 24.097 20.9067 13.0676 24.9152 25.3496 24.45 17.0117 25.8889 24.9299 26.0818 21.1668 27.4792 16.8061 0.957163 0.772071 19.3449 28.9988 -0.331939 -0.432218 30.0852
internal_count=34799 22827 13898 11972 10011 1961 7051 1369 9423 3253 6847 6405 1379 2266 8929 2341 1102 6588 6038 1239 987 5378 4667 3564 1079 2485 6033 6170 5026 1103 1666 4568 5483 1192
shrinkage=0.00610262


Tree=4
num_leaves=40
num_cat=0
split_feature=56 56 157 77 397 397 29 164 64 32 164 289 293 80 389 237 139 391 273 248 390 184 113 164 271 17 389 139 370 352 178 158 326 114 279 389 79 12 326
split_gain=17296.8 18547.1 6274 2065.06 2196.88 3526.58 2357.47 2223.03 2050.84 1424.54 1264.09 1440.07 1123.43 940.775 1342.43 2538.66 851.008 1801.65 985.89 929.623 1983.58 1788.22 1376.17 1287.55 853.137 834.027 763.753 612.546 555.528 552.271 527.429 494.791 433.687 410.921 274.276 189.204 159.166 116.025 32.2793
threshold=1.5000000000000002 1.0000000180025095e-35 1.5000000000000002 1.1499023437500002 -0.11000174607609559 0.10302041297860394 2.5000000000000004 830.50000000000011 1.5000000000000002 4.5000000000000009 380.50000000000006 4.5000000000000009 5.5000000000000009 1.5000000000000002 0.20494829070279791 2.5000000000000004 2.5000000000000004 -0.36780948055398316 1.5000000000000002 2.5000000000000004 0.25084413587414484 3.5000000000000004 1.5000000000000002 546.50000000000011 2.5000000000000004 2.5000000000000004 0.057294868333370198 2.5000000000000004 101.50000000000001 1.5000000000000002 3.5000000000000004 2.5000000000000004 1.5000000000000002 2.5000000000000004 2.5000000000000004 0.76741021658937958 51.500000000000007 5.5000000000000009 2.5000000000000004
decision_type=2 2 2 2 2 2 2 10 2 2 8 2 2 2 2 2 2 2 2 2 2 2 2 10 2 2 2 2 10 2 2 2 2 2 2 2 10 2 2
left_child=1 2 12 10 30 -6 7 28 -8 13 11 -2 -1 14 15 -4 18 -18 31 20 21 23 24 -20 -21 34 -24 -12 -7 33 -5 -3 -27 -28 -14 -15 -16 -35 -34
right_child=3 16 9 4 5 6 8 -9 -10 -11 27 -13 25 35 36 -17 17 -19 19 22 -22 -23 26 -25 -26 32 29 -29 -30 -31 -32 -33 38 37 -36 -37 -38 -39 -40
leaf_value=0.031595775570760168 0.10533694070234068 0.16098426699800486 -0.0058532968684903083 -0.0060196291964525004 0.1461826182408279 -0.0060737312729421929 0.15061527379070383 0.095351432654542614 0.024751729969662902 0.089029404809185156 -0.0061152063079491399 -0.0057092746327030005 0.098418779120696451 -0.0060896339993551278 -0.0059731582166047542 0.11692718267888148 0.049607665396635442 0.12817498887779802 0.11907603244051856 0.072058787656353193 0.033573308918172166 0.14709073541993101 0.10488833892497287 0.057252376397556697 0.12107213293106239 0.095454994743150084 0.12678192390431167 0.049433487802477236 0.048954579959256318 0.12199906703574451 0.051191898281077293 0.13006064479639814 0.06533048791813463 0.16448582527008135 0.13744605493535869 0.028500936870459841 0.028799625872339168 0.14469648589353498 0.079057681360224966
leaf_count=736 495 536 757 1452 680 2186 486 657 513 616 3527 523 558 2815 1225 717 535 521 533 541 459 570 530 642 709 2536 519 498 489 777 466 745 1479 617 457 465 456 695 1081
internal_value=0 17.413 10.8245 6.93437 9.46892 11.8198 8.64601 5.00579 17.4726 4.67258 2.74783 10.0298 14.4436 3.28937 6.28839 11.1965 20.8328 16.6078 21.247 20.4666 17.835 19.3236 21.4741 15.2808 17.2515 15.1409 22.7238 0.398921 1.03628 23.4556 1.75587 24.1611 13.8653 24.4989 19.4663 -0.089065 0.69682 25.5304 11.7275
internal_count=34799 22827 13898 11972 6929 5011 4331 3332 999 7051 5043 1018 6847 6435 3155 1474 8929 1056 7873 6592 2204 1745 4388 1175 1250 6111 3138 4025 2675 2608 1918 1281 5096 1831 1015 3280 1681 1312 2560
shrinkage=0.00610262


Tree=5
num_leaves=40
num_cat=0
split_feature=56 56 194 76 0 246 197 135 97 77 348 383 293 56 282 380 175 289 118 122 242 222 320 179 395 323 177 361 383 103 390 383 300 120 390 326 326 386 396
split_gain=13607.6 13063.1 5253.44 2076.85 1632.19 1642.32 2355.78 1710.74 1643.96 1405.36 1284.76 1147.22 1037.26 907.72 1571.05 863.723 770.527 752.163 713.254 1522.56 907.797 1059.58 1320.47 1872.5 1555.07 1335.66 1003.11 866.523 663.824 638.512 492.242 348.987 734.68 195.624 179.569 320.274 384.623 175.094 105.171
threshold=2.5000000000000004 1.0000000180025095e-35 1.5000000000000002 5.5000000000000009 2.5000000000000004 2.5000000000000004 2.5000000000000004 2.5000000000000004 4.5000000000000009 1.6499023437500002 2.5000000000000004 -0.5349577955232433 5.5000000000000009 1.5000000000000002 2.5000000000000004 -1.6283049100235643 1.0000000180025095e-35 4.5000000000000009 1.0000000180025095e-35 4.5000000000000009 4.5000000000000009 2.5000000000000004 3.5000000000000004 3.5000000000000004 0.069417736656426587 2.5000000000000004 1.0000000180025095e-35 2.0000000000000004 -0.16752938398901154 3.5000000000000004 -0.69386131939841744 -0.17281525301810899 3.5000000000000004 4.5000000000000009 -0.094808026126637551 1.5000000000000002 2.5000000000000004 -0.25379467333161881 -0.014777178509866455
decision_type=2 2 2 2 2 2 2 2 2 2 2 2 2 2 2 2 2 2 2 2 2 2 10 2 2 2 2 2 2 2 2 2 2 2 2 2 2 2 2
left_child=1 2 12 15 5 37 9 16 -9 10 38 -3 -1 18 -15 29 -8 34 -13 20 21 26 23 24 25 -23 -20 -25 -24 30 -4 32 -28 -32 -14 -36 -37 -2 -7
right_child=4 11 3 -5 -6 6 7 8 -10 -11 -12 13 17 14 -16 -17 -18 -19 19 -21 -22 22 28 27 -26 -27 31 -29 -30 -31 33 -33 -34 -35 35 36 -38 -39 -40
leaf_value=0.028626742786048841 0.026187402143978994 0.064047436427978111 0.044627317419563703 0.096146236874635735 0.093924848477219158 -0.0057204086360028127 0.045571916010959612 0.11595799166988843 -0.0056439314031529282 0.12229812316128687 0.096973628187433866 0.13200348532457779 0.058939270942972931 0.10895298475897092 -0.0056848472199836171 0.073310721991787828 -0.0061124806700768421 0.11605179997882775 0.083716973765554883 0.056067599660714944 0.13845362864463118 0.062045327003402123 0.13683429989059828 0.01184428918197046 0.04705444872090133 0.11598129230268095 0.097898241326557098 0.075585089696337371 0.098036503619534518 0.050516894635007394 -0.0061253670163579814 0.14108457990351692 0.13623027635830748 0.027693490404267187 0.090691284621758225 0.054684760921515509 0.087043414166202482 -0.0061008886428231927 0.026772215957935518
leaf_count=753 464 558 586 614 742 478 803 460 459 567 477 752 614 523 496 456 3260 588 472 558 462 510 491 461 480 1754 682 490 515 771 4218 456 474 463 2456 1359 1020 2602 455
internal_value=0 15.5329 10.0924 4.49746 6.0383 5.05795 6.99041 3.65026 12.1225 12.935 8.15626 18.1072 13.2196 18.3562 11.2797 2.78304 1.01312 13.8626 18.579 18.1259 18.4643 17.981 16.7253 15.2662 16.6663 17.7509 20.0208 8.3632 20.1648 1.78126 0.62486 21.0319 19.477 -0.378137 12.9719 13.402 11.5222 -0.113032 1.72242
internal_count=34799 24032 13898 7108 10767 10025 6959 4982 919 1977 1410 10134 6790 9576 1019 6494 4063 6037 8557 7805 7247 6785 4701 3695 2744 2264 2084 951 1006 6038 5267 1612 1156 4681 5449 4835 2379 3066 933
shrinkage=0.00610262



feature importances:
D19_SOZIALES=13
_isMissingUnknown_11=6
EXTSEL992=5
EINGEZOGENAM_HH_JAHR=5
ALTERSKATEGORIE_GROB=5
KBA13_HALTER_25=4
KBA13_ANZAHL_PKW=4
KBA13_KRSHERST_FORD_OPEL=4
_isMissingUnknown_1=4
KBA05_MOD8=3
GFK_URLAUBERTYP=3
_isMissingUnknown_4=3
KBA05_KRSHERST2=3
KBA13_HALTER_40=3
KBA05_ZUL2=3
D19_VERSAND_ANZ_12=3
_isMissingUnknown_18=3
EINGEFUEGT_AM_DayOfYear=3
_isMissingUnknown_9=3
_isMissingUnknown_10=3
D19_HANDWERK=2
D19_WEIN_FEINKOST=2
KBA05_KRSHERST3=2
KBA05_KW2=2
GEBURTSJAHR=2
KBA05_MAXAH=2
ANZ_HAUSHALTE_AKTIV=2
KBA13_KW_80=2
KBA13_PEUGEOT=2
KBA13_SEG_SPORTWAGEN=2
KONSUMNAEHE=2
RETOURTYP_BK_S=2
SEMIO_DOM=2
SEMIO_RAT=2
KBA05_MOD1=2
VHN=2
WOHNLAGE=2
KBA13_CCM_1401_2500=2
ALTER_HH_Value_0=2
D19_VERSAND_DATUM_Value_ACTIVITY_WITHIN_MONTHS=2
LP_LEBENSPHASE_FEIN_Value_AGE=2
CJT_TYP_1=2
KBA05_SEG5=2
KBA13_KMH_110=2
_isMissingUnknown_7=2
D19_BEKLEIDUNG_GEH=2
D19_BIO_OEKO=2
KBA05_ZUL3=2
_isMissingUnknown_16=2
_isMissingUnknown_17=2
KBA05_MOD4=1
KBA05_SEG1=1
KBA05_ZUL4=1
KBA13_BJ_2000=1
KBA13_BJ_2006=1
KBA13_CCM_0_1400=1
KBA13_CCM_1000=1
KBA13_CCM_1200=1
KBA13_CCM_1400=1
KBA13_CCM_2500=1
KBA13_HALTER_30=1
KBA13_HALTER_65=1
KBA13_HERST_ASIEN=1
KBA13_KMH_0_140=1
AGER_TYP=1
KBA13_KMH_140=1
KBA13_KRSHERST_BMW_BENZ=1
ALTERSKATEGORIE_FEIN=1
KBA13_KRSZUL_NEU=1
KBA13_KW_0_60=1
ANZ_HH_TITEL=1
KBA13_NISSAN=1
BALLRAUM=1
KBA13_SEG_GELAENDEWAGEN=1
KBA13_SEG_KLEINWAGEN=1
KBA13_SEG_SONSTIGE=1
CAMEO_DEUG_2015=1
KBA13_SITZE_4=1
KBA13_SITZE_5=1
KBA13_VORB_2=1
KBA13_VORB_3=1
KKK=1
CJT_KATALOGNUTZER=1
ONLINE_AFFINITAET=1
PLZ8_ANTG1=1
PLZ8_ANTG4=1
REGIOTYP=1
CJT_TYP_2=1
CJT_TYP_6=1
SEMIO_MAT=1
D19_BANKEN_DIREKT=1
SHOPPER_TYP=1
UMFELD_JUNG=1
VERDICHTUNGSRAUM=1
D19_BUCH_CD=1
D19_LOTTO=1
VK_DHT4A=1
VK_DISTANZ=1
VK_ZG11=1
EWDICHTE=1
FINANZ_ANLEGER=1
HH_EINKOMMEN_SCORE=1
D19_BANKEN_DATUM_Value_ACTIVITY_WITHIN_MONTHS=1
D19_GESAMT_OFFLINE_DATUM_Value_ACTIVITY_WITHIN_MONTHS=1
INNENSTADT=1
D19_VERSAND_OFFLINE_DATUM_Value_ACTIVITY_WITHIN_MONTHS=1
D19_VERSAND_ONLINE_DATUM_Value_ACTIVITY_WITHIN_MONTHS=1
KBA05_ANTG1=1
LP_LEBENSPHASE_GROB_Value_AGE=1
VHA=1
KBA05_CCM2=1
KBA05_DIESEL=1
_isMissingUnknown_2=1
KBA05_FRAU=1
KBA05_HERST1=1
KBA05_HERST4=1
KBA05_HERST5=1
KBA05_KRSAQUOT=1
_isMissingUnknown_12=1
_isMissingUnknown_13=1
_isMissingUnknown_14=1
_isMissingUnknown_15=1
KBA05_MAXHERST=1
KBA05_MOD3=1
LP_STATUS_FEIN_Value_OTHER=1

pandas_categorical:[]
