tree
version=v2
num_class=1
num_tree_per_iteration=1
label_index=0
max_feature_idx=492
objective=binary sigmoid:1
feature_names=AGER_TYP AKT_DAT_KL ALTER_KIND1 ALTER_KIND2 ALTER_KIND3 ALTER_KIND4 ALTERSKATEGORIE_FEIN ANZ_HAUSHALTE_AKTIV ANZ_HH_TITEL ANZ_KINDER ANZ_PERSONEN ARBEIT BALLRAUM CAMEO_DEUG_2015 CJT_GESAMTTYP CJT_KATALOGNUTZER CJT_TYP_1 CJT_TYP_2 CJT_TYP_3 CJT_TYP_4 CJT_TYP_5 CJT_TYP_6 D19_BANKEN_ANZ_12 D19_BANKEN_ANZ_24 D19_BANKEN_DIREKT D19_BANKEN_GROSS D19_BANKEN_LOKAL D19_BANKEN_ONLINE_QUOTE_12 D19_BANKEN_REST D19_BEKLEIDUNG_GEH D19_BEKLEIDUNG_REST D19_BILDUNG D19_BIO_OEKO D19_BUCH_CD D19_DIGIT_SERV D19_DROGERIEARTIKEL D19_ENERGIE D19_FREIZEIT D19_GARTEN D19_GESAMT_ANZ_12 D19_GESAMT_ANZ_24 D19_GESAMT_ONLINE_QUOTE_12 D19_HANDWERK D19_HAUS_DEKO D19_KINDERARTIKEL D19_KONSUMTYP D19_KONSUMTYP_MAX D19_KOSMETIK D19_LEBENSMITTEL D19_LOTTO D19_NAHRUNGSERGAENZUNG D19_RATGEBER D19_REISEN D19_SAMMELARTIKEL D19_SCHUHE D19_SONSTIGE D19_SOZIALES D19_TECHNIK D19_TELKO_ANZ_12 D19_TELKO_ANZ_24 D19_TELKO_MOBILE D19_TELKO_ONLINE_QUOTE_12 D19_TELKO_REST D19_TIERARTIKEL D19_VERSAND_ANZ_12 D19_VERSAND_ANZ_24 D19_VERSAND_ONLINE_QUOTE_12 D19_VERSAND_REST D19_VERSI_ANZ_12 D19_VERSI_ANZ_24 D19_VERSI_DATUM D19_VERSI_OFFLINE_DATUM D19_VERSI_ONLINE_DATUM D19_VERSI_ONLINE_QUOTE_12 D19_VERSICHERUNGEN D19_VOLLSORTIMENT D19_WEIN_FEINKOST EINGEZOGENAM_HH_JAHR EWDICHTE EXTSEL992 FINANZ_ANLEGER FINANZ_HAUSBAUER FINANZ_MINIMALIST FINANZ_SPARER FINANZ_UNAUFFAELLIGER FINANZ_VORSORGER FINANZTYP FIRMENDICHTE GEBAEUDETYP GEBAEUDETYP_RASTER GEBURTSJAHR GEMEINDETYP GFK_URLAUBERTYP GREEN_AVANTGARDE HEALTH_TYP HH_DELTA_FLAG HH_EINKOMMEN_SCORE INNENSTADT KBA05_ALTER1 KBA05_ALTER2 KBA05_ALTER3 KBA05_ALTER4 KBA05_ANHANG KBA05_ANTG1 KBA05_ANTG2 KBA05_ANTG3 KBA05_ANTG4 KBA05_AUTOQUOT KBA05_BAUMAX KBA05_CCM1 KBA05_CCM2 KBA05_CCM3 KBA05_CCM4 KBA05_DIESEL KBA05_FRAU KBA05_GBZ KBA05_HERST1 KBA05_HERST4 KBA05_HERST5 KBA05_HERSTTEMP KBA05_KRSAQUOT KBA05_KRSHERST1 KBA05_KRSHERST2 KBA05_KRSHERST3 KBA05_KRSOBER KBA05_KRSVAN KBA05_KRSZUL KBA05_KW1 KBA05_KW2 KBA05_KW3 KBA05_MAXAH KBA05_MAXBJ KBA05_MAXHERST KBA05_MAXSEG KBA05_MAXVORB KBA05_MOD1 KBA05_MOD2 KBA05_MOD3 KBA05_MOD4 KBA05_MOD8 KBA05_MODTEMP KBA05_MOTOR KBA05_MOTRAD KBA05_SEG1 KBA05_SEG10 KBA05_SEG2 KBA05_SEG3 KBA05_SEG4 KBA05_SEG5 KBA05_SEG6 KBA05_SEG7 KBA05_SEG8 KBA05_SEG9 KBA05_VORB0 KBA05_VORB1 KBA05_VORB2 KBA05_ZUL1 KBA05_ZUL2 KBA05_ZUL3 KBA05_ZUL4 KBA13_ANTG1 KBA13_ANTG2 KBA13_ANTG3 KBA13_ANTG4 KBA13_ANZAHL_PKW KBA13_AUDI KBA13_AUTOQUOTE KBA13_BAUMAX KBA13_BJ_1999 KBA13_BJ_2000 KBA13_BJ_2004 KBA13_BJ_2006 KBA13_BJ_2008 KBA13_BJ_2009 KBA13_BMW KBA13_CCM_0_1400 KBA13_CCM_1000 KBA13_CCM_1200 KBA13_CCM_1400 KBA13_CCM_1401_2500 KBA13_CCM_1500 KBA13_CCM_1600 KBA13_CCM_1800 KBA13_CCM_2000 KBA13_CCM_2500 KBA13_CCM_2501 KBA13_CCM_3000 KBA13_CCM_3001 KBA13_FAB_ASIEN KBA13_FAB_SONSTIGE KBA13_FIAT KBA13_FORD KBA13_GBZ KBA13_HALTER_20 KBA13_HALTER_25 KBA13_HALTER_30 KBA13_HALTER_35 KBA13_HALTER_40 KBA13_HALTER_45 KBA13_HALTER_50 KBA13_HALTER_55 KBA13_HALTER_60 KBA13_HALTER_65 KBA13_HALTER_66 KBA13_HERST_ASIEN KBA13_HERST_AUDI_VW KBA13_HERST_BMW_BENZ KBA13_HERST_EUROPA KBA13_HERST_FORD_OPEL KBA13_HERST_SONST KBA13_HHZ KBA13_KMH_0_140 KBA13_KMH_110 KBA13_KMH_140 KBA13_KMH_140_210 KBA13_KMH_180 KBA13_KMH_210 KBA13_KMH_250 KBA13_KMH_251 KBA13_KRSAQUOT KBA13_KRSHERST_AUDI_VW KBA13_KRSHERST_BMW_BENZ KBA13_KRSHERST_FORD_OPEL KBA13_KRSSEG_KLEIN KBA13_KRSSEG_OBER KBA13_KRSSEG_VAN KBA13_KRSZUL_NEU KBA13_KW_0_60 KBA13_KW_110 KBA13_KW_120 KBA13_KW_121 KBA13_KW_30 KBA13_KW_40 KBA13_KW_50 KBA13_KW_60 KBA13_KW_61_120 KBA13_KW_70 KBA13_KW_80 KBA13_KW_90 KBA13_MAZDA KBA13_MERCEDES KBA13_MOTOR KBA13_NISSAN KBA13_OPEL KBA13_PEUGEOT KBA13_RENAULT KBA13_SEG_GELAENDEWAGEN KBA13_SEG_KLEINST KBA13_SEG_KLEINWAGEN KBA13_SEG_KOMPAKTKLASSE KBA13_SEG_MINIVANS KBA13_SEG_MINIWAGEN KBA13_SEG_MITTELKLASSE KBA13_SEG_OBEREMITTELKLASSE KBA13_SEG_OBERKLASSE KBA13_SEG_SONSTIGE KBA13_SEG_SPORTWAGEN KBA13_SEG_UTILITIES KBA13_SEG_VAN KBA13_SEG_WOHNMOBILE KBA13_SITZE_4 KBA13_SITZE_5 KBA13_SITZE_6 KBA13_TOYOTA KBA13_VORB_0 KBA13_VORB_1 KBA13_VORB_1_2 KBA13_VORB_2 KBA13_VORB_3 KBA13_VW KK_KUNDENTYP KKK KOMBIALTER KONSUMNAEHE KONSUMZELLE MIN_GEBAEUDEJAHR MOBI_RASTER MOBI_REGIO NATIONALITAET_KZ ONLINE_AFFINITAET ORTSGR_KLS9 OST_WEST_KZ PLZ8_ANTG1 PLZ8_ANTG2 PLZ8_ANTG3 PLZ8_ANTG4 PLZ8_BAUMAX REGIOTYP RELAT_AB RETOURTYP_BK_S RT_KEIN_ANREIZ RT_SCHNAEPPCHEN RT_UEBERGROESSE SEMIO_DOM SEMIO_ERL SEMIO_FAM SEMIO_KAEM SEMIO_KRIT SEMIO_KULT SEMIO_LUST SEMIO_MAT SEMIO_PFLICHT SEMIO_RAT SEMIO_REL SEMIO_SOZ SEMIO_TRADV SEMIO_VERT SHOPPER_TYP SOHO_KZ STRUKTURTYP TITEL_KZ UMFELD_ALT UMFELD_JUNG UNGLEICHENN_FLAG VERDICHTUNGSRAUM VERS_TYP VHA VHN VK_DHT4A VK_DISTANZ VK_ZG11 W_KEIT_KIND_HH WOHNDAUER_2008 WOHNLAGE ZABEOTYP ANREDE_KZ ALTERSKATEGORIE_GROB ALTER_HH_Value_0 CAMEO_DEUINTL_2015_Value_0 CAMEO_DEUINTL_2015_Value_1 D19_BANKEN_DATUM_Value_ACTIVITY_WITHIN_MONTHS D19_BANKEN_DATUM_Value_INCREASE D19_BANKEN_OFFLINE_DATUM_Value_ACTIVITY_WITHIN_MONTHS D19_BANKEN_OFFLINE_DATUM_Value_INCREASE D19_BANKEN_ONLINE_DATUM_Value_ACTIVITY_WITHIN_MONTHS D19_BANKEN_ONLINE_DATUM_Value_INCREASE D19_GESAMT_DATUM_Value_ACTIVITY_WITHIN_MONTHS D19_GESAMT_DATUM_Value_INCREASE D19_GESAMT_OFFLINE_DATUM_Value_ACTIVITY_WITHIN_MONTHS D19_GESAMT_OFFLINE_DATUM_Value_INCREASE D19_GESAMT_ONLINE_DATUM_Value_ACTIVITY_WITHIN_MONTHS D19_GESAMT_ONLINE_DATUM_Value_INCREASE D19_TELKO_DATUM_Value_ACTIVITY_WITHIN_MONTHS D19_TELKO_DATUM_Value_INCREASE D19_TELKO_OFFLINE_DATUM_Value_ACTIVITY_WITHIN_MONTHS D19_TELKO_OFFLINE_DATUM_Value_INCREASE D19_TELKO_ONLINE_DATUM_Value_ACTIVITY_WITHIN_MONTHS D19_TELKO_ONLINE_DATUM_Value_INCREASE D19_VERSAND_DATUM_Value_ACTIVITY_WITHIN_MONTHS D19_VERSAND_DATUM_Value_INCREASE D19_VERSAND_OFFLINE_DATUM_Value_ACTIVITY_WITHIN_MONTHS D19_VERSAND_OFFLINE_DATUM_Value_INCREASE D19_VERSAND_ONLINE_DATUM_Value_ACTIVITY_WITHIN_MONTHS D19_VERSAND_ONLINE_DATUM_Value_INCREASE LP_FAMILIE_FEIN_Value_CHILD LP_FAMILIE_FEIN_Value_FAMILY LP_FAMILIE_FEIN_Value_GENERATIONAL LP_FAMILIE_GROB_Value_FAMILY LP_LEBENSPHASE_FEIN_Value_AGE LP_LEBENSPHASE_FEIN_Value_INCOME LP_LEBENSPHASE_FEIN_Value_OTHER LP_LEBENSPHASE_GROB_Value_AGE LP_LEBENSPHASE_GROB_Value_INCOME LP_STATUS_FEIN_Value_INCOME LP_STATUS_FEIN_Value_OTHER LP_STATUS_GROB_Value_INCOME PRAEGENDE_JUGENDJAHRE_Value_0 PRAEGENDE_JUGENDJAHRE_Value_2 PRAEGENDE_JUGENDJAHRE_Value_3 EINGEFUEGT_AM_Day EINGEFUEGT_AM_DayOfYear EINGEFUEGT_AM_DayOfWeek EINGEFUEGT_AM_DaysInMonth EINGEFUEGT_AM_IsMonthStart EINGEFUEGT_AM_IsMonthEnd EINGEFUEGT_AM_IsQuarterStart EINGEFUEGT_AM_IsQuarterEnd EINGEFUEGT_AM_IsYearStart EINGEFUEGT_AM_IsYearEnd EINGEFUEGT_AM_Season _isMissingUnknown_1 _isMissingUnknown_2 _isMissingUnknown_3 _isMissingUnknown_4 _isMissingUnknown_5 _isMissingUnknown_6 _isMissingUnknown_7 _isMissingUnknown_8 _isMissingUnknown_9 _isMissingUnknown_10 _isMissingUnknown_11 _isMissingUnknown_12 _isMissingUnknown_13 _isMissingUnknown_14 _isMissingUnknown_15 _isMissingUnknown_16 _isMissingUnknown_17 _isMissingUnknown_18 _isMissingUnknown_19 _isMissingUnknown_20 CAMEO_DEU_2015_1A CAMEO_DEU_2015_1B CAMEO_DEU_2015_1C CAMEO_DEU_2015_1D CAMEO_DEU_2015_1E CAMEO_DEU_2015_2A CAMEO_DEU_2015_2B CAMEO_DEU_2015_2C CAMEO_DEU_2015_2D CAMEO_DEU_2015_3A CAMEO_DEU_2015_3B CAMEO_DEU_2015_3C CAMEO_DEU_2015_3D CAMEO_DEU_2015_4A CAMEO_DEU_2015_4B CAMEO_DEU_2015_4C CAMEO_DEU_2015_4D CAMEO_DEU_2015_4E CAMEO_DEU_2015_5A CAMEO_DEU_2015_5B CAMEO_DEU_2015_5C CAMEO_DEU_2015_5D CAMEO_DEU_2015_5E CAMEO_DEU_2015_5F CAMEO_DEU_2015_6A CAMEO_DEU_2015_6B CAMEO_DEU_2015_6C CAMEO_DEU_2015_6D CAMEO_DEU_2015_6E CAMEO_DEU_2015_6F CAMEO_DEU_2015_7A CAMEO_DEU_2015_7B CAMEO_DEU_2015_7C CAMEO_DEU_2015_7D CAMEO_DEU_2015_7E CAMEO_DEU_2015_8A CAMEO_DEU_2015_8B CAMEO_DEU_2015_8C CAMEO_DEU_2015_8D CAMEO_DEU_2015_9A CAMEO_DEU_2015_9B CAMEO_DEU_2015_9C CAMEO_DEU_2015_9D CAMEO_DEU_2015_9E CAMEO_DEU_2015_XX D19_LETZTER_KAUF_BRANCHE_D19_BANKEN_DIREKT D19_LETZTER_KAUF_BRANCHE_D19_BANKEN_GROSS D19_LETZTER_KAUF_BRANCHE_D19_BANKEN_LOKAL D19_LETZTER_KAUF_BRANCHE_D19_BANKEN_REST D19_LETZTER_KAUF_BRANCHE_D19_BEKLEIDUNG_GEH D19_LETZTER_KAUF_BRANCHE_D19_BEKLEIDUNG_REST D19_LETZTER_KAUF_BRANCHE_D19_BILDUNG D19_LETZTER_KAUF_BRANCHE_D19_BIO_OEKO D19_LETZTER_KAUF_BRANCHE_D19_BUCH_CD D19_LETZTER_KAUF_BRANCHE_D19_DIGIT_SERV D19_LETZTER_KAUF_BRANCHE_D19_DROGERIEARTIKEL D19_LETZTER_KAUF_BRANCHE_D19_ENERGIE D19_LETZTER_KAUF_BRANCHE_D19_FREIZEIT D19_LETZTER_KAUF_BRANCHE_D19_GARTEN D19_LETZTER_KAUF_BRANCHE_D19_HANDWERK D19_LETZTER_KAUF_BRANCHE_D19_HAUS_DEKO D19_LETZTER_KAUF_BRANCHE_D19_KINDERARTIKEL D19_LETZTER_KAUF_BRANCHE_D19_KOSMETIK D19_LETZTER_KAUF_BRANCHE_D19_LEBENSMITTEL D19_LETZTER_KAUF_BRANCHE_D19_LOTTO D19_LETZTER_KAUF_BRANCHE_D19_NAHRUNGSERGAENZUNG D19_LETZTER_KAUF_BRANCHE_D19_RATGEBER D19_LETZTER_KAUF_BRANCHE_D19_REISEN D19_LETZTER_KAUF_BRANCHE_D19_SAMMELARTIKEL D19_LETZTER_KAUF_BRANCHE_D19_SCHUHE D19_LETZTER_KAUF_BRANCHE_D19_SONSTIGE D19_LETZTER_KAUF_BRANCHE_D19_TECHNIK D19_LETZTER_KAUF_BRANCHE_D19_TELKO_MOBILE D19_LETZTER_KAUF_BRANCHE_D19_TELKO_REST D19_LETZTER_KAUF_BRANCHE_D19_TIERARTIKEL D19_LETZTER_KAUF_BRANCHE_D19_UNBEKANNT D19_LETZTER_KAUF_BRANCHE_D19_VERSAND_REST D19_LETZTER_KAUF_BRANCHE_D19_VERSICHERUNGEN D19_LETZTER_KAUF_BRANCHE_D19_VOLLSORTIMENT D19_LETZTER_KAUF_BRANCHE_D19_WEIN_FEINKOST PRAEGENDE_JUGENDJAHRE_Value_1_FDJ_-_communist_party_youth_organisation PRAEGENDE_JUGENDJAHRE_Value_1_Generation_Golf PRAEGENDE_JUGENDJAHRE_Value_1_Swords_into_ploughshares PRAEGENDE_JUGENDJAHRE_Value_1_digital_media_kids PRAEGENDE_JUGENDJAHRE_Value_1_ecological_awareness PRAEGENDE_JUGENDJAHRE_Value_1_economic_miracle PRAEGENDE_JUGENDJAHRE_Value_1_family_orientation PRAEGENDE_JUGENDJAHRE_Value_1_generation_68_-_student_protestors PRAEGENDE_JUGENDJAHRE_Value_1_milk_bar_-_Individualisation PRAEGENDE_JUGENDJAHRE_Value_1_opponents_to_the_building_of_the_Wall PRAEGENDE_JUGENDJAHRE_Value_1_peace_movement PRAEGENDE_JUGENDJAHRE_Value_1_reconstruction_years PRAEGENDE_JUGENDJAHRE_Value_1_war_years
feature_infos=[-1:3] [-2:9] [2:18] [5:18] none none [-2:25] [0:353] [0:20] [0:6] [0:24] [-2:9] [-2:7] [-2:9] [-2:6] [-2:5] [-2:5] [-2:5] [-2:5] [-2:5] [-2:5] [-2:5] [0:6] [0:6] [0:7] [0:6] [0:7] [-2:10] [0:7] [0:7] [0:7] [0:7] [0:7] [0:7] [0:7] [0:7] [0:7] [0:7] [0:7] [0:6] [0:6] [-2:10] [0:7] [0:7] [0:7] [-2:9] [1:9] [0:7] [0:7] [-2:7] [0:7] [0:7] [0:7] [0:7] [0:7] [0:7] [-2:5] [0:7] [0:5] [0:5] [0:7] [-2:10] [0:7] [0:7] [0:6] [0:6] [-2:10] [0:7] [0:5] [0:5] [1:10] [1:10] none [-2:10] [0:7] [0:7] [0:7] [-1:3.30078125] [-2:6] [1:56] [1:5] [1:5] [1:5] [1:5] [1:5] [1:5] [1:6] [-2:5] [-2:8] [-2:5] [0:11.300000000000001] [11:50] [1:12] [0:1] [-1:3] [-2:1] [-2:6] [-2:8] [-2:4] [-2:5] [-2:5] [-2:5] [-2:3] [-2:4] [-2:4] [-2:3] [-2:2] [-2:5] [-2:5] [-2:5] [-2:5] [-2:5] [-2:4] [-2:4] [-2:5] [-2:5] [-2:5] [-2:5] [-2:5] [-2:5] [-2:5] [-2:5] [-2:5] [-2:5] [-2:3] [-2:3] [-2:3] [-2:5] [-2:5] [-2:4] [-2:5] [-2:4] [-2:5] [-2:4] [-2:3] [-2:4] [-2:5] [-2:5] [-2:5] [-2:3] [-2:6] [-2:4] [-2:3] [-2:3] [-2:4] [-2:5] [-2:5] [-2:5] [-2:4] [-2:1] [-2:3] [-2:3] [-2:3] [-2:5] [-2:5] [-2:5] [-2:5] [-2:5] [-2:5] [-2:5] [-2:4] [-2:4] [-2:3] [-2:2] [0:2300] [-2:5] [-2:5] [-2:5] [-2:5] [-2:5] [-2:5] [-2:5] [-2:5] [-2:5] [-2:5] [-2:5] [-2:5] [-2:5] [-2:5] [-2:5] [-2:5] [-2:5] [-2:5] [-2:5] [-2:5] [-2:5] [-2:5] [-2:5] [-2:5] [-2:5] [-2:5] [-2:5] [-2:5] [-2:5] [-2:5] [-2:5] [-2:5] [-2:5] [-2:5] [-2:5] [-2:5] [-2:5] [-2:5] [-2:5] [-2:5] [-2:5] [-2:5] [-2:5] [-2:5] [-2:5] [-2:5] [-2:5] [-2:3] [-2:5] [-2:5] [-2:5] [-2:5] [-2:5] [-2:3] [-2:5] [-2:5] [-2:5] [-2:5] [-2:3] [-2:3] [-2:3] [-2:3] [-2:5] [-2:5] [-2:5] [-2:5] [-2:3] [-2:5] [-2:5] [-2:5] [-2:5] [-2:5] [-2:5] [-2:5] [-2:5] [-2:5] [-2:4] [-2:5] [-2:5] [-2:5] [-2:5] [-2:5] [-2:5] [-2:5] [-2:5] [-2:5] [-2:5] [-2:5] [-2:5] [-2:5] [-2:5] [-2:5] [-2:5] [-2:5] [-2:5] [-2:5] [-2:5] [-2:5] [-2:5] [-2:5] [-2:5] [-2:5] [-2:5] [-2:5] [-2:5] [-2:6] [-2:4] [1:9] [-2:7] [-2:1] [-1:3.099609375] [-2:6] [-2:6] [-1:3] [-2:5] [-2:9] [-2:2] [-2:4] [-2:4] [-2:3] [-2:2] [-2:5] [-2:7] [-2:5] [-2:5] [-2:5] [-2:5] [-2:5] [1:7] [1:7] [1:7] [1:7] [1:7] [1:7] [1:7] [1:7] [1:7] [1:7] [1:7] [1:7] [1:7] [1:7] [-1:3] [-2:1] [-2:3] [-2:5] [-2:5] [-2:5] [-2:1] [0:45] [-1:2] [-2:5] [-2:4] [1:11] [1:13] [1:11] [-2:6] [-2:9] [-2:8] [1:6] [1:2] [1:9] [0:10.1015625] [-2:5] [-2:5] [0:5] [0:5] [0:5] [0:5] [0:5] [0:5] [0:5] [0:5] [0:5] [0:5] [0:5] [0:5] [0:5] [0:5] [0:5] [0:5] [0:5] none [0:5] [0:5] [0:5] [0:5] [0:5] [0:5] [-2:3] [-2:8] [-2:3] [-2:4] [-2:5] [-2:7] none [-2:3] [-2:4] [-2:7] [-2:8] [-2:2] [-1:6] [-1:2] [-1:3] [1:31] [2:365] [-2:6] [28:31] [0:1] none none none none none [0:3] [-2.2083146064174635:14.259193305521343] [-5.9007107396731966:6.1135041603235534] [-6.3144945203165612:6.0770542173820825] [-2.616796517584147:8.1530105039188836] [-3.0540729225044014:7.3736377913611442] [-1.5481024585681533:5.7935991918011727] [-1.8367647932651929:2.9454139953883369] [-3.1529604240351721:3.0947390738493477] [-0.98093477921175021:0.9713992095496804] [-0.98049511908664311:1.7887197137894397] [-1.6232912618877773:1.708438180165925] [-1.5320520748853079:1.8951077503745051] [-1.2020469363457102:1.1916233369037497] [-0.90516040822178256:3.9969032047591613] [-1.4306446823096799:1.4613847047569262] [-1.0406915982371046:1.8634039434443368] [-2.7853555493882616:2.8486835363082426] [-1.2829023721743935:1.2229279825376977] [-1.4705490182854528:1.9169812592173574] [-1.2114417118988876:1.7305862506292544] [0:1] none none [0:1] [0:1] [0:1] [0:1] [0:1] [0:1] none [0:1] [0:1] [0:1] [0:1] [0:1] [0:1] [0:1] none [0:1] [0:1] [0:1] [0:1] none none none [0:1] [0:1] none [0:1] [0:1] [0:1] [0:1] [0:1] none [0:1] [0:1] [0:1] [0:1] [0:1] [0:1] [0:1] [0:1] [0:1] [0:1] none [0:1] [0:1] none none [0:1] [0:1] none none [0:1] none [0:1] [0:1] [0:1] none none [0:1] none none [0:1] none [0:1] none none [0:1] [0:1] [0:1] [0:1] [0:1] [0:1] none [0:1] [0:1] [0:1] [0:1] none none [0:1] none [0:1] [0:1] [0:1] [0:1] [0:1] [0:1] [0:1] [0:1] [0:1] [0:1]
tree_sizes=2861 2975 2956 2961 2984 2982 2961 2967 2983 2979 2983 2983 2988 3004 2974 2970 2981

Tree=0
num_leaves=36
num_cat=0
split_feature=56 56 157 77 169 396 399 293 86 148 380 352 11 7 306 362 184 164 397 340 64 70 388 383 49 323 397 387 45 240 90 319 394 295 92
split_gain=184982 184203 63395.1 16924.6 12364.2 11602.4 11544.2 11178.2 11078.4 10748.9 10648.9 9176.55 9586.21 8813.88 8203.15 7521.15 9536.9 9700.04 6979.74 6955.16 7580.67 9694.59 6953.07 6943.37 6839.1 5874.84 5353.6 5318.4 5237.63 5204.13 5181.69 9245.96 4667.66 4635.07 4579.27
threshold=1.5000000000000002 1.0000000180025095e-35 1.5000000000000002 1.5498046875000002 3.5000000000000004 -0.047964915494848846 -0.002896962323818308 5.5000000000000009 4.5000000000000009 1.0000000180025095e-35 -2.1305970579060611 4.5000000000000009 3.5000000000000004 12.500000000000002 2.5000000000000004 3.5000000000000004 2.5000000000000004 503.50000000000006 -0.11000174607609559 4.5000000000000009 1.5000000000000002 6.5000000000000009 0.41058065328496729 -1.8202881172513108 1.0000000180025095e-35 4.5000000000000009 0.12018884489734245 -0.094137604623578161 7.5000000000000009 4.5000000000000009 7.0500000000000007 5.5000000000000009 -0.35424040616633345 3.5000000000000004 2.5000000000000004
decision_type=2 2 2 2 2 2 2 2 2 2 2 2 2 8 2 2 2 10 2 2 2 2 2 2 2 2 2 2 2 2 2 10 2 2 10
left_child=1 2 5 7 6 -1 13 9 -9 10 25 15 -13 19 -10 -4 -17 22 -16 20 29 -22 33 -3 34 -2 -20 28 -14 -5 -25 -32 -12 -18 -7
right_child=3 23 11 4 -6 24 -8 8 14 -11 32 12 27 -15 18 16 17 -19 26 -21 21 -23 -24 30 -26 -27 -28 -29 -30 -31 31 -33 -34 -35 -36
leaf_value=-4.3535091012292551 -4.3533638822788596 -4.34493128916648 -4.3527108541992607 -4.3319370073134884 -4.3535478385296162 -4.3533865299422052 -4.3502292902804474 -4.3535488034423846 -4.3534968161362091 -4.3535865619727732 -4.3362411914900774 -4.3535150344942437 -4.3279134289689178 -4.3534902094667727 -4.353444099915885 -4.3535600366914355 -4.3294157790604437 -4.3498942974351227 -4.3326167452903857 -4.3534484729789868 -4.3337394602935726 -4.3535234978761501 -4.3534128317464047 -4.3294147989980649 -4.3534505657209435 -4.3300702386795606 -4.3533664955254006 -4.3533886581660823 -4.3446884165941384 -4.3533389944489 -4.3534742693861137 -4.3300496370346959 -4.3535555669567367 -4.3532789174222382 -4.3359704629777385
leaf_count=438 142 252 3802 749 826 161 887 844 379 4844 50 473 57 353 235 1127 126 793 405 243 141 533 189 8281 247 89 144 163 241 125 302 58 995 95 6009
internal_value=0 53.5273 33.6214 20.0688 31.269 44.3088 35.9688 12.5815 26.6014 6.051 24.0423 14.2281 33.0597 41.8925 36.8986 9.7085 19.8851 31.2842 44.5237 45.4025 48.1725 25.8768 48.5243 63.9742 45.6023 50.6126 51.0116 46.4286 53.8463 55.4169 64.2893 37.1552 6.92419 58.2213 46.3649
internal_count=34798 22814 13921 11984 3857 6855 3031 8127 2007 6120 1276 7066 934 2144 1163 6132 2330 1203 784 1791 1548 674 410 8893 6417 231 549 461 298 874 8641 360 1045 221 6170
shrinkage=1


Tree=1
num_leaves=36
num_cat=0
split_feature=56 56 157 77 169 389 396 399 239 388 311 142 127 6 6 51 7 293 143 391 19 358 284 49 383 230 213 240 340 102 388 390 6 77 10
split_gain=176932 174277 61263.3 16528.8 12069.6 11276.7 11231.5 11186 10972.8 13596.3 10352.1 13295.5 10844.5 9644.01 9609.83 9256.12 8775.17 8700.98 8602.39 8161.63 7559.66 7493.61 7003.8 6616.03 6543.83 6543.39 6449.01 6260.73 5676.17 5304.21 5272.43 4869.04 10153.9 5738.23 9536.97
threshold=1.5000000000000002 1.0000000180025095e-35 1.5000000000000002 1.5498046875000002 3.5000000000000004 0.47784067259894714 -0.047964915494848846 -0.002896962323818308 4.5000000000000009 -0.33310423358632874 2.5000000000000004 1.5000000000000002 4.5000000000000009 11.500000000000002 9.5000000000000018 5.5000000000000009 12.500000000000002 5.5000000000000009 1.0000000180025095e-35 0.27490591621207799 2.5000000000000004 4.5000000000000009 1.5000000000000002 1.0000000180025095e-35 -1.8202881172513108 3.5000000000000004 1.5000000000000002 4.5000000000000009 4.5000000000000009 2.5000000000000004 -0.70908368274235023 0.30933078952466581 16.500000000000004 1.3500976562500002 3.5000000000000004
decision_type=2 2 2 2 2 2 2 2 2 2 2 2 2 2 2 2 8 2 2 2 2 2 2 2 2 2 2 2 2 2 2 2 2 2 10
left_child=1 2 6 5 7 30 -1 15 9 21 11 13 -12 -4 -13 16 20 -11 22 -14 -5 -7 -19 -8 -3 -15 -10 28 29 -22 -2 -26 33 34 -33
right_child=3 24 10 4 -6 8 23 -9 26 17 12 14 19 25 -16 -17 -18 18 -20 -21 27 -23 -24 -25 31 -27 -28 -29 -30 -31 -32 32 -34 -35 -36
leaf_value=-0.00028700484418369982 0.016766966564844239 0.0082266532317707957 -0.00034855932448280198 -0.00022058189158380168 -0.00032574986847241607 -0.00017942331525722422 0.016776654504151244 0.0029832753366388944 0.021708120798159414 -0.00035794886977598021 -0.00036261236538427243 0.021558731004286274 -0.00025267227243650002 0.0048584326144978556 -0.00023828805507285179 -0.00027500779948342783 -0.00025429039888866668 -0.00020198101000984059 -0.00030308364440473834 0.021377147342658089 0.02146334844093432 0.024153112853857701 0.02179203979268813 -0.00022846359477725814 0.023493518626398507 0.021307273251035069 -0.00017779315544548595 -0.00017678399482153124 -0.00014438080129162791 -0.00011635075075972078 -0.00036267920148793352 0.019050407006530174 -0.00023800906243468477 0.024012878648863627 -0.00026363058839120777
leaf_count=438 50 252 1632 230 826 176 6170 887 156 2690 3934 238 303 513 267 377 308 203 543 86 789 54 115 247 7273 93 174 173 144 123 3966 431 266 342 329
internal_value=0 52.4919 33.2084 19.9205 30.9136 12.5221 43.5951 35.5015 20.6422 14.9138 14.1532 24.5134 5.03248 12.8234 47.0928 41.2615 44.9477 8.34315 26.5526 35.3031 48.4424 49.9461 44.5553 44.8473 62.5023 33.0058 48.1899 51.453 53.9464 56.207 1.26329 62.8028 52.4165 55.813 41.7899
internal_count=34798 22814 13921 11984 3857 8127 6855 3031 4111 3781 7066 2743 4323 2238 505 2144 1767 3551 861 389 1459 230 318 6417 8893 606 330 1229 1056 912 4016 8641 1368 1102 760
shrinkage=0.000368031


Tree=2
num_leaves=36
num_cat=0
split_feature=56 56 157 77 169 389 392 293 399 311 142 127 394 6 164 6 7 139 300 107 340 64 70 311 230 383 76 388 159 221 390 6 77 10 390
split_gain=169362 165068 59227.2 16138 11782.9 11134.9 13535.1 16454.3 10839.4 10188.5 12893.3 10694.4 10147.8 9493.06 9332.69 9260 8283.6 7965.34 7764.46 7255.08 6509.25 6998.02 9252.68 6414.72 6310.25 6174.64 5960.87 5196.88 4763.86 4727.53 4509.98 9770.78 5383.02 9226.55 5717.81
threshold=1.5000000000000002 1.0000000180025095e-35 1.5000000000000002 1.5498046875000002 3.5000000000000004 0.47784067259894714 0.24818123882356205 5.5000000000000009 -0.002896962323818308 2.5000000000000004 1.5000000000000002 4.5000000000000009 -0.05834526527336991 11.500000000000002 641.50000000000011 9.5000000000000018 12.500000000000002 1.5000000000000002 2.5000000000000004 3.5000000000000004 4.5000000000000009 1.5000000000000002 6.5000000000000009 3.5000000000000004 3.5000000000000004 -1.8202881172513108 2.5000000000000004 -0.70908368274235023 2.5000000000000004 4.5000000000000009 0.30933078952466581 16.500000000000004 1.3500976562500002 3.5000000000000004 0.44500497482396667
decision_type=2 2 2 2 2 2 2 2 2 2 2 2 2 2 8 2 8 2 2 2 2 2 2 2 2 2 2 2 2 2 2 2 2 10 2
left_child=1 2 12 5 8 27 7 -7 16 10 13 -11 -1 -4 19 -12 20 -13 -8 28 21 26 -23 -14 -15 -3 29 -2 -9 -5 -27 32 33 34 -32
right_child=3 25 9 4 -6 6 18 14 -10 11 15 17 23 24 -16 -17 -18 -19 -20 -21 -22 22 -24 -25 -26 30 -28 -29 -30 -31 31 -33 -34 -35 -36
leaf_value=-0.00028146617816722264 0.016533259653228025 0.0081634602785334784 -0.00034854964751211606 0.021455774291674126 -0.00032573403538854192 0.00074040819697683904 0.024183388839690366 0.022629672276225123 0.0029738248835985055 -0.00036260710491822984 0.021116028989181027 -0.00025314754960757566 0.016469686973876404 0.0048349105185149822 -0.00028329220283076199 -0.00023825923047127954 -0.0002680853735350281 0.021017611973339907 -0.00017638407355774149 -0.00020764080582615142 -0.00022634680584802318 0.018813811586617574 -0.00030211055014715057 -0.00022915969015090614 0.020891324299375458 0.022954051470446442 -0.00015580384839584759 -0.00036267395889144502 -8.4048398141207088e-05 -9.2695944399597485e-05 0.020902003652638737 -0.00023798020407990943 0.023456589060067271 -0.0002636038616923163 -0.00015474492383515324
leaf_count=405 50 252 1632 616 826 2980 61 167 887 3934 238 303 6205 513 415 267 353 86 172 210 243 141 533 245 93 7273 149 3966 106 109 285 266 342 329 146
internal_value=0 51.4969 32.8058 19.7744 30.5627 12.4644 20.489 14.517 35.0418 14.0795 24.298 5.02223 42.9043 12.7636 35.9675 46.3079 40.6431 34.8739 52.7143 47.1224 43.942 46.5345 25.2927 44.0356 32.6303 61.0981 53.3324 1.26251 55.7943 56.1022 61.3849 51.436 54.7044 41.1658 50.8145
internal_count=34798 22814 13921 11984 3857 8127 4111 3878 3031 7066 2743 4323 6855 2238 898 505 2144 389 233 483 1791 1548 674 6450 606 8893 874 4016 273 725 8641 1368 1102 760 431
shrinkage=0.000368031


Tree=3
num_leaves=36
num_cat=0
split_feature=56 56 282 388 323 289 29 42 238 159 211 102 130 6 393 96 217 262 128 269 315 32 295 383 13 352 169 100 397 55 3 29 298 55 261
split_gain=162231 156509 56122.1 14633.8 11422.1 12646.3 10090 11417.7 9334.18 12005.6 8665.99 8397.21 7931.86 9395.89 7381.33 6656.95 8204.04 13158.6 7625.18 6947.34 6514.81 6474.13 6088.1 5832.68 5452.66 12283.3 6413.95 5282.17 5274.65 5178.75 5140.23 4984.38 7489.61 4811.13 4528.51
threshold=1.5000000000000002 1.0000000180025095e-35 -1.0000000180025095e-35 0.29295353982342714 2.5000000000000004 2.5000000000000004 5.5000000000000009 6.5000000000000009 3.5000000000000004 2.5000000000000004 1.5000000000000002 2.5000000000000004 4.5000000000000009 14.500000000000002 -0.01885269021113475 1.5000000000000002 3.5000000000000004 2.5000000000000004 2.5000000000000004 2.5000000000000004 1.5000000000000002 2.5000000000000004 2.5000000000000004 -1.8202881172513108 3.5000000000000004 1.0000000180025095e-35 3.5000000000000004 3.5000000000000004 0.11695493537479391 2.5000000000000004 14.500000000000002 2.5000000000000004 5.5000000000000009 2.5000000000000004 4.5000000000000009
decision_type=2 2 2 2 2 2 2 2 2 2 2 2 2 2 2 2 2 2 2 2 2 2 2 2 2 2 2 2 2 2 10 2 2 2 2
left_child=1 2 29 4 34 -6 7 30 15 -10 20 12 21 -14 -11 19 31 18 -18 -4 -8 24 -9 -3 33 26 28 -16 -26 -1 -5 -17 -33 -7 -2
right_child=3 23 8 6 5 11 10 22 9 14 -12 -13 13 -15 27 16 17 -19 -20 -21 -22 -23 -24 -25 25 -27 -28 -29 -30 -31 -32 32 -34 -35 -36
leaf_value=0.016225847069652279 -0.00034394114026431156 0.0081011840456429503 0.020540227485910518 -0.00036509834816263507 -0.00032623293802365715 -8.8423162364052924e-05 -0.00019325348941951896 0.02045172497984701 0.0027431448100661091 -0.00021757536658924566 -0.00029023538578272181 -0.00029072535021845795 -0.00032347205213421767 0.020353476497911568 0.021865786581656565 -0.00036371170512638937 0.021843137670764255 -0.00032768816837241917 -0.00020766555840998909 -0.0002351743219124457 0.020882356116776871 -0.00023067603281907021 -0.00021104089664587757 0.022092957848141907 0.021744823661143328 0.0033096001430908892 -0.00018534694778978011 -0.00012015577697388942 -0.00011813870418360022 -0.00020375613232342647 0.016164633620752503 -0.000286454601493517 0.020216796523503007 0.022024586339299237 0.015839947062032799
leaf_count=5764 1356 252 92 5195 827 108 191 93 957 226 454 456 778 52 224 4387 130 856 210 259 167 249 216 8641 284 783 182 126 124 201 52 433 56 361 56
internal_value=0 50.5392 32.4129 19.6306 27.2609 31.7912 10.3405 5.21735 16.3765 30.7059 31.3306 35.8586 38.5597 15.9326 46.1695 11.2939 8.49698 24.5647 46.5883 36.4178 45.8359 43.2116 38.5755 59.7562 45.4677 36.2981 49.3061 53.8888 54.6717 43.4696 0.736361 2.65704 23.5478 56.7488 4.9919
internal_count=34798 22814 13921 11984 5616 4204 6368 5556 7956 1533 812 3377 2921 830 576 6423 6072 1196 340 351 358 2091 309 8893 1842 1373 590 350 408 5965 5247 4876 489 469 1412
shrinkage=0.000368031


Tree=4
num_leaves=36
num_cat=0
split_feature=56 56 157 77 389 392 293 399 396 311 142 90 127 164 6 51 7 139 300 19 107 49 230 102 240 340 383 268 388 17 159 372 90 14 393
split_gain=155482 148519 55467.3 15490.2 10865.5 12795.7 15902.3 10664.3 10304.3 9907.67 12264.8 10743.5 10418.3 8857.6 8713.49 8648.81 8548.69 7523.28 7217.19 7201.23 6800.99 6086.64 5944.68 5865.41 5795.37 5551.96 5514.98 5103.52 5047.92 4509.15 4430.02 4425.11 4353.97 4023.81 3990.61
threshold=1.5000000000000002 1.0000000180025095e-35 1.5000000000000002 1.5498046875000002 0.47784067259894714 0.24818123882356205 5.5000000000000009 -0.002896962323818308 -0.047964915494848846 2.5000000000000004 1.5000000000000002 4.6500000000000012 4.5000000000000009 641.50000000000011 9.5000000000000018 5.5000000000000009 12.500000000000002 1.5000000000000002 2.5000000000000004 2.5000000000000004 3.5000000000000004 1.0000000180025095e-35 2.5000000000000004 2.5000000000000004 4.5000000000000009 4.5000000000000009 -1.8202881172513108 3.5000000000000004 -0.70908368274235023 2.5000000000000004 2.5000000000000004 28.500000000000004 8.3500000000000032 5.5000000000000009 0.031735146850161843
decision_type=2 2 2 2 2 2 2 2 2 2 2 2 2 8 2 2 8 2 2 2 2 2 2 2 2 2 2 2 2 2 2 10 2 2 2
left_child=1 2 8 4 28 6 -6 15 -1 10 11 -4 -11 20 -12 16 19 -14 -7 -5 30 34 -13 24 25 27 -3 33 -2 -24 -8 -9 -28 -21 -10
right_child=3 26 9 7 5 18 13 31 21 12 14 22 17 -15 -16 -17 -18 -19 -20 23 -22 -23 29 -25 -26 -27 32 -29 -30 -31 -32 -33 -34 -35 -36
leaf_value=-0.00028757745221960688 0.016071127056086466 0.0080398061551557147 -0.00034998097693035384 -0.00024742519584300074 0.00073642676640151103 0.023194668073500645 0.021761492184771837 0.01600164101857211 0.016143607731770978 -0.00036262219465301815 0.020397957707919988 -0.00023958275467282958 -0.00025325981520136456 -0.00028337155603726135 -0.00023838149296328905 -0.00029375481036161377 -0.00027890948691307093 0.020269835859398171 -0.00017664419255602662 0.020430112948453871 -0.00020769795951718564 -0.00022993436439947018 0.020977116942628465 -0.00020664448697378093 -0.00019044645286065329 -0.00016890253769047864 0.021658013825606073 -0.00013938705096429831 -0.00036268789020615612 -0.0001212198577307904 -8.4262745201523279e-05 -0.00033669767243551851 -6.2079870032954535e-05 -7.6431941262965805e-05 -0.00016316378143808039
leaf_count=438 50 252 1732 284 2980 61 167 58 6017 3934 238 267 303 415 267 472 397 86 172 773 210 247 114 207 187 165 8547 138 3966 125 106 1076 94 100 153
internal_value=0 49.6164 32.0301 19.4902 12.3385 20.1804 14.349 29.9316 41.5923 13.9313 23.9036 12.6363 4.99416 35.1176 45.0097 35.3043 38.7487 34.0755 50.9435 42.1533 45.7049 42.7412 35.1193 45.0213 47.3574 49.6655 58.4711 51.8768 1.25731 47.561 53.8342 6.30002 58.7332 53.9094 43.4199
internal_count=34798 22814 13921 11984 8127 4111 3878 3857 6855 7066 2743 2238 4323 898 505 2723 2251 389 233 1854 483 6417 506 1570 1363 1176 8893 1011 4016 239 273 1134 8641 873 6170
shrinkage=0.000368031


Tree=5
num_leaves=36
num_cat=0
split_feature=46 45 46 0 383 19 163 6 289 260 398 65 90 103 238 289 201 243 279 393 174 260 213 340 206 188 92 6 407 186 207 127 290 126 292
split_gain=87668.1 48713.3 39367.9 18236.5 9960.43 9416.04 10270.8 9148.83 10098.5 9619 8743.94 8201.79 10521.1 8043.4 7831.97 9120.43 8039.33 9296.58 8119.04 7855.02 7693.5 7581.69 7355.24 6897.67 6791.53 6766.06 6654.25 6337.62 6260.04 6126.98 5783.91 5571.78 5529.16 5808.02 5636.5
threshold=2.5000000000000004 1.5000000000000002 1.5000000000000002 2.5000000000000004 -1.8947009482943478 3.5000000000000004 1.0000000180025095e-35 13.500000000000002 4.5000000000000009 3.5000000000000004 -0.019989278563304277 1.0000000180025095e-35 6.9500000000000011 2.5000000000000004 3.5000000000000004 3.5000000000000004 2.5000000000000004 2.5000000000000004 3.5000000000000004 0.032123864899582404 3.5000000000000004 3.5000000000000004 2.5000000000000004 1.5000000000000002 1.5000000000000002 1.5000000000000002 9.5000000000000018 -1.0000000180025095e-35 1.0000000180025095e-35 2.5000000000000004 3.5000000000000004 2.5000000000000004 3.5000000000000004 2.5000000000000004 -1.0000000180025095e-35
decision_type=2 2 2 2 2 2 2 2 2 2 2 2 2 2 2 2 2 2 2 2 2 2 2 2 2 2 10 2 2 2 2 2 2 2 2
left_child=2 5 7 10 -4 25 32 8 13 -10 -3 28 27 24 16 -16 -12 23 -19 -20 -5 -17 -11 29 -1 -2 -9 -13 -6 -18 -15 -28 33 -7 -34
right_child=1 3 4 20 11 6 -8 26 9 22 14 12 -14 30 15 21 17 18 19 -21 -22 -23 -24 -25 -26 -27 31 -29 -30 -31 -32 -33 34 -35 -36
leaf_value=-0.00019936304584704814 0.013699197251029225 -0.00035458245113477617 0.0054476494138888812 0.01936818201510742 0.021402158423895735 0.019600818308548169 0.0038784895176716739 -0.00033282174838840904 -0.00033162521626150236 0.018015555881162996 -0.00035357918771098713 -0.00019055102860783429 -0.00025810468636922675 0.0034689345718485918 -0.00030038021223081104 0.017576932896254428 -0.00022325840666139666 0.00094598792522942185 -0.00024970809830088362 0.021095513125091739 -0.00022809478740278902 -0.00025049258435006134 -0.00025574672611012846 -0.00027274314277798354 0.019226593746753992 -0.00031993351423203429 0.018013695018765374 0.018758431121770672 -0.00014418052807787537 0.017555668949198973 0.015626232071049941 -0.00023432505700800955 0.015164320137369005 -0.00016545444579371018 -0.00023405107929551556
leaf_count=196 302 2147 434 383 3685 1335 640 952 923 255 2044 177 309 724 518 538 235 2463 290 60 242 293 305 367 1075 713 143 6838 131 480 305 253 4639 157 247
internal_value=0 31.9881 49.9727 19.2121 53.2193 40.9725 42.6985 33.6886 37.6056 20.539 15.2246 53.645 49.984 43.463 18.707 32.2342 14.0274 19.6316 10.19 35.3932 45.4752 40.7119 36.6395 34.0798 49.8752 18.3345 14.8151 50.5992 57.7872 41.2937 26.1604 33.3916 44.1041 51.7408 40.2975
internal_count=34798 18093 16705 10060 11574 8033 7018 5131 3783 1483 9435 11140 7324 2300 7288 1349 5939 3895 2813 350 625 831 560 1082 1271 1015 1348 7015 3816 715 1029 396 6378 1492 4886
shrinkage=0.000368031


Tree=6
num_leaves=36
num_cat=0
split_feature=56 56 282 77 169 389 239 388 399 238 159 7 364 393 358 96 194 201 340 102 318 217 127 240 118 383 388 55 232 123 370 289 112 90 397
split_gain=144650 135727 50917.7 14902 10896 10547 9827.9 12165.2 9766.84 8822.21 11172.4 7493.9 7014.89 6798.9 6363.28 6324.53 8245.14 10002.5 5847.31 5589.37 5393.87 5342.81 8240.21 5325.23 4996.28 4954.43 4911.29 4775.88 4601.65 4396.25 4309.65 4248.11 4218.26 4031.71 3719.36
threshold=1.5000000000000002 1.0000000180025095e-35 -1.0000000180025095e-35 1.5498046875000002 3.5000000000000004 0.47784067259894714 4.5000000000000009 -0.33310423358632874 -0.002896962323818308 3.5000000000000004 2.5000000000000004 12.500000000000002 7.5000000000000009 -0.01885269021113475 4.5000000000000009 1.5000000000000002 1.5000000000000002 3.5000000000000004 4.5000000000000009 2.5000000000000004 5.5000000000000009 3.5000000000000004 3.5000000000000004 4.5000000000000009 3.5000000000000004 -1.8202881172513108 -0.70908368274235023 2.5000000000000004 2.5000000000000004 3.5000000000000004 40.500000000000007 1.5000000000000002 1.5000000000000002 8.3500000000000032 -0.19827265725547596
decision_type=2 2 2 2 2 2 2 2 2 2 2 8 2 2 2 2 2 2 2 2 10 2 2 2 2 2 2 2 2 2 8 2 2 2 2
left_child=1 2 27 5 8 26 7 14 11 15 31 18 -9 -12 -7 20 17 -17 19 23 -4 -18 -23 29 -24 -3 -2 -1 -8 34 -10 -11 -15 -27 -5
right_child=3 25 9 4 -6 6 28 12 30 10 13 -13 -14 32 -16 16 21 -19 -20 -21 -22 22 24 -25 -26 33 -28 -29 -30 -31 -32 -33 -34 -35 -36
leaf_value=0.01546873201501572 0.015643833913980314 0.007932876680482398 -0.00022051989876969194 -7.9342972651611271e-05 -0.00032627864405332412 -0.00018147742952268907 0.019357934713157565 0.0014872318223602171 0.016244664795485773 0.015834925973917217 -0.0002186998735375811 -0.00026898706253917332 0.015298562821687135 0.020512048872396441 0.021872265320040114 -0.00029996964823675375 -0.0003637761663721834 0.018384188047722062 -0.00022742083369438798 -0.00020759431069743454 0.018480510524305334 -0.0003229680780262869 -0.00016791514336886055 -0.00018630854092485145 0.020506423701318804 0.020797634453152594 -0.00036276278247909859 -0.00020554415234529946 -0.00015095926306602834 0.0070613400097965318 -0.00032720165734632895 -0.00033057537963894165 -9.6528717474928828e-05 -6.272431210228708e-05 0.01950699595836974
leaf_count=5764 50 252 228 99 826 176 184 3408 50 50 226 353 143 240 54 514 4379 183 243 205 123 765 161 180 70 8547 3966 201 146 285 837 907 110 94 779
internal_value=0 47.9067 31.2497 19.1405 29.2518 12.1564 19.7806 14.3749 33.3938 16.0399 29.7272 38.4968 8.10388 44.2124 46.1133 11.1068 8.37264 29.0206 41.4814 43.8103 35.1566 3.85182 18.7689 46.0365 41.7714 56.163 1.24336 41.4605 44.8955 48.1575 7.93005 7.33314 51.3229 56.4039 51.4482
internal_count=34798 22814 13921 11984 3857 8127 4111 3781 3031 7956 1533 2144 3551 576 230 6423 6072 697 1791 1548 351 5375 996 1343 231 8893 4016 5965 330 1163 887 957 350 8641 878
shrinkage=0.000368031


Tree=7
num_leaves=36
num_cat=0
split_feature=56 56 380 77 169 389 392 239 399 238 159 364 393 300 96 194 201 340 64 70 318 217 193 12 388 127 100 393 388 370 393 397 90 355 301
split_gain=138915 129151 49906.7 14569.4 10654.2 10419 11866.4 10287.3 9478.35 8661.72 10889.6 7058.91 6573.77 6570.77 6180.33 8186.99 9720.7 6024.99 6273.41 8654.08 5288.02 5279.39 8910.36 5269.36 4844.73 4795.58 4712.77 4501.85 4331.94 4240.81 4192.71 3908.04 3868.97 7959.04 3868.64
threshold=1.5000000000000002 1.0000000180025095e-35 2.6944424325165039 1.5498046875000002 3.5000000000000004 0.47784067259894714 0.24818123882356205 4.5000000000000009 -0.002896962323818308 3.5000000000000004 2.5000000000000004 7.5000000000000009 -0.01885269021113475 2.5000000000000004 1.5000000000000002 1.5000000000000002 3.5000000000000004 4.5000000000000009 1.5000000000000002 6.5000000000000009 5.5000000000000009 3.5000000000000004 3.5000000000000004 4.5000000000000009 -0.70908368274235023 3.5000000000000004 3.5000000000000004 0.034558867615791293 0.66901801229460778 40.500000000000007 0.072297810343155994 -0.19827265725547596 7.0500000000000007 5.0000000000000009 1.5000000000000002
decision_type=2 2 2 2 2 2 2 2 2 2 2 2 2 2 2 2 2 2 2 2 10 2 2 2 2 2 2 2 2 8 2 2 2 2 2
left_child=1 2 9 5 8 24 7 11 17 14 30 34 -12 -8 20 16 -16 18 27 -20 -1 -17 -23 -9 -2 -24 -14 28 31 -10 -11 -5 -3 -34 -7
right_child=3 32 -4 4 -6 6 13 23 29 10 12 -13 26 -15 15 21 -18 -19 19 -21 -22 22 25 -25 -26 -27 -28 -29 -30 -31 -32 -33 33 -35 -36
leaf_value=-0.00022222306975928986 0.015437919834443032 0.02036767569680591 0.015062793432671154 -9.7182126793900051e-05 -0.00032626290326720557 0.0074405303589572961 0.021899268210530148 0.019347450696068819 0.016024050866406007 -0.00033076504190840059 -0.00021867022014170987 0.015334416946019525 0.02035975052729572 -0.00017846167809494232 -0.0002995663645447283 -0.00036382347051702941 0.018090849833568869 -0.00025078720280707044 0.016927410868771656 -0.00031317571151251802 0.018164215623383939 -0.00032534346962171751 -0.00015056010011415443 -0.00018699263680397061 -0.00036275755340488578 0.020911625156662773 -0.00012461414783559733 -0.00015597747805841649 -0.00013335597348339056 -0.00032718612865444293 0.015645430817709711 0.019243863669829414 0.020297232436530619 -0.00026271895038247216 -0.00035909238554170813
leaf_count=231 50 8526 5932 108 826 585 61 131 50 911 226 136 224 172 511 4403 182 296 158 620 123 804 146 178 3966 52 126 144 128 837 50 690 56 311 2848
internal_value=0 47.0777 30.8941 19.0064 28.9405 12.1019 19.6397 14.0219 32.9907 15.8908 29.3661 8.04007 43.5168 48.5053 11.0143 8.30968 28.8129 37.9606 40.3603 21.8371 34.5924 3.81958 18.5597 41.5417 1.24259 43.4327 50.3919 46.3676 48.4597 7.90853 7.28331 50.4727 55.0278 32.9337 4.00048
internal_count=34798 22814 13921 11984 3857 8127 4111 3878 3031 7989 1537 3569 576 233 6452 6098 693 2144 1848 778 354 5405 1002 309 4016 198 350 1070 926 887 961 798 8893 367 3433
shrinkage=0.000368031


Tree=8
num_leaves=36
num_cat=0
split_feature=56 56 157 77 169 389 392 239 311 142 90 127 396 399 7 6 364 391 19 300 323 142 230 393 17 383 50 17 397 301 175 90 92 162 383
split_gain=133483 123003 49201.7 14248.3 10421.3 10293.8 11523.5 10056.6 9375.63 11187.2 10143.6 9919.59 9259.69 9216.97 7891.21 7837.86 6929.2 6850.15 6366.56 6330.58 5632.58 5449.11 5417.61 5184.49 4664.31 4612.79 4366.59 4021.9 3887.73 3835.02 5851.92 3732.67 3680.36 3566.98 3351.81
threshold=1.5000000000000002 1.0000000180025095e-35 1.5000000000000002 1.5498046875000002 3.5000000000000004 0.47784067259894714 0.24818123882356205 4.5000000000000009 2.5000000000000004 1.5000000000000002 4.6500000000000012 4.5000000000000009 -0.047964915494848846 -0.0025782745287257071 12.500000000000002 9.5000000000000018 7.5000000000000009 0.27490591621207799 2.5000000000000004 2.5000000000000004 2.5000000000000004 2.5000000000000004 2.5000000000000004 0.031735146850161843 1.5000000000000002 -1.8202881172513108 6.5000000000000009 2.5000000000000004 -0.19827265725547596 1.5000000000000002 1.0000000180025095e-35 8.3500000000000032 2.5000000000000004 1.0000000180025095e-35 -0.16414933117290359
decision_type=2 2 2 2 2 2 2 2 2 2 2 2 2 2 8 2 2 2 2 2 2 2 2 2 2 2 2 2 2 2 2 2 10 2 2
left_child=1 2 12 5 13 26 7 16 9 10 -4 -10 -1 14 18 33 29 -13 -5 -8 -20 28 -12 32 -9 -3 -2 -24 -22 30 -7 -27 -14 -11 -30
right_child=3 25 8 4 -6 6 19 24 11 15 22 17 23 -15 -16 -17 -18 -19 20 -21 21 -23 27 -25 -26 31 -28 -29 34 -31 -32 -33 -34 -35 -36
leaf_value=-0.00028842398284114625 -0.00036270780944189403 0.0077242808677679122 -0.00035021621105930988 -0.00025079039993925666 -0.00032624716083870276 0.016411857749710445 0.021449963196800054 -0.00017531424862843607 -0.00036273411123936817 -5.4035476760486694e-05 -0.00024048994814650988 -0.00025446546481031724 -0.00017032318442866475 -0.00030797031462432374 -0.0002842287481585184 -0.00023968108317361201 0.015118887761403623 0.019036644249022863 0.0052746089494824112 -0.00017843248756151757 -0.00012357455067563993 -0.00019617612682800551 0.019624413729386728 -0.00022485208942026912 0.018660156776479017 0.019970712672484021 0.01395983870861351 -0.00012272383618220023 0.015091720449723416 -0.00035908591408352663 -0.00029499666717829141 -6.3332189208344978e-05 0.01516940904735779 0.020700410581887888 0.022140956273562329
leaf_count=438 3942 252 1732 285 826 111 61 165 3934 87 267 303 152 578 416 267 136 86 424 172 123 186 114 230 144 8547 74 125 891 2848 474 94 6035 151 128
internal_value=0 46.2775 30.5466 18.8746 28.6372 12.048 19.5012 13.9502 13.5922 23.0898 12.3374 4.91281 39.1968 32.5988 36.1027 42.6138 8.01544 32.603 39.1026 47.6863 41.5231 45.0636 33.5656 40.2293 40.9402 53.9384 1.24182 44.9048 47.2339 3.99352 20.0694 54.1649 40.8074 51.9825 48.7824
internal_count=34798 22814 13921 11984 3857 8127 4111 3878 7066 2743 2238 4323 6855 3031 2453 505 3569 389 2037 233 1752 1328 506 6417 309 8893 4016 239 1142 3433 585 8641 6187 238 1019
shrinkage=0.000368031


Tree=9
num_leaves=36
num_cat=0
split_feature=56 56 380 77 169 389 293 148 86 329 238 51 7 113 184 107 397 340 19 246 118 336 286 144 14 142 388 128 240 383 107 55 255 317 390
split_gain=128333 117261 46759.7 13934.8 10195.4 10171.5 9288.58 12877.1 9049.57 8600.87 8348.25 8111.66 8324.85 7241.06 9255.37 6553.28 6436.87 6238.44 5668.53 5589.47 6710.86 10650.7 8058.59 6395.43 5334.62 4818.53 4738.26 4545.87 4428.62 4382.63 4307.85 3792.18 3768.28 3562.79 3530.33
threshold=1.5000000000000002 1.0000000180025095e-35 2.6944424325165039 1.5498046875000002 3.5000000000000004 0.47784067259894714 5.5000000000000009 1.0000000180025095e-35 4.5000000000000009 2.5000000000000004 3.5000000000000004 5.5000000000000009 12.500000000000002 2.5000000000000004 3.5000000000000004 3.5000000000000004 -0.19827265725547596 4.5000000000000009 2.5000000000000004 4.5000000000000009 3.5000000000000004 1.5000000000000002 1.5000000000000002 1.5000000000000002 2.5000000000000004 2.5000000000000004 -0.70908368274235023 2.5000000000000004 4.5000000000000009 -1.8202881172513108 2.5000000000000004 2.5000000000000004 3.5000000000000004 1.0000000180025095e-35 0.30933078952466581
decision_type=2 2 2 2 2 2 2 2 2 2 2 2 8 2 2 2 2 2 2 2 2 2 2 2 2 2 2 2 2 2 2 2 2 2 2
left_child=1 2 10 5 11 26 7 9 -8 -7 19 12 16 14 -12 30 -5 18 -18 20 -1 -22 27 -21 -15 28 -2 -23 33 -3 -10 -4 -16 -20 -31
right_child=3 29 31 4 -6 6 8 -9 15 -11 13 -13 -14 24 32 -17 17 -19 25 23 21 22 -24 -25 -26 -27 -28 -29 -30 34 -32 -33 -34 -35 -36
leaf_value=0.00043504542284115598 0.015108377611321045 0.007668211066655683 0.014787290987604141 -0.00025525980677445966 -0.00032623141384240529 -0.00028477158999149431 -0.00029039502573583614 -0.00035716227436078686 -0.00010630957173553874 0.017291387813286947 -0.00033418984917458182 -0.0003020229601378614 -0.00029146001760827357 0.019405288953304439 -0.0001268024523066268 -0.00021702378499744026 -0.00021312557975038232 -0.00023863135917422519 -9.1776664751824126e-05 0.018597863619100725 -0.00034097919543943313 0.021219889191392852 -0.00028025796150439461 -0.00024923178970985175 -0.00017479730798218443 -0.00017526591150187568 -0.00036275093692331151 0.0071327469333951144 -0.00014767434149896592 0.019842584749391854 0.020284381827842864 -0.00018355027690850832 0.019280802251641228 0.018514783485961629 0.01652765815181283
leaf_count=4085 50 252 5762 299 826 416 447 2486 112 241 983 515 456 183 128 219 210 263 108 104 1215 74 399 288 167 163 3966 287 141 7273 190 170 76 876 1368
internal_value=0 45.5034 30.2055 18.7446 28.339 11.9949 19.3654 11.0335 34.2928 32.5868 15.7078 32.2149 35.2986 28.794 16.0325 43.7568 38.4634 40.9106 43.2823 10.9193 8.28685 18.8287 33.6825 32.6799 45.2868 45.4374 1.24102 44.9218 47.2694 52.8913 50.6105 39.7264 41.8686 48.9531 53.109
internal_count=34798 22814 13921 11984 3857 8127 4111 3143 968 657 7989 3031 2516 1537 1187 521 2060 1761 1498 6452 6060 1975 760 392 350 1288 4016 361 1125 8893 302 5932 204 984 8641
shrinkage=0.000368031


Tree=10
num_leaves=36
num_cat=0
split_feature=56 56 157 388 323 289 29 42 311 142 90 127 396 211 102 130 389 391 90 45 315 32 49 369 17 394 391 391 314 383 123 206 209 90 112
split_gain=123494 111868 46299.3 12826.7 10035.7 11100.5 9227.03 10398.9 9132.78 10694.3 9847.84 9669.86 8772.81 7596.55 7245.64 6642.76 8246.64 6489.36 6405.59 6073.44 5534.45 5510.39 5223.69 4630.46 4611.23 4557.81 4423.92 4275.88 4256.74 4167.57 3908.06 3807.53 3531.32 3515.99 3402.78
threshold=1.5000000000000002 1.0000000180025095e-35 1.5000000000000002 0.29295353982342714 2.5000000000000004 2.5000000000000004 5.5000000000000009 6.5000000000000009 2.5000000000000004 1.5000000000000002 4.6500000000000012 4.5000000000000009 -0.047964915494848846 1.5000000000000002 2.5000000000000004 4.5000000000000009 -0.31720569172705387 0.27490591621207799 3.5500000000000003 3.5000000000000004 1.5000000000000002 2.5000000000000004 1.0000000180025095e-35 9.5000000000000018 2.5000000000000004 0.8464276501796294 0.39702979891372725 -0.52196985729129608 24.500000000000004 -1.8202881172513108 4.5000000000000009 4.5000000000000009 2.5000000000000004 8.3500000000000032 1.0000000180025095e-35
decision_type=2 2 2 2 2 2 2 2 2 2 2 2 2 2 2 2 2 2 2 2 2 2 2 10 2 2 2 2 10 2 2 2 2 2 2
left_child=1 2 12 4 28 -6 7 25 9 10 -4 -10 -1 20 15 21 -17 -13 32 -9 -8 23 -14 -7 34 -5 27 -25 -2 -3 31 -29 -11 -31 -12
right_child=3 29 8 6 5 14 13 19 11 18 24 17 22 -15 -16 16 -18 -19 -20 -21 -22 -23 -24 26 -26 -27 -28 30 -30 33 -32 -33 -34 -35 -36
leaf_value=-0.00028858746567904603 -0.00034473708997135449 0.0076129128967858378 -0.0003502473186278919 -0.00036525640754516043 -0.00032729761063572221 -0.00019850716051743515 -0.00019615221284731895 -0.00022891449190860143 -0.00036274962782027411 -7.5937074089434865e-05 -0.00011430595445252675 -0.00025458579295766702 0.014596353062238228 -0.00029141038193394316 -0.00029194977739443654 0.018280052817903965 -0.00032474777860176066 0.018399470670089652 -0.0002243868014058787 0.019321942066308797 0.018897455443650818 -0.00023361768537204057 -0.00023291382950712771 -0.00016314876242671476 -0.00023010481385173377 0.01435463305230799 -0.00018007374554403181 0.017904356063859012 0.014936738929775782 0.019206556134267562 -0.00013560198266871168 -0.0001195284629195116 0.019659093433383148 -6.7263499988281852e-05 0.018254539777881426
leaf_count=438 1360 252 1732 5188 827 190 191 242 3934 95 119 303 6170 454 456 52 778 86 236 67 167 249 247 154 244 59 172 1072 52 8547 132 122 174 94 143
internal_value=0 44.7559 29.8731 18.6139 25.4638 29.4859 9.9862 5.06989 13.4535 22.7363 12.2164 4.88482 38.1001 29.3669 33.0564 35.3872 15.1124 31.8783 41.5385 35.546 42.083 39.3938 39.0782 41.3142 32.826 0.708179 42.928 44.4698 4.81915 51.8851 45.9601 47.3221 49.1955 52.0943 42.478
internal_count=34798 22814 13921 11984 5616 4204 6368 5556 7066 2743 2238 4323 6855 812 3377 2921 830 389 505 309 358 2091 6417 1842 506 5247 1652 1480 1412 8893 1326 1194 269 8641 262
shrinkage=0.000368031


Tree=11
num_leaves=36
num_cat=0
split_feature=56 56 157 77 389 169 293 148 399 86 396 329 7 142 321 340 107 181 267 19 148 49 142 388 319 259 7 240 175 107 383 170 123 184 92
split_gain=118878 106816 44922.8 13398.6 9935.68 9811.95 8916.03 12519.1 8636.05 8616.46 8532.15 8188.41 7333.54 7028.37 7344.42 6403.33 6179 6108.95 6584.88 5968.96 5381.27 5077.87 4986.79 4613.85 4564.35 5192.48 4720.08 4500.45 4400.19 4037.73 3966.07 3883.22 3781.37 3674.06 3667.96
threshold=1.5000000000000002 1.0000000180025095e-35 1.5000000000000002 1.5498046875000002 0.47784067259894714 3.5000000000000004 5.5000000000000009 1.0000000180025095e-35 -0.0025782745287257071 4.5000000000000009 -0.047964915494848846 2.5000000000000004 12.500000000000002 2.5000000000000004 5.5000000000000009 4.5000000000000009 3.5000000000000004 2.5000000000000004 2.5000000000000004 2.5000000000000004 1.5000000000000002 1.0000000180025095e-35 2.5000000000000004 -0.70908368274235023 11.500000000000002 3.5000000000000004 69.500000000000014 4.5000000000000009 2.5000000000000004 2.5000000000000004 -1.8202881172513108 4.5000000000000009 3.5000000000000004 2.5000000000000004 2.5000000000000004
decision_type=2 2 2 2 2 2 2 2 2 2 2 2 8 2 2 2 2 2 2 2 2 2 2 2 10 2 8 2 2 2 2 2 2 2 10
left_child=1 2 10 4 23 8 7 11 12 -8 -1 -6 15 17 -15 19 29 18 20 -5 33 34 27 -2 26 -26 -19 32 -16 -11 -3 -20 -21 -4 -12
right_child=3 30 13 5 6 -7 9 -9 -10 16 21 -13 -14 14 28 -17 -18 24 31 22 -22 -23 -24 -25 25 -27 -28 -29 -30 -31 -32 -33 -34 -35 -36
leaf_value=-0.00028856409447060945 0.014722199280529499 0.0075583699040269511 -0.00011844369217371566 -0.00023875411115891436 -0.00028491293722203784 -0.00032632386971467284 -0.00029046572764650187 -0.00035720320636589573 -0.00030819084851778193 -0.00010663151112969509 -0.00018364714817909272 0.016777508044496906 -0.00028430851136966064 -0.00028068944246888492 0.018776918012014188 -0.00025922564599883529 -0.00021713495021406771 -0.00036368465576427732 -0.00033559715151093491 0.017920545621018642 -0.00023569424326962707 -0.00023288466766497272 -0.00020197363852481065 -0.00036276380915296728 -0.00026152881661190193 0.017273411691765661 0.014982149762744817 -0.00017317093289949287 -0.00015329160675458598 0.019585372340937116 0.018812846154150867 0.014348885522825532 0.006968302819173741 0.018551648985496102 0.014536716554837062
leaf_count=438 50 252 124 255 416 826 447 2486 578 112 161 241 416 397 148 316 219 4306 1033 841 256 247 192 3966 326 67 50 163 146 190 8641 59 270 154 6009
internal_value=0 44.032 29.5468 18.4864 11.8779 27.7873 19.0882 10.9263 31.5174 33.5198 37.572 31.8806 34.8005 13.3862 31.3596 37.5885 42.5311 9.94256 21.2447 40.023 35.2485 38.5234 42.2923 1.23608 4.3827 25.1729 1.05057 44.1883 43.6538 48.9936 50.9163 6.35867 45.8994 44.257 39.0896
internal_count=34798 22814 13921 11984 8127 3857 4111 3143 3031 968 6855 657 2453 7066 691 2037 521 6375 1626 1721 534 6417 1466 4016 4749 393 4356 1274 294 302 8893 1092 1111 278 6170
shrinkage=0.000368031


Tree=12
num_leaves=36
num_cat=0
split_feature=56 56 157 77 389 392 293 169 311 127 137 399 396 51 164 7 214 139 388 388 300 107 340 49 240 388 189 123 383 159 92 186 90 229 397
split_gain=114513 102058 43593.4 13110.5 9816.15 10509.8 14126.9 9604.36 8885.1 9445.6 8685.14 8432.68 8301.35 7793.62 7519.54 7204.72 6597.04 6205.94 6138.71 6923.65 5625.69 5561.69 5532.75 4938.13 4674.51 4554.33 4502.79 3816.31 3777.22 3594.94 3565.97 3556.33 3326.7 3174.36 2851.47
threshold=1.5000000000000002 1.0000000180025095e-35 1.5000000000000002 1.5498046875000002 0.47784067259894714 0.24818123882356205 5.5000000000000009 3.5000000000000004 2.5000000000000004 4.5000000000000009 3.5000000000000004 -0.0025782745287257071 -0.047964915494848846 5.5000000000000009 641.50000000000011 12.500000000000002 3.5000000000000004 1.5000000000000002 -0.32673110377459341 0.61343434193142043 2.5000000000000004 3.5000000000000004 4.5000000000000009 1.0000000180025095e-35 4.5000000000000009 -0.70908368274235023 2.5000000000000004 3.5000000000000004 -1.8202881172513108 2.5000000000000004 2.5000000000000004 3.5000000000000004 8.3500000000000032 4.5000000000000009 -0.19827265725547596
decision_type=2 2 2 2 2 2 2 2 2 2 2 2 2 2 8 8 2 2 2 2 2 2 2 2 2 2 2 2 2 2 10 2 2 2 2
left_child=1 2 12 4 25 6 -6 11 10 -10 16 13 -1 15 21 22 18 -11 -4 26 -7 29 24 30 27 -2 -20 33 -3 -8 -14 -28 -30 34 -5
right_child=3 28 8 7 5 20 14 -9 9 17 -12 -13 23 -15 -16 -17 -18 -19 19 -21 -22 -23 -24 -25 -26 -27 31 -29 32 -31 -32 -33 -34 -35 -36
leaf_value=-0.00028854072020626436 0.014538051323497987 0.0075045678230706786 -0.00026808164827125518 -5.1181785864983328e-05 0.00070904014369064269 0.020054248542932841 0.01918342604244231 -0.00032630813817120769 -0.00036275586723981569 -0.00025502165484575414 -0.00033329706052365573 -0.00030817103218044867 -0.00018361768284724336 -0.00029083530321703539 -0.00028534193008073443 -0.00027134932364451602 -0.00029723477437682206 0.017869654903816479 -0.00016895736689828659 -0.0002549725388258668 -0.0001789740776589947 -0.00021015855142551585 -0.0002295135388703923 -0.00023285550762212626 -0.00019341593467977404 -0.00036275857543255694 0.018427975979874951 0.006573766007869998 0.018499163887885379 -9.1183411219746539e-05 0.014328317085438583 -9.9344676532684301e-05 -7.1508747552673715e-05 -8.7153909966847408e-05 0.018073892347048016
leaf_count=438 50 252 342 86 2980 61 167 826 3934 303 963 578 161 435 415 359 489 86 160 301 172 210 244 247 185 3966 377 293 8547 106 6009 111 94 96 755
internal_value=0 43.3318 29.2286 18.3597 11.8248 18.9542 13.6339 27.5043 13.321 4.86158 22.3857 31.1555 37.0585 34.3613 32.1897 37.3242 28.9907 31.2295 34.008 38.6768 45.0734 41.1783 40.0633 37.9841 42.1669 1.23531 43.9423 43.9442 49.9834 47.8269 38.5347 47.367 50.1772 46.7095 47.9739
internal_count=34798 22814 13921 11984 8127 4111 3878 3857 7066 4323 2743 3031 6855 2453 898 2018 1780 389 1291 949 233 483 1659 6417 1415 4016 648 1230 8893 273 6170 488 8641 937 841
shrinkage=0.000368031


Tree=13
num_leaves=36
num_cat=0
split_feature=56 56 157 77 169 293 148 86 311 127 137 161 399 396 51 7 393 214 306 391 298 19 340 397 380 49 209 240 397 390 383 186 92 229 357
split_gain=110356 97603.4 42331.7 12830.1 9403.3 9366.04 9491.58 8810.14 8750.33 9327.53 8525.6 8421.34 8236.43 8079.92 7595.94 7008.11 6610.12 6418.73 6250.87 6039.14 5912.48 5441.08 5341.11 5083.33 4939.99 4804.16 4790.57 4407.12 3728.35 3621.66 3600.02 3527.02 3468.24 3253.83 3251.01
threshold=1.5000000000000002 1.0000000180025095e-35 1.5000000000000002 1.5498046875000002 3.5000000000000004 5.5000000000000009 1.0000000180025095e-35 4.5000000000000009 2.5000000000000004 4.5000000000000009 3.5000000000000004 2.5000000000000004 -0.0025782745287257071 -0.047964915494848846 5.5000000000000009 12.500000000000002 -0.023859217750349767 3.5000000000000004 2.5000000000000004 0.27490591621207799 1.5000000000000002 2.5000000000000004 4.5000000000000009 -0.11000174607609559 -2.0995474628374029 1.0000000180025095e-35 2.5000000000000004 4.5000000000000009 0.12018884489734245 -0.03245256280837034 -1.8202881172513108 3.5000000000000004 2.5000000000000004 4.5000000000000009 3.5000000000000004
decision_type=2 2 2 2 2 2 2 2 2 2 2 2 2 2 2 8 2 2 2 2 2 2 2 2 2 2 2 2 2 2 2 2 10 2 2
left_child=1 2 13 5 12 6 11 -7 10 -10 16 24 14 -1 15 21 -4 20 -9 -11 -18 -5 27 -20 29 32 -22 33 34 -2 -3 -28 -15 -23 -25
right_child=3 30 8 4 -6 7 -8 18 9 19 -12 -13 -14 25 -16 -17 17 -19 23 -21 26 22 -24 28 -26 -27 31 -29 -30 -31 -32 -33 -34 -35 -36
leaf_value=-0.0002885173450624495 0.018436587039033062 0.0074514916250494143 -0.00029871614213014205 -0.0002311641026002789 -0.00032629240481984491 -0.00032750341710837896 -0.00036468528172967692 -0.00027719319132321065 -0.00036275061463494831 -0.00025498801596762625 -0.00033328305093852513 -0.00032471260451997044 -0.00030815121280062369 -0.00018358821756867119 -0.00029081222894290955 -0.00027132350450302173 -0.00023960573244605741 -0.00027323552126231254 -0.00022478279443142023 0.017573598253220444 -0.00018449600551587398 0.017112473427402561 -0.00021591618578752338 0.018043361506173316 -0.00022369035743624509 -0.00023282633952913571 0.018186653363884409 -0.00017420963811646406 -0.0001460659776073096 -0.00011789731033773472 0.018133298780971526 -0.00010312081440490284 0.014125836928406698 -0.0001056788531547804 -9.0721925478304927e-05
leaf_count=438 132 252 497 238 826 844 4844 379 3934 303 963 789 578 161 435 359 261 363 235 86 176 933 220 301 235 247 370 164 144 120 8641 113 6009 104 104
internal_value=0 42.653 28.9155 18.2349 27.2269 11.7724 5.77691 23.8112 13.2539 4.85189 22.2005 21.6651 30.8017 36.5588 33.933 36.8208 28.6843 33.7116 32.0009 30.8905 38.5933 39.4852 41.5539 37.812 35.7619 37.4597 43.09 43.5846 42.5379 44.0321 49.0844 46.7335 37.9954 45.2602 46.0043
internal_count=34798 22814 13921 11984 3857 8127 6120 2007 7066 4323 2743 1276 3031 6855 2453 2018 1780 1283 1163 389 920 1659 1421 784 487 6417 659 1201 549 252 8893 483 6170 1037 405
shrinkage=0.000368031


Tree=14
num_leaves=36
num_cat=0
split_feature=56 56 157 388 323 289 45 177 396 142 321 32 306 181 267 340 51 56 90 280 320 397 49 123 175 215 191 127 388 177 261 392 240 56 383
split_gain=106420 93410.2 41120 11950.2 9321.16 10317.9 7975.55 8043.15 7867.35 6669.32 6852.42 6364.91 6289.32 5901.03 6205.56 5598.85 5727.61 5278.7 5059.71 6179.65 4797.77 4715.8 4675.65 4673.19 5396.27 4436.44 7572.36 4520.54 4306.54 4060.85 3954.36 3908.94 3825.4 3453.59 3433.59
threshold=1.5000000000000002 1.0000000180025095e-35 1.5000000000000002 0.29295353982342714 2.5000000000000004 2.5000000000000004 3.5000000000000004 2.5000000000000004 -0.047964915494848846 2.5000000000000004 5.5000000000000009 2.5000000000000004 4.5000000000000009 2.5000000000000004 2.5000000000000004 3.5000000000000004 5.5000000000000009 4.5000000000000009 5.1500000000000012 5.5000000000000009 2.5000000000000004 0.10730932401213818 1.0000000180025095e-35 3.5000000000000004 1.0000000180025095e-35 2.5000000000000004 3.5000000000000004 3.5000000000000004 0.53108503512255389 2.5000000000000004 4.5000000000000009 0.63428767671985609 4.5000000000000009 4.5000000000000009 -1.8202881172513108
decision_type=2 2 2 2 2 2 2 2 2 2 2 2 2 2 2 2 2 2 2 2 8 2 2 2 2 2 2 2 2 2 2 2 2 2 2
left_child=1 2 8 4 30 -6 18 12 -1 13 -11 15 20 14 21 16 17 23 -5 -20 -8 -4 -10 32 -25 26 -15 -28 -21 -12 -2 -16 -7 -17 -3
right_child=3 34 9 6 5 11 7 -9 22 10 29 -13 -14 25 31 33 -18 -19 19 28 -22 -23 -24 24 -26 -27 27 -29 -30 -31 -32 -33 -34 -35 -36
leaf_value=-0.0002884939652306489 -0.00034483919912789435 0.0073991271263578479 -0.0002297954574920259 -0.00036328439453350831 -0.00032764818154683604 0.01657753851013791 0.018588869251987123 -0.00031895540045758213 0.01379052131523704 -0.00028074902058251118 0.017917481970880941 -0.00028893674617570141 -0.00025519980543164044 -0.00032840119821570977 -0.00033596434483251065 -0.00030772683535714584 -0.00025480368411347399 -0.00023476951831071362 -0.00031820283699424162 -0.00019535295725929747 -0.00016945717351023233 0.015449356073841163 -0.00023279717389642688 0.015659684941414238 -0.0002929843885691103 -0.00036208606219401878 -0.00018316005994670133 0.018585016571127728 0.017460461957780456 -0.00015441126970279604 0.013977854216678182 0.014408693494964502 -0.00015001964384733982 0.014569593722608619 0.017811799358982215
leaf_count=438 1356 252 243 4061 827 1103 157 706 6170 397 148 430 306 857 1041 565 295 245 690 190 163 291 247 94 451 3659 176 57 95 146 56 51 144 50 8641
internal_value=0 41.9953 28.6091 18.1107 24.5789 28.3398 9.81407 23.8263 36.0725 13.1875 30.4153 31.6586 35.0445 9.82424 20.7937 33.7062 36.5061 38.4224 4.03916 18.1666 43.8169 34.0834 36.9497 40.1885 19.9339 4.3499 16.738 37.8777 35.4192 41.8863 4.75242 6.30465 43.6526 10.567 48.2175
internal_count=34798 22814 13921 11984 5616 4204 6368 1332 6855 7066 691 3377 626 6375 1626 2947 2332 2037 5036 975 320 534 6417 1792 545 4749 1090 233 285 294 1412 1092 1247 615 8893
shrinkage=0.000368031


Tree=15
num_leaves=36
num_cat=0
split_feature=56 56 157 77 389 392 311 142 90 127 396 7 7 51 321 6 231 79 340 139 397 300 19 268 230 49 388 240 142 393 44 17 92 383 90
split_gain=102657 89445.4 39946.9 12352 9485.03 9787.48 8512.27 9491.9 9219.27 9119.31 7663.2 7481.43 7339.09 7334.85 7240.33 6540.97 6319.43 7774.29 5877.75 5792.8 5641.24 5149.59 5139.55 4836.23 4660.34 4552.32 4397.04 4276.14 3876.96 3638.18 3391.66 3336.35 3330.02 3296.27 3089.62
threshold=1.5000000000000002 1.0000000180025095e-35 1.5000000000000002 1.5498046875000002 0.47784067259894714 0.24818123882356205 2.5000000000000004 1.5000000000000002 4.6500000000000012 4.5000000000000009 -0.047964915494848846 12.500000000000002 18.500000000000004 5.5000000000000009 3.5000000000000004 9.5000000000000018 2.5000000000000004 23.500000000000004 4.5000000000000009 1.5000000000000002 -0.19827265725547596 2.5000000000000004 2.5000000000000004 3.5000000000000004 2.5000000000000004 1.0000000180025095e-35 -0.70908368274235023 4.5000000000000009 2.5000000000000004 0.034558867615791293 2.5000000000000004 2.5000000000000004 2.5000000000000004 -1.9649910240349413 8.3500000000000032
decision_type=2 2 2 2 2 2 2 2 2 2 2 8 10 2 2 2 2 8 2 2 2 2 2 2 2 2 2 2 2 2 2 2 10 2 2
left_child=1 2 10 4 26 12 7 8 -4 -8 -1 13 14 18 16 -9 17 -6 20 -11 -5 -7 -22 27 -10 32 -2 28 29 -24 -14 -26 -12 -3 -35
right_child=3 33 6 11 5 21 9 15 24 19 25 -13 30 -15 -16 -17 -18 -19 -20 -21 22 -23 23 -25 31 -27 -28 -29 -30 -31 -32 -33 -34 34 -36
leaf_value=-0.00028847058187554409 0.01404979832443707 -9.4577642899447938e-05 -0.00035038605053735198 -0.0002632279696809236 0.016137453324276421 0.019073152447903908 -0.00036275738018301258 0.017190876709512092 -0.0002416243483125643 -0.00025546687975345166 -0.00018576221850835143 -0.00031804974599372018 -0.00011874802093503999 -0.00030641189433798971 -0.00035705706967236085 -0.000241292490726864 0.01685136003162252 -0.00033806904104845818 -0.00027844479052104211 0.017098472313189287 -0.0002412741963964146 -0.00017934723172442942 0.016563289921772233 -0.00022166115854176644 0.017649789900823994 -0.0002327680072220085 -0.00036277350792026411 -0.00019194986685814271 -0.00016428431647898229 -0.00014134134558942623 0.018512198132082297 -0.00012407669553593463 0.013739543576001618 0.017499687941143139 -7.952459770627192e-05
leaf_count=438 50 99 1732 319 74 61 3934 238 267 303 161 693 120 549 2427 267 115 1092 388 86 260 172 964 224 114 247 3966 184 149 127 50 125 6009 8700 94
internal_value=0 41.3583 28.3102 17.9899 11.6592 18.5635 13.1234 21.8597 11.9234 4.82901 35.5991 26.7162 13.4117 29.5606 9.26278 38.8913 21.3834 11.2683 32.3492 30.2868 34.584 43.2041 36.7288 38.683 31.2184 36.4536 1.22896 40.5218 42.1477 43.6219 40.831 40.9735 36.9612 47.3811 47.468
internal_count=34798 22814 13921 11984 8127 4111 7066 2743 2238 4323 6855 3857 3878 3164 3708 505 1281 1166 2615 389 2227 233 1908 1648 506 6417 4016 1424 1240 1091 170 239 6170 8893 8794
shrinkage=0.000368031


Tree=16
num_leaves=36
num_cat=0
split_feature=56 56 157 77 389 392 169 399 396 7 321 284 51 7 142 321 181 267 300 340 148 393 215 191 388 127 240 317 142 177 392 305 383 327 14
split_gain=99069 85709.1 38822.5 12089.9 9376.95 9526.8 8912.89 7756.22 7466.98 7177.34 7163.76 9355.97 7085.21 6514.9 6424.54 6540.16 5762.87 5962.25 4983.37 4968.42 4814.24 4391.24 4373.13 7316.41 4342.47 4281.01 4173.78 3953.25 3916.81 3846.6 3802.08 3216.32 3186.7 3136.1 3129.72
threshold=1.5000000000000002 1.0000000180025095e-35 1.5000000000000002 1.5498046875000002 0.47784067259894714 0.24818123882356205 3.5000000000000004 -0.0025782745287257071 -0.047964915494848846 18.500000000000004 3.5000000000000004 1.5000000000000002 5.5000000000000009 12.500000000000002 2.5000000000000004 5.5000000000000009 2.5000000000000004 2.5000000000000004 2.5000000000000004 4.5000000000000009 1.5000000000000002 0.031735146850161843 2.5000000000000004 3.5000000000000004 -0.70908368274235023 3.5000000000000004 4.5000000000000009 2.5000000000000004 2.5000000000000004 2.5000000000000004 0.63428767671985609 2.5000000000000004 -1.9649910240349413 5.3515625000000009 5.5000000000000009
decision_type=2 2 2 2 2 2 2 2 2 10 2 2 2 8 2 2 2 2 2 2 2 2 2 2 2 2 2 2 2 2 2 2 2 10 2
left_child=1 2 8 4 24 9 7 12 -1 10 11 -6 13 19 16 -16 17 20 -7 26 31 -10 23 -18 -2 -25 28 -13 34 -17 -19 -4 -3 -11 -5
right_child=3 32 14 6 5 18 -8 -9 21 33 -12 27 -14 -15 15 29 22 30 -20 -21 -22 -23 -24 25 -26 -27 -28 -29 -30 -31 -32 -33 -34 -35 -36
leaf_value=-0.00028844719636468769 0.013880914214782408 -9.455742405597856e-05 -0.0001196777069069367 0.016236384289745272 -0.00032895491990389986 0.018730769459283095 -0.00032653294493920304 -0.00030840288611077947 0.01341848608604009 -0.00011075585584671253 -0.00035704989190797002 0.016010490491953001 -0.00029078016550258763 -0.00027145597441643159 -0.00028085594785342893 0.017359321550351331 -0.00032841785442535643 -0.00033598279654647361 -0.00017931799875652279 -0.00022952865104039418 -0.00023676189906679241 -0.00023184280154542886 -0.0003620892524861989 -0.00018321608795408793 -0.00036276827557300427 0.018004445835424765 -0.00019329718871630979 -0.00018918766115721728 -0.00017162111637340701 -0.00015518168178590532 0.014065987871610909 0.017214624077930379 0.017171293754328111 0.018039417729739486 -0.00011894679104888499
leaf_count=438 50 99 122 967 860 61 826 578 6187 115 2427 240 435 359 397 148 857 1041 172 244 256 230 3659 176 3966 57 185 181 153 146 51 156 8794 55 110
internal_value=0 40.7402 28.0171 17.8708 11.6095 18.4405 26.4534 29.8419 35.1379 13.3468 9.23086 21.2234 32.7907 35.4845 13.0592 29.7796 9.75031 20.4996 42.5519 37.9614 33.3301 35.9705 4.33132 16.5429 1.22818 36.9685 39.8506 36.8845 41.4376 40.7282 6.2705 41.39 46.5732 40.2597 42.9269
internal_count=34798 22814 13921 11984 8127 4111 3857 3031 6855 3878 3708 1281 2453 2018 7066 691 6375 1626 233 1659 534 6417 4749 1090 4016 233 1415 421 1230 294 1092 278 8893 170 1077
shrinkage=0.000368031



feature importances:
D19_SOZIALES=34
_isMissingUnknown_9=20
_isMissingUnknown_4=17
ANZ_HAUSHALTE_AKTIV=15
GEBURTSJAHR=15
EINGEZOGENAM_HH_JAHR=15
KBA05_MOTRAD=14
D19_GESAMT_ONLINE_DATUM_Value_ACTIVITY_WITHIN_MONTHS=14
KBA05_KW1=13
_isMissingUnknown_18=12
ALTERSKATEGORIE_FEIN=12
KBA05_ZUL2=12
_isMissingUnknown_10=12
KBA13_BJ_2000=12
_isMissingUnknown_14=11
_isMissingUnknown_20=11
KBA13_MERCEDES=11
_isMissingUnknown_17=11
UMFELD_ALT=9
_isMissingUnknown_13=9
D19_LOTTO=9
CJT_TYP_4=8
D19_RATGEBER=8
SEMIO_DOM=8
SEMIO_MAT=7
KBA05_AUTOQUOT=7
GFK_URLAUBERTYP=7
KBA05_SEG5=6
KBA05_ZUL4=6
RETOURTYP_BK_S=6
_isMissingUnknown_12=6
KBA13_KW_90=5
KBA05_KRSHERST3=5
W_KEIT_KIND_HH=5
CJT_TYP_2=5
KBA13_KW_121=5
_isMissingUnknown_11=5
KBA05_ANHANG=5
WOHNLAGE=5
KBA13_MAZDA=4
_isMissingUnknown_1=4
KBA05_MOD8=4
D19_KONSUMTYP=4
D19_SONSTIGE=4
FINANZTYP=4
KBA13_ANZAHL_PKW=4
KBA13_CCM_1600=3
_isMissingUnknown_15=3
LP_STATUS_FEIN_Value_OTHER=3
KBA13_CCM_3000=3
KBA13_CCM_1200=3
HH_EINKOMMEN_SCORE=3
KBA13_CCM_2500=3
D19_BIO_OEKO=3
D19_BEKLEIDUNG_GEH=3
D19_VERSI_DATUM=3
KBA13_HALTER_60=3
KBA13_VORB_2=3
CJT_GESAMTTYP=3
KBA13_CCM_0_1400=3
KBA13_KMH_250=3
D19_VERSAND_ANZ_12=3
SEMIO_VERT=3
D19_KONSUMTYP_MAX=2
KBA05_ALTER3=2
KBA05_HERST5=2
KBA05_KW2=2
KBA05_MAXAH=2
KBA05_MOD3=2
KBA13_FORD=2
KBA13_HALTER_25=2
KBA13_HERST_BMW_BENZ=2
KBA13_HERST_SONST=2
KBA13_KMH_0_140=2
KBA13_KMH_140=2
KBA13_KMH_140_210=2
KBA13_KMH_180=2
KBA13_KW_120=2
KBA13_SITZE_4=2
KBA13_SITZE_5=2
KBA13_VORB_3=2
PLZ8_ANTG1=2
PLZ8_ANTG3=2
SEMIO_FAM=2
SEMIO_KULT=2
SEMIO_PFLICHT=2
VERS_TYP=2
VHN=2
VK_DHT4A=2
VK_DISTANZ=2
CAMEO_DEUINTL_2015_Value_1=2
D19_VERSAND_ONLINE_DATUM_Value_ACTIVITY_WITHIN_MONTHS=2
LP_LEBENSPHASE_FEIN_Value_AGE=2
EINGEFUEGT_AM_DayOfYear=2
KBA05_CCM4=2
ANZ_PERSONEN=2
D19_HANDWERK=2
ORTSGR_KLS9=1
KBA13_KW_30=1
KBA13_KW_40=1
PLZ8_BAUMAX=1
KBA13_ANTG4=1
RT_KEIN_ANREIZ=1
RT_UEBERGROESSE=1
KBA13_ANTG3=1
KBA13_FAB_SONSTIGE=1
KBA13_FAB_ASIEN=1
KBA13_ANTG2=1
KBA13_BMW=1
SEMIO_TRADV=1
KBA05_SEG10=1
KBA05_SEG1=1
VERDICHTUNGSRAUM=1
KBA13_OPEL=1
KBA13_SEG_GELAENDEWAGEN=1
KBA13_SEG_SONSTIGE=1
KBA13_SEG_WOHNMOBILE=1
VK_ZG11=1
KBA05_KRSZUL=1
KBA05_DIESEL=1
ALTER_HH_Value_0=1
KBA13_KRSHERST_BMW_BENZ=1
D19_GESAMT_DATUM_Value_ACTIVITY_WITHIN_MONTHS=1
D19_NAHRUNGSERGAENZUNG=1
KBA13_HERST_EUROPA=1
LP_FAMILIE_FEIN_Value_FAMILY=1
LP_FAMILIE_GROB_Value_FAMILY=1
KBA13_SITZE_6=1
LP_LEBENSPHASE_GROB_Value_INCOME=1
AGER_TYP=1
EINGEFUEGT_AM_Day=1
KBA13_BJ_2004=1
EINGEFUEGT_AM_DaysInMonth=1
KBA05_ANTG1=1
EXTSEL992=1
_isMissingUnknown_8=1
D19_WEIN_FEINKOST=1
D19_VERSAND_ANZ_24=1
D19_KINDERARTIKEL=1
CAMEO_DEUG_2015=1
BALLRAUM=1
ARBEIT=1
ALTER_KIND2=1
KBA13_HALTER_20=1
KBA13_VW=1
_isMissingUnknown_19=1
ONLINE_AFFINITAET=1
CAMEO_DEU_2015_2C=1

pandas_categorical:[]
