tree
version=v2
num_class=1
num_tree_per_iteration=1
label_index=0
max_feature_idx=492
objective=binary sigmoid:1
feature_names=AGER_TYP AKT_DAT_KL ALTER_KIND1 ALTER_KIND2 ALTER_KIND3 ALTER_KIND4 ALTERSKATEGORIE_FEIN ANZ_HAUSHALTE_AKTIV ANZ_HH_TITEL ANZ_KINDER ANZ_PERSONEN ARBEIT BALLRAUM CAMEO_DEUG_2015 CJT_GESAMTTYP CJT_KATALOGNUTZER CJT_TYP_1 CJT_TYP_2 CJT_TYP_3 CJT_TYP_4 CJT_TYP_5 CJT_TYP_6 D19_BANKEN_ANZ_12 D19_BANKEN_ANZ_24 D19_BANKEN_DIREKT D19_BANKEN_GROSS D19_BANKEN_LOKAL D19_BANKEN_ONLINE_QUOTE_12 D19_BANKEN_REST D19_BEKLEIDUNG_GEH D19_BEKLEIDUNG_REST D19_BILDUNG D19_BIO_OEKO D19_BUCH_CD D19_DIGIT_SERV D19_DROGERIEARTIKEL D19_ENERGIE D19_FREIZEIT D19_GARTEN D19_GESAMT_ANZ_12 D19_GESAMT_ANZ_24 D19_GESAMT_ONLINE_QUOTE_12 D19_HANDWERK D19_HAUS_DEKO D19_KINDERARTIKEL D19_KONSUMTYP D19_KONSUMTYP_MAX D19_KOSMETIK D19_LEBENSMITTEL D19_LOTTO D19_NAHRUNGSERGAENZUNG D19_RATGEBER D19_REISEN D19_SAMMELARTIKEL D19_SCHUHE D19_SONSTIGE D19_SOZIALES D19_TECHNIK D19_TELKO_ANZ_12 D19_TELKO_ANZ_24 D19_TELKO_MOBILE D19_TELKO_ONLINE_QUOTE_12 D19_TELKO_REST D19_TIERARTIKEL D19_VERSAND_ANZ_12 D19_VERSAND_ANZ_24 D19_VERSAND_ONLINE_QUOTE_12 D19_VERSAND_REST D19_VERSI_ANZ_12 D19_VERSI_ANZ_24 D19_VERSI_DATUM D19_VERSI_OFFLINE_DATUM D19_VERSI_ONLINE_DATUM D19_VERSI_ONLINE_QUOTE_12 D19_VERSICHERUNGEN D19_VOLLSORTIMENT D19_WEIN_FEINKOST EINGEZOGENAM_HH_JAHR EWDICHTE EXTSEL992 FINANZ_ANLEGER FINANZ_HAUSBAUER FINANZ_MINIMALIST FINANZ_SPARER FINANZ_UNAUFFAELLIGER FINANZ_VORSORGER FINANZTYP FIRMENDICHTE GEBAEUDETYP GEBAEUDETYP_RASTER GEBURTSJAHR GEMEINDETYP GFK_URLAUBERTYP GREEN_AVANTGARDE HEALTH_TYP HH_DELTA_FLAG HH_EINKOMMEN_SCORE INNENSTADT KBA05_ALTER1 KBA05_ALTER2 KBA05_ALTER3 KBA05_ALTER4 KBA05_ANHANG KBA05_ANTG1 KBA05_ANTG2 KBA05_ANTG3 KBA05_ANTG4 KBA05_AUTOQUOT KBA05_BAUMAX KBA05_CCM1 KBA05_CCM2 KBA05_CCM3 KBA05_CCM4 KBA05_DIESEL KBA05_FRAU KBA05_GBZ KBA05_HERST1 KBA05_HERST4 KBA05_HERST5 KBA05_HERSTTEMP KBA05_KRSAQUOT KBA05_KRSHERST1 KBA05_KRSHERST2 KBA05_KRSHERST3 KBA05_KRSOBER KBA05_KRSVAN KBA05_KRSZUL KBA05_KW1 KBA05_KW2 KBA05_KW3 KBA05_MAXAH KBA05_MAXBJ KBA05_MAXHERST KBA05_MAXSEG KBA05_MAXVORB KBA05_MOD1 KBA05_MOD2 KBA05_MOD3 KBA05_MOD4 KBA05_MOD8 KBA05_MODTEMP KBA05_MOTOR KBA05_MOTRAD KBA05_SEG1 KBA05_SEG10 KBA05_SEG2 KBA05_SEG3 KBA05_SEG4 KBA05_SEG5 KBA05_SEG6 KBA05_SEG7 KBA05_SEG8 KBA05_SEG9 KBA05_VORB0 KBA05_VORB1 KBA05_VORB2 KBA05_ZUL1 KBA05_ZUL2 KBA05_ZUL3 KBA05_ZUL4 KBA13_ANTG1 KBA13_ANTG2 KBA13_ANTG3 KBA13_ANTG4 KBA13_ANZAHL_PKW KBA13_AUDI KBA13_AUTOQUOTE KBA13_BAUMAX KBA13_BJ_1999 KBA13_BJ_2000 KBA13_BJ_2004 KBA13_BJ_2006 KBA13_BJ_2008 KBA13_BJ_2009 KBA13_BMW KBA13_CCM_0_1400 KBA13_CCM_1000 KBA13_CCM_1200 KBA13_CCM_1400 KBA13_CCM_1401_2500 KBA13_CCM_1500 KBA13_CCM_1600 KBA13_CCM_1800 KBA13_CCM_2000 KBA13_CCM_2500 KBA13_CCM_2501 KBA13_CCM_3000 KBA13_CCM_3001 KBA13_FAB_ASIEN KBA13_FAB_SONSTIGE KBA13_FIAT KBA13_FORD KBA13_GBZ KBA13_HALTER_20 KBA13_HALTER_25 KBA13_HALTER_30 KBA13_HALTER_35 KBA13_HALTER_40 KBA13_HALTER_45 KBA13_HALTER_50 KBA13_HALTER_55 KBA13_HALTER_60 KBA13_HALTER_65 KBA13_HALTER_66 KBA13_HERST_ASIEN KBA13_HERST_AUDI_VW KBA13_HERST_BMW_BENZ KBA13_HERST_EUROPA KBA13_HERST_FORD_OPEL KBA13_HERST_SONST KBA13_HHZ KBA13_KMH_0_140 KBA13_KMH_110 KBA13_KMH_140 KBA13_KMH_140_210 KBA13_KMH_180 KBA13_KMH_210 KBA13_KMH_250 KBA13_KMH_251 KBA13_KRSAQUOT KBA13_KRSHERST_AUDI_VW KBA13_KRSHERST_BMW_BENZ KBA13_KRSHERST_FORD_OPEL KBA13_KRSSEG_KLEIN KBA13_KRSSEG_OBER KBA13_KRSSEG_VAN KBA13_KRSZUL_NEU KBA13_KW_0_60 KBA13_KW_110 KBA13_KW_120 KBA13_KW_121 KBA13_KW_30 KBA13_KW_40 KBA13_KW_50 KBA13_KW_60 KBA13_KW_61_120 KBA13_KW_70 KBA13_KW_80 KBA13_KW_90 KBA13_MAZDA KBA13_MERCEDES KBA13_MOTOR KBA13_NISSAN KBA13_OPEL KBA13_PEUGEOT KBA13_RENAULT KBA13_SEG_GELAENDEWAGEN KBA13_SEG_KLEINST KBA13_SEG_KLEINWAGEN KBA13_SEG_KOMPAKTKLASSE KBA13_SEG_MINIVANS KBA13_SEG_MINIWAGEN KBA13_SEG_MITTELKLASSE KBA13_SEG_OBEREMITTELKLASSE KBA13_SEG_OBERKLASSE KBA13_SEG_SONSTIGE KBA13_SEG_SPORTWAGEN KBA13_SEG_UTILITIES KBA13_SEG_VAN KBA13_SEG_WOHNMOBILE KBA13_SITZE_4 KBA13_SITZE_5 KBA13_SITZE_6 KBA13_TOYOTA KBA13_VORB_0 KBA13_VORB_1 KBA13_VORB_1_2 KBA13_VORB_2 KBA13_VORB_3 KBA13_VW KK_KUNDENTYP KKK KOMBIALTER KONSUMNAEHE KONSUMZELLE MIN_GEBAEUDEJAHR MOBI_RASTER MOBI_REGIO NATIONALITAET_KZ ONLINE_AFFINITAET ORTSGR_KLS9 OST_WEST_KZ PLZ8_ANTG1 PLZ8_ANTG2 PLZ8_ANTG3 PLZ8_ANTG4 PLZ8_BAUMAX REGIOTYP RELAT_AB RETOURTYP_BK_S RT_KEIN_ANREIZ RT_SCHNAEPPCHEN RT_UEBERGROESSE SEMIO_DOM SEMIO_ERL SEMIO_FAM SEMIO_KAEM SEMIO_KRIT SEMIO_KULT SEMIO_LUST SEMIO_MAT SEMIO_PFLICHT SEMIO_RAT SEMIO_REL SEMIO_SOZ SEMIO_TRADV SEMIO_VERT SHOPPER_TYP SOHO_KZ STRUKTURTYP TITEL_KZ UMFELD_ALT UMFELD_JUNG UNGLEICHENN_FLAG VERDICHTUNGSRAUM VERS_TYP VHA VHN VK_DHT4A VK_DISTANZ VK_ZG11 W_KEIT_KIND_HH WOHNDAUER_2008 WOHNLAGE ZABEOTYP ANREDE_KZ ALTERSKATEGORIE_GROB ALTER_HH_Value_0 CAMEO_DEUINTL_2015_Value_0 CAMEO_DEUINTL_2015_Value_1 D19_BANKEN_DATUM_Value_ACTIVITY_WITHIN_MONTHS D19_BANKEN_DATUM_Value_INCREASE D19_BANKEN_OFFLINE_DATUM_Value_ACTIVITY_WITHIN_MONTHS D19_BANKEN_OFFLINE_DATUM_Value_INCREASE D19_BANKEN_ONLINE_DATUM_Value_ACTIVITY_WITHIN_MONTHS D19_BANKEN_ONLINE_DATUM_Value_INCREASE D19_GESAMT_DATUM_Value_ACTIVITY_WITHIN_MONTHS D19_GESAMT_DATUM_Value_INCREASE D19_GESAMT_OFFLINE_DATUM_Value_ACTIVITY_WITHIN_MONTHS D19_GESAMT_OFFLINE_DATUM_Value_INCREASE D19_GESAMT_ONLINE_DATUM_Value_ACTIVITY_WITHIN_MONTHS D19_GESAMT_ONLINE_DATUM_Value_INCREASE D19_TELKO_DATUM_Value_ACTIVITY_WITHIN_MONTHS D19_TELKO_DATUM_Value_INCREASE D19_TELKO_OFFLINE_DATUM_Value_ACTIVITY_WITHIN_MONTHS D19_TELKO_OFFLINE_DATUM_Value_INCREASE D19_TELKO_ONLINE_DATUM_Value_ACTIVITY_WITHIN_MONTHS D19_TELKO_ONLINE_DATUM_Value_INCREASE D19_VERSAND_DATUM_Value_ACTIVITY_WITHIN_MONTHS D19_VERSAND_DATUM_Value_INCREASE D19_VERSAND_OFFLINE_DATUM_Value_ACTIVITY_WITHIN_MONTHS D19_VERSAND_OFFLINE_DATUM_Value_INCREASE D19_VERSAND_ONLINE_DATUM_Value_ACTIVITY_WITHIN_MONTHS D19_VERSAND_ONLINE_DATUM_Value_INCREASE LP_FAMILIE_FEIN_Value_CHILD LP_FAMILIE_FEIN_Value_FAMILY LP_FAMILIE_FEIN_Value_GENERATIONAL LP_FAMILIE_GROB_Value_FAMILY LP_LEBENSPHASE_FEIN_Value_AGE LP_LEBENSPHASE_FEIN_Value_INCOME LP_LEBENSPHASE_FEIN_Value_OTHER LP_LEBENSPHASE_GROB_Value_AGE LP_LEBENSPHASE_GROB_Value_INCOME LP_STATUS_FEIN_Value_INCOME LP_STATUS_FEIN_Value_OTHER LP_STATUS_GROB_Value_INCOME PRAEGENDE_JUGENDJAHRE_Value_0 PRAEGENDE_JUGENDJAHRE_Value_2 PRAEGENDE_JUGENDJAHRE_Value_3 EINGEFUEGT_AM_Day EINGEFUEGT_AM_DayOfYear EINGEFUEGT_AM_DayOfWeek EINGEFUEGT_AM_DaysInMonth EINGEFUEGT_AM_IsMonthStart EINGEFUEGT_AM_IsMonthEnd EINGEFUEGT_AM_IsQuarterStart EINGEFUEGT_AM_IsQuarterEnd EINGEFUEGT_AM_IsYearStart EINGEFUEGT_AM_IsYearEnd EINGEFUEGT_AM_Season _isMissingUnknown_1 _isMissingUnknown_2 _isMissingUnknown_3 _isMissingUnknown_4 _isMissingUnknown_5 _isMissingUnknown_6 _isMissingUnknown_7 _isMissingUnknown_8 _isMissingUnknown_9 _isMissingUnknown_10 _isMissingUnknown_11 _isMissingUnknown_12 _isMissingUnknown_13 _isMissingUnknown_14 _isMissingUnknown_15 _isMissingUnknown_16 _isMissingUnknown_17 _isMissingUnknown_18 _isMissingUnknown_19 _isMissingUnknown_20 CAMEO_DEU_2015_1A CAMEO_DEU_2015_1B CAMEO_DEU_2015_1C CAMEO_DEU_2015_1D CAMEO_DEU_2015_1E CAMEO_DEU_2015_2A CAMEO_DEU_2015_2B CAMEO_DEU_2015_2C CAMEO_DEU_2015_2D CAMEO_DEU_2015_3A CAMEO_DEU_2015_3B CAMEO_DEU_2015_3C CAMEO_DEU_2015_3D CAMEO_DEU_2015_4A CAMEO_DEU_2015_4B CAMEO_DEU_2015_4C CAMEO_DEU_2015_4D CAMEO_DEU_2015_4E CAMEO_DEU_2015_5A CAMEO_DEU_2015_5B CAMEO_DEU_2015_5C CAMEO_DEU_2015_5D CAMEO_DEU_2015_5E CAMEO_DEU_2015_5F CAMEO_DEU_2015_6A CAMEO_DEU_2015_6B CAMEO_DEU_2015_6C CAMEO_DEU_2015_6D CAMEO_DEU_2015_6E CAMEO_DEU_2015_6F CAMEO_DEU_2015_7A CAMEO_DEU_2015_7B CAMEO_DEU_2015_7C CAMEO_DEU_2015_7D CAMEO_DEU_2015_7E CAMEO_DEU_2015_8A CAMEO_DEU_2015_8B CAMEO_DEU_2015_8C CAMEO_DEU_2015_8D CAMEO_DEU_2015_9A CAMEO_DEU_2015_9B CAMEO_DEU_2015_9C CAMEO_DEU_2015_9D CAMEO_DEU_2015_9E CAMEO_DEU_2015_XX D19_LETZTER_KAUF_BRANCHE_D19_BANKEN_DIREKT D19_LETZTER_KAUF_BRANCHE_D19_BANKEN_GROSS D19_LETZTER_KAUF_BRANCHE_D19_BANKEN_LOKAL D19_LETZTER_KAUF_BRANCHE_D19_BANKEN_REST D19_LETZTER_KAUF_BRANCHE_D19_BEKLEIDUNG_GEH D19_LETZTER_KAUF_BRANCHE_D19_BEKLEIDUNG_REST D19_LETZTER_KAUF_BRANCHE_D19_BILDUNG D19_LETZTER_KAUF_BRANCHE_D19_BIO_OEKO D19_LETZTER_KAUF_BRANCHE_D19_BUCH_CD D19_LETZTER_KAUF_BRANCHE_D19_DIGIT_SERV D19_LETZTER_KAUF_BRANCHE_D19_DROGERIEARTIKEL D19_LETZTER_KAUF_BRANCHE_D19_ENERGIE D19_LETZTER_KAUF_BRANCHE_D19_FREIZEIT D19_LETZTER_KAUF_BRANCHE_D19_GARTEN D19_LETZTER_KAUF_BRANCHE_D19_HANDWERK D19_LETZTER_KAUF_BRANCHE_D19_HAUS_DEKO D19_LETZTER_KAUF_BRANCHE_D19_KINDERARTIKEL D19_LETZTER_KAUF_BRANCHE_D19_KOSMETIK D19_LETZTER_KAUF_BRANCHE_D19_LEBENSMITTEL D19_LETZTER_KAUF_BRANCHE_D19_LOTTO D19_LETZTER_KAUF_BRANCHE_D19_NAHRUNGSERGAENZUNG D19_LETZTER_KAUF_BRANCHE_D19_RATGEBER D19_LETZTER_KAUF_BRANCHE_D19_REISEN D19_LETZTER_KAUF_BRANCHE_D19_SAMMELARTIKEL D19_LETZTER_KAUF_BRANCHE_D19_SCHUHE D19_LETZTER_KAUF_BRANCHE_D19_SONSTIGE D19_LETZTER_KAUF_BRANCHE_D19_TECHNIK D19_LETZTER_KAUF_BRANCHE_D19_TELKO_MOBILE D19_LETZTER_KAUF_BRANCHE_D19_TELKO_REST D19_LETZTER_KAUF_BRANCHE_D19_TIERARTIKEL D19_LETZTER_KAUF_BRANCHE_D19_UNBEKANNT D19_LETZTER_KAUF_BRANCHE_D19_VERSAND_REST D19_LETZTER_KAUF_BRANCHE_D19_VERSICHERUNGEN D19_LETZTER_KAUF_BRANCHE_D19_VOLLSORTIMENT D19_LETZTER_KAUF_BRANCHE_D19_WEIN_FEINKOST PRAEGENDE_JUGENDJAHRE_Value_1_FDJ_-_communist_party_youth_organisation PRAEGENDE_JUGENDJAHRE_Value_1_Generation_Golf PRAEGENDE_JUGENDJAHRE_Value_1_Swords_into_ploughshares PRAEGENDE_JUGENDJAHRE_Value_1_digital_media_kids PRAEGENDE_JUGENDJAHRE_Value_1_ecological_awareness PRAEGENDE_JUGENDJAHRE_Value_1_economic_miracle PRAEGENDE_JUGENDJAHRE_Value_1_family_orientation PRAEGENDE_JUGENDJAHRE_Value_1_generation_68_-_student_protestors PRAEGENDE_JUGENDJAHRE_Value_1_milk_bar_-_Individualisation PRAEGENDE_JUGENDJAHRE_Value_1_opponents_to_the_building_of_the_Wall PRAEGENDE_JUGENDJAHRE_Value_1_peace_movement PRAEGENDE_JUGENDJAHRE_Value_1_reconstruction_years PRAEGENDE_JUGENDJAHRE_Value_1_war_years
feature_infos=[-1:3] [-2:9] [2:18] [5:18] none none [-2:25] [0:353] [0:20] [0:6] [0:24] [-2:9] [-2:7] [-2:9] [-2:6] [-2:5] [-2:5] [-2:5] [-2:5] [-2:5] [-2:5] [-2:5] [0:6] [0:6] [0:7] [0:6] [0:7] [-2:10] [0:7] [0:7] [0:7] [0:7] [0:7] [0:7] [0:7] [0:7] [0:7] [0:7] [0:7] [0:6] [0:6] [-2:10] [0:7] [0:7] [0:7] [-2:9] [1:9] [0:7] [0:7] [-2:7] [0:7] [0:7] [0:7] [0:7] [0:7] [0:7] [-2:5] [0:7] [0:5] [0:5] [0:7] [-2:10] [0:7] [0:7] [0:6] [0:6] [-2:10] [0:7] [0:5] [0:5] [1:10] [1:10] none [-2:10] [0:7] [0:7] [0:7] [-1:3.30078125] [-2:6] [1:56] [1:5] [1:5] [1:5] [1:5] [1:5] [1:5] [1:6] [-2:5] [-2:8] [-2:5] [0:11.300000000000001] [11:50] [1:12] [0:1] [-1:3] [-2:1] [-2:6] [-2:8] [-2:4] [-2:5] [-2:5] [-2:5] [-2:3] [-2:4] [-2:4] [-2:3] [-2:2] [-2:5] [-2:5] [-2:5] [-2:5] [-2:5] [-2:4] [-2:4] [-2:5] [-2:5] [-2:5] [-2:5] [-2:5] [-2:5] [-2:5] [-2:5] [-2:5] [-2:5] [-2:3] [-2:3] [-2:3] [-2:5] [-2:5] [-2:4] [-2:5] [-2:4] [-2:5] [-2:4] [-2:3] [-2:4] [-2:5] [-2:5] [-2:5] [-2:3] [-2:6] [-2:4] [-2:3] [-2:3] [-2:4] [-2:5] [-2:5] [-2:5] [-2:4] [-2:1] [-2:3] [-2:3] [-2:3] [-2:5] [-2:5] [-2:5] [-2:5] [-2:5] [-2:5] [-2:5] [-2:4] [-2:4] [-2:3] [-2:2] [0:2300] [-2:5] [-2:5] [-2:5] [-2:5] [-2:5] [-2:5] [-2:5] [-2:5] [-2:5] [-2:5] [-2:5] [-2:5] [-2:5] [-2:5] [-2:5] [-2:5] [-2:5] [-2:5] [-2:5] [-2:5] [-2:5] [-2:5] [-2:5] [-2:5] [-2:5] [-2:5] [-2:5] [-2:5] [-2:5] [-2:5] [-2:5] [-2:5] [-2:5] [-2:5] [-2:5] [-2:5] [-2:5] [-2:5] [-2:5] [-2:5] [-2:5] [-2:5] [-2:5] [-2:5] [-2:5] [-2:5] [-2:5] [-2:3] [-2:5] [-2:5] [-2:5] [-2:5] [-2:5] [-2:3] [-2:5] [-2:5] [-2:5] [-2:5] [-2:3] [-2:3] [-2:3] [-2:3] [-2:5] [-2:5] [-2:5] [-2:5] [-2:3] [-2:5] [-2:5] [-2:5] [-2:5] [-2:5] [-2:5] [-2:5] [-2:5] [-2:5] [-2:4] [-2:5] [-2:5] [-2:5] [-2:5] [-2:5] [-2:5] [-2:5] [-2:5] [-2:5] [-2:5] [-2:5] [-2:5] [-2:5] [-2:5] [-2:5] [-2:5] [-2:5] [-2:5] [-2:5] [-2:5] [-2:5] [-2:5] [-2:5] [-2:5] [-2:5] [-2:5] [-2:5] [-2:5] [-2:6] [-2:4] [1:9] [-2:7] [-2:1] [-1:3.099609375] [-2:6] [-2:6] [-1:3] [-2:5] [-2:9] [-2:2] [-2:4] [-2:4] [-2:3] [-2:2] [-2:5] [-2:7] [-2:5] [-2:5] [-2:5] [-2:5] [-2:5] [1:7] [1:7] [1:7] [1:7] [1:7] [1:7] [1:7] [1:7] [1:7] [1:7] [1:7] [1:7] [1:7] [1:7] [-1:3] [-2:1] [-2:3] [-2:5] [-2:5] [-2:5] [-2:1] [0:45] [-1:2] [-2:5] [-2:4] [1:11] [1:13] [1:11] [-2:6] [-2:9] [-2:8] [1:6] [1:2] [1:9] [0:10.1015625] [-2:5] [-2:5] [0:5] [0:5] [0:5] [0:5] [0:5] [0:5] [0:5] [0:5] [0:5] [0:5] [0:5] [0:5] [0:5] [0:5] [0:5] [0:5] [0:5] none [0:5] [0:5] [0:5] [0:5] [0:5] [0:5] [-2:3] [-2:8] [-2:3] [-2:4] [-2:5] [-2:7] none [-2:3] [-2:4] [-2:7] [-2:8] [-2:2] [-1:6] [-1:2] [-1:3] [1:31] [2:365] [-2:6] [28:31] [0:1] none none none none none [0:3] [-2.2083146064174635:14.259193305521343] [-5.9007107396731966:6.1135041603235534] [-6.3144945203165612:6.0770542173820825] [-2.616796517584147:8.1530105039188836] [-3.0540729225044014:7.3736377913611442] [-1.5481024585681533:5.7935991918011727] [-1.8367647932651929:2.9454139953883369] [-3.1529604240351721:3.0947390738493477] [-0.98093477921175021:0.9713992095496804] [-0.98049511908664311:1.7887197137894397] [-1.6232912618877773:1.708438180165925] [-1.5320520748853079:1.8951077503745051] [-1.2020469363457102:1.1916233369037497] [-0.90516040822178256:3.9969032047591613] [-1.4306446823096799:1.4613847047569262] [-1.0406915982371046:1.8634039434443368] [-2.7853555493882616:2.8486835363082426] [-1.2829023721743935:1.2229279825376977] [-1.4705490182854528:1.9169812592173574] [-1.2114417118988876:1.7305862506292544] [0:1] none none [0:1] [0:1] [0:1] [0:1] [0:1] [0:1] none [0:1] [0:1] [0:1] [0:1] [0:1] [0:1] [0:1] none [0:1] [0:1] [0:1] [0:1] none none none [0:1] [0:1] none [0:1] [0:1] [0:1] [0:1] [0:1] none [0:1] [0:1] [0:1] [0:1] [0:1] [0:1] [0:1] [0:1] [0:1] [0:1] none [0:1] [0:1] none none [0:1] [0:1] none none [0:1] none [0:1] [0:1] [0:1] none none [0:1] none none [0:1] none [0:1] none none [0:1] [0:1] [0:1] [0:1] [0:1] [0:1] none [0:1] [0:1] [0:1] [0:1] none none [0:1] none [0:1] [0:1] [0:1] [0:1] [0:1] [0:1] [0:1] [0:1] [0:1] [0:1]
tree_sizes=5618 5275 5567 5670 5903 5734 5738 5650 5957 5741

Tree=0
num_leaves=72
num_cat=0
split_feature=56 56 380 390 77 33 164 128 327 77 302 33 49 399 169 323 383 391 135 88 13 194 395 15 55 121 139 50 348 165 320 79 321 316 238 340 319 326 325 226 351 29 233 196 194 103 442 92 79 77 45 364 325 204 204 159 355 181 7 277 314 289 121 79 394 234 386 392 79 303 94
split_gain=77202.5 116748 19233.1 6614.4 6745.67 4888.15 5443.06 4605.83 3884.49 3601.46 3436.21 3281.19 3112.42 2875.14 3080.76 2873.89 3118.89 3284.57 2854.37 3155.55 2757.07 2719 2597.56 2391.8 2249.98 3399.15 2955.77 2165.95 2283.68 5036.62 2182.22 2147.95 3168.16 2314.32 2040.88 4123.97 2487.27 1922.5 3669.77 1903.06 1860.73 1688.38 3909.92 1593.28 2014.03 2406.94 1671.52 1586.51 2341.05 1431.01 1340.11 1952.02 1237.6 1209.68 1190.82 2104.92 997.664 977.229 1675.26 816.067 804.427 757.065 719.674 1097.22 619.706 592.272 481.722 450.583 445.395 397.861 348.593
threshold=1.5000000000000002 1.0000000180025095e-35 2.6944424325165039 0.30933078952466581 1.3500976562500002 5.5000000000000009 315.50000000000006 1.5000000000000002 7.8515625000000009 1.5498046875000002 4.5000000000000009 3.5000000000000004 6.5000000000000009 -0.002896962323818308 3.5000000000000004 2.5000000000000004 -0.018571693530414959 0.055465881184238328 2.5000000000000004 1.5000000000000002 5.5000000000000009 2.5000000000000004 0.58933619581645591 2.5000000000000004 3.5000000000000004 3.5000000000000004 1.5000000000000002 4.5000000000000009 3.5000000000000004 3.5000000000000004 1.5000000000000002 55.500000000000007 2.5000000000000004 1.0000000180025095e-35 3.5000000000000004 4.5000000000000009 1.5000000000000002 1.5000000000000002 1.5000000000000002 1.5000000000000002 1.0000000180025095e-35 5.5000000000000009 1.5000000000000002 2.5000000000000004 1.5000000000000002 3.5000000000000004 1.0000000180025095e-35 6.5000000000000009 36.500000000000007 1.3500976562500002 1.5000000000000002 4.5000000000000009 1.5000000000000002 2.5000000000000004 4.5000000000000009 1.5000000000000002 7.0000000000000009 3.5000000000000004 4.5000000000000009 3.5000000000000004 1.0000000180025095e-35 3.5000000000000004 1.5000000000000002 50.500000000000007 1.0000000180025095e-35 2.5000000000000004 -0.92871233772872963 0.25164286413981979 32.500000000000007 1.5000000000000002 1.5000000000000002
decision_type=2 2 2 2 2 2 8 2 10 2 2 2 2 2 2 2 2 2 2 2 2 2 2 2 2 2 2 2 2 2 8 8 2 2 2 2 8 2 2 2 2 2 2 2 2 2 2 10 10 2 2 2 2 2 2 2 2 2 8 2 8 2 2 10 2 2 2 2 8 2 2
left_child=1 2 34 5 8 12 60 -8 23 22 24 -6 31 14 15 70 17 21 19 20 53 -17 41 -5 25 26 -9 28 40 30 -30 32 -3 59 43 36 -36 38 56 -35 47 54 -43 44 -1 -46 66 48 -26 -41 51 -39 -53 -14 62 -56 -4 58 64 -34 -7 -40 63 -2 -33 -49 -45 -38 -15 -23 -11
right_child=9 3 37 4 11 6 7 10 -10 13 -12 -13 18 68 -16 16 -18 -19 -20 -21 -22 69 -24 -25 27 -27 -28 -29 29 -31 -32 57 33 39 35 -37 67 50 61 49 -42 42 -44 46 45 -47 -48 65 -50 -51 -52 52 -54 -55 55 -57 -58 -59 -60 -61 -62 -63 -64 -65 -66 -67 -68 -69 -70 -71 -72
leaf_value=-4.3216999043711182 -4.3543919113117981 -4.3244963485213637 -4.3063862082310731 -4.3038035735214235 -4.3278616041179019 -4.3265723545345764 -4.2807436536826646 -4.2941183940840659 -4.3543961388217536 -4.3381128264753528 -4.3352379154182605 -4.2854684720318712 -4.3029512868844213 -4.3381837357782862 -4.3543977061980419 -4.3194302214815785 -4.2984831058343351 -4.3074503934077093 -4.3275195231913903 -4.320512724143371 -4.3174839805382819 -4.3381837357782862 -4.3257299470589841 -4.3416745700399728 -4.3269821882001329 -4.3543805065386385 -4.3387951950323478 -4.3218429130774521 -4.2887479901793872 -4.3543819410283628 -4.3219787718184168 -4.2927360217523445 -4.2769927550726887 -4.3269821882001329 -4.317958870308729 -4.3062106499183033 -4.3544018453039666 -4.311116196767375 -4.329994417971947 -4.307265344825236 -4.3127834698290908 -4.3150700356567127 -4.35439898474492 -4.3394826994237876 -4.3544026141105343 -4.3233316707796954 -4.3268808653663919 -4.2768616226326026 -4.2897925826988512 -4.2855707061192438 -4.354382603318073 -4.3440113971286687 -4.3281197139507199 -4.2813350534166679 -4.3185438302853179 -4.354393902119738 -4.3283262256734769 -4.2763974648715717 -4.3043405111945319 -4.2939352661509353 -4.3543784736655313 -4.3135324765361673 -4.3544068263058797 -4.3265723545345764 -4.2789268732737682 -4.292674471093056 -4.354406525197934 -4.3381128264753528 -4.3544016429038059 -4.3543978605128899 -4.3543926481244721
leaf_count=295 367 252 884 238 198 185 240 201 501 185 306 222 196 186 579 333 189 278 294 350 243 186 359 249 189 212 195 297 209 224 223 253 207 189 185 187 980 325 1813 356 248 274 663 206 1124 238 188 196 220 208 230 634 1639 321 190 420 203 287 279 222 197 204 5669 185 298 188 4401 185 948 588 385
internal_value=0 32.4298 15.2646 46.485 32.322 48.2654 42.626 44.5512 18.4993 7.53733 41.4761 48.7749 52.0368 13.8176 17.8282 21.5071 25.9766 20.7994 44.2934 47.5925 52.3858 13.1734 4.11849 30.6742 43.2277 30.7357 39.2591 45.8552 47.8626 37.3298 45.7497 55.0188 49.8928 52.5735 5.90596 14.1167 7.41102 24.695 28.44 44.9445 52.1666 2.88361 12.9828 3.63266 10.4981 5.42033 0.928327 55.1606 45.451 48.977 19.881 21.2253 18.2099 57.129 1.24925 12.0333 37.5069 59.488 55.8561 60.1093 12.6833 21.7056 -0.00322509 9.01474 59.6309 60.8266 -0.328089 1.62164 1.69098 2.88123 4.17545
internal_count=34798 22814 13921 8893 1408 7485 3530 3148 988 11984 2908 420 3955 3857 2723 2144 1574 1385 1404 1110 760 1107 8127 487 2602 608 396 1994 1697 656 432 2551 1434 1182 7989 1537 1350 5932 3104 753 1041 7768 937 6452 1657 1362 4795 793 409 564 2828 2598 2273 517 6831 610 1087 1117 830 429 382 2017 6221 552 551 384 4607 1165 1134 774 570
shrinkage=1


Tree=1
num_leaves=66
num_cat=0
split_feature=56 56 380 390 77 33 76 164 327 128 77 51 81 169 33 399 169 51 7 383 301 222 49 395 135 170 314 391 139 15 151 222 338 380 238 340 319 79 330 293 393 90 249 396 196 194 103 442 302 364 211 363 92 364 255 258 235 364 358 181 387 77 386 79 90
split_gain=71390.1 104526 18206.4 5698.14 6001.48 4129.4 5714.69 4856.94 3668.99 3615.29 3489.52 3469.33 3491.43 3308.08 2819.43 2760.93 2942.22 2655 2822.56 2837.26 3582.91 3829.98 2598.5 2503.48 2493.95 2715.6 4261.94 4791.74 2349.94 2170.56 2144.37 4050.1 4042.45 2116.13 1981.88 3836.07 2374.37 1759.31 2440.14 2095.52 2773.69 1792.96 1583.7 3248.38 1562.48 1913.98 2321.64 1625.02 1423.3 1339.36 1319.63 1245.42 2492.59 1158.49 902.197 887.03 2688.4 696.969 657.286 602.449 792.506 599.933 475.058 437.705 425.73
threshold=1.5000000000000002 1.0000000180025095e-35 2.6944424325165039 0.30933078952466581 1.3500976562500002 5.5000000000000009 6.5000000000000009 315.50000000000006 7.8515625000000009 2.5000000000000004 1.5498046875000002 2.5000000000000004 3.5000000000000004 3.5000000000000004 3.5000000000000004 -0.002896962323818308 3.5000000000000004 5.5000000000000009 12.500000000000002 -0.16414933117290359 3.5000000000000004 2.5000000000000004 6.5000000000000009 0.58933619581645591 2.5000000000000004 2.5000000000000004 4.5000000000000009 -0.36780948055398316 1.5000000000000002 2.5000000000000004 1.0000000180025095e-35 3.5000000000000004 4.5000000000000009 -2.1197721803363252 3.5000000000000004 4.5000000000000009 1.5000000000000002 55.500000000000007 1.5000000000000002 5.5000000000000009 -0.01885269021113475 2.3500000000000001 4.5000000000000009 -0.030745208167496953 2.5000000000000004 1.5000000000000002 3.5000000000000004 1.0000000180025095e-35 2.5000000000000004 7.5000000000000009 2.5000000000000004 2.5000000000000004 7.5000000000000009 4.5000000000000009 2.5000000000000004 2.5000000000000004 3.5000000000000004 1.0000000180025095e-35 3.5000000000000004 3.5000000000000004 -0.09203186003222065 0.94995117187500011 -0.92871233772872963 32.500000000000007 5.4500000000000011
decision_type=2 2 2 2 2 2 2 8 10 2 2 2 2 2 2 2 2 2 8 2 2 2 2 2 2 2 10 2 2 2 2 2 2 2 2 2 8 8 2 2 2 2 2 2 2 2 2 2 2 2 2 2 10 2 2 2 2 2 2 2 2 2 2 8 2
left_child=1 2 34 5 8 22 7 -7 29 28 23 13 -13 30 -6 16 17 18 19 20 21 -12 37 42 25 -24 27 -27 57 -5 48 32 50 -23 44 36 -36 38 39 40 41 -3 49 -44 45 -1 -47 62 -11 55 -32 58 53 -53 -39 56 -2 -9 -4 60 -56 -42 -46 -17 -38
right_child=10 3 51 4 14 6 -8 9 -10 11 15 12 -14 -15 -16 63 -18 -19 -20 -21 -22 33 24 -25 -26 26 -28 -29 -30 -31 31 -33 -34 -35 35 -37 64 54 -40 -41 61 -43 43 -45 47 46 -48 -49 -50 -51 -52 52 -54 -55 59 -57 -58 -59 -60 -61 -62 -63 -64 -65 -66
leaf_value=0.030542914921161828 -0.0011809338061156884 0.055155450142260747 0.044424593949013824 0.047061436993575824 0.024723318177760842 0.015369333482777914 -0.0011634936702377516 0.055979238748266651 -0.0011740352221043637 0.04572415096831977 -0.0011639818207607876 -0.0011684068340252253 0.044750203795878116 0.019030272186579596 0.063376227085047171 0.014807095965308034 -0.0011756042581269877 -0.0011707577253840182 -0.0011674778327825052 0.049235386758124555 -0.0011726479239718083 0.055886700976458176 0.066411397406113112 0.026740793114534991 0.025044897489811938 0.046333778838815294 0.062919995271300391 -0.001169587947047433 0.038867943980983782 0.011407223514770377 0.039442619336155116 -0.0011564576213836688 0.012435265267999856 0.021888434553635729 0.034050975518104543 0.044879863680031502 -0.0011797261552501913 0.054824172752517143 0.024832259922124233 0.036523786963847935 0.058065656736375725 0.022779531002339874 0.041096906388428396 -0.0011729725068159063 0.013544546774746955 -0.0011805176130900432 0.029009945285037544 0.025655747132927564 0.066952720283824332 0.023329421293623299 0.064210742077964414 0.041955877400257011 -0.0011688472251809299 0.026636709288649047 0.067625924425840853 -0.0011847087657489781 0.027150807175087735 0.070214813442935745 0.024808022883975361 0.073326060939557597 0.052220577524022163 0.070512732685811846 -0.0011844329987251924 -0.0011795453047823226 0.014375158793749286
leaf_count=295 1201 187 357 238 198 361 247 248 501 252 260 316 186 272 222 186 579 377 308 316 433 216 246 359 294 313 221 330 242 249 190 187 220 234 185 187 971 321 190 270 283 213 185 453 206 1124 238 188 296 218 237 307 328 4745 339 5352 359 276 195 220 237 291 4401 948 194
internal_value=0 31.2116 14.9829 44.0371 31.1139 45.6328 40.5588 41.9368 18.0911 43.6956 7.46375 38.8373 20.717 42.1876 46.0927 13.5851 17.4485 20.962 24.1325 27.503 20.7376 28.9051 48.9901 4.09432 42.0683 45.0334 38.3319 26.2265 52.1588 29.5908 44.8307 37.4751 42.3115 37.6359 5.85946 13.8756 7.34047 51.6236 47.0889 49.0027 51.6236 37.0889 2.87073 14.7447 3.61344 10.3613 5.38065 0.926289 51.77 1.57073 48.9635 23.9818 22.7535 23.813 55.534 0.782425 6.34205 56.0991 33.4044 57.6579 54.1259 56.5064 -0.327822 1.68585 1.61684
internal_count=34798 22814 13921 8893 1408 7485 3530 3283 988 2922 11984 2156 502 1654 420 3857 2723 2144 1767 1459 1143 710 3955 8127 1404 1110 864 643 766 487 1382 834 647 450 7989 1537 1350 2551 1434 1244 974 400 7768 638 6452 1657 1362 4795 548 7130 427 5932 5380 5052 1117 6912 1560 524 552 796 576 574 4607 1134 1165
shrinkage=0.00117074


Tree=2
num_leaves=70
num_cat=0
split_feature=56 56 282 390 77 383 33 76 164 327 77 128 51 169 399 169 303 51 7 383 301 101 33 395 49 366 13 130 151 300 135 15 139 159 40 244 177 29 233 55 364 15 355 389 340 330 292 215 299 257 84 126 356 57 92 77 277 123 211 302 325 194 92 79 383 29 319 164 355
split_gain=66184.9 94022.3 17033.5 4944.27 5367.19 3802.52 3701.78 5207.32 4173.38 3471.57 3381.67 3238.6 2964.52 2874.16 2652.54 2812.24 2613.23 2518.62 2657.96 2552.4 3381.78 3592.48 2442.93 2414.7 2246.82 2289.62 3269.25 2113.31 2045.48 3115.35 2284.34 1977.24 1932.98 1930.27 3785.64 1880.24 2584.6 1633.88 3625.53 1561.75 1679.35 1561.48 2186.59 1519.55 1490.86 1388.98 1370.91 1367.73 2737.15 3402.48 1229.01 1162.77 2174.75 1404.24 1086.7 1492.4 4502.72 1233.78 1094.21 1043.92 1025.62 988.864 937.326 594.055 584.498 437.101 335.836 296.805 174.041
threshold=1.5000000000000002 1.0000000180025095e-35 -1.0000000180025095e-35 0.30933078952466581 1.3500976562500002 -1.7945644899112823 5.5000000000000009 6.5000000000000009 315.50000000000006 7.8515625000000009 1.5498046875000002 2.5000000000000004 2.5000000000000004 3.5000000000000004 -0.002896962323818308 3.5000000000000004 2.5000000000000004 5.5000000000000009 12.500000000000002 -0.16414933117290359 3.5000000000000004 3.5000000000000004 3.5000000000000004 0.58933619581645591 6.5000000000000009 3.5000000000000004 5.5000000000000009 4.5000000000000009 1.0000000180025095e-35 1.5000000000000002 1.5000000000000002 2.5000000000000004 1.5000000000000002 4.5000000000000009 1.5000000000000002 4.5000000000000009 2.5000000000000004 5.5000000000000009 1.5000000000000002 2.5000000000000004 4.5000000000000009 4.5000000000000009 7.0000000000000009 0.76741021658937958 1.5000000000000002 1.5000000000000002 -1.0000000180025095e-35 2.5000000000000004 6.5000000000000009 2.5000000000000004 3.5000000000000004 1.5000000000000002 2.5000000000000004 6.5000000000000009 8.5000000000000018 0.94995117187500011 4.5000000000000009 2.5000000000000004 2.5000000000000004 2.5000000000000004 1.5000000000000002 2.5000000000000004 3.5000000000000004 51.500000000000007 -0.17183614008144196 2.5000000000000004 4.5000000000000009 480.50000000000006 2.0000000000000004
decision_type=2 2 2 2 2 2 2 2 8 10 2 2 2 2 2 2 2 2 8 2 2 2 2 2 2 2 2 2 2 2 2 2 2 2 2 2 2 2 2 2 2 2 2 2 2 2 2 2 2 2 2 2 2 2 8 2 2 2 2 2 2 2 10 8 2 2 8 8 2
left_child=1 2 39 5 9 -3 24 8 -8 31 23 32 13 28 15 17 -14 18 19 20 21 43 -6 37 45 26 44 -28 59 -30 -31 -5 63 35 -35 47 -37 51 -39 40 41 42 -1 -12 61 54 60 48 -4 -50 -49 52 53 -2 55 56 64 -56 -59 -13 -42 -26 -57 -10 -7 -16 -51 -64 -43
right_child=10 3 33 4 22 6 7 -9 11 -11 14 12 16 -15 65 -17 -18 -19 -20 -21 -22 -23 -24 -25 25 -27 27 -29 29 30 -32 -33 -34 34 -36 36 -38 38 -40 -41 46 68 -44 -45 -46 -47 -48 50 49 66 -52 -53 -54 -55 57 62 -58 58 -60 -61 -62 -63 67 -65 -66 -67 -68 -69 -70
leaf_value=-0.0011614046319254768 -0.0011814858182638882 0.011998104752620307 -0.0011808684582342481 0.044920654500919852 0.024117014723292002 0.047718688887423276 0.015577413182734949 -0.0011631708993322845 0.054221030434045268 -0.0011740043566397637 0.026371364111343356 0.044738163275905934 0.039354372898539602 0.018884053745814606 -0.0011796227616780333 -0.0011755751406625529 -0.0011656686272315362 -0.0011707227774399296 -0.0011674393138455864 0.046891316419773496 -0.0011726151004441364 -0.0011644947629212922 0.0595387753177406 0.026029180036323561 0.037834308800858814 0.062181833838956667 -0.0011647780846486941 0.03717159536893596 0.010877465333955406 0.022363634172805635 0.054857777410964426 0.011270175025128327 0.038009917872496343 -0.0011705808684837704 0.044686330563307966 0.034740630242981414 -0.0011704998214508769 0.03611368663538525 -0.0011769250726780098 -0.001158302143774198 0.032053447417409113 0.051466190983741562 0.03691201990672216 0.053834944884579496 0.029301187561743901 0.043266372294484802 -0.0011578515119886083 -0.0011845854858453294 0.041060233545798679 0.014684680370418313 0.018380446304612857 -0.0011846601128955917 0.032835335600636936 0.023946520936379834 0.07055655576613222 0.0467192404068065 0.010929505854069137 0.041497220900557748 0.062439194038910774 0.06282872435281843 0.023463307834539086 0.058400907053223212 0.055717337815946788 0.066663942487850708 0.061203190780478998 0.014783251011200317 -0.001170667883966834 0.065705171903897186 0.04026052685448623
leaf_count=215 1341 216 1146 238 198 321 349 244 262 501 267 240 225 268 946 579 267 377 308 316 433 257 222 359 185 206 246 199 245 211 358 249 235 378 189 303 375 274 663 201 1393 185 310 186 213 320 196 4436 272 185 291 5083 199 208 217 203 233 189 225 293 3246 322 204 245 202 188 381 342 219
internal_value=0 30.0825 14.7114 41.8365 29.9945 43.2748 43.716 38.9661 40.234 17.7008 7.39131 41.8033 37.2217 40.2575 13.3589 17.0824 20.5114 20.4407 23.4484 26.6224 20.2276 27.9368 43.6948 4.07043 46.8118 40.4774 36.0709 18.5056 42.6636 35.4358 40.9227 28.582 49.5831 5.83896 19.1871 4.52755 16.7142 2.85796 12.6674 23.222 23.7815 31.7 22.3915 36.1262 41.9252 49.1987 21.8496 2.9939 8.66242 18.4668 0.300018 1.24031 7.07097 2.8588 50.2804 47.5598 41.2728 54.6822 48.2542 49.1899 22.5107 45.7529 51.5427 53.0191 46.8434 1.68074 4.13209 53.8738 39.6136
internal_count=34798 22814 13921 8893 1408 7485 7269 3442 3198 988 11984 2849 2107 1615 3857 2723 492 2144 1767 1459 1143 710 420 8127 3827 1371 1165 445 1347 814 569 487 742 7956 567 7389 678 7768 937 5965 5764 929 525 453 720 2456 4835 6711 1984 838 4727 6831 1748 1549 2136 1505 756 631 414 533 4639 507 749 507 523 1134 566 546 404
shrinkage=0.00117074


Tree=3
num_leaves=71
num_cat=0
split_feature=56 56 380 390 144 199 383 33 76 164 299 381 388 240 299 323 227 231 136 139 170 171 301 49 135 208 238 159 393 394 223 88 128 137 177 52 196 301 321 442 381 220 255 300 289 92 353 250 237 237 363 90 393 325 279 338 177 79 164 177 164 386 162 380 340 12 399 13 388 42
split_gain=61506.4 84952 16376.1 4319.94 4797.28 3648.96 3393.11 3180.29 4754.05 3731.6 3029.22 2990.04 2896.95 2654.33 3100.09 2469.54 3179.67 4125.49 2667.13 2306.17 2285.11 3009.77 2220.3 1909.97 2022.98 2268.75 1891.96 3505.88 2805.72 1846.38 1810.51 1755.41 1723.22 4476.81 2706.05 1975.96 1515.84 1783.99 2013.53 1556.1 1533.35 1355.44 1226.09 2031.1 1110.11 1629.56 1102.25 2217.87 1063.73 1564.83 1057.15 1020.13 920.076 793.746 792.084 732.949 708.106 962.231 1259.85 641.117 465.031 464.189 447.103 410.554 405.512 364.747 344.737 326.251 309.062 276.496
threshold=1.5000000000000002 1.0000000180025095e-35 2.6944424325165039 0.30933078952466581 2.5000000000000004 3.5000000000000004 -1.7945644899112823 5.5000000000000009 6.5000000000000009 315.50000000000006 4.5000000000000009 0.3705649663552964 0.29295353982342714 3.5000000000000004 4.5000000000000009 2.5000000000000004 2.5000000000000004 1.5000000000000002 3.5000000000000004 2.5000000000000004 2.5000000000000004 2.5000000000000004 6.5000000000000009 6.5000000000000009 2.5000000000000004 3.5000000000000004 3.5000000000000004 2.5000000000000004 -0.01885269021113475 -0.18863382284458852 1.5000000000000002 1.5000000000000002 2.5000000000000004 3.5000000000000004 1.0000000180025095e-35 4.5000000000000009 2.5000000000000004 2.5000000000000004 5.5000000000000009 1.0000000180025095e-35 0.33312700284862429 3.5000000000000004 2.5000000000000004 2.5000000000000004 4.5000000000000009 4.5000000000000009 3.5000000000000004 2.5000000000000004 1.5000000000000002 1.0000000180025095e-35 2.5000000000000004 3.4500000000000006 1.0000000180025095e-35 1.5000000000000002 2.5000000000000004 4.5000000000000009 1.5000000000000002 55.500000000000007 694.50000000000011 2.5000000000000004 262.50000000000006 -0.92871233772872963 2.5000000000000004 -1.7401819617302958 1.0000000180025095e-35 2.5000000000000004 -0.014153399491465891 5.5000000000000009 -0.35947399540145714 5.5000000000000009
decision_type=2 2 2 2 2 2 2 2 2 8 2 2 2 2 2 2 2 2 2 2 2 2 2 2 2 2 2 2 2 2 2 2 2 2 2 2 2 2 2 2 2 2 2 2 2 10 2 2 2 2 2 2 2 2 2 2 2 8 10 2 10 2 2 2 2 2 2 2 2 2
left_child=1 2 26 6 5 13 -3 23 9 -9 11 -11 15 14 -5 62 17 18 65 32 21 68 30 42 25 31 36 63 -29 -22 -14 59 51 34 -34 -35 37 -1 67 61 -40 55 43 -8 45 -4 -32 -48 49 -44 -47 -12 -52 -54 -46 -36 -50 58 -58 -25 -31 -38 -2 -28 -45 -17 -59 -39 -18 -6
right_child=12 3 44 4 69 -7 7 8 -10 10 19 -13 22 -15 -16 16 20 -19 -20 -21 29 -23 -24 24 -26 -27 27 28 -30 60 46 -33 33 35 41 -37 39 38 40 -41 -42 -43 48 64 54 50 47 -49 56 -51 52 -53 53 -55 -56 -57 57 66 -60 -61 -62 -63 -64 -65 -66 -67 -68 -69 -70 -71
leaf_value=-0.0011780236731822153 -0.0011812652177027921 0.011847655734442516 -0.0011635894211978251 -0.001159929419959856 -0.0011668868063313457 0.0095410748751132285 0.030050599251310744 0.015327599125171126 -0.0011631274274131517 0.039765136926705247 0.06141148318215265 -0.0011648567357810914 0.021580502924168438 0.059388045598223298 0.044767052586432612 0.014348333224160561 0.014810727520452611 0.048071263291713386 0.034276576853693397 0.025062349493405325 0.024429441249195591 0.041007185167235449 0.028339619960779081 0.061219674611559943 0.023843264181557303 0.027594317015479829 -0.001178819930094893 -0.001161317733666222 0.040612844316552696 0.014314951183120067 -0.0011847732590018318 0.034260494271804949 0.021941601596225886 -0.0011652168117550787 0.061438420474631029 0.035667644345024223 0.013223544652095904 -0.001169866533161661 0.012179465845433167 0.024628323497944846 0.044443520856877257 0.037731915960535475 0.054056630390392844 0.058505241414154856 0.026954973177092369 0.042207654469506771 0.033166994241850024 -0.0011754662182495573 0.063502839527222799 0.02876587667688461 0.008817654369002826 0.045165093489424539 0.030855048830968332 0.023404840938354269 0.045468624119540911 0.046267088702926756 0.037279080039964226 0.064066501334742981 0.056949916852127511 0.04823249605197269 -0.0011827801289262545 -0.0011844721511790719 0.014441249381823319 0.014456598714468886 0.045414224781214083 -0.0011751972647961941 0.053564453894686906 0.01467575317123546 -0.0011667596272288824 0.013867838191123603
leaf_count=713 1225 216 229 197 268 278 308 349 244 359 354 229 350 215 263 185 185 272 294 257 290 253 244 253 286 289 775 226 350 187 5034 267 204 237 365 192 206 347 227 188 185 221 313 185 320 187 190 550 362 196 306 227 1406 3257 227 204 301 185 210 276 1721 4401 187 186 193 515 203 185 302 187
internal_value=0 29.0338 14.4493 39.8495 28.9543 34.9679 41.1532 41.5522 37.2351 38.3926 39.82 25.6353 7.3203 40.1118 28.5217 11.3894 14.1656 23.2522 13.775 42.0329 9.02161 19.9456 3.18427 44.3413 38.6168 41.1276 5.76816 13.4815 25.896 4.22561 1.94758 44.472 43.3776 39.3671 43.853 18.0816 3.56938 10.1358 16.5261 0.915883 26.9653 46.6638 46.4773 39.9426 22.6725 21.5377 0.588385 9.79857 48.1917 41.2205 22.2304 49.1252 21.4405 22.1381 31.2856 49.5317 49.9938 47.2753 41.5421 48.1087 0.581148 -0.330118 1.13796 2.06637 45.7646 3.12081 51.4028 4.36464 4.91026 4.92043
internal_count=34798 22814 13921 8893 1408 953 7485 7269 3442 3198 2849 588 11984 675 460 5616 4204 1266 994 2261 2938 740 6368 3827 1371 1085 7989 1537 576 2198 6124 796 2004 1423 994 429 6452 1657 944 4795 412 790 2456 686 5932 5385 5774 740 1770 509 5156 581 4969 4663 547 569 1261 899 511 529 1908 4607 1412 961 378 700 388 532 487 455
shrinkage=0.00117074


Tree=4
num_leaves=74
num_cat=0
split_feature=56 56 282 390 77 77 327 383 316 370 268 256 123 184 338 399 309 305 395 383 143 318 306 312 33 6 33 232 238 340 319 15 102 232 79 336 326 325 191 29 233 96 301 217 262 386 123 251 271 307 364 204 159 325 371 135 123 123 276 110 355 29 327 121 164 395 359 102 392 29 248 389 394
split_gain=57284.4 77060.7 15358.5 3799.82 4545.2 3220.76 3151.59 3043.72 2984.19 3870.26 3918.35 3738.3 5030.46 2724.25 2633.19 2491.27 2304.88 2974.96 2292.56 2264.65 2679.2 2891.44 2819.54 2015.25 2517.99 2342.05 1988.89 1885.73 1838.18 3368.25 2164.65 1726.02 1714.02 1748.47 1711.2 1658.78 1647.78 2864.77 1636.33 1577.31 3360.71 1449.18 1374.64 1343.02 3353.89 1287.29 1154.56 2644.04 2450 1141.78 1334.01 1133.12 1878.05 1129.24 1024.91 976.753 1783.78 3543.29 903.628 880.808 821.895 764.035 918.102 698.561 1030.45 680.898 643.424 457.473 426.013 425.456 356.185 72.8694 1.0674
threshold=1.5000000000000002 1.0000000180025095e-35 -1.0000000180025095e-35 0.30933078952466581 1.3500976562500002 1.5498046875000002 7.8515625000000009 -1.7945644899112823 1.0000000180025095e-35 54.500000000000007 3.5000000000000004 3.5000000000000004 2.5000000000000004 4.5000000000000009 2.5000000000000004 -0.002896962323818308 1.5000000000000002 2.5000000000000004 0.58933619581645591 -0.005853944642004282 1.0000000180025095e-35 1.5000000000000002 4.5000000000000009 4.5000000000000009 2.5000000000000004 9.5000000000000018 3.5000000000000004 1.5000000000000002 3.5000000000000004 4.5000000000000009 1.5000000000000002 2.5000000000000004 1.0000000180025095e-35 2.5000000000000004 55.500000000000007 4.5000000000000009 1.5000000000000002 1.5000000000000002 3.5000000000000004 5.5000000000000009 1.5000000000000002 1.5000000000000002 1.5000000000000002 3.5000000000000004 2.5000000000000004 0.30254846999599644 3.5000000000000004 3.5000000000000004 2.5000000000000004 1.5000000000000002 4.5000000000000009 4.5000000000000009 1.5000000000000002 1.5000000000000002 2.5000000000000004 1.5000000000000002 2.5000000000000004 3.5000000000000004 3.5000000000000004 2.5000000000000004 7.0000000000000009 2.5000000000000004 5.3515625000000009 1.5000000000000002 566.50000000000011 -0.035232178533952545 1.5000000000000002 1.0000000180025095e-35 0.24818123882356205 2.5000000000000004 3.5000000000000004 0.59541762514155583 0.077956922826459121
decision_type=2 2 2 2 2 2 10 2 2 8 2 2 2 2 2 2 2 2 2 2 2 10 2 2 2 2 2 2 2 2 8 2 2 2 8 2 2 2 2 2 2 2 2 2 2 2 2 2 2 2 2 2 2 2 2 2 2 2 2 2 2 2 10 2 10 2 2 2 2 2 2 2 2
left_child=1 2 36 7 6 18 31 -3 23 10 11 13 14 16 -13 19 17 -10 39 20 -7 70 34 55 27 -26 -6 -25 41 30 -30 -5 33 -18 -23 42 37 60 54 51 -41 -4 -34 61 -45 -24 47 48 -44 50 -38 63 -53 -52 71 56 -9 -58 -29 -14 -1 -43 -63 64 -2 -12 -39 -57 -32 -17 -22 -11 -69
right_child=5 3 28 4 26 15 -8 8 9 38 65 12 59 -15 -16 69 32 -19 -20 -21 21 22 45 24 25 -27 -28 58 29 -31 68 -33 35 -35 -36 -37 49 66 -40 40 -42 43 46 44 -46 -47 -48 -49 -50 -51 53 52 -54 -55 -56 67 57 -59 -60 -61 -62 62 -64 -65 -66 -67 -68 72 -70 -71 -72 -73 -74
leaf_value=0.04074492801227679 -0.001170272310622596 0.011700792925395139 0.021442606685442088 0.041418918499732595 0.022842981269926128 -0.0011789583128586406 -0.0011744703202760469 0.058481810423905163 -0.0011641012163241841 0.054688787070439004 0.022153679433458254 0.019020396606191137 0.020940529080915087 0.012184797611898647 0.053690856330575992 -0.001179669755802459 0.012498522649267025 0.041538209698148601 0.025005138335890926 0.036460094303483306 -0.0011745865810213402 -0.0011714378420041348 0.02353415008279475 0.033645021641620344 0.043009028973183955 0.014285350953226094 0.053834505494429336 0.058108117875688238 0.031660404967469441 0.041113108501846476 -0.0011800716210961142 0.010794438124177252 0.034444595539831056 0.044541479359353049 0.030576574688419237 0.029293500969878497 0.035126392986222991 0.020622625827080535 0.033044144074749864 0.034159660456846569 -0.0011770065324875046 -0.0011846258427648101 0.011354239161423519 0.031449079965264533 -0.0011792170905131048 0.051046311040918113 0.062731342946189206 0.060267113829638619 0.047742711528466639 -0.0011629395507108235 0.0082528184840274573 0.031853517107493678 -0.001172082278760448 0.022707205957164273 0.043475914108599051 0.050490760756870007 0.010149497697684759 0.050918303451013718 0.043630598399311084 -0.0011759853962054502 0.02203657278172377 0.024976309646551374 -0.001166644415760617 -0.0011848423451749006 0.025352382124576328 -0.0011639248396114817 0.033429645910712937 0.063141141415994056 0.014334216661044504 0.014422534462637068 0.014311047312513271 0.061770176799378143 0.057719631711443654
leaf_count=884 366 216 351 238 198 758 501 203 205 185 185 225 201 201 185 946 185 266 359 337 479 378 196 276 341 334 222 326 185 185 976 249 186 219 200 185 353 1740 196 274 663 4387 210 340 856 189 212 215 205 228 637 190 420 1641 223 210 234 226 251 405 203 190 299 5669 186 206 279 192 187 188 186 188 188
internal_value=0 28.0569 14.1964 38.0451 27.9825 7.25086 16.8226 39.2329 39.5956 36.5688 33.539 35.0292 23.9024 38.2074 36.228 12.9825 39.3939 26.156 4.01271 16.4963 13.2269 18.0259 24.7353 43.1591 38.7008 28.4464 39.9372 42.9705 5.74826 13.2895 7.11216 26.7011 41.6358 30.1356 11.8191 43.9239 21.992 25.2584 45.0145 2.82099 12.3257 3.56957 45.5348 2.43811 10.0451 35.6778 47.2696 42.9062 31.5305 17.7641 18.9095 1.22462 11.5156 16.4514 47.5295 46.8045 42.0682 33.9805 46.2864 6.84953 32.7012 0.255381 9.8294 -0.0107516 8.74295 10.3905 19.5451 50.0636 1.5746 1.66397 3.30346 50.6379 52.1032
internal_count=34798 22814 13921 8893 1408 11984 988 7485 7269 4488 3696 3305 1016 2289 410 3857 2088 471 8127 2723 2386 1628 963 2781 1528 675 420 853 7956 1533 1348 487 1617 404 578 1213 5965 3106 792 7768 937 6423 1028 6072 1196 385 842 630 415 2859 2631 6831 610 2278 596 1253 663 460 577 606 1087 4876 489 6221 552 391 2019 590 1163 1134 665 373 380
shrinkage=0.00117074


Tree=5
num_leaves=72
num_cat=0
split_feature=56 56 380 390 144 77 213 77 383 31 241 386 121 399 169 323 51 19 395 383 318 306 49 179 393 79 238 159 393 42 256 13 127 304 29 233 326 325 244 359 128 6 277 175 212 442 251 396 382 256 143 359 126 356 380 45 364 325 258 387 14 138 242 359 359 90 79 394 79 79 371
split_gain=53464.1 70159 14799.9 3359.28 4216.03 3899.43 3430.72 3125.45 2743.23 2608.79 3426.78 2919.82 2459.23 2398.69 2560.48 2312.99 2366.4 2237.46 2215.41 2118.58 3312.25 3601.84 1817.26 3435.49 3508.58 1961.16 1787.94 3253.7 2538.37 1767.5 3974.17 3472.38 1668.16 1641.92 1544.49 3202.96 1464.86 2608.13 1448.28 1901.75 1395.66 1531.23 1379.62 1804.38 1317.83 1312.56 1285.9 1247.44 1291.53 1229.43 1805.42 1219.5 1131.82 2000.24 1422.3 1129.36 1439.01 1066.56 1015.63 917.489 875.254 818.169 750.336 628.25 600.168 497.213 422.71 402.45 323.98 289.11 267.417
threshold=1.5000000000000002 1.0000000180025095e-35 2.6944424325165039 0.30933078952466581 2.5000000000000004 1.3500976562500002 3.5000000000000004 1.5498046875000002 -1.7945644899112823 3.5000000000000004 3.5000000000000004 0.11649166114355988 3.5000000000000004 -0.002896962323818308 3.5000000000000004 2.5000000000000004 5.5000000000000009 2.5000000000000004 0.58933619581645591 -0.16414933117290359 1.5000000000000002 4.5000000000000009 3.5000000000000004 3.5000000000000004 -0.003577901181043086 51.500000000000007 3.5000000000000004 2.5000000000000004 -0.01885269021113475 2.5000000000000004 3.5000000000000004 5.5000000000000009 3.5000000000000004 2.5000000000000004 5.5000000000000009 1.5000000000000002 1.5000000000000002 1.5000000000000002 4.5000000000000009 4.5000000000000009 2.5000000000000004 9.5000000000000018 3.5000000000000004 2.5000000000000004 1.5000000000000002 1.0000000180025095e-35 2.5000000000000004 -0.031732395391528397 -0.71785252087702556 4.5000000000000009 1.5000000000000002 4.5000000000000009 1.5000000000000002 2.5000000000000004 -2.142815681546419 1.5000000000000002 4.5000000000000009 1.5000000000000002 3.5000000000000004 -0.11104962150010993 2.5000000000000004 2.5000000000000004 2.5000000000000004 4.5000000000000009 1.5000000000000002 7.2500000000000009 32.500000000000007 0.14507864699075407 53.500000000000007 48.500000000000007 1.5000000000000002
decision_type=2 2 2 2 2 2 2 2 2 2 2 2 2 2 2 2 2 2 2 2 10 2 2 2 2 8 2 2 2 2 2 2 2 2 2 2 2 2 2 2 2 2 2 2 2 2 2 2 2 2 2 2 2 2 2 2 2 2 2 2 2 2 2 2 2 2 8 2 10 8 2
left_child=1 2 26 8 5 6 69 18 -3 22 11 -11 40 14 15 68 17 -17 34 20 -19 -22 25 29 -25 32 38 67 -29 33 31 -31 42 -24 52 -36 37 63 45 -40 -13 -42 60 62 47 49 -35 -27 51 65 -51 -49 53 54 -2 56 -38 -58 59 -48 -10 -50 -44 -4 -39 -1 -15 -28 -9 -5 -6
right_child=7 3 36 4 70 -7 -8 13 9 10 -12 12 -14 66 -16 16 -18 19 -20 -21 21 -23 23 24 -26 44 27 28 -30 30 -32 -33 -34 46 35 -37 55 64 39 -41 41 -43 43 -45 -46 -47 58 48 61 50 -52 -53 -54 -55 -56 -57 57 -59 -60 -61 -62 -63 -64 -65 -66 -67 -68 -69 -70 -71 -72
leaf_value=-0.0011847408870602142 0.024150253405553657 0.011557387509277484 0.038907887548831559 0.013851546251680176 -0.0011677394397305728 0.050758532074596373 0.042927183123701779 -0.0011718340424120464 0.054511205668656235 0.0095857058004510352 -0.0011658436023666697 0.055204479473293752 0.020769237008302386 0.014336348091393216 -0.0011759900922866317 -0.0011610305154652271 -0.0011665172760271943 -0.0011707484199615296 0.024381250446159245 0.047646498730963195 0.0089207763668751258 0.050102716490929969 0.027361835993767299 0.03698685438015116 -0.0011730653409363404 0.035854652150818997 -0.0011791035892641526 -0.0011617137953976429 0.03813917136434327 0.049153339485624267 -0.0011668931531306863 0.010503067314901866 0.026904531942255422 0.034495631042770758 0.033016156614427104 -0.0011769788312830892 0.035404168049640743 0.020198420921430468 -0.0011692236518654696 0.031288536489891841 0.019720646613610938 0.04567568485884442 0.03268464547443161 0.020921470281289701 0.058051896774858308 0.023834831840966155 0.059578349625748282 0.026137355011081435 0.059006133762429198 -0.0011714020532335521 0.031624882504498866 0.047868742695416792 -0.0011847159448261048 0.030831038913650979 -0.0011816964637791781 -0.0011633794160621988 0.008213442548906472 0.0222053417098491 0.040096802022488547 0.045378673142075797 0.038543438863909291 0.047424913331023638 0.050426517764631459 0.022369606915297623 0.032398543455355103 0.014112893341874412 -0.0011796573926069478 0.014170305437319028 0.014105876516726817 -0.0011690712878388559 0.013411528418222693
leaf_count=4886 194 216 898 186 270 284 190 383 320 242 213 192 293 186 579 208 283 349 359 240 297 197 195 346 318 298 776 226 350 366 226 222 325 219 274 663 325 1739 338 264 216 280 188 288 331 189 280 200 229 388 195 294 5083 199 1355 230 634 1639 221 235 201 321 210 189 278 192 948 185 187 293 185
internal_value=0 27.1446 13.9523 36.3993 27.0769 32.4119 19.7977 7.18269 37.4859 37.8171 30.5939 33.0493 35.9337 12.777 16.1708 19.2286 22.8932 25.8605 3.98971 28.6661 21.9424 30.2482 39.0601 35.4985 21.8174 41.1629 5.67918 13.0456 24.6208 38.1812 30.9981 35.9812 36.4816 41.4215 2.80862 12.1397 21.5003 24.5253 3.5319 14.8061 39.6828 33.1068 38.6248 32.5353 43.9175 2.06597 43.1541 41.3759 43.1521 1.14174 11.9272 36.0972 1.22149 6.89721 2.80612 17.5234 18.6564 16.1539 45.167 47.5353 43.3199 46.4713 38.1109 31.4746 19.1073 -0.397257 1.65897 2.02462 3.9346 4.59073 4.75784
internal_count=34798 22814 13921 8893 1408 953 669 11984 7485 7269 1436 1223 981 3857 2723 2144 1574 1291 8127 1083 843 494 5833 2628 664 3205 7989 1537 576 1964 814 588 1532 1150 7768 937 5932 3104 6452 602 688 496 1207 686 1673 5850 955 1342 1044 5661 583 494 6831 1748 1549 2828 2598 2273 736 515 521 550 398 1087 2017 5078 1134 961 570 479 455
shrinkage=0.00117074


Tree=6
num_leaves=72
num_cat=0
split_feature=56 56 282 77 390 144 77 383 327 399 169 395 7 383 318 143 128 267 320 171 238 159 393 235 221 172 390 233 105 29 233 50 172 196 194 103 442 326 325 393 352 146 190 227 92 255 7 45 364 273 318 126 356 57 325 126 287 359 79 307 355 359 386 238 29 164 118 259 177 79 388
split_gain=49997.3 64089.9 13907.1 3033.53 2985.85 3909.63 3487.59 2483.07 2423.17 2310.6 2456.3 2142.26 2051.58 2297.61 2721.72 2772.32 2043.07 1838.68 1803.7 2464.2 1738.22 3092.64 2376.57 1662.2 2535.49 4418.6 3017.97 1864.23 1748.8 1512.74 3056.73 1499.73 2613.68 1456.89 1638.52 2096.19 1462.96 1415.3 2393.15 1318.99 2889.47 1885.19 1403.36 1526.3 1293.95 1250.69 1210.22 1194.79 1325.09 1144.26 1130.51 1120.13 1916.19 1315.35 1015.51 1001.26 1056.16 910.335 847.4 704.302 699.442 552.04 454.112 427.873 416.712 398.155 397.269 349.861 315.161 265.317 36.5881
threshold=1.5000000000000002 1.0000000180025095e-35 -1.0000000180025095e-35 1.5498046875000002 0.30933078952466581 2.5000000000000004 1.3500976562500002 -1.7945644899112823 7.8515625000000009 -0.002896962323818308 3.5000000000000004 0.58933619581645591 12.500000000000002 -0.018571693530414959 1.5000000000000002 1.0000000180025095e-35 1.5000000000000002 2.5000000000000004 3.5000000000000004 1.5000000000000002 3.5000000000000004 2.5000000000000004 -0.01885269021113475 3.5000000000000004 4.5000000000000009 3.5000000000000004 -0.63949674149439251 1.5000000000000002 2.5000000000000004 5.5000000000000009 1.5000000000000002 3.5000000000000004 2.5000000000000004 2.5000000000000004 1.5000000000000002 3.5000000000000004 1.0000000180025095e-35 1.5000000000000002 1.5000000000000002 0.026736976421205868 4.5000000000000009 3.5000000000000004 2.5000000000000004 3.5000000000000004 9.5000000000000018 2.5000000000000004 2.5000000000000004 1.5000000000000002 4.5000000000000009 4.5000000000000009 6.5000000000000009 1.5000000000000002 2.5000000000000004 6.5000000000000009 1.5000000000000002 1.5000000000000002 2.5000000000000004 3.5000000000000004 54.500000000000007 1.5000000000000002 7.0000000000000009 1.5000000000000002 -0.92871233772872963 2.5000000000000004 2.5000000000000004 278.50000000000006 2.5000000000000004 1.5000000000000002 2.5000000000000004 52.500000000000007 0.6219799876246942
decision_type=2 2 2 2 2 2 2 2 8 2 2 2 8 2 10 2 2 2 10 2 2 2 2 2 2 2 2 2 2 2 2 2 2 2 2 2 2 2 2 2 2 2 2 2 8 2 10 2 2 2 10 2 2 2 2 2 2 2 8 2 2 2 2 2 2 8 2 2 2 10 2
left_child=1 2 37 11 7 6 8 -3 -6 10 12 29 13 14 67 -16 44 -17 19 -18 33 65 -23 28 25 26 -25 -28 31 51 -31 39 -33 34 -4 -36 62 38 60 40 42 50 -21 45 58 -44 -19 48 -39 55 59 52 53 -2 -50 -20 -57 -47 -9 -41 -1 -40 -35 -59 -11 -22 -58 -5 -68 -7 -29
right_child=3 4 20 9 5 69 -8 16 -10 64 -12 -13 -14 -15 15 17 18 46 49 23 21 22 -24 24 -26 -27 27 70 -30 30 -32 32 -34 36 35 -37 -38 47 61 41 -42 -43 43 -45 -46 57 -48 -49 54 -51 -52 -53 -54 -55 -56 56 66 63 -60 -61 -62 -63 -64 -65 -66 -67 68 -69 -70 -71 -72
leaf_value=0.037681432503307272 -0.001181651980479551 0.011417320380318289 0.027673272081158225 0.01400749603035553 0.032800258145964802 -0.0011678889729749141 0.048280624039607943 0.032121101814169294 -0.0011685194954847882 -0.0011796784535595612 -0.0011759608824838499 0.023787512529963369 -0.0011708417219314941 0.043590231970782982 -0.0011673213628199848 0.010976994462484693 0.010318695604648485 0.025786713552801828 0.036602925969990895 0.027332626377673867 0.014051047626207853 -0.0011616684982995397 0.036718660261726599 0.0081006543976260264 0.047989938881356463 -0.0011768289999747521 0.018760175828431581 0.048007865232823785 0.01893692812557559 0.031946786677867434 -0.0011769510895463155 0.042710023316318915 0.0084207605578890937 0.012929790583936486 -0.0011807729801640275 0.026605289878572504 0.023256569301591715 0.034105143313039731 0.019775881565811056 0.057016879998648469 0.01001288181922461 0.030206999133926899 0.032880714294693428 0.029705924335030161 0.056876799895852662 0.03551569669721253 0.049234384029390586 -0.0011656083069994264 0.0081271747579701788 0.034330080822999258 0.037692706406403112 -0.0011846967009385674 0.029898437369100792 0.02256747199658626 0.021697933548711853 0.035161111221041187 0.045865459438013879 0.055273599731592703 0.048847599171094755 0.045880998932886247 0.020878924602710028 0.031305906473861132 -0.0011845159088414022 0.046025183230414268 0.014154723881681774 -0.0011790738922526241 0.057193767901210363 -0.0011751325887498592 0.048213346844810052 0.013314002746653539 0.04165954997286847
leaf_count=884 1341 216 299 185 354 270 284 218 315 946 579 359 353 185 278 235 220 239 264 308 185 226 350 279 234 375 213 186 206 274 663 195 265 205 1118 238 188 327 1740 273 220 251 273 322 186 187 185 257 635 313 226 5083 199 208 1640 185 260 252 205 284 203 279 4375 294 188 772 204 484 186 185 185
internal_value=0 26.2903 13.7163 7.11557 34.8914 26.2274 31.2083 35.8895 19.3364 12.5769 15.8563 3.96696 18.7898 21.2399 17.3556 23.694 36.1933 29.0419 35.173 33.5374 5.66039 12.867 23.9144 34.0493 28.6595 24.0508 29.3274 34.2314 35.7152 2.79636 11.9593 36.3386 25.9468 3.53241 9.87343 5.20959 0.912624 20.8856 23.8161 37.3958 34.4428 41.096 36.0037 37.701 42.908 39.8587 34.5216 17.0292 18.2278 39.426 43.3452 1.21837 6.83557 2.79398 15.8315 41.0358 42.7563 42.0752 36.8481 45.5607 30.3374 18.6636 -0.328991 44.0624 1.65399 2.03021 44.3936 3.20246 46.4165 4.72709 38.85
internal_count=34798 22814 13921 11984 8893 1408 953 7485 669 3857 2723 8127 2144 1791 1606 937 7269 659 6660 5248 7956 1533 576 5028 1472 1238 863 584 3556 7768 937 3350 460 6423 1655 1356 4768 5965 3106 2890 1856 1034 1636 1328 609 1006 424 2859 2602 1412 783 6831 1748 1549 2275 1099 835 733 423 557 1087 2019 4580 546 1134 957 650 669 390 455 371
shrinkage=0.00117074


Tree=7
num_leaves=71
num_cat=0
split_feature=56 56 380 77 90 77 169 399 324 254 395 222 246 213 32 7 7 64 340 197 321 398 70 159 40 142 311 104 379 212 205 251 164 386 29 233 148 7 371 75 172 287 90 33 126 261 389 164 196 318 90 442 359 122 33 289 359 387 14 135 239 15 318 325 74 170 146 314 168 392
split_gain=46842.4 58734.6 13427.3 2945.78 2638.46 2322.64 2236.36 2377.89 2099.9 3327.57 2072.83 2059.96 3557.11 2478.92 2225.76 2076.65 1958.32 2121.05 2253.45 2056.33 2733.16 1753.9 1731.57 1694.52 3141.74 1730.8 2960.34 1666.31 1538.98 1509.33 2585.97 2004.81 2674.35 1688.04 1482.01 2920.88 1431.02 3635.99 2206.26 2958.15 1404.96 1222.23 2135.78 1211.89 1108.65 1863.18 1823.97 1091.91 1088.39 2351.41 2848.05 1368.76 998.836 1738.21 876.677 876.279 943.372 822.883 771.471 762.652 708.921 697.711 696.664 675.605 436.22 401.944 337.456 284.794 274.144 215.637
threshold=1.5000000000000002 1.0000000180025095e-35 2.6944424325165039 1.5498046875000002 7.0500000000000007 1.7500000000000002 3.5000000000000004 -0.002896962323818308 3.5000000000000004 2.5000000000000004 0.58933619581645591 3.5000000000000004 3.5000000000000004 3.5000000000000004 6.5000000000000009 5.5000000000000009 12.500000000000002 1.5000000000000002 4.5000000000000009 2.5000000000000004 5.5000000000000009 0.010411460897684565 8.5000000000000018 4.5000000000000009 1.5000000000000002 2.5000000000000004 2.5000000000000004 1.5000000000000002 2.5000000000000004 1.5000000000000002 4.5000000000000009 2.5000000000000004 540.50000000000011 0.3480265141774645 5.5000000000000009 1.5000000000000002 2.5000000000000004 1.5000000000000002 1.0000000180025095e-35 5.5000000000000009 3.5000000000000004 4.5000000000000009 2.2500000000000004 5.5000000000000009 1.5000000000000002 3.5000000000000004 0.4828323035706345 583.50000000000011 2.5000000000000004 6.5000000000000009 3.6500000000000008 1.0000000180025095e-35 4.5000000000000009 3.5000000000000004 3.5000000000000004 4.5000000000000009 2.5000000000000004 0.39441776132912676 2.5000000000000004 1.0000000180025095e-35 2.5000000000000004 4.5000000000000009 2.5000000000000004 1.5000000000000002 5.5000000000000009 2.5000000000000004 2.5000000000000004 1.0000000180025095e-35 1.5000000000000002 0.018074583603280844
decision_type=2 2 2 2 2 2 2 2 2 2 2 2 2 2 2 10 8 2 2 2 2 2 2 2 2 2 2 2 2 2 2 2 8 2 2 2 2 10 2 2 2 2 2 2 2 2 2 8 2 10 2 2 2 2 2 2 2 2 2 2 2 2 10 2 2 2 2 8 2 2
left_child=1 2 23 10 5 8 7 16 11 69 34 14 13 15 28 21 17 18 19 -5 -21 -13 -19 25 -25 48 -27 -11 29 30 31 32 33 -3 44 -36 38 -38 40 -40 59 42 -7 -44 45 64 -47 -41 49 -1 67 68 -31 -54 -15 56 57 63 -58 -33 -14 -57 -43 -4 -2 -9 -61 -51 -50 -10
right_child=3 4 55 6 -6 41 -8 65 9 27 -12 12 60 54 -16 -17 -18 22 -20 20 -22 -23 -24 24 -26 26 -28 -29 -30 52 -32 36 -34 -35 35 -37 37 -39 39 47 -42 62 43 -45 -46 46 -48 -49 51 50 -52 -53 53 -55 -56 61 58 -59 -60 66 -62 -63 -64 -65 -66 -67 -68 -69 -70 -71
leaf_value=-0.0011807805036525363 -0.0011812223314971698 0.01824465848287634 0.027142516051736079 0.045489045526027706 0.017312364252893824 0.017270087129545218 -0.001178901796983253 0.01453545134096775 -0.0011681099900092617 0.043239176800975686 0.02322178626451922 0.037898195189450076 0.020481030274498619 0.049124725045858249 0.011654403309954309 -0.0011662674504399444 -0.0011708056004055372 0.027826975446489304 -0.0011621221909184404 0.035016299373068237 -0.0011702512606107823 0.010147225655092023 -0.0011762333705597852 -0.0011714715914308616 0.038997849775733104 0.035737058368181807 -0.0011732250871049571 0.017527718119156398 0.050458396171863165 0.052492736388874937 0.014162871669394046 0.039406675090540397 0.0068760696116151581 0.045406415784171969 0.03094455045475546 -0.0011769233389574967 0.042196971366568414 0.0069658696923155282 0.042942777214040759 0.026393534293321103 0.032729171004110914 0.04178413743970754 0.048235058362774183 0.030295235866248164 -0.0011846774760034839 -0.0011595440986632219 0.036616568129228338 -0.0011674437444452504 0.0075953942623942948 0.013887795577247657 0.041335268115751569 0.021659438188815546 0.045494416697254125 0.019514247290010899 0.033646606856508027 0.019569590904329828 0.021731238221694954 0.037112788471522822 -0.0011698316790079392 0.055570711718283337 -0.0011715706311227665 0.037478530942395866 0.052757556224812499 0.020649622835965963 0.014198722319000042 -0.0011777057253581232 0.047738233663333497 -0.0011676296669470101 -0.0011847719980508109 0.011903412434288553
leaf_count=976 1168 213 1420 264 367 220 826 186 210 269 359 359 186 240 193 190 353 213 204 313 297 216 500 380 189 251 435 220 316 230 297 222 316 186 274 663 305 308 341 187 250 266 300 232 5083 208 186 200 361 185 189 203 362 185 245 209 193 186 274 190 251 338 326 3312 186 701 310 292 4528 185
internal_value=0 25.4893 13.4882 7.04983 33.506 33.8955 12.3837 14.9332 32.5262 23.5145 3.94447 33.376 27.8683 31.2291 34.8784 23.16 18.3721 20.7108 25.5668 28.7064 20.1192 27.1658 9.3001 5.59319 17.5561 4.35461 15.6808 30.8133 35.3269 34.2648 32.4893 33.4764 24.272 31.3927 2.78421 11.7841 35.2838 27.3818 37.1147 29.1045 40.516 38.7844 34.0872 37.3804 1.21527 6.77499 19.8445 13.4206 2.88293 8.48562 18.312 0.773368 39.4053 34.8622 37.91 20.442 19.4711 20.257 8.89489 42.5259 8.61076 27.6437 42.3575 19.5526 1.20316 2.34924 44.4409 4.72937 -0.378818 4.76641
internal_count=34798 22814 13921 11984 8893 8526 3857 3031 7182 884 8127 6298 1687 1250 4611 765 2144 1791 1078 874 610 575 713 7989 569 7420 686 489 4418 4102 3325 3028 715 399 7768 937 2313 613 1700 728 972 1344 752 532 6831 1748 394 387 6734 1642 666 5092 777 547 485 5932 5385 4918 467 722 437 547 592 4732 1354 887 500 477 4889 395
shrinkage=0.00117074


Tree=8
num_leaves=75
num_cat=0
split_feature=56 56 380 77 383 90 169 399 77 390 327 237 323 51 19 239 213 31 386 146 382 361 229 132 64 305 155 138 159 40 142 311 92 236 122 277 326 325 92 51 286 228 196 318 84 442 45 364 79 325 118 176 104 389 79 92 208 100 186 304 11 139 117 203 65 359 359 148 382 94 318 251 168 164
split_gain=43961.9 53979 12807.8 2861.35 2543.82 2383.96 2165.35 2277.8 2066.88 2365.75 2944.49 2199.37 2031.95 2081.59 1956.62 1931.9 2217.6 1755.83 3023.75 2112.01 3375.14 2318.48 3189.82 1818.96 2022.8 1692.17 3535.99 2275.68 1638.49 2963.37 1682.24 2806.57 1481.82 1377.25 2835.42 2171.95 1219.65 2085.76 1114.1 2172.74 1964.05 1379.9 1070.9 2278.37 2838.1 1336.99 1018.51 1193.43 1009.96 958.391 926.931 1464.83 1817.37 1471 961.541 797.169 765.272 739.57 832.615 738.044 641.844 575.755 1043.12 570.063 527.264 511.701 494.612 451.202 442.63 397.774 353.224 314.177 271.944 205.346
threshold=1.5000000000000002 1.0000000180025095e-35 2.6944424325165039 1.5498046875000002 -1.8202881172513108 7.0500000000000007 3.5000000000000004 -0.002896962323818308 1.7500000000000002 0.36378897304785479 8.3515625000000018 2.5000000000000004 2.5000000000000004 5.5000000000000009 2.5000000000000004 4.5000000000000009 1.5000000000000002 3.5000000000000004 0.11649166114355988 3.5000000000000004 -0.63955818009712806 2.0000000000000004 2.5000000000000004 2.5000000000000004 1.5000000000000002 3.5000000000000004 2.5000000000000004 2.5000000000000004 4.5000000000000009 1.5000000000000002 2.5000000000000004 2.5000000000000004 3.5000000000000004 1.5000000000000002 3.5000000000000004 4.5000000000000009 1.5000000000000002 1.5000000000000002 5.5000000000000009 1.0000000180025095e-35 1.5000000000000002 3.5000000000000004 2.5000000000000004 6.5000000000000009 1.5000000000000002 1.0000000180025095e-35 1.5000000000000002 4.5000000000000009 34.500000000000007 1.5000000000000002 2.5000000000000004 2.5000000000000004 1.5000000000000002 0.4828323035706345 38.500000000000007 6.5000000000000009 2.5000000000000004 3.5000000000000004 1.5000000000000002 2.5000000000000004 2.5000000000000004 2.5000000000000004 3.5000000000000004 3.5000000000000004 1.5000000000000002 4.5000000000000009 1.5000000000000002 1.5000000000000002 -0.46788407420585015 2.5000000000000004 1.5000000000000002 2.5000000000000004 1.5000000000000002 537.50000000000011
decision_type=2 2 2 2 2 2 2 2 2 2 10 2 2 2 2 2 2 2 2 2 2 2 2 2 2 2 2 2 2 2 2 2 8 2 2 2 2 2 8 2 2 2 2 10 2 2 2 2 8 2 2 2 2 2 8 8 2 2 2 2 2 2 2 2 2 2 2 2 2 2 10 2 2 10
left_child=1 2 28 15 -3 8 7 12 9 17 11 -11 71 14 -14 33 -17 19 -19 38 21 73 -23 24 -20 26 27 -16 30 -30 42 -32 -10 34 68 -36 37 65 39 40 41 48 43 -1 -45 72 47 -38 -6 -49 59 52 53 -52 -53 -22 -50 58 -34 -40 -61 -35 -63 -60 -25 -4 -39 -58 -2 -9 -56 -5 -44 -21
right_child=3 4 36 6 5 -7 -8 69 32 10 -12 -13 13 -15 25 16 -18 18 23 20 55 22 -24 64 -26 -27 -28 -29 29 -31 31 -33 57 61 35 -37 46 66 50 -41 -42 -43 45 44 -46 -47 -48 49 56 -51 51 54 -54 -55 70 -57 67 -59 63 60 -62 62 -64 -65 -66 -67 -68 -69 -70 -71 -72 -73 -74 -75
leaf_value=-0.0011807552903046934 -0.0011818339439192604 0.0094152392029555922 0.035084051645340453 0.01364981556281925 0.030482083822129351 0.017245727271040082 -0.0011788758718735408 -0.0011777449616241732 0.028141567812922225 0.04012006858614818 -0.0011717134497386446 0.0093910128450907307 -0.0011622070624340819 -0.0011673217592088939 0.044338679858499645 0.03190228570014228 -0.0011701952871694297 -0.0011703897558272001 0.031521988221690951 0.010943000382907334 0.047418898147308548 -0.0011693173536338676 0.039467943362946477 0.030503118071191281 -0.0011697219526913688 0.042628957864180715 -0.0011744129631114759 0.010510501102064685 -0.0011714366754746804 0.037522649734158524 0.034489431734526024 -0.0011731921986376603 0.036075790534763556 -0.0011850186777101603 0.0076241846508596448 0.040979608274087108 0.032180039345399446 0.01896774378127521 0.034972197491837519 0.010300356058871359 0.02149350329727448 0.025487828456300307 0.0075313529714272813 -0.0011715051110867919 0.034859648691532436 0.021190842695453758 -0.0011642547062119717 0.0078313259392765715 0.051455962346290858 0.020789420400475784 0.044257646359059565 0.031214661867228693 0.0096349171559587058 0.018973739452668264 0.050815669244075858 0.031540414282100741 0.044915852688339211 0.037075560939716895 0.05120852427105025 0.041339833950823635 0.05078148763121091 -0.0011735183468900706 0.023877810864341771 0.040484855596216986 0.044418432071465855 0.0207138723082206 0.02961118579341146 0.032189108290766516 0.01415697994881529 0.014402839350654046 0.04166207850750421 -0.0011727033774089524 -0.0011847523989870748 -0.0011716310223027066
leaf_count=976 1299 252 898 186 219 360 826 700 239 305 334 234 208 283 209 301 356 235 295 185 190 210 254 188 213 261 384 229 380 189 251 435 198 4794 361 186 325 1739 197 202 311 242 361 370 296 203 230 634 190 1639 187 205 210 191 191 194 196 300 373 318 380 458 186 190 261 189 278 196 186 187 220 384 4528 228
internal_value=0 24.7358 13.2674 6.98516 32.2267 32.5051 12.1959 14.6645 32.8665 31.5836 21.3335 27.4871 17.9715 21.2282 23.8385 3.92219 16.1295 32.4011 26.0188 33.4668 27.1262 18.4734 25.7132 28.9355 19.679 26.292 20.4112 29.2783 5.55113 17.1901 4.32797 15.3859 37.3953 2.52131 8.14371 21.1814 19.9509 22.5928 34.9697 31.5158 33.0003 35.246 2.87012 8.39418 17.9155 0.771802 16.4179 17.4397 37.2567 15.1932 36.8365 33.7909 26.7188 31.6454 37.5603 36.1156 39.3435 38.8188 40.3857 39.6218 40.9719 0.108916 7.32406 41.9826 34.7446 28.4734 17.8559 34.5054 1.00698 2.34037 40.0945 3.79043 -0.378536 4.2035
internal_count=34798 22814 13921 11984 8893 8641 3857 3031 8281 6981 873 539 2144 1574 1291 8127 657 6108 1192 4916 1261 877 464 957 508 1083 822 438 7989 569 7420 686 1300 7470 2032 547 5932 3104 3655 1556 1354 1043 6734 1642 666 5092 2828 2598 801 2273 2099 1204 588 378 616 384 582 1061 761 895 698 5438 644 563 449 1087 2017 392 1485 887 411 570 4889 413
shrinkage=0.00117074


Tree=9
num_leaves=72
num_cat=0
split_feature=56 56 380 77 383 316 169 399 90 370 102 129 336 255 237 235 290 395 51 7 19 309 356 141 300 391 79 238 340 319 31 307 381 249 30 385 250 196 301 385 442 7 164 319 312 248 288 206 164 176 289 359 81 79 14 387 15 119 222 325 90 52 386 48 366 88 79 110 6 164 164
split_gain=41328 49747.6 12227.8 2780.33 2336.94 2240.54 2097.75 2183.71 2052.39 2035.82 2680.19 3237.77 2363.01 2054.98 2682.59 2314.23 2254.66 1971.05 1941.96 2013.37 1915.92 1915.13 1721.43 1707.6 2459.98 2011.34 1685.46 1642.94 2773.52 1914.01 1603.48 1534.88 1482.65 1407.37 2585.36 1389.95 2216.17 1383.38 1593.81 1693.92 1364.48 1106.46 1117.3 1041.18 920.471 1932.66 2406.59 964.552 874.484 798.035 775.478 873.908 750.433 1083.49 729.705 714.236 623.75 603.914 603.518 579.794 488.487 481.09 440.739 409.847 394.6 389.029 384.615 293.674 256.634 244.413 237.228
threshold=1.5000000000000002 1.0000000180025095e-35 2.6944424325165039 1.5498046875000002 -1.8202881172513108 1.0000000180025095e-35 3.5000000000000004 -0.002896962323818308 6.9500000000000011 54.500000000000007 1.0000000180025095e-35 1.5000000000000002 4.5000000000000009 2.5000000000000004 1.5000000000000002 2.5000000000000004 1.5000000000000002 0.58933619581645591 5.5000000000000009 12.500000000000002 2.5000000000000004 1.5000000000000002 2.5000000000000004 2.5000000000000004 2.5000000000000004 -0.035826064204549875 54.500000000000007 3.5000000000000004 4.5000000000000009 1.5000000000000002 1.5000000000000002 1.5000000000000002 0.36205807291224551 4.5000000000000009 5.5000000000000009 -0.3855400027481069 2.5000000000000004 2.5000000000000004 2.5000000000000004 -0.32584000029324334 1.0000000180025095e-35 1.5000000000000002 503.50000000000006 8.5000000000000018 4.5000000000000009 2.5000000000000004 2.5000000000000004 2.5000000000000004 286.50000000000006 1.5000000000000002 4.5000000000000009 2.5000000000000004 3.5000000000000004 39.500000000000007 2.5000000000000004 0.39441776132912676 4.5000000000000009 2.5000000000000004 3.5000000000000004 1.5000000000000002 1.7500000000000002 4.5000000000000009 -0.92871233772872963 4.5000000000000009 1.5000000000000002 7.0000000000000009 17.500000000000004 4.5000000000000009 11.500000000000002 574.50000000000011 452.50000000000006
decision_type=2 2 2 2 2 2 2 2 2 8 2 2 2 2 2 2 2 2 2 8 2 2 2 2 2 2 10 2 2 8 2 2 2 2 2 2 2 2 2 2 2 10 10 10 2 2 2 2 10 2 2 2 2 10 2 2 2 2 2 2 2 2 2 2 2 2 10 2 2 10 8
left_child=1 2 27 17 -3 22 7 18 9 10 11 32 13 14 -12 16 -15 33 19 20 -5 -17 44 24 -22 68 -16 37 29 -29 52 -14 -7 35 -35 36 -2 38 -1 -40 62 57 -43 -41 48 46 -46 -47 -6 -49 51 55 53 -11 -53 59 -52 -23 60 -4 -50 66 -39 -38 -9 -31 -51 -37 -25 -62 -13
right_child=3 4 50 6 5 8 -8 64 -10 30 12 70 31 15 26 21 -18 -19 -20 -21 23 41 -24 25 -26 -27 -28 28 -30 65 -32 -33 -34 34 -36 67 63 40 39 43 -42 42 -44 -45 45 47 -48 49 58 61 56 54 -54 -55 -56 -57 -58 -59 -60 -61 69 -63 -64 -65 -66 -67 -68 -69 -70 -71 -72
leaf_value=-0.0011786365415944757 0.028714293398866171 0.0093200640489187279 0.025690202601820221 -0.0011648016915517467 0.030402662044613761 0.040133019392642015 -0.0011788499629016166 0.014299434642076182 0.0091069268368276831 0.023926556099216675 0.039856814782988977 0.010788487631002729 0.028501330190602036 0.033854324056556813 -0.0011772047898368991 0.024367802822009621 -0.0011709924272577587 0.022371547600327335 -0.001171948468405265 -0.0011691137403711516 0.010265666667170563 0.040552454488129559 0.023926183292237724 -0.0011693466172357811 0.043126220405130013 0.033375768448872009 0.026409618270566131 0.028653171556855664 0.036057288784691909 -0.001180709960197164 0.026906162637184684 -0.0011719153670324905 0.01796237543702019 -0.0011738039907285345 0.034713586603387123 -0.0011850256080384158 -0.0011792534686720008 0.012531102377905702 0.031664720431220303 -0.0011750678573145209 0.021775300220391453 0.043645474686741632 0.027242681234158427 0.023279901891797478 -0.0011706777043444512 0.028175575041094886 0.033340389005339539 0.031654555895242457 0.040141517526891213 0.041157486794076277 0.018664267711740259 0.020739255089571584 0.048712839460879585 0.043188170430401109 -0.0011706354492879163 0.034702181298774754 0.035181620462030848 0.049502238366728075 0.03728751106755232 0.019811532200600526 0.043470813485047763 0.036174206556271217 -0.0011845595732566251 0.014176919899170625 -0.0011778205701156903 0.013149770354609916 0.050199227619331897 0.008051426671663196 0.012750042591613582 0.049999754941529313 -0.0011775948323931719
leaf_count=713 282 252 1420 230 195 197 826 189 253 185 201 185 189 201 337 321 221 359 377 308 229 369 334 277 326 212 230 185 187 969 304 231 298 448 190 5462 861 206 279 480 188 188 362 185 202 229 323 219 323 208 209 193 212 273 274 186 338 313 311 3312 240 192 4401 185 698 196 191 340 185 283 321
internal_value=0 24.0263 13.0537 6.92161 31.0435 31.302 12.0137 14.4052 29.0859 29.5407 27.6242 18.4223 29.5501 30.8247 22.087 32.8884 19.4948 3.90013 17.5881 19.9074 22.3119 34.7582 33.9661 24.6001 30.854 16.0974 11.9941 5.50965 12.3784 6.73414 34.7773 14.7244 26.4501 2.75763 13.4466 1.51152 8.87933 3.44697 9.49841 15.2078 0.889184 36.4643 30.6461 6.83775 34.7047 32.019 22.4431 34.7395 36.9142 36.3544 19.4827 18.5842 37.2988 33.065 8.5707 19.3198 26.0663 39.2292 37.8486 18.671 39.1974 38.1608 -0.335029 1.84471 2.33155 1.48874 39.9565 -0.478413 4.46263 40.9098 3.27314
internal_count=34798 22814 13921 11984 8893 8641 3857 3031 5391 5138 4164 1001 3163 2743 768 1975 422 8127 2144 1767 1459 1553 3250 1229 555 674 567 7989 1537 1350 974 420 495 7768 638 7130 1328 6452 1657 944 4795 1232 550 665 2916 1564 525 1039 1352 810 5932 5385 670 458 467 4918 547 682 1157 4732 846 591 4607 1046 887 1165 399 5802 462 523 506
shrinkage=0.00117074



feature importances:
EINGEZOGENAM_HH_JAHR=20
EXTSEL992=20
D19_SOZIALES=20
KBA13_ANZAHL_PKW=16
_isMissingUnknown_4=14
ANREDE_KZ=14
LP_LEBENSPHASE_FEIN_Value_INCOME=12
D19_BUCH_CD=11
ANZ_HAUSHALTE_AKTIV=10
GEBURTSJAHR=10
D19_BEKLEIDUNG_GEH=10
_isMissingUnknown_1=10
_isMissingUnknown_20=10
KBA13_BJ_2000=10
_isMissingUnknown_16=9
LP_STATUS_FEIN_Value_OTHER=9
GFK_URLAUBERTYP=9
_isMissingUnknown_7=9
_isMissingUnknown_11=9
VK_DHT4A=8
KBA13_KW_90=8
D19_RATGEBER=8
KBA05_ZUL4=8
CAMEO_DEU_2015_9D=8
KBA13_KW_50=7
D19_GESAMT_ONLINE_DATUM_Value_ACTIVITY_WITHIN_MONTHS=7
CJT_KATALOGNUTZER=7
_isMissingUnknown_14=7
ALTER_HH_Value_0=7
KBA13_HALTER_35=7
SEMIO_PFLICHT=6
KBA05_MOD1=6
VK_DISTANZ=6
KBA05_KW2=6
KBA05_KRSZUL=5
KBA05_MOD8=5
LP_FAMILIE_FEIN_Value_FAMILY=5
ALTERSKATEGORIE_GROB=5
KBA13_CCM_1200=5
KBA05_KRSHERST3=5
D19_LOTTO=5
KBA13_HALTER_25=5
KBA13_SEG_SONSTIGE=4
_isMissingUnknown_15=4
D19_KONSUMTYP=4
KBA13_KW_80=4
MOBI_REGIO=4
RETOURTYP_BK_S=4
LP_FAMILIE_FEIN_Value_GENERATIONAL=4
CAMEO_DEUG_2015=4
_isMissingUnknown_8=4
_isMissingUnknown_10=4
KBA05_KRSHERST1=4
KBA13_SEG_MINIWAGEN=4
WOHNLAGE=4
KBA13_KRSHERST_FORD_OPEL=4
VHA=3
W_KEIT_KIND_HH=3
CJT_GESAMTTYP=3
CJT_TYP_4=3
D19_GESAMT_OFFLINE_DATUM_Value_ACTIVITY_WITHIN_MONTHS=3
D19_BILDUNG=3
EINGEFUEGT_AM_DayOfWeek=3
D19_GESAMT_ANZ_24=3
_isMissingUnknown_2=3
_isMissingUnknown_3=3
_isMissingUnknown_9=3
_isMissingUnknown_12=3
_isMissingUnknown_13=3
SHOPPER_TYP=3
KBA05_SEG1=3
KBA05_SEG10=3
KBA05_SEG3=3
KBA13_BJ_2004=3
D19_WEIN_FEINKOST=3
KBA13_BJ_2008=3
KBA13_HERST_ASIEN=3
GEBAEUDETYP=3
KBA13_KMH_140=3
ALTERSKATEGORIE_FEIN=3
KBA13_KW_61_120=3
KBA13_SEG_SPORTWAGEN=3
KBA05_ANHANG=3
KBA05_ANTG1=3
PLZ8_ANTG1=3
SEMIO_LUST=3
SEMIO_MAT=3
SEMIO_RAT=3
VERDICHTUNGSRAUM=3
FINANZ_UNAUFFAELLIGER=2
KBA05_HERST5=2
KBA13_SEG_KLEINWAGEN=2
KBA05_KRSHERST2=2
D19_HANDWERK=2
KBA13_SEG_KOMPAKTKLASSE=2
D19_NAHRUNGSERGAENZUNG=2
D19_REISEN=2
D19_SONSTIGE=2
D19_TECHNIK=2
D19_VERSAND_ANZ_12=2
KBA13_SEG_MINIVANS=2
KBA13_HERST_FORD_OPEL=2
REGIOTYP=2
FINANZ_HAUSBAUER=2
KBA13_PEUGEOT=2
HEALTH_TYP=2
KBA13_KMH_110=2
KBA13_KW_0_60=2
KBA13_KMH_0_140=2
KBA05_ANTG2=2
KBA05_MOD4=2
KBA05_CCM2=2
KBA13_SEG_VAN=2
KBA13_KW_40=2
SEMIO_REL=2
SEMIO_SOZ=2
SEMIO_TRADV=2
SEMIO_VERT=2
STRUKTURTYP=2
UMFELD_ALT=2
UMFELD_JUNG=2
VK_ZG11=2
D19_BANKEN_DATUM_Value_ACTIVITY_WITHIN_MONTHS=2
D19_GESAMT_DATUM_Value_ACTIVITY_WITHIN_MONTHS=2
KBA13_BJ_2006=2
KBA13_CCM_1600=2
LP_STATUS_FEIN_Value_INCOME=2
KBA13_CCM_1000=2
PRAEGENDE_JUGENDJAHRE_Value_0=2
EINGEFUEGT_AM_DayOfYear=2
KBA13_MAZDA=2
_isMissingUnknown_6=2
KBA13_BJ_1999=2
KBA05_SEG8=2
KBA05_SEG5=2
KBA05_MOTRAD=2
_isMissingUnknown_17=2
KBA13_SEG_WOHNMOBILE=1
KBA13_SITZE_5=1
KBA13_SITZE_6=1
KBA13_VORB_2=1
KBA13_VORB_3=1
KKK=1
KONSUMNAEHE=1
MOBI_RASTER=1
ONLINE_AFFINITAET=1
KBA13_KW_110=1
PLZ8_BAUMAX=1
RELAT_AB=1
RT_KEIN_ANREIZ=1
RT_UEBERGROESSE=1
ARBEIT=1
KBA13_KW_120=1
KBA13_KW_30=1
KBA13_HERST_BMW_BENZ=1
BALLRAUM=1
D19_BEKLEIDUNG_REST=1
D19_BIO_OEKO=1
D19_LEBENSMITTEL=1
D19_VERSAND_ANZ_24=1
KBA13_HERST_AUDI_VW=1
D19_VERSICHERUNGEN=1
D19_VOLLSORTIMENT=1
HH_EINKOMMEN_SCORE=1
KBA13_KRSHERST_BMW_BENZ=1
KBA13_KW_60=1
KBA13_HALTER_66=1
KBA13_HALTER_50=1
KBA05_ALTER3=1
KBA13_KRSZUL_NEU=1
KBA13_HALTER_40=1
ZABEOTYP=1
KBA13_FORD=1
KBA13_FIAT=1
KBA13_CCM_3000=1
KBA05_ALTER4=1
KBA05_ANTG3=1
KBA13_KW_70=1
KBA13_CCM_2500=1
D19_VERSAND_DATUM_Value_ACTIVITY_WITHIN_MONTHS=1
D19_VERSAND_OFFLINE_DATUM_Value_INCREASE=1
D19_VERSAND_ONLINE_DATUM_Value_ACTIVITY_WITHIN_MONTHS=1
KBA05_HERST4=1
KBA05_HERSTTEMP=1
KBA13_CCM_1401_2500=1
LP_LEBENSPHASE_FEIN_Value_AGE=1
KBA13_KRSSEG_KLEIN=1
LP_LEBENSPHASE_GROB_Value_AGE=1
D19_VERSI_DATUM=1
KBA05_KW1=1
KBA05_KW3=1
KBA05_MAXAH=1
KBA13_KRSHERST_AUDI_VW=1
EINGEFUEGT_AM_Season=1
KBA13_CCM_0_1400=1
KBA13_KMH_250=1
KBA05_MAXHERST=1
SEMIO_DOM=1
KBA05_MOD2=1
KBA05_MOD3=1
KBA13_AUDI=1
KBA13_MERCEDES=1
KBA13_ANTG3=1
KBA05_VORB2=1
KBA13_MOTOR=1
KBA13_NISSAN=1
KBA13_SEG_GELAENDEWAGEN=1
KBA13_KMH_180=1
KBA13_SEG_OBERKLASSE=1
KBA13_SEG_UTILITIES=1
_isMissingUnknown_19=1
KBA05_MOTOR=1
D19_VERSAND_ONLINE_DATUM_Value_INCREASE=1

pandas_categorical:[]
