tree
version=v2
num_class=1
num_tree_per_iteration=1
label_index=0
max_feature_idx=492
objective=binary sigmoid:1
feature_names=AGER_TYP AKT_DAT_KL ALTER_KIND1 ALTER_KIND2 ALTER_KIND3 ALTER_KIND4 ALTERSKATEGORIE_FEIN ANZ_HAUSHALTE_AKTIV ANZ_HH_TITEL ANZ_KINDER ANZ_PERSONEN ARBEIT BALLRAUM CAMEO_DEUG_2015 CJT_GESAMTTYP CJT_KATALOGNUTZER CJT_TYP_1 CJT_TYP_2 CJT_TYP_3 CJT_TYP_4 CJT_TYP_5 CJT_TYP_6 D19_BANKEN_ANZ_12 D19_BANKEN_ANZ_24 D19_BANKEN_DIREKT D19_BANKEN_GROSS D19_BANKEN_LOKAL D19_BANKEN_ONLINE_QUOTE_12 D19_BANKEN_REST D19_BEKLEIDUNG_GEH D19_BEKLEIDUNG_REST D19_BILDUNG D19_BIO_OEKO D19_BUCH_CD D19_DIGIT_SERV D19_DROGERIEARTIKEL D19_ENERGIE D19_FREIZEIT D19_GARTEN D19_GESAMT_ANZ_12 D19_GESAMT_ANZ_24 D19_GESAMT_ONLINE_QUOTE_12 D19_HANDWERK D19_HAUS_DEKO D19_KINDERARTIKEL D19_KONSUMTYP D19_KONSUMTYP_MAX D19_KOSMETIK D19_LEBENSMITTEL D19_LOTTO D19_NAHRUNGSERGAENZUNG D19_RATGEBER D19_REISEN D19_SAMMELARTIKEL D19_SCHUHE D19_SONSTIGE D19_SOZIALES D19_TECHNIK D19_TELKO_ANZ_12 D19_TELKO_ANZ_24 D19_TELKO_MOBILE D19_TELKO_ONLINE_QUOTE_12 D19_TELKO_REST D19_TIERARTIKEL D19_VERSAND_ANZ_12 D19_VERSAND_ANZ_24 D19_VERSAND_ONLINE_QUOTE_12 D19_VERSAND_REST D19_VERSI_ANZ_12 D19_VERSI_ANZ_24 D19_VERSI_DATUM D19_VERSI_OFFLINE_DATUM D19_VERSI_ONLINE_DATUM D19_VERSI_ONLINE_QUOTE_12 D19_VERSICHERUNGEN D19_VOLLSORTIMENT D19_WEIN_FEINKOST EINGEZOGENAM_HH_JAHR EWDICHTE EXTSEL992 FINANZ_ANLEGER FINANZ_HAUSBAUER FINANZ_MINIMALIST FINANZ_SPARER FINANZ_UNAUFFAELLIGER FINANZ_VORSORGER FINANZTYP FIRMENDICHTE GEBAEUDETYP GEBAEUDETYP_RASTER GEBURTSJAHR GEMEINDETYP GFK_URLAUBERTYP GREEN_AVANTGARDE HEALTH_TYP HH_DELTA_FLAG HH_EINKOMMEN_SCORE INNENSTADT KBA05_ALTER1 KBA05_ALTER2 KBA05_ALTER3 KBA05_ALTER4 KBA05_ANHANG KBA05_ANTG1 KBA05_ANTG2 KBA05_ANTG3 KBA05_ANTG4 KBA05_AUTOQUOT KBA05_BAUMAX KBA05_CCM1 KBA05_CCM2 KBA05_CCM3 KBA05_CCM4 KBA05_DIESEL KBA05_FRAU KBA05_GBZ KBA05_HERST1 KBA05_HERST4 KBA05_HERST5 KBA05_HERSTTEMP KBA05_KRSAQUOT KBA05_KRSHERST1 KBA05_KRSHERST2 KBA05_KRSHERST3 KBA05_KRSOBER KBA05_KRSVAN KBA05_KRSZUL KBA05_KW1 KBA05_KW2 KBA05_KW3 KBA05_MAXAH KBA05_MAXBJ KBA05_MAXHERST KBA05_MAXSEG KBA05_MAXVORB KBA05_MOD1 KBA05_MOD2 KBA05_MOD3 KBA05_MOD4 KBA05_MOD8 KBA05_MODTEMP KBA05_MOTOR KBA05_MOTRAD KBA05_SEG1 KBA05_SEG10 KBA05_SEG2 KBA05_SEG3 KBA05_SEG4 KBA05_SEG5 KBA05_SEG6 KBA05_SEG7 KBA05_SEG8 KBA05_SEG9 KBA05_VORB0 KBA05_VORB1 KBA05_VORB2 KBA05_ZUL1 KBA05_ZUL2 KBA05_ZUL3 KBA05_ZUL4 KBA13_ANTG1 KBA13_ANTG2 KBA13_ANTG3 KBA13_ANTG4 KBA13_ANZAHL_PKW KBA13_AUDI KBA13_AUTOQUOTE KBA13_BAUMAX KBA13_BJ_1999 KBA13_BJ_2000 KBA13_BJ_2004 KBA13_BJ_2006 KBA13_BJ_2008 KBA13_BJ_2009 KBA13_BMW KBA13_CCM_0_1400 KBA13_CCM_1000 KBA13_CCM_1200 KBA13_CCM_1400 KBA13_CCM_1401_2500 KBA13_CCM_1500 KBA13_CCM_1600 KBA13_CCM_1800 KBA13_CCM_2000 KBA13_CCM_2500 KBA13_CCM_2501 KBA13_CCM_3000 KBA13_CCM_3001 KBA13_FAB_ASIEN KBA13_FAB_SONSTIGE KBA13_FIAT KBA13_FORD KBA13_GBZ KBA13_HALTER_20 KBA13_HALTER_25 KBA13_HALTER_30 KBA13_HALTER_35 KBA13_HALTER_40 KBA13_HALTER_45 KBA13_HALTER_50 KBA13_HALTER_55 KBA13_HALTER_60 KBA13_HALTER_65 KBA13_HALTER_66 KBA13_HERST_ASIEN KBA13_HERST_AUDI_VW KBA13_HERST_BMW_BENZ KBA13_HERST_EUROPA KBA13_HERST_FORD_OPEL KBA13_HERST_SONST KBA13_HHZ KBA13_KMH_0_140 KBA13_KMH_110 KBA13_KMH_140 KBA13_KMH_140_210 KBA13_KMH_180 KBA13_KMH_210 KBA13_KMH_250 KBA13_KMH_251 KBA13_KRSAQUOT KBA13_KRSHERST_AUDI_VW KBA13_KRSHERST_BMW_BENZ KBA13_KRSHERST_FORD_OPEL KBA13_KRSSEG_KLEIN KBA13_KRSSEG_OBER KBA13_KRSSEG_VAN KBA13_KRSZUL_NEU KBA13_KW_0_60 KBA13_KW_110 KBA13_KW_120 KBA13_KW_121 KBA13_KW_30 KBA13_KW_40 KBA13_KW_50 KBA13_KW_60 KBA13_KW_61_120 KBA13_KW_70 KBA13_KW_80 KBA13_KW_90 KBA13_MAZDA KBA13_MERCEDES KBA13_MOTOR KBA13_NISSAN KBA13_OPEL KBA13_PEUGEOT KBA13_RENAULT KBA13_SEG_GELAENDEWAGEN KBA13_SEG_KLEINST KBA13_SEG_KLEINWAGEN KBA13_SEG_KOMPAKTKLASSE KBA13_SEG_MINIVANS KBA13_SEG_MINIWAGEN KBA13_SEG_MITTELKLASSE KBA13_SEG_OBEREMITTELKLASSE KBA13_SEG_OBERKLASSE KBA13_SEG_SONSTIGE KBA13_SEG_SPORTWAGEN KBA13_SEG_UTILITIES KBA13_SEG_VAN KBA13_SEG_WOHNMOBILE KBA13_SITZE_4 KBA13_SITZE_5 KBA13_SITZE_6 KBA13_TOYOTA KBA13_VORB_0 KBA13_VORB_1 KBA13_VORB_1_2 KBA13_VORB_2 KBA13_VORB_3 KBA13_VW KK_KUNDENTYP KKK KOMBIALTER KONSUMNAEHE KONSUMZELLE MIN_GEBAEUDEJAHR MOBI_RASTER MOBI_REGIO NATIONALITAET_KZ ONLINE_AFFINITAET ORTSGR_KLS9 OST_WEST_KZ PLZ8_ANTG1 PLZ8_ANTG2 PLZ8_ANTG3 PLZ8_ANTG4 PLZ8_BAUMAX REGIOTYP RELAT_AB RETOURTYP_BK_S RT_KEIN_ANREIZ RT_SCHNAEPPCHEN RT_UEBERGROESSE SEMIO_DOM SEMIO_ERL SEMIO_FAM SEMIO_KAEM SEMIO_KRIT SEMIO_KULT SEMIO_LUST SEMIO_MAT SEMIO_PFLICHT SEMIO_RAT SEMIO_REL SEMIO_SOZ SEMIO_TRADV SEMIO_VERT SHOPPER_TYP SOHO_KZ STRUKTURTYP TITEL_KZ UMFELD_ALT UMFELD_JUNG UNGLEICHENN_FLAG VERDICHTUNGSRAUM VERS_TYP VHA VHN VK_DHT4A VK_DISTANZ VK_ZG11 W_KEIT_KIND_HH WOHNDAUER_2008 WOHNLAGE ZABEOTYP ANREDE_KZ ALTERSKATEGORIE_GROB ALTER_HH_Value_0 CAMEO_DEUINTL_2015_Value_0 CAMEO_DEUINTL_2015_Value_1 D19_BANKEN_DATUM_Value_ACTIVITY_WITHIN_MONTHS D19_BANKEN_DATUM_Value_INCREASE D19_BANKEN_OFFLINE_DATUM_Value_ACTIVITY_WITHIN_MONTHS D19_BANKEN_OFFLINE_DATUM_Value_INCREASE D19_BANKEN_ONLINE_DATUM_Value_ACTIVITY_WITHIN_MONTHS D19_BANKEN_ONLINE_DATUM_Value_INCREASE D19_GESAMT_DATUM_Value_ACTIVITY_WITHIN_MONTHS D19_GESAMT_DATUM_Value_INCREASE D19_GESAMT_OFFLINE_DATUM_Value_ACTIVITY_WITHIN_MONTHS D19_GESAMT_OFFLINE_DATUM_Value_INCREASE D19_GESAMT_ONLINE_DATUM_Value_ACTIVITY_WITHIN_MONTHS D19_GESAMT_ONLINE_DATUM_Value_INCREASE D19_TELKO_DATUM_Value_ACTIVITY_WITHIN_MONTHS D19_TELKO_DATUM_Value_INCREASE D19_TELKO_OFFLINE_DATUM_Value_ACTIVITY_WITHIN_MONTHS D19_TELKO_OFFLINE_DATUM_Value_INCREASE D19_TELKO_ONLINE_DATUM_Value_ACTIVITY_WITHIN_MONTHS D19_TELKO_ONLINE_DATUM_Value_INCREASE D19_VERSAND_DATUM_Value_ACTIVITY_WITHIN_MONTHS D19_VERSAND_DATUM_Value_INCREASE D19_VERSAND_OFFLINE_DATUM_Value_ACTIVITY_WITHIN_MONTHS D19_VERSAND_OFFLINE_DATUM_Value_INCREASE D19_VERSAND_ONLINE_DATUM_Value_ACTIVITY_WITHIN_MONTHS D19_VERSAND_ONLINE_DATUM_Value_INCREASE LP_FAMILIE_FEIN_Value_CHILD LP_FAMILIE_FEIN_Value_FAMILY LP_FAMILIE_FEIN_Value_GENERATIONAL LP_FAMILIE_GROB_Value_FAMILY LP_LEBENSPHASE_FEIN_Value_AGE LP_LEBENSPHASE_FEIN_Value_INCOME LP_LEBENSPHASE_FEIN_Value_OTHER LP_LEBENSPHASE_GROB_Value_AGE LP_LEBENSPHASE_GROB_Value_INCOME LP_STATUS_FEIN_Value_INCOME LP_STATUS_FEIN_Value_OTHER LP_STATUS_GROB_Value_INCOME PRAEGENDE_JUGENDJAHRE_Value_0 PRAEGENDE_JUGENDJAHRE_Value_2 PRAEGENDE_JUGENDJAHRE_Value_3 EINGEFUEGT_AM_Day EINGEFUEGT_AM_DayOfYear EINGEFUEGT_AM_DayOfWeek EINGEFUEGT_AM_DaysInMonth EINGEFUEGT_AM_IsMonthStart EINGEFUEGT_AM_IsMonthEnd EINGEFUEGT_AM_IsQuarterStart EINGEFUEGT_AM_IsQuarterEnd EINGEFUEGT_AM_IsYearStart EINGEFUEGT_AM_IsYearEnd EINGEFUEGT_AM_Season _isMissingUnknown_1 _isMissingUnknown_2 _isMissingUnknown_3 _isMissingUnknown_4 _isMissingUnknown_5 _isMissingUnknown_6 _isMissingUnknown_7 _isMissingUnknown_8 _isMissingUnknown_9 _isMissingUnknown_10 _isMissingUnknown_11 _isMissingUnknown_12 _isMissingUnknown_13 _isMissingUnknown_14 _isMissingUnknown_15 _isMissingUnknown_16 _isMissingUnknown_17 _isMissingUnknown_18 _isMissingUnknown_19 _isMissingUnknown_20 CAMEO_DEU_2015_1A CAMEO_DEU_2015_1B CAMEO_DEU_2015_1C CAMEO_DEU_2015_1D CAMEO_DEU_2015_1E CAMEO_DEU_2015_2A CAMEO_DEU_2015_2B CAMEO_DEU_2015_2C CAMEO_DEU_2015_2D CAMEO_DEU_2015_3A CAMEO_DEU_2015_3B CAMEO_DEU_2015_3C CAMEO_DEU_2015_3D CAMEO_DEU_2015_4A CAMEO_DEU_2015_4B CAMEO_DEU_2015_4C CAMEO_DEU_2015_4D CAMEO_DEU_2015_4E CAMEO_DEU_2015_5A CAMEO_DEU_2015_5B CAMEO_DEU_2015_5C CAMEO_DEU_2015_5D CAMEO_DEU_2015_5E CAMEO_DEU_2015_5F CAMEO_DEU_2015_6A CAMEO_DEU_2015_6B CAMEO_DEU_2015_6C CAMEO_DEU_2015_6D CAMEO_DEU_2015_6E CAMEO_DEU_2015_6F CAMEO_DEU_2015_7A CAMEO_DEU_2015_7B CAMEO_DEU_2015_7C CAMEO_DEU_2015_7D CAMEO_DEU_2015_7E CAMEO_DEU_2015_8A CAMEO_DEU_2015_8B CAMEO_DEU_2015_8C CAMEO_DEU_2015_8D CAMEO_DEU_2015_9A CAMEO_DEU_2015_9B CAMEO_DEU_2015_9C CAMEO_DEU_2015_9D CAMEO_DEU_2015_9E CAMEO_DEU_2015_XX D19_LETZTER_KAUF_BRANCHE_D19_BANKEN_DIREKT D19_LETZTER_KAUF_BRANCHE_D19_BANKEN_GROSS D19_LETZTER_KAUF_BRANCHE_D19_BANKEN_LOKAL D19_LETZTER_KAUF_BRANCHE_D19_BANKEN_REST D19_LETZTER_KAUF_BRANCHE_D19_BEKLEIDUNG_GEH D19_LETZTER_KAUF_BRANCHE_D19_BEKLEIDUNG_REST D19_LETZTER_KAUF_BRANCHE_D19_BILDUNG D19_LETZTER_KAUF_BRANCHE_D19_BIO_OEKO D19_LETZTER_KAUF_BRANCHE_D19_BUCH_CD D19_LETZTER_KAUF_BRANCHE_D19_DIGIT_SERV D19_LETZTER_KAUF_BRANCHE_D19_DROGERIEARTIKEL D19_LETZTER_KAUF_BRANCHE_D19_ENERGIE D19_LETZTER_KAUF_BRANCHE_D19_FREIZEIT D19_LETZTER_KAUF_BRANCHE_D19_GARTEN D19_LETZTER_KAUF_BRANCHE_D19_HANDWERK D19_LETZTER_KAUF_BRANCHE_D19_HAUS_DEKO D19_LETZTER_KAUF_BRANCHE_D19_KINDERARTIKEL D19_LETZTER_KAUF_BRANCHE_D19_KOSMETIK D19_LETZTER_KAUF_BRANCHE_D19_LEBENSMITTEL D19_LETZTER_KAUF_BRANCHE_D19_LOTTO D19_LETZTER_KAUF_BRANCHE_D19_NAHRUNGSERGAENZUNG D19_LETZTER_KAUF_BRANCHE_D19_RATGEBER D19_LETZTER_KAUF_BRANCHE_D19_REISEN D19_LETZTER_KAUF_BRANCHE_D19_SAMMELARTIKEL D19_LETZTER_KAUF_BRANCHE_D19_SCHUHE D19_LETZTER_KAUF_BRANCHE_D19_SONSTIGE D19_LETZTER_KAUF_BRANCHE_D19_TECHNIK D19_LETZTER_KAUF_BRANCHE_D19_TELKO_MOBILE D19_LETZTER_KAUF_BRANCHE_D19_TELKO_REST D19_LETZTER_KAUF_BRANCHE_D19_TIERARTIKEL D19_LETZTER_KAUF_BRANCHE_D19_UNBEKANNT D19_LETZTER_KAUF_BRANCHE_D19_VERSAND_REST D19_LETZTER_KAUF_BRANCHE_D19_VERSICHERUNGEN D19_LETZTER_KAUF_BRANCHE_D19_VOLLSORTIMENT D19_LETZTER_KAUF_BRANCHE_D19_WEIN_FEINKOST PRAEGENDE_JUGENDJAHRE_Value_1_FDJ_-_communist_party_youth_organisation PRAEGENDE_JUGENDJAHRE_Value_1_Generation_Golf PRAEGENDE_JUGENDJAHRE_Value_1_Swords_into_ploughshares PRAEGENDE_JUGENDJAHRE_Value_1_digital_media_kids PRAEGENDE_JUGENDJAHRE_Value_1_ecological_awareness PRAEGENDE_JUGENDJAHRE_Value_1_economic_miracle PRAEGENDE_JUGENDJAHRE_Value_1_family_orientation PRAEGENDE_JUGENDJAHRE_Value_1_generation_68_-_student_protestors PRAEGENDE_JUGENDJAHRE_Value_1_milk_bar_-_Individualisation PRAEGENDE_JUGENDJAHRE_Value_1_opponents_to_the_building_of_the_Wall PRAEGENDE_JUGENDJAHRE_Value_1_peace_movement PRAEGENDE_JUGENDJAHRE_Value_1_reconstruction_years PRAEGENDE_JUGENDJAHRE_Value_1_war_years
feature_infos=[-1:3] [-2:9] [2:18] [5:18] none none [-2:25] [0:353] [0:20] [0:6] [0:24] [-2:9] [-2:7] [-2:9] [-2:6] [-2:5] [-2:5] [-2:5] [-2:5] [-2:5] [-2:5] [-2:5] [0:6] [0:6] [0:7] [0:6] [0:7] [-2:10] [0:7] [0:7] [0:7] [0:7] [0:7] [0:7] [0:7] [0:7] [0:7] [0:7] [0:7] [0:6] [0:6] [-2:10] [0:7] [0:7] [0:7] [-2:9] [1:9] [0:7] [0:7] [-2:7] [0:7] [0:7] [0:7] [0:7] [0:7] [0:7] [-2:5] [0:7] [0:5] [0:5] [0:7] [-2:10] [0:7] [0:7] [0:6] [0:6] [-2:10] [0:7] [0:5] [0:6] [1:10] [1:10] none [-2:10] [0:7] [0:7] [0:7] [-1:3.30078125] [-2:6] [1:56] [1:5] [1:5] [1:5] [1:5] [1:5] [1:5] [1:6] [-2:5] [-2:8] [-2:5] [0:11.300000000000001] [11:50] [1:12] [0:1] [-1:3] [-2:1] [-2:6] [-2:8] [-2:4] [-2:5] [-2:5] [-2:5] [-2:3] [-2:4] [-2:4] [-2:3] [-2:2] [-2:5] [-2:5] [-2:5] [-2:5] [-2:5] [-2:4] [-2:4] [-2:5] [-2:5] [-2:5] [-2:5] [-2:5] [-2:5] [-2:5] [-2:5] [-2:5] [-2:5] [-2:3] [-2:3] [-2:3] [-2:5] [-2:5] [-2:4] [-2:5] [-2:4] [-2:5] [-2:4] [-2:3] [-2:4] [-2:5] [-2:5] [-2:5] [-2:3] [-2:6] [-2:4] [-2:3] [-2:3] [-2:4] [-2:5] [-2:5] [-2:5] [-2:4] [-2:1] [-2:3] [-2:3] [-2:3] [-2:5] [-2:5] [-2:5] [-2:5] [-2:5] [-2:5] [-2:5] [-2:4] [-2:4] [-2:3] [-2:2] [0:2300] [-2:5] [-2:5] [-2:5] [-2:5] [-2:5] [-2:5] [-2:5] [-2:5] [-2:5] [-2:5] [-2:5] [-2:5] [-2:5] [-2:5] [-2:5] [-2:5] [-2:5] [-2:5] [-2:5] [-2:5] [-2:5] [-2:5] [-2:5] [-2:5] [-2:5] [-2:5] [-2:5] [-2:5] [-2:5] [-2:5] [-2:5] [-2:5] [-2:5] [-2:5] [-2:5] [-2:5] [-2:5] [-2:5] [-2:5] [-2:5] [-2:5] [-2:5] [-2:5] [-2:5] [-2:5] [-2:5] [-2:5] [-2:3] [-2:5] [-2:5] [-2:5] [-2:5] [-2:5] [-2:3] [-2:5] [-2:5] [-2:5] [-2:5] [-2:3] [-2:3] [-2:3] [-2:3] [-2:5] [-2:5] [-2:5] [-2:5] [-2:3] [-2:5] [-2:5] [-2:5] [-2:5] [-2:5] [-2:5] [-2:5] [-2:5] [-2:5] [-2:4] [-2:5] [-2:5] [-2:5] [-2:5] [-2:5] [-2:5] [-2:5] [-2:5] [-2:5] [-2:5] [-2:5] [-2:5] [-2:5] [-2:5] [-2:5] [-2:5] [-2:5] [-2:5] [-2:5] [-2:5] [-2:5] [-2:5] [-2:5] [-2:5] [-2:5] [-2:5] [-2:5] [-2:5] [-2:6] [-2:4] [1:9] [-2:7] [-2:1] [-1:3.099609375] [-2:6] [-2:6] [-1:3] [-2:5] [-2:9] [-2:2] [-2:4] [-2:4] [-2:3] [-2:2] [-2:5] [-2:7] [-2:5] [-2:5] [-2:5] [-2:5] [-2:5] [1:7] [1:7] [1:7] [1:7] [1:7] [1:7] [1:7] [1:7] [1:7] [1:7] [1:7] [1:7] [1:7] [1:7] [-1:3] [-2:1] [-2:3] [-2:5] [-2:5] [-2:5] [-2:1] [0:45] [-1:2] [-2:5] [-2:4] [1:11] [1:13] [1:11] [-2:6] [-2:9] [-2:8] [1:6] [1:2] [1:9] [0:10.1015625] [-2:5] [-2:5] [0:5] [0:5] [0:5] [0:5] [0:5] [0:5] [0:5] [0:5] [0:5] [0:5] [0:5] [0:5] [0:5] [0:5] [0:5] [0:5] [0:5] none [0:5] [0:5] [0:5] [0:5] [0:5] [0:5] [-2:3] [-2:8] [-2:3] [-2:4] [-2:5] [-2:7] none [-2:3] [-2:4] [-2:7] [-2:8] [-2:2] [-1:6] [-1:2] [-1:3] [1:31] [2:365] [-2:6] [28:31] [0:1] none none none none none [0:3] [-2.2083146064174635:14.259193305521343] [-5.9007107396731966:6.1135041603235534] [-6.2399938707238407:6.0770542173820825] [-2.539938666712366:8.1530105039188836] [-3.0540729225044014:7.3736377913611442] [-1.5481024585681533:5.7935991918011727] [-1.8367647932651929:3.5991429413803937] [-3.1529604240351721:3.0947390738493477] [-0.98093477921175021:0.9713992095496804] [-0.98049511908664311:1.7887197137894397] [-1.6232912618877773:1.7401795814018106] [-1.5320520748853079:2.4835398028808431] [-1.2020469363457102:1.1916233369037497] [-0.90516040822178256:3.9512333077042534] [-1.331757734603608:1.4613847047569262] [-1.0406915982371046:1.8603453655301327] [-2.7853555493882616:2.8486835363082426] [-1.2736040166569325:1.2229279825376977] [-1.4705490182854528:1.9169812592173574] [-1.2114417118988876:1.715823960207659] [0:1] none none [0:1] none [0:1] [0:1] [0:1] [0:1] none [0:1] [0:1] [0:1] [0:1] [0:1] [0:1] [0:1] none [0:1] [0:1] [0:1] [0:1] none none none [0:1] [0:1] [0:1] [0:1] [0:1] [0:1] [0:1] [0:1] none [0:1] [0:1] [0:1] [0:1] [0:1] [0:1] [0:1] [0:1] [0:1] none none [0:1] [0:1] none none [0:1] [0:1] none none [0:1] none [0:1] [0:1] [0:1] none none [0:1] none none [0:1] none [0:1] none none [0:1] [0:1] [0:1] [0:1] [0:1] [0:1] none [0:1] [0:1] [0:1] [0:1] none none [0:1] none [0:1] [0:1] [0:1] [0:1] [0:1] [0:1] [0:1] [0:1] [0:1] [0:1]
tree_sizes=2865 2967 2980 2975 2988 2968 2971 2977 2976 2965 2978 2977 2981 2979 2962 2969 2964 2989 2967 2977 2989 2997 2958 2991 2973 2987

Tree=0
num_leaves=36
num_cat=0
split_feature=56 56 195 388 143 323 117 227 170 155 171 77 327 238 171 96 128 304 131 358 212 196 120 177 140 383 77 164 140 90 90 200 314 427 455
split_gain=175537 181676 48721.1 21819 15289.8 14221 12369.7 11860.9 11545.4 10476.8 10035.2 9952.86 9614.5 9489.43 13808 12674.9 9364.32 11074.2 10396.6 8269.22 10947.5 8057.13 7377.41 7133.67 7132.09 6702.02 6192.71 5658.1 5611.8 5523.26 5492.23 5227.64 4887.64 4711.92 4687.44
threshold=1.5000000000000002 1.0000000180025095e-35 1.5000000000000002 0.29295353982342714 1.0000000180025095e-35 2.5000000000000004 2.5000000000000004 2.5000000000000004 2.5000000000000004 1.0000000180025095e-35 2.5000000000000004 1.1499023437500002 5.3515625000000009 3.5000000000000004 3.5000000000000004 1.5000000000000002 2.5000000000000004 4.5000000000000009 1.5000000000000002 1.0000000180025095e-35 1.5000000000000002 3.5000000000000004 2.5000000000000004 1.5000000000000002 3.5000000000000004 -1.8191829844749785 1.9501953125000002 609.50000000000011 3.5000000000000004 3.1500000000000008 8.3500000000000032 2.5000000000000004 24.500000000000004 1.0000000180025095e-35 1.0000000180025095e-35
decision_type=2 2 2 2 2 2 2 2 2 2 2 2 10 2 2 2 2 2 2 2 2 2 2 2 2 2 2 8 2 2 2 2 10 2 2
left_child=1 2 12 5 6 32 -5 19 10 31 -9 -8 -1 15 -15 24 17 -17 21 -7 26 -19 -13 -16 -4 -3 -21 -24 -25 -22 33 -10 -2 -27 -11
right_child=3 25 13 4 -6 7 11 8 9 34 -12 22 -14 14 23 16 -18 18 -20 20 29 -23 27 28 -26 30 -28 -29 -30 -31 -32 -33 -34 -35 -36
leaf_value=-4.3366951027182781 -4.3535658171072633 -4.3448445198083361 -4.3534206850497945 -4.3535538104913369 -4.3535858265107397 -4.3294941933292694 -4.3535028481575759 -4.3482624936092202 -4.3310587901602906 -4.3535738795479544 -4.3313724170333332 -4.3534257909434286 -4.3534953666692369 -4.3503927288363267 -4.3534128317464047 -4.3535580040348938 -4.3535841031452485 -4.3302989024780798 -4.353506473320115 -4.3535391487837014 -4.3276474511294625 -4.3534176264826678 -4.3302766978790155 -4.3298224834733787 -4.3309804897470592 -4.3295206444741776 -4.3378879539273694 -4.3533373623536749 -4.3533271150930117 -4.3532953279332363 -4.3532975341425555 -4.3533690502962763 -4.3362411914900774 -4.3532606043675397 -4.3374441734407085
leaf_count=6204 1358 248 199 951 4446 237 406 504 78 1893 242 206 373 940 189 1063 3727 159 424 692 50 195 222 199 113 8508 176 124 118 102 103 146 50 88 65
internal_value=0 53.4129 33.6468 20.9686 9.38262 30.1405 25.3709 35.1054 25.0863 13.1594 43.1306 38.3061 43.758 17.8372 32.6852 12.4182 8.04709 21.107 36.5509 48.0198 34.4228 51.0496 48.7141 50.2516 45.5084 63.8195 15.7136 56.4292 57.7118 60.2457 64.129 45.6282 5.07656 64.2752 3.48881
internal_count=34798 22850 13903 11948 6355 5593 1909 4185 2928 2182 746 958 6577 7326 1446 5880 5568 1841 778 1257 1020 354 552 506 312 8947 868 346 317 152 8699 224 1408 8596 1958
shrinkage=1


Tree=1
num_leaves=36
num_cat=0
split_feature=56 56 195 388 143 323 353 117 227 170 155 77 238 171 171 158 196 123 328 103 97 359 120 177 359 383 289 140 79 104 229 318 314 34 18
split_gain=167796 171883 47027 21356.2 15097.7 13864.3 12481.5 12091.3 10512.1 10479.5 10279.1 9650.61 9272.88 13362.6 8963.87 8545.64 8467.42 8338.72 12088.3 9483.64 8032.26 7443.97 7109.24 6867.82 6766.38 6315.09 5730.85 5378.48 5178.49 5008.87 4973.12 4960.79 4811.33 4790.01 4748.37
threshold=1.5000000000000002 1.0000000180025095e-35 1.5000000000000002 0.29295353982342714 1.0000000180025095e-35 2.5000000000000004 2.5000000000000004 2.5000000000000004 2.5000000000000004 2.5000000000000004 1.0000000180025095e-35 1.1499023437500002 3.5000000000000004 3.5000000000000004 2.5000000000000004 1.5000000000000002 3.5000000000000004 2.5000000000000004 3.5000000000000004 3.5000000000000004 4.5000000000000009 6.5000000000000009 2.5000000000000004 1.5000000000000002 5.5000000000000009 -1.8191829844749785 4.5000000000000009 3.5000000000000004 45.500000000000007 1.5000000000000002 4.5000000000000009 9.5000000000000018 24.500000000000004 2.5000000000000004 3.5000000000000004
decision_type=2 2 2 2 2 2 2 2 2 2 2 2 2 2 2 2 2 2 2 2 2 2 2 2 2 2 2 2 8 2 2 8 10 2 2
left_child=1 2 15 5 7 32 8 -5 21 14 28 -9 16 -14 -10 26 17 18 24 -19 -21 30 -13 -15 29 -3 31 -25 -11 -4 -7 -1 -2 -12 -28
right_child=3 25 12 4 -6 6 -8 11 9 10 33 22 13 23 -16 -17 -18 19 -20 20 -22 -23 -24 27 -26 -27 34 -29 -30 -31 -32 -33 -34 -35 -36
leaf_value=-0.00020840725819760357 -0.00034373320329460141 0.0083121625953791502 0.022925916870016834 -0.00033172335086577716 -0.0003637488313224151 0.020892132965740898 -0.00031845804093142186 -0.00028075082497338498 0.0055397074253327704 0.022896848371632063 -0.0003474723001806621 -0.0002036883366700598 0.0028207776689257928 -0.00019072933466027234 0.022234302386948061 0.0043697825472661881 -0.00035663036954719816 -0.00035289679988464187 -0.00030502519956092529 0.02141081744146207 -0.00024939252639569865 -0.0002048991212080336 0.020354527468327176 0.022878182952207272 -0.00019259387057990083 0.023056643711142785 -7.8564080951829741e-05 -0.00010502044721378858 -0.00013068199395046897 -9.0241480360114579e-05 -0.00011543829026730532 0.015641292851535937 0.016741727514864448 0.016411199518406187 0.022285835598726832
leaf_count=211 1358 248 172 951 4446 704 707 406 437 55 1563 206 940 189 201 578 2469 1996 562 86 294 207 346 199 191 8699 103 118 133 110 123 5210 50 55 475
internal_value=0 52.3815 33.2336 20.8096 9.34809 29.8194 34.6707 25.1356 38.2698 28.057 15.3846 37.7798 17.7201 32.3011 45.3613 43.0621 12.3604 19.4438 33.7708 9.28306 35.7556 50.6583 47.8719 49.3567 48.2186 62.3536 44.5501 56.539 47.7588 56.3064 54.3206 41.7317 5.06735 4.3483 57.9065
internal_count=34798 22850 13903 11948 6355 5593 4185 1909 3478 2444 1806 958 7326 1446 638 6577 5880 3411 1035 2376 380 1034 552 506 473 8947 5999 317 188 282 827 5421 1408 1618 578
shrinkage=0.000368031


Tree=2
num_leaves=36
num_cat=0
split_feature=56 56 195 388 143 323 353 117 130 389 77 327 238 171 196 142 128 131 32 249 83 120 177 390 391 383 140 90 389 314 197 118 387 150 131
split_gain=160553 162783 45420.2 20899.3 14909.4 13515 12163.4 11822.3 10091.4 10099.4 9361.95 9063.57 9063.17 12937.5 8371.37 8330.63 8015.25 10967.2 7647.65 7433.26 7210.29 6855.45 6616.67 6315.06 5967.77 5957.38 5159.53 5128.49 4993.46 4737 4671.15 4669.95 4593.94 4556.42 4464.33
threshold=1.5000000000000002 1.0000000180025095e-35 1.5000000000000002 0.29295353982342714 1.0000000180025095e-35 2.5000000000000004 2.5000000000000004 2.5000000000000004 4.5000000000000009 -0.33150021173059502 1.1499023437500002 5.3515625000000009 3.5000000000000004 3.5000000000000004 3.5000000000000004 2.5000000000000004 2.5000000000000004 1.5000000000000002 2.5000000000000004 1.5000000000000002 2.5000000000000004 2.5000000000000004 1.5000000000000002 -0.56723160182299226 0.42899579280727224 -1.8191829844749785 3.5000000000000004 8.3500000000000032 0.89292419475824036 24.500000000000004 4.5000000000000009 2.5000000000000004 -0.88425263592078973 2.5000000000000004 3.5000000000000004
decision_type=2 2 2 2 2 2 2 2 2 2 2 10 2 2 2 2 2 2 2 2 2 2 2 2 2 2 2 2 2 10 2 2 2 2 2
left_child=1 2 11 5 7 29 8 -5 15 -10 -9 -1 14 33 16 18 17 23 20 -18 24 -12 -15 31 28 -3 -24 -27 30 -2 -7 -4 -21 -14 -23
right_child=3 25 12 4 -6 6 -8 10 9 -11 21 -13 13 22 -16 -17 19 -19 -20 32 -22 34 26 -25 -26 27 -28 -29 -30 -31 -32 -33 -34 -35 -36
leaf_value=0.015999362363255849 -0.00034372212894980643 0.0082477366181338361 -4.6168444488366844e-05 -0.00033170898862851266 -0.0003637439575241783 0.020116470709853212 -0.00031844047605189443 -0.00028072629436618808 0.020722695020052806 -0.00033118475437079705 -0.0002036585386528052 -0.00027365276369162479 -0.00032928308635522797 -0.00019069970987561387 -0.00035662318644275824 -0.00026133223178849543 0.016043518442847186 -0.00030238530738508441 -0.00024015886309411565 0.015300660764534598 -0.00022083898187282941 0.021675591908935209 0.022379445959087457 0.0065640619240858837 -0.00018109006436012944 0.022587010137283318 -0.00010499860633396839 -8.0566587695523012e-05 -0.00013840982813206516 0.016508659197938844 -0.00011438026825779749 0.02442642348485605 -0.00035434098216660859 0.016900997576557879 -8.5334391755424046e-05
leaf_count=6204 1358 248 90 951 4446 1239 707 406 51 927 206 373 890 189 2469 326 146 540 269 66 230 242 199 344 176 8596 118 103 138 50 122 71 2154 50 104
internal_value=0 51.3902 32.8314 20.6513 9.31378 29.5007 34.2406 24.9045 37.748 13.9889 37.2674 42.3902 17.6045 31.9258 12.3029 42.6352 19.3061 33.1856 45.2155 9.28767 47.5843 47.0578 48.493 46.2938 49.8176 60.9544 55.4127 61.2361 51.6661 5.05814 53.2129 59.8577 2.97686 7.64137 54.2272
internal_count=34798 22850 13903 11948 6355 5593 4185 1909 3478 978 958 6577 7326 1446 5880 2500 3411 1045 2174 2366 1905 552 506 505 1675 8947 317 8699 1499 1408 1361 161 2220 940 346
shrinkage=0.000368031


Tree=3
num_leaves=36
num_cat=0
split_feature=56 56 195 108 143 130 24 254 77 341 181 171 222 273 148 173 264 164 49 230 300 397 263 177 397 92 22 7 90 164 2 90 142 289 427
split_gain=153769 154319 43869.6 16091.7 14964.3 14098.8 13929.5 12107 11291.4 10213.5 8989.44 11459.5 12026.4 10260.9 12696.9 8903.4 8678.95 8609.86 7342.7 7241.83 7202.75 7177.15 6538.12 6201.05 5852.7 5179.45 5013.76 4930.52 4911.88 4904.68 4683.59 4651.14 4647.26 4609.58 4313.71
threshold=1.5000000000000002 1.0000000180025095e-35 1.5000000000000002 1.0000000180025095e-35 1.0000000180025095e-35 4.5000000000000009 1.0000000180025095e-35 3.5000000000000004 1.1499023437500002 2.5000000000000004 3.5000000000000004 3.5000000000000004 2.5000000000000004 4.5000000000000009 1.0000000180025095e-35 1.5000000000000002 4.5000000000000009 609.50000000000011 5.5000000000000009 1.5000000000000002 1.5000000000000002 0.19766944024571534 2.5000000000000004 1.5000000000000002 -0.072026770374072083 11.500000000000002 2.5000000000000004 60.500000000000007 8.3500000000000032 852.50000000000011 7.5000000000000009 4.7500000000000009 2.5000000000000004 4.5000000000000009 1.0000000180025095e-35
decision_type=2 2 2 2 2 2 2 2 2 2 2 2 2 2 2 2 2 8 2 2 2 2 2 2 2 8 2 8 2 10 10 2 2 2 2
left_child=1 2 18 5 8 6 7 9 -5 15 11 13 23 21 -15 20 -14 19 31 -10 -2 -4 -17 -13 -21 32 -6 -12 34 -23 -7 33 -24 -1 -3
right_child=3 28 10 4 26 30 -8 -9 17 -11 27 12 16 14 -16 22 -18 -19 -20 24 -22 29 25 -25 -26 -27 -28 -29 -30 -31 -32 -33 -34 -35 -36
leaf_value=0.01492218520821887 0.018042435808110737 0.022031072783255105 -0.00035812174639701313 -0.00032868873674051218 -0.0003639361709874947 -0.00034555587140552493 -0.00032494761433107816 -0.00030612581794611083 -0.00022590405624786845 -0.00028172256175931001 -0.00035555470793997574 -0.00015583558262522012 -0.00032692194740318648 0.020433929456068443 -0.00029809101373495794 0.006401759008878868 0.018789404263825603 -0.00027960361610254671 -0.00025647816676220293 -0.00015708386164064601 -0.00030676763537807079 -0.00019380698724060145 0.021089368348670302 0.021619901203236671 0.02089483235359842 -0.0001289792276838822 0.015864903815801856 0.01625945209006191 -8.270199023994555e-05 0.020416095111823969 0.016215417967801002 -0.00019360641811352788 -9.4201569852328751e-05 0.020038347009273417 -5.203823745992315e-05
leaf_count=5392 97 8754 2713 883 4543 1438 802 564 237 409 2301 153 840 182 506 351 78 396 307 152 572 192 848 260 308 130 56 50 104 51 51 191 111 687 89
internal_value=0 50.4363 32.4393 20.4932 11.0763 28.6634 33.9171 38.2313 26.1044 41.981 17.4925 22.4876 36.8666 13.5942 34.2716 45.1444 14.6861 36.5997 41.7369 44.6028 18.8411 4.84292 50.2298 52.9807 51.3343 53.8789 0.983984 2.75536 59.6172 34.9197 4.70972 42.6141 55.6838 43.1698 59.7476
internal_count=34798 22850 13903 11948 6575 5373 3884 3082 1976 2518 7326 4975 1331 3644 688 2109 918 1093 6577 697 669 2956 1440 413 460 1089 4599 2351 8947 243 1489 6270 959 6079 8843
shrinkage=0.000368031


Tree=4
num_leaves=36
num_cat=0
split_feature=56 56 195 388 143 323 353 117 227 327 318 77 238 171 327 196 317 369 144 254 298 359 120 269 113 116 383 164 159 90 255 314 229 150 427
split_gain=147361 146429 42396 20025.6 14540.8 12908.8 11578.3 11354.4 9549.23 11615.1 9558.37 8843.42 8696.06 12195 8553.07 8197.56 9241.59 10066.3 9209.2 7749.64 7279.16 6826.59 6447.55 6225.58 6092.54 5967.89 5512.13 5025.28 4867.65 4702.2 4628.03 4597.44 4539.29 4418.53 4123.54
threshold=1.5000000000000002 1.0000000180025095e-35 1.5000000000000002 0.29295353982342714 1.0000000180025095e-35 2.5000000000000004 2.5000000000000004 2.5000000000000004 2.5000000000000004 5.3515625000000009 1.5000000000000002 1.1499023437500002 3.5000000000000004 3.5000000000000004 5.3515625000000009 3.5000000000000004 3.5000000000000004 9.5000000000000018 1.5000000000000002 1.0000000180025095e-35 2.5000000000000004 6.5000000000000009 2.5000000000000004 2.5000000000000004 1.5000000000000002 1.0000000180025095e-35 -1.8191829844749785 609.50000000000011 1.5000000000000002 8.3500000000000032 3.5000000000000004 24.500000000000004 4.5000000000000009 2.5000000000000004 1.0000000180025095e-35
decision_type=2 2 2 2 2 2 2 2 2 10 10 2 2 2 10 2 2 10 2 2 2 2 2 2 2 2 2 8 2 2 2 10 2 2 2
left_child=1 2 14 5 7 31 8 -5 21 19 -11 -9 15 33 -1 16 17 25 24 -10 -12 32 -13 -15 -18 -4 -3 -24 -25 34 -22 -2 -7 -14 -28
right_child=3 26 12 4 -6 6 -8 11 9 10 20 22 13 23 -16 -17 18 -19 -20 -21 30 -23 27 28 -26 -27 29 -29 -30 -31 -32 -33 -34 -35 -36
leaf_value=0.015503968452208999 -0.00034380304124228026 0.0080177280902609012 0.021318503981773533 -0.00033181173965722652 -0.00036373670589577475 0.019819825663643136 -0.00031843262994064474 -0.00028067303496734098 0.015486117532050441 -0.00027341378174342045 -0.00020794571268791868 -0.00020445416926324734 -0.00032930447185507676 -0.00019171651791001615 -0.00027392242975699514 -0.00035663720340753542 -0.00016050208670660631 0.0009394349982226333 -0.00027238013808749209 -0.00034368997182426255 0.021464802823025951 -0.00020652964247910269 0.021187644898410421 -0.00010805235771221892 0.021702546597291435 -0.00019243220942440734 0.021653460207490812 -0.00012230242363814518 0.02155021403042914 -8.0530503318657331e-05 -9.4341700073152657e-05 0.016064788897802447 -0.00011761533657165514 0.016458376950472291 -4.9390884902591496e-05
leaf_count=6204 1358 248 65 951 4446 704 707 406 148 366 208 206 890 185 373 2469 156 2488 367 1327 285 207 222 116 145 190 8508 124 205 103 110 50 123 50 88
internal_value=0 49.5177 32.0571 20.3384 9.24394 28.8796 33.4246 24.4495 36.7633 27.1402 40.3668 36.3234 17.3817 31.2427 41.1051 12.1873 19.0452 10.5145 37.6289 9.60342 48.3625 48.2616 45.5717 46.9539 50.4723 41.2663 58.3375 52.3147 53.4648 58.601 54.4517 5.0237 51.6203 7.59637 58.7262
internal_count=34798 22850 13903 11948 6355 5593 4185 1909 3478 2444 969 958 7326 1446 6577 5880 3411 2743 668 1475 603 1034 552 506 301 255 8947 346 321 8699 395 1408 827 940 8596
shrinkage=0.000368031


Tree=5
num_leaves=36
num_cat=0
split_feature=56 56 195 388 323 353 102 301 223 130 90 181 273 389 350 369 327 182 344 83 32 17 174 148 391 383 18 230 7 389 164 314 90 197 182
split_gain=141314 139100 40988.7 19602.1 12590.1 11291.2 9548.13 9507.91 9794.4 8885.02 9168.38 8737.14 9313.04 11477 12041 10151.1 8300.09 7396.47 7198.15 6840.55 6518.74 6300.81 6207.83 5659.51 5316.8 5217.83 5124.26 4886.79 4790.49 4718.42 4613.03 4528.56 4508.6 4370.65 4093.63
threshold=1.5000000000000002 1.0000000180025095e-35 1.5000000000000002 0.29295353982342714 2.5000000000000004 2.5000000000000004 2.5000000000000004 6.5000000000000009 1.5000000000000002 4.5000000000000009 6.0500000000000007 3.5000000000000004 4.5000000000000009 -0.0027276930746988645 1.0000000180025095e-35 10.500000000000002 5.3515625000000009 3.5000000000000004 4.5000000000000009 2.5000000000000004 2.5000000000000004 2.5000000000000004 2.5000000000000004 1.5000000000000002 0.42899579280727224 -1.8191829844749785 3.5000000000000004 1.5000000000000002 60.500000000000007 0.89292419475824036 163.50000000000003 24.500000000000004 8.3500000000000032 4.5000000000000009 2.5000000000000004
decision_type=2 2 2 2 2 2 2 2 2 2 2 2 2 2 2 10 10 2 2 2 2 2 2 2 2 2 2 2 8 2 10 10 2 2 2
left_child=1 2 16 4 31 6 9 8 17 19 -11 12 13 14 -4 23 -1 -5 -10 20 24 34 -9 27 29 -3 -20 -14 -13 33 -15 -2 -27 -6 -16
right_child=3 25 11 7 5 -7 -8 22 18 10 -12 28 15 30 21 -17 -18 -19 26 -21 -22 -23 -24 -25 -26 32 -28 -29 -30 -31 -32 -33 -34 -35 -36
leaf_value=0.015266738230930048 -0.00034379197628700494 0.007957561419538111 0.0026193191319832613 -0.00024283068969220442 0.019186903157434907 -0.00031841505308525717 -0.00029851808651032159 0.021520313512194376 -0.00036548688830076247 -0.00032508261789562185 0.019808427185545721 -0.00035557690478969805 -0.00011981452806298241 0.015178349345570953 -6.5844876119799595e-05 -0.00028709894743573214 -0.00027389694780961457 0.020807085264503915 0.01978563592662658 -0.00023616442997372725 -0.0002185861876714173 -0.00019294302306725012 -0.00019744500113643798 -0.00018022760232953692 -0.00017677742590026057 0.021156183115651456 -0.00021565923354867087 0.020887920620868066 0.015822408865967492 -0.00014500815795201016 -0.0003568068184551752 0.015848614903638231 -8.0512729606236312e-05 -0.00011966021341163415 0.021711443270509695
leaf_count=6204 1358 248 1000 276 1216 707 498 52 5488 799 51 2301 125 59 98 433 373 68 51 256 224 190 197 175 169 8596 223 267 50 141 2474 50 103 124 154
internal_value=0 48.6317 31.6825 20.1858 28.5772 33.0202 36.2761 9.21039 5.979 39.0295 15.4045 17.2713 22.1376 15.4235 29.042 37.5168 40.4907 35.8893 2.12104 43.5335 45.6524 46.5687 41.1449 46.9523 47.6716 57.1125 32.2862 52.2133 2.7434 49.3185 2.48363 5.01457 57.3648 50.7801 54.1002
internal_count=34798 22850 13903 11948 5593 4185 3478 6355 6106 2980 850 7326 4975 3975 1442 1000 6577 344 5762 2130 1874 442 249 567 1650 8947 274 392 2351 1481 2533 1408 8699 1340 252
shrinkage=0.000368031


Tree=6
num_leaves=36
num_cat=0
split_feature=56 56 195 388 323 353 301 223 102 181 161 399 118 327 90 232 170 208 182 344 243 134 172 85 358 318 255 175 340 295 138 383 394 7 314
split_gain=135588 132263 39645.8 19181.9 12280.4 11013.1 9322.42 9643.33 9293.53 8601.34 9647.41 9324.17 8113.67 8058.31 7952.19 10925.3 7788.77 7201.19 7169.04 7115.14 6231.91 6138.57 6005.63 5817.83 5380.01 13287.4 8366.12 6735.69 6656.79 5114.5 5045.51 4944.02 4826.28 4722.81 4461.4
threshold=1.5000000000000002 1.0000000180025095e-35 1.5000000000000002 0.29295353982342714 2.5000000000000004 2.5000000000000004 6.5000000000000009 1.5000000000000002 2.5000000000000004 3.5000000000000004 2.5000000000000004 0.0030811569046651226 3.5000000000000004 5.3515625000000009 2.3500000000000001 1.0000000180025095e-35 2.5000000000000004 3.5000000000000004 3.5000000000000004 4.5000000000000009 1.5000000000000002 2.5000000000000004 3.5000000000000004 3.5000000000000004 1.5000000000000002 1.5000000000000002 3.5000000000000004 2.5000000000000004 3.5000000000000004 1.5000000000000002 1.5000000000000002 -1.8191829844749785 -0.071590406319452168 60.500000000000007 24.500000000000004
decision_type=2 2 2 2 2 2 2 2 2 2 2 2 2 10 2 2 2 2 2 2 2 2 2 2 2 10 2 2 2 2 2 2 2 8 10
left_child=1 2 13 4 34 8 7 18 14 10 16 20 -13 -1 15 -6 -4 21 -5 -9 29 32 -8 -16 27 -26 28 -25 -27 -12 -21 -3 -18 -11 -2
right_child=3 31 9 6 5 -7 22 19 -10 33 11 12 -14 -15 23 -17 17 -19 -20 30 -22 -23 -24 24 25 26 -28 -29 -30 -31 -32 -33 -34 -35 -36
leaf_value=0.015036689818182954 -0.0003437808914836385 0.0078982491324495405 -0.00029007495963425458 -0.00024280214097114122 0.018144652075974054 -0.00031839748222224195 -0.00019748125904250617 -0.00036548259053311984 -0.00029849640415044069 -0.00035556935694915537 0.019332189034136773 -0.00025929602438309348 0.019523506419279274 -0.00027387147873386632 -0.00021732931665342396 -0.00032842612467065232 -0.00015158843054839983 -0.00025922013409125985 0.020410439745724141 0.01953553801809577 -0.00035738649072562237 -0.00021491474460327685 0.021099884713571555 0.02297581318555585 -0.00030793245034365383 0.020080718817564767 -0.00024283690004524617 -0.00014475877715637917 -0.00018771532961510325 -0.00022336683702801685 -0.00021670566925259847 0.020676037946506531 0.01892211261276016 0.015612172757987274 0.015637732654433665
leaf_count=6204 1358 248 450 276 127 707 196 5488 498 2301 52 320 136 373 219 842 147 319 68 50 2563 220 53 155 568 484 268 139 178 235 224 8699 533 50 50
internal_value=0 47.777 31.3164 20.0364 28.2793 32.623 9.17901 5.96514 35.7988 17.1621 21.9594 12.6936 36.0684 39.8945 38.4789 18.806 33.3215 38.7509 35.4461 2.11892 4.97757 43.7708 40.5667 43.3094 45.1809 37.6493 45.5872 57.7339 50.5855 31.0948 31.9365 55.9385 48.05 2.74036 5.00545
internal_count=34798 22850 13903 11948 5593 4185 6355 6106 3478 7326 4975 3306 456 6577 2980 969 1669 1219 344 5762 2850 900 249 2011 1792 1498 930 294 662 287 274 8947 680 2351 1408
shrinkage=0.000368031


Tree=7
num_leaves=36
num_cat=0
split_feature=56 56 8 388 238 323 159 353 399 301 223 102 244 227 318 298 344 182 196 255 393 92 359 227 394 160 286 181 385 249 138 383 261 229 427
split_gain=130164 125879 38365.5 18777.4 13091.6 11983.7 10802.2 10747.1 10173.4 9142.33 9495.98 9050.75 8279.47 7587.07 8794.13 9091.71 7033.84 6952 6615.6 6482.36 6250.49 6203.2 5920.89 5833.56 5487.01 5287.67 6134.06 5148.55 5073.8 4943.34 4906.67 4688.94 4298.51 4001.58 3781.31
threshold=1.5000000000000002 1.0000000180025095e-35 1.0000000180025095e-35 0.29295353982342714 3.5000000000000004 2.5000000000000004 1.5000000000000002 2.5000000000000004 0.0030811569046651226 6.5000000000000009 1.5000000000000002 2.5000000000000004 4.5000000000000009 2.5000000000000004 1.5000000000000002 2.5000000000000004 4.5000000000000009 3.5000000000000004 2.5000000000000004 3.5000000000000004 -0.026196781299007706 5.5000000000000009 6.5000000000000009 3.5000000000000004 -0.025803298336064342 2.5000000000000004 1.5000000000000002 3.5000000000000004 0.075556751505742148 2.5000000000000004 1.5000000000000002 -1.8191829844749785 4.5000000000000009 4.5000000000000009 1.0000000180025095e-35
decision_type=2 2 8 2 2 2 2 2 2 2 2 2 2 2 10 2 2 2 2 2 2 10 2 2 2 2 2 2 2 2 2 2 2 2 2
left_child=1 2 4 5 8 32 -6 11 12 10 17 13 -1 22 -15 -16 -12 -5 -14 28 -8 -10 33 -11 -4 26 -23 29 -17 -22 -18 -3 -2 -7 -33
right_child=3 31 24 9 6 7 20 -9 21 23 16 -13 18 14 15 19 30 -19 -20 -21 27 25 -24 -25 -26 -27 -28 -29 -30 -31 -32 34 -34 -35 -36
leaf_value=0.00033405901218105596 -0.00034369835807398558 0.0078397738201070807 -0.00023458481192197321 -0.00024277359779590878 -0.00030760448155010589 0.01950269228581562 -0.00022823825226832534 -0.0003183799018109428 -0.00028228239803121754 -0.00019788189434284656 -0.0003654782716830436 -0.00029847471903100706 0.017901976135536297 -0.00031401186845876752 0.0035445901743141103 0.01950157900048503 0.019195439365343722 0.020028301150463602 -0.00026472855459285275 -0.00021813512610027752 -0.00013838024259132494 0.01992146057488093 -0.00018732067020157343 0.020716092765134631 0.014880213267344886 -0.00021975135984556883 -0.00019200130628075452 -0.00017243059119227504 -0.00015141663484398801 0.019908424443901968 -0.00021667598094432343 0.020294981372642559 0.015130892986675979 -9.7088520608486269e-05 -5.9154320162919474e-05
leaf_count=4723 1349 248 251 276 574 600 240 707 406 196 5488 498 133 634 698 392 50 68 339 222 135 188 180 53 5973 227 188 165 144 361 224 8611 59 110 88
internal_value=0 46.9522 30.9585 19.89 17.7456 27.9895 33.4516 32.238 11.4247 9.14781 5.95132 35.3372 5.52738 37.9472 28.8496 34.9797 2.11679 35.0134 30.1744 44.2006 41.6659 29.5472 48.1099 40.0041 39.7572 38.1994 45.5746 46.4194 49.1303 50.335 31.5939 54.8123 4.99634 51.0231 55.0441
internal_count=34798 22850 13903 11948 7679 5593 1475 4185 6204 6355 6106 3478 5195 2980 2090 1456 5762 344 472 758 901 1009 890 249 6224 603 376 661 536 496 274 8947 1408 710 8699
shrinkage=0.000368031


Tree=8
num_leaves=36
num_cat=0
split_feature=56 56 195 388 143 353 117 130 173 263 90 181 171 273 148 153 77 177 327 397 171 300 102 120 80 92 7 383 17 90 391 230 295 427 369
split_gain=125040 119913 37199.1 18382.4 13931.9 11225.6 10540.3 10074.6 8732.08 8620.59 8546.93 8345.08 10260.9 9430.91 11200.8 8514.14 8009.49 7809.25 7634.81 6751.35 6375.29 6344.08 5742.44 5733.74 5062.84 4664.63 4608.44 4450.95 4317.61 4159.17 3958.06 3788.89 3692.37 3649.91 3637.59
threshold=1.5000000000000002 1.0000000180025095e-35 1.5000000000000002 0.29295353982342714 1.0000000180025095e-35 2.5000000000000004 2.5000000000000004 4.5000000000000009 1.5000000000000002 2.5000000000000004 6.1500000000000012 3.5000000000000004 3.5000000000000004 4.5000000000000009 1.0000000180025095e-35 2.5000000000000004 1.1499023437500002 1.5000000000000002 5.3515625000000009 0.19766944024571534 2.5000000000000004 1.5000000000000002 2.5000000000000004 2.5000000000000004 1.5000000000000002 11.500000000000002 65.500000000000014 -1.8191829844749785 1.5000000000000002 8.3500000000000032 0.40245606119647709 1.5000000000000002 4.5000000000000009 1.0000000180025095e-35 19.500000000000004
decision_type=2 2 2 2 2 2 2 2 2 2 2 2 2 2 2 2 2 2 10 2 2 2 2 2 2 8 10 2 2 2 2 2 2 2 10
left_child=1 2 18 5 6 7 -5 8 21 34 -9 12 13 19 -15 -14 -8 -17 -1 -4 -11 -2 25 -18 32 30 -13 -3 -21 33 -22 -25 -19 -29 -10
right_child=3 27 11 4 -6 -7 16 10 9 20 -12 26 15 14 -16 17 23 24 -20 28 22 -23 -24 31 -26 -27 -28 29 -30 -31 -32 -33 -34 -35 -36
leaf_value=0.014601362459900043 0.01476443195870825 0.0077821177416631292 -0.0003582334927498069 -0.00033182393133931445 -0.00036373903497374853 -0.00033288293506433808 -0.00028067598037533043 -0.00034166135715725971 -0.00030597028575776584 0.0053603928202779674 0.017019820292757323 -0.00035558631573032889 -0.0002891740108225847 0.018819135947520559 -0.00029886030340512928 -0.00025371707592261887 -0.00020446616459820769 0.021109795512941565 -0.00027413426991016213 0.018825550364121691 0.019237996582226146 -0.0003269654051119348 -0.00019060865858674115 -9.3456073302571838e-05 0.0068322028260089677 -0.00014275104936594364 0.015255106935951125 0.019933069004002255 -0.00019467399794101704 -8.9451962399715457e-05 -9.8171531597876402e-05 0.01952222782233828 -4.7481418977946617e-05 -5.9140634800373155e-05 0.015283742542648958
leaf_count=6204 148 248 2713 951 4446 977 406 1235 546 417 88 2301 440 182 506 301 206 200 373 52 876 824 184 104 302 136 50 8508 191 103 110 242 88 88 52
internal_value=0 46.1553 30.6082 19.7452 9.11679 27.7042 23.686 30.8334 35.3008 39.7859 10.43 16.9397 21.6062 13.2174 32.3871 34.7528 34.7089 41.2276 38.7622 4.76331 43.8238 13.5306 47.2666 43.0855 47.1663 49.2678 2.73028 53.7309 33.0569 53.9535 50.8934 49.0823 54.2697 54.0642 10.9632
internal_count=34798 22850 13903 11948 6355 5593 1909 4616 3293 2321 1323 7326 4975 3644 688 1331 958 891 6577 2956 1723 972 1306 552 590 1122 2351 8947 243 8699 986 346 288 8596 598
shrinkage=0.000368031


Tree=9
num_leaves=36
num_cat=0
split_feature=56 56 195 388 353 130 389 301 223 173 396 263 181 171 222 273 148 264 327 344 397 182 171 102 174 177 380 7 92 164 383 90 243 49 289
split_gain=120206 114314 36020.6 18006.9 10993.7 9792.55 9115.29 8823.95 9227.27 8447.97 9048.7 8317.79 8218.53 10001.7 10173.7 9259.68 10879.1 7736.33 7422.02 6883.69 6665.77 6578.76 6126.06 5547.78 5533.49 5200.75 4672.84 4545.16 4501.03 4234.62 4228.64 4001.56 3815.7 3794.29 4529.71
threshold=1.5000000000000002 1.0000000180025095e-35 1.5000000000000002 0.29295353982342714 2.5000000000000004 4.5000000000000009 -0.41832844956107856 6.5000000000000009 1.5000000000000002 1.5000000000000002 0.061609148139042995 2.5000000000000004 3.5000000000000004 3.5000000000000004 2.5000000000000004 4.5000000000000009 1.0000000180025095e-35 4.5000000000000009 5.3515625000000009 4.5000000000000009 0.19766944024571534 3.5000000000000004 2.5000000000000004 2.5000000000000004 2.5000000000000004 1.5000000000000002 -2.0872716505197113 60.500000000000007 11.500000000000002 852.50000000000011 -1.8191829844749785 8.3500000000000032 1.5000000000000002 5.5000000000000009 4.5000000000000009
decision_type=2 2 2 2 2 2 2 2 2 2 2 2 2 2 2 2 2 2 10 2 2 2 2 2 2 2 2 8 8 10 2 2 2 2 2
left_child=1 2 18 4 5 9 -7 8 21 10 -2 -11 13 15 25 20 -17 -16 33 -10 -4 -5 -13 28 -9 -15 -21 -14 32 -22 -3 -32 -24 34 -1
right_child=3 30 12 7 -6 6 -8 24 19 11 -12 22 27 14 17 16 -18 -19 -20 26 29 -23 23 -25 -26 -27 -28 -29 -30 -31 31 -33 -34 -35 -36
leaf_value=0.013656577534216919 -0.00033191272331339119 0.0077252644520844037 -0.00035822677370681179 -0.000242880671963534 -0.00033286888240117209 0.017881680101335833 -0.00034225292321683141 0.020037024958605456 -0.00036547931490304693 0.0040199172145697175 0.018910251005403354 0.0053321510045730375 -0.00035557876453087947 -0.00015842343863592271 -0.00032766476553093251 0.018483841875522305 -0.00029883870684686338 0.017116356799719467 -0.00027410881844068893 -0.00021693256329268135 -0.00019547139976443698 0.01935211700030507 -9.8238058800595446e-05 -0.00019057903351053177 -0.00019860289800005621 0.019547383647264674 0.018601340785895756 0.015058496976505025 -0.00014272445619548002 0.018562431501673766 0.019510102613709703 -8.9432620418719892e-05 0.018877876011344299 -0.00018869350302816703 0.01847486022683912
leaf_count=5379 922 248 2713 276 977 65 1258 52 5488 598 50 417 2301 153 840 182 506 78 373 223 192 68 108 184 197 260 51 50 136 51 8596 103 878 168 657
internal_value=0 45.3857 30.2666 19.6015 27.4262 30.4908 10.3906 9.08414 5.92113 34.8524 13.4648 39.2166 16.8349 21.437 34.3197 13.1532 32.0143 14.0882 38.2157 2.11069 4.7543 34.2175 43.1321 46.4625 38.9962 48.2788 30.9591 2.72725 48.3959 32.6896 52.6918 52.9056 49.9645 39.1024 39.5557
internal_count=34798 22850 13903 11948 5593 4616 1323 6355 6106 3293 972 2321 7326 4975 1331 3644 688 918 6577 5762 2956 344 1723 1306 249 413 274 2351 1122 243 8947 8699 986 6204 6036
shrinkage=0.000368031


Tree=10
num_leaves=36
num_cat=0
split_feature=56 56 195 388 143 353 117 130 389 173 181 161 399 263 77 327 170 208 300 336 208 134 85 107 142 164 295 92 398 7 390 62 63 77 327
split_gain=115611 109052 34893.2 17636.1 13628.7 10768.7 10146.7 9520.39 8937.98 8173.46 8095.47 8856.8 8708.26 8035.03 7618.08 7218.56 7157.6 6543.59 6137.5 6047.16 5534.75 5521.65 5338.31 5271.08 5054.47 5015.63 4959.23 4617.77 4548.75 4483.38 4139.07 7200.48 4926.18 3922.33 7562.73
threshold=1.5000000000000002 1.0000000180025095e-35 1.5000000000000002 0.29295353982342714 1.0000000180025095e-35 2.5000000000000004 2.5000000000000004 4.5000000000000009 -0.41832844956107856 1.5000000000000002 3.5000000000000004 2.5000000000000004 0.0030811569046651226 2.5000000000000004 1.1499023437500002 5.3515625000000009 2.5000000000000004 3.5000000000000004 1.5000000000000002 1.5000000000000002 1.5000000000000002 2.5000000000000004 3.5000000000000004 2.5000000000000004 2.5000000000000004 609.50000000000011 1.5000000000000002 11.500000000000002 -0.033793580983287476 60.500000000000007 0.30933078952466581 1.5000000000000002 6.5000000000000009 1.3500976562500002 7.8515625000000009
decision_type=2 2 2 2 2 2 2 2 2 2 2 2 2 2 2 10 2 2 2 2 2 2 2 2 2 8 2 8 2 8 2 2 2 2 10
left_child=1 2 15 5 6 7 -5 9 -9 18 11 16 20 -11 -8 -1 -4 21 -2 -14 26 28 -15 -16 27 -25 -13 -24 -18 -12 32 33 -3 34 -32
right_child=3 30 10 4 -6 -7 14 8 -10 13 29 12 19 22 23 -17 17 -19 -20 -21 -22 -23 24 25 -26 -27 -28 -29 -30 -31 31 -33 -34 -35 -36
leaf_value=0.014186842706978692 0.014398306425079076 0.01939002715842077 -0.00029066636135942467 -0.00033181829209374166 -0.00036373625846879728 -0.0003328548272482424 -0.00028066934394854152 0.017594026042940455 -0.00034224135130348849 0.0040034553827401195 -0.00035557121511578017 0.017993775342971995 -0.00024514573003187815 -0.00021101546953206405 -0.00020132165252058476 -0.00027408336528391634 -0.0001619047972629621 -0.00025994086527974218 -0.00032698251808777013 0.017321052814551978 -0.00035726016878517212 -0.00021578820788914474 0.017475592543833258 0.019374471581995768 -0.00019153160832186412 -0.00015683644374759749 -0.00024049344227111515 -0.00016548826097608868 0.017829429414727309 0.014866523860002668 0.016219294078163481 0.0049798460816602103 -0.00013537602169729464 0.020026223071197301 -0.00027089646441521214
leaf_count=6204 148 7436 450 951 4446 977 406 65 1258 598 2301 55 277 205 196 373 152 319 824 179 2527 220 1182 208 182 148 268 154 528 50 399 390 111 312 299
internal_value=0 44.6421 29.9336 19.4612 9.05348 27.1534 23.3058 30.1553 10.3516 34.4144 16.732 21.2714 12.4231 38.6616 33.9173 37.6856 31.8737 36.8633 13.401 34.4076 4.91079 41.425 42.4621 41.8848 44.2481 47.3978 28.1079 45.9391 45.2743 2.72421 51.6925 43.2086 52.5439 46.9561 36.1613
internal_count=34798 22850 13903 11948 6355 5593 1909 4616 1323 3293 7326 4975 3306 2321 958 6577 1669 1219 972 456 2850 900 1723 552 1518 356 323 1336 680 2351 8947 1400 7547 1010 698
shrinkage=0.000368031


Tree=11
num_leaves=36
num_cat=0
split_feature=56 56 195 108 143 254 353 77 323 102 181 171 222 273 148 264 164 158 397 32 230 177 232 194 233 84 397 289 275 7 17 164 318 383 395
split_gain=111278 104139 33815.5 13535.8 13507.6 12206.2 10014 9659.09 8330.52 8097.64 7973.42 9549.59 9572.46 8958.44 10358.8 7455.28 7098.51 6626.24 6511.08 6103.98 5865.93 4898.28 4814.66 10045.7 5447.09 4976.67 4647.11 4625.62 4468.56 4423.06 4350.97 4034.87 3956.73 3943.28 3847.31
threshold=1.5000000000000002 1.0000000180025095e-35 1.5000000000000002 1.0000000180025095e-35 1.0000000180025095e-35 3.5000000000000004 2.5000000000000004 1.1499023437500002 2.5000000000000004 2.5000000000000004 3.5000000000000004 3.5000000000000004 2.5000000000000004 4.5000000000000009 1.0000000180025095e-35 4.5000000000000009 609.50000000000011 1.5000000000000002 0.19766944024571534 2.5000000000000004 1.5000000000000002 1.5000000000000002 2.5000000000000004 2.5000000000000004 3.5000000000000004 1.5000000000000002 -0.072026770374072083 4.5000000000000009 0.65014648437500011 60.500000000000007 2.5000000000000004 852.50000000000011 9.5000000000000018 -1.8191829844749785 -0.11608891968994568
decision_type=2 2 2 2 2 2 2 2 2 2 2 2 2 2 2 2 8 2 2 2 2 2 2 2 2 2 2 2 2 8 2 10 8 2 2
left_child=1 2 17 5 7 6 8 -5 -2 19 11 13 21 18 -15 -14 20 27 -4 22 -9 -13 24 25 34 -24 -22 32 -6 -12 -29 -20 -1 -3 -10
right_child=3 33 10 4 28 -7 -8 16 9 -11 29 12 15 14 -16 -17 -18 -19 31 -21 26 -23 23 -25 -26 -27 -28 30 -30 -31 -32 -33 -34 -35 -36
leaf_value=-0.0002174656767864663 0.0030684856865174476 0.0075383398566089485 -0.0003582528891742049 -0.00032876561036838974 0.01417679328365966 -0.00033854947705937529 -0.0003214349600162065 -0.00022831780373817884 -0.00010409273118333274 -0.0002854248670214523 -0.00035556366399156755 -0.00015921423436633821 -0.00032780090987224227 0.017911719341199388 -0.00029904308132660471 0.016621716843590494 -0.00028014969853267896 0.0039871653025592181 -0.00019573930823719356 -0.00024763966362155226 -0.00016082215230121938 0.018892777562400678 -0.00015352040287455016 0.0029949894539286308 -0.00018286911572557325 0.019807572819445403 0.018292321478277113 0.019073654892996676 -0.00036393760292982021 0.014679035718862976 -0.00012581711067979141 0.018006386128382137 0.013476748750957952 0.018745015173492426 0.018751791496004845
leaf_count=211 824 248 2713 883 61 1099 753 237 108 416 2301 153 840 182 506 78 396 578 192 276 152 260 144 805 168 128 308 465 4538 50 113 51 5210 8699 652
internal_value=0 43.9225 29.6065 19.321 10.7164 26.438 30.0836 24.3524 33.0746 36.5718 16.629 21.1062 33.5212 13.017 31.3302 13.9213 33.3311 37.1689 4.72782 39.0801 39.9299 46.7812 40.9709 29.3321 47.0646 46.8791 45.3831 38.3541 0.974191 2.72118 49.3999 32.0153 36.0057 50.7317 49.3427
internal_count=34798 22850 13903 11948 6575 5373 4274 1976 3521 2697 7326 4975 1331 3644 688 918 1093 6577 2956 2281 697 413 2005 1077 928 272 460 5999 4599 2351 578 243 5421 8947 760
shrinkage=0.000368031


Tree=12
num_leaves=36
num_cat=0
split_feature=56 56 195 388 143 323 117 353 102 181 171 222 273 148 264 77 130 90 327 383 85 120 177 196 7 389 314 164 164 383 250 90 49 289 399
split_gain=107166 99497.3 32781.6 16946.6 13309.1 10830 9776.21 9589.17 8073.98 7855.53 9317.67 9245.74 8799.77 10073.5 7309.26 7235.8 7188.37 8015.42 6862.62 6319.25 5241.45 5136.99 4732.18 4594.83 4364.14 4294.95 4171.76 4134.85 3941.22 3756.13 3735.58 3674.68 3561.56 4112.36 3519.67
threshold=1.5000000000000002 1.0000000180025095e-35 1.5000000000000002 0.29295353982342714 1.0000000180025095e-35 2.5000000000000004 2.5000000000000004 2.5000000000000004 2.5000000000000004 3.5000000000000004 3.5000000000000004 2.5000000000000004 4.5000000000000009 1.0000000180025095e-35 4.5000000000000009 1.1499023437500002 4.5000000000000009 6.0500000000000007 5.3515625000000009 -1.892473707813034 3.5000000000000004 2.5000000000000004 1.5000000000000002 4.5000000000000009 60.500000000000007 0.89292419475824036 24.500000000000004 806.50000000000011 609.50000000000011 -1.8191829844749785 4.5000000000000009 8.3500000000000032 5.5000000000000009 4.5000000000000009 0.033232367072424773
decision_type=2 2 2 2 2 2 2 2 2 2 2 2 2 2 2 2 2 2 10 2 2 2 2 2 8 2 10 10 8 2 2 2 2 2 2
left_child=1 2 18 5 6 26 -5 8 16 10 12 22 19 -14 -13 -8 20 -18 32 27 -7 -17 -12 25 -11 30 -2 -4 -23 -3 -22 -31 33 34 -1
right_child=3 29 9 4 -6 7 15 -9 -10 24 11 14 13 -15 -16 21 17 -19 -20 -21 23 28 -24 -25 -26 -27 -28 -29 -30 31 -32 -33 -34 -35 -36
leaf_value=-0.00020448607750912228 -0.00034417488967643164 0.0074848251836267315 -0.00020423698676513477 -0.00033191695199726105 -0.00036372915538310848 -0.0002284965088342754 -0.00028061605514756547 -0.00031829223736884666 -0.00029898716230953096 -0.00035555611049478626 -0.00015918620695320565 -0.00032778549859848876 0.017607494155074076 -0.00029902151282069006 0.016371354832514277 -0.00020563203886178082 -0.00032590685552449407 0.017769928935018477 -0.0002743947207234428 -0.00035820667967468228 0.016526168082996187 0.018472499683303917 0.018550096803742797 -0.00020033374282659109 0.014495886480106102 -0.0001799382465030668 0.014701686549950814 0.017861599351774136 -0.00012559046928114906 0.018437417942030035 -0.00014609245803399662 -9.5102820182205408e-05 -0.00019176558527954769 0.017599782603346409 0.013309061523617901
leaf_count=179 1358 248 204 951 4446 232 406 707 498 2301 153 840 182 506 78 206 799 51 373 2702 1413 222 260 188 50 165 50 50 124 8596 132 103 168 657 5200
internal_value=0 43.2262 29.288 19.1829 8.98715 26.6265 22.9055 30.499 33.2644 16.5284 20.9455 33.1216 12.9546 30.981 13.8526 33.1297 35.5928 14.6946 36.6678 4.71891 39.3694 40.6975 46.0044 40.9931 2.71814 42.4165 4.89361 31.2029 46.0705 49.8055 43.7471 49.9996 37.4877 37.9132 35.6177
internal_count=34798 22850 13903 11948 6355 5593 1909 4185 3478 7326 4975 1331 3644 688 918 958 2980 850 6577 2956 2130 552 413 1898 2351 1710 1408 254 346 8947 1545 8699 6204 6036 5379
shrinkage=0.000368031


Tree=13
num_leaves=36
num_cat=0
split_feature=56 56 195 388 143 323 353 77 227 327 238 96 171 128 304 131 107 254 327 130 164 196 140 269 24 314 229 304 150 230 390 62 63 159 77
split_gain=103264 95134.2 31788.8 16608.2 13155.5 10581.9 9372.01 8122 7340.2 9568.14 7323.38 10088.5 9729.72 8325.41 9059.12 7760.3 6985.73 6807.44 6682.17 6641.66 6267.77 5530.56 5102.02 4925.77 4824.94 4113.36 4028.48 4028.19 3899.92 3887.76 3768.1 6681.31 4578.28 3740.01 3603.75
threshold=1.5000000000000002 1.0000000180025095e-35 1.5000000000000002 0.29295353982342714 1.0000000180025095e-35 2.5000000000000004 2.5000000000000004 1.1499023437500002 2.5000000000000004 5.3515625000000009 3.5000000000000004 1.5000000000000002 3.5000000000000004 2.5000000000000004 4.5000000000000009 1.5000000000000002 2.5000000000000004 1.0000000180025095e-35 5.3515625000000009 3.5000000000000004 609.50000000000011 3.5000000000000004 3.5000000000000004 2.5000000000000004 1.0000000180025095e-35 24.500000000000004 4.5000000000000009 2.5000000000000004 2.5000000000000004 1.5000000000000002 0.30933078952466581 1.5000000000000002 6.5000000000000009 1.5000000000000002 1.3500976562500002
decision_type=2 2 2 2 2 2 2 2 2 10 2 2 2 2 2 2 2 2 10 2 8 2 2 2 2 10 2 2 2 2 2 2 2 2 2
left_child=1 2 18 5 7 25 8 -5 26 17 11 22 28 14 -13 21 -9 -10 -1 24 29 -16 -4 -14 27 -2 -7 -11 -12 -18 32 34 -3 -25 -32
right_child=3 30 10 4 -6 6 -8 16 9 19 12 13 23 -15 15 -17 20 -19 -20 -21 -22 -23 -24 33 -26 -27 -28 -29 -30 -31 31 -33 -34 -35 -36
leaf_value=0.013608991653755804 -0.00034416388532064647 0.018340319397430804 -0.00020119174836157644 -0.00032690166759207336 -0.00036372427773768615 0.016275275547396717 -0.00031827464542693223 -0.00028705873919315859 0.013822655717947748 -0.00013785912415966613 -0.00032987381386528024 -0.00033664255240692896 -0.0001959156408355696 -0.00036222428803140875 0.018566037847467649 -0.00028557130888342224 -0.00013127881035955883 -0.00034490814905054198 -0.00027436929540697308 -0.00026440985720695517 -0.00024148313612270549 -0.00019632517445621232 0.018212636228126296 -0.00011227996166812327 -0.00019610328134558806 0.014518012430625079 -0.00016813591359826738 0.01796352775066164 0.014760404277957023 0.018083655538611791 0.012673463308507984 0.0047823381461035361 -0.00014237968714937471 0.018556032510887097 0.018941790151548309
leaf_count=6204 1358 7436 199 849 4446 879 707 427 148 129 890 1063 185 3727 159 424 126 1327 373 321 269 195 113 116 183 50 155 336 50 238 698 390 111 205 312
internal_value=0 42.5518 28.976 19.0464 8.95541 26.3677 30.1601 22.7133 32.8629 24.7042 16.4291 11.6717 28.5288 7.66233 19.2744 31.9093 31.208 9.02968 36.1795 35.8463 38.5143 42.7329 38.8079 41.3558 41.4028 4.88479 42.2403 45.4396 7.33661 45.0698 48.9128 41.0298 49.7017 46.5079 44.5279
internal_count=34798 22850 13903 11948 6355 5593 4185 1909 3478 2444 7326 5880 1446 5568 1841 778 1060 1475 6577 969 633 354 312 506 648 1408 1034 465 940 364 8947 1400 7547 321 1010
shrinkage=0.000368031


Tree=14
num_leaves=36
num_cat=0
split_feature=46 46 96 90 92 123 213 248 55 267 296 388 177 383 301 195 92 121 283 65 55 51 44 334 117 334 49 212 78 85 230 289 177 165 258
split_gain=59878.4 26707.8 26194.1 9636.27 9314.87 9175.19 12331.4 8337.09 8208.12 8132.41 7965.55 7727.16 7724.57 7166.47 6837.68 6355 5880.77 5625.36 5559.9 5544.23 5330.71 5106.2 4974 4818.3 4471.64 5891.68 5079.26 8030.56 4531.96 4461.3 4443.05 4632.42 5496.1 4579.88 4282.35
threshold=2.5000000000000004 1.5000000000000002 2.5000000000000004 2.1500000000000008 3.5000000000000004 2.5000000000000004 1.5000000000000002 3.5000000000000004 5.5000000000000009 1.5000000000000002 1.5000000000000002 -0.65255991156248283 1.0000000180025095e-35 -1.8951872356096797 1.5000000000000002 4.5000000000000009 2.5000000000000004 1.5000000000000002 1.5000000000000002 1.0000000180025095e-35 1.5000000000000002 5.5000000000000009 5.5000000000000009 3.5000000000000004 1.5000000000000002 2.5000000000000004 6.5000000000000009 1.5000000000000002 1.5000000000000002 3.5000000000000004 4.5000000000000009 4.5000000000000009 2.5000000000000004 3.5000000000000004 3.5000000000000004
decision_type=2 2 2 2 8 2 2 2 2 2 2 2 2 2 2 2 10 2 2 2 2 2 2 2 2 2 2 2 2 2 2 2 2 2 2
left_child=1 4 7 9 -1 12 8 21 -7 17 -11 -8 -6 -3 -5 16 -16 -4 -18 -15 -14 30 -21 29 -20 26 28 -28 -26 -24 31 32 -2 -33 -10
right_child=2 13 3 14 5 6 11 -9 34 10 -12 -13 20 19 15 -17 18 -19 24 22 -22 -23 23 -25 25 -27 27 -29 -30 -31 -32 33 -34 -35 -36
leaf_value=0.0024149189507552916 0.012998786163322959 0.0050701002630173563 0.018809777266896643 0.0021025113575951081 -0.00025655584853756758 -0.00027433130841640494 0.016881490480949574 -0.00029648111418669983 0.017374661291324825 0.013691477493032633 -0.00036135522775130799 0.0012155786959201964 -0.00019485644611148199 0.0179462281795594 -0.00029617342129989053 -0.00030903374484418325 -0.00028383259613654646 -0.00022304459788380156 0.0040283088567769874 0.016360435600789033 0.017242014411620585 -0.00024870933666501391 -0.00022800708020116931 -0.00025105105763031531 -0.00020589494396691538 -0.0002694183503335785 -0.00031919081784575923 0.0154998884238277 0.015224682350961959 0.014051560190067884 -0.00022909142315608892 0.017271430683482612 -0.00026456883764576982 -0.00016855414222543904 -0.00016106772050558213
leaf_count=988 5753 435 55 1178 290 355 56 467 401 147 3309 1873 185 3862 470 580 396 225 577 5521 867 276 211 258 198 339 685 154 1642 1285 232 905 321 157 145
internal_value=0 42.9179 28.8861 20.0532 30.1408 32.9598 24.4218 35.2505 37.7106 9.14825 3.82074 10.0917 41.8861 45.3436 24.5577 27.1797 29.0126 35.4047 30.7087 45.6636 44.8227 36.0905 42.8066 33.8679 32.3123 34.4123 36.1723 19.6975 39.8517 36.1071 36.605 37.0528 34.5537 45.2637 43.9528
internal_count=34798 16732 18066 9955 5160 4172 2830 8111 901 3736 3456 1929 1342 11572 6219 5041 4461 280 3991 11137 1052 7644 7275 1754 3595 3018 2679 839 1840 1496 7368 7136 6074 1062 546
shrinkage=0.000368031


Tree=15
num_leaves=36
num_cat=0
split_feature=56 56 195 388 143 353 117 173 181 130 389 263 77 398 96 318 209 144 327 342 124 102 183 107 92 164 7 85 196 311 287 164 390 77 327
split_gain=96917 88077.9 30088.5 16034.2 12872.2 9806.43 9301.37 8522.3 7542.05 7250.8 8042.12 7131.37 6777.52 6589.39 6813.17 7548.71 7361.12 8529.64 6381.07 6294.38 5711.63 5200.09 4922.76 4659.78 4446.98 4340.95 4203.77 3969.74 3630.82 3480.4 3454.7 3432.01 3399.81 6249.85 9064
threshold=1.5000000000000002 1.0000000180025095e-35 1.5000000000000002 0.29295353982342714 1.0000000180025095e-35 2.5000000000000004 2.5000000000000004 1.5000000000000002 3.5000000000000004 4.5000000000000009 -0.33150021173059502 2.5000000000000004 1.1499023437500002 -0.033793580983287476 4.5000000000000009 9.5000000000000018 3.5000000000000004 1.5000000000000002 5.3515625000000009 4.5000000000000009 1.5000000000000002 2.5000000000000004 3.5000000000000004 2.5000000000000004 11.500000000000002 609.50000000000011 60.500000000000007 3.5000000000000004 4.5000000000000009 3.5000000000000004 1.5000000000000002 209.50000000000003 0.30933078952466581 1.3500976562500002 7.8515625000000009
decision_type=2 2 2 2 2 2 2 2 2 2 2 2 2 2 2 8 2 2 10 2 2 2 2 2 8 8 8 2 2 2 2 8 2 2 10
left_child=1 2 18 5 6 7 -5 19 13 11 -11 31 -8 -4 16 30 17 -15 -1 -2 -17 24 29 -14 27 -25 -10 -13 -29 -18 -16 -9 -3 34 -34
right_child=3 32 8 4 -6 -7 12 9 26 10 -12 21 23 14 15 20 22 -19 -20 -21 -22 -23 -24 25 -26 -27 -28 28 -30 -31 -32 -33 33 -35 -36
leaf_value=0.013247287550548126 -0.00034065722101271135 0.017673952651321712 -0.00033381278781078152 -0.00033227511759054471 -0.00036381435111570401 -0.00033315726379605921 -0.00028111821994595421 0.014472871855558476 -0.00035567273799704663 0.01715955266342226 -0.00033253502273646659 -0.0001629569640132481 -0.00020376066001289602 0.013461050247394125 0.011959803142645435 0.016193973361915002 0.019170182612409443 -0.00033044229640935303 -0.00027492960416555627 0.013402507970269354 -0.00025378369871544601 -0.00022508838970585225 -0.00017763952883086817 0.017863785219756532 -0.00019213333261883383 -0.00015828744694992223 0.013989363376412826 0.016729454455434608 -0.00013642736483493074 -7.9600960751263888e-05 -0.00035131771050829811 -0.00030835740467444856 0.014021218098739175 0.017755183680852209 -0.00031255515869105439
leaf_count=6204 1152 7547 967 951 4446 977 406 50 2301 50 933 147 196 340 88 174 165 886 373 160 299 229 166 208 177 148 50 1045 125 101 1789 548 494 415 491
internal_value=0 41.2884 28.3399 18.7246 8.84582 25.8294 22.3076 28.5632 16.1898 32.4329 12.9236 36.2677 32.0355 20.4442 23.5064 13.6906 31.67 18.7241 35.2327 10.0374 32.0468 39.6859 44.2763 39.1243 41.4257 43.9983 2.68804 42.9136 44.2418 48.8528 3.4644 10.4858 47.285 39.8676 28.6189
internal_count=34798 22850 13903 11948 6355 5593 1909 4616 7326 3304 983 2321 958 4975 4008 2350 1658 1226 6577 1312 473 1723 432 552 1494 356 2351 1317 1170 266 1877 598 8947 1400 985
shrinkage=0.000368031


Tree=16
num_leaves=36
num_cat=0
split_feature=56 56 195 388 143 353 117 173 396 130 389 238 96 171 128 304 131 263 77 158 171 120 102 269 230 289 17 92 382 14 20 164 159 164 296
split_gain=93521.8 84400.5 29206.4 15724 12727.2 9617.84 9122.56 8301.07 8660.13 7031.21 7884.13 6941.17 9581.85 9078.42 8096.62 8660.95 7287.85 6901.2 6608.86 5865.8 5173.29 4649.48 4620.55 4574.91 4571.55 4010.51 3939.51 3754.12 3745.25 3656.38 3529.91 3527.22 3446.63 3378.72 3361.63
threshold=1.5000000000000002 1.0000000180025095e-35 1.5000000000000002 0.29295353982342714 1.0000000180025095e-35 2.5000000000000004 2.5000000000000004 1.5000000000000002 0.092426187471500262 4.5000000000000009 -0.33150021173059502 3.5000000000000004 1.5000000000000002 3.5000000000000004 2.5000000000000004 4.5000000000000009 1.5000000000000002 2.5000000000000004 1.1499023437500002 1.5000000000000002 2.5000000000000004 2.5000000000000004 2.5000000000000004 2.5000000000000004 2.5000000000000004 4.5000000000000009 2.5000000000000004 11.500000000000002 -0.82847438567231124 2.5000000000000004 3.5000000000000004 609.50000000000011 1.5000000000000002 209.50000000000003 6.5000000000000009
decision_type=2 2 2 2 2 2 2 2 2 2 2 2 2 2 2 2 2 2 2 2 2 2 2 2 2 2 2 8 2 2 2 8 2 8 2
left_child=1 2 19 5 6 7 -5 8 -2 17 -11 12 29 28 15 -14 24 33 -8 25 -19 -20 27 -15 -17 30 -27 -22 -13 -4 -1 -23 -25 -9 -21
right_child=3 -3 11 4 -6 -7 18 9 -10 10 -12 13 14 23 -16 16 -18 20 21 34 22 31 -24 32 -26 26 -28 -29 -30 -31 -32 -33 -34 -35 -36
leaf_value=-0.00021995963249573096 -0.00034332208239339231 0.017106467773259297 0.016588755281154079 -0.00033226088206068818 -0.00036380948129755513 -0.0003331432629576004 -0.00028109373717358964 0.014294464436260016 0.017036517914031147 0.016894211421415655 -0.00033252078616079705 0.014245072883585338 -0.00033690795839072892 -0.0001971256375118405 -0.00036231713429834341 -0.00018203392318988869 -0.00028606098360139877 0.0049947521676562334 -0.00020710022806693377 -0.00030866647353478758 0.016526368139919857 0.017345923439313984 -0.00019349807505430119 -0.00011366351184550145 0.017469988694276229 0.017647136621312298 -0.00013619166302353893 -0.00014753938958190509 -0.00033018279879172958 -0.00016851058784533057 0.012610286304568291 -0.00012723024325485518 0.017712426642927017 -0.00030833749376054211 0.014232497213433629
leaf_count=191 1259 8947 154 951 4446 977 406 50 53 50 933 52 1063 185 3727 171 424 417 206 524 986 222 184 116 183 465 113 136 888 158 5230 124 205 548 54
internal_value=0 40.6732 28.047 18.595 8.81505 25.587 22.1253 28.2683 10.0002 32.0536 12.8643 16.094 11.4757 27.6838 7.55387 18.8471 30.927 35.7931 31.6663 34.7809 39.1168 38.5788 41.986 39.737 41.092 35.8453 45.7532 43.5964 7.23495 37.4205 33.7175 43.4422 44.5223 10.4484 10.4242
internal_count=34798 22850 13903 11948 6355 5593 1909 4616 1312 3304 983 7326 5880 1446 5568 1841 778 2321 958 6577 1723 552 1306 506 354 5999 578 1122 940 312 5421 346 321 598 578
shrinkage=0.000368031


Tree=17
num_leaves=36
num_cat=0
split_feature=56 56 195 388 143 323 353 77 181 171 148 167 102 153 120 177 130 389 327 164 92 85 391 7 7 389 314 80 230 197 383 49 364 292 92
split_gain=90281.9 80916.1 28366.1 15423.6 12584.8 9863.79 8664.48 7573.36 7339.77 8379.91 8182.5 8171.49 7291.98 7050.64 6601.86 6276.29 6248.1 7331.43 6093.79 4958.91 4940.75 4697.93 4203.69 4109.5 4101.72 4058.15 3911.2 3858.6 3631.74 3621.27 3251.19 3246.89 3493.91 3682.13 3629.47
threshold=1.5000000000000002 1.0000000180025095e-35 1.5000000000000002 0.29295353982342714 1.0000000180025095e-35 2.5000000000000004 2.5000000000000004 1.1499023437500002 3.5000000000000004 3.5000000000000004 1.0000000180025095e-35 1.5000000000000002 2.5000000000000004 2.5000000000000004 2.5000000000000004 1.5000000000000002 4.5000000000000009 -0.31720569172705387 5.3515625000000009 609.50000000000011 6.5000000000000009 3.5000000000000004 0.42899579280727224 1.0000000180025095e-35 60.500000000000007 0.89292419475824036 24.500000000000004 1.5000000000000002 1.5000000000000002 4.5000000000000009 -1.8191829844749785 5.5000000000000009 4.5000000000000009 -1.0000000180025095e-35 2.5000000000000004
decision_type=2 2 2 2 2 2 2 2 2 2 2 2 2 2 2 2 2 2 10 8 10 2 2 10 8 2 10 2 2 2 2 2 2 2 10
left_child=1 2 18 5 7 26 12 -5 9 10 11 20 16 -11 -9 -15 21 -18 31 28 -4 -7 25 -12 -10 29 -2 -17 -16 -23 -3 32 34 -34 -1
right_child=3 30 8 4 -6 6 -8 14 24 13 23 -13 -14 15 19 27 17 -19 -20 -21 -22 22 -24 -25 -26 -27 -28 -29 -30 -31 -32 -33 33 -35 -36
leaf_value=-0.000153492730038846 -0.00034463621138943026 0.0070409863373990349 -0.00021922156658049784 -0.00032716768981858529 -0.00036380459926388587 -0.00023112835644758213 -0.00031865346451391926 -0.00028947490172621162 -0.00035568459641488551 -0.00029127607795074035 0.013586470750542336 -0.00031283237506399823 -0.00029992475161040919 -0.00025605882081382433 -0.00014502717540738625 0.017344456118564663 0.016548186221380778 -0.00032641037589664152 -0.00027531894854956955 -0.00022687087386843847 0.016195040679041171 0.015460076134854419 -0.00020677523807465192 -0.00035720082482711086 0.013670509171885321 -0.0001920872298411357 0.013852484133303221 0.0063309469818702358 0.016840449020947366 -0.0001640417195246757 0.016883438175449298 -0.000197677900968199 0.012307410764000423 -0.00023229400516105463 0.016015619670844135
leaf_count=120 1358 248 216 849 4446 232 707 443 2301 440 55 627 498 301 131 288 52 798 373 236 252 1388 190 2494 50 173 50 302 250 147 8699 168 4649 199 1068
internal_value=0 40.076 27.7607 18.4676 8.7845 25.3501 28.9042 21.9459 15.9987 20.149 12.6011 25.7154 31.4031 31.3302 29.8672 36.6925 33.5062 14.2396 34.3424 36.7723 37.1128 36.8706 38.3261 2.38484 2.67829 39.6284 4.77358 41.466 41.9594 40.8856 45.7036 35.0705 35.4585 32.786 42.1971
internal_count=34798 22850 13903 11948 6355 5593 4185 1909 7326 4975 3644 1095 3478 1331 1060 891 2980 850 6577 617 468 2130 1898 2549 2351 1708 1408 590 381 1535 8947 6204 6036 4848 1188
shrinkage=0.000368031


Tree=18
num_leaves=36
num_cat=0
split_feature=56 56 8 388 238 323 159 353 301 102 196 235 235 344 168 130 90 112 32 301 172 382 192 85 181 123 11 314 196 167 384 389 393 90 381
split_gain=87204.4 77629.9 27570.6 15127.9 10705.8 9648.7 8630.51 8478.96 7666.57 7124.5 6949.6 7277.7 6542.95 6526.06 6451.43 6049.68 7222.42 5862.29 5184.96 4638.85 4415.95 4388.84 5560.96 4387.99 4325.98 4213.89 4051.1 3858.97 3670.89 3615 3574.1 3362.3 3305.04 3196.11 3186.12
threshold=1.5000000000000002 1.0000000180025095e-35 1.0000000180025095e-35 0.29295353982342714 3.5000000000000004 2.5000000000000004 1.5000000000000002 2.5000000000000004 6.5000000000000009 2.5000000000000004 2.5000000000000004 2.5000000000000004 4.5000000000000009 4.5000000000000009 1.5000000000000002 4.5000000000000009 6.0500000000000007 1.5000000000000002 2.5000000000000004 2.5000000000000004 3.5000000000000004 -0.35564104512234479 3.5000000000000004 3.5000000000000004 3.5000000000000004 2.5000000000000004 3.5000000000000004 24.500000000000004 4.5000000000000009 2.5000000000000004 0.070558251965199367 0.89292419475824036 -0.026196781299007706 8.3500000000000032 2.0826792939205956
decision_type=2 2 8 2 2 2 2 2 2 2 2 2 2 2 2 2 2 2 2 2 2 2 2 2 2 2 2 10 2 2 2 2 2 2 2
left_child=1 2 4 5 10 27 -6 9 12 15 11 19 13 -5 -14 18 -17 24 23 -1 -10 -12 -23 -7 32 34 -24 -2 31 -15 -21 -25 -8 -3 -4
right_child=3 33 25 8 6 7 17 -9 20 -11 21 -13 14 29 -16 16 -18 -19 -20 30 -22 22 26 28 -26 -27 -28 -29 -30 -31 -32 -33 -34 -35 -36
leaf_value=-0.00022890471323645811 -0.00034462529890272255 0.016575029103274897 0.01294531503491852 -0.00036542527777632788 -0.00030890565412705357 -0.00021496015909384537 -0.00011316726122114299 -0.00031863593225758661 -0.00019989203879322202 -0.00029990328571802874 -0.0003616816494619704 0.0022145060942215236 0.016350045972213931 -0.00020461458453231062 -0.00028231467155653644 -0.00032646834372990479 0.0163538249762205 -0.00025139037923448625 -0.00024570349200337917 -0.00014486377902702882 0.017485528546294218 -0.0003212865699474678 -0.00021171354238987462 0.015281739850800969 -0.00018559828489933544 -0.00023804374532118735 0.016044720670157071 0.013687977474355236 -0.00017877114167082859 0.0164292629333113 0.016947478146870316 -0.00015468843629106802 0.017164466982227431 -0.00010992739586953422 -0.00019713797429099934
leaf_count=227 1358 8843 5801 5357 574 205 116 707 196 498 3495 1092 92 202 404 799 51 279 255 130 53 734 209 1372 176 251 114 50 160 51 203 138 330 104 172
internal_value=0 39.4962 27.4798 18.3411 16.4918 25.1155 29.812 28.5999 8.75414 31.0452 10.7999 21.8076 5.74416 2.13686 26.4144 33.1 14.168 36.3757 36.3783 34.5925 35.1815 4.50308 16.7586 37.9845 40.8343 34.2643 32.2849 4.76508 39.344 29.4884 41.0634 40.4813 44.1247 44.9522 34.7826
internal_count=34798 22850 13903 11948 7679 5593 1475 4185 6355 3478 6204 1652 6106 5610 496 2980 850 901 2130 560 249 4552 1057 1875 622 6224 323 1408 1670 253 333 1510 446 8947 5973
shrinkage=0.000368031


Tree=19
num_leaves=36
num_cat=0
split_feature=56 56 8 388 143 353 117 181 121 173 396 398 130 90 263 390 77 168 171 369 120 102 123 320 92 35 296 79 164 164 391 381 290 279 253
split_gain=84251 74531 26783 14836 12328.3 9084.8 8665.72 7921.27 9358.83 7797.25 8258.8 7762.85 6453.63 7060.8 6440.86 6311.78 6173.31 5621.1 4794.72 4756.31 4298.63 4257.33 4110.71 3672.7 3513.26 3396.04 3350.94 3266.27 3246.93 3234.01 3108.19 3107.24 3586.65 3921.62 3101.29
threshold=1.5000000000000002 1.0000000180025095e-35 1.0000000180025095e-35 0.29295353982342714 1.0000000180025095e-35 2.5000000000000004 2.5000000000000004 3.5000000000000004 3.5000000000000004 1.5000000000000002 0.092426187471500262 -0.033793580983287476 4.5000000000000009 6.1500000000000012 2.5000000000000004 0.22931855118716996 1.1499023437500002 3.5000000000000004 2.5000000000000004 12.500000000000002 2.5000000000000004 2.5000000000000004 2.5000000000000004 9.5000000000000018 11.500000000000002 1.0000000180025095e-35 1.5000000000000002 30.500000000000004 209.50000000000003 609.50000000000011 0.40245606119647709 2.0826792939205956 2.5000000000000004 2.5000000000000004 4.5000000000000009
decision_type=2 2 8 2 2 2 2 2 2 2 2 2 2 2 2 2 2 2 2 10 2 2 2 10 8 2 2 8 8 8 2 2 2 2 2
left_child=1 2 7 5 6 9 -5 8 11 10 -2 -1 14 -14 28 17 -8 19 -16 23 -18 24 31 27 30 -19 -9 -13 -11 -22 -20 32 -4 -34 -29
right_child=3 -3 22 4 -6 -7 16 26 -10 12 -12 15 13 -15 18 -17 20 25 21 -21 29 -23 -24 -25 -26 -27 -28 34 -30 -31 -32 -33 33 -35 -36
leaf_value=-0.0003276186980253676 -0.00034361255539176256 0.016276219068402199 0.015750202081566307 -0.0003323204017088045 -0.00036380211317439616 -0.00033310907966760742 -0.00028104393477363981 0.011320293165988812 -0.00034440048796006496 0.013804881888372313 0.016354158382155589 -0.00017341997992025772 -0.0003318459165224945 0.01556044808014889 0.0048814161894013804 -0.00030540462393010258 -0.00020711074977164152 -0.00031720004804405854 0.016229092424686141 -0.00025018843854237606 0.01656849795387139 -0.00019340158506199917 -0.00023801482499466277 -0.00020413088110252421 -0.00015075808853654352 0.013860953363272178 -0.00035579044077729632 0.014829161350973027 -0.00030926167566426875 -0.00012714736855424258 -0.0001172008832231394 -0.00019710812532830382 0.012173963153632814 -0.00024259169671267064 -0.00015209449150000904
leaf_count=814 1259 8947 797 951 4446 977 406 102 1311 50 53 160 917 66 417 544 206 666 876 277 222 184 251 198 136 51 2287 1126 548 124 110 172 4789 215 143
internal_value=0 38.9326 27.2036 18.2175 8.72543 24.8852 21.6189 16.391 20.3929 27.418 9.82692 24.3068 31.0045 12.689 34.491 27.5534 30.6824 30.1933 37.6177 33.7781 37.1396 40.3053 33.8371 35.8723 41.7892 9.12397 2.5978 37.4895 10.2245 41.6363 43.0137 34.3427 34.725 32.4226 38.9277
internal_count=34798 22850 13903 11948 6355 5593 1909 7679 5290 4616 1312 3979 3304 983 2321 3165 958 2621 1723 1904 552 1306 6224 1627 1122 717 2389 1429 598 346 986 5973 5801 5004 1269
shrinkage=0.000368031


Tree=20
num_leaves=36
num_cat=0
split_feature=56 56 195 108 143 254 341 77 130 24 181 171 91 92 153 177 327 391 319 102 242 123 22 90 7 258 173 342 295 303 246 206 295 90 49
split_gain=81437.3 71597.9 26051.4 11323 12078.2 10607.3 9512.87 8197.98 8159.92 7478.44 7036.84 7899.47 6694.03 6871.42 6647.62 5875.96 5693.89 5604.68 5393.97 5121.28 4573.04 4380.02 4131.84 3981.73 3971.46 3931.6 3572.58 5104.14 3563.97 3573.35 3448.12 3232.41 3191.51 3047.55 3030.64
threshold=1.5000000000000002 1.0000000180025095e-35 1.5000000000000002 1.0000000180025095e-35 1.0000000180025095e-35 3.5000000000000004 2.5000000000000004 1.1499023437500002 4.5000000000000009 1.0000000180025095e-35 3.5000000000000004 3.5000000000000004 21.500000000000004 6.5000000000000009 2.5000000000000004 1.5000000000000002 5.3515625000000009 0.40245606119647709 5.5000000000000009 2.5000000000000004 2.5000000000000004 3.5000000000000004 2.5000000000000004 2.5500000000000003 60.500000000000007 3.5000000000000004 1.5000000000000002 3.5000000000000004 4.5000000000000009 1.5000000000000002 4.5000000000000009 1.5000000000000002 4.5000000000000009 8.3500000000000032 5.5000000000000009
decision_type=2 2 2 2 2 2 2 2 2 2 2 2 10 10 2 2 10 2 8 2 2 2 2 2 8 2 2 2 2 2 2 2 2 2 2
left_child=1 2 16 5 7 6 8 -5 9 17 11 12 -4 -14 -13 -16 34 19 21 26 -15 28 -6 -22 -12 32 27 -2 29 -9 -10 -28 -17 -3 -1
right_child=3 33 10 4 22 -7 -8 18 30 -11 24 14 13 20 15 25 -18 -19 -20 -21 23 -23 -24 -25 -26 -27 31 -29 -30 -31 -32 -33 -34 -35 -36
leaf_value=0.012562024605448002 -0.00028674526507352252 0.016047038474994377 -0.00035153724101182418 -0.00032905753329884433 -0.00036402442995923245 -0.00033974603556023134 -0.0003272441569287839 -0.00013876662498269393 -0.00032897400101317424 -0.00029220928866632146 -0.00035569562394239022 -0.00029170387153764266 -0.00032793394045149742 -0.00026771720107762688 -0.00025669849854373567 0.016677854617792705 -0.00027577845742620674 -0.00025607990385075589 -0.0002755687340175166 -0.00023594453408492933 -0.00021757700851181183 -0.00022493724278970656 0.013129265590710766 0.014296720880449755 0.01326355468922921 -0.00017858448027320838 -0.00013446876194012916 0.015503415879275445 -0.00016588235526659187 0.016891135281648265 0.013358043375826819 0.015847181862226428 -0.00011759817718915676 -0.00011323443453594716 -0.00019842579311930334
leaf_count=6036 397 8843 1818 883 4543 1099 840 127 853 422 2301 440 831 337 301 318 373 292 358 249 219 224 56 439 50 158 115 70 149 235 50 986 114 104 168
internal_value=0 38.3851 26.9329 18.0951 10.2885 24.2665 27.4348 22.5513 30.2763 33.6548 15.7149 19.7095 12.4009 20.4037 30.3731 35.4291 33.0906 35.9714 30.1726 37.7077 28.6183 35.1875 0.953865 34.0859 2.66594 39.8983 39.2943 20.7329 39.2599 42.5737 7.31898 41.9778 42.8888 43.5215 33.7709
internal_count=34798 22850 13903 11948 6575 5373 4274 1976 3434 2531 7326 4975 3644 1826 1331 891 6577 2109 1093 1817 995 735 4599 658 2351 590 1568 467 511 362 903 1101 432 8947 6204
shrinkage=0.000368031


Tree=21
num_leaves=36
num_cat=0
split_feature=56 56 195 388 143 323 353 102 14 161 21 235 398 27 90 232 327 175 85 10 381 388 314 240 53 389 351 390 63 397 300 213 250 49 289
split_gain=78754.4 68822 25331.4 14295.8 12058 9125.04 7975.28 6682.68 6323.43 7095.1 6178.39 10218 6117.85 5650.8 5611.12 8452.34 5558.68 5359.59 4201.68 4158.87 3792.77 3749.01 3719.48 3563.38 3494.03 3346.81 3250.75 2999.82 3942 3505.16 3126.28 2989.07 2962.79 2957.82 3319.86
threshold=1.5000000000000002 1.0000000180025095e-35 1.5000000000000002 0.29295353982342714 1.0000000180025095e-35 2.5000000000000004 2.5000000000000004 2.5000000000000004 2.5000000000000004 3.5000000000000004 3.5000000000000004 4.5000000000000009 -0.033793580983287476 9.5000000000000018 2.3500000000000001 1.0000000180025095e-35 5.3515625000000009 1.0000000180025095e-35 3.5000000000000004 2.5000000000000004 -0.38796537627944133 0.53124160158886324 24.500000000000004 4.5000000000000009 4.5000000000000009 0.89292419475824036 2.5000000000000004 0.30933078952466581 6.5000000000000009 -0.17172804636328423 6.5000000000000009 4.5000000000000009 4.5000000000000009 5.5000000000000009 4.5000000000000009
decision_type=2 2 2 2 2 2 2 2 2 2 2 2 2 2 2 2 10 2 2 10 2 2 10 2 2 2 2 2 2 2 2 2 2 2 2
left_child=1 2 16 5 10 22 7 14 9 12 21 -12 -4 26 15 -7 33 -14 -16 20 -19 -5 -2 25 -22 31 -10 28 -3 -29 -31 32 -20 34 -1
right_child=3 27 8 4 -6 6 -8 -9 13 -11 11 -13 17 -15 18 -17 -18 19 23 -21 24 -23 -24 -25 -26 -27 -28 29 -30 30 -32 -33 -34 -35 -36
leaf_value=0.011686028523111977 -0.0003447864498489783 0.016049871691356628 -0.00031568194987093245 -0.00017922631983388702 -0.00036379450652615291 0.014722516510109451 -0.00031858547856449275 -0.00029995407650234039 -0.00035977491808271466 -0.00033483395924996449 -0.00034697477491690398 0.014885593220285143 -0.00029363476879878719 0.011877309832169137 -0.0002259442950913843 -0.00033202590846317286 -0.00027575319131416655 -0.00023195994224810726 0.015117666990402203 -0.00025682178849462074 0.013384174088978166 0.016016210018942226 0.013237753556470645 -0.00019340511218417122 -0.0002065265565680847 -0.00017408992216880756 0.010725494485749852 -0.00019762536722565954 -0.00016323758272535527 0.014152685683922887 -0.00016980590835884727 -0.00014525901771418674 -0.0001349248738622876 -0.00019839590675372915 0.015479031461067778
leaf_count=5379 1358 7436 649 168 4446 127 707 498 2936 1003 1464 123 461 190 219 842 373 244 1218 303 1237 154 50 170 201 155 102 137 111 1147 116 130 119 168 657
internal_value=0 37.8527 26.6674 17.9741 8.66418 24.4427 27.7547 30.0549 15.623 20.6712 21.2752 11.9217 24.3808 6.33575 31.9824 16.4075 32.692 27.5795 35.5869 30.3819 32.5566 37.2417 4.71266 36.9387 34.5399 38.0853 1.82205 42.8401 43.4965 36.2362 37.4091 39.1621 40.1239 33.3561 33.7096
internal_count=34798 22850 13903 11948 6355 5593 4185 3478 7326 4098 1909 1587 3095 3228 2980 969 6577 2446 2011 1985 1682 322 1408 1792 1438 1622 3038 8947 7547 1400 1263 1467 1337 6204 6036
shrinkage=0.000368031


Tree=22
num_leaves=36
num_cat=0
split_feature=56 56 195 77 397 169 249 394 181 171 273 222 64 397 391 77 327 364 266 288 142 381 396 7 7 305 98 228 17 153 181 383 90 49 289
split_gain=76192.3 66189.9 24641.8 10926.6 8592.42 7934.78 7341.38 8882.29 6865.58 7606.43 7640.7 7328.38 5994.77 5824.5 5811.18 5805.4 5428.58 5229.75 5111.29 4179.4 4091.3 4016.5 4010.13 3999.2 3885.7 3579.35 3444.53 3349.99 3240.65 3138.4 3054.53 2932.82 2895.24 2887.77 3188.08
threshold=1.5000000000000002 1.0000000180025095e-35 1.5000000000000002 1.1499023437500002 -0.16840696617223341 3.5000000000000004 4.5000000000000009 0.83659679998530168 3.5000000000000004 3.5000000000000004 4.5000000000000009 2.5000000000000004 1.5000000000000002 0.19766944024571534 0.40245606119647709 1.4501953125000002 5.3515625000000009 7.5000000000000009 2.5000000000000004 2.5000000000000004 2.5000000000000004 -0.5070515518590677 -0.031209920139882826 19.500000000000004 60.500000000000007 6.5000000000000009 3.5000000000000004 4.5000000000000009 1.5000000000000002 2.5000000000000004 4.5000000000000009 -1.8191829844749785 8.3500000000000032 5.5000000000000009 4.5000000000000009
decision_type=2 2 2 2 2 2 2 2 2 2 2 2 2 2 2 2 10 2 2 2 2 2 2 8 8 2 2 2 2 2 2 2 2 2 2
left_child=1 2 16 6 25 12 7 21 9 10 13 29 14 -4 20 -12 33 26 -13 -17 23 -2 -8 30 -10 -5 -14 -7 -15 -11 -6 -3 -33 34 -1
right_child=3 31 8 4 5 27 22 -9 24 11 15 18 17 28 -16 19 -18 -19 -20 -21 -22 -23 -24 -25 -26 -27 -28 -29 -30 -31 -32 32 -34 -35 -36
leaf_value=0.011550874162905796 0.012738765868185405 0.0065786475910879104 -0.0003585722171674189 -0.00034748992914783705 0.013640612447146273 -0.00033978704539929785 0.016065412806582122 0.015865226699841771 -0.00035573748239196205 -0.00013500760046121876 -0.0002815171361643753 0.012648758127752339 -0.00034123486591753103 0.015659417468962222 -0.00028144725983906535 -0.00018922655050416132 -0.00027572792124143191 0.014672581941661029 -0.00032602451718127074 0.016516020657357133 -0.00023640065325377681 -0.00036460303424516824 -0.00020936260228123491 -0.00022468493640256327 0.012993564413310916 0.012620150442542562 0.012600933452652719 0.0123931126355264 -0.00019800232420719686 0.015921875832909129 -0.00017638489655689011 0.015609309006818353 -0.00011385514314032543 -0.00019836601809496726 0.015246106150577648
leaf_count=5379 55 248 2713 1479 1868 1111 75 53 2301 125 384 137 1179 52 386 175 373 75 781 129 249 4638 207 229 50 58 58 69 191 288 159 8596 103 168 657
internal_value=0 37.3353 26.4073 17.8547 22.5426 25.4521 8.08573 4.21577 15.5318 19.4375 12.2774 29.7837 28.3287 4.55218 31.8103 28.1603 32.3037 13.7233 12.9448 37.8794 33.6106 0.861126 32.4551 34.8782 2.65218 4.21101 5.29134 5.52126 28.9648 40.3442 36.1173 42.1802 42.3359 32.9523 33.2974
internal_count=34798 22850 13903 11948 6920 5383 5028 4746 7326 4975 3644 1331 4203 2956 2891 688 6577 1312 918 304 2505 4693 282 2256 2351 1537 1237 1180 243 413 2027 8947 8699 6204 6036
shrinkage=0.000368031


Tree=23
num_leaves=36
num_cat=0
split_feature=56 56 8 388 143 323 117 353 181 121 398 390 227 327 318 320 229 273 389 252 298 178 359 198 394 230 314 98 296 230 13 295 255 303 229
split_gain=73732.2 63681.1 23983.7 13827.2 11824 8801.47 8133.29 7689.69 7505.34 8887.3 7306.37 5898.92 5826.61 7921.33 6483.01 5064.44 4982.79 4826.99 10044.3 5591.52 4746.26 4618.21 4472.37 3998.04 3861.01 3808.51 3633.59 3552.38 3227.29 3149.7 3117.78 3040.87 2916.39 2913.19 2903.35
threshold=1.5000000000000002 1.0000000180025095e-35 1.0000000180025095e-35 0.29295353982342714 1.0000000180025095e-35 2.5000000000000004 2.5000000000000004 2.5000000000000004 3.5000000000000004 3.5000000000000004 -0.033793580983287476 0.22931855118716996 2.5000000000000004 5.3515625000000009 1.5000000000000002 2.5000000000000004 3.5000000000000004 4.5000000000000009 0.22820873444233539 3.5000000000000004 2.5000000000000004 3.5000000000000004 6.5000000000000009 3.5000000000000004 -0.025803298336064342 1.5000000000000002 24.500000000000004 2.5000000000000004 1.5000000000000002 1.5000000000000002 3.5000000000000004 4.5000000000000009 3.5000000000000004 1.5000000000000002 4.5000000000000009
decision_type=2 2 8 2 2 2 2 2 2 2 2 2 2 10 10 8 2 2 2 2 2 2 2 2 2 2 10 2 2 2 2 2 2 2 2
left_child=1 2 8 5 6 26 -5 12 9 10 -1 17 22 16 -15 25 -14 18 19 21 -16 27 34 29 -4 -8 -2 -12 -10 -19 -18 33 -22 -27 -7
right_child=3 -3 24 4 -6 7 15 -9 28 -11 11 -13 13 14 20 -17 30 23 -20 -21 32 -23 -24 -25 -26 31 -28 -29 -30 -31 -32 -33 -34 -35 -36
leaf_value=-0.00032791492862632607 -0.00034485753438898164 0.015288161561164146 -0.00024190434885665283 -0.00033254145202844603 -0.00036381578543646123 0.015052274320040393 -0.00020920576255603358 -0.00031865398054234834 0.010929906358247714 -0.0003446710978311264 0.015681810690794742 -0.00030574176539067158 -0.00034478096410533429 -0.00028222706775111089 -0.00022179907422147541 -0.00027294767374566446 0.015607945055604153 -0.00011492335713469825 -0.00033588178336886192 -0.00027464939634840008 0.016090061443134702 -0.00022840782544645814 -0.00021977892084182389 -0.00018346228207885055 0.012040762647627466 -0.00010486018385990962 0.012961805826757399 -0.00016342616139071757 -0.0003558535057851303 0.016716300592727308 -0.00019102019179765252 -0.00014222489696261124 -0.00011407818955002201 0.016554275152946038 -0.00013477285759187614
leaf_count=814 1358 8947 251 951 4446 704 200 707 102 1311 372 544 1254 366 208 350 51 113 994 360 285 234 207 165 5973 107 50 151 2287 232 170 132 110 169 123
internal_value=0 36.8325 26.1534 17.7382 8.59645 24.0314 20.963 27.2369 15.9917 19.801 23.5179 26.5736 29.4548 22.4539 31.8835 29.47 8.45469 29.041 22.6917 31.0947 37.3076 35.7732 37.2697 39.44 32.2418 34.7677 4.68384 39.6375 2.57486 42.7853 29.3401 38.7519 41.2789 41.9331 39.4706
internal_count=34798 22850 13903 11948 6355 5593 1909 4185 7679 5290 3979 3165 3478 2444 969 958 1475 2621 2111 1117 603 757 1034 510 6224 608 1408 523 2389 345 221 408 395 276 827
shrinkage=0.000368031


Tree=24
num_leaves=36
num_cat=0
split_feature=56 56 195 388 143 353 117 173 396 181 273 319 182 369 118 102 77 305 101 90 327 263 391 120 92 77 164 85 391 381 92 164 229 390 62
split_gain=71388.1 61312.2 23346.4 13575.1 11697.6 8324.09 7988.15 7020.18 7652.81 6676.91 6233.49 7463.64 7419.29 6883.4 5767.05 5764.82 5563.51 5491.51 5430.59 6548.59 5196.17 5009.8 4594.97 3841.19 3803 3781.03 3736.22 3329.57 3015.45 3002.95 2901.37 2881.05 2815.52 2781.32 5423.72
threshold=1.5000000000000002 1.0000000180025095e-35 1.5000000000000002 0.29295353982342714 1.0000000180025095e-35 2.5000000000000004 2.5000000000000004 1.5000000000000002 0.092426187471500262 3.5000000000000004 4.5000000000000009 7.5000000000000009 2.5000000000000004 10.500000000000002 2.5000000000000004 2.5000000000000004 1.1499023437500002 2.5000000000000004 3.5000000000000004 6.1500000000000012 5.3515625000000009 2.5000000000000004 0.29585589693479536 2.5000000000000004 11.500000000000002 2.9501953125000004 163.50000000000003 3.5000000000000004 0.40245606119647709 -0.38796537627944133 11.500000000000002 609.50000000000011 4.5000000000000009 0.30933078952466581 1.5000000000000002
decision_type=2 2 2 2 2 2 2 2 2 2 2 8 2 10 2 2 2 2 2 2 10 2 2 2 8 2 10 2 2 2 8 8 2 2 2
left_child=1 2 20 5 6 7 -5 8 -2 10 11 26 -13 17 -14 18 -8 -12 21 -20 -1 30 29 -18 27 -11 -4 -23 32 -16 -9 -25 -29 -3 -35
right_child=3 33 9 4 -6 -7 16 15 -10 25 13 12 14 -15 22 -17 23 -19 19 -21 -22 24 -24 31 -26 -27 -28 28 -30 -31 -32 -33 -34 34 -36
leaf_value=0.011842304252793055 -0.00034391884515639259 0.015286786439499043 0.01249667858640798 -0.00033252726347570745 -0.00036381090714319265 -0.00033312715629954341 -0.00028137492265107293 -0.00029873454092697654 0.015332923709444061 -0.00035574857809946974 -0.00024007176483470421 -0.0003231471922903074 -0.00027603178654326659 -0.00029174374245505286 -0.00011391078413492257 -0.0002926996213842398 -0.00020855614541048282 0.015407140388517945 -0.00032741614618735906 0.015100565052663368 -0.00027591755092045496 -0.00017297804255909151 -0.00021809949368359826 0.015460798599756647 -0.00020344520207774228 0.01266735022828548 -0.00035630689465322794 0.01515367199907598 -0.00014622086517587427 0.016455182264433387 0.013160363732986728 -0.00013035342655354505 -0.00012410751125181783 0.013827302111749783 0.0041261652705519378
leaf_count=6204 1259 7547 55 951 4446 977 406 453 53 2291 248 746 368 433 117 447 206 319 801 54 373 150 218 222 183 60 2290 930 127 181 50 124 109 1010 390
internal_value=0 36.3425 25.903 17.6219 8.56736 23.8217 20.8018 26.1425 9.58988 15.3519 19.1604 13.7642 22.9706 30.3588 30.7309 29.4228 29.1572 36.7582 31.145 13.5848 31.5566 34.2446 36.7634 34.977 36.837 2.64499 2.55717 38.1096 39.2238 41.57 11.3753 38.9954 40.2329 40.9199 34.7008
internal_count=34798 22850 13903 11948 6355 5593 1909 4616 1312 7326 4975 3975 1630 1000 884 3304 958 567 2857 855 6577 2002 516 552 1499 2351 2345 1316 1166 298 503 346 1039 8947 1400
shrinkage=0.000368031


Tree=25
num_leaves=36
num_cat=0
split_feature=56 56 8 388 238 323 399 353 244 301 223 102 344 32 90 380 393 196 216 160 167 181 249 174 394 85 314 18 275 102 391 389 369 383 90
split_gain=69147.8 59059.8 22721 13329.3 9529.41 8478.14 7994.96 7392.06 6896.16 6892.43 7522.28 6199.72 5893.24 5294.29 5106.69 6447.15 5059.27 4692 4407.53 4191.97 5562.31 4078.96 4193.84 3755.25 3700.96 3683.05 3546.89 3362.66 3279.41 3145.66 3079.22 3018.29 2894.5 2739.79 2719.73
threshold=1.5000000000000002 1.0000000180025095e-35 1.0000000180025095e-35 0.29295353982342714 3.5000000000000004 2.5000000000000004 0.0030811569046651226 2.5000000000000004 4.5000000000000009 6.5000000000000009 1.5000000000000002 2.5000000000000004 4.5000000000000009 2.5000000000000004 2.3500000000000001 -2.1342184004491802 -0.026196781299007706 2.5000000000000004 4.5000000000000009 2.5000000000000004 1.5000000000000002 3.5000000000000004 2.5000000000000004 2.5000000000000004 -0.025803298336064342 3.5000000000000004 24.500000000000004 3.5000000000000004 0.94995117187500011 1.0000000180025095e-35 0.40245606119647709 0.89292419475824036 12.500000000000002 -1.8191829844749785 8.3500000000000032
decision_type=2 2 8 2 2 2 2 2 2 2 2 2 2 2 2 2 2 2 2 2 2 2 2 2 2 2 10 2 2 2 2 2 10 2 2
left_child=1 2 4 5 6 26 8 11 -1 10 18 13 -12 14 15 29 -6 -10 -5 20 32 22 -18 -11 -4 -16 -2 -14 -24 -7 31 -27 -8 -3 -35
right_child=3 33 24 9 16 7 19 -9 17 23 12 -13 27 -15 25 -17 21 -19 -20 -21 -22 -23 28 -25 -26 30 -28 -29 -30 -31 -32 -33 -34 34 -36
leaf_value=0.00030790331073560353 -0.00034492486290545318 0.0063511911751644281 -0.00024230727538747745 -0.00024237293452231847 -0.00028496417763363156 0.016097333830417584 0.015739536268078485 -0.00031861811736244664 0.014340212969094931 0.015867813237513486 -0.00036563181811696474 -0.00030042283679603975 0.01502680611283063 -0.00028056697643920125 -0.00020886016117377984 -0.00032475436989544751 -0.00022448449102044417 -0.00026699169128613891 0.015215296468896307 -0.00027982109779579347 -0.00026728566830928847 -0.00024249284999086813 0.014925132135326735 -0.00020079834392883132 0.011759379649038729 0.01424611413796229 0.012683391174812351 -0.00021995816111870887 -0.00016499621703819562 -0.00015945974474246635 -0.00017213965980349935 -0.00015989262928778274 -0.00012919246543476544 0.0149189388636122 -0.00011922119379531362
leaf_count=4723 1358 248 251 265 404 51 175 707 133 52 5488 498 51 358 191 697 218 339 79 377 334 267 440 197 5973 1257 50 223 146 136 149 141 123 8596 103
internal_value=0 35.8659 25.6578 17.5072 15.8007 23.6156 10.4485 26.7146 5.17072 8.53849 5.63442 28.8467 2.03238 30.6349 32.162 16.9553 27.9178 25.8636 29.0354 25.1211 30.9694 31.7663 34.8692 32.6294 31.4969 35.5619 4.65511 26.7339 38.0594 34.9553 36.747 37.7378 38.7287 40.3182 40.4648
internal_count=34798 22850 13903 11948 7679 5593 6204 4185 5195 6355 6106 3478 5762 2980 2622 884 1475 472 344 1009 632 1071 804 249 6224 1738 1408 274 586 187 1547 1398 298 8947 8699
shrinkage=0.000368031



feature importances:
D19_SOZIALES=50
GEBURTSJAHR=25
EINGEZOGENAM_HH_JAHR=23
_isMissingUnknown_9=23
KBA13_ANZAHL_PKW=21
ALTER_HH_Value_0=21
KBA13_HALTER_30=21
D19_VERSAND_ONLINE_DATUM_Value_INCREASE=21
KBA13_BJ_2006=20
KBA13_CCM_1600=19
KBA05_SEG1=18
KBA05_ANHANG=17
_isMissingUnknown_4=16
GFK_URLAUBERTYP=15
WOHNLAGE=15
_isMissingUnknown_10=15
ANZ_HAUSHALTE_AKTIV=14
KBA05_MAXAH=14
KBA05_HERST4=13
VERDICHTUNGSRAUM=13
KBA13_CCM_1200=12
KBA13_HALTER_35=11
KBA05_KRSAQUOT=10
KBA13_KW_121=10
_isMissingUnknown_12=10
FINANZ_VORSORGER=10
KONSUMNAEHE=9
_isMissingUnknown_18=9
KBA13_KW_90=9
KBA13_BJ_2009=9
RETOURTYP_BK_S=9
SEMIO_PFLICHT=8
KBA13_TOYOTA=8
_isMissingUnknown_11=8
D19_LOTTO=8
KBA13_KW_0_60=7
KBA13_KW_120=7
VK_DHT4A=7
KBA05_SEG5=7
SEMIO_FAM=6
EINGEFUEGT_AM_Day=6
KBA13_CCM_1800=6
D19_TELKO_OFFLINE_DATUM_Value_ACTIVITY_WITHIN_MONTHS=6
_isMissingUnknown_15=5
CAMEO_DEU_2015_6D=5
_isMissingUnknown_17=5
KBA13_KRSHERST_FORD_OPEL=5
D19_BIO_OEKO=5
KBA13_SEG_OBERKLASSE=5
CJT_TYP_2=5
KBA05_KRSHERST3=5
ANZ_HH_TITEL=5
KBA05_MAXBJ=5
KBA05_MODTEMP=5
KBA05_ZUL4=5
HH_EINKOMMEN_SCORE=5
_isMissingUnknown_2=5
LP_LEBENSPHASE_FEIN_Value_INCOME=5
KBA13_KRSSEG_KLEIN=5
_isMissingUnknown_19=5
_isMissingUnknown_20=5
SEMIO_SOZ=4
KBA13_BJ_2004=4
KBA13_SEG_SONSTIGE=4
KBA13_VORB_0=4
KBA13_SEG_KOMPAKTKLASSE=4
KBA05_KW2=4
SEMIO_MAT=4
SEMIO_KAEM=4
KBA05_VORB0=4
KBA05_MOTRAD=4
KBA05_ZUL3=3
KBA13_BAUMAX=3
KBA13_BMW=3
KBA13_HALTER_40=3
CJT_TYP_3=3
KBA13_ANTG2=3
KBA13_HERST_FORD_OPEL=3
KBA13_KW_40=3
D19_BANKEN_DIREKT=3
KBA13_KW_61_120=3
KBA13_VW=3
SEMIO_KULT=3
_isMissingUnknown_14=3
KBA05_BAUMAX=3
D19_TELKO_REST=3
D19_TIERARTIKEL=3
KBA05_AUTOQUOT=3
KBA05_HERST5=3
KBA05_KRSHERST1=3
KBA05_SEG7=3
KBA13_PEUGEOT=2
KBA13_BJ_1999=2
MIN_GEBAEUDEJAHR=2
CJT_GESAMTTYP=2
KBA13_SEG_MINIVANS=2
KBA05_VORB2=2
D19_BANKEN_ANZ_12=2
KBA05_SEG10=2
KBA13_CCM_0_1400=2
KBA13_BJ_2008=2
KBA13_KMH_110=2
KBA13_OPEL=2
VK_DISTANZ=2
KBA13_SEG_VAN=2
KBA13_ANTG1=2
KBA05_MOD4=2
KBA13_KMH_140=2
KBA05_MAXVORB=2
SEMIO_REL=2
SEMIO_TRADV=2
VK_ZG11=2
D19_BANKEN_ONLINE_DATUM_Value_ACTIVITY_WITHIN_MONTHS=2
D19_GESAMT_ONLINE_DATUM_Value_INCREASE=2
D19_TELKO_DATUM_Value_ACTIVITY_WITHIN_MONTHS=2
FINANZ_SPARER=2
LP_LEBENSPHASE_FEIN_Value_AGE=2
KBA05_ALTER1=2
LP_STATUS_FEIN_Value_OTHER=2
_isMissingUnknown_1=2
_isMissingUnknown_3=2
FINANZ_ANLEGER=2
EXTSEL992=2
D19_SONSTIGE=2
D19_KONSUMTYP_MAX=2
KBA13_SEG_GELAENDEWAGEN=1
KBA13_SEG_KLEINWAGEN=1
KBA13_HALTER_55=1
KBA13_SEG_MITTELKLASSE=1
KBA13_SEG_OBEREMITTELKLASSE=1
KBA13_BJ_2000=1
KBA13_SITZE_5=1
KBA13_AUDI=1
KBA13_VORB_1_2=1
ONLINE_AFFINITAET=1
PLZ8_ANTG2=1
PLZ8_BAUMAX=1
REGIOTYP=1
RELAT_AB=1
RT_KEIN_ANREIZ=1
RT_UEBERGROESSE=1
ANZ_PERSONEN=1
ARBEIT=1
CAMEO_DEUG_2015=1
CJT_TYP_5=1
KBA05_KRSOBER=1
CJT_TYP_6=1
KBA05_HERST1=1
D19_BANKEN_ONLINE_QUOTE_12=1
UMFELD_ALT=1
KBA05_DIESEL=1
VHN=1
KBA05_CCM4=1
KBA13_VORB_2=1
D19_DIGIT_SERV=1
ALTER_KIND1=1
KBA05_ANTG2=1
CAMEO_DEUINTL_2015_Value_0=1
D19_DROGERIEARTIKEL=1
D19_GESAMT_DATUM_Value_ACTIVITY_WITHIN_MONTHS=1
D19_GESAMT_ONLINE_DATUM_Value_ACTIVITY_WITHIN_MONTHS=1
D19_KINDERARTIKEL=1
KBA13_HALTER_45=1
KBA05_ANTG1=1
D19_VERSAND_OFFLINE_DATUM_Value_ACTIVITY_WITHIN_MONTHS=1
D19_VERSAND_OFFLINE_DATUM_Value_INCREASE=1
KBA13_GBZ=1
KBA13_KW_110=1
KBA13_CCM_2000=1
KBA13_CCM_1400=1
INNENSTADT=1
KBA13_HERST_BMW_BENZ=1
GEMEINDETYP=1
KBA13_KW_50=1
FINANZ_UNAUFFAELLIGER=1
_isMissingUnknown_5=1
_isMissingUnknown_6=1
_isMissingUnknown_8=1
KBA05_ALTER4=1
KBA13_HERST_SONST=1
KBA13_MERCEDES=1
EWDICHTE=1
KBA13_KMH_210=1
D19_VERSAND_ANZ_24=1
_isMissingUnknown_16=1
D19_VERSAND_ANZ_12=1
KBA13_NISSAN=1
D19_SAMMELARTIKEL=1
D19_RATGEBER=1
KBA13_HALTER_25=1
D19_LETZTER_KAUF_BRANCHE_D19_DROGERIEARTIKEL=1

pandas_categorical:[]
