tree
version=v2
num_class=1
num_tree_per_iteration=1
label_index=0
max_feature_idx=492
objective=binary sigmoid:1
feature_names=AGER_TYP AKT_DAT_KL ALTER_KIND1 ALTER_KIND2 ALTER_KIND3 ALTER_KIND4 ALTERSKATEGORIE_FEIN ANZ_HAUSHALTE_AKTIV ANZ_HH_TITEL ANZ_KINDER ANZ_PERSONEN ARBEIT BALLRAUM CAMEO_DEUG_2015 CJT_GESAMTTYP CJT_KATALOGNUTZER CJT_TYP_1 CJT_TYP_2 CJT_TYP_3 CJT_TYP_4 CJT_TYP_5 CJT_TYP_6 D19_BANKEN_ANZ_12 D19_BANKEN_ANZ_24 D19_BANKEN_DIREKT D19_BANKEN_GROSS D19_BANKEN_LOKAL D19_BANKEN_ONLINE_QUOTE_12 D19_BANKEN_REST D19_BEKLEIDUNG_GEH D19_BEKLEIDUNG_REST D19_BILDUNG D19_BIO_OEKO D19_BUCH_CD D19_DIGIT_SERV D19_DROGERIEARTIKEL D19_ENERGIE D19_FREIZEIT D19_GARTEN D19_GESAMT_ANZ_12 D19_GESAMT_ANZ_24 D19_GESAMT_ONLINE_QUOTE_12 D19_HANDWERK D19_HAUS_DEKO D19_KINDERARTIKEL D19_KONSUMTYP D19_KONSUMTYP_MAX D19_KOSMETIK D19_LEBENSMITTEL D19_LOTTO D19_NAHRUNGSERGAENZUNG D19_RATGEBER D19_REISEN D19_SAMMELARTIKEL D19_SCHUHE D19_SONSTIGE D19_SOZIALES D19_TECHNIK D19_TELKO_ANZ_12 D19_TELKO_ANZ_24 D19_TELKO_MOBILE D19_TELKO_ONLINE_QUOTE_12 D19_TELKO_REST D19_TIERARTIKEL D19_VERSAND_ANZ_12 D19_VERSAND_ANZ_24 D19_VERSAND_ONLINE_QUOTE_12 D19_VERSAND_REST D19_VERSI_ANZ_12 D19_VERSI_ANZ_24 D19_VERSI_DATUM D19_VERSI_OFFLINE_DATUM D19_VERSI_ONLINE_DATUM D19_VERSI_ONLINE_QUOTE_12 D19_VERSICHERUNGEN D19_VOLLSORTIMENT D19_WEIN_FEINKOST EINGEZOGENAM_HH_JAHR EWDICHTE EXTSEL992 FINANZ_ANLEGER FINANZ_HAUSBAUER FINANZ_MINIMALIST FINANZ_SPARER FINANZ_UNAUFFAELLIGER FINANZ_VORSORGER FINANZTYP FIRMENDICHTE GEBAEUDETYP GEBAEUDETYP_RASTER GEBURTSJAHR GEMEINDETYP GFK_URLAUBERTYP GREEN_AVANTGARDE HEALTH_TYP HH_DELTA_FLAG HH_EINKOMMEN_SCORE INNENSTADT KBA05_ALTER1 KBA05_ALTER2 KBA05_ALTER3 KBA05_ALTER4 KBA05_ANHANG KBA05_ANTG1 KBA05_ANTG2 KBA05_ANTG3 KBA05_ANTG4 KBA05_AUTOQUOT KBA05_BAUMAX KBA05_CCM1 KBA05_CCM2 KBA05_CCM3 KBA05_CCM4 KBA05_DIESEL KBA05_FRAU KBA05_GBZ KBA05_HERST1 KBA05_HERST4 KBA05_HERST5 KBA05_HERSTTEMP KBA05_KRSAQUOT KBA05_KRSHERST1 KBA05_KRSHERST2 KBA05_KRSHERST3 KBA05_KRSOBER KBA05_KRSVAN KBA05_KRSZUL KBA05_KW1 KBA05_KW2 KBA05_KW3 KBA05_MAXAH KBA05_MAXBJ KBA05_MAXHERST KBA05_MAXSEG KBA05_MAXVORB KBA05_MOD1 KBA05_MOD2 KBA05_MOD3 KBA05_MOD4 KBA05_MOD8 KBA05_MODTEMP KBA05_MOTOR KBA05_MOTRAD KBA05_SEG1 KBA05_SEG10 KBA05_SEG2 KBA05_SEG3 KBA05_SEG4 KBA05_SEG5 KBA05_SEG6 KBA05_SEG7 KBA05_SEG8 KBA05_SEG9 KBA05_VORB0 KBA05_VORB1 KBA05_VORB2 KBA05_ZUL1 KBA05_ZUL2 KBA05_ZUL3 KBA05_ZUL4 KBA13_ANTG1 KBA13_ANTG2 KBA13_ANTG3 KBA13_ANTG4 KBA13_ANZAHL_PKW KBA13_AUDI KBA13_AUTOQUOTE KBA13_BAUMAX KBA13_BJ_1999 KBA13_BJ_2000 KBA13_BJ_2004 KBA13_BJ_2006 KBA13_BJ_2008 KBA13_BJ_2009 KBA13_BMW KBA13_CCM_0_1400 KBA13_CCM_1000 KBA13_CCM_1200 KBA13_CCM_1400 KBA13_CCM_1401_2500 KBA13_CCM_1500 KBA13_CCM_1600 KBA13_CCM_1800 KBA13_CCM_2000 KBA13_CCM_2500 KBA13_CCM_2501 KBA13_CCM_3000 KBA13_CCM_3001 KBA13_FAB_ASIEN KBA13_FAB_SONSTIGE KBA13_FIAT KBA13_FORD KBA13_GBZ KBA13_HALTER_20 KBA13_HALTER_25 KBA13_HALTER_30 KBA13_HALTER_35 KBA13_HALTER_40 KBA13_HALTER_45 KBA13_HALTER_50 KBA13_HALTER_55 KBA13_HALTER_60 KBA13_HALTER_65 KBA13_HALTER_66 KBA13_HERST_ASIEN KBA13_HERST_AUDI_VW KBA13_HERST_BMW_BENZ KBA13_HERST_EUROPA KBA13_HERST_FORD_OPEL KBA13_HERST_SONST KBA13_HHZ KBA13_KMH_0_140 KBA13_KMH_110 KBA13_KMH_140 KBA13_KMH_140_210 KBA13_KMH_180 KBA13_KMH_210 KBA13_KMH_250 KBA13_KMH_251 KBA13_KRSAQUOT KBA13_KRSHERST_AUDI_VW KBA13_KRSHERST_BMW_BENZ KBA13_KRSHERST_FORD_OPEL KBA13_KRSSEG_KLEIN KBA13_KRSSEG_OBER KBA13_KRSSEG_VAN KBA13_KRSZUL_NEU KBA13_KW_0_60 KBA13_KW_110 KBA13_KW_120 KBA13_KW_121 KBA13_KW_30 KBA13_KW_40 KBA13_KW_50 KBA13_KW_60 KBA13_KW_61_120 KBA13_KW_70 KBA13_KW_80 KBA13_KW_90 KBA13_MAZDA KBA13_MERCEDES KBA13_MOTOR KBA13_NISSAN KBA13_OPEL KBA13_PEUGEOT KBA13_RENAULT KBA13_SEG_GELAENDEWAGEN KBA13_SEG_KLEINST KBA13_SEG_KLEINWAGEN KBA13_SEG_KOMPAKTKLASSE KBA13_SEG_MINIVANS KBA13_SEG_MINIWAGEN KBA13_SEG_MITTELKLASSE KBA13_SEG_OBEREMITTELKLASSE KBA13_SEG_OBERKLASSE KBA13_SEG_SONSTIGE KBA13_SEG_SPORTWAGEN KBA13_SEG_UTILITIES KBA13_SEG_VAN KBA13_SEG_WOHNMOBILE KBA13_SITZE_4 KBA13_SITZE_5 KBA13_SITZE_6 KBA13_TOYOTA KBA13_VORB_0 KBA13_VORB_1 KBA13_VORB_1_2 KBA13_VORB_2 KBA13_VORB_3 KBA13_VW KK_KUNDENTYP KKK KOMBIALTER KONSUMNAEHE KONSUMZELLE MIN_GEBAEUDEJAHR MOBI_RASTER MOBI_REGIO NATIONALITAET_KZ ONLINE_AFFINITAET ORTSGR_KLS9 OST_WEST_KZ PLZ8_ANTG1 PLZ8_ANTG2 PLZ8_ANTG3 PLZ8_ANTG4 PLZ8_BAUMAX REGIOTYP RELAT_AB RETOURTYP_BK_S RT_KEIN_ANREIZ RT_SCHNAEPPCHEN RT_UEBERGROESSE SEMIO_DOM SEMIO_ERL SEMIO_FAM SEMIO_KAEM SEMIO_KRIT SEMIO_KULT SEMIO_LUST SEMIO_MAT SEMIO_PFLICHT SEMIO_RAT SEMIO_REL SEMIO_SOZ SEMIO_TRADV SEMIO_VERT SHOPPER_TYP SOHO_KZ STRUKTURTYP TITEL_KZ UMFELD_ALT UMFELD_JUNG UNGLEICHENN_FLAG VERDICHTUNGSRAUM VERS_TYP VHA VHN VK_DHT4A VK_DISTANZ VK_ZG11 W_KEIT_KIND_HH WOHNDAUER_2008 WOHNLAGE ZABEOTYP ANREDE_KZ ALTERSKATEGORIE_GROB ALTER_HH_Value_0 CAMEO_DEUINTL_2015_Value_0 CAMEO_DEUINTL_2015_Value_1 D19_BANKEN_DATUM_Value_ACTIVITY_WITHIN_MONTHS D19_BANKEN_DATUM_Value_INCREASE D19_BANKEN_OFFLINE_DATUM_Value_ACTIVITY_WITHIN_MONTHS D19_BANKEN_OFFLINE_DATUM_Value_INCREASE D19_BANKEN_ONLINE_DATUM_Value_ACTIVITY_WITHIN_MONTHS D19_BANKEN_ONLINE_DATUM_Value_INCREASE D19_GESAMT_DATUM_Value_ACTIVITY_WITHIN_MONTHS D19_GESAMT_DATUM_Value_INCREASE D19_GESAMT_OFFLINE_DATUM_Value_ACTIVITY_WITHIN_MONTHS D19_GESAMT_OFFLINE_DATUM_Value_INCREASE D19_GESAMT_ONLINE_DATUM_Value_ACTIVITY_WITHIN_MONTHS D19_GESAMT_ONLINE_DATUM_Value_INCREASE D19_TELKO_DATUM_Value_ACTIVITY_WITHIN_MONTHS D19_TELKO_DATUM_Value_INCREASE D19_TELKO_OFFLINE_DATUM_Value_ACTIVITY_WITHIN_MONTHS D19_TELKO_OFFLINE_DATUM_Value_INCREASE D19_TELKO_ONLINE_DATUM_Value_ACTIVITY_WITHIN_MONTHS D19_TELKO_ONLINE_DATUM_Value_INCREASE D19_VERSAND_DATUM_Value_ACTIVITY_WITHIN_MONTHS D19_VERSAND_DATUM_Value_INCREASE D19_VERSAND_OFFLINE_DATUM_Value_ACTIVITY_WITHIN_MONTHS D19_VERSAND_OFFLINE_DATUM_Value_INCREASE D19_VERSAND_ONLINE_DATUM_Value_ACTIVITY_WITHIN_MONTHS D19_VERSAND_ONLINE_DATUM_Value_INCREASE LP_FAMILIE_FEIN_Value_CHILD LP_FAMILIE_FEIN_Value_FAMILY LP_FAMILIE_FEIN_Value_GENERATIONAL LP_FAMILIE_GROB_Value_FAMILY LP_LEBENSPHASE_FEIN_Value_AGE LP_LEBENSPHASE_FEIN_Value_INCOME LP_LEBENSPHASE_FEIN_Value_OTHER LP_LEBENSPHASE_GROB_Value_AGE LP_LEBENSPHASE_GROB_Value_INCOME LP_STATUS_FEIN_Value_INCOME LP_STATUS_FEIN_Value_OTHER LP_STATUS_GROB_Value_INCOME PRAEGENDE_JUGENDJAHRE_Value_0 PRAEGENDE_JUGENDJAHRE_Value_2 PRAEGENDE_JUGENDJAHRE_Value_3 EINGEFUEGT_AM_Day EINGEFUEGT_AM_DayOfYear EINGEFUEGT_AM_DayOfWeek EINGEFUEGT_AM_DaysInMonth EINGEFUEGT_AM_IsMonthStart EINGEFUEGT_AM_IsMonthEnd EINGEFUEGT_AM_IsQuarterStart EINGEFUEGT_AM_IsQuarterEnd EINGEFUEGT_AM_IsYearStart EINGEFUEGT_AM_IsYearEnd EINGEFUEGT_AM_Season _isMissingUnknown_1 _isMissingUnknown_2 _isMissingUnknown_3 _isMissingUnknown_4 _isMissingUnknown_5 _isMissingUnknown_6 _isMissingUnknown_7 _isMissingUnknown_8 _isMissingUnknown_9 _isMissingUnknown_10 _isMissingUnknown_11 _isMissingUnknown_12 _isMissingUnknown_13 _isMissingUnknown_14 _isMissingUnknown_15 _isMissingUnknown_16 _isMissingUnknown_17 _isMissingUnknown_18 _isMissingUnknown_19 _isMissingUnknown_20 CAMEO_DEU_2015_1A CAMEO_DEU_2015_1B CAMEO_DEU_2015_1C CAMEO_DEU_2015_1D CAMEO_DEU_2015_1E CAMEO_DEU_2015_2A CAMEO_DEU_2015_2B CAMEO_DEU_2015_2C CAMEO_DEU_2015_2D CAMEO_DEU_2015_3A CAMEO_DEU_2015_3B CAMEO_DEU_2015_3C CAMEO_DEU_2015_3D CAMEO_DEU_2015_4A CAMEO_DEU_2015_4B CAMEO_DEU_2015_4C CAMEO_DEU_2015_4D CAMEO_DEU_2015_4E CAMEO_DEU_2015_5A CAMEO_DEU_2015_5B CAMEO_DEU_2015_5C CAMEO_DEU_2015_5D CAMEO_DEU_2015_5E CAMEO_DEU_2015_5F CAMEO_DEU_2015_6A CAMEO_DEU_2015_6B CAMEO_DEU_2015_6C CAMEO_DEU_2015_6D CAMEO_DEU_2015_6E CAMEO_DEU_2015_6F CAMEO_DEU_2015_7A CAMEO_DEU_2015_7B CAMEO_DEU_2015_7C CAMEO_DEU_2015_7D CAMEO_DEU_2015_7E CAMEO_DEU_2015_8A CAMEO_DEU_2015_8B CAMEO_DEU_2015_8C CAMEO_DEU_2015_8D CAMEO_DEU_2015_9A CAMEO_DEU_2015_9B CAMEO_DEU_2015_9C CAMEO_DEU_2015_9D CAMEO_DEU_2015_9E CAMEO_DEU_2015_XX D19_LETZTER_KAUF_BRANCHE_D19_BANKEN_DIREKT D19_LETZTER_KAUF_BRANCHE_D19_BANKEN_GROSS D19_LETZTER_KAUF_BRANCHE_D19_BANKEN_LOKAL D19_LETZTER_KAUF_BRANCHE_D19_BANKEN_REST D19_LETZTER_KAUF_BRANCHE_D19_BEKLEIDUNG_GEH D19_LETZTER_KAUF_BRANCHE_D19_BEKLEIDUNG_REST D19_LETZTER_KAUF_BRANCHE_D19_BILDUNG D19_LETZTER_KAUF_BRANCHE_D19_BIO_OEKO D19_LETZTER_KAUF_BRANCHE_D19_BUCH_CD D19_LETZTER_KAUF_BRANCHE_D19_DIGIT_SERV D19_LETZTER_KAUF_BRANCHE_D19_DROGERIEARTIKEL D19_LETZTER_KAUF_BRANCHE_D19_ENERGIE D19_LETZTER_KAUF_BRANCHE_D19_FREIZEIT D19_LETZTER_KAUF_BRANCHE_D19_GARTEN D19_LETZTER_KAUF_BRANCHE_D19_HANDWERK D19_LETZTER_KAUF_BRANCHE_D19_HAUS_DEKO D19_LETZTER_KAUF_BRANCHE_D19_KINDERARTIKEL D19_LETZTER_KAUF_BRANCHE_D19_KOSMETIK D19_LETZTER_KAUF_BRANCHE_D19_LEBENSMITTEL D19_LETZTER_KAUF_BRANCHE_D19_LOTTO D19_LETZTER_KAUF_BRANCHE_D19_NAHRUNGSERGAENZUNG D19_LETZTER_KAUF_BRANCHE_D19_RATGEBER D19_LETZTER_KAUF_BRANCHE_D19_REISEN D19_LETZTER_KAUF_BRANCHE_D19_SAMMELARTIKEL D19_LETZTER_KAUF_BRANCHE_D19_SCHUHE D19_LETZTER_KAUF_BRANCHE_D19_SONSTIGE D19_LETZTER_KAUF_BRANCHE_D19_TECHNIK D19_LETZTER_KAUF_BRANCHE_D19_TELKO_MOBILE D19_LETZTER_KAUF_BRANCHE_D19_TELKO_REST D19_LETZTER_KAUF_BRANCHE_D19_TIERARTIKEL D19_LETZTER_KAUF_BRANCHE_D19_UNBEKANNT D19_LETZTER_KAUF_BRANCHE_D19_VERSAND_REST D19_LETZTER_KAUF_BRANCHE_D19_VERSICHERUNGEN D19_LETZTER_KAUF_BRANCHE_D19_VOLLSORTIMENT D19_LETZTER_KAUF_BRANCHE_D19_WEIN_FEINKOST PRAEGENDE_JUGENDJAHRE_Value_1_FDJ_-_communist_party_youth_organisation PRAEGENDE_JUGENDJAHRE_Value_1_Generation_Golf PRAEGENDE_JUGENDJAHRE_Value_1_Swords_into_ploughshares PRAEGENDE_JUGENDJAHRE_Value_1_digital_media_kids PRAEGENDE_JUGENDJAHRE_Value_1_ecological_awareness PRAEGENDE_JUGENDJAHRE_Value_1_economic_miracle PRAEGENDE_JUGENDJAHRE_Value_1_family_orientation PRAEGENDE_JUGENDJAHRE_Value_1_generation_68_-_student_protestors PRAEGENDE_JUGENDJAHRE_Value_1_milk_bar_-_Individualisation PRAEGENDE_JUGENDJAHRE_Value_1_opponents_to_the_building_of_the_Wall PRAEGENDE_JUGENDJAHRE_Value_1_peace_movement PRAEGENDE_JUGENDJAHRE_Value_1_reconstruction_years PRAEGENDE_JUGENDJAHRE_Value_1_war_years
feature_infos=[-1:3] [-2:9] [2:18] [5:18] none none [-2:25] [0:353] [0:20] [0:6] [0:24] [-2:9] [-2:7] [-2:9] [-2:6] [-2:5] [-2:5] [-2:5] [-2:5] [-2:5] [-2:5] [-2:5] [0:6] [0:6] [0:7] [0:6] [0:7] [-2:10] [0:7] [0:7] [0:7] [0:7] [0:7] [0:7] [0:7] [0:7] [0:7] [0:7] [0:7] [0:6] [0:6] [-2:10] [0:7] [0:7] [0:7] [-2:9] [1:9] [0:7] [0:7] [-2:7] [0:7] [0:7] [0:7] [0:7] [0:7] [0:7] [-2:5] [0:7] [0:4] [0:5] [0:7] [-2:10] [0:7] [0:7] [0:6] [0:6] [-2:10] [0:7] [0:5] [0:6] [1:10] [1:10] none [-2:10] [0:7] [0:7] [0:7] [-1:3.30078125] [-2:6] [1:56] [1:5] [1:5] [1:5] [1:5] [1:5] [1:5] [1:6] [-2:5] [-2:8] [-2:5] [0:11.300000000000001] [11:50] [1:12] [0:1] [-1:3] [-2:1] [-2:6] [-2:8] [-2:4] [-2:5] [-2:5] [-2:5] [-2:3] [-2:4] [-2:4] [-2:3] [-2:2] [-2:5] [-2:5] [-2:5] [-2:5] [-2:5] [-2:4] [-2:4] [-2:5] [-2:5] [-2:5] [-2:5] [-2:5] [-2:5] [-2:5] [-2:5] [-2:5] [-2:5] [-2:3] [-2:3] [-2:3] [-2:5] [-2:5] [-2:4] [-2:5] [-2:4] [-2:5] [-2:4] [-2:3] [-2:4] [-2:5] [-2:5] [-2:5] [-2:3] [-2:6] [-2:4] [-2:3] [-2:3] [-2:4] [-2:5] [-2:5] [-2:5] [-2:4] [-2:1] [-2:3] [-2:3] [-2:3] [-2:5] [-2:5] [-2:5] [-2:5] [-2:5] [-2:5] [-2:5] [-2:4] [-2:4] [-2:3] [-2:2] [0:2300] [-2:5] [-2:5] [-2:5] [-2:5] [-2:5] [-2:5] [-2:5] [-2:5] [-2:5] [-2:5] [-2:5] [-2:5] [-2:5] [-2:5] [-2:5] [-2:5] [-2:5] [-2:5] [-2:5] [-2:5] [-2:5] [-2:5] [-2:5] [-2:5] [-2:5] [-2:5] [-2:5] [-2:5] [-2:5] [-2:5] [-2:5] [-2:5] [-2:5] [-2:5] [-2:5] [-2:5] [-2:5] [-2:5] [-2:5] [-2:5] [-2:5] [-2:5] [-2:5] [-2:5] [-2:5] [-2:5] [-2:5] [-2:3] [-2:5] [-2:5] [-2:5] [-2:5] [-2:5] [-2:3] [-2:5] [-2:5] [-2:5] [-2:5] [-2:3] [-2:3] [-2:3] [-2:3] [-2:5] [-2:5] [-2:5] [-2:5] [-2:3] [-2:5] [-2:5] [-2:5] [-2:5] [-2:5] [-2:5] [-2:5] [-2:5] [-2:5] [-2:4] [-2:5] [-2:5] [-2:5] [-2:5] [-2:5] [-2:5] [-2:5] [-2:5] [-2:5] [-2:5] [-2:5] [-2:5] [-2:5] [-2:5] [-2:5] [-2:5] [-2:5] [-2:5] [-2:5] [-2:5] [-2:5] [-2:5] [-2:5] [-2:5] [-2:5] [-2:5] [-2:5] [-2:5] [-2:6] [-2:4] [1:9] [-2:7] [-2:1] [-1:3.099609375] [-2:6] [-2:6] [-1:3] [-2:5] [-2:9] [-2:2] [-2:4] [-2:4] [-2:3] [-2:2] [-2:5] [-2:7] [-2:5] [-2:5] [-2:5] [-2:5] [-2:5] [1:7] [1:7] [1:7] [1:7] [1:7] [1:7] [1:7] [1:7] [1:7] [1:7] [1:7] [1:7] [1:7] [1:7] [-1:3] [-2:1] [-2:3] [-2:5] [-2:5] [-2:5] [-2:1] [0:45] [-1:2] [-2:5] [-2:4] [1:11] [1:13] [1:11] [-2:6] [-2:9] [-2:8] [1:6] [1:2] [1:9] [0:10.1015625] [-2:5] [-2:5] [0:5] [0:5] [0:5] [0:5] [0:5] [0:5] [0:5] [0:5] [0:5] [0:5] [0:5] [0:5] [0:5] [0:5] [0:5] [0:5] [0:5] none [0:5] [0:5] [0:5] [0:5] [0:5] [0:5] [-2:3] [-2:8] [-2:3] [-2:4] [-2:5] [-2:7] none [-2:3] [-2:4] [-2:7] [-2:8] [-2:2] [-1:6] [-1:2] [-1:3] [1:31] [2:365] [-2:6] [28:31] [0:1] none none none none none [0:3] [-2.2083146064174635:14.259193305521343] [-5.9007107396731966:6.1135041603235534] [-6.3144945203165612:6.0770542173820825] [-2.616796517584147:8.1530105039188836] [-3.0540729225044014:7.3736377913611442] [-1.5481024585681533:5.7935991918011727] [-1.8367647932651929:3.5991429413803937] [-3.1529604240351721:3.0947390738493477] [-0.98093477921175021:0.9713992095496804] [-0.98049511908664311:1.7887197137894397] [-1.6232912618877773:1.7401795814018106] [-1.5320520748853079:2.4835398028808431] [-1.2020469363457102:1.1916233369037497] [-0.90516040822178256:3.9969032047591613] [-1.4306446823096799:1.4613847047569262] [-1.0406915982371046:1.8634039434443368] [-2.7853555493882616:2.7983459793283725] [-1.2829023721743935:1.2047446795853012] [-1.4705490182854528:1.9169812592173574] [-1.2114417118988876:1.7305862506292544] [0:1] none none [0:1] none [0:1] [0:1] [0:1] [0:1] none none [0:1] [0:1] [0:1] [0:1] [0:1] [0:1] none [0:1] [0:1] [0:1] [0:1] none none none [0:1] [0:1] [0:1] [0:1] [0:1] [0:1] [0:1] none none [0:1] [0:1] [0:1] [0:1] [0:1] [0:1] [0:1] [0:1] [0:1] none none [0:1] [0:1] none none [0:1] [0:1] none none [0:1] none [0:1] [0:1] [0:1] none none [0:1] none none [0:1] none [0:1] none none [0:1] [0:1] [0:1] none [0:1] [0:1] none [0:1] [0:1] [0:1] [0:1] none none [0:1] none [0:1] [0:1] [0:1] [0:1] [0:1] [0:1] [0:1] [0:1] [0:1] [0:1]
tree_sizes=264 279 278 277 278 278 278 278 278 278 279 278 278 279 279 278 280 278 279 279 279 279 280 279 279 281 280 279 278 279 279 279 279 279 279 279 279 278 279 280

Tree=0
num_leaves=2
num_cat=0
split_feature=56
split_gain=145097
threshold=1.5000000000000002
decision_type=2
left_child=-1
right_child=-2
leaf_value=-4.3729902498052589 -4.376928120335652
leaf_count=22787 12011
internal_value=0
internal_count=34798
shrinkage=1


Tree=1
num_leaves=2
num_cat=0
split_feature=46
split_gain=89026.5
threshold=2.5000000000000004
decision_type=2
left_child=-1
right_child=-2
leaf_value=0.0059100390394142832 0.0033166362359356911
leaf_count=16735 18063
internal_value=0
internal_count=34798
shrinkage=0.00012312


Tree=2
num_leaves=2
num_cat=0
split_feature=45
split_gain=66401.4
threshold=3.5000000000000004
decision_type=2
left_child=-1
right_child=-2
leaf_value=0.0053312771775975414 0.0023386449849608412
leaf_count=26531 8267
internal_value=0
internal_count=34798
shrinkage=0.00012312


Tree=3
num_leaves=2
num_cat=0
split_feature=56
split_gain=141769
threshold=1.5000000000000002
decision_type=2
left_child=-1
right_child=-2
leaf_value=0.0056648601185650196 0.001795164285597425
leaf_count=22787 12011
internal_value=0
internal_count=34798
shrinkage=0.00012312


Tree=4
num_leaves=2
num_cat=0
split_feature=56
split_gain=140043
threshold=1.5000000000000002
decision_type=2
left_child=-1
right_child=-2
leaf_value=0.0056329947456254994 0.0017918139114673668
leaf_count=22787 12011
internal_value=0
internal_count=34798
shrinkage=0.00012312


Tree=5
num_leaves=2
num_cat=0
split_feature=56
split_gain=138345
threshold=1.5000000000000002
decision_type=2
left_child=-1
right_child=-2
leaf_value=0.0056014866712545798 0.0017884756922937645
leaf_count=22787 12011
internal_value=0
internal_count=34798
shrinkage=0.00012312


Tree=6
num_leaves=2
num_cat=0
split_feature=56
split_gain=136676
threshold=1.5000000000000002
decision_type=2
left_child=-1
right_child=-2
leaf_value=0.0055703295414249107 0.0017851496347070217
leaf_count=22787 12011
internal_value=0
internal_count=34798
shrinkage=0.00012312


Tree=7
num_leaves=2
num_cat=0
split_feature=45
split_gain=64084.5
threshold=3.5000000000000004
decision_type=2
left_child=-1
right_child=-2
leaf_value=0.0052010767864237827 0.0022909606863668161
leaf_count=26531 8267
internal_value=0
internal_count=34798
shrinkage=0.00012312


Tree=8
num_leaves=2
num_cat=0
split_feature=56
split_gain=134348
threshold=1.5000000000000002
decision_type=2
left_child=-1
right_child=-2
leaf_value=0.0055131354162705004 0.0017734316993355526
leaf_count=22787 12011
internal_value=0
internal_count=34798
shrinkage=0.00012312


Tree=9
num_leaves=2
num_cat=0
split_feature=56
split_gain=132751
threshold=1.5000000000000002
decision_type=2
left_child=-1
right_child=-2
leaf_value=0.0054829537751598708 0.0017701600948608828
leaf_count=22787 12011
internal_value=0
internal_count=34798
shrinkage=0.00012312


Tree=10
num_leaves=2
num_cat=0
split_feature=56
split_gain=131179
threshold=1.5000000000000002
decision_type=2
left_child=-1
right_child=-2
leaf_value=0.0054531013752450175 0.0017669002323478745
leaf_count=22787 12011
internal_value=0
internal_count=34798
shrinkage=0.00012312


Tree=11
num_leaves=2
num_cat=0
split_feature=56
split_gain=129634
threshold=1.5000000000000002
decision_type=2
left_child=-1
right_child=-2
leaf_value=0.005423573597885885 0.0017636520785658128
leaf_count=22787 12011
internal_value=0
internal_count=34798
shrinkage=0.00012312


Tree=12
num_leaves=2
num_cat=0
split_feature=56
split_gain=128114
threshold=1.5000000000000002
decision_type=2
left_child=-1
right_child=-2
leaf_value=0.0053943644083946102 0.001760415552030339
leaf_count=22787 12011
internal_value=0
internal_count=34798
shrinkage=0.00012312


Tree=13
num_leaves=2
num_cat=0
split_feature=56
split_gain=126618
threshold=1.5000000000000002
decision_type=2
left_child=-1
right_child=-2
leaf_value=0.0053654686106776091 0.0017571907132373809
leaf_count=22787 12011
internal_value=0
internal_count=34798
shrinkage=0.00012312


Tree=14
num_leaves=2
num_cat=0
split_feature=56
split_gain=125147
threshold=1.5000000000000002
decision_type=2
left_child=-1
right_child=-2
leaf_value=0.0053368819936664546 0.0017539773000519166
leaf_count=22787 12011
internal_value=0
internal_count=34798
shrinkage=0.00012312


Tree=15
num_leaves=2
num_cat=0
split_feature=56
split_gain=123699
threshold=1.5000000000000002
decision_type=2
left_child=-1
right_child=-2
leaf_value=0.005308599064234725 0.0017507755052956068
leaf_count=22787 12011
internal_value=0
internal_count=34798
shrinkage=0.00012312


Tree=16
num_leaves=2
num_cat=0
split_feature=46
split_gain=80466.7
threshold=2.5000000000000004
decision_type=2
left_child=-1
right_child=-2
leaf_value=0.0054884284295857316 0.0031045724172256242
leaf_count=16735 18063
internal_value=0
internal_count=34798
shrinkage=0.00012312


Tree=17
num_leaves=2
num_cat=0
split_feature=56
split_gain=121646
threshold=1.5000000000000002
decision_type=2
left_child=-1
right_child=-2
leaf_value=0.005256360148121423 0.0017398691286426603
leaf_count=22787 12011
internal_value=0
internal_count=34798
shrinkage=0.00012312


Tree=18
num_leaves=2
num_cat=0
split_feature=390
split_gain=16539.1
threshold=0.3070090200266285
decision_type=2
left_child=-1
right_child=-2
leaf_value=0.004676403318997044 0.0028415306791265125
leaf_count=30385 4413
internal_value=0
internal_count=34798
shrinkage=0.00012312


Tree=19
num_leaves=2
num_cat=0
split_feature=56
split_gain=119714
threshold=1.5000000000000002
decision_type=2
left_child=-1
right_child=-2
leaf_value=0.0052054330956368012 0.0017287055821984714
leaf_count=22787 12011
internal_value=0
internal_count=34798
shrinkage=0.00012312


Tree=20
num_leaves=2
num_cat=0
split_feature=56
split_gain=118360
threshold=1.5000000000000002
decision_type=2
left_child=-1
right_child=-2
leaf_value=0.0051785262709438699 0.0017255931153260058
leaf_count=22787 12011
internal_value=0
internal_count=34798
shrinkage=0.00012312


Tree=21
num_leaves=2
num_cat=0
split_feature=45
split_gain=58913.2
threshold=3.5000000000000004
decision_type=2
left_child=-1
right_child=-2
leaf_value=0.0048711530729113597 0.0021599963683516556
leaf_count=26531 8267
internal_value=0
internal_count=34798
shrinkage=0.00012312


Tree=22
num_leaves=2
num_cat=0
split_feature=46
split_gain=77220.7
threshold=2.5000000000000004
decision_type=2
left_child=-1
right_child=-2
leaf_value=0.0053344288018376705 0.0030286916424174738
leaf_count=16735 18063
internal_value=0
internal_count=34798
shrinkage=0.00012312


Tree=23
num_leaves=2
num_cat=0
split_feature=56
split_gain=115887
threshold=1.5000000000000002
decision_type=2
left_child=-1
right_child=-2
leaf_value=0.0051059762918267823 0.0017074822626910492
leaf_count=22787 12011
internal_value=0
internal_count=34798
shrinkage=0.00012312


Tree=24
num_leaves=2
num_cat=0
split_feature=56
split_gain=114600
threshold=1.5000000000000002
decision_type=2
left_child=-1
right_child=-2
leaf_value=0.0050800875792721316 0.0017044438945464319
leaf_count=22787 12011
internal_value=0
internal_count=34798
shrinkage=0.00012312


Tree=25
num_leaves=2
num_cat=0
split_feature=291
split_gain=32244.9
threshold=4.5000000000000009
decision_type=2
left_child=-1
right_child=-2
leaf_value=0.0033706137302512147 0.0048987935688094703
leaf_count=14978 19820
internal_value=0
internal_count=34798
shrinkage=0.00012312


Tree=26
num_leaves=2
num_cat=0
split_feature=46
split_gain=75045.7
threshold=2.5000000000000004
decision_type=2
left_child=-1
right_child=-2
leaf_value=0.0052354447521338904 0.0029810558900978529
leaf_count=16735 18063
internal_value=0
internal_count=34798
shrinkage=0.00012312


Tree=27
num_leaves=2
num_cat=0
split_feature=45
split_gain=56519.3
threshold=3.5000000000000004
decision_type=2
left_child=-1
right_child=-2
leaf_value=0.0047402154265362767 0.0021133228518838447
leaf_count=26531 8267
internal_value=0
internal_count=34798
shrinkage=0.00012312


Tree=28
num_leaves=2
num_cat=0
split_feature=56
split_gain=111687
threshold=1.5000000000000002
decision_type=2
left_child=-1
right_child=-2
leaf_value=0.0049882474062313579 0.001679798235849502
leaf_count=22787 12011
internal_value=0
internal_count=34798
shrinkage=0.00012312


Tree=29
num_leaves=2
num_cat=0
split_feature=56
split_gain=110473
threshold=1.5000000000000002
decision_type=2
left_child=-1
right_child=-2
leaf_value=0.0049635394534080475 0.0016768553314848802
leaf_count=22787 12011
internal_value=0
internal_count=34798
shrinkage=0.00012312


Tree=30
num_leaves=2
num_cat=0
split_feature=56
split_gain=109278
threshold=1.5000000000000002
decision_type=2
left_child=-1
right_child=-2
leaf_value=0.0049390756314783334 0.0016739224109506535
leaf_count=22787 12011
internal_value=0
internal_count=34798
shrinkage=0.00012312


Tree=31
num_leaves=2
num_cat=0
split_feature=56
split_gain=108100
threshold=1.5000000000000002
decision_type=2
left_child=-1
right_child=-2
leaf_value=0.0049148524328715779 0.0016709995641388279
leaf_count=22787 12011
internal_value=0
internal_count=34798
shrinkage=0.00012312


Tree=32
num_leaves=2
num_cat=0
split_feature=56
split_gain=106940
threshold=1.5000000000000002
decision_type=2
left_child=-1
right_child=-2
leaf_value=0.0048908662672635167 0.0016680865899971751
leaf_count=22787 12011
internal_value=0
internal_count=34798
shrinkage=0.00012312


Tree=33
num_leaves=2
num_cat=0
split_feature=56
split_gain=105797
threshold=1.5000000000000002
decision_type=2
left_child=-1
right_child=-2
leaf_value=0.0048671136881146783 0.0016651835346176203
leaf_count=22787 12011
internal_value=0
internal_count=34798
shrinkage=0.00012312


Tree=34
num_leaves=2
num_cat=0
split_feature=56
split_gain=104671
threshold=1.5000000000000002
decision_type=2
left_child=-1
right_child=-2
leaf_value=0.0048435913025262111 0.0016622902818232465
leaf_count=22787 12011
internal_value=0
internal_count=34798
shrinkage=0.00012312


Tree=35
num_leaves=2
num_cat=0
split_feature=56
split_gain=103561
threshold=1.5000000000000002
decision_type=2
left_child=-1
right_child=-2
leaf_value=0.0048202960937123555 0.0016594068789636267
leaf_count=22787 12011
internal_value=0
internal_count=34798
shrinkage=0.00012312


Tree=36
num_leaves=2
num_cat=0
split_feature=56
split_gain=102468
threshold=1.5000000000000002
decision_type=2
left_child=-1
right_child=-2
leaf_value=0.0047972241559318465 0.0016565332382982541
leaf_count=22787 12011
internal_value=0
internal_count=34798
shrinkage=0.00012312


Tree=37
num_leaves=2
num_cat=0
split_feature=46
split_gain=70155
threshold=2.5000000000000004
decision_type=2
left_child=-1
right_child=-2
leaf_value=0.0049854922858693041 0.0028536329245320248
leaf_count=16735 18063
internal_value=0
internal_count=34798
shrinkage=0.00012312


Tree=38
num_leaves=2
num_cat=0
split_feature=56
split_gain=100916
threshold=1.5000000000000002
decision_type=2
left_child=-1
right_child=-2
leaf_value=0.0047543789409474138 0.0016469812126776442
leaf_count=22787 12011
internal_value=0
internal_count=34798
shrinkage=0.00012312


Tree=39
num_leaves=2
num_cat=0
split_feature=56
split_gain=99864.3
threshold=1.5000000000000002
decision_type=2
left_child=-1
right_child=-2
leaf_value=0.0047319339234358927 0.0016441494057706982
leaf_count=22787 12011
internal_value=0
internal_count=34798
shrinkage=0.00012312



feature importances:
D19_SOZIALES=29
D19_KONSUMTYP_MAX=5
D19_KONSUMTYP=4
RT_SCHNAEPPCHEN=1
_isMissingUnknown_11=1

pandas_categorical:[]
