tree
version=v2
num_class=1
num_tree_per_iteration=1
label_index=0
max_feature_idx=492
objective=binary sigmoid:1
feature_names=AGER_TYP AKT_DAT_KL ALTER_KIND1 ALTER_KIND2 ALTER_KIND3 ALTER_KIND4 ALTERSKATEGORIE_FEIN ANZ_HAUSHALTE_AKTIV ANZ_HH_TITEL ANZ_KINDER ANZ_PERSONEN ARBEIT BALLRAUM CAMEO_DEUG_2015 CJT_GESAMTTYP CJT_KATALOGNUTZER CJT_TYP_1 CJT_TYP_2 CJT_TYP_3 CJT_TYP_4 CJT_TYP_5 CJT_TYP_6 D19_BANKEN_ANZ_12 D19_BANKEN_ANZ_24 D19_BANKEN_DIREKT D19_BANKEN_GROSS D19_BANKEN_LOKAL D19_BANKEN_ONLINE_QUOTE_12 D19_BANKEN_REST D19_BEKLEIDUNG_GEH D19_BEKLEIDUNG_REST D19_BILDUNG D19_BIO_OEKO D19_BUCH_CD D19_DIGIT_SERV D19_DROGERIEARTIKEL D19_ENERGIE D19_FREIZEIT D19_GARTEN D19_GESAMT_ANZ_12 D19_GESAMT_ANZ_24 D19_GESAMT_ONLINE_QUOTE_12 D19_HANDWERK D19_HAUS_DEKO D19_KINDERARTIKEL D19_KONSUMTYP D19_KONSUMTYP_MAX D19_KOSMETIK D19_LEBENSMITTEL D19_LOTTO D19_NAHRUNGSERGAENZUNG D19_RATGEBER D19_REISEN D19_SAMMELARTIKEL D19_SCHUHE D19_SONSTIGE D19_SOZIALES D19_TECHNIK D19_TELKO_ANZ_12 D19_TELKO_ANZ_24 D19_TELKO_MOBILE D19_TELKO_ONLINE_QUOTE_12 D19_TELKO_REST D19_TIERARTIKEL D19_VERSAND_ANZ_12 D19_VERSAND_ANZ_24 D19_VERSAND_ONLINE_QUOTE_12 D19_VERSAND_REST D19_VERSI_ANZ_12 D19_VERSI_ANZ_24 D19_VERSI_DATUM D19_VERSI_OFFLINE_DATUM D19_VERSI_ONLINE_DATUM D19_VERSI_ONLINE_QUOTE_12 D19_VERSICHERUNGEN D19_VOLLSORTIMENT D19_WEIN_FEINKOST EINGEZOGENAM_HH_JAHR EWDICHTE EXTSEL992 FINANZ_ANLEGER FINANZ_HAUSBAUER FINANZ_MINIMALIST FINANZ_SPARER FINANZ_UNAUFFAELLIGER FINANZ_VORSORGER FINANZTYP FIRMENDICHTE GEBAEUDETYP GEBAEUDETYP_RASTER GEBURTSJAHR GEMEINDETYP GFK_URLAUBERTYP GREEN_AVANTGARDE HEALTH_TYP HH_DELTA_FLAG HH_EINKOMMEN_SCORE INNENSTADT KBA05_ALTER1 KBA05_ALTER2 KBA05_ALTER3 KBA05_ALTER4 KBA05_ANHANG KBA05_ANTG1 KBA05_ANTG2 KBA05_ANTG3 KBA05_ANTG4 KBA05_AUTOQUOT KBA05_BAUMAX KBA05_CCM1 KBA05_CCM2 KBA05_CCM3 KBA05_CCM4 KBA05_DIESEL KBA05_FRAU KBA05_GBZ KBA05_HERST1 KBA05_HERST4 KBA05_HERST5 KBA05_HERSTTEMP KBA05_KRSAQUOT KBA05_KRSHERST1 KBA05_KRSHERST2 KBA05_KRSHERST3 KBA05_KRSOBER KBA05_KRSVAN KBA05_KRSZUL KBA05_KW1 KBA05_KW2 KBA05_KW3 KBA05_MAXAH KBA05_MAXBJ KBA05_MAXHERST KBA05_MAXSEG KBA05_MAXVORB KBA05_MOD1 KBA05_MOD2 KBA05_MOD3 KBA05_MOD4 KBA05_MOD8 KBA05_MODTEMP KBA05_MOTOR KBA05_MOTRAD KBA05_SEG1 KBA05_SEG10 KBA05_SEG2 KBA05_SEG3 KBA05_SEG4 KBA05_SEG5 KBA05_SEG6 KBA05_SEG7 KBA05_SEG8 KBA05_SEG9 KBA05_VORB0 KBA05_VORB1 KBA05_VORB2 KBA05_ZUL1 KBA05_ZUL2 KBA05_ZUL3 KBA05_ZUL4 KBA13_ANTG1 KBA13_ANTG2 KBA13_ANTG3 KBA13_ANTG4 KBA13_ANZAHL_PKW KBA13_AUDI KBA13_AUTOQUOTE KBA13_BAUMAX KBA13_BJ_1999 KBA13_BJ_2000 KBA13_BJ_2004 KBA13_BJ_2006 KBA13_BJ_2008 KBA13_BJ_2009 KBA13_BMW KBA13_CCM_0_1400 KBA13_CCM_1000 KBA13_CCM_1200 KBA13_CCM_1400 KBA13_CCM_1401_2500 KBA13_CCM_1500 KBA13_CCM_1600 KBA13_CCM_1800 KBA13_CCM_2000 KBA13_CCM_2500 KBA13_CCM_2501 KBA13_CCM_3000 KBA13_CCM_3001 KBA13_FAB_ASIEN KBA13_FAB_SONSTIGE KBA13_FIAT KBA13_FORD KBA13_GBZ KBA13_HALTER_20 KBA13_HALTER_25 KBA13_HALTER_30 KBA13_HALTER_35 KBA13_HALTER_40 KBA13_HALTER_45 KBA13_HALTER_50 KBA13_HALTER_55 KBA13_HALTER_60 KBA13_HALTER_65 KBA13_HALTER_66 KBA13_HERST_ASIEN KBA13_HERST_AUDI_VW KBA13_HERST_BMW_BENZ KBA13_HERST_EUROPA KBA13_HERST_FORD_OPEL KBA13_HERST_SONST KBA13_HHZ KBA13_KMH_0_140 KBA13_KMH_110 KBA13_KMH_140 KBA13_KMH_140_210 KBA13_KMH_180 KBA13_KMH_210 KBA13_KMH_250 KBA13_KMH_251 KBA13_KRSAQUOT KBA13_KRSHERST_AUDI_VW KBA13_KRSHERST_BMW_BENZ KBA13_KRSHERST_FORD_OPEL KBA13_KRSSEG_KLEIN KBA13_KRSSEG_OBER KBA13_KRSSEG_VAN KBA13_KRSZUL_NEU KBA13_KW_0_60 KBA13_KW_110 KBA13_KW_120 KBA13_KW_121 KBA13_KW_30 KBA13_KW_40 KBA13_KW_50 KBA13_KW_60 KBA13_KW_61_120 KBA13_KW_70 KBA13_KW_80 KBA13_KW_90 KBA13_MAZDA KBA13_MERCEDES KBA13_MOTOR KBA13_NISSAN KBA13_OPEL KBA13_PEUGEOT KBA13_RENAULT KBA13_SEG_GELAENDEWAGEN KBA13_SEG_KLEINST KBA13_SEG_KLEINWAGEN KBA13_SEG_KOMPAKTKLASSE KBA13_SEG_MINIVANS KBA13_SEG_MINIWAGEN KBA13_SEG_MITTELKLASSE KBA13_SEG_OBEREMITTELKLASSE KBA13_SEG_OBERKLASSE KBA13_SEG_SONSTIGE KBA13_SEG_SPORTWAGEN KBA13_SEG_UTILITIES KBA13_SEG_VAN KBA13_SEG_WOHNMOBILE KBA13_SITZE_4 KBA13_SITZE_5 KBA13_SITZE_6 KBA13_TOYOTA KBA13_VORB_0 KBA13_VORB_1 KBA13_VORB_1_2 KBA13_VORB_2 KBA13_VORB_3 KBA13_VW KK_KUNDENTYP KKK KOMBIALTER KONSUMNAEHE KONSUMZELLE MIN_GEBAEUDEJAHR MOBI_RASTER MOBI_REGIO NATIONALITAET_KZ ONLINE_AFFINITAET ORTSGR_KLS9 OST_WEST_KZ PLZ8_ANTG1 PLZ8_ANTG2 PLZ8_ANTG3 PLZ8_ANTG4 PLZ8_BAUMAX REGIOTYP RELAT_AB RETOURTYP_BK_S RT_KEIN_ANREIZ RT_SCHNAEPPCHEN RT_UEBERGROESSE SEMIO_DOM SEMIO_ERL SEMIO_FAM SEMIO_KAEM SEMIO_KRIT SEMIO_KULT SEMIO_LUST SEMIO_MAT SEMIO_PFLICHT SEMIO_RAT SEMIO_REL SEMIO_SOZ SEMIO_TRADV SEMIO_VERT SHOPPER_TYP SOHO_KZ STRUKTURTYP TITEL_KZ UMFELD_ALT UMFELD_JUNG UNGLEICHENN_FLAG VERDICHTUNGSRAUM VERS_TYP VHA VHN VK_DHT4A VK_DISTANZ VK_ZG11 W_KEIT_KIND_HH WOHNDAUER_2008 WOHNLAGE ZABEOTYP ANREDE_KZ ALTERSKATEGORIE_GROB ALTER_HH_Value_0 CAMEO_DEUINTL_2015_Value_0 CAMEO_DEUINTL_2015_Value_1 D19_BANKEN_DATUM_Value_ACTIVITY_WITHIN_MONTHS D19_BANKEN_DATUM_Value_INCREASE D19_BANKEN_OFFLINE_DATUM_Value_ACTIVITY_WITHIN_MONTHS D19_BANKEN_OFFLINE_DATUM_Value_INCREASE D19_BANKEN_ONLINE_DATUM_Value_ACTIVITY_WITHIN_MONTHS D19_BANKEN_ONLINE_DATUM_Value_INCREASE D19_GESAMT_DATUM_Value_ACTIVITY_WITHIN_MONTHS D19_GESAMT_DATUM_Value_INCREASE D19_GESAMT_OFFLINE_DATUM_Value_ACTIVITY_WITHIN_MONTHS D19_GESAMT_OFFLINE_DATUM_Value_INCREASE D19_GESAMT_ONLINE_DATUM_Value_ACTIVITY_WITHIN_MONTHS D19_GESAMT_ONLINE_DATUM_Value_INCREASE D19_TELKO_DATUM_Value_ACTIVITY_WITHIN_MONTHS D19_TELKO_DATUM_Value_INCREASE D19_TELKO_OFFLINE_DATUM_Value_ACTIVITY_WITHIN_MONTHS D19_TELKO_OFFLINE_DATUM_Value_INCREASE D19_TELKO_ONLINE_DATUM_Value_ACTIVITY_WITHIN_MONTHS D19_TELKO_ONLINE_DATUM_Value_INCREASE D19_VERSAND_DATUM_Value_ACTIVITY_WITHIN_MONTHS D19_VERSAND_DATUM_Value_INCREASE D19_VERSAND_OFFLINE_DATUM_Value_ACTIVITY_WITHIN_MONTHS D19_VERSAND_OFFLINE_DATUM_Value_INCREASE D19_VERSAND_ONLINE_DATUM_Value_ACTIVITY_WITHIN_MONTHS D19_VERSAND_ONLINE_DATUM_Value_INCREASE LP_FAMILIE_FEIN_Value_CHILD LP_FAMILIE_FEIN_Value_FAMILY LP_FAMILIE_FEIN_Value_GENERATIONAL LP_FAMILIE_GROB_Value_FAMILY LP_LEBENSPHASE_FEIN_Value_AGE LP_LEBENSPHASE_FEIN_Value_INCOME LP_LEBENSPHASE_FEIN_Value_OTHER LP_LEBENSPHASE_GROB_Value_AGE LP_LEBENSPHASE_GROB_Value_INCOME LP_STATUS_FEIN_Value_INCOME LP_STATUS_FEIN_Value_OTHER LP_STATUS_GROB_Value_INCOME PRAEGENDE_JUGENDJAHRE_Value_0 PRAEGENDE_JUGENDJAHRE_Value_2 PRAEGENDE_JUGENDJAHRE_Value_3 EINGEFUEGT_AM_Day EINGEFUEGT_AM_DayOfYear EINGEFUEGT_AM_DayOfWeek EINGEFUEGT_AM_DaysInMonth EINGEFUEGT_AM_IsMonthStart EINGEFUEGT_AM_IsMonthEnd EINGEFUEGT_AM_IsQuarterStart EINGEFUEGT_AM_IsQuarterEnd EINGEFUEGT_AM_IsYearStart EINGEFUEGT_AM_IsYearEnd EINGEFUEGT_AM_Season _isMissingUnknown_1 _isMissingUnknown_2 _isMissingUnknown_3 _isMissingUnknown_4 _isMissingUnknown_5 _isMissingUnknown_6 _isMissingUnknown_7 _isMissingUnknown_8 _isMissingUnknown_9 _isMissingUnknown_10 _isMissingUnknown_11 _isMissingUnknown_12 _isMissingUnknown_13 _isMissingUnknown_14 _isMissingUnknown_15 _isMissingUnknown_16 _isMissingUnknown_17 _isMissingUnknown_18 _isMissingUnknown_19 _isMissingUnknown_20 CAMEO_DEU_2015_1A CAMEO_DEU_2015_1B CAMEO_DEU_2015_1C CAMEO_DEU_2015_1D CAMEO_DEU_2015_1E CAMEO_DEU_2015_2A CAMEO_DEU_2015_2B CAMEO_DEU_2015_2C CAMEO_DEU_2015_2D CAMEO_DEU_2015_3A CAMEO_DEU_2015_3B CAMEO_DEU_2015_3C CAMEO_DEU_2015_3D CAMEO_DEU_2015_4A CAMEO_DEU_2015_4B CAMEO_DEU_2015_4C CAMEO_DEU_2015_4D CAMEO_DEU_2015_4E CAMEO_DEU_2015_5A CAMEO_DEU_2015_5B CAMEO_DEU_2015_5C CAMEO_DEU_2015_5D CAMEO_DEU_2015_5E CAMEO_DEU_2015_5F CAMEO_DEU_2015_6A CAMEO_DEU_2015_6B CAMEO_DEU_2015_6C CAMEO_DEU_2015_6D CAMEO_DEU_2015_6E CAMEO_DEU_2015_6F CAMEO_DEU_2015_7A CAMEO_DEU_2015_7B CAMEO_DEU_2015_7C CAMEO_DEU_2015_7D CAMEO_DEU_2015_7E CAMEO_DEU_2015_8A CAMEO_DEU_2015_8B CAMEO_DEU_2015_8C CAMEO_DEU_2015_8D CAMEO_DEU_2015_9A CAMEO_DEU_2015_9B CAMEO_DEU_2015_9C CAMEO_DEU_2015_9D CAMEO_DEU_2015_9E CAMEO_DEU_2015_XX D19_LETZTER_KAUF_BRANCHE_D19_BANKEN_DIREKT D19_LETZTER_KAUF_BRANCHE_D19_BANKEN_GROSS D19_LETZTER_KAUF_BRANCHE_D19_BANKEN_LOKAL D19_LETZTER_KAUF_BRANCHE_D19_BANKEN_REST D19_LETZTER_KAUF_BRANCHE_D19_BEKLEIDUNG_GEH D19_LETZTER_KAUF_BRANCHE_D19_BEKLEIDUNG_REST D19_LETZTER_KAUF_BRANCHE_D19_BILDUNG D19_LETZTER_KAUF_BRANCHE_D19_BIO_OEKO D19_LETZTER_KAUF_BRANCHE_D19_BUCH_CD D19_LETZTER_KAUF_BRANCHE_D19_DIGIT_SERV D19_LETZTER_KAUF_BRANCHE_D19_DROGERIEARTIKEL D19_LETZTER_KAUF_BRANCHE_D19_ENERGIE D19_LETZTER_KAUF_BRANCHE_D19_FREIZEIT D19_LETZTER_KAUF_BRANCHE_D19_GARTEN D19_LETZTER_KAUF_BRANCHE_D19_HANDWERK D19_LETZTER_KAUF_BRANCHE_D19_HAUS_DEKO D19_LETZTER_KAUF_BRANCHE_D19_KINDERARTIKEL D19_LETZTER_KAUF_BRANCHE_D19_KOSMETIK D19_LETZTER_KAUF_BRANCHE_D19_LEBENSMITTEL D19_LETZTER_KAUF_BRANCHE_D19_LOTTO D19_LETZTER_KAUF_BRANCHE_D19_NAHRUNGSERGAENZUNG D19_LETZTER_KAUF_BRANCHE_D19_RATGEBER D19_LETZTER_KAUF_BRANCHE_D19_REISEN D19_LETZTER_KAUF_BRANCHE_D19_SAMMELARTIKEL D19_LETZTER_KAUF_BRANCHE_D19_SCHUHE D19_LETZTER_KAUF_BRANCHE_D19_SONSTIGE D19_LETZTER_KAUF_BRANCHE_D19_TECHNIK D19_LETZTER_KAUF_BRANCHE_D19_TELKO_MOBILE D19_LETZTER_KAUF_BRANCHE_D19_TELKO_REST D19_LETZTER_KAUF_BRANCHE_D19_TIERARTIKEL D19_LETZTER_KAUF_BRANCHE_D19_UNBEKANNT D19_LETZTER_KAUF_BRANCHE_D19_VERSAND_REST D19_LETZTER_KAUF_BRANCHE_D19_VERSICHERUNGEN D19_LETZTER_KAUF_BRANCHE_D19_VOLLSORTIMENT D19_LETZTER_KAUF_BRANCHE_D19_WEIN_FEINKOST PRAEGENDE_JUGENDJAHRE_Value_1_FDJ_-_communist_party_youth_organisation PRAEGENDE_JUGENDJAHRE_Value_1_Generation_Golf PRAEGENDE_JUGENDJAHRE_Value_1_Swords_into_ploughshares PRAEGENDE_JUGENDJAHRE_Value_1_digital_media_kids PRAEGENDE_JUGENDJAHRE_Value_1_ecological_awareness PRAEGENDE_JUGENDJAHRE_Value_1_economic_miracle PRAEGENDE_JUGENDJAHRE_Value_1_family_orientation PRAEGENDE_JUGENDJAHRE_Value_1_generation_68_-_student_protestors PRAEGENDE_JUGENDJAHRE_Value_1_milk_bar_-_Individualisation PRAEGENDE_JUGENDJAHRE_Value_1_opponents_to_the_building_of_the_Wall PRAEGENDE_JUGENDJAHRE_Value_1_peace_movement PRAEGENDE_JUGENDJAHRE_Value_1_reconstruction_years PRAEGENDE_JUGENDJAHRE_Value_1_war_years
feature_infos=[-1:3] [-2:9] [2:18] [5:18] none none [-2:25] [0:353] [0:20] [0:6] [0:24] [-2:9] [-2:7] [-2:9] [-2:6] [-2:5] [-2:5] [-2:5] [-2:5] [-2:5] [-2:5] [-2:5] [0:6] [0:6] [0:7] [0:6] [0:7] [-2:10] [0:7] [0:7] [0:7] [0:7] [0:7] [0:7] [0:7] [0:7] [0:7] [0:7] [0:7] [0:6] [0:6] [-2:10] [0:7] [0:7] [0:7] [-2:9] [1:9] [0:7] [0:7] [-2:7] [0:7] [0:7] [0:7] [0:7] [0:7] [0:7] [-2:5] [0:7] [0:5] [0:5] [0:7] [-2:10] [0:7] [0:7] [0:6] [0:6] [-2:10] [0:7] [0:5] [0:5] [1:10] [1:10] none [-2:10] [0:7] [0:7] [0:7] [-1:3.30078125] [-2:6] [1:56] [1:5] [1:5] [1:5] [1:5] [1:5] [1:5] [1:6] [-2:5] [-2:8] [-2:5] [0:11.300000000000001] [11:50] [1:12] [0:1] [-1:3] [-2:1] [-2:6] [-2:8] [-2:4] [-2:5] [-2:5] [-2:5] [-2:3] [-2:4] [-2:4] [-2:3] [-2:2] [-2:5] [-2:5] [-2:5] [-2:5] [-2:5] [-2:4] [-2:4] [-2:5] [-2:5] [-2:5] [-2:5] [-2:5] [-2:5] [-2:5] [-2:5] [-2:5] [-2:5] [-2:3] [-2:3] [-2:3] [-2:5] [-2:5] [-2:4] [-2:5] [-2:4] [-2:5] [-2:4] [-2:3] [-2:4] [-2:5] [-2:5] [-2:5] [-2:3] [-2:6] [-2:4] [-2:3] [-2:3] [-2:4] [-2:5] [-2:5] [-2:5] [-2:4] [-2:1] [-2:3] [-2:3] [-2:3] [-2:5] [-2:5] [-2:5] [-2:5] [-2:5] [-2:5] [-2:5] [-2:4] [-2:4] [-2:3] [-2:2] [0:2300] [-2:5] [-2:5] [-2:5] [-2:5] [-2:5] [-2:5] [-2:5] [-2:5] [-2:5] [-2:5] [-2:5] [-2:5] [-2:5] [-2:5] [-2:5] [-2:5] [-2:5] [-2:5] [-2:5] [-2:5] [-2:5] [-2:5] [-2:5] [-2:5] [-2:5] [-2:5] [-2:5] [-2:5] [-2:5] [-2:5] [-2:5] [-2:5] [-2:5] [-2:5] [-2:5] [-2:5] [-2:5] [-2:5] [-2:5] [-2:5] [-2:5] [-2:5] [-2:5] [-2:5] [-2:5] [-2:5] [-2:5] [-2:3] [-2:5] [-2:5] [-2:5] [-2:5] [-2:5] [-2:3] [-2:5] [-2:5] [-2:5] [-2:5] [-2:3] [-2:3] [-2:3] [-2:3] [-2:5] [-2:5] [-2:5] [-2:5] [-2:3] [-2:5] [-2:5] [-2:5] [-2:5] [-2:5] [-2:5] [-2:5] [-2:5] [-2:5] [-2:4] [-2:5] [-2:5] [-2:5] [-2:5] [-2:5] [-2:5] [-2:5] [-2:5] [-2:5] [-2:5] [-2:5] [-2:5] [-2:5] [-2:5] [-2:5] [-2:5] [-2:5] [-2:5] [-2:5] [-2:5] [-2:5] [-2:5] [-2:5] [-2:5] [-2:5] [-2:5] [-2:5] [-2:5] [-2:6] [-2:4] [1:9] [-2:7] [-2:1] [-1:3.099609375] [-2:6] [-2:6] [-1:3] [-2:5] [-2:9] [-2:2] [-2:4] [-2:4] [-2:3] [-2:2] [-2:5] [-2:7] [-2:5] [-2:5] [-2:5] [-2:5] [-2:5] [1:7] [1:7] [1:7] [1:7] [1:7] [1:7] [1:7] [1:7] [1:7] [1:7] [1:7] [1:7] [1:7] [1:7] [-1:3] [-2:1] [-2:3] [-2:5] [-2:5] [-2:5] [-2:1] [0:45] [-1:2] [-2:5] [-2:4] [1:11] [1:13] [1:11] [-2:6] [-2:9] [-2:8] [1:6] [1:2] [1:9] [0:10.1015625] [-2:5] [-2:5] [0:5] [0:5] [0:5] [0:5] [0:5] [0:5] [0:5] [0:5] [0:5] [0:5] [0:5] [0:5] [0:5] [0:5] [0:5] [0:5] [0:5] none [0:5] [0:5] [0:5] [0:5] [0:5] [0:5] [-2:3] [-2:8] [-2:3] [-2:4] [-2:5] [-2:7] none [-2:3] [-2:4] [-2:7] [-2:8] [-2:2] [-1:6] [-1:2] [-1:3] [1:31] [2:365] [-2:6] [28:31] [0:1] none none none none none [0:3] [-2.2083146064174635:14.259193305521343] [-5.9007107396731966:6.1135041603235534] [-6.3144945203165612:6.0770542173820825] [-2.616796517584147:8.1530105039188836] [-3.0540729225044014:7.3736377913611442] [-1.5481024585681533:5.7935991918011727] [-1.8367647932651929:2.9454139953883369] [-3.1529604240351721:3.0947390738493477] [-0.98093477921175021:0.9713992095496804] [-0.98049511908664311:1.7887197137894397] [-1.6232912618877773:1.708438180165925] [-1.5320520748853079:1.8951077503745051] [-1.2020469363457102:1.1916233369037497] [-0.90516040822178256:3.9969032047591613] [-1.4306446823096799:1.4613847047569262] [-1.0406915982371046:1.8634039434443368] [-2.7853555493882616:2.8486835363082426] [-1.2829023721743935:1.2229279825376977] [-1.4705490182854528:1.9169812592173574] [-1.2114417118988876:1.7305862506292544] [0:1] none none [0:1] [0:1] [0:1] [0:1] [0:1] [0:1] none [0:1] [0:1] [0:1] [0:1] [0:1] [0:1] [0:1] none [0:1] [0:1] [0:1] [0:1] none none none [0:1] [0:1] none [0:1] [0:1] [0:1] [0:1] [0:1] none [0:1] [0:1] [0:1] [0:1] [0:1] [0:1] [0:1] [0:1] [0:1] [0:1] none [0:1] [0:1] none none [0:1] [0:1] none none [0:1] none [0:1] [0:1] [0:1] none none [0:1] none none [0:1] none [0:1] none none [0:1] [0:1] [0:1] [0:1] [0:1] [0:1] none [0:1] [0:1] [0:1] [0:1] none none [0:1] none [0:1] [0:1] [0:1] [0:1] [0:1] [0:1] [0:1] [0:1] [0:1] [0:1]
tree_sizes=3639 3315 3396 3644 3635

Tree=0
num_leaves=46
num_cat=0
split_feature=56 56 157 77 389 169 237 122 311 142 90 399 396 323 391 20 55 318 390 144 194 289 33 164 299 318 389 359 298 128 137 325 326 338 49 13 79 326 79 393 93 176 298 389 326
split_gain=205210 184146 78328.1 23500 17604.2 16941.4 16329.5 17043.9 15690 18149.7 17164.3 14775.8 14568.1 10351.9 10197.4 9303.13 7634.55 6826.17 5948.15 12852.9 4551.8 3736.41 3540.32 8004.68 4343.87 3413.56 3355.66 2997.98 2952.05 2408.73 4506.48 2317.75 9765.56 2266.12 2048.23 2741.88 1917.49 1375.02 1238.74 1495.34 776.176 604.977 592.155 451.493 119.693
threshold=1.5000000000000002 1.0000000180025095e-35 1.5000000000000002 1.5498046875000002 0.47784067259894714 3.5000000000000004 3.5000000000000004 1.5000000000000002 2.5000000000000004 1.5000000000000002 4.6500000000000012 -0.002896962323818308 -0.047964915494848846 2.5000000000000004 0.27490591621207799 3.5000000000000004 1.5000000000000002 1.5000000000000002 0.30933078952466581 2.5000000000000004 1.5000000000000002 4.5000000000000009 5.5000000000000009 315.50000000000006 4.5000000000000009 1.5000000000000002 -0.31025155021839784 2.5000000000000004 2.5000000000000004 2.5000000000000004 3.5000000000000004 1.5000000000000002 1.5000000000000002 4.5000000000000009 6.5000000000000009 5.5000000000000009 32.500000000000007 2.5000000000000004 55.500000000000007 -0.01885269021113475 1.0000000180025095e-35 2.5000000000000004 3.5000000000000004 1.0000000180025095e-35 1.5000000000000002
decision_type=2 2 2 2 2 2 2 2 2 2 2 2 2 2 2 2 2 10 2 2 2 2 2 8 2 10 2 2 2 2 2 2 2 2 2 2 10 2 8 2 2 2 2 2 2
left_child=1 2 12 4 26 11 7 -6 9 10 -4 13 -1 -5 -10 -9 -16 -15 22 25 21 27 34 -24 -25 -20 -2 31 -19 -26 33 32 -14 40 38 41 -13 44 39 -3 -31 -36 -41 -40 -33
right_child=3 18 8 5 6 -7 -8 15 14 -11 -12 36 20 17 16 -17 -18 28 19 -21 -22 -23 23 24 29 -27 -28 -29 -30 30 -32 37 -34 -35 35 -37 -38 -39 43 42 -42 -43 -44 -45 -46
leaf_value=-4.3539724428586046 -4.3358645120910548 -4.305375574730836 -4.3539808709696288 -4.3408632021868572 -4.3170638962560348 -4.3539777415991807 -4.3168249434551154 -4.3263118040130006 -4.3539823102564945 -4.3125212372189425 -4.3204317750357903 -4.3357955631139449 -4.3061529295401773 -4.3282220150882784 -4.3199766383332729 -4.353981854437353 -4.3539729823083944 -4.318535101221638 -4.3153469516268483 -4.3384041061275171 -4.330376767288965 -4.3066845261146547 -4.3266284692653683 -4.3126537791165331 -4.2993894836300024 -4.3023539972231015 -4.3539823691899242 -4.328488420243179 -4.3052571620706725 -4.2992519379889806 -4.3153198353808255 -4.3190329664496518 -4.3285418707956289 -4.3100736018877424 -4.3041178264378672 -4.3110032376658625 -4.3539742215710735 -4.3122404752234669 -4.3001728408526914 -4.3021811447906808 -4.3038939685535516 -4.2999575783748147 -4.2983798295634736 -4.2975646694688407 -4.3171162649017196
leaf_count=438 369 612 1732 570 402 826 692 374 3495 505 506 367 829 638 368 2643 460 445 445 455 493 568 382 656 684 508 3647 433 491 406 533 1727 652 415 466 512 520 706 500 444 454 426 378 617 1009
internal_value=0 58.2288 39.3746 24.8699 16.1971 37.0867 25.7772 16.4481 18.1637 30.169 16.6985 41.9148 49.8819 47.7917 6.93737 6.61475 28.2525 52.6052 67.1644 58.1916 51.0998 52.0585 68.0604 65.0778 66.1526 63.1532 2.03231 50.32 58.5402 67.6267 64.7944 51.2453 56.0475 67.2863 69.8286 66.0324 11.1453 48.5055 71.1133 68.8661 69.4294 68.6358 70.9378 72.8801 46.4542
internal_count=34798 22814 13921 11984 8127 3857 4111 3419 7066 2743 2238 3031 6855 2144 4323 3017 828 1574 8893 1408 6417 5924 7485 3530 3148 953 4016 5356 936 2492 1808 4923 1481 1275 3955 1404 887 3442 2551 1434 860 892 822 1117 2736
shrinkage=1


Tree=1
num_leaves=41
num_cat=0
split_feature=56 56 157 77 389 169 237 122 311 127 142 90 399 396 51 123 90 81 90 194 222 164 289 77 390 237 31 119 146 386 361 359 324 231 271 251 49 287 119 79
split_gain=185365 162786 72262.4 22146 17014.4 15972.4 15252.3 16150 15038.1 16920.2 16822.6 16408 13869.8 13518.3 12511.6 7705.54 7474.81 6648.46 5190 4116.71 3965.03 3326.33 3302.02 3026.32 5343.02 9666.67 2753.73 4744.45 2896.79 6652.15 7509.04 2709.25 1399.35 1489.99 1811.08 1619.1 3019.23 1041.99 1173.31 848.998
threshold=1.5000000000000002 1.0000000180025095e-35 1.5000000000000002 1.5498046875000002 0.47784067259894714 3.5000000000000004 3.5000000000000004 1.5000000000000002 2.5000000000000004 4.5000000000000009 1.5000000000000002 4.6500000000000012 -0.0025782745287257071 -0.047964915494848846 5.5000000000000009 3.5000000000000004 4.8500000000000005 4.5000000000000009 7.0500000000000007 1.5000000000000002 2.5000000000000004 266.50000000000006 4.5000000000000009 1.7500000000000002 0.36378897304785479 2.5000000000000004 3.5000000000000004 2.5000000000000004 3.5000000000000004 0.26696181455741708 2.0000000000000004 2.5000000000000004 3.5000000000000004 1.5000000000000002 1.5000000000000002 3.5000000000000004 1.0000000180025095e-35 4.5000000000000009 2.5000000000000004 47.500000000000007
decision_type=2 2 2 2 2 2 2 2 2 2 2 2 2 2 2 2 2 2 2 2 2 10 2 2 2 2 2 2 2 2 2 2 2 2 2 2 2 2 2 8
left_child=1 2 13 4 21 12 7 -6 10 -10 11 -4 14 -1 15 17 -9 20 23 22 -5 -2 31 24 26 -26 28 -28 32 -30 -31 -15 33 34 -3 36 -36 38 -25 -35
right_child=3 18 8 5 6 -7 -8 16 9 -11 -12 -13 -14 19 -16 -17 -18 -19 -20 -21 -22 -23 -24 37 25 -27 27 -29 29 30 -32 -33 -34 39 35 -37 -38 -39 -40 -41
leaf_value=-0.00075035457050339795 0.017215779592091352 0.04370440359282126 -0.00075878873306191904 0.031911146952397391 0.034880128182079514 -0.00075565709296730884 0.035102424260263013 -0.00075971465033495102 -0.00076041853601290519 0.031781373479850154 0.039088861256310267 0.03173521751788675 -0.00075326177642449053 0.037086498507951447 -0.00075079890645417583 0.01420224908573876 0.022571267100325799 0.021797607340097395 0.031830925188589383 0.02232548802136752 0.046480192657549872 -0.00076030597483925778 0.04444105209975735 0.044407737505919816 0.044931547529384878 0.014875271335849082 0.034038559952519636 0.047616436099202603 0.049702356849473862 0.015106537821398374 0.042581882651520617 0.024126445907958854 0.043600839759833962 0.048701793879245787 0.049973128218634463 0.051791634214942386 0.040937943158608596 0.052463057618822563 0.050880329421718766 0.052982311688510281
leaf_count=438 370 596 1732 498 402 826 692 2527 3934 389 505 506 578 4923 435 460 490 509 367 493 551 3646 568 387 468 430 619 593 482 416 412 433 375 380 681 635 601 592 365 494
internal_value=0 55.7491 38.2205 24.3981 15.9918 36.0595 25.272 16.2366 17.9071 6.89635 29.482 16.4808 40.6116 48.0533 44.5644 48.1301 6.57735 51.8237 63.89 49.1834 56.4222 2.02771 50.0713 64.1997 63.0952 51.3688 63.8731 58.0098 64.7303 59.3025 47.3343 48.4608 65.8468 66.2979 64.7883 65.9288 63.2205 67.7853 64.8336 68.945
internal_count=34798 22814 13921 11984 8127 3857 4111 3419 7066 4323 2743 2238 3031 6855 2453 2018 3017 1558 8893 6417 1049 4016 5924 8526 7182 898 6284 1212 5072 1310 828 5356 3762 3387 2513 1917 1282 1344 752 874
shrinkage=0.000751977


Tree=2
num_leaves=42
num_cat=0
split_feature=56 56 157 77 389 169 311 127 142 90 293 148 86 399 394 51 123 81 261 390 144 249 389 364 33 33 164 299 128 137 325 19 49 13 31 361 255 79 248 177 318
split_gain=168093 144670 66834.8 20896 16453.9 15084.8 14424.8 16308.4 15629 15704.3 14280.7 20730.3 13526 13018.6 11942.6 11680.3 7047.61 5997.58 4918.04 4567.11 10924.2 3551.04 3270.35 3104.73 3020.45 2830.43 6682.03 3619.97 2023.74 3701.09 1772.47 1646.42 1615.56 2231.2 1492.02 1377.69 993.64 765.999 1151.5 531.051 258.871
threshold=1.5000000000000002 1.0000000180025095e-35 1.5000000000000002 1.5498046875000002 0.47784067259894714 3.5000000000000004 2.5000000000000004 4.5000000000000009 1.5000000000000002 4.6500000000000012 5.5000000000000009 1.0000000180025095e-35 4.5000000000000009 -0.0025782745287257071 -0.05834526527336991 5.5000000000000009 3.5000000000000004 4.5000000000000009 1.5000000000000002 0.30933078952466581 2.5000000000000004 2.5000000000000004 -0.31025155021839784 4.5000000000000009 3.5000000000000004 5.5000000000000009 315.50000000000006 4.5000000000000009 2.5000000000000004 3.5000000000000004 1.5000000000000002 4.5000000000000009 6.5000000000000009 5.5000000000000009 1.5000000000000002 2.0000000000000004 2.5000000000000004 55.500000000000007 2.5000000000000004 2.5000000000000004 6.5000000000000009
decision_type=2 2 2 2 2 2 2 2 2 2 2 2 2 2 2 2 2 2 2 2 2 2 2 2 2 2 8 2 2 2 2 2 2 2 2 2 2 8 2 2 10
left_child=1 2 14 4 22 13 8 -8 9 -4 11 -6 -12 15 -1 16 17 21 23 25 24 -5 -2 31 -21 32 -27 -28 -29 34 -25 -16 36 39 35 -30 -3 38 -38 -34 -39
right_child=3 19 6 5 10 -7 7 -9 -10 -11 12 -13 -14 -15 18 -17 -18 -19 -20 20 -22 -23 -24 30 -26 26 27 28 29 -31 -32 -33 33 -35 -36 -37 37 40 -40 -41 -42
leaf_value=-0.00075003498005631573 0.016948425144318897 0.045698879504979376 -0.0007587792874110714 0.029220936658061403 0.03056336199001141 -0.00075564537601345322 -0.00076041021510378829 0.030789527318779514 0.037601264212089806 0.030746489421509635 -0.00075127892477502877 -0.00075990228056576974 0.039793973236391833 -0.00075324819118753475 0.034899136121691939 -0.00075078335621500995 0.013996648582732684 0.021323699829141809 0.020321366865879584 0.034705156071998276 0.014060114419742458 0.04387618036201222 -0.00076029791226518825 0.037937703904857852 0.046408095117165253 0.024738899083610585 0.037128215441571695 0.048712514810542618 0.04284924433295207 0.034830218375300877 0.033003000365872524 0.043787085843527473 0.048069531463146159 0.038651698101937408 0.040013318863913315 0.048987682508712133 0.043175224919765443 0.050794274794106947 0.048754939947672611 0.044240564736253027 0.048766240536273674
leaf_count=405 369 714 1732 414 657 826 3934 389 505 506 447 2486 521 578 462 435 460 509 557 440 455 635 3647 1474 513 382 656 684 444 533 3366 591 483 512 383 448 390 394 651 409 402
internal_value=0 53.4756 37.1335 23.944 15.7917 35.0875 17.6578 6.85585 28.8263 16.2687 24.7867 14.6468 42.318 39.3867 46.3563 43.0969 46.4258 49.8548 47.3547 60.9251 53.3829 54.0977 2.02312 48.3343 57.6824 61.669 59.1225 60.0476 61.3248 58.8457 46.2783 54.7571 63.1723 59.9538 60.9847 62.6205 64.2561 65.084 63.1734 62.182 66.5318
internal_count=34798 22814 13921 11984 8127 3857 7066 4323 2743 2238 4111 3143 968 3031 6855 2453 2018 1558 6450 8893 1408 1049 4016 5893 953 7485 3530 3148 2492 1808 4840 1053 3955 1404 1275 892 2551 1837 1041 892 796
shrinkage=0.000751977


Tree=3
num_leaves=45
num_cat=0
split_feature=56 56 380 388 323 289 293 143 238 159 196 301 353 340 92 227 327 191 79 321 90 7 164 383 44 327 363 15 109 320 222 92 24 119 31 13 325 220 150 104 202 288 177 361
split_gain=152981 129204 60307.7 19214.2 14801 16186.9 14405.2 13134.6 12772 14807.9 12968.9 11206.5 11159.7 11234.7 8530.54 8116.39 11802.9 7378.07 7234.21 6886.43 4276.66 3261.86 2437.84 2417.98 2188.85 2069.09 2008.81 3324.53 1932.24 1890.4 2169.46 3215.37 2396.28 2117.78 6254.21 2314.22 1501.66 1461.22 1395.77 1082.42 677.668 564.776 426.282 341.489
threshold=1.5000000000000002 1.0000000180025095e-35 2.6944424325165039 0.29295353982342714 2.5000000000000004 2.5000000000000004 5.5000000000000009 1.0000000180025095e-35 3.5000000000000004 2.5000000000000004 2.5000000000000004 2.5000000000000004 2.5000000000000004 3.5000000000000004 2.5000000000000004 2.5000000000000004 3.8505859375000004 4.5000000000000009 55.500000000000007 5.5000000000000009 7.0500000000000007 24.500000000000004 714.50000000000011 -0.5349577955232433 1.0000000180025095e-35 9.3515625000000018 2.5000000000000004 4.5000000000000009 2.5000000000000004 3.5000000000000004 3.5000000000000004 4.5000000000000009 4.5000000000000009 2.5000000000000004 1.0000000180025095e-35 4.5000000000000009 1.5000000000000002 2.5000000000000004 1.5000000000000002 1.0000000180025095e-35 3.5000000000000004 2.5000000000000004 2.5000000000000004 1.0000000180025095e-35
decision_type=2 2 2 2 2 2 2 2 2 2 2 2 2 2 10 2 10 2 8 2 2 8 10 2 2 10 2 2 2 8 2 10 2 2 2 2 2 2 2 2 2 2 2 2
left_child=1 2 8 4 22 -6 14 -8 10 28 11 -1 13 15 -5 -7 -17 21 -18 -13 23 -12 -2 -3 -9 29 -4 -28 -10 30 32 -32 33 34 35 39 -29 -33 40 -25 43 -31 -43 -35
right_child=3 20 26 6 5 12 7 24 9 -11 17 19 -14 -15 -16 16 18 -19 -20 -21 -22 -23 -24 25 -26 -27 27 36 -30 41 31 37 -34 38 -36 -37 -38 -39 -40 -41 -42 42 -44 -45
leaf_value=-0.00075512693526870488 -0.00075751118932650932 0.035019252275291853 0.040027867271032351 0.023112403548736303 -0.00075622140813972304 0.042447213756224469 0.034429897323594874 -0.00075584685969491488 0.016588599080266102 0.037655178630858002 -0.00076067242422921133 0.012530399356706665 -0.00075216344325304346 0.0097878911046926868 -0.00076069079070292562 -0.0007530185365153836 0.039161682048037834 0.023537554065066361 0.013731350368592962 0.037858832002217908 0.029581736954915252 0.016686374051034982 0.016571723061785625 0.041822674988458562 0.016542737073464445 0.038379309022789944 0.02093313606838032 0.037064897902561421 -0.00075379585885049184 0.044240669211294742 0.031566464943279977 0.044992180611207418 0.036764722180316366 0.046054053718846466 0.031108171009552887 0.039131921343349543 0.032736062152970445 0.038607389407711974 0.041505825852897325 0.047133062086892372 0.044556933200411285 0.047819341954284833 0.04528940826829235 0.048455057560866183
leaf_count=713 1046 374 552 437 827 645 558 799 365 576 4004 532 482 715 4209 535 536 425 464 412 367 366 366 372 365 606 485 1537 596 592 499 457 450 371 630 597 3358 576 436 584 512 531 493 446
internal_value=0 51.3834 36.1075 23.5065 31.4239 35.9424 13.1408 28.66 19.9795 35.2983 14.2017 29.3258 39.8458 42.537 3.98623 46.5357 36.7591 6.01942 44.1596 39.364 58.2278 1.72786 6.74444 58.4937 8.26756 58.7358 45.887 44.7319 9.9383 59.0635 58.0633 53.942 59.0106 59.5343 56.9914 59.1361 45.6906 56.5226 61.4742 61.1302 62.39 61.4694 62.4138 63.421
internal_count=34798 22814 13921 11984 5616 4204 6368 1722 7989 1537 6452 1657 3377 2895 4646 2180 1535 4795 1000 944 8893 4370 1412 8526 1164 8152 5932 5380 961 7546 5930 1532 4398 3948 2183 1553 4895 1033 1765 956 1329 1616 1024 817
shrinkage=0.000751977


Tree=4
num_leaves=45
num_cat=0
split_feature=56 56 157 77 389 311 127 142 90 237 122 399 396 7 51 20 123 141 79 90 302 164 363 326 325 325 316 370 268 256 123 179 175 358 143 79 327 191 387 312 52 164 355 326
split_gain=139693 115915 57752.3 18920.3 15470.9 13457.5 15379.3 13990.2 14645.8 13130.9 14310.6 12529.8 11283.8 10198.9 10160.6 8409.58 6195.96 6049.63 8874.75 3805.39 3323.39 3217.1 2569.22 3038.17 3523.67 3014.48 2336.69 2666.53 5195.86 3738.21 7031.86 2236.82 2992.67 2123.45 1729.04 1690.19 1449 1067.04 975.725 901.817 1663.62 506.243 401.189 213.996
threshold=1.5000000000000002 1.0000000180025095e-35 1.5000000000000002 1.5498046875000002 0.47784067259894714 2.5000000000000004 4.5000000000000009 1.5000000000000002 4.6500000000000012 3.5000000000000004 1.5000000000000002 -0.002896962323818308 -0.047964915494848846 12.500000000000002 5.5000000000000009 3.5000000000000004 3.5000000000000004 2.5000000000000004 40.500000000000007 7.0500000000000007 3.5000000000000004 266.50000000000006 2.5000000000000004 1.5000000000000002 1.5000000000000002 1.5000000000000002 1.0000000180025095e-35 54.500000000000007 3.5000000000000004 3.5000000000000004 2.5000000000000004 3.5000000000000004 1.5000000000000002 4.5000000000000009 1.5000000000000002 51.500000000000007 7.8515625000000009 2.5000000000000004 -0.17374616098317772 4.5000000000000009 3.5000000000000004 563.50000000000011 2.0000000000000004 2.5000000000000004
decision_type=2 2 2 2 2 2 2 2 2 2 2 2 2 8 2 2 2 2 10 2 2 10 2 2 2 2 2 8 2 2 2 2 2 2 2 8 10 2 2 2 2 8 2 2
left_child=1 2 12 4 21 7 -7 8 -4 10 -6 13 -1 14 16 -12 17 -5 -19 26 -14 -2 -22 24 -24 -25 36 28 29 31 -31 34 -33 -13 35 -28 38 -29 -3 41 42 -40 -41 -27
right_child=3 19 5 11 9 6 -8 -9 -10 -11 15 33 20 -15 -16 -17 -18 18 -20 -21 22 -23 23 25 -26 43 27 37 -30 30 -32 32 -34 -35 -36 -37 -38 -39 39 40 -42 -43 -44 -45
leaf_value=-0.00075086531015952738 0.016679548394484784 0.040808385613984782 -0.00075888342362702681 0.041049940679342346 0.031991733661817276 -0.00076048240196071031 0.029243167556157974 0.035330844942658 0.029162961014811525 0.032164058536116515 0.02461874115310559 -0.00075559826930787549 0.020605465267243859 -0.00075214996940993776 -0.0007502178193026449 -0.00076000417413453502 0.013869091182328775 0.034200462341504603 -0.00075110811367504659 0.028722251489445041 0.039494214584022656 -0.00076037845989292878 0.039140842195253621 0.020348563486399976 0.031308837605426444 0.030390304432818073 0.040129164913194203 0.045525628523974064 0.02545278671782214 0.040770591223771538 0.023462027599469127 0.027150732177457525 0.040760065291878277 0.016373838037956077 0.038434587412717616 0.045377974061328749 0.03782313815088259 0.041184446310781844 0.04373702525771192 0.045049731876618225 0.037250132068424993 0.046285140492458028 0.042105599146626184 0.033169436120646496
leaf_count=438 370 628 1732 611 402 3934 389 505 506 692 374 767 481 460 409 2643 452 397 394 367 593 3646 983 715 1848 1095 630 414 452 468 691 389 372 367 637 647 390 583 540 414 410 462 399 702
internal_value=0 49.4515 35.1375 23.0848 15.3734 17.1629 6.74101 27.6765 15.8219 23.8641 15.5284 33.3848 43.3209 38.3132 41.3583 6.36845 44.392 47.6323 34.351 55.763 44.2643 1.99948 45.0119 43.6539 46.6765 38.9485 56.0069 54.4575 52.9167 53.7482 46.6525 55.428 48.984 8.45315 56.7999 58.2597 57.7332 58.2131 58.2062 58.8488 56.9333 60.2716 58.5158 41.9807
internal_count=34798 22814 13921 11984 8127 7066 4323 2743 2238 4111 3419 3857 6855 2723 2263 3017 1854 1402 791 8893 6417 4016 5936 5343 2831 2512 8526 5283 4286 3834 1159 2675 761 1134 1914 1277 3243 997 2853 2225 1223 1002 813 1797
shrinkage=0.000751977



feature importances:
D19_SOZIALES=10
GEBURTSJAHR=8
EXTSEL992=7
_isMissingUnknown_10=7
KBA13_ANZAHL_PKW=6
EINGEZOGENAM_HH_JAHR=5
ALTERSKATEGORIE_GROB=5
ANREDE_KZ=5
KBA05_MOTRAD=4
KBA13_KW_80=4
_isMissingUnknown_20=4
KBA05_ZUL2=4
KBA05_KRSHERST3=4
UMFELD_ALT=4
KBA05_KRSHERST2=3
CAMEO_DEUG_2015=3
RETOURTYP_BK_S=3
VK_DHT4A=3
D19_BILDUNG=3
D19_BUCH_CD=3
_isMissingUnknown_17=3
D19_LOTTO=3
D19_RATGEBER=3
_isMissingUnknown_11=3
LP_LEBENSPHASE_GROB_Value_AGE=3
KBA13_BJ_2000=3
ALTER_HH_Value_0=3
KBA05_HERSTTEMP=3
KBA05_KW1=3
KBA13_CCM_1200=2
KBA13_FORD=2
CJT_TYP_5=2
KBA13_HALTER_25=2
KBA13_KRSHERST_FORD_OPEL=2
ANZ_HAUSHALTE_AKTIV=2
FINANZ_HAUSBAUER=2
SEMIO_DOM=2
GFK_URLAUBERTYP=2
SEMIO_KULT=2
SEMIO_LUST=2
WOHNLAGE=2
LP_LEBENSPHASE_FEIN_Value_INCOME=2
KBA05_KW2=2
KBA05_MOD3=2
LP_STATUS_FEIN_Value_INCOME=2
KBA05_SEG1=2
KBA05_SEG10=2
CJT_KATALOGNUTZER=1
CJT_TYP_4=1
D19_BANKEN_DIREKT=1
D19_KINDERARTIKEL=1
D19_REISEN=1
FINANZTYP=1
GREEN_AVANTGARDE=1
KBA05_ANTG2=1
KBA05_CCM1=1
D19_SONSTIGE=1
KBA05_MOTOR=1
KBA13_SEG_SPORTWAGEN=1
KBA13_SITZE_5=1
KBA13_VORB_3=1
KKK=1
REGIOTYP=1
RELAT_AB=1
KBA13_KRSHERST_AUDI_VW=1
KBA13_KW_0_60=1
KBA13_KW_90=1
KBA13_SEG_KLEINWAGEN=1
SEMIO_PFLICHT=1
SEMIO_RAT=1
KBA13_HALTER_65=1
UMFELD_JUNG=1
VHA=1
KBA13_HALTER_35=1
VK_ZG11=1
W_KEIT_KIND_HH=1
KBA13_SEG_KOMPAKTKLASSE=1
ZABEOTYP=1
KBA13_CCM_1401_2500=1
KBA13_CCM_1000=1
KBA13_CCM_0_1400=1
D19_GESAMT_OFFLINE_DATUM_Value_ACTIVITY_WITHIN_MONTHS=1
D19_GESAMT_ONLINE_DATUM_Value_ACTIVITY_WITHIN_MONTHS=1
D19_VERSAND_ONLINE_DATUM_Value_INCREASE=1
LP_FAMILIE_FEIN_Value_FAMILY=1
LP_LEBENSPHASE_FEIN_Value_AGE=1
KBA13_SEG_MINIWAGEN=1
KBA05_ZUL4=1
KBA13_SEG_SONSTIGE=1
LP_STATUS_FEIN_Value_OTHER=1
KBA13_KW_30=1
_isMissingUnknown_1=1
_isMissingUnknown_4=1
_isMissingUnknown_7=1
_isMissingUnknown_8=1
_isMissingUnknown_9=1
KBA05_SEG7=1
KBA05_SEG5=1
_isMissingUnknown_12=1
_isMissingUnknown_14=1
_isMissingUnknown_15=1
KBA05_SEG3=1
EINGEFUEGT_AM_DayOfYear=1

pandas_categorical:[]
