tree
version=v2
num_class=1
num_tree_per_iteration=1
label_index=0
max_feature_idx=492
objective=binary sigmoid:1
feature_names=AGER_TYP AKT_DAT_KL ALTER_KIND1 ALTER_KIND2 ALTER_KIND3 ALTER_KIND4 ALTERSKATEGORIE_FEIN ANZ_HAUSHALTE_AKTIV ANZ_HH_TITEL ANZ_KINDER ANZ_PERSONEN ARBEIT BALLRAUM CAMEO_DEUG_2015 CJT_GESAMTTYP CJT_KATALOGNUTZER CJT_TYP_1 CJT_TYP_2 CJT_TYP_3 CJT_TYP_4 CJT_TYP_5 CJT_TYP_6 D19_BANKEN_ANZ_12 D19_BANKEN_ANZ_24 D19_BANKEN_DIREKT D19_BANKEN_GROSS D19_BANKEN_LOKAL D19_BANKEN_ONLINE_QUOTE_12 D19_BANKEN_REST D19_BEKLEIDUNG_GEH D19_BEKLEIDUNG_REST D19_BILDUNG D19_BIO_OEKO D19_BUCH_CD D19_DIGIT_SERV D19_DROGERIEARTIKEL D19_ENERGIE D19_FREIZEIT D19_GARTEN D19_GESAMT_ANZ_12 D19_GESAMT_ANZ_24 D19_GESAMT_ONLINE_QUOTE_12 D19_HANDWERK D19_HAUS_DEKO D19_KINDERARTIKEL D19_KONSUMTYP D19_KONSUMTYP_MAX D19_KOSMETIK D19_LEBENSMITTEL D19_LOTTO D19_NAHRUNGSERGAENZUNG D19_RATGEBER D19_REISEN D19_SAMMELARTIKEL D19_SCHUHE D19_SONSTIGE D19_SOZIALES D19_TECHNIK D19_TELKO_ANZ_12 D19_TELKO_ANZ_24 D19_TELKO_MOBILE D19_TELKO_ONLINE_QUOTE_12 D19_TELKO_REST D19_TIERARTIKEL D19_VERSAND_ANZ_12 D19_VERSAND_ANZ_24 D19_VERSAND_ONLINE_QUOTE_12 D19_VERSAND_REST D19_VERSI_ANZ_12 D19_VERSI_ANZ_24 D19_VERSI_DATUM D19_VERSI_OFFLINE_DATUM D19_VERSI_ONLINE_DATUM D19_VERSI_ONLINE_QUOTE_12 D19_VERSICHERUNGEN D19_VOLLSORTIMENT D19_WEIN_FEINKOST EINGEZOGENAM_HH_JAHR EWDICHTE EXTSEL992 FINANZ_ANLEGER FINANZ_HAUSBAUER FINANZ_MINIMALIST FINANZ_SPARER FINANZ_UNAUFFAELLIGER FINANZ_VORSORGER FINANZTYP FIRMENDICHTE GEBAEUDETYP GEBAEUDETYP_RASTER GEBURTSJAHR GEMEINDETYP GFK_URLAUBERTYP GREEN_AVANTGARDE HEALTH_TYP HH_DELTA_FLAG HH_EINKOMMEN_SCORE INNENSTADT KBA05_ALTER1 KBA05_ALTER2 KBA05_ALTER3 KBA05_ALTER4 KBA05_ANHANG KBA05_ANTG1 KBA05_ANTG2 KBA05_ANTG3 KBA05_ANTG4 KBA05_AUTOQUOT KBA05_BAUMAX KBA05_CCM1 KBA05_CCM2 KBA05_CCM3 KBA05_CCM4 KBA05_DIESEL KBA05_FRAU KBA05_GBZ KBA05_HERST1 KBA05_HERST4 KBA05_HERST5 KBA05_HERSTTEMP KBA05_KRSAQUOT KBA05_KRSHERST1 KBA05_KRSHERST2 KBA05_KRSHERST3 KBA05_KRSOBER KBA05_KRSVAN KBA05_KRSZUL KBA05_KW1 KBA05_KW2 KBA05_KW3 KBA05_MAXAH KBA05_MAXBJ KBA05_MAXHERST KBA05_MAXSEG KBA05_MAXVORB KBA05_MOD1 KBA05_MOD2 KBA05_MOD3 KBA05_MOD4 KBA05_MOD8 KBA05_MODTEMP KBA05_MOTOR KBA05_MOTRAD KBA05_SEG1 KBA05_SEG10 KBA05_SEG2 KBA05_SEG3 KBA05_SEG4 KBA05_SEG5 KBA05_SEG6 KBA05_SEG7 KBA05_SEG8 KBA05_SEG9 KBA05_VORB0 KBA05_VORB1 KBA05_VORB2 KBA05_ZUL1 KBA05_ZUL2 KBA05_ZUL3 KBA05_ZUL4 KBA13_ANTG1 KBA13_ANTG2 KBA13_ANTG3 KBA13_ANTG4 KBA13_ANZAHL_PKW KBA13_AUDI KBA13_AUTOQUOTE KBA13_BAUMAX KBA13_BJ_1999 KBA13_BJ_2000 KBA13_BJ_2004 KBA13_BJ_2006 KBA13_BJ_2008 KBA13_BJ_2009 KBA13_BMW KBA13_CCM_0_1400 KBA13_CCM_1000 KBA13_CCM_1200 KBA13_CCM_1400 KBA13_CCM_1401_2500 KBA13_CCM_1500 KBA13_CCM_1600 KBA13_CCM_1800 KBA13_CCM_2000 KBA13_CCM_2500 KBA13_CCM_2501 KBA13_CCM_3000 KBA13_CCM_3001 KBA13_FAB_ASIEN KBA13_FAB_SONSTIGE KBA13_FIAT KBA13_FORD KBA13_GBZ KBA13_HALTER_20 KBA13_HALTER_25 KBA13_HALTER_30 KBA13_HALTER_35 KBA13_HALTER_40 KBA13_HALTER_45 KBA13_HALTER_50 KBA13_HALTER_55 KBA13_HALTER_60 KBA13_HALTER_65 KBA13_HALTER_66 KBA13_HERST_ASIEN KBA13_HERST_AUDI_VW KBA13_HERST_BMW_BENZ KBA13_HERST_EUROPA KBA13_HERST_FORD_OPEL KBA13_HERST_SONST KBA13_HHZ KBA13_KMH_0_140 KBA13_KMH_110 KBA13_KMH_140 KBA13_KMH_140_210 KBA13_KMH_180 KBA13_KMH_210 KBA13_KMH_250 KBA13_KMH_251 KBA13_KRSAQUOT KBA13_KRSHERST_AUDI_VW KBA13_KRSHERST_BMW_BENZ KBA13_KRSHERST_FORD_OPEL KBA13_KRSSEG_KLEIN KBA13_KRSSEG_OBER KBA13_KRSSEG_VAN KBA13_KRSZUL_NEU KBA13_KW_0_60 KBA13_KW_110 KBA13_KW_120 KBA13_KW_121 KBA13_KW_30 KBA13_KW_40 KBA13_KW_50 KBA13_KW_60 KBA13_KW_61_120 KBA13_KW_70 KBA13_KW_80 KBA13_KW_90 KBA13_MAZDA KBA13_MERCEDES KBA13_MOTOR KBA13_NISSAN KBA13_OPEL KBA13_PEUGEOT KBA13_RENAULT KBA13_SEG_GELAENDEWAGEN KBA13_SEG_KLEINST KBA13_SEG_KLEINWAGEN KBA13_SEG_KOMPAKTKLASSE KBA13_SEG_MINIVANS KBA13_SEG_MINIWAGEN KBA13_SEG_MITTELKLASSE KBA13_SEG_OBEREMITTELKLASSE KBA13_SEG_OBERKLASSE KBA13_SEG_SONSTIGE KBA13_SEG_SPORTWAGEN KBA13_SEG_UTILITIES KBA13_SEG_VAN KBA13_SEG_WOHNMOBILE KBA13_SITZE_4 KBA13_SITZE_5 KBA13_SITZE_6 KBA13_TOYOTA KBA13_VORB_0 KBA13_VORB_1 KBA13_VORB_1_2 KBA13_VORB_2 KBA13_VORB_3 KBA13_VW KK_KUNDENTYP KKK KOMBIALTER KONSUMNAEHE KONSUMZELLE MIN_GEBAEUDEJAHR MOBI_RASTER MOBI_REGIO NATIONALITAET_KZ ONLINE_AFFINITAET ORTSGR_KLS9 OST_WEST_KZ PLZ8_ANTG1 PLZ8_ANTG2 PLZ8_ANTG3 PLZ8_ANTG4 PLZ8_BAUMAX REGIOTYP RELAT_AB RETOURTYP_BK_S RT_KEIN_ANREIZ RT_SCHNAEPPCHEN RT_UEBERGROESSE SEMIO_DOM SEMIO_ERL SEMIO_FAM SEMIO_KAEM SEMIO_KRIT SEMIO_KULT SEMIO_LUST SEMIO_MAT SEMIO_PFLICHT SEMIO_RAT SEMIO_REL SEMIO_SOZ SEMIO_TRADV SEMIO_VERT SHOPPER_TYP SOHO_KZ STRUKTURTYP TITEL_KZ UMFELD_ALT UMFELD_JUNG UNGLEICHENN_FLAG VERDICHTUNGSRAUM VERS_TYP VHA VHN VK_DHT4A VK_DISTANZ VK_ZG11 W_KEIT_KIND_HH WOHNDAUER_2008 WOHNLAGE ZABEOTYP ANREDE_KZ ALTERSKATEGORIE_GROB ALTER_HH_Value_0 CAMEO_DEUINTL_2015_Value_0 CAMEO_DEUINTL_2015_Value_1 D19_BANKEN_DATUM_Value_ACTIVITY_WITHIN_MONTHS D19_BANKEN_DATUM_Value_INCREASE D19_BANKEN_OFFLINE_DATUM_Value_ACTIVITY_WITHIN_MONTHS D19_BANKEN_OFFLINE_DATUM_Value_INCREASE D19_BANKEN_ONLINE_DATUM_Value_ACTIVITY_WITHIN_MONTHS D19_BANKEN_ONLINE_DATUM_Value_INCREASE D19_GESAMT_DATUM_Value_ACTIVITY_WITHIN_MONTHS D19_GESAMT_DATUM_Value_INCREASE D19_GESAMT_OFFLINE_DATUM_Value_ACTIVITY_WITHIN_MONTHS D19_GESAMT_OFFLINE_DATUM_Value_INCREASE D19_GESAMT_ONLINE_DATUM_Value_ACTIVITY_WITHIN_MONTHS D19_GESAMT_ONLINE_DATUM_Value_INCREASE D19_TELKO_DATUM_Value_ACTIVITY_WITHIN_MONTHS D19_TELKO_DATUM_Value_INCREASE D19_TELKO_OFFLINE_DATUM_Value_ACTIVITY_WITHIN_MONTHS D19_TELKO_OFFLINE_DATUM_Value_INCREASE D19_TELKO_ONLINE_DATUM_Value_ACTIVITY_WITHIN_MONTHS D19_TELKO_ONLINE_DATUM_Value_INCREASE D19_VERSAND_DATUM_Value_ACTIVITY_WITHIN_MONTHS D19_VERSAND_DATUM_Value_INCREASE D19_VERSAND_OFFLINE_DATUM_Value_ACTIVITY_WITHIN_MONTHS D19_VERSAND_OFFLINE_DATUM_Value_INCREASE D19_VERSAND_ONLINE_DATUM_Value_ACTIVITY_WITHIN_MONTHS D19_VERSAND_ONLINE_DATUM_Value_INCREASE LP_FAMILIE_FEIN_Value_CHILD LP_FAMILIE_FEIN_Value_FAMILY LP_FAMILIE_FEIN_Value_GENERATIONAL LP_FAMILIE_GROB_Value_FAMILY LP_LEBENSPHASE_FEIN_Value_AGE LP_LEBENSPHASE_FEIN_Value_INCOME LP_LEBENSPHASE_FEIN_Value_OTHER LP_LEBENSPHASE_GROB_Value_AGE LP_LEBENSPHASE_GROB_Value_INCOME LP_STATUS_FEIN_Value_INCOME LP_STATUS_FEIN_Value_OTHER LP_STATUS_GROB_Value_INCOME PRAEGENDE_JUGENDJAHRE_Value_0 PRAEGENDE_JUGENDJAHRE_Value_2 PRAEGENDE_JUGENDJAHRE_Value_3 EINGEFUEGT_AM_Day EINGEFUEGT_AM_DayOfYear EINGEFUEGT_AM_DayOfWeek EINGEFUEGT_AM_DaysInMonth EINGEFUEGT_AM_IsMonthStart EINGEFUEGT_AM_IsMonthEnd EINGEFUEGT_AM_IsQuarterStart EINGEFUEGT_AM_IsQuarterEnd EINGEFUEGT_AM_IsYearStart EINGEFUEGT_AM_IsYearEnd EINGEFUEGT_AM_Season _isMissingUnknown_1 _isMissingUnknown_2 _isMissingUnknown_3 _isMissingUnknown_4 _isMissingUnknown_5 _isMissingUnknown_6 _isMissingUnknown_7 _isMissingUnknown_8 _isMissingUnknown_9 _isMissingUnknown_10 _isMissingUnknown_11 _isMissingUnknown_12 _isMissingUnknown_13 _isMissingUnknown_14 _isMissingUnknown_15 _isMissingUnknown_16 _isMissingUnknown_17 _isMissingUnknown_18 _isMissingUnknown_19 _isMissingUnknown_20 CAMEO_DEU_2015_1A CAMEO_DEU_2015_1B CAMEO_DEU_2015_1C CAMEO_DEU_2015_1D CAMEO_DEU_2015_1E CAMEO_DEU_2015_2A CAMEO_DEU_2015_2B CAMEO_DEU_2015_2C CAMEO_DEU_2015_2D CAMEO_DEU_2015_3A CAMEO_DEU_2015_3B CAMEO_DEU_2015_3C CAMEO_DEU_2015_3D CAMEO_DEU_2015_4A CAMEO_DEU_2015_4B CAMEO_DEU_2015_4C CAMEO_DEU_2015_4D CAMEO_DEU_2015_4E CAMEO_DEU_2015_5A CAMEO_DEU_2015_5B CAMEO_DEU_2015_5C CAMEO_DEU_2015_5D CAMEO_DEU_2015_5E CAMEO_DEU_2015_5F CAMEO_DEU_2015_6A CAMEO_DEU_2015_6B CAMEO_DEU_2015_6C CAMEO_DEU_2015_6D CAMEO_DEU_2015_6E CAMEO_DEU_2015_6F CAMEO_DEU_2015_7A CAMEO_DEU_2015_7B CAMEO_DEU_2015_7C CAMEO_DEU_2015_7D CAMEO_DEU_2015_7E CAMEO_DEU_2015_8A CAMEO_DEU_2015_8B CAMEO_DEU_2015_8C CAMEO_DEU_2015_8D CAMEO_DEU_2015_9A CAMEO_DEU_2015_9B CAMEO_DEU_2015_9C CAMEO_DEU_2015_9D CAMEO_DEU_2015_9E CAMEO_DEU_2015_XX D19_LETZTER_KAUF_BRANCHE_D19_BANKEN_DIREKT D19_LETZTER_KAUF_BRANCHE_D19_BANKEN_GROSS D19_LETZTER_KAUF_BRANCHE_D19_BANKEN_LOKAL D19_LETZTER_KAUF_BRANCHE_D19_BANKEN_REST D19_LETZTER_KAUF_BRANCHE_D19_BEKLEIDUNG_GEH D19_LETZTER_KAUF_BRANCHE_D19_BEKLEIDUNG_REST D19_LETZTER_KAUF_BRANCHE_D19_BILDUNG D19_LETZTER_KAUF_BRANCHE_D19_BIO_OEKO D19_LETZTER_KAUF_BRANCHE_D19_BUCH_CD D19_LETZTER_KAUF_BRANCHE_D19_DIGIT_SERV D19_LETZTER_KAUF_BRANCHE_D19_DROGERIEARTIKEL D19_LETZTER_KAUF_BRANCHE_D19_ENERGIE D19_LETZTER_KAUF_BRANCHE_D19_FREIZEIT D19_LETZTER_KAUF_BRANCHE_D19_GARTEN D19_LETZTER_KAUF_BRANCHE_D19_HANDWERK D19_LETZTER_KAUF_BRANCHE_D19_HAUS_DEKO D19_LETZTER_KAUF_BRANCHE_D19_KINDERARTIKEL D19_LETZTER_KAUF_BRANCHE_D19_KOSMETIK D19_LETZTER_KAUF_BRANCHE_D19_LEBENSMITTEL D19_LETZTER_KAUF_BRANCHE_D19_LOTTO D19_LETZTER_KAUF_BRANCHE_D19_NAHRUNGSERGAENZUNG D19_LETZTER_KAUF_BRANCHE_D19_RATGEBER D19_LETZTER_KAUF_BRANCHE_D19_REISEN D19_LETZTER_KAUF_BRANCHE_D19_SAMMELARTIKEL D19_LETZTER_KAUF_BRANCHE_D19_SCHUHE D19_LETZTER_KAUF_BRANCHE_D19_SONSTIGE D19_LETZTER_KAUF_BRANCHE_D19_TECHNIK D19_LETZTER_KAUF_BRANCHE_D19_TELKO_MOBILE D19_LETZTER_KAUF_BRANCHE_D19_TELKO_REST D19_LETZTER_KAUF_BRANCHE_D19_TIERARTIKEL D19_LETZTER_KAUF_BRANCHE_D19_UNBEKANNT D19_LETZTER_KAUF_BRANCHE_D19_VERSAND_REST D19_LETZTER_KAUF_BRANCHE_D19_VERSICHERUNGEN D19_LETZTER_KAUF_BRANCHE_D19_VOLLSORTIMENT D19_LETZTER_KAUF_BRANCHE_D19_WEIN_FEINKOST PRAEGENDE_JUGENDJAHRE_Value_1_FDJ_-_communist_party_youth_organisation PRAEGENDE_JUGENDJAHRE_Value_1_Generation_Golf PRAEGENDE_JUGENDJAHRE_Value_1_Swords_into_ploughshares PRAEGENDE_JUGENDJAHRE_Value_1_digital_media_kids PRAEGENDE_JUGENDJAHRE_Value_1_ecological_awareness PRAEGENDE_JUGENDJAHRE_Value_1_economic_miracle PRAEGENDE_JUGENDJAHRE_Value_1_family_orientation PRAEGENDE_JUGENDJAHRE_Value_1_generation_68_-_student_protestors PRAEGENDE_JUGENDJAHRE_Value_1_milk_bar_-_Individualisation PRAEGENDE_JUGENDJAHRE_Value_1_opponents_to_the_building_of_the_Wall PRAEGENDE_JUGENDJAHRE_Value_1_peace_movement PRAEGENDE_JUGENDJAHRE_Value_1_reconstruction_years PRAEGENDE_JUGENDJAHRE_Value_1_war_years
feature_infos=[-1:3] [-2:9] [2:18] [5:18] none none [-2:25] [0:353] [0:20] [0:6] [0:24] [-2:9] [-2:7] [-2:9] [-2:6] [-2:5] [-2:5] [-2:5] [-2:5] [-2:5] [-2:5] [-2:5] [0:6] [0:6] [0:7] [0:6] [0:7] [-2:10] [0:7] [0:7] [0:7] [0:7] [0:7] [0:7] [0:7] [0:7] [0:7] [0:7] [0:7] [0:6] [0:6] [-2:10] [0:7] [0:7] [0:7] [-2:9] [1:9] [0:7] [0:7] [-2:7] [0:7] [0:7] [0:7] [0:7] [0:7] [0:7] [-2:5] [0:7] [0:4] [0:5] [0:7] [-2:10] [0:7] [0:7] [0:6] [0:6] [-2:10] [0:7] [0:5] [0:6] [1:10] [1:10] none [-2:10] [0:7] [0:7] [0:7] [-1:3.30078125] [-2:6] [1:56] [1:5] [1:5] [1:5] [1:5] [1:5] [1:5] [1:6] [-2:5] [-2:8] [-2:5] [0:11.300000000000001] [11:50] [1:12] [0:1] [-1:3] [-2:1] [-2:6] [-2:8] [-2:4] [-2:5] [-2:5] [-2:5] [-2:3] [-2:4] [-2:4] [-2:3] [-2:2] [-2:5] [-2:5] [-2:5] [-2:5] [-2:5] [-2:4] [-2:4] [-2:5] [-2:5] [-2:5] [-2:5] [-2:5] [-2:5] [-2:5] [-2:5] [-2:5] [-2:5] [-2:3] [-2:3] [-2:3] [-2:5] [-2:5] [-2:4] [-2:5] [-2:4] [-2:5] [-2:4] [-2:3] [-2:4] [-2:5] [-2:5] [-2:5] [-2:3] [-2:6] [-2:4] [-2:3] [-2:3] [-2:4] [-2:5] [-2:5] [-2:5] [-2:4] [-2:1] [-2:3] [-2:3] [-2:3] [-2:5] [-2:5] [-2:5] [-2:5] [-2:5] [-2:5] [-2:5] [-2:4] [-2:4] [-2:3] [-2:2] [0:2300] [-2:5] [-2:5] [-2:5] [-2:5] [-2:5] [-2:5] [-2:5] [-2:5] [-2:5] [-2:5] [-2:5] [-2:5] [-2:5] [-2:5] [-2:5] [-2:5] [-2:5] [-2:5] [-2:5] [-2:5] [-2:5] [-2:5] [-2:5] [-2:5] [-2:5] [-2:5] [-2:5] [-2:5] [-2:5] [-2:5] [-2:5] [-2:5] [-2:5] [-2:5] [-2:5] [-2:5] [-2:5] [-2:5] [-2:5] [-2:5] [-2:5] [-2:5] [-2:5] [-2:5] [-2:5] [-2:5] [-2:5] [-2:3] [-2:5] [-2:5] [-2:5] [-2:5] [-2:5] [-2:3] [-2:5] [-2:5] [-2:5] [-2:5] [-2:3] [-2:3] [-2:3] [-2:3] [-2:5] [-2:5] [-2:5] [-2:5] [-2:3] [-2:5] [-2:5] [-2:5] [-2:5] [-2:5] [-2:5] [-2:5] [-2:5] [-2:5] [-2:4] [-2:5] [-2:5] [-2:5] [-2:5] [-2:5] [-2:5] [-2:5] [-2:5] [-2:5] [-2:5] [-2:5] [-2:5] [-2:5] [-2:5] [-2:5] [-2:5] [-2:5] [-2:5] [-2:5] [-2:5] [-2:5] [-2:5] [-2:5] [-2:5] [-2:5] [-2:5] [-2:5] [-2:5] [-2:6] [-2:4] [1:9] [-2:7] [-2:1] [-1:3.099609375] [-2:6] [-2:6] [-1:3] [-2:5] [-2:9] [-2:2] [-2:4] [-2:4] [-2:3] [-2:2] [-2:5] [-2:7] [-2:5] [-2:5] [-2:5] [-2:5] [-2:5] [1:7] [1:7] [1:7] [1:7] [1:7] [1:7] [1:7] [1:7] [1:7] [1:7] [1:7] [1:7] [1:7] [1:7] [-1:3] [-2:1] [-2:3] [-2:5] [-2:5] [-2:5] [-2:1] [0:45] [-1:2] [-2:5] [-2:4] [1:11] [1:13] [1:11] [-2:6] [-2:9] [-2:8] [1:6] [1:2] [1:9] [0:10.1015625] [-2:5] [-2:5] [0:5] [0:5] [0:5] [0:5] [0:5] [0:5] [0:5] [0:5] [0:5] [0:5] [0:5] [0:5] [0:5] [0:5] [0:5] [0:5] [0:5] none [0:5] [0:5] [0:5] [0:5] [0:5] [0:5] [-2:3] [-2:8] [-2:3] [-2:4] [-2:5] [-2:7] none [-2:3] [-2:4] [-2:7] [-2:8] [-2:2] [-1:6] [-1:2] [-1:3] [1:31] [2:365] [-2:6] [28:31] [0:1] none none none none none [0:3] [-2.2083146064174635:14.259193305521343] [-5.9007107396731966:6.1135041603235534] [-6.3144945203165612:6.0770542173820825] [-2.616796517584147:8.1530105039188836] [-3.0540729225044014:7.3736377913611442] [-1.5481024585681533:5.7935991918011727] [-1.8367647932651929:3.5991429413803937] [-3.1529604240351721:3.0947390738493477] [-0.98093477921175021:0.9713992095496804] [-0.98049511908664311:1.7887197137894397] [-1.6232912618877773:1.7401795814018106] [-1.5320520748853079:2.4835398028808431] [-1.2020469363457102:1.1916233369037497] [-0.90516040822178256:3.9969032047591613] [-1.4306446823096799:1.4613847047569262] [-1.0406915982371046:1.8634039434443368] [-2.7853555493882616:2.7983459793283725] [-1.2829023721743935:1.2047446795853012] [-1.4705490182854528:1.9169812592173574] [-1.2114417118988876:1.7305862506292544] [0:1] none none [0:1] none [0:1] [0:1] [0:1] [0:1] none none [0:1] [0:1] [0:1] [0:1] [0:1] [0:1] none [0:1] [0:1] [0:1] [0:1] none none none [0:1] [0:1] [0:1] [0:1] [0:1] [0:1] [0:1] none none [0:1] [0:1] [0:1] [0:1] [0:1] [0:1] [0:1] [0:1] [0:1] none none [0:1] [0:1] none none [0:1] [0:1] none none [0:1] none [0:1] [0:1] [0:1] none none [0:1] none none [0:1] none [0:1] none none [0:1] [0:1] [0:1] none [0:1] [0:1] none [0:1] [0:1] [0:1] [0:1] none none [0:1] none [0:1] [0:1] [0:1] [0:1] [0:1] [0:1] [0:1] [0:1] [0:1] [0:1]
tree_sizes=5228 5453 5433 5450 5449 5434 5416 5468 5433 5440 5432 5444 5437 5437 5443 5447 5446 5430 5458 5449 5440 5432 5431 5436 5435 5479 5454 5445 5455 5433 5423 5413 5425 5439 5445 5445 5445 5441 5410 5434 5462 5434 5427 5448 5462 5446 5252 5426 5465 5454 5452 5450 5449 5477 5448 5442 5445 5461 5424 5433 5444 5444 5439 5409 5378 5444 5423 5461 5450 5440 5447 5444 5446 5445 5450 5456 5456 5454 5458 5431 5437 5445 5455 5463 5441 5458 5447 5436 5447 5429 5444 5441 5445 5447 5455 5423 5469 5457 5450 5440 5431 5436 5470 5455 5447 5437 5461 5446 5451 5415 5445 5454 5449 5460 5450 5442 5448 5451 5429 5454 5424 5455 5421 5447 5460 5470 5444 5443 5463 5450 5441 5466 5437 5460 5438 5439 5454 5448 5437 5458 5458 5471 5450 5445 5444 5448 5415 5436 5444 5435 5456 5464 5437 5434 5440 5445 5419 5458 5439 5450 5458 5444 5448 5469 5456 5448 5456 5426 5433 5438 5461

Tree=0
num_leaves=67
num_cat=0
split_feature=56 56 8 77 390 77 120 235 299 284 298 57 87 178 340 392 32 164 327 229 7 84 249 86 394 381 160 116 399 364 32 391 15 171 164 316 256 288 158 385 92 364 92 291 398 164 381 226 49 388 229 153 394 307 307 135 295 326 277 323 386 279 92 129 14 279
split_gain=145336 163566 35944.8 9981.78 8558.08 7824.21 10794.7 7122.1 8076.64 7871.15 10228.3 8912.58 8038.51 6963.43 6607.19 8014.88 6510.38 7470.18 6440.82 6206.8 5119.86 4686.81 4860.14 5432.77 4625.02 4614.28 5340.88 4553.25 4514.43 4272.55 4133.88 3759.16 3551.77 3151.45 3146.5 2913.16 2756.68 3581.39 2701.74 3245.58 2592.45 2927.91 3279.97 3732.71 3030.9 2410.38 2195.86 3999.07 2138.37 5376.04 4180.38 2213.19 2067.81 5309.71 2775.19 2210.42 1750.64 1244.28 1229.06 2223.74 1731.16 1175.11 1053.8 1396.08 1032.34 785.54
threshold=1.5000000000000002 1.0000000180025095e-35 1.0000000180025095e-35 1.1499023437500002 0.3070090200266285 1.7500000000000002 3.5000000000000004 4.5000000000000009 5.5000000000000009 1.5000000000000002 1.5000000000000002 1.5000000000000002 4.5000000000000009 4.5000000000000009 4.5000000000000009 -0.38793476527737425 4.5000000000000009 454.50000000000006 3.3496093750000004 2.5000000000000004 12.500000000000002 3.5000000000000004 1.5000000000000002 4.5000000000000009 -0.025803298336064342 -0.36134333004477698 3.5000000000000004 2.5000000000000004 -0.010345531847767956 3.5000000000000004 6.5000000000000009 0.073925098115302526 2.5000000000000004 3.5000000000000004 386.50000000000006 1.0000000180025095e-35 4.5000000000000009 4.5000000000000009 2.5000000000000004 0.32896419453788039 2.5000000000000004 4.5000000000000009 7.5000000000000009 3.5000000000000004 -0.0096012478612729612 475.50000000000006 0.1369112625054901 2.5000000000000004 6.5000000000000009 -0.30936346350188143 4.5000000000000009 2.5000000000000004 0.0676442562599925 2.5000000000000004 1.5000000000000002 1.5000000000000002 1.5000000000000002 1.5000000000000002 4.5000000000000009 1.5000000000000002 0.38728362870706795 2.5000000000000004 4.5000000000000009 1.5000000000000002 3.5000000000000004 2.5000000000000004
decision_type=2 2 8 2 2 2 2 2 2 2 2 2 2 2 2 2 2 8 10 2 10 2 2 2 2 2 2 2 2 2 2 2 2 2 10 2 2 2 2 2 10 2 10 2 2 10 2 2 2 2 2 2 2 2 2 2 2 2 2 2 2 2 8 2 2 2
left_child=1 2 14 13 30 6 19 9 -9 25 -11 18 -13 46 16 -16 21 -18 -12 32 31 22 23 -1 -4 -5 -27 -28 -23 -17 35 45 -6 -10 -15 58 -24 -38 56 48 -26 42 61 -44 57 -20 47 -2 50 -50 51 -40 54 -54 -51 -56 -37 -43 59 -3 -61 -42 63 -58 -21 -45
right_child=3 4 24 7 5 -7 -8 8 33 10 11 12 -14 34 15 29 17 -19 20 64 -22 28 36 -25 40 26 27 -29 -30 -31 -32 -33 -34 -35 -36 38 37 -39 39 -41 41 44 43 65 -46 -47 -48 -49 49 52 -52 -53 53 -55 55 -57 62 -59 -60 60 -62 -63 -64 -65 -66 -67
leaf_value=-4.3723481219140705 -4.3788508723062449 -4.3733000323301052 -4.3788304075631252 -4.3734178925551834 -4.3702882903765596 -4.3704298340691885 -4.3788538861667954 -4.3788365609457403 -4.375777756598449 -4.3788625207056633 -4.3788277694944515 -4.3788623502748676 -4.3726230836547062 -4.3723311925420925 -4.3719420648667118 -4.3788571499543814 -4.3722254957493139 -4.3788437728763707 -4.3752705292937426 -4.3752073029350802 -4.3788055859663952 -4.378827393955592 -4.3788724433024031 -4.3788395204400059 -4.3787974930303353 -4.3788707198387868 -4.3788354178900288 -4.3727889825510893 -4.3723481219140705 -4.3736714868065771 -4.3749116264791761 -4.3760687361323036 -4.3757193262029945 -4.3705537933867937 -4.378797991859833 -4.3739172354572045 -4.3788425908064665 -4.3734001045391624 -4.3737423666505189 -4.3760208538633174 -4.373020804643942 -4.3735399477138586 -4.3722913569563833 -4.375777756598449 -4.378813755834698 -4.3704609673497012 -4.3788720898148243 -4.3734879035680647 -4.3788131225981486 -4.3704024028176374 -4.3759510063461109 -4.370610693534525 -4.3788264284239737 -4.3720372585380227 -4.3719812443425541 -4.3762939034477251 -4.3710356481670827 -4.3745670536810506 -4.3714057166032552 -4.3699481548394496 -4.3735561409320329 -4.3703939389289523 -4.3701690035499503 -4.3743205391214888 -4.3788191820311226 -4.3788183901444349
leaf_count=131 477 197 249 131 155 212 548 292 172 942 234 929 148 130 237 652 220 364 134 130 153 232 4743 318 135 2804 283 159 131 146 247 200 167 138 136 162 350 130 236 195 306 2438 177 172 176 259 4155 135 174 250 188 1051 227 158 154 226 268 2202 731 1724 139 166 994 192 195 192
internal_value=0 46.7534 26.9609 14.7727 59.3194 44.3776 33.4316 20.3948 40.6274 17.2531 25.4313 32.5612 13.6253 4.9633 13.6607 29.9225 10.0421 31.6289 43.8116 45.7481 49.2001 6.78237 4.33576 26.6731 37.5437 7.57435 4.558 26.9509 30.5224 12.3092 60.8614 53.4835 56.6979 53.3024 36.3876 61.269 1.39234 18.7593 58.157 54.1486 38.3846 38.856 47.9561 33.1001 36.1394 59.2079 1.61416 15.4506 55.1758 47.7424 58.991 60.8277 50.8085 35.1693 55.742 40.0256 62.828 36.9 64.762 66.421 67.3168 56.2229 63.9055 53.8795 14.2729 12.9827
internal_count=34798 22787 13867 12011 8920 1407 1195 6978 602 6376 2999 2057 1077 5033 7654 1035 6619 584 980 647 746 6035 5672 449 6213 3377 3246 442 363 798 7513 593 322 310 266 7266 5223 480 4475 2859 5964 5829 1013 541 4816 393 4767 612 2664 1189 1475 1287 1015 385 630 380 1616 4640 2791 2060 1863 472 1454 460 325 364
shrinkage=1


Tree=1
num_leaves=67
num_cat=0
split_feature=46 46 45 305 52 352 383 287 164 77 246 390 229 290 242 390 304 371 319 79 21 234 287 64 6 361 486 19 67 117 16 322 62 46 232 155 104 395 301 107 139 382 314 381 169 57 478 54 342 192 192 234 341 182 178 90 371 90 11 240 336 170 100 79 289 17
split_gain=88740.6 52677.4 30542.5 12476.3 11010.1 10847.6 11007 8231.6 10253.8 7730.95 8336.23 7663.92 8854.03 7656.96 7228.15 6551.15 6423.64 9271.42 6127.07 13159.5 7746.27 6507.51 6428.49 6103.81 5814.48 5600.99 5346.17 5251.35 5043.4 10202.8 5749.84 4940.63 4935.8 4835.8 4613.41 7544.4 7147.64 7908.46 6498.75 4562.08 3775.48 3342.75 4455.31 3212.51 3086.65 2961.41 3891.63 6359.72 2924.81 6769.99 2817.34 3660.05 2784.45 6861.4 2696.3 2357.85 2284.65 2194.3 2189.34 5107.21 4199.25 3033.45 3863.72 2130.55 2050.2 5365.87
threshold=2.5000000000000004 1.5000000000000002 1.5000000000000002 3.5000000000000004 2.5000000000000004 1.0000000180025095e-35 -1.8226965483310513 3.5000000000000004 368.50000000000006 1.1499023437500002 3.5000000000000004 -0.2426926486421839 4.5000000000000009 1.5000000000000002 3.5000000000000004 0.39981411687055407 4.5000000000000009 1.0000000180025095e-35 4.5000000000000009 50.500000000000007 2.5000000000000004 3.5000000000000004 3.5000000000000004 1.5000000000000002 6.5000000000000009 -1.0000000180025095e-35 1.0000000180025095e-35 2.5000000000000004 1.0000000180025095e-35 2.5000000000000004 3.5000000000000004 8.5000000000000018 3.5000000000000004 3.5000000000000004 1.5000000000000002 2.5000000000000004 1.0000000180025095e-35 -0.011776386124354858 2.5000000000000004 3.5000000000000004 2.5000000000000004 -0.79599565442364362 11.500000000000002 0.32857452501341916 3.5000000000000004 6.5000000000000009 1.0000000180025095e-35 1.0000000180025095e-35 1.0000000180025095e-35 3.5000000000000004 1.5000000000000002 4.5000000000000009 1.0000000180025095e-35 2.5000000000000004 3.5000000000000004 3.2500000000000004 3.5000000000000004 3.1500000000000008 2.5000000000000004 2.5000000000000004 4.5000000000000009 3.5000000000000004 2.5000000000000004 47.500000000000007 3.5000000000000004 2.5000000000000004
decision_type=2 2 2 2 2 2 2 2 8 2 2 2 2 2 2 2 2 2 10 8 2 2 2 2 2 2 2 2 2 2 2 2 2 2 2 2 2 2 2 2 2 2 8 2 2 2 2 2 2 2 2 2 2 2 2 2 2 2 2 2 2 2 2 8 2 2
left_child=1 4 14 34 16 6 -3 15 54 33 13 45 18 -11 26 32 -1 -18 19 22 -21 43 23 -13 -15 -19 28 -26 29 41 -30 -22 48 -5 35 36 -4 -38 -39 -25 52 -2 -43 -20 -29 46 47 -7 49 -6 55 -52 53 -33 -9 -36 58 -53 59 -8 61 62 -61 -62 65 -44
right_child=2 5 3 9 7 11 56 8 -10 10 -12 12 -14 24 -16 -17 17 25 21 20 31 -23 -24 39 27 -27 -28 44 30 -31 -32 40 -34 -35 50 -37 37 38 -40 -41 -42 42 64 -45 -46 -47 -48 -49 -50 -51 51 57 -54 -55 -56 -57 -58 -59 -60 60 63 -63 -64 -65 -66 -67
leaf_value=0.00032561965026469943 0.007625874123332748 -8.6726809863740587e-05 0.00087019273450288797 0.005184114619944202 0.0071644751636412724 0.007955396597862251 0.0022417963056091594 0.0027048689161585683 0.00057896997996577685 -9.2494941969619059e-05 -0.00010315128022681148 -9.5347886376196216e-05 0.0011966999275795569 -7.1642888360336319e-05 0.00099540023566760567 -7.8666368056152432e-05 -0.0001113732056286414 -7.2236942078509472e-05 0.0030721099751344636 -8.8260445668765901e-05 -6.2135869666626474e-05 -6.3351460357115733e-05 -0.00011566058530522666 -5.7060235700884685e-05 -5.6954932434801223e-05 0.0070007270044958091 -9.2383560915750181e-05 0.0077627479429395203 0.0077279194704912889 -0.00011091599132745229 -5.6007500611441936e-05 0.0067035746231855573 -5.3631782239194997e-05 -0.00011802862279643079 -6.7860117060837116e-05 -0.00011990065004959807 -9.285783798627844e-05 0.007859149512638601 -6.5471070107922245e-05 0.0071351785674762993 0.002392131541799469 -8.678714106201097e-05 -9.5117953462169763e-05 0.0079197666131142312 0.0029813506373980161 0.0038477106103315382 0.0037263068552390761 -5.4230551332540007e-05 0.0084748004547987432 -8.3478165450941145e-05 5.8959133226020049e-05 -6.0421160105249001e-05 0.007282964143175562 -9.0486761222129846e-05 0.0075341821044956989 0.0052895633486871657 0.003392530377013096 0.0053237793575835034 0.0080312555619483968 0.003167599753904161 0.0052902399021619133 0.0041624809661111855 0.0085526269800265849 -5.8640297190222858e-05 0.0062544431741316017 0.0047879888354304149
leaf_count=1731 156 250 736 138 197 1244 253 196 1078 291 410 315 530 182 643 209 590 184 162 260 154 157 759 142 142 252 290 447 342 576 140 243 135 904 170 1060 294 216 163 199 232 251 313 687 170 243 257 136 203 232 4302 150 1213 275 133 132 138 130 2648 154 131 212 456 145 558 4757
internal_value=0 47.9794 26.9923 16.7546 26.6192 52.8568 58.4138 36.1074 21.9682 29.3545 36.9393 47.8204 43.2485 42.7504 35.926 47.3547 14.2486 27.448 45.1087 40.3998 47.1748 55.7284 19.3817 32.8387 48.0881 44.0789 37.3764 52.1415 38.1942 36.1016 54.1979 49.4346 51.9216 9.62596 10.396 18.8266 28.2969 40.6679 51.6988 45.6159 50.876 37.9563 36.6286 58.5435 55.8023 56.142 57.8432 59.9433 55.3625 41.2214 5.12441 3.01552 52.7778 37.4665 46.3501 26.0436 59.3594 27.3382 59.7868 52.8015 55.9161 59.5751 62.9001 27.4803 37.5158 35.724
internal_count=34798 16735 18063 10037 5140 11595 4387 2383 1407 2684 1642 7208 5328 1232 8026 976 2757 1026 4798 3792 2377 1006 1415 656 941 436 7383 759 7093 6611 482 2117 767 1042 7353 2469 1409 673 379 341 1963 6035 5879 849 617 1880 1637 1380 632 429 4884 4582 1731 518 329 302 4137 280 3999 1351 1098 822 610 276 5628 5070
shrinkage=0.00012934


Tree=2
num_leaves=67
num_cat=0
split_feature=56 56 195 77 397 397 390 77 120 178 7 158 229 329 284 184 86 173 238 171 96 391 57 269 391 298 21 32 13 369 16 92 15 43 171 316 370 92 255 301 77 55 51 355 173 394 159 54 14 211 314 380 158 390 157 146 152 295 142 326 393 370 357 389 222 393
split_gain=142050 158580 35131.6 9877.45 10177.4 8622.8 8212.49 7602.47 10616.8 6894.03 6685.41 6638.49 6058.79 6003.74 6209.93 6939.67 6825.78 6142.48 5970.89 9911.2 8118.66 5701.44 5702.93 5492.72 4744.15 4655.74 4119.34 4007.37 3613.63 5198.59 3507.89 5966.53 3434.8 3103.71 2959.27 2782.57 3940.47 3074.91 4587.94 2787.84 3727.69 2718.96 2641.72 9066.09 2473.81 3775.83 2371.69 2304.49 2290.43 2262.49 1967.84 1923.78 1860.37 2251.57 1732.62 1507.67 3378.76 1971.45 1477.02 1361.74 1269.8 1268.93 1072.33 1024.91 871.086 853.484
threshold=1.5000000000000002 1.0000000180025095e-35 1.5000000000000002 1.1499023437500002 -0.11000174607609559 0.10302041297860394 0.3070090200266285 1.7500000000000002 3.5000000000000004 4.5000000000000009 11.500000000000002 1.5000000000000002 2.5000000000000004 1.5000000000000002 1.5000000000000002 1.5000000000000002 4.5000000000000009 2.5000000000000004 3.5000000000000004 3.5000000000000004 1.5000000000000002 0.056477436320959043 1.5000000000000002 2.5000000000000004 -0.069488906514260582 6.5000000000000009 4.5000000000000009 6.5000000000000009 8.5000000000000018 11.500000000000002 2.5000000000000004 7.5000000000000009 2.5000000000000004 1.0000000180025095e-35 3.5000000000000004 1.0000000180025095e-35 54.500000000000007 3.5000000000000004 2.5000000000000004 3.5000000000000004 1.1499023437500002 5.5000000000000009 5.5000000000000009 7.0000000000000009 4.5000000000000009 0.1035867136294215 2.5000000000000004 5.5000000000000009 2.5000000000000004 1.0000000180025095e-35 26.500000000000004 -1.8087514917823706 2.5000000000000004 -0.66592089626345052 1.5000000000000002 2.5000000000000004 1.0000000180025095e-35 4.5000000000000009 1.0000000180025095e-35 1.5000000000000002 -0.53988688330972823 280.50000000000006 2.0000000000000004 0.2824911037106379 3.5000000000000004 -0.0093460261772697738
decision_type=2 2 2 2 2 2 2 2 2 2 8 2 2 2 2 2 2 2 2 2 2 2 2 2 2 2 2 2 2 10 2 8 2 2 2 2 8 10 2 2 2 2 2 2 2 2 2 2 2 2 8 2 2 2 2 2 2 2 2 2 2 10 2 2 2 2
left_child=1 2 11 9 50 10 27 8 12 44 26 30 32 -7 15 17 -16 -15 20 54 24 22 46 -21 -4 28 -6 35 61 -30 31 62 -8 -11 -24 60 37 38 -37 40 -40 -25 47 -44 -2 -46 -18 52 -33 -38 -5 -17 -39 -54 -20 -55 -57 -58 -13 -32 -3 -22 -1 -14 -51 -63
right_child=3 6 18 4 5 13 7 -9 -10 33 -12 58 63 14 16 51 21 -19 19 23 25 -23 34 41 -26 -27 -28 -29 29 -31 59 48 -34 -35 -36 36 49 42 39 -41 -42 -43 43 -45 45 -47 -48 -49 -50 64 -52 -53 53 55 -56 56 57 -59 -60 -61 -62 65 -64 -65 -66 -67
leaf_value=0.0083429947591866869 -0.00012816022550812595 0.0051109158301012609 -6.9593879414562597e-05 -0.00012440999598078883 0.0077503699733556183 -0.00011849692975811746 0.0083323300552233404 0.0081964673172546763 -0.00010995373196384257 -5.4316181481828466e-05 -8.3321756184700385e-05 0.0035106153551490655 -7.5387456178346334e-05 -9.2169146741318483e-05 -0.00010052785236712443 -0.00012284398777879461 0.008252578478759728 0.0063532060534539142 0.0035149388854352095 -7.230677150635237e-05 -0.00012830810782551289 -8.3523154713474026e-05 -8.8457287534639731e-05 0.0030547566630427761 0.0069911963574979044 0.0049896098940504004 0.0025338048040077898 0.0037964575173377755 -0.00010716453797963647 0.0053671607926267326 0.005048101396060877 -8.2072896566443533e-05 0.0030069958042690248 0.0063488873749802614 0.0051876392930322165 -7.3301372800272242e-05 0.0048610218780562545 0.0082880636182170488 -7.8221322162800786e-05 0.0075899110840013809 0.0059425870803576676 0.0080078826050088737 -9.4055064250927136e-05 0.007238157809442221 -0.00010272949080213559 0.0052998755732221441 0.0034261150339492609 0.0033057509574160111 0.0046485563983738598 0.0089971537250458263 0.0035013442443589432 0.0035154557021288618 0.0039194731957771642 0.0080961445455905914 -0.00011644404898143165 0.0024706153379916908 0.0074095339396280189 0.0032436313462057141 -0.00010571375254418495 0.0040374379708717828 0.0083089995668805382 -5.7035461582310126e-05 0.0059351794852566366 0.0035147560162542995 0.0064809125483719183 0.0035176968425888367
leaf_count=176 4234 140 175 1799 250 936 155 212 548 136 231 130 195 288 372 1448 185 230 130 184 4468 232 261 163 134 149 214 247 482 200 2537 224 167 130 136 186 156 796 205 183 155 147 301 253 403 130 135 143 172 448 131 130 233 427 802 220 454 147 453 2537 2651 142 332 130 168 130
internal_value=0 46.2158 26.7675 14.6967 20.267 25.1258 58.4752 43.9022 33.1374 4.94661 43.9119 36.667 45.2509 19.9564 23.9216 14.0123 34.4996 33.6862 12.9695 26.0539 8.69725 41.0893 46.5937 44.2122 39.1456 5.4123 51.5403 59.9733 3.49671 19.7006 38.2603 48.5819 55.9727 36.0728 21.4683 60.3709 57.3424 54.2519 40.8831 46.6426 30.3154 52.8327 56.1911 41.7347 1.60841 17.1947 57.6861 58.0321 21.5113 65.4302 2.16692 2.83332 58.8018 53.8636 5.24667 55.907 49.1762 53.7152 8.44595 35.5404 63.7654 0.320946 56.6561 14.1972 67.4392 16.3892
internal_count=34798 22787 13867 12011 6978 5048 8920 1407 1195 5033 695 6561 647 4353 3417 2096 1321 518 7306 1426 5880 949 717 494 309 5571 464 7513 5422 682 5978 904 322 266 397 7266 4475 3703 729 543 360 310 2974 554 4767 533 320 2420 396 772 1930 1578 2277 1481 932 1248 821 601 583 5074 2791 4740 508 325 616 272
shrinkage=0.00012934


Tree=3
num_leaves=67
num_cat=0
split_feature=56 56 8 77 238 64 155 305 291 399 48 187 369 177 7 307 181 290 15 45 273 244 123 161 77 6 273 243 302 330 287 222 128 265 164 140 316 1 244 91 146 77 327 381 86 280 164 170 361 146 51 370 153 364 357 398 395 279 190 246 251 330 123 24 90 24
split_gain=140234 155940 34932 9826.42 9519.39 6981.06 7195.35 8656.61 9590.23 6443.03 6019.21 5830.55 7201.72 5446.39 5434.49 5899.32 5318.18 5153.52 4970.59 5673.92 4837.24 4809.73 4626.87 4542.89 4094.76 9150.07 8092.94 6953.56 5143.31 4978.81 3819.39 3593.76 3450.89 5018.99 3044.97 2580.68 2506.63 5333.5 2426.3 3435.69 2391.4 2379.26 2332.08 2110.64 2085.58 3057.73 2062.64 1966.57 1945.53 6441.66 4140.66 2216.68 1938.85 1766.35 3141.61 1582.8 1534.3 1518.2 1362.41 1276.62 1207.47 1073.34 1476.46 1315.2 926.395 914.088
threshold=1.5000000000000002 1.0000000180025095e-35 1.0000000180025095e-35 1.1499023437500002 3.5000000000000004 1.5000000000000002 2.5000000000000004 3.5000000000000004 3.5000000000000004 0.0030811569046651226 6.5000000000000009 1.5000000000000002 10.500000000000002 3.5000000000000004 19.500000000000004 1.0000000180025095e-35 3.5000000000000004 3.5000000000000004 4.5000000000000009 5.5000000000000009 5.5000000000000009 4.5000000000000009 2.5000000000000004 2.5000000000000004 1.7500000000000002 13.500000000000002 4.5000000000000009 3.5000000000000004 5.5000000000000009 1.5000000000000002 6.5000000000000009 3.5000000000000004 3.5000000000000004 3.5000000000000004 706.50000000000011 2.5000000000000004 1.0000000180025095e-35 1.5000000000000002 4.5000000000000009 21.500000000000004 4.5000000000000009 1.7500000000000002 4.3515625000000009 -0.38796537627944133 2.5000000000000004 4.5000000000000009 586.50000000000011 1.5000000000000002 1.0000000180025095e-35 3.5000000000000004 1.0000000180025095e-35 41.500000000000007 2.5000000000000004 4.5000000000000009 1.0000000180025095e-35 0.0065384848827386719 -0.11632936649198027 1.5000000000000002 2.5000000000000004 4.5000000000000009 3.5000000000000004 1.0000000180025095e-35 4.5000000000000009 3.5000000000000004 2.5500000000000003 2.5000000000000004
decision_type=2 2 8 2 2 2 2 2 2 2 2 2 10 2 8 2 2 2 2 2 2 2 2 2 2 2 2 2 2 2 2 2 2 2 8 2 2 2 2 10 2 2 8 2 2 2 8 2 2 2 2 8 2 2 2 2 2 2 2 2 2 2 2 2 2 2
left_child=1 2 4 20 9 6 13 -8 -9 21 24 12 16 14 15 -5 52 30 -11 -20 38 59 41 -23 25 28 27 29 36 34 31 35 -7 -34 -27 46 47 40 43 -40 48 42 -4 -2 45 -37 -17 -3 49 50 58 -52 -6 57 -55 -46 -13 -44 -38 -1 -21 62 -49 -63 -51 -26
right_child=3 10 22 5 11 32 7 8 -10 18 -12 56 -14 -15 -16 17 -18 -19 19 60 -22 23 -24 -25 65 26 -28 -29 -30 -31 -32 -33 33 -35 -36 44 37 -39 39 -41 -42 -43 53 -45 55 -47 -48 61 -50 64 51 -53 -54 54 -56 -57 -58 -59 -60 -61 -62 63 -64 -65 -66 -67
leaf_value=-0.00012828575495045375 0.0035081289320896734 0.0046704828334645345 -5.1919682363767448e-05 -9.2097980117510057e-05 0.0033855971967560621 -0.00012353679633669804 -0.00012335538673403736 0.0066387139873643015 -0.00010625822157804411 -0.00010468353616996056 -5.6203981446036797e-05 0.0035005108361810438 -9.3893139697303723e-05 -0.00010046268925999234 -9.4992112226602226e-05 0.0052689870768589595 -6.4471082304631114e-05 -8.0373114070591363e-05 0.0070049940239850558 -9.0720230214729996e-05 0.0050020882081502965 0.0056921410836661985 -8.7560296196897259e-05 -9.5502210999151224e-05 0.0085079486236157228 0.0079928673308690794 -9.9472784475132558e-05 -8.3129714128551767e-05 0.0024700272891062616 -5.3136625765615101e-05 -5.7570915036290831e-05 0.0022274574402069551 -0.00010386907439702839 0.0054883249577379282 0.0030679913352652378 -5.5214442445877967e-05 0.0050519002028339699 -5.4072658008122389e-05 0.0052853014405397367 -9.6907238221203423e-05 0.0039849377749611855 0.0074405479217162767 0.0028485819021400183 -0.00012820177402134267 0.0083102943850665162 0.0062569008677282731 -5.61959748708174e-05 0.0084054591227712468 0.0077645811779693845 0.0034278691320167669 -6.3924898261318754e-05 0.0052331931979855903 0.0078084152449228303 0.0046581776836266773 -7.4299003588319815e-05 0.0047736736163749736 -0.00010867189601719156 0.0062657884997700548 0.0077380089921118981 0.0021338257352153142 0.0034907079071209517 0.0072817838108644953 0.0055354294791157988 0.0033766993559037222 -6.9365267676376735e-05 0.0061563974656444328
leaf_count=4427 130 166 131 287 138 1582 1546 243 462 434 139 130 302 371 312 130 160 216 169 277 147 173 255 317 1197 278 357 228 218 133 143 254 420 187 160 138 223 134 130 331 224 135 179 4295 251 134 140 1633 1764 133 157 131 212 4630 190 162 515 693 790 269 131 176 180 136 172 191
internal_value=0 45.9443 26.6755 14.6685 13.5773 20.2142 24.768 13.134 31.254 8.24747 58.0422 29.2908 38.7795 32.0491 35.1555 38.2551 47.8195 41.6198 24.7796 35.1854 4.94308 3.6855 37.0127 24.9618 58.2897 56.3586 38.3834 45.6377 58.0722 51.8708 44.5591 46.7376 6.91865 21.3902 56.334 50.2966 58.5586 55.2869 2.77007 19.2236 55.9063 37.8539 36.7902 0.413557 54.3868 35.5543 27.7436 62.2277 56.6651 51.0568 54.3122 26.4967 54.4954 37.2474 35.2105 59.5725 7.64333 45.4008 57.4823 0.332362 11.7015 62.9771 64.0973 49.5936 14.7716 64.6813
internal_count=34798 22787 13867 12011 7654 6978 4789 2251 705 6197 8920 1457 812 2538 2167 1855 510 1568 1011 577 5033 5186 6213 490 8781 7393 1156 799 6237 571 1352 1209 2189 607 438 955 6019 3728 4886 461 3594 5958 5823 4425 685 272 270 2291 3370 1606 1301 288 350 5692 4820 413 645 872 1013 4696 408 2125 1813 312 305 1388
shrinkage=0.00012934


Tree=4
num_leaves=67
num_cat=0
split_feature=56 56 8 77 397 238 397 159 11 390 77 120 112 399 329 284 383 337 229 104 383 393 176 15 45 123 77 21 371 249 388 15 196 397 161 63 316 370 102 129 152 155 394 381 312 207 102 385 314 369 388 139 199 234 255 364 292 326 397 279 164 390 90 107 277 323
split_gain=138444 153357 34582.8 9775.43 10066.9 9457.19 8465.35 8265.18 8121.84 7879.96 7337.58 10444.6 6452.3 6412.68 5944.02 6111.75 8154.05 6914.66 5927.53 5843.02 5243.96 5090.11 4950.19 4934.07 5601.43 4583.29 4506.49 3717.35 3561.65 3550.83 5898.62 3344.46 3311.78 4664.64 5122.12 3002.52 2921.53 3191.24 4436.58 7700.47 5024.39 2879.35 2754.5 2791.95 2519.11 2072.58 6469.31 2053.35 1956.58 1875.65 1852.43 1827.47 1684.27 1607.89 1794.69 1527.64 2872.46 1602.38 1373.56 1293.49 1272.41 1215.18 1197.58 1101.28 1049.55 1957.31
threshold=1.5000000000000002 1.0000000180025095e-35 1.0000000180025095e-35 1.1499023437500002 -0.11000174607609559 3.5000000000000004 0.10302041297860394 1.5000000000000002 2.5000000000000004 0.3070090200266285 1.7500000000000002 3.5000000000000004 1.5000000000000002 0.0030811569046651226 1.5000000000000002 1.5000000000000002 -0.20102396114562568 1.5000000000000002 2.5000000000000004 1.5000000000000002 -1.7945644899112823 -0.026172836406632056 2.5000000000000004 4.5000000000000009 5.5000000000000009 2.5000000000000004 1.5498046875000002 4.5000000000000009 1.0000000180025095e-35 3.5000000000000004 -0.35947399540145714 2.5000000000000004 2.5000000000000004 0.11661482165257049 2.5000000000000004 3.5000000000000004 1.0000000180025095e-35 54.500000000000007 1.0000000180025095e-35 1.5000000000000002 1.5000000000000002 2.5000000000000004 0.039102428865871237 -0.37896524347150135 4.5000000000000009 3.5000000000000004 2.5000000000000004 1.5025114862372628 26.500000000000004 8.5000000000000018 0.2592832962331249 1.5000000000000002 1.5000000000000002 3.5000000000000004 2.5000000000000004 4.5000000000000009 -1.0000000180025095e-35 1.5000000000000002 0.10243296125916355 1.5000000000000002 417.50000000000006 -0.3662205432754137 4.7500000000000009 3.5000000000000004 4.5000000000000009 1.5000000000000002
decision_type=2 2 8 2 2 2 2 2 2 2 2 2 2 2 2 2 2 2 2 2 2 2 2 2 2 2 2 2 2 2 2 2 2 2 2 2 2 8 2 2 2 2 2 2 2 2 2 2 8 10 2 2 2 2 2 2 2 2 2 2 10 2 2 2 2 2
left_child=1 2 5 29 48 13 8 -7 -6 20 11 18 21 32 -8 19 17 44 31 49 -3 -9 26 -15 -25 42 -21 -10 -23 47 -31 -11 33 -1 -35 36 64 38 39 40 50 -37 43 55 -17 46 53 -2 -5 -16 -38 -48 -32 54 -40 59 57 -57 -39 -4 -41 -26 -19 -60 65 -22
right_child=3 9 25 4 6 7 14 12 27 10 -12 -13 -14 23 15 16 -18 62 -20 22 35 28 -24 24 61 -27 -28 -29 -30 30 52 -33 -34 34 -36 41 37 58 45 60 -42 -43 -44 -45 -46 -47 51 -49 -50 -51 -52 -53 -54 -55 -56 56 -58 -59 63 -61 -62 -63 -64 -65 -66 -67
leaf_value=-0.00011719580871932349 -0.00012785490365957303 0.0025044487308917692 0.0029287560375577852 -0.00012441655820339474 -9.0708779086386577e-05 -0.00011051138338675678 -0.00011850754665224224 -6.7084144684351641e-05 0.0078414700697305561 0.0082190764578025325 0.0080666902402726157 -0.00011001444204336603 -9.1483134708410609e-05 -0.00010468080319589461 0.003459754225859014 0.0038631777093258509 -0.00010489253853993557 -9.025471472756803e-05 0.0018250965365907738 -6.0240084084124313e-05 0.0053964291087001039 0.0076804580992298269 -9.1967149921345475e-05 0.0069579982240878654 -9.090510285642883e-05 -8.7556716114575475e-05 0.007060714885050441 0.0027019232809670228 0.0026756799823714995 0.0059377314512910895 0.0034352972133880086 0.002984859069527058 -0.00012785312782747407 0.0058004963193519707 -9.4326032746850185e-05 -5.3463032659094904e-05 0.0083811336953200314 0.0090491577839675943 0.00533789856828327 0.0034497424216043461 -5.3046754250903318e-05 0.0061108280406295835 0.0073098407081248424 -6.4503749344957045e-05 0.0076885756475405754 0.0080682922310597767 0.0042881736556300608 0.0034361582316098658 0.0034824037335994115 -0.00012239309803379922 0.0045661960402858569 -7.4749853304922502e-05 -0.00011636736601002954 0.0042915696548617875 0.0077064306497789782 0.0051039872301040694 -6.9917246347791695e-05 0.003977755756140568 0.0081283203608090108 0.0061977710787336502 -9.6287719367980638e-05 0.0035010643239385898 0.0034844782661075965 0.0056780232397992663 0.007222275392533028 0.0084862783029161087
leaf_count=846 3814 213 171 1799 276 562 936 167 225 155 212 548 282 434 132 237 437 272 325 149 189 249 286 169 278 255 161 194 197 154 134 167 3809 225 306 132 138 250 337 130 131 138 173 159 245 787 194 134 131 1368 172 189 797 194 962 2437 175 2193 205 650 318 130 130 292 730 1812
internal_value=0 45.6752 26.5837 14.6404 20.1615 13.5532 24.9707 29.1823 43.4892 57.6146 43.4066 32.847 38.6131 8.23824 19.8522 23.778 34.2212 42.093 44.7641 13.9551 59.0695 45.9757 30.8276 24.7021 35.0315 36.8368 43.2666 52.7564 51.7841 4.93963 17.1838 55.2811 3.68342 14.0928 28.7516 59.444 59.841 56.7049 53.8616 40.0836 51.5606 35.1726 37.6701 36.4305 51.8583 56.4651 52.2454 0.581395 2.16275 3.01105 57.2939 21.6398 5.24224 55.4126 56.9219 36.9865 35.1119 35.8475 64.2363 44.9404 10.5631 11.6841 11.7785 56.036 63.2197 64.7869
internal_count=34798 22787 13867 12011 6978 7654 5048 1457 695 8920 1407 1195 895 6197 4353 3417 1321 884 647 2096 7513 613 596 1011 577 6213 310 419 446 5033 1085 322 5186 1377 531 7300 7030 4299 3552 889 441 270 5958 5785 482 2663 1876 3948 1930 1500 310 383 931 1493 1299 5626 4805 4630 747 821 448 408 402 497 2731 2001
shrinkage=0.00012934


Tree=5
num_leaves=67
num_cat=0
split_feature=56 56 195 388 390 64 164 120 21 164 397 397 289 79 238 171 96 356 213 141 192 383 49 235 128 304 196 230 391 396 32 394 238 382 164 289 17 316 370 102 129 152 79 43 15 24 301 388 35 152 152 295 51 385 264 193 15 279 382 164 277 79 399 397 326 146
split_gain=136690 150841 34122.6 8046.31 7711.6 7629.8 7399.52 6870.64 6777.37 7820.73 8549.62 8602.57 8422.91 6519 5858.21 9680.2 7999.9 5398.91 8241.87 5876.12 6520.18 5148.34 5142.82 5077.29 4869.94 6614 6964.48 6266.49 4632.6 4264.89 3919.26 3465.05 3426.5 3277.73 3219.35 2937.93 5828.28 2737.29 3695.96 4596.47 7602 4880.74 2707.46 2592.33 3811.76 3491.25 2358.27 1954.83 1896.35 8703.82 1991.93 3283.57 3167.88 1936.56 1837.46 1793.61 1718.83 3063.01 1718.58 1278.45 1197.26 1614.79 926.257 861.252 770.815 722.128
threshold=1.5000000000000002 1.0000000180025095e-35 1.5000000000000002 -0.20670200956096171 0.3070090200266285 1.5000000000000002 967.50000000000011 3.5000000000000004 4.5000000000000009 627.50000000000011 -0.10316248628889732 0.10302041297860394 2.5000000000000004 23.500000000000004 3.5000000000000004 3.5000000000000004 1.5000000000000002 2.5000000000000004 1.5000000000000002 1.5000000000000002 3.5000000000000004 -1.7945644899112823 5.5000000000000009 3.5000000000000004 2.5000000000000004 4.5000000000000009 3.5000000000000004 2.5000000000000004 -0.069488906514260582 -0.031525602299459991 6.5000000000000009 -0.05834526527336991 4.5000000000000009 -0.79599565442364362 503.50000000000006 3.5000000000000004 2.5000000000000004 1.0000000180025095e-35 54.500000000000007 1.0000000180025095e-35 1.5000000000000002 1.5000000000000002 52.500000000000007 1.0000000180025095e-35 3.5000000000000004 1.0000000180025095e-35 2.5000000000000004 0.2592832962331249 1.5000000000000002 1.5000000000000002 1.5000000000000002 1.5000000000000002 1.0000000180025095e-35 -0.24539023929393694 4.5000000000000009 4.5000000000000009 4.5000000000000009 3.5000000000000004 -0.78246760311923402 420.50000000000006 4.5000000000000009 26.500000000000004 -0.014254312055285502 0.10243296125916355 1.5000000000000002 2.5000000000000004
decision_type=2 2 2 2 2 2 8 2 2 8 2 2 2 10 2 2 2 2 2 2 2 2 2 2 2 2 2 2 2 2 2 2 2 2 10 2 2 2 8 2 2 2 10 2 2 2 2 2 2 2 2 2 2 2 2 2 2 2 2 10 2 8 2 2 2 2
left_child=1 2 22 5 21 6 17 43 9 10 -5 -12 -13 -9 16 58 28 18 19 -2 -21 -3 31 -17 25 -18 27 -27 -4 -8 37 -1 -10 -33 35 36 -35 60 39 40 41 47 -34 44 -6 -45 -31 -39 50 -50 51 -41 53 -52 -20 -7 57 -37 -16 -42 -23 -62 -25 -40 -38 -53
right_child=3 4 14 8 7 55 29 13 32 -11 11 12 -14 -15 15 23 24 -19 54 20 -22 30 -24 62 -26 26 -28 -29 -30 46 -32 33 42 34 -36 56 64 38 63 48 59 -43 -44 45 -46 -47 -48 -49 49 -51 52 65 -54 -55 -56 -57 -58 -59 -60 -61 61 -63 -64 -65 -66 -67
leaf_value=-7.4502935912187023e-05 0.0070197380906178095 0.0024984090646752934 -6.9659778022122983e-05 -0.00011361004346504362 -7.4100329938383782e-05 -0.00012106325208217647 -5.3205165249990547e-05 0.0062215739331203633 -0.00012819396231730161 -0.00012130737647431891 0.007890016455481404 0.0061159627463042441 -0.00011319632879426172 -0.00010788302750509424 0.0034885074923041966 0.0073378025987839539 -0.00011999331624709832 0.0062236718225360393 -0.0001230518073817835 -0.0001122558862341089 0.0058236733421875974 0.0083186116433959633 -9.3203910958373793e-05 -6.7000373848314694e-05 -0.00012779019646176349 -7.5380580531845469e-05 -0.00010347075438184396 0.0073896870165579614 0.00689053048718261 0.0031485897365157332 0.0037436359645665442 0.007554292542896586 -8.1174131411143502e-05 -9.9180997756331802e-05 -7.2467512686519414e-05 -6.3254697929547259e-05 0.0050517228669216324 0.0082844219678830863 0.008969019758333658 0.0040956992757104314 0.003438849073634447 -5.3053855891921452e-05 0.0052147906452691762 0.0080289930522192791 0.0062321575819014336 0.0029535768111333999 0.007798940085649686 0.0044545927366725123 -9.1162933336335998e-05 0.0074694986311312668 0.0072720312407811771 0.0086803596637683913 0.002496364576898771 0.0031954395031219035 0.0033604603976642262 0.0033923330349653899 0.0071683129273493445 0.005930243263873306 -0.00011649836092084504 -9.6993607376471205e-05 0.0043186106280987228 0.0075231960062388742 0.0034822513525493387 0.0074123506849970182 0.0042179568777108807 0.0074286254242614536
leaf_count=191 161 213 175 667 187 1181 134 131 4272 1213 142 193 650 494 130 198 1066 184 1483 615 160 1972 295 166 3731 195 414 165 134 154 246 148 220 351 184 154 2462 141 250 209 130 131 131 297 131 167 177 179 273 179 480 386 212 146 138 136 315 150 802 325 188 529 130 504 2311 820
internal_value=0 45.4097 26.4924 14.6125 57.1943 22.2682 27.4715 43.1695 8.83836 17.8726 26.7966 36.552 20.8216 20.7724 12.9018 25.7885 8.66601 21.0858 16.6316 31.3046 17.6909 58.6275 36.1582 43.5545 5.39683 15.5925 29.4379 44.0164 38.7176 47.0404 58.9964 37.0669 1.67992 37.6792 36.4052 37.0266 34.857 59.3874 56.3981 53.3893 39.5124 50.8396 23.2638 51.2521 32.202 56.8743 52.9898 56.4091 55.9997 42.1382 57.5333 60.5136 48.8438 52.9288 2.72612 3.52718 48.5671 33.0063 5.21982 10.4025 62.7154 54.9801 15.194 64.164 36.2631 62.1938
internal_count=34798 22787 13867 12011 8920 4523 3206 1407 7488 2865 1652 985 843 625 7306 1426 5880 2741 2557 936 775 7513 6561 494 5571 1840 774 360 309 465 7300 6266 4623 6075 5927 5743 5124 7054 4365 3611 906 451 351 782 318 464 331 320 2705 452 2253 1415 838 626 1621 1317 619 304 932 455 2689 717 296 754 4773 1206
shrinkage=0.00012934


Tree=6
num_leaves=67
num_cat=0
split_feature=56 56 195 388 337 254 390 232 329 300 56 120 21 164 164 79 158 238 171 196 269 383 204 196 123 328 390 103 79 238 16 92 388 63 79 316 140 80 262 48 158 49 388 153 14 291 396 320 356 388 391 54 157 300 383 364 92 111 164 320 255 97 393 357 51 289
split_gain=134966 148382 33790.3 7999.69 10630.9 8177.73 7547.35 7498.55 10298 7687.43 7146.62 6768.95 6751.98 7777.01 8362.77 6464.57 6382.22 5823.02 9589.29 5334.67 5300.46 5055.1 4595.47 4459.6 5128.06 8500.36 5879.34 5382.77 4585.8 3415.9 3354.68 5729.78 3139.27 2900.77 3073.68 2773.42 2719.97 2580.69 2507.34 2422.5 2289.85 2356.27 5319.62 2849.23 2236.77 2231.39 4052.79 1872.38 6173.54 2433.76 2065.13 1808.12 1713.8 1654.58 1456.37 1327.25 1293.25 1511.37 1145.77 1068.17 1345.91 1053.62 1007.68 1000.12 740.084 690.247
threshold=1.5000000000000002 1.0000000180025095e-35 1.5000000000000002 -0.20670200956096171 1.5000000000000002 3.5000000000000004 0.3070090200266285 1.5000000000000002 4.5000000000000009 5.5000000000000009 3.5000000000000004 3.5000000000000004 4.5000000000000009 627.50000000000011 475.50000000000006 23.500000000000004 1.5000000000000002 3.5000000000000004 3.5000000000000004 3.5000000000000004 2.5000000000000004 -1.7945644899112823 4.5000000000000009 3.5000000000000004 2.5000000000000004 3.5000000000000004 -0.54820669803307676 3.5000000000000004 1.0000000180025095e-35 4.5000000000000009 2.5000000000000004 7.5000000000000009 0.62528121054515473 3.5000000000000004 39.500000000000007 1.0000000180025095e-35 3.5000000000000004 1.5000000000000002 3.5000000000000004 1.0000000180025095e-35 2.5000000000000004 6.5000000000000009 -0.30936346350188143 2.5000000000000004 2.5000000000000004 3.5000000000000004 -0.016084496854194049 1.5000000000000002 1.5000000000000002 0.640601881293689 -0.36780948055398316 5.5000000000000009 1.5000000000000002 3.5000000000000004 -0.13428578603320976 2.5000000000000004 4.5000000000000009 3.5000000000000004 469.50000000000006 1.5000000000000002 2.5000000000000004 4.5000000000000009 -0.030940519165196089 2.0000000000000004 3.5000000000000004 3.5000000000000004
decision_type=2 2 2 2 2 2 2 2 2 2 2 2 2 8 10 10 2 2 2 2 2 2 2 2 2 2 2 2 10 2 2 8 2 2 10 2 2 2 2 2 2 2 2 2 2 2 2 10 2 2 2 2 2 2 2 2 8 2 8 10 2 2 2 2 2 2
left_child=1 2 16 4 5 7 21 10 9 -9 38 39 13 14 22 -13 30 23 52 32 -20 -3 -5 24 25 26 -4 -26 -29 -14 31 63 -16 35 -35 -23 -31 -22 61 45 56 43 -43 -42 -33 -8 53 48 58 -50 -49 -6 -19 -47 -18 -32 57 -37 -44 64 -61 -2 -28 -1 -45 -65
right_child=3 6 17 12 51 -7 11 8 -10 -11 -12 15 29 -15 19 -17 54 18 20 -21 37 33 -24 -25 27 -27 62 28 -30 36 55 44 -34 34 -36 40 -38 -39 -40 -41 41 42 47 59 -46 46 -48 50 49 -51 -52 -53 -54 -55 -56 -57 -58 -59 -60 60 -62 -63 -64 65 -66 -67
leaf_value=0.0081258090260685669 0.0085401085350325211 0.0024923972503600382 0.0076420427504705121 -0.00011823363298227461 -0.00012299831585589738 -0.00011274949427815665 0.0082963381205672423 -0.00012153202155308504 0.0066079275290551144 0.0055280050034197045 -7.879517008756249e-05 0.0061850219858242943 -0.00012819340937966225 -0.00012130605743430686 -9.215393821110414e-05 -0.00010788052012065476 -0.0001057981670658099 0.0034801957664289786 -7.2677632395784362e-05 0.0075049025612813781 0.0078048736341663188 0.0080470995403048463 0.0049572745377052365 -0.0001261686006097179 -0.00012504422304670114 -0.00011098292780965719 0.0034796869282364834 0.0062268607558379442 -8.7383613520089062e-05 -8.1502324439636459e-05 0.0020867005538618795 -8.2543502978569722e-05 0.0052122651895588918 -5.7865941582959553e-05 0.0061683981626777335 0.0070249910790335223 0.0052162809721246926 0.0030134526155826888 0.003185411463047043 0.0028587732796616768 0.0043640992991975866 -7.5317545050154327e-05 0.0034190751810095044 0.0082512977333007234 0.0045606850759564357 0.00325497048913438 -5.9895225171142265e-05 0.0081894632672984188 0.0078599151719374403 0.0031077651163202674 0.0043748571144281304 0.0033145170398538037 -0.00011650028416702765 0.007449027138298015 0.0034695479778672142 0.00460256151021835 0.0081021575562888661 0.0032356322649906375 -8.8838270469331927e-05 0.0032494371148290829 0.0068726532350405472 0.005151658862767426 -7.5199463776904477e-05 0.0033979386474733051 0.0059958722552642778 0.0065276557678693829
leaf_count=176 132 213 139 913 1471 632 170 1239 239 178 208 131 4272 1213 287 494 453 130 184 176 148 2731 146 2463 1992 576 130 132 254 221 270 224 130 140 130 357 130 162 150 174 286 190 130 526 172 142 145 166 137 152 183 141 802 151 130 4804 1054 142 256 141 384 133 194 133 195 199
internal_value=0 45.1475 26.4019 14.5847 22.2053 29.1523 56.7803 33.8162 23.1825 10.5123 48.4337 42.9356 8.82771 17.8311 26.7053 20.7179 35.9907 12.8799 25.7046 42.227 43.3179 58.1922 9.38498 8.65572 14.2548 26.8501 42.0981 6.34785 28.9164 1.67939 37.5292 47.515 20.5252 58.5555 34.8031 58.9423 23.1965 51.6368 55.3329 50.9227 55.898 52.1742 44.6172 55.9468 21.1696 54.2223 42.6887 47.7957 39.2183 52.3302 56.2169 2.74188 5.21603 49.9596 8.3894 34.8884 60.215 50.2745 11.928 58.1303 49.3767 60.531 14.1438 55.3128 61.5262 44.952
internal_count=34798 22787 13867 12011 4523 2911 8920 2279 1656 1417 623 1407 7488 2865 1652 625 6561 7306 1426 593 494 7513 1059 5880 3417 1039 463 2378 386 4623 5978 904 417 7300 270 7030 351 310 415 782 4299 2746 1214 1532 396 608 438 1024 675 289 349 1612 932 293 583 5074 1553 499 386 1246 525 265 324 508 721 332
shrinkage=0.00012934


Tree=7
num_leaves=67
num_cat=0
split_feature=45 390 190 96 32 27 199 66 180 153 83 24 33 170 319 184 128 238 157 14 392 336 201 197 393 282 302 371 212 136 334 122 359 44 316 240 250 234 16 234 49 336 81 276 102 318 155 392 177 301 102 392 399 314 327 97 287 7 318 204 311 381 237 330 150 323
split_gain=61603.7 16177.2 14977.9 14431.9 13005.8 10109.7 9381.8 8723.73 8380.92 8147.81 7140.76 6704.76 6613.7 9460.61 6293.21 6050.79 5920.79 5768.77 7834.37 5739.62 5655.1 6263.59 5485.29 5339.86 5310.52 5249.61 5172.52 5020.01 4821.38 7380.23 9023.35 6056.4 5774.18 4997.94 4810.33 4767.33 4715.99 4494.02 4455.78 4451.99 4383.11 8700.43 5326.14 4354.83 7205.06 5567.72 4311.14 3975.38 3787.23 3772.4 3613.03 5145.25 4851.16 3276.55 3154.12 3134.36 5355.81 3075.56 6653.31 5046.26 2964.34 2874.13 2851.69 2832.98 5409.07 2832.25
threshold=3.5000000000000004 0.3070090200266285 2.5000000000000004 2.5000000000000004 6.5000000000000009 -1.0000000180025095e-35 3.5000000000000004 4.5000000000000009 3.5000000000000004 2.5000000000000004 1.5000000000000002 1.0000000180025095e-35 1.0000000180025095e-35 1.5000000000000002 1.5000000000000002 3.5000000000000004 1.5000000000000002 3.5000000000000004 1.5000000000000002 2.5000000000000004 0.095502827574284729 1.5000000000000002 4.5000000000000009 2.5000000000000004 -0.6965113681082965 2.5000000000000004 5.5000000000000009 3.5000000000000004 1.5000000000000002 2.5000000000000004 3.5000000000000004 2.5000000000000004 4.5000000000000009 1.0000000180025095e-35 1.5000000000000002 4.5000000000000009 4.5000000000000009 4.5000000000000009 1.5000000000000002 3.5000000000000004 6.5000000000000009 4.5000000000000009 4.5000000000000009 3.5000000000000004 1.5000000000000002 2.5000000000000004 3.5000000000000004 0.39677985106598951 2.5000000000000004 3.5000000000000004 2.5000000000000004 0.54327015750474106 -0.016435542017308163 1.0000000180025095e-35 8.8515625000000018 7.5000000000000009 4.5000000000000009 6.5000000000000009 5.5000000000000009 3.5000000000000004 1.5000000000000002 0.3155434910713722 2.5000000000000004 1.0000000180025095e-35 1.0000000180025095e-35 2.5000000000000004
decision_type=2 2 2 2 2 2 2 2 2 2 2 2 2 2 8 2 2 2 2 2 2 2 2 2 2 2 2 2 2 2 2 2 2 2 2 2 2 2 2 2 2 2 2 2 2 8 2 2 2 2 2 2 2 10 10 2 2 8 8 2 2 2 2 2 2 2
left_child=1 2 7 10 5 -4 8 20 11 -5 15 38 24 -14 25 34 65 18 -11 23 21 39 37 -19 -7 -9 27 28 29 32 50 -30 -18 49 48 36 57 -20 -3 43 55 42 60 45 -45 -1 54 -13 -2 -34 51 -31 -52 -24 -40 63 -57 58 59 -22 -42 -44 -25 -26 -65 -15
right_child=3 6 4 9 -6 12 -8 14 -10 17 -12 47 13 16 -16 -17 26 19 22 -21 35 -23 53 62 40 -27 -28 -29 31 30 -32 -33 33 -35 -36 -37 -38 -39 46 -41 41 -43 61 44 -46 -47 -48 -49 -50 -51 52 -53 -54 -55 -56 56 -58 -59 -60 -61 -62 -63 -64 64 -66 -67
leaf_value=-9.6202279597898285e-05 0.0071827814345993756 -6.4552918486136555e-05 -9.7789488617861702e-05 -0.00012623344819445991 -0.00010546583761337145 0.0021384210821239961 0.00057241609240531502 -8.8521623159716769e-05 0.00087081881933495794 0.0056828634993874652 -0.00010075346470753099 -0.0001076807592030007 -0.00010005957128963605 0.0032306184244435868 -0.00011647992768673816 -8.6942507303364148e-05 -0.00010969981807244809 -7.3843559345455144e-05 -0.00012655384414305893 -9.4201732801575146e-05 0.0076307310002128982 -9.9534780162644285e-05 -6.2689019187395117e-05 0.002912141427509952 0.0076584627735495235 0.0060253085319593716 -7.9983769834828016e-05 -7.7153517179559918e-05 0.0029780525758509374 0.0064019978066114916 -9.7991984226788141e-05 0.0074447398512017737 0.0064503480888527965 -8.8746877385064674e-05 -6.7296699674655413e-05 -6.2391526673959591e-05 -5.7388249504169834e-05 0.004074137014056233 0.0069916283134497416 -8.580280242994789e-05 0.0028499193375869248 -9.5656812462216719e-05 0.0051402119391616439 0.0078759521566266807 -6.9487909327446519e-05 0.0047824790164186877 -5.5763700836886254e-05 0.0051813984529566733 0.0032270785724972046 -5.4742455076267738e-05 0.0059428235298642496 -6.7471265786274274e-05 -9.5499605913348305e-05 0.0061957210197399939 0.0025940226980312006 -8.1008916240381872e-05 0.006578664572490611 0.0078259175429128847 0.0015863038671750636 0.0022978638351982975 0.0073517479107415365 -8.7376568391910915e-05 0.0078344527836561543 -7.7032726949443408e-05 0.0066950967664938651 0.0080087328982077523
leaf_count=319 466 158 339 2490 441 262 1077 258 725 229 373 489 360 143 792 250 531 188 2674 303 305 352 155 172 2297 245 211 198 347 2458 336 837 288 258 167 151 140 215 679 241 174 311 130 244 172 5915 138 130 313 134 144 165 310 131 202 214 187 409 376 237 615 249 141 198 218 422
internal_value=0 42.1021 43.6346 18.8753 47.3365 47.9812 27.4203 37.3452 33.2832 12.5695 35.8398 39.0107 48.4824 44.4073 17.5808 41.1107 45.3879 18.5837 13.0085 33.9255 39.1729 36.1922 7.97422 42.9337 52.8492 33.3939 43.0117 43.6738 44.3164 40.7634 44.4126 53.1586 23.7779 34.1368 45.5771 48.2825 50.0417 3.19518 45.3065 37.1743 53.6357 44.0914 48.4575 37.8725 53.3578 35.9488 47.969 15.0221 49.128 43.1032 46.364 48.3238 25.6079 34.1638 50.5451 56.4087 37.4056 51.7819 43.3294 51.5186 53.7025 21.6376 51.3145 57.7417 40.4405 58.7601
internal_count=34798 26531 22933 8267 12777 12336 3598 10156 2521 6698 1569 1796 11997 7142 1295 1196 6782 4208 3404 804 8861 7243 3175 501 4855 503 6217 6006 5808 4624 3413 1184 1211 680 946 1618 1467 2889 1177 6891 4593 1479 1168 6650 416 6234 1019 619 779 422 3077 2623 454 286 881 3114 401 1327 918 542 789 379 313 2713 416 565
shrinkage=0.00012934


Tree=8
num_leaves=67
num_cat=0
split_feature=56 56 8 388 337 254 232 329 56 340 392 382 235 164 293 92 383 48 112 231 212 123 364 295 90 169 6 273 26 170 133 79 235 392 277 96 395 92 380 92 364 383 92 291 399 285 51 384 319 398 279 280 85 392 229 101 79 79 334 54 392 127 92 287 287 357
split_gain=132250 144269 33284.9 7911.68 10493.8 8063.73 7328.23 10128.4 6982.7 6316.31 7466.84 7243.66 7116.26 5999.58 8082.66 7258.29 5747.81 5770.77 5615.83 9597.34 4592.09 4426.1 4097.1 4048.2 3876.01 3985.7 5083.39 3751.65 6782.79 4059.06 8128.59 5870.75 3121.75 3104.59 8721.79 5319.85 4472.39 3042.94 2714.4 2547.77 2864.74 2920.89 2722.7 3568.8 2014.54 1950.74 1869 2244.83 3105.67 1972.03 1862.76 1841.87 1463.18 1399.99 1170.29 2164.66 3256.89 1444.79 1393.72 818.877 713.528 652.321 4866.69 593.03 713.107 453.859
threshold=1.5000000000000002 1.0000000180025095e-35 1.0000000180025095e-35 -0.20670200956096171 1.5000000000000002 3.5000000000000004 1.5000000000000002 4.5000000000000009 3.5000000000000004 4.5000000000000009 -0.38793476527737425 -0.84546133941306989 2.5000000000000004 627.50000000000011 5.5000000000000009 1.5000000000000002 -1.8226965483310513 6.5000000000000009 2.5000000000000004 1.5000000000000002 1.5000000000000002 2.5000000000000004 3.5000000000000004 3.5000000000000004 7.7500000000000009 1.5000000000000002 7.5000000000000009 5.5000000000000009 1.0000000180025095e-35 1.5000000000000002 1.5000000000000002 44.500000000000007 1.5000000000000002 0.24850972171862587 3.5000000000000004 1.5000000000000002 0.069417736656426587 4.5000000000000009 -2.0861325827698018 2.5000000000000004 4.5000000000000009 -0.15970738686426927 7.5000000000000009 3.5000000000000004 -0.088011415817466188 1.0000000180025095e-35 5.5000000000000009 0.1393159740089645 1.5000000000000002 0.022452579104134954 3.5000000000000004 1.5000000000000002 3.5000000000000004 -0.84773756031518599 4.5000000000000009 3.5000000000000004 38.500000000000007 52.500000000000007 3.5000000000000004 3.5000000000000004 -0.16666351227883777 3.5000000000000004 4.5000000000000009 5.5000000000000009 2.5000000000000004 2.0000000000000004
decision_type=2 2 8 2 2 2 2 2 2 2 2 2 2 8 2 10 2 2 2 2 2 2 2 2 2 2 2 2 2 2 2 10 2 2 2 2 2 10 2 10 2 2 10 2 2 2 2 2 10 2 2 2 2 2 2 2 10 8 2 2 2 2 10 2 2 2
left_child=1 2 9 4 5 6 8 20 45 11 -11 12 -1 14 15 -5 -3 27 19 -16 -8 39 -12 -22 25 26 -13 28 29 30 31 -18 38 46 52 -36 37 -37 -27 -4 42 -42 -41 -44 -17 -2 54 49 -49 60 -39 -6 -35 -34 57 56 -56 59 -59 61 -48 -31 -63 64 -54 -45
right_child=3 16 21 13 51 -7 7 -9 -10 10 22 24 -14 -15 18 44 17 -19 -20 -21 23 -23 -24 -25 -26 32 -28 -29 -30 33 -32 -33 53 34 35 36 -38 50 -40 40 41 -43 43 65 -46 -47 47 48 -50 -51 -52 -53 63 -55 55 -57 -58 58 -60 -61 -62 62 -64 -65 -66 -67
leaf_value=0.0066309337435659383 0.0042554159177587416 0.0022275805774861802 -5.7281843252480642e-05 0.0049837157000731146 0.0033681833732059664 -0.00011280340906969592 -0.00011996511875434885 0.0065337845973798625 -7.8861301353859811e-05 0.0065232154293768888 -0.00011326509812141751 0.005903918769547092 -9.6117211738866337e-05 -0.00012727548566107862 -0.00011652252994743289 0.0034400071823745414 -5.7281520617497866e-05 -5.7175706658822022e-05 0.0067818509492818214 0.0062979775295693647 -8.2237229148966328e-05 -8.7645284816410574e-05 0.0049045320962445797 0.0060382272891271209 0.004643621692844227 -8.1697364731313118e-05 -9.8744017745434423e-05 0.0036021061000889943 -6.585828295671007e-05 0.0076376926222809036 -9.407976856357455e-05 0.0079882180948025478 0.0023216100608557926 0.0052758293903466813 -9.206755199199512e-05 0.0024301920723172874 -7.2366548086461014e-05 0.0078545885907993045 0.0052009188404525232 0.0069294250165224678 0.0045947289598533472 -7.1804402044908398e-05 0.0063054616478828074 -5.4090643064033147e-05 -0.00012677180885249155 0.0078644656754478237 0.0081792465935999724 0.0058533722349421976 -6.6215626501283403e-05 0.0033126390164941273 0.0041971167724152471 -0.00012305133933531644 0.0077675703884838923 -0.00012853594565632667 -6.5378205092519827e-05 0.0075072921474850845 0.0060590331862215418 0.0082098886607169397 0.005451607064100499 0.0047879334924984555 0.0059790553829233237 -5.8670349491621772e-05 0.0070781692596401163 0.0088509503834701218 0.0048196927231974867 0.0024120423647950124
leaf_count=187 194 246 139 222 136 632 1055 239 208 237 652 149 321 3192 800 130 137 139 173 169 224 255 146 138 166 222 349 253 158 1424 291 139 237 190 280 216 179 150 130 474 4643 179 169 133 2802 221 202 146 159 134 198 1476 135 4858 155 236 131 2359 174 149 243 139 266 146 146 221
internal_value=0 44.6543 26.2125 14.4998 22.0493 28.9116 33.5104 23.0185 47.8653 13.4453 29.1182 9.90812 33.3872 8.7837 14.5763 6.35565 56.0285 56.3936 29.5092 18.5395 10.4568 36.1496 12.1148 29.7113 6.61686 5.00029 24.3336 56.6317 56.9788 57.2605 39.7913 52.5479 2.38173 57.9101 50.4895 34.9605 41.0312 46.135 23.1127 36.9543 37.4177 34.7914 46.2378 32.5842 1.10185 54.6063 59.2336 50.5818 32.233 54.9757 52.7048 2.73004 60.1632 0.224356 60.1568 50.1947 33.1894 60.817 62.9188 56.784 57.9932 57.4997 47.9366 63.1176 53.9589 12.8934
internal_count=34798 22787 13867 12011 4523 2911 2279 1656 623 7654 1035 6619 508 7488 4296 3154 8920 8674 1142 969 1417 6213 798 362 6111 5945 498 8535 8282 8124 567 276 5447 7557 1640 1023 743 564 352 5958 5819 4822 997 523 2932 415 5917 884 305 579 348 1612 617 5095 5033 522 286 4511 2533 1978 445 1829 405 427 281 354
shrinkage=0.00012934


Tree=9
num_leaves=67
num_cat=0
split_feature=56 56 8 77 397 238 397 159 11 390 77 229 29 304 388 164 178 273 228 187 371 318 244 157 164 177 123 266 226 32 21 43 15 92 291 92 359 292 51 164 388 295 173 385 326 21 164 385 173 396 273 334 371 92 250 77 395 176 210 359 321 250 77 316 77 384
split_gain=130608 141957 32957.6 9561.85 9806.93 9188.89 8094.66 8003.45 7758.73 7123.45 6938.88 8678.41 6786.54 8530.17 8257.1 8770.87 6714.38 5663.83 5578.94 5228.7 7128.98 4853.73 4506.25 5191.14 7231.73 5003.92 4385.37 4309.15 4858.22 3616.12 3483.14 2968.04 2863.64 2524 2591.48 5134.12 4134.69 2756.04 2447.19 8377.98 2795.21 3792.91 2435.08 3624.69 2327.58 1925.44 1684.3 1641.14 3510.75 1525.15 1437.35 1266.33 3399.8 1326.13 1375.01 1225.27 1175.23 1046.26 1022.52 949.785 670.813 668.987 651.042 562.485 360.671 419.511
threshold=1.5000000000000002 1.0000000180025095e-35 1.0000000180025095e-35 1.1499023437500002 -0.11000174607609559 3.5000000000000004 0.10302041297860394 1.5000000000000002 2.5000000000000004 0.3070090200266285 1.7500000000000002 2.5000000000000004 2.5000000000000004 3.5000000000000004 -0.25546096289783682 637.50000000000011 4.5000000000000009 4.5000000000000009 2.5000000000000004 1.5000000000000002 1.0000000180025095e-35 1.5000000000000002 4.5000000000000009 1.5000000000000002 698.50000000000011 2.5000000000000004 2.5000000000000004 3.5000000000000004 2.5000000000000004 6.5000000000000009 4.5000000000000009 1.0000000180025095e-35 2.5000000000000004 2.5000000000000004 3.5000000000000004 9.5000000000000018 5.5000000000000009 1.5000000000000002 5.5000000000000009 425.50000000000006 0.40022506259073121 2.5000000000000004 4.5000000000000009 0.2067061450121189 1.5000000000000002 1.5000000000000002 243.50000000000003 0.38608676731254077 3.5000000000000004 -0.0018583109480045377 5.5000000000000009 3.5000000000000004 1.0000000180025095e-35 6.5000000000000009 3.5000000000000004 1.5498046875000002 -0.10861804718341538 2.5000000000000004 3.5000000000000004 2.5000000000000004 5.5000000000000009 4.5000000000000009 0.94995117187500011 1.0000000180025095e-35 1.8500976562500002 0.084653658280234037
decision_type=2 2 8 2 2 2 2 2 2 2 2 2 2 2 2 10 2 2 2 2 2 10 2 2 8 2 2 2 2 2 2 2 2 10 2 10 2 2 2 8 2 2 2 2 2 2 8 2 2 2 2 2 2 8 2 2 2 2 2 2 2 2 2 2 2 2
left_child=1 2 5 16 45 22 8 -7 -6 29 11 17 14 -14 15 46 42 32 -17 20 60 -20 23 24 -1 -24 33 28 58 38 -10 -18 -11 -4 59 36 37 44 50 -40 -41 -42 -2 -44 -36 -5 -8 -25 -49 -13 51 53 -53 54 62 63 -21 -43 -15 -35 -9 64 -3 -56 65 -55
right_child=3 9 26 4 6 7 12 19 30 10 -12 49 13 27 -16 18 31 -19 21 56 -22 -23 25 47 -26 -27 -28 -29 -30 -31 -32 -33 -34 34 35 -37 -38 -39 39 40 41 57 43 -45 -46 -47 -48 48 -50 -51 -52 52 -54 61 55 -57 -58 -59 -60 -61 -62 -63 -64 -65 -66 -67
leaf_value=-0.00010837750104376218 -0.00012818245082812173 0.0068927801924816004 -5.7278132940172972e-05 0.0034294360260946435 -9.0901867735681014e-05 -0.00011061975877706766 0.0034120730362790942 0.0049915925827079986 0.0076016909509243136 0.007749151149326703 0.0078113748164978696 -0.00010993729098539646 -0.00010471331176167577 0.0080923575272321083 -0.00012467895052996745 -8.0206887067528845e-05 -5.4713671855661223e-05 -7.2760161399741419e-05 -5.3552748700994077e-05 0.0034394298601288773 -7.9573273958746007e-05 0.0073906202576405344 0.0054786157405015282 -0.00012808190396728454 0.0059830421468913438 -9.7828287704967854e-05 -8.7641707623293765e-05 -6.0690719717112178e-05 -5.3904476149205538e-05 0.0036679387218180358 0.0026638053968421945 0.0061692603487326983 0.0029366139977583432 0.0074654398624245917 0.0051067959492807676 -9.3894760021272336e-05 0.0072255641225298997 -6.8609684906109454e-05 -8.7865962783846585e-05 0.0077596612088198739 -6.5829442570417904e-05 0.0033228959622453422 -0.00010281480763860829 0.0051431479978225119 0.003829670409942902 -0.00012444789582119218 -0.00011688437135388277 -0.0001127668311553901 0.0043949023706821196 0.0034342970420682003 0.0045603000039379374 0.0024196208870895519 0.0072541037202209615 0.0082596558155229038 0.0072828441645226283 0.0031360717464682889 -9.0216589930859213e-05 0.006918272908423089 0.0048374251538764899 0.0044563390968352171 0.0079382133968242362 0.0062403109030931851 0.0078884387952064001 0.005410873846820507 0.0085968478862849963 0.0074449110752501223
leaf_count=506 4234 1060 139 132 276 562 131 139 225 179 212 538 431 130 1861 213 136 182 133 130 211 204 246 4092 196 339 255 149 134 247 194 130 166 168 2545 295 221 167 246 347 157 133 402 131 2249 1798 818 634 184 130 162 214 181 677 229 144 271 151 149 174 144 254 870 369 402 1670
internal_value=0 44.4008 26.1239 14.4723 19.8864 13.4218 24.5783 28.6791 42.4588 55.6312 42.267 32.0863 19.5841 34.0011 13.0444 24.5619 4.89949 45.4681 40.7673 37.8114 46.9937 49.5232 8.17907 5.32377 23.5357 26.6341 35.9817 44.7083 50.1179 56.9869 51.3118 35.2525 52.5779 36.7791 37.2381 35.6934 36.7669 34.8341 57.3528 48.3259 52.8959 38.6864 1.59175 16.9343 35.4991 2.14686 5.06215 1.52161 11.8659 7.24687 58.278 58.5294 46.0564 58.9972 55.7274 47.4384 11.7126 46.627 56.2165 51.1901 55.9423 61.0694 57.6788 50.0227 61.6446 60.0965
internal_count=34798 22787 13867 12011 6978 7654 5048 1457 695 8920 1407 1195 4353 993 3360 1499 5033 527 550 895 494 337 6197 5612 702 585 6213 562 413 7513 419 266 345 5958 5819 5477 5182 4961 7266 1034 788 441 4767 533 4794 1930 949 4910 818 668 6232 6070 395 5675 2672 742 401 284 279 342 283 3003 1930 598 2749 2347
shrinkage=0.00012934


Tree=10
num_leaves=67
num_cat=0
split_feature=56 56 8 77 397 238 397 159 390 77 120 29 304 178 370 395 399 370 393 64 383 412 244 128 330 187 328 161 123 32 21 43 43 394 381 316 370 43 173 394 92 302 370 319 314 1 44 144 137 386 392 292 292 289 290 246 277 323 79 385 123 184 391 39 399 222
split_gain=128996 139693 32636.5 9513.09 9748.03 9130.17 8005.44 7937.99 6975.8 6817.9 9921.07 6729.18 8447.39 6678.97 6521.25 8088.76 6269.4 6232.29 5295.13 5031.25 4789.15 4726.89 4708.21 4540.04 4494.83 4485 4475.81 4361.65 4345.33 3613.19 3595.21 3261.73 2938.41 2581.03 2677.13 2473.52 3459.36 2456.35 2429.4 3621.39 2387.23 4370.31 2127.87 2023.64 1923.67 1837.17 1717.91 3102.23 2435.88 1495.05 1494.76 1298.99 3475.69 1652.46 1394.72 1259.05 1123.17 1879.36 1519.63 1103.87 1051.2 3520.53 916.157 896.882 895.643 843.249
threshold=1.5000000000000002 1.0000000180025095e-35 1.0000000180025095e-35 1.1499023437500002 -0.11000174607609559 3.5000000000000004 0.10302041297860394 1.5000000000000002 0.3070090200266285 1.7500000000000002 3.5000000000000004 2.5000000000000004 3.5000000000000004 4.5000000000000009 81.500000000000014 -0.011776386124354858 0.0030811569046651226 228.50000000000003 -0.026172836406632056 1.5000000000000002 -1.7945644899112823 1.0000000180025095e-35 4.5000000000000009 2.5000000000000004 1.5000000000000002 1.5000000000000002 3.5000000000000004 2.5000000000000004 2.5000000000000004 6.5000000000000009 4.5000000000000009 1.0000000180025095e-35 1.0000000180025095e-35 0.039102428865871237 -0.37896524347150135 1.0000000180025095e-35 54.500000000000007 5.5000000000000009 4.5000000000000009 0.1035867136294215 3.5000000000000004 2.5000000000000004 41.500000000000007 2.5000000000000004 26.500000000000004 7.5000000000000009 3.5000000000000004 2.5000000000000004 4.5000000000000009 -0.78527007648592695 -0.0074729153421241928 3.5000000000000004 2.5000000000000004 3.5000000000000004 1.5000000000000002 4.5000000000000009 4.5000000000000009 1.5000000000000002 26.500000000000004 0.28455494576502055 2.5000000000000004 2.5000000000000004 -0.36845744343053211 3.5000000000000004 -0.011481525896870471 3.5000000000000004
decision_type=2 2 8 2 2 2 2 2 2 2 2 2 2 2 10 2 2 8 2 2 2 2 2 2 2 2 2 2 2 2 2 2 2 2 2 2 8 2 2 2 10 2 8 8 8 2 2 2 2 2 2 2 2 2 2 2 2 2 8 2 2 2 2 2 2 2
left_child=1 2 5 13 44 16 17 -7 20 10 24 14 -13 38 21 -16 22 30 -9 43 -3 45 55 26 31 42 -18 -24 33 35 -6 -10 -15 34 51 56 40 -33 -2 -40 41 62 -20 -14 -5 -8 48 60 59 -25 -17 52 53 -4 -55 -1 57 -22 -58 -42 -48 -62 -37 -21 -27 -38
right_child=3 8 28 4 6 7 11 18 9 -11 -12 12 19 32 15 50 23 -19 25 63 29 -23 27 49 -26 64 -28 -29 -30 -31 -32 37 -34 -35 -36 36 65 -39 39 -41 46 -43 -44 -45 -46 -47 47 -49 -50 -51 -52 -53 -54 54 -56 -57 58 -59 -60 -61 61 -63 -64 -65 -66 -67
leaf_value=-0.00012829806541133604 -0.00012818189524326713 0.0024534356257461735 0.0044403754744752879 -0.00012444833332351187 0.0073552610803137323 -0.00011061745985068443 -0.00012600519642594105 -8.6719715336668908e-05 0.0025264888914621406 0.0077521798008928196 -0.00011019464341612199 -0.00010471057938039088 0.0079567665394730189 -5.4710025297531271e-05 -0.0001047115772090868 0.0031683280946521223 0.0065072438089859696 -8.3804862145220747e-05 0.0075332075291469 -6.6289792932036439e-05 0.005170247567920715 0.0048419627081146329 0.0055345972536712858 0.0034315674598755707 -6.7176381331849339e-05 -6.5598251486249215e-05 -7.0386993952573771e-05 -9.5660964470372018e-05 -8.7638130294432704e-05 0.0036637114156439199 0.0025079646130055271 0.008046262922240352 0.0061333089510844947 0.0070548222222149137 -6.5294667509473777e-05 0.0032746730967106469 0.0082406492084072889 0.0032589304529713702 -0.00010288219937524855 0.0051357857307409724 0.0073540485949982097 0.0063091409388201965 0.0031480733237073313 0.0033926939972525405 0.0034264450418450003 0.0031939725451777968 0.0075346174063701411 0.002228352282763843 0.0030667447390601574 -0.0001086278385506913 0.0072031464345635411 0.0064782473002343742 -7.989117399082847e-05 0.0031485074264747813 0.0068863491638382545 0.0021044850096208312 0.0041939385465470371 0.0081122087197909084 0.0072542027690220921 0.0045675278871222681 -5.8033866275743567e-05 0.0062446505839291342 -7.4860091724991749e-05 0.0034258737565721342 0.0034384473307676965 0.005958080535878825
leaf_count=4427 4234 213 4856 1799 253 562 2356 248 206 212 548 431 137 136 431 148 193 231 207 163 190 149 173 131 163 161 176 317 255 246 211 140 130 173 159 135 571 138 403 130 1878 377 149 132 131 146 148 238 149 511 130 193 207 145 225 269 188 1782 529 159 137 206 184 130 130 183
internal_value=0 44.1501 26.036 14.4449 19.8354 13.3982 24.501 28.5754 55.2394 42.0424 31.9565 19.5346 33.8553 4.89603 13.0218 30.394 8.16992 42.2317 37.633 44.4587 56.5756 5.59366 3.65935 24.3044 43.2765 43.6756 39.0642 24.5032 35.8159 56.9224 49.3432 48.4058 35.0987 36.606 35.418 57.2893 54.4815 55.4036 1.59126 16.8981 51.6163 39.7756 52.161 54.7491 2.14608 1.44216 53.3057 43.8106 55.2436 7.60642 47.3254 35.9512 35.0201 35.772 47.4142 0.327458 60.4066 61.9258 53.0565 56.085 49.2819 39.4339 13.716 15.1295 15.2425 61.8597
internal_count=34798 22787 13867 12011 6978 7654 5048 1457 8920 1407 1195 4353 993 5033 3360 709 6197 695 895 562 7513 2651 5186 1011 647 647 369 490 6213 7300 464 484 266 5958 5785 7054 4365 278 4767 533 3611 696 356 269 1930 2502 2915 729 2186 642 278 5626 5433 5226 370 4696 2689 1972 717 2037 491 343 319 293 291 754
shrinkage=0.00012934


Tree=11
num_leaves=67
num_cat=0
split_feature=56 56 8 388 39 390 21 164 164 252 340 120 340 392 167 235 390 384 235 169 6 196 201 123 251 54 383 204 140 123 395 183 218 388 390 53 63 394 6 387 43 48 15 394 170 110 133 51 398 384 292 19 326 289 17 143 128 371 102 207 277 392 207 383 384 54
split_gain=127406 137476 32319.8 7795.54 7332.04 6831.81 6635.68 7590.91 8062.16 6610.34 6581.39 6368.79 6209.46 7256.26 6267.06 7222.04 6079.71 6722.9 5958.25 5580.73 5275.28 5052.02 4958.8 6607.81 4953.7 4738.99 4705.08 4489.5 4356.51 4305.84 4002.83 3213.23 3162.14 3049.78 2878.06 2774.39 2725.21 2538.92 2506.98 2494.93 2377.13 5523.22 3660.15 2361.74 2090.29 7375.23 1827.61 1799.24 2710.12 3035.46 1276.22 4667.91 2024.71 1628.22 3287.07 1168.29 1110.77 1643.47 1528.8 3096.03 3513.58 1184.5 1004.28 818.231 641.447 961.862
threshold=1.5000000000000002 1.0000000180025095e-35 1.0000000180025095e-35 -0.20670200956096171 1.5000000000000002 0.3070090200266285 4.5000000000000009 627.50000000000011 475.50000000000006 1.5000000000000002 3.5000000000000004 3.5000000000000004 4.5000000000000009 -0.38793476527737425 1.5000000000000002 2.5000000000000004 -0.03864391401038126 0.070558251965199367 2.5000000000000004 1.5000000000000002 6.5000000000000009 3.5000000000000004 2.5000000000000004 3.5000000000000004 3.5000000000000004 5.5000000000000009 -1.7945644899112823 4.5000000000000009 3.5000000000000004 2.5000000000000004 0.10110878797720572 4.5000000000000009 2.5000000000000004 0.62528121054515473 -0.17595193456735922 2.5000000000000004 3.5000000000000004 0.039102428865871237 11.500000000000002 -0.1455107374307156 1.0000000180025095e-35 1.0000000180025095e-35 3.5000000000000004 -0.025803298336064342 1.5000000000000002 2.5000000000000004 2.5000000000000004 5.5000000000000009 0.022452579104134954 0.13557201116986173 3.5000000000000004 4.5000000000000009 1.5000000000000002 3.5000000000000004 4.5000000000000009 1.5000000000000002 1.5000000000000002 3.5000000000000004 2.5000000000000004 3.5000000000000004 4.5000000000000009 0.8068193499708266 2.5000000000000004 -0.19905538608472298 0.082899022973789468 3.5000000000000004
decision_type=2 2 8 2 2 2 2 8 10 2 2 2 2 2 2 2 2 2 2 2 2 2 2 2 2 2 2 2 2 2 2 2 2 2 2 2 2 2 2 2 2 2 2 2 2 2 2 2 2 2 2 2 2 2 2 2 2 2 2 2 2 2 2 2 2 2
left_child=1 2 12 4 9 26 7 8 27 -2 18 40 14 -14 15 16 17 -1 -11 34 -20 33 55 24 46 -6 -3 -5 -13 37 -15 -8 -21 -10 -17 -33 44 43 -34 -19 42 62 -7 -4 45 -28 -24 56 49 -49 51 -45 53 54 -53 -22 -46 58 61 60 -60 64 -42 -62 -58 -66
right_child=3 5 29 6 25 11 31 -9 21 10 -12 28 13 30 -16 19 -18 39 20 32 22 -23 23 -25 -26 -27 36 -29 -30 -31 -32 35 38 -35 -36 -37 -38 -39 -40 -41 41 -43 -44 50 47 -47 -48 48 -50 -51 -52 52 -54 -55 -56 -57 57 -59 59 -61 63 -63 -64 -65 65 -67
leaf_value=-8.5587300415306935e-05 0.0068989723240338767 0.0024476291654637371 -5.8237491312507441e-05 -0.00011831010498424556 -0.00012290003934995399 -7.4943025397727504e-05 -0.00012819653058181518 -0.00012134672667609912 -9.2342463560808139e-05 -0.00010685935739872412 -0.00011555046539720435 -0.00010377113797402552 0.006419651035411345 -0.00011323825957403028 -0.00012670852990793061 0.0061127318253471679 -9.9067075178393084e-05 0.0030668496992072871 -9.5751786434598892e-05 -0.0001260122001979656 -9.0702966756240627e-05 0.0072947390174390057 0.0075862258790442552 -8.3533540490179198e-05 -5.6841743984071053e-05 0.0046569364075436043 0.0071436937987583021 0.0048587093200006485 0.0049994709870197556 -8.7634553319292194e-05 0.0048200992512757185 -8.5775489267696518e-05 -7.8760865627824803e-05 0.0051028827522871427 -5.3361757357896584e-05 0.0050938722363936791 0.0043741672861614816 0.0070069606638597549 0.0050629587973031846 0.0078344570776594357 0.0049916349397197196 -5.3593459082837575e-05 0.0060402403847555847 -9.2308855384228927e-05 0.0083542511220867435 -8.6554469425676714e-05 0.0033894159519797101 0.0074114267042522464 0.0026257841783788672 0.0040899868609536984 0.0064273927040920916 -7.1455739723288794e-05 0.0039106327962158995 0.0065898755510384165 0.0049355512152090145 0.0034108854986467413 0.0080080583913085847 0.0043789799320582091 0.006244505490025737 0.0076682044365213829 0.0031875722482618005 0.0047080143399452308 0.0081303921121827147 -6.8179495048633108e-05 0.0074337709066428859 0.0053664837192640025
leaf_count=241 188 213 142 913 1445 187 4249 1213 287 470 744 412 237 649 2764 130 352 157 316 2369 273 176 295 229 140 161 182 146 213 255 149 243 208 130 133 131 270 173 135 130 131 130 131 278 426 235 132 454 188 307 194 175 2265 294 2437 130 1241 170 243 236 139 146 203 160 2667 236
internal_value=0 43.9021 25.9487 14.4178 21.8778 54.8528 8.74794 17.6067 26.2686 27.7571 23.0757 41.8201 13.3747 28.8334 9.8661 15.9168 31.9298 41.4717 28.5821 8.44574 33.5671 41.2951 37.9809 44.3178 50.2411 6.159 56.1699 9.2899 20.387 35.6516 12.0554 1.66575 3.43249 20.2428 35.1926 21.9072 56.5117 36.4345 23.3521 52.0227 49.4189 54.6872 31.3535 35.257 56.8791 42.002 54.6818 57.3596 49.1908 52.0567 35.7274 34.806 35.8157 39.1921 36.8289 11.5795 58.2064 57.2295 57.5485 49.0501 37.1007 58.4865 59.019 14.2813 58.7971 56.8108
internal_count=34798 22787 13867 12011 4523 8920 7488 2865 1652 2917 2729 1407 7654 1035 6619 3855 880 528 1985 2975 1515 593 1199 796 567 1606 7513 1059 625 6213 798 4623 2712 417 263 374 7300 5958 343 287 782 464 318 5785 7030 417 427 6613 949 761 5643 5449 5171 2906 2612 403 5664 5238 5068 778 542 4290 334 299 4144 2903
shrinkage=0.00012934


Tree=12
num_leaves=67
num_cat=0
split_feature=56 56 8 77 397 238 397 159 390 77 229 7 112 329 284 383 184 337 173 273 196 244 173 273 383 275 123 97 32 15 187 394 381 316 370 102 152 244 91 312 385 192 291 387 387 321 21 384 143 250 207 102 234 234 54 272 292 19 289 290 90 277 44 222 371 326
split_gain=125847 135306 32007.2 9427.91 9646.4 9029.96 7852.03 7827.15 6690.96 6644.8 8446.72 6115.18 6071.69 5734.79 5790.61 7704.55 6625.12 6374.35 5741.56 5495.74 4808.63 7275.09 6109.24 4660.83 4622.97 4287.59 4266.9 4022.21 3510.97 2736.77 2547.34 2497.71 2631.61 2383.13 3354.1 4318.03 5789.89 2373.41 3279.6 2269.93 2252.58 4410.75 3814.33 2162.63 2062.71 2032.53 1909.86 1860.62 1832.86 2606.25 1779.35 6364.01 2850.84 1742.28 1574.66 1479.52 1257.78 4623.76 2049.29 1381.49 1165.47 1068.82 1062.17 813.742 983.253 692.452
threshold=1.5000000000000002 1.0000000180025095e-35 1.0000000180025095e-35 1.1499023437500002 -0.11000174607609559 3.5000000000000004 0.10302041297860394 1.5000000000000002 0.3070090200266285 1.7500000000000002 2.5000000000000004 11.500000000000002 1.5000000000000002 1.5000000000000002 1.5000000000000002 -0.20102396114562568 1.5000000000000002 1.5000000000000002 2.5000000000000004 4.5000000000000009 2.5000000000000004 4.5000000000000009 1.0000000180025095e-35 5.5000000000000009 -1.7945644899112823 0.94995117187500011 2.5000000000000004 4.5000000000000009 6.5000000000000009 2.5000000000000004 1.5000000000000002 0.039102428865871237 -0.37896524347150135 1.0000000180025095e-35 54.500000000000007 1.0000000180025095e-35 1.5000000000000002 4.5000000000000009 21.500000000000004 4.5000000000000009 0.25811648583004798 3.5000000000000004 4.5000000000000009 -0.1045003570940642 -0.9983263860847198 4.5000000000000009 1.5000000000000002 0.15551880793944167 1.0000000180025095e-35 2.5000000000000004 3.5000000000000004 2.5000000000000004 1.5000000000000002 3.5000000000000004 1.5000000000000002 3.5000000000000004 3.5000000000000004 4.5000000000000009 3.5000000000000004 1.5000000000000002 4.7500000000000009 4.5000000000000009 5.5000000000000009 3.5000000000000004 2.5000000000000004 1.5000000000000002
decision_type=2 2 8 2 2 2 2 2 2 2 2 8 2 2 2 2 2 2 2 2 2 2 2 2 2 2 2 2 2 2 2 2 2 2 8 2 2 2 10 2 2 2 2 2 2 2 2 2 2 2 2 2 2 2 2 2 2 2 2 2 2 2 2 2 2 2
left_child=1 2 5 23 46 20 11 -7 24 10 19 27 25 -8 16 17 18 39 -15 29 21 22 -1 37 -3 30 31 -6 33 -10 45 32 56 61 35 36 48 44 -39 -16 -22 -42 -43 -29 -2 -9 -5 -18 -35 -50 51 53 -53 54 62 -12 57 -4 65 -60 -19 -26 -37 64 -36 -59
right_child=3 8 26 4 6 7 13 12 9 -11 55 -13 -14 14 15 -17 47 60 -20 -21 40 -23 -24 -25 28 -27 -28 43 -30 -31 -32 -33 -34 34 63 50 -38 38 -40 -41 41 42 -44 -45 -46 -47 -48 -49 49 -51 -52 52 -54 -55 -56 -57 -58 58 59 -61 -62 -63 -64 -65 -66 -67
leaf_value=0.0046033000270219769 0.0034285705362278474 0.0024418488941632148 -9.2172257340415102e-05 0.0034034524264027594 0.0077137720877180366 -0.00011062447518523017 -0.00011859578650586059 0.0033932948877236431 0.0075923322931463312 0.0076491938369369177 -0.00010991467141884627 -8.3852285011821296e-05 -9.1858821920100435e-05 -9.2532632328997636e-05 0.0037576860678330548 -0.0001050498691707579 -0.00012293461609195049 -9.0474558439892312e-05 0.0060757099481891126 -7.2972818572621624e-05 -0.00012747908931702156 0.0062882407641551199 -0.00012150143521792324 0.0048461489239692655 0.0078875310140416443 -6.2199288891402898e-05 -8.763097606108394e-05 0.005050941726694862 0.0036276439768214261 0.0029090491715297335 0.002775970692614641 0.0069597393191634504 -6.5334029533566925e-05 0.006827654994571308 0.0084710265985830681 0.0074426637420766757 -9.0038754074634679e-05 0.0051098542634724787 -9.7079516303612124e-05 0.0073423535915416354 -0.00011702780839995038 -7.7325603091663898e-05 0.0060721215115655362 -6.6849186991820841e-05 -0.00012822701014130779 0.0079151172338238849 -0.00012445169511649735 0.0034061246184632337 -6.3927647657827392e-05 0.0051681014891897864 0.0076002226073672435 0.0049461349788571755 -9.0984308227918796e-05 0.0039963794234909164 0.0041966196766957215 0.0033532654125042983 0.0063983540874314269 0.0047408690874613966 0.0032444858714806833 0.0070487388547009122 0.0034116777035481565 0.0067705213807852851 0.0052637789566665283 0.0058831882242458182 0.0063769769368621004 0.0039531059844800445
leaf_count=256 130 213 277 132 171 562 936 130 179 212 536 231 282 288 237 437 1448 272 230 182 3380 164 1231 147 1972 152 255 130 246 166 181 173 159 245 350 879 257 130 331 245 832 202 132 163 4295 150 1798 130 149 255 797 132 263 203 186 132 193 2612 136 197 130 717 245 183 221 2211
internal_value=0 43.6569 25.862 14.3906 19.7393 13.3513 24.3594 28.39 54.4716 41.6006 31.6714 41.8301 37.3212 19.4421 23.2298 33.2212 13.7141 40.6591 32.5477 44.7259 8.14959 18.9808 9.9773 4.88674 55.7698 44.2497 35.4888 48.8081 56.1067 51.6248 49.1426 36.2646 35.0975 56.4652 53.7238 50.919 37.7829 2.73953 18.8496 49.753 3.00973 12.4592 30.9537 25.4276 0.404174 55.1261 2.14288 2.78618 43.8389 31.766 53.3852 49.603 20.2835 52.6164 54.1059 7.19713 35.6216 34.7065 35.7066 48.6255 11.6213 59.5058 55.6138 60.9374 62.747 34.161
internal_count=34798 22787 13867 12011 6978 7654 5048 1457 8920 1407 1195 695 895 4353 3417 1321 2096 884 518 527 6197 1651 1487 5033 7513 613 6213 464 7300 345 461 5958 5785 7054 4365 3611 906 4886 461 482 4546 1166 334 293 4425 280 1930 1578 649 404 2705 1908 395 1513 1310 668 5626 5433 5156 333 402 2689 1124 754 571 4823
shrinkage=0.00012934


Tree=13
num_leaves=67
num_cat=0
split_feature=56 56 8 77 397 238 397 340 389 29 108 164 178 390 77 229 399 370 318 300 79 15 45 244 196 298 383 123 300 21 32 164 394 295 173 394 316 370 102 129 15 393 21 35 144 144 164 79 243 399 391 393 70 246 164 292 292 326 397 290 17 277 323 79 389 295
split_gain=124312 133182 31699.7 9380.16 9589.13 8972.34 7766.88 7406.96 7140.56 6600.26 7517.52 8616.04 6598.75 6554.53 6530.89 8357.19 6199.46 6049.72 5350.28 4971.67 5594.35 4710.78 5198.65 4658.49 5274.11 4544.94 4542.82 4228.55 3678.15 3459.86 3443.56 2893.15 2471.08 3762.89 2415.29 3564.87 2321.91 3278.74 4235.31 7120.71 2277.93 1960.48 1903.34 1742.8 4129.55 1792.6 1692.12 1674.32 1594.06 1503.07 1497.59 2378.55 1263.36 1251.81 1223.08 1207.74 3340.9 2521.89 1179.96 1042.39 1152.62 1037.53 1806.58 1462.24 811.033 797.502
threshold=1.5000000000000002 1.0000000180025095e-35 1.0000000180025095e-35 1.1499023437500002 -0.11000174607609559 3.5000000000000004 0.10302041297860394 4.5000000000000009 0.67819694884690607 2.5000000000000004 1.0000000180025095e-35 637.50000000000011 4.5000000000000009 0.3070090200266285 1.7500000000000002 2.5000000000000004 0.0030811569046651226 228.50000000000003 1.5000000000000002 2.5000000000000004 55.500000000000007 4.5000000000000009 5.5000000000000009 4.5000000000000009 2.5000000000000004 1.5000000000000002 -1.7945644899112823 2.5000000000000004 3.5000000000000004 4.5000000000000009 6.5000000000000009 386.50000000000006 -0.025803298336064342 5.5000000000000009 4.5000000000000009 0.1035867136294215 1.0000000180025095e-35 54.500000000000007 1.0000000180025095e-35 1.5000000000000002 2.5000000000000004 -0.01885269021113475 1.5000000000000002 1.5000000000000002 2.5000000000000004 3.5000000000000004 238.50000000000003 31.500000000000004 2.5000000000000004 -0.045882432177341857 -0.36845744343053211 -0.012388771720983327 8.5000000000000018 4.5000000000000009 420.50000000000006 3.5000000000000004 2.5000000000000004 1.5000000000000002 -0.30727637148303638 1.5000000000000002 1.5000000000000002 4.5000000000000009 1.5000000000000002 26.500000000000004 0.46990364697269638 1.5000000000000002
decision_type=2 2 8 2 2 2 2 2 2 2 2 10 2 2 2 2 2 8 10 2 8 2 2 2 2 2 2 2 2 2 2 10 2 2 2 2 2 8 2 2 2 2 2 2 2 2 8 8 2 2 2 2 2 2 10 2 2 2 2 2 2 2 2 8 2 2
left_child=1 2 5 12 42 16 17 8 47 10 11 46 34 26 15 28 23 29 -13 52 48 -18 -23 53 -25 -20 -3 32 -15 -6 36 -14 -4 -34 -2 -36 61 38 39 41 -30 -38 -5 45 -45 50 -8 -7 -21 -17 65 -52 -11 -1 -41 56 57 59 -24 -35 -61 62 -28 -63 -55 -40
right_child=3 13 27 4 6 7 9 -9 -10 19 -12 18 31 14 -16 49 21 -19 25 20 -22 22 58 24 -26 -27 30 -29 40 -31 -32 -33 33 55 35 -37 37 -39 43 54 -42 -43 -44 44 -46 -47 -48 -49 -50 -51 51 -53 -54 64 -56 -57 -58 -59 -60 60 -62 63 -64 -65 -66 -67
leaf_value=-0.00012830048731153344 -0.00012818473658248423 0.0024360950406804166 -5.8257778028117363e-05 0.0033926962186366007 0.0072175363138370346 0.0033242589361743725 0.0033828356241297291 0.006806456467236024 0.0056229355366504202 0.0033899073881142835 -0.00012441497702313199 -8.1632982840749142e-05 0.0060628593269945758 0.0021955069907774421 0.0075924200523319147 0.0033908757498601065 -0.00010485337607986836 -8.3865803207685215e-05 -5.4353023913344618e-05 0.0032866121690903307 -7.6592523138124198e-05 0.0066681600578953797 0.0034201854862380182 0.0060007612705455298 -9.9441551180561328e-05 0.0070913149143669021 0.0050708244364901485 -8.7627398243307587e-05 0.0077364459370089711 0.0024853692597763648 0.0036149551227154758 -5.5096963788209541e-05 0.0073009276004955782 0.0025172228412007544 -0.00010289630068351933 0.0050778490579255937 0.0029143690366474312 0.0078211378115205371 0.0054376363282507331 0.0032914895858713071 0.0031540762734181783 0.0068935764683027805 -0.00012445071011986261 0.0019377702836902236 0.0068474678531181832 0.004542266081297334 -0.00011779535814011698 -0.00011838423671462473 0.0073116728502929263 -0.00011003758589226667 0.0027532449328954347 0.0067103837432082522 -9.7575899091553419e-05 -5.6272238435910467e-05 -9.8228775581743003e-05 0.0062751618208818092 -8.0306972903079754e-05 0.003718295298545028 -9.1194839086612551e-05 0.0068857535701681381 0.0048830647323101729 0.0041274900570006899 0.007925773060820495 0.0071056697868571916 0.0034209800693765897 0.0078230128063798317
leaf_count=4427 4234 213 142 132 253 136 130 187 219 130 1782 219 130 244 212 130 434 231 134 137 197 169 130 134 356 222 190 255 137 211 246 136 165 201 403 130 158 754 163 130 146 293 1798 279 173 242 873 915 196 538 171 865 333 139 325 201 208 2297 278 145 2599 188 1782 529 130 812
internal_value=0 43.4144 25.7759 14.3636 19.6893 13.3279 24.2837 28.2878 17.7262 19.3934 12.9483 23.4345 4.88335 54.0957 41.383 31.545 8.14052 41.6106 39.2963 33.4913 43.0211 24.1153 33.9776 3.65 24.2828 47.6936 55.3756 35.3278 44.4752 48.5139 55.7077 34.7437 36.0966 36.546 1.58788 16.8059 56.061 53.359 50.5908 37.6027 52.677 48.2469 2.1421 53.0243 40.0905 54.4511 4.73697 4.50919 50.8248 7.19021 55.5138 49.6372 10.2146 0.3262 9.96305 35.0672 34.1597 34.8951 11.5039 38.5495 39.3999 59.0555 60.5096 51.9987 16.1782 59.1438
internal_count=34798 22787 13867 12011 6978 7654 5048 1457 1270 4353 3360 1578 5033 8920 1407 1195 6197 695 575 993 530 1011 577 5186 490 356 7513 6213 527 464 7300 266 5958 5816 4767 533 7054 4365 3611 906 283 451 1930 2705 452 2253 1003 1051 333 668 2011 1036 463 4696 455 5651 5450 5242 408 2945 2744 2689 1972 717 269 975
shrinkage=0.00012934


Tree=14
num_leaves=67
num_cat=0
split_feature=56 56 8 77 238 159 64 215 305 268 77 290 263 399 112 79 48 181 15 45 79 244 196 273 123 230 273 26 170 181 137 392 35 103 334 394 295 244 91 137 356 255 140 382 159 394 119 384 51 393 307 229 370 101 79 334 292 19 326 289 17 168 183 77 77 273
split_gain=122807 131104 31395.4 9332.79 8915.61 7721.27 6569.46 6799.22 6317.52 9861.15 7095.92 6920.21 6874.24 6170.84 5971.82 5718.04 5347.76 4707.84 4677.22 5134.74 4668.38 4641.45 5228.93 4615.84 4190.72 4136.74 3587.58 6437.64 3843.88 9733.45 3010.36 2843.91 6151.68 3908.74 5182.81 2448.67 3701.3 2361.95 3241.97 2311.75 2216.46 2072.53 4410.03 2050.77 1900.75 1822.76 1822.48 1723.17 1653.14 3309.39 4425.5 1212.58 2323.46 3176.21 1433.41 1370.65 1188.64 4504.88 2456.06 1566.89 3223.79 1175.05 1132.15 1062.8 1083.98 1050.97
threshold=1.5000000000000002 1.0000000180025095e-35 1.0000000180025095e-35 1.1499023437500002 3.5000000000000004 1.5000000000000002 1.5000000000000002 3.5000000000000004 3.5000000000000004 1.5000000000000002 1.4501953125000002 1.5000000000000002 2.5000000000000004 0.0030811569046651226 1.5000000000000002 42.500000000000007 6.5000000000000009 3.5000000000000004 4.5000000000000009 5.5000000000000009 27.500000000000004 4.5000000000000009 2.5000000000000004 5.5000000000000009 2.5000000000000004 1.0000000180025095e-35 5.5000000000000009 1.0000000180025095e-35 1.5000000000000002 1.5000000000000002 2.5000000000000004 0.23834130723949501 4.5000000000000009 1.5000000000000002 1.0000000180025095e-35 -0.025803298336064342 5.5000000000000009 4.5000000000000009 21.500000000000004 3.5000000000000004 1.0000000180025095e-35 3.5000000000000004 1.5000000000000002 -0.10197019713939447 4.5000000000000009 -0.028656187216474577 2.5000000000000004 1.9501211781327734 5.5000000000000009 -0.01885269021113475 2.5000000000000004 4.5000000000000009 41.500000000000007 3.5000000000000004 52.500000000000007 3.5000000000000004 3.5000000000000004 4.5000000000000009 1.5000000000000002 3.5000000000000004 4.5000000000000009 2.5000000000000004 1.5000000000000002 1.7500000000000002 1.4501953125000002 4.5000000000000009
decision_type=2 2 8 2 2 2 2 2 2 2 2 2 2 2 2 8 2 2 2 2 8 2 2 2 2 2 2 2 2 2 2 2 2 2 2 2 2 2 10 2 2 2 2 2 2 2 2 2 2 2 2 2 8 2 8 2 2 2 2 2 2 2 2 2 2 2
left_child=1 2 4 23 13 -6 7 8 9 10 -5 -10 -13 21 17 -12 26 39 -15 -20 -8 62 -23 37 35 -11 27 28 29 -3 -17 48 33 -33 41 -4 -37 43 -39 -7 46 42 -35 -2 -22 -28 -14 -9 51 50 -50 54 53 -53 63 -56 57 -38 59 60 -59 -21 -1 64 -30 -44
right_child=3 16 24 6 5 14 20 47 11 25 15 12 40 18 -16 30 -18 -19 19 61 44 22 -24 -25 -26 -27 45 -29 31 -31 -32 32 -34 34 -36 36 56 38 -40 -41 -42 -43 65 -45 -46 -47 -48 -49 49 -51 -52 52 -54 -55 55 -57 -58 58 -60 -61 -62 -63 -64 -65 -66 -67
leaf_value=0.0018968166323982086 -0.00012822697639024649 0.006887590150412742 -5.8254046536731305e-05 -9.8713957729948233e-05 -0.00011066250662116617 0.0070898683777965909 0.0049973377783906368 -0.00011915797481721772 -9.4090084089910913e-05 0.0041122279021120417 -7.5543317981864762e-05 -8.402972258613511e-05 0.0043033328665100434 -0.00010485065316995066 -9.1920357168501685e-05 0.0028230325169420261 -5.8445714755344748e-05 -6.8226939853757056e-05 0.0066255179017540369 0.003409972827995154 -0.00012490765376790345 0.0059666948060287158 -9.9438494073413169e-05 0.0048078443043134342 -8.7623820737013153e-05 -0.00012326102583525049 -5.532390591208518e-05 -6.8380079239815046e-05 0.0068111753756255056 -0.00010085425201292608 0.0076358731839029324 0.007525511631191157 -7.6202767539616594e-05 -5.487925787225392e-05 -8.0157418024475114e-05 0.0072495712829764953 -9.2648586529747525e-05 0.0050693910751299833 -9.708122615096147e-05 0.0028553262194852607 0.0029548286681232083 0.0026006180918252816 0.0071795905233831836 0.0034090053429392431 0.0033628783415380168 0.0049199569709753744 0.0078065489229338673 0.0033698477501731194 -8.5807256682903407e-05 0.007059541695559197 0.0058225974260144907 0.0029235566430810315 0.0035419899787271893 0.0079118752670459796 0.0078193908372504121 0.0051906464057614298 0.0062372806283883097 -7.1932889866682892e-05 0.0037382383332668981 0.006474474232461766 0.0048644688112621905 -9.1197241859266977e-05 -0.00012827874982387354 0.0079972209350161211 0.004209267702372046 0.0043550976970968928
leaf_count=305 4295 230 142 346 562 276 134 978 299 201 193 231 182 434 282 174 139 167 169 130 1922 134 356 147 255 1505 130 161 1580 351 175 506 190 130 208 165 280 130 331 170 162 187 351 130 133 130 213 130 229 482 187 154 243 141 2418 179 201 175 2264 294 2437 278 4391 246 177 171
internal_value=0 43.1749 25.6905 14.3366 13.3048 28.1871 19.6393 23.9593 27.8492 20.1663 35.4331 39.2932 45.0828 8.13154 36.9976 44.3405 53.7252 43.8122 24.0418 33.8339 6.80501 3.64797 24.2088 4.87991 35.1681 5.73888 53.9451 54.2751 54.5415 37.9771 51.5184 55.1552 48.3947 50.2321 41.4445 35.9301 36.3754 2.73681 18.7736 49.1845 50.8339 45.2705 48.4786 0.403782 1.94424 26.5552 54.8332 4.24384 56.42 48.4143 31.111 57.2739 47.6635 54.0232 57.9185 59.9221 34.9097 34.0098 35.0014 38.6125 36.3049 11.487 0.326156 54.0295 51.6404 51.9377
internal_count=34798 22787 13867 12011 7654 1457 6978 4789 3681 2594 888 1087 788 6197 895 542 8920 613 1011 577 2189 5186 490 5033 6213 1706 8781 8521 8360 581 349 7779 1743 1553 1047 5958 5816 4886 461 446 557 839 652 4425 2055 260 395 1108 6036 898 416 5138 538 295 4600 2597 5651 5450 5170 2906 2612 408 4696 2003 1757 522
shrinkage=0.00012934


Tree=15
num_leaves=67
num_cat=0
split_feature=56 56 8 77 238 159 178 64 155 390 77 107 291 298 399 112 83 177 7 307 363 290 181 15 167 160 244 383 161 123 70 287 340 76 371 43 136 394 295 173 394 316 76 1 372 102 143 90 399 382 390 8 207 102 295 139 54 371 246 292 19 289 292 290 107 111
split_gain=121320 129067 31095.6 9285.82 8858.3 7658.45 6544.64 6526.67 6655.32 6323.6 6355.29 6624.19 6230.74 9553.86 6142.43 5912 5269.39 5054.56 5005.22 5417.96 4865.35 4702.48 4653.86 4644.01 4667.82 5774.88 4624.52 4427.14 4217.7 4153.34 3638.9 3473.6 3387.06 4669 3290.72 2842.06 2833.16 2426.53 3641.13 2406.64 3529.18 2318.62 4181.53 3548.18 2810.29 4311.01 6431.01 3264.82 2145.6 3264.44 1901.24 1882.81 1846.29 5626.09 4453.5 1732.47 1421.94 1342.17 1248.61 1169.98 4465.71 1976.11 3053.87 1116.35 1075.05 1009.34
threshold=1.5000000000000002 1.0000000180025095e-35 1.0000000180025095e-35 1.1499023437500002 3.5000000000000004 1.5000000000000002 4.5000000000000009 1.5000000000000002 2.5000000000000004 0.3070090200266285 1.7500000000000002 3.5000000000000004 3.5000000000000004 3.5000000000000004 0.0030811569046651226 1.5000000000000002 2.5000000000000004 3.5000000000000004 19.500000000000004 1.0000000180025095e-35 5.5000000000000009 3.5000000000000004 3.5000000000000004 4.5000000000000009 1.5000000000000002 2.5000000000000004 4.5000000000000009 -1.7945644899112823 2.5000000000000004 2.5000000000000004 4.5000000000000009 6.5000000000000009 4.5000000000000009 2.5000000000000004 1.0000000180025095e-35 1.0000000180025095e-35 2.5000000000000004 -0.025803298336064342 5.5000000000000009 4.5000000000000009 0.1035867136294215 1.0000000180025095e-35 6.5000000000000009 1.5000000000000002 29.500000000000004 1.0000000180025095e-35 1.0000000180025095e-35 3.8500000000000001 -0.002896962323818308 -0.67321270846391223 0.44500497482396667 1.0000000180025095e-35 3.5000000000000004 2.5000000000000004 1.5000000000000002 1.5000000000000002 1.5000000000000002 3.5000000000000004 4.5000000000000009 3.5000000000000004 4.5000000000000009 3.5000000000000004 -1.0000000180025095e-35 1.5000000000000002 4.5000000000000009 3.5000000000000004
decision_type=2 2 8 2 2 2 2 2 2 2 2 2 2 2 2 2 2 2 8 2 2 2 2 2 2 2 2 2 2 2 2 2 2 2 2 2 2 2 2 2 2 2 2 2 8 2 2 2 2 2 2 8 2 2 2 2 2 2 2 2 2 2 2 2 2 2
left_child=1 2 4 6 14 -6 39 8 17 27 11 16 13 -10 26 22 50 18 19 -5 -15 31 34 -16 25 -25 58 -3 -28 37 -9 32 33 48 -7 -8 -13 -4 -39 -2 -41 64 43 44 45 46 -43 -48 65 -50 -11 -32 53 54 -47 -55 -56 -46 -1 60 -40 62 -62 -63 -29 -21
right_child=3 9 29 7 5 15 35 30 12 10 -12 36 -14 20 23 -17 -18 -19 -20 21 -22 -23 -24 24 -26 -27 28 41 -30 -31 51 -33 -34 -35 -36 -37 -38 38 59 40 -42 42 -44 -45 57 52 47 -49 49 -51 -52 -53 -54 55 56 -57 -58 -59 -60 -61 61 63 -64 -65 -66 -67
