tree
version=v2
num_class=1
num_tree_per_iteration=1
label_index=0
max_feature_idx=492
objective=binary sigmoid:1
feature_names=AGER_TYP AKT_DAT_KL ALTER_KIND1 ALTER_KIND2 ALTER_KIND3 ALTER_KIND4 ALTERSKATEGORIE_FEIN ANZ_HAUSHALTE_AKTIV ANZ_HH_TITEL ANZ_KINDER ANZ_PERSONEN ARBEIT BALLRAUM CAMEO_DEUG_2015 CJT_GESAMTTYP CJT_KATALOGNUTZER CJT_TYP_1 CJT_TYP_2 CJT_TYP_3 CJT_TYP_4 CJT_TYP_5 CJT_TYP_6 D19_BANKEN_ANZ_12 D19_BANKEN_ANZ_24 D19_BANKEN_DIREKT D19_BANKEN_GROSS D19_BANKEN_LOKAL D19_BANKEN_ONLINE_QUOTE_12 D19_BANKEN_REST D19_BEKLEIDUNG_GEH D19_BEKLEIDUNG_REST D19_BILDUNG D19_BIO_OEKO D19_BUCH_CD D19_DIGIT_SERV D19_DROGERIEARTIKEL D19_ENERGIE D19_FREIZEIT D19_GARTEN D19_GESAMT_ANZ_12 D19_GESAMT_ANZ_24 D19_GESAMT_ONLINE_QUOTE_12 D19_HANDWERK D19_HAUS_DEKO D19_KINDERARTIKEL D19_KONSUMTYP D19_KONSUMTYP_MAX D19_KOSMETIK D19_LEBENSMITTEL D19_LOTTO D19_NAHRUNGSERGAENZUNG D19_RATGEBER D19_REISEN D19_SAMMELARTIKEL D19_SCHUHE D19_SONSTIGE D19_SOZIALES D19_TECHNIK D19_TELKO_ANZ_12 D19_TELKO_ANZ_24 D19_TELKO_MOBILE D19_TELKO_ONLINE_QUOTE_12 D19_TELKO_REST D19_TIERARTIKEL D19_VERSAND_ANZ_12 D19_VERSAND_ANZ_24 D19_VERSAND_ONLINE_QUOTE_12 D19_VERSAND_REST D19_VERSI_ANZ_12 D19_VERSI_ANZ_24 D19_VERSI_DATUM D19_VERSI_OFFLINE_DATUM D19_VERSI_ONLINE_DATUM D19_VERSI_ONLINE_QUOTE_12 D19_VERSICHERUNGEN D19_VOLLSORTIMENT D19_WEIN_FEINKOST EINGEZOGENAM_HH_JAHR EWDICHTE EXTSEL992 FINANZ_ANLEGER FINANZ_HAUSBAUER FINANZ_MINIMALIST FINANZ_SPARER FINANZ_UNAUFFAELLIGER FINANZ_VORSORGER FINANZTYP FIRMENDICHTE GEBAEUDETYP GEBAEUDETYP_RASTER GEBURTSJAHR GEMEINDETYP GFK_URLAUBERTYP GREEN_AVANTGARDE HEALTH_TYP HH_DELTA_FLAG HH_EINKOMMEN_SCORE INNENSTADT KBA05_ALTER1 KBA05_ALTER2 KBA05_ALTER3 KBA05_ALTER4 KBA05_ANHANG KBA05_ANTG1 KBA05_ANTG2 KBA05_ANTG3 KBA05_ANTG4 KBA05_AUTOQUOT KBA05_BAUMAX KBA05_CCM1 KBA05_CCM2 KBA05_CCM3 KBA05_CCM4 KBA05_DIESEL KBA05_FRAU KBA05_GBZ KBA05_HERST1 KBA05_HERST4 KBA05_HERST5 KBA05_HERSTTEMP KBA05_KRSAQUOT KBA05_KRSHERST1 KBA05_KRSHERST2 KBA05_KRSHERST3 KBA05_KRSOBER KBA05_KRSVAN KBA05_KRSZUL KBA05_KW1 KBA05_KW2 KBA05_KW3 KBA05_MAXAH KBA05_MAXBJ KBA05_MAXHERST KBA05_MAXSEG KBA05_MAXVORB KBA05_MOD1 KBA05_MOD2 KBA05_MOD3 KBA05_MOD4 KBA05_MOD8 KBA05_MODTEMP KBA05_MOTOR KBA05_MOTRAD KBA05_SEG1 KBA05_SEG10 KBA05_SEG2 KBA05_SEG3 KBA05_SEG4 KBA05_SEG5 KBA05_SEG6 KBA05_SEG7 KBA05_SEG8 KBA05_SEG9 KBA05_VORB0 KBA05_VORB1 KBA05_VORB2 KBA05_ZUL1 KBA05_ZUL2 KBA05_ZUL3 KBA05_ZUL4 KBA13_ANTG1 KBA13_ANTG2 KBA13_ANTG3 KBA13_ANTG4 KBA13_ANZAHL_PKW KBA13_AUDI KBA13_AUTOQUOTE KBA13_BAUMAX KBA13_BJ_1999 KBA13_BJ_2000 KBA13_BJ_2004 KBA13_BJ_2006 KBA13_BJ_2008 KBA13_BJ_2009 KBA13_BMW KBA13_CCM_0_1400 KBA13_CCM_1000 KBA13_CCM_1200 KBA13_CCM_1400 KBA13_CCM_1401_2500 KBA13_CCM_1500 KBA13_CCM_1600 KBA13_CCM_1800 KBA13_CCM_2000 KBA13_CCM_2500 KBA13_CCM_2501 KBA13_CCM_3000 KBA13_CCM_3001 KBA13_FAB_ASIEN KBA13_FAB_SONSTIGE KBA13_FIAT KBA13_FORD KBA13_GBZ KBA13_HALTER_20 KBA13_HALTER_25 KBA13_HALTER_30 KBA13_HALTER_35 KBA13_HALTER_40 KBA13_HALTER_45 KBA13_HALTER_50 KBA13_HALTER_55 KBA13_HALTER_60 KBA13_HALTER_65 KBA13_HALTER_66 KBA13_HERST_ASIEN KBA13_HERST_AUDI_VW KBA13_HERST_BMW_BENZ KBA13_HERST_EUROPA KBA13_HERST_FORD_OPEL KBA13_HERST_SONST KBA13_HHZ KBA13_KMH_0_140 KBA13_KMH_110 KBA13_KMH_140 KBA13_KMH_140_210 KBA13_KMH_180 KBA13_KMH_210 KBA13_KMH_250 KBA13_KMH_251 KBA13_KRSAQUOT KBA13_KRSHERST_AUDI_VW KBA13_KRSHERST_BMW_BENZ KBA13_KRSHERST_FORD_OPEL KBA13_KRSSEG_KLEIN KBA13_KRSSEG_OBER KBA13_KRSSEG_VAN KBA13_KRSZUL_NEU KBA13_KW_0_60 KBA13_KW_110 KBA13_KW_120 KBA13_KW_121 KBA13_KW_30 KBA13_KW_40 KBA13_KW_50 KBA13_KW_60 KBA13_KW_61_120 KBA13_KW_70 KBA13_KW_80 KBA13_KW_90 KBA13_MAZDA KBA13_MERCEDES KBA13_MOTOR KBA13_NISSAN KBA13_OPEL KBA13_PEUGEOT KBA13_RENAULT KBA13_SEG_GELAENDEWAGEN KBA13_SEG_KLEINST KBA13_SEG_KLEINWAGEN KBA13_SEG_KOMPAKTKLASSE KBA13_SEG_MINIVANS KBA13_SEG_MINIWAGEN KBA13_SEG_MITTELKLASSE KBA13_SEG_OBEREMITTELKLASSE KBA13_SEG_OBERKLASSE KBA13_SEG_SONSTIGE KBA13_SEG_SPORTWAGEN KBA13_SEG_UTILITIES KBA13_SEG_VAN KBA13_SEG_WOHNMOBILE KBA13_SITZE_4 KBA13_SITZE_5 KBA13_SITZE_6 KBA13_TOYOTA KBA13_VORB_0 KBA13_VORB_1 KBA13_VORB_1_2 KBA13_VORB_2 KBA13_VORB_3 KBA13_VW KK_KUNDENTYP KKK KOMBIALTER KONSUMNAEHE KONSUMZELLE MIN_GEBAEUDEJAHR MOBI_RASTER MOBI_REGIO NATIONALITAET_KZ ONLINE_AFFINITAET ORTSGR_KLS9 OST_WEST_KZ PLZ8_ANTG1 PLZ8_ANTG2 PLZ8_ANTG3 PLZ8_ANTG4 PLZ8_BAUMAX REGIOTYP RELAT_AB RETOURTYP_BK_S RT_KEIN_ANREIZ RT_SCHNAEPPCHEN RT_UEBERGROESSE SEMIO_DOM SEMIO_ERL SEMIO_FAM SEMIO_KAEM SEMIO_KRIT SEMIO_KULT SEMIO_LUST SEMIO_MAT SEMIO_PFLICHT SEMIO_RAT SEMIO_REL SEMIO_SOZ SEMIO_TRADV SEMIO_VERT SHOPPER_TYP SOHO_KZ STRUKTURTYP TITEL_KZ UMFELD_ALT UMFELD_JUNG UNGLEICHENN_FLAG VERDICHTUNGSRAUM VERS_TYP VHA VHN VK_DHT4A VK_DISTANZ VK_ZG11 W_KEIT_KIND_HH WOHNDAUER_2008 WOHNLAGE ZABEOTYP ANREDE_KZ ALTERSKATEGORIE_GROB ALTER_HH_Value_0 CAMEO_DEUINTL_2015_Value_0 CAMEO_DEUINTL_2015_Value_1 D19_BANKEN_DATUM_Value_ACTIVITY_WITHIN_MONTHS D19_BANKEN_DATUM_Value_INCREASE D19_BANKEN_OFFLINE_DATUM_Value_ACTIVITY_WITHIN_MONTHS D19_BANKEN_OFFLINE_DATUM_Value_INCREASE D19_BANKEN_ONLINE_DATUM_Value_ACTIVITY_WITHIN_MONTHS D19_BANKEN_ONLINE_DATUM_Value_INCREASE D19_GESAMT_DATUM_Value_ACTIVITY_WITHIN_MONTHS D19_GESAMT_DATUM_Value_INCREASE D19_GESAMT_OFFLINE_DATUM_Value_ACTIVITY_WITHIN_MONTHS D19_GESAMT_OFFLINE_DATUM_Value_INCREASE D19_GESAMT_ONLINE_DATUM_Value_ACTIVITY_WITHIN_MONTHS D19_GESAMT_ONLINE_DATUM_Value_INCREASE D19_TELKO_DATUM_Value_ACTIVITY_WITHIN_MONTHS D19_TELKO_DATUM_Value_INCREASE D19_TELKO_OFFLINE_DATUM_Value_ACTIVITY_WITHIN_MONTHS D19_TELKO_OFFLINE_DATUM_Value_INCREASE D19_TELKO_ONLINE_DATUM_Value_ACTIVITY_WITHIN_MONTHS D19_TELKO_ONLINE_DATUM_Value_INCREASE D19_VERSAND_DATUM_Value_ACTIVITY_WITHIN_MONTHS D19_VERSAND_DATUM_Value_INCREASE D19_VERSAND_OFFLINE_DATUM_Value_ACTIVITY_WITHIN_MONTHS D19_VERSAND_OFFLINE_DATUM_Value_INCREASE D19_VERSAND_ONLINE_DATUM_Value_ACTIVITY_WITHIN_MONTHS D19_VERSAND_ONLINE_DATUM_Value_INCREASE LP_FAMILIE_FEIN_Value_CHILD LP_FAMILIE_FEIN_Value_FAMILY LP_FAMILIE_FEIN_Value_GENERATIONAL LP_FAMILIE_GROB_Value_FAMILY LP_LEBENSPHASE_FEIN_Value_AGE LP_LEBENSPHASE_FEIN_Value_INCOME LP_LEBENSPHASE_FEIN_Value_OTHER LP_LEBENSPHASE_GROB_Value_AGE LP_LEBENSPHASE_GROB_Value_INCOME LP_STATUS_FEIN_Value_INCOME LP_STATUS_FEIN_Value_OTHER LP_STATUS_GROB_Value_INCOME PRAEGENDE_JUGENDJAHRE_Value_0 PRAEGENDE_JUGENDJAHRE_Value_2 PRAEGENDE_JUGENDJAHRE_Value_3 EINGEFUEGT_AM_Day EINGEFUEGT_AM_DayOfYear EINGEFUEGT_AM_DayOfWeek EINGEFUEGT_AM_DaysInMonth EINGEFUEGT_AM_IsMonthStart EINGEFUEGT_AM_IsMonthEnd EINGEFUEGT_AM_IsQuarterStart EINGEFUEGT_AM_IsQuarterEnd EINGEFUEGT_AM_IsYearStart EINGEFUEGT_AM_IsYearEnd EINGEFUEGT_AM_Season _isMissingUnknown_1 _isMissingUnknown_2 _isMissingUnknown_3 _isMissingUnknown_4 _isMissingUnknown_5 _isMissingUnknown_6 _isMissingUnknown_7 _isMissingUnknown_8 _isMissingUnknown_9 _isMissingUnknown_10 _isMissingUnknown_11 _isMissingUnknown_12 _isMissingUnknown_13 _isMissingUnknown_14 _isMissingUnknown_15 _isMissingUnknown_16 _isMissingUnknown_17 _isMissingUnknown_18 _isMissingUnknown_19 _isMissingUnknown_20 CAMEO_DEU_2015_1A CAMEO_DEU_2015_1B CAMEO_DEU_2015_1C CAMEO_DEU_2015_1D CAMEO_DEU_2015_1E CAMEO_DEU_2015_2A CAMEO_DEU_2015_2B CAMEO_DEU_2015_2C CAMEO_DEU_2015_2D CAMEO_DEU_2015_3A CAMEO_DEU_2015_3B CAMEO_DEU_2015_3C CAMEO_DEU_2015_3D CAMEO_DEU_2015_4A CAMEO_DEU_2015_4B CAMEO_DEU_2015_4C CAMEO_DEU_2015_4D CAMEO_DEU_2015_4E CAMEO_DEU_2015_5A CAMEO_DEU_2015_5B CAMEO_DEU_2015_5C CAMEO_DEU_2015_5D CAMEO_DEU_2015_5E CAMEO_DEU_2015_5F CAMEO_DEU_2015_6A CAMEO_DEU_2015_6B CAMEO_DEU_2015_6C CAMEO_DEU_2015_6D CAMEO_DEU_2015_6E CAMEO_DEU_2015_6F CAMEO_DEU_2015_7A CAMEO_DEU_2015_7B CAMEO_DEU_2015_7C CAMEO_DEU_2015_7D CAMEO_DEU_2015_7E CAMEO_DEU_2015_8A CAMEO_DEU_2015_8B CAMEO_DEU_2015_8C CAMEO_DEU_2015_8D CAMEO_DEU_2015_9A CAMEO_DEU_2015_9B CAMEO_DEU_2015_9C CAMEO_DEU_2015_9D CAMEO_DEU_2015_9E CAMEO_DEU_2015_XX D19_LETZTER_KAUF_BRANCHE_D19_BANKEN_DIREKT D19_LETZTER_KAUF_BRANCHE_D19_BANKEN_GROSS D19_LETZTER_KAUF_BRANCHE_D19_BANKEN_LOKAL D19_LETZTER_KAUF_BRANCHE_D19_BANKEN_REST D19_LETZTER_KAUF_BRANCHE_D19_BEKLEIDUNG_GEH D19_LETZTER_KAUF_BRANCHE_D19_BEKLEIDUNG_REST D19_LETZTER_KAUF_BRANCHE_D19_BILDUNG D19_LETZTER_KAUF_BRANCHE_D19_BIO_OEKO D19_LETZTER_KAUF_BRANCHE_D19_BUCH_CD D19_LETZTER_KAUF_BRANCHE_D19_DIGIT_SERV D19_LETZTER_KAUF_BRANCHE_D19_DROGERIEARTIKEL D19_LETZTER_KAUF_BRANCHE_D19_ENERGIE D19_LETZTER_KAUF_BRANCHE_D19_FREIZEIT D19_LETZTER_KAUF_BRANCHE_D19_GARTEN D19_LETZTER_KAUF_BRANCHE_D19_HANDWERK D19_LETZTER_KAUF_BRANCHE_D19_HAUS_DEKO D19_LETZTER_KAUF_BRANCHE_D19_KINDERARTIKEL D19_LETZTER_KAUF_BRANCHE_D19_KOSMETIK D19_LETZTER_KAUF_BRANCHE_D19_LEBENSMITTEL D19_LETZTER_KAUF_BRANCHE_D19_LOTTO D19_LETZTER_KAUF_BRANCHE_D19_NAHRUNGSERGAENZUNG D19_LETZTER_KAUF_BRANCHE_D19_RATGEBER D19_LETZTER_KAUF_BRANCHE_D19_REISEN D19_LETZTER_KAUF_BRANCHE_D19_SAMMELARTIKEL D19_LETZTER_KAUF_BRANCHE_D19_SCHUHE D19_LETZTER_KAUF_BRANCHE_D19_SONSTIGE D19_LETZTER_KAUF_BRANCHE_D19_TECHNIK D19_LETZTER_KAUF_BRANCHE_D19_TELKO_MOBILE D19_LETZTER_KAUF_BRANCHE_D19_TELKO_REST D19_LETZTER_KAUF_BRANCHE_D19_TIERARTIKEL D19_LETZTER_KAUF_BRANCHE_D19_UNBEKANNT D19_LETZTER_KAUF_BRANCHE_D19_VERSAND_REST D19_LETZTER_KAUF_BRANCHE_D19_VERSICHERUNGEN D19_LETZTER_KAUF_BRANCHE_D19_VOLLSORTIMENT D19_LETZTER_KAUF_BRANCHE_D19_WEIN_FEINKOST PRAEGENDE_JUGENDJAHRE_Value_1_FDJ_-_communist_party_youth_organisation PRAEGENDE_JUGENDJAHRE_Value_1_Generation_Golf PRAEGENDE_JUGENDJAHRE_Value_1_Swords_into_ploughshares PRAEGENDE_JUGENDJAHRE_Value_1_digital_media_kids PRAEGENDE_JUGENDJAHRE_Value_1_ecological_awareness PRAEGENDE_JUGENDJAHRE_Value_1_economic_miracle PRAEGENDE_JUGENDJAHRE_Value_1_family_orientation PRAEGENDE_JUGENDJAHRE_Value_1_generation_68_-_student_protestors PRAEGENDE_JUGENDJAHRE_Value_1_milk_bar_-_Individualisation PRAEGENDE_JUGENDJAHRE_Value_1_opponents_to_the_building_of_the_Wall PRAEGENDE_JUGENDJAHRE_Value_1_peace_movement PRAEGENDE_JUGENDJAHRE_Value_1_reconstruction_years PRAEGENDE_JUGENDJAHRE_Value_1_war_years
feature_infos=[-1:3] [-2:9] [2:18] [5:18] none none [-2:25] [0:353] [0:20] [0:6] [0:13] [-2:9] [-2:7] [-2:9] [-2:6] [-2:5] [-2:5] [-2:5] [-2:5] [-2:5] [-2:5] [-2:5] [0:6] [0:6] [0:7] [0:6] [0:7] [-2:10] [0:7] [0:7] [0:7] [0:7] [0:7] [0:7] [0:7] [0:7] [0:7] [0:7] [0:7] [0:6] [0:6] [-2:10] [0:7] [0:7] [0:7] [-2:9] [1:9] [0:7] [0:7] [-2:7] [0:7] [0:7] [0:7] [0:7] [0:7] [0:7] [-2:5] [0:7] [0:5] [0:5] [0:7] [-2:10] [0:7] [0:7] [0:6] [0:6] [-2:10] [0:7] [0:5] [0:6] [1:10] [1:10] none [-2:10] [0:7] [0:7] [0:7] [-1:3.30078125] [-2:6] [1:56] [1:5] [1:5] [1:5] [1:5] [1:5] [1:5] [1:6] [-2:5] [-2:8] [-2:5] [0:11.300000000000001] [11:50] [1:12] [0:1] [-1:3] [-2:1] [-2:6] [-2:8] [-2:4] [-2:5] [-2:5] [-2:5] [-2:3] [-2:4] [-2:4] [-2:3] [-2:2] [-2:5] [-2:5] [-2:5] [-2:5] [-2:5] [-2:4] [-2:4] [-2:5] [-2:5] [-2:5] [-2:5] [-2:5] [-2:5] [-2:5] [-2:5] [-2:5] [-2:5] [-2:3] [-2:3] [-2:3] [-2:5] [-2:5] [-2:4] [-2:5] [-2:4] [-2:5] [-2:4] [-2:3] [-2:4] [-2:5] [-2:5] [-2:5] [-2:3] [-2:6] [-2:4] [-2:3] [-2:3] [-2:4] [-2:5] [-2:5] [-2:5] [-2:4] [-2:1] [-2:3] [-2:3] [-2:3] [-2:5] [-2:5] [-2:5] [-2:5] [-2:5] [-2:5] [-2:5] [-2:4] [-2:4] [-2:3] [-2:2] [0:2300] [-2:5] [-2:5] [-2:5] [-2:5] [-2:5] [-2:5] [-2:5] [-2:5] [-2:5] [-2:5] [-2:5] [-2:5] [-2:5] [-2:5] [-2:5] [-2:5] [-2:5] [-2:5] [-2:5] [-2:5] [-2:5] [-2:5] [-2:5] [-2:5] [-2:5] [-2:5] [-2:5] [-2:5] [-2:5] [-2:5] [-2:5] [-2:5] [-2:5] [-2:5] [-2:5] [-2:5] [-2:5] [-2:5] [-2:5] [-2:5] [-2:5] [-2:5] [-2:5] [-2:5] [-2:5] [-2:5] [-2:5] [-2:3] [-2:5] [-2:5] [-2:5] [-2:5] [-2:5] [-2:3] [-2:5] [-2:5] [-2:5] [-2:5] [-2:3] [-2:3] [-2:3] [-2:3] [-2:5] [-2:5] [-2:5] [-2:5] [-2:3] [-2:5] [-2:5] [-2:5] [-2:5] [-2:5] [-2:5] [-2:5] [-2:5] [-2:5] [-2:4] [-2:5] [-2:5] [-2:5] [-2:5] [-2:5] [-2:5] [-2:5] [-2:5] [-2:5] [-2:5] [-2:5] [-2:5] [-2:5] [-2:5] [-2:5] [-2:5] [-2:5] [-2:5] [-2:5] [-2:5] [-2:5] [-2:5] [-2:5] [-2:5] [-2:5] [-2:5] [-2:5] [-2:5] [-2:6] [-2:4] [1:9] [-2:7] [-2:1] [-1:3.099609375] [-2:6] [-2:6] [-1:3] [-2:5] [-2:9] [-2:2] [-2:4] [-2:4] [-2:3] [-2:2] [-2:5] [-2:7] [-2:5] [-2:5] [-2:5] [-2:5] [-2:5] [1:7] [1:7] [1:7] [1:7] [1:7] [1:7] [1:7] [1:7] [1:7] [1:7] [1:7] [1:7] [1:7] [1:7] [-1:3] [-2:1] [-2:3] [-2:5] [-2:5] [-2:5] [-2:1] [0:45] [-1:2] [-2:5] [-2:4] [1:11] [1:13] [1:11] [-2:6] [-2:9] [-2:8] [1:6] [1:2] [1:9] [0:10.1015625] [-2:5] [-2:5] [0:5] [0:5] [0:5] [0:5] [0:5] [0:5] [0:5] [0:5] [0:5] [0:5] [0:5] [0:5] [0:5] [0:5] [0:5] [0:5] [0:5] none [0:5] [0:5] [0:5] [0:5] [0:5] [0:5] [-2:3] [-2:8] [-2:3] [-2:4] [-2:5] [-2:7] none [-2:3] [-2:4] [-2:7] [-2:8] [-2:2] [-1:6] [-1:2] [-1:3] [1:31] [2:365] [-2:6] [28:31] [0:1] none none none none none [0:3] [-2.2083146064174635:14.259193305521343] [-5.9007107396731966:6.1135041603235534] [-6.3144945203165612:6.0770542173820825] [-2.616796517584147:8.1530105039188836] [-3.0540729225044014:7.3736377913611442] [-1.4971811820058933:5.7935991918011727] [-1.7815658539749946:3.5991429413803937] [-3.1529604240351721:3.0947390738493477] [-0.98093477921175021:0.9713992095496804] [-0.98049511908664311:1.7660113721926569] [-1.3912881418845013:1.7401795814018106] [-1.5320520748853079:2.4835398028808431] [-1.2020469363457102:1.1916233369037497] [-0.90516040822178256:3.9969032047591613] [-1.4306446823096799:1.4613580762425589] [-1.0406915982371046:1.8634039434443368] [-2.7853555493882616:2.8486835363082426] [-1.2829023721743935:1.2229279825376977] [-1.4705490182854528:1.9169812592173574] [-1.2114417118988876:1.7305862506292544] [0:1] none none [0:1] none [0:1] [0:1] [0:1] [0:1] none [0:1] [0:1] [0:1] [0:1] [0:1] [0:1] [0:1] none [0:1] [0:1] [0:1] [0:1] none none none [0:1] [0:1] none [0:1] [0:1] [0:1] [0:1] [0:1] none [0:1] [0:1] [0:1] [0:1] [0:1] [0:1] [0:1] [0:1] [0:1] [0:1] none [0:1] [0:1] none none [0:1] [0:1] none none [0:1] none [0:1] [0:1] [0:1] none none [0:1] none none [0:1] none [0:1] none none [0:1] [0:1] [0:1] [0:1] [0:1] [0:1] none [0:1] [0:1] [0:1] [0:1] none none [0:1] none [0:1] [0:1] [0:1] [0:1] [0:1] [0:1] [0:1] [0:1] [0:1] [0:1]
tree_sizes=647 669 667 751 666 668 669 750 744 749 749 671 748 749 749 752 671 751 753 750 747 674 754 753 749 753 675 750 749 754 672 751 754 754 672 754 757 755 675 753 753 757

Tree=0
num_leaves=7
num_cat=0
split_feature=56 56 380 394 232 383
split_gain=136430 160515 41499.2 11880.2 9609.76 6550.88
threshold=1.5000000000000002 1.0000000180025095e-35 2.6609974909542871 0.93542477250030942 2.5000000000000004 -1.8191829844749785
decision_type=2 2 2 2 2 2
left_child=1 2 -1 4 -2 -3
right_child=3 5 -4 -5 -6 -7
leaf_value=-4.3551657732025717 -4.3535838014115651 -4.3541492330787595 -4.349959661921158 -4.3445613949909818 -4.3566077234389802 -4.3457154049823288
leaf_count=7935 6054 250 5978 67 5829 8686
internal_value=0 46.0438 26.7519 15.5625 14.2503 58.3013
internal_count=34799 22849 13913 11950 11883 8936
shrinkage=1


Tree=1
num_leaves=7
num_cat=0
split_feature=56 56 380 394 232 383
split_gain=133618 156257 40835.7 11657.4 9527.03 6369.57
threshold=1.5000000000000002 1.0000000180025095e-35 2.6609974909542871 0.93542477250030942 2.5000000000000004 -1.8191829844749785
decision_type=2 2 2 2 2 2
left_child=1 2 -1 4 -2 -3
right_child=3 5 -4 -5 -6 -7
leaf_value=0.0026712414527652467 0.0042422288306701167 0.0036816509108192163 0.0078229487647181583 0.01311366818381253 0.0012350786280181131 0.011984160638005692
leaf_count=7935 6054 250 5978 67 5829 8686
internal_value=0 45.6093 26.6027 15.5107 14.2066 57.6091
internal_count=34799 22849 13913 11950 11883 8936
shrinkage=0.000206632


Tree=2
num_leaves=7
num_cat=0
split_feature=56 56 380 394 232 383
split_gain=130886 152153 40186.8 11440.9 9445.3 6195.15
threshold=1.5000000000000002 1.0000000180025095e-35 2.6609974909542871 0.93542477250030942 2.5000000000000004 -1.8191829844749785
decision_type=2 2 2 2 2 2
left_child=1 2 -1 4 -2 -3
right_child=3 5 -4 -5 -6 -7
leaf_value=0.0026637521651486258 0.004223872228395353 0.0036680875650311915 0.0077619809217976459 0.012948442605873967 0.0012333403545151712 0.011842627838039046
leaf_count=7935 6054 250 5978 67 5829 8686
internal_value=0 45.183 26.4551 15.4593 14.1631 56.9332
internal_count=34799 22849 13913 11950 11883 8936
shrinkage=0.000206632


Tree=3
num_leaves=8
num_cat=0
split_feature=56 56 380 388 130 204 390
split_gain=128232 148195 39552.3 10933.9 9998.1 6286.52 6075.06
threshold=1.5000000000000002 1.0000000180025095e-35 2.6609974909542871 -0.20670200956096171 4.5000000000000009 4.5000000000000009 0.30933078952466581
decision_type=2 2 2 2 2 2 2
left_child=1 2 -1 4 -2 -5 -3
right_child=3 6 -4 5 -6 -7 -8
leaf_value=0.0026563035063362447 0.0061738001789058087 0.011893385877596672 0.0077019567847574529 0.0011989052313372015 0.00068853781990094295 0.0060131897113636524 0.0092407431918159772
leaf_count=7935 3138 7541 5978 6797 1370 645 1395
internal_value=0 44.7646 26.3092 15.4082 24.0355 8.69978 56.2732
internal_count=34799 22849 13913 11950 4508 7442 8936
shrinkage=0.000206632


Tree=4
num_leaves=7
num_cat=0
split_feature=56 56 380 394 77 383
split_gain=125653 144378 38931.6 11153.9 9076.38 5959.32
threshold=1.5000000000000002 1.0000000180025095e-35 2.6609974909542871 0.93542477250030942 1.1499023437500002 -1.8191829844749785
decision_type=2 2 2 2 2 2
left_child=1 2 -1 4 -2 -3
right_child=3 5 -4 -5 -6 -7
leaf_value=0.0026488956040900181 0.0010033717934283229 0.0036124749117780338 0.0076428550245936306 0.012718387651764213 0.004009488868506484 0.011570326898581942
leaf_count=7935 4980 250 5978 67 6903 8686
internal_value=0 44.354 26.1649 15.3574 14.074 55.6284
internal_count=34799 22849 13913 11950 11883 8936
shrinkage=0.000206632


Tree=5
num_leaves=7
num_cat=0
split_feature=56 56 380 394 232 390
split_gain=123144 140694 38324.4 10951.5 9299.16 5813.16
threshold=1.5000000000000002 1.0000000180025095e-35 2.6609974909542871 0.93542477250030942 2.5000000000000004 0.30933078952466581
decision_type=2 2 2 2 2 2
left_child=1 2 -1 4 -2 -3
right_child=3 5 -4 -5 -6 -7
leaf_value=0.002641527930753557 0.0041787360590860778 0.011620943050994197 0.0075846536996751835 0.012562883496839138 0.001223647863846392 0.0090524951477149174
leaf_count=7935 6054 7541 5978 67 5829 1395
internal_value=0 43.9508 26.0221 15.307 14.0313 54.9983
internal_count=34799 22849 13913 11950 11883 8936
shrinkage=0.000206632


Tree=6
num_leaves=7
num_cat=0
split_feature=56 56 380 394 232 383
split_gain=120706 137139 37730.3 10754.6 9220.41 5737.53
threshold=1.5000000000000002 1.0000000180025095e-35 2.6609974909542871 0.93542477250030942 2.5000000000000004 -1.8191829844749785
decision_type=2 2 2 2 2 2
left_child=1 2 -1 4 -2 -3
right_child=3 5 -4 -5 -6 -7
leaf_value=0.0026341997513404537 0.0041609175334878469 0.0035587905046325407 0.0075273329611127773 0.012411126678328064 0.0012219393947655835 0.011310339503456657
leaf_count=7935 6054 250 5978 67 5829 8686
internal_value=0 43.555 25.8809 15.2569 13.9889 54.3824
internal_count=34799 22849 13913 11950 11883 8936
shrinkage=0.000206632


Tree=7
num_leaves=8
num_cat=0
split_feature=56 56 380 388 130 204 383
split_gain=118333 133705 37148.9 10694.2 9754.86 6143.34 5588.76
threshold=1.5000000000000002 1.0000000180025095e-35 2.6609974909542871 -0.20670200956096171 4.5000000000000009 4.5000000000000009 -1.8191829844749785
decision_type=2 2 2 2 2 2 2
left_child=1 2 -1 4 -2 -5 -3
right_child=3 6 -4 5 -6 -7 -8
leaf_value=0.0026269112820610993 0.0060700610764223119 0.0035460920700285674 0.0074708731382452931 0.0011856947293402797 0.00068055265590816422 0.0059060483058178282 0.01118429470699351
leaf_count=7935 3138 250 5978 6797 1370 645 8686
internal_value=0 43.1663 25.7412 15.2071 23.6685 8.59908 53.7802
internal_count=34799 22849 13913 11950 4508 7442 8936
shrinkage=0.000206632


Tree=8
num_leaves=8
num_cat=0
split_feature=56 56 380 388 130 204 390
split_gain=116026 130389 36579.9 10588 9640.91 6088.4 5510.09
threshold=1.5000000000000002 1.0000000180025095e-35 2.6609974909542871 -0.20670200956096171 4.5000000000000009 4.5000000000000009 0.30933078952466581
decision_type=2 2 2 2 2 2 2
left_child=1 2 -1 4 -2 -5 -3
right_child=3 6 -4 5 -6 -7 -8
leaf_value=0.002619662090357315 0.0060330966590418358 0.011236388381662967 0.0074152535642677733 0.0011840830148151518 0.000679964724422938 0.0058712609097084428 0.0087747558557872331
leaf_count=7935 3138 7541 5978 6797 1370 645 1395
internal_value=0 42.7845 25.603 15.1576 23.5514 8.5825 53.1913
internal_count=34799 22849 13913 11950 4508 7442 8936
shrinkage=0.000206632


Tree=9
num_leaves=8
num_cat=0
split_feature=56 56 243 388 337 204 383
split_gain=113782 127185 36058.3 10483.2 9561.97 6034.2 5387.41
threshold=1.5000000000000002 1.0000000180025095e-35 1.5000000000000002 -0.20670200956096171 1.5000000000000002 4.5000000000000009 -1.8191829844749785
decision_type=2 2 2 2 2 2 2
left_child=1 2 -1 4 -2 -5 -3
right_child=3 6 -4 5 -6 -7 -8
leaf_value=0.0071692031203668049 0.0061762978890268208 0.0034948738158655374 0.0023444182095387397 0.0011824753343591275 0.0012240926789067207 0.0058368785437112082 0.010941280407545821
leaf_count=6681 2888 250 7232 6797 1620 645 8686
internal_value=0 42.4095 25.4662 15.1084 23.4353 8.56598 52.6153
internal_count=34799 22849 13913 11950 4508 7442 8936
shrinkage=0.000206632


Tree=10
num_leaves=8
num_cat=0
split_feature=56 56 243 388 130 204 390
split_gain=111597 124087 35528.4 10380 9481.76 5980.71 5285.48
threshold=1.5000000000000002 1.0000000180025095e-35 1.5000000000000002 -0.20670200956096171 4.5000000000000009 4.5000000000000009 0.30933078952466581
decision_type=2 2 2 2 2 2 2
left_child=1 2 -1 4 -2 -5 -3
right_child=3 6 -4 5 -6 -7 -8
leaf_value=0.0071179295475416399 0.0059671686363081079 0.010993043783706065 0.0023385930170722775 0.0011808717747133011 0.00067534655606392099 0.0058028927168178599 0.0086053011249628674
leaf_count=6681 3138 7541 7232 6797 1370 645 1395
internal_value=0 42.041 25.331 15.0595 23.3205 8.54952 52.0517
internal_count=34799 22849 13913 11950 4508 7442 8936
shrinkage=0.000206632


Tree=11
num_leaves=7
num_cat=0
split_feature=56 56 380 394 232 383
split_gain=109470 121093 35025.7 10281.1 9001.11 5197.42
threshold=1.5000000000000002 1.0000000180025095e-35 2.6609974909542871 0.93542477250030942 2.5000000000000004 -1.8191829844749785
decision_type=2 2 2 2 2 2
left_child=1 2 -1 4 -2 -3
right_child=3 5 -4 -5 -6 -7
leaf_value=0.0025964826717553751 0.0040882544979069452 0.0034453410664817903 0.0072567303842594527 0.012005586562984507 0.0012048105025190502 0.010708665385742328
leaf_count=7935 6054 250 5978 67 5829 8686
internal_value=0 41.6789 25.1971 15.0109 13.7696 51.5002
internal_count=34799 22849 13913 11950 11883 8936
shrinkage=0.000206632


Tree=12
num_leaves=8
num_cat=0
split_feature=56 56 243 388 337 204 390
split_gain=107399 118196 34539 10238.6 9355.91 5900.5 5074.63
threshold=1.5000000000000002 1.0000000180025095e-35 1.5000000000000002 -0.20670200956096171 1.5000000000000002 4.5000000000000009 0.30933078952466581
decision_type=2 2 2 2 2 2 2
left_child=1 2 -1 4 -2 -5 -3
right_child=3 6 -4 5 -6 -7 -8
leaf_value=0.0070190611447650438 0.0060864490369520038 0.010760064695284377 0.0023262082485894717 0.0011755170223098988 0.0012121694666414151 0.0057464894784648047 0.0084424719430399205
leaf_count=6681 2888 7541 7232 6797 1620 645 1395
internal_value=0 41.323 25.0646 14.9627 23.1289 8.50594 50.9602
internal_count=34799 22849 13913 11950 4508 7442 8936
shrinkage=0.000206632


Tree=13
num_leaves=8
num_cat=0
split_feature=56 56 243 388 130 204 383
split_gain=105382 115394 34040.1 10138.8 9288.93 5848.83 5017.92
threshold=1.5000000000000002 1.0000000180025095e-35 1.5000000000000002 -0.20670200956096171 4.5000000000000009 4.5000000000000009 -1.8191829844749785
decision_type=2 2 2 2 2 2 2
left_child=1 2 -1 4 -2 -5 -3
right_child=3 6 -4 5 -6 -7 -8
leaf_value=0.0069699064419973941 0.0058822434920733201 0.0033974050305178275 0.0023204701658977988 0.0011739309560004569 0.00066843868068437696 0.0057135382230610321 0.01048579616459009
leaf_count=6681 3138 250 7232 6797 1370 645 8686
internal_value=0 40.9732 24.9336 14.9147 23.017 8.4897 50.4316
internal_count=34799 22849 13913 11950 4508 7442 8936
shrinkage=0.000206632


Tree=14
num_leaves=8
num_cat=0
split_feature=56 56 380 388 337 364 383
split_gain=103418 112682 33563.1 10040.4 9197.61 5672.6 4896.82
threshold=1.5000000000000002 1.0000000180025095e-35 2.6609974909542871 -0.20670200956096171 1.5000000000000002 4.5000000000000009 -1.8191829844749785
decision_type=2 2 2 2 2 2 2
left_child=1 2 -1 4 -2 -5 -3
right_child=3 6 -4 5 -6 -7 -8
leaf_value=0.0025737195870754789 0.006020158814508539 0.0033858006746393201 0.0071048080520741772 0.0011747359976482148 0.0012041455273912461 0.0056121720678801472 0.010377486469587697
leaf_count=7935 2888 250 5978 6749 1620 693 8686
internal_value=0 40.6293 24.8039 14.8671 22.9061 8.47352 49.9139
internal_count=34799 22849 13913 11950 4508 7442 8936
shrinkage=0.000206632


Tree=15
num_leaves=8
num_cat=0
split_feature=56 56 243 388 130 204 390
split_gain=101504 110057 33108.2 9943.24 9139.16 5788.29 4829.39
threshold=1.5000000000000002 1.0000000180025095e-35 1.5000000000000002 -0.20670200956096171 4.5000000000000009 4.5000000000000009 0.30933078952466581
decision_type=2 2 2 2 2 2 2
left_child=1 2 -1 4 -2 -5 -3
right_child=3 6 -4 5 -6 -7 -8
leaf_value=0.006875063983073232 0.0058194819947984923 0.010429778959131634 0.0023082795746265012 0.0011699963600927776 0.00066398024170018731 0.0056711124561582517 0.0082015539922557345
leaf_count=6681 3138 7541 7232 6797 1370 645 1395
internal_value=0 40.2911 24.6755 14.8197 22.7963 8.45739 49.4067
internal_count=34799 22849 13913 11950 4508 7442 8936
shrinkage=0.000206632


Tree=16
num_leaves=7
num_cat=0
split_feature=56 56 243 394 232 383
split_gain=99639.3 107515 32637.9 9851.6 8789.79 4732.73
threshold=1.5000000000000002 1.0000000180025095e-35 1.5000000000000002 0.93542477250030942 2.5000000000000004 -1.8191829844749785
decision_type=2 2 2 2 2 2
left_child=1 2 -1 4 -2 -3
right_child=3 5 -4 -5 -6 -7
leaf_value=0.0068278991630318468 0.0040178692187800838 0.0033399195760411187 0.0023026269640922742 0.011632409017234949 0.0011881490823190996 0.010168133484895267
leaf_count=6681 6054 250 7232 67 5829 8686
internal_value=0 39.9586 24.5484 14.7727 13.5566 48.9099
internal_count=34799 22849 13913 11950 11883 8936
shrinkage=0.000206632


Tree=17
num_leaves=8
num_cat=0
split_feature=56 56 380 388 337 204 390
split_gain=97821.3 105053 32185.1 9810.17 9003.74 5712.03 4646.53
threshold=1.5000000000000002 1.0000000180025095e-35 2.6609974909542871 -0.20670200956096171 1.5000000000000002 4.5000000000000009 0.30933078952466581
decision_type=2 2 2 2 2 2 2
left_child=1 2 -1 4 -2 -5 -3
right_child=3 6 -4 5 -6 -7 -8
leaf_value=0.0025513609535941896 0.0059345195021952004 0.010219950979422207 0.0069590850870479047 0.0011647582620133094 0.001192619745025327 0.0056171267889878456 0.0080538748051773613
leaf_count=7935 2888 7541 5978 6797 1620 645 1395
internal_value=0 39.6315 24.4227 14.7259 22.6127 8.41484 48.423
internal_count=34799 22849 13913 11950 4508 7442 8936
shrinkage=0.000206632


Tree=18
num_leaves=8
num_cat=0
split_feature=56 56 243 388 130 204 383
split_gain=96049.8 102668 31759.2 9716.28 8957.38 5662.9 4577.27
threshold=1.5000000000000002 1.0000000180025095e-35 1.5000000000000002 -0.20670200956096171 4.5000000000000009 4.5000000000000009 -1.8191829844749785
decision_type=2 2 2 2 2 2 2
left_child=1 2 -1 4 -2 -5 -3
right_child=3 6 -4 5 -6 -7 -8
leaf_value=0.0067368436122588575 0.0057384616050913809 0.0032954476564551029 0.0022906257774958022 0.0011631991899373889 0.00065729556503306094 0.0055856277256448863 0.0099671125804313837
leaf_count=6681 3138 250 7232 6797 1370 645 8686
internal_value=0 39.3099 24.2982 14.6794 22.5057 8.39893 47.9458
internal_count=34799 22849 13913 11950 4508 7442 8936
shrinkage=0.000206632


Tree=19
num_leaves=8
num_cat=0
split_feature=56 56 243 388 130 204 390
split_gain=94322.4 100356 31315.6 9623.61 8858.02 5614.4 4474.1
threshold=1.5000000000000002 1.0000000180025095e-35 1.5000000000000002 -0.20670200956096171 4.5000000000000009 4.5000000000000009 0.30933078952466581
decision_type=2 2 2 2 2 2 2
left_child=1 2 -1 4 -2 -5 -3
right_child=3 6 -4 5 -6 -7 -8
leaf_value=0.0066915498896309902 0.0057054008216369983 0.010018439774155674 0.0022850564988637512 0.0011616440333873912 0.00065674271830602673 0.0055544774797274352 0.0079115821549847528
leaf_count=6681 3138 7541 7232 6797 1370 645 1395
internal_value=0 38.9933 24.175 14.6332 22.3996 8.38308 47.478
internal_count=34799 22849 13913 11950 4508 7442 8936
shrinkage=0.000206632


Tree=20
num_leaves=8
num_cat=0
split_feature=56 56 380 388 337 364 383
split_gain=92638 98115.3 30885.6 9532.17 8812.89 5569.3 4429.82
threshold=1.5000000000000002 1.0000000180025095e-35 2.6609974909542871 -0.20670200956096171 1.5000000000000002 4.5000000000000009 -1.8191829844749785
decision_type=2 2 2 2 2 2 2
left_child=1 2 -1 4 -2 -5 -3
right_child=3 6 -4 5 -6 -7 -8
leaf_value=0.00252939543996347 0.0058438595039728243 0.0032523166458890891 0.0068191897236345861 0.0011600260529436464 0.0011788038412824397 0.0055251181246193243 0.0097739362500607729
leaf_count=7935 2888 250 5978 6749 1620 693 8686
internal_value=0 38.682 24.053 14.5873 22.2946 8.36729 47.0193
internal_count=34799 22849 13913 11950 4508 7442 8936
shrinkage=0.000206632


Tree=21
num_leaves=7
num_cat=0
split_feature=56 56 243 394 232 383
split_gain=90995.1 95942.3 30486.2 9449.02 8586.84 4329.82
threshold=1.5000000000000002 1.0000000180025095e-35 1.5000000000000002 0.93542477250030942 2.5000000000000004 -1.8191829844749785
decision_type=2 2 2 2 2 2
left_child=1 2 -1 4 -2 -3
right_child=3 5 -4 -5 -6 -7
leaf_value=0.0066040572399436066 0.0039498075902920328 0.0032416546093653876 0.0022732405551408224 0.011279800394604638 0.0011719374036456714 0.0096798630630480307
leaf_count=6681 6054 250 7232 67 5829 8686
internal_value=0 38.3755 23.9322 14.5417 13.3501 46.5694
internal_count=34799 22849 13913 11950 11883 8936
shrinkage=0.000206632


Tree=22
num_leaves=8
num_cat=0
split_feature=56 56 243 388 130 364 390
split_gain=89392.1 93834.8 30067.2 9406.81 8684.84 5504.78 4272.68
threshold=1.5000000000000002 1.0000000180025095e-35 1.5000000000000002 -0.20670200956096171 4.5000000000000009 4.5000000000000009 0.30933078952466581
decision_type=2 2 2 2 2 2 2
left_child=1 2 -1 4 -2 -5 -3
right_child=3 6 -4 5 -6 -7 -8
leaf_value=0.00656052633834181 0.0056273049868343916 0.0097316905348396581 0.0022677527753635642 0.0011547481304335977 0.00065020871086020522 0.0054778035980085705 0.0077005420375990544
leaf_count=6681 3138 7541 7232 6749 1370 693 1395
internal_value=0 38.0739 23.8127 14.4964 22.1185 8.32572 46.1281
internal_count=34799 22849 13913 11950 4508 7442 8936
shrinkage=0.000206632


Tree=23
num_leaves=8
num_cat=0
split_feature=56 56 380 388 337 204 390
split_gain=87828.6 91790.7 29658.9 9318.36 8633.6 5523.7 4158.19
threshold=1.5000000000000002 1.0000000180025095e-35 2.6609974909542871 -0.20670200956096171 3.5000000000000004 4.5000000000000009 0.30933078952466581
decision_type=2 2 2 2 2 2 2
left_child=1 2 -1 4 -2 -5 -3
right_child=3 6 -4 5 -6 -7 -8
leaf_value=0.0025078121567910418 0.0054096382480118294 0.0096384802109252075 0.0066847797294367056 0.001151929715551277 -0.00020604983257029339 0.005483838303805182 0.0076418707680440852
leaf_count=7935 3479 7541 5978 6797 1029 645 1395
internal_value=0 37.7771 23.6943 14.4513 22.0161 8.31013 45.6951
internal_count=34799 22849 13913 11950 4508 7442 8936
shrinkage=0.000206632


Tree=24
num_leaves=8
num_cat=0
split_feature=56 56 243 388 130 204 383
split_gain=86303 89807 29283.7 9230.99 8550.71 5477.11 4156.26
threshold=1.5000000000000002 1.0000000180025095e-35 1.5000000000000002 -0.20670200956096171 4.5000000000000009 4.5000000000000009 -1.8191829844749785
decision_type=2 2 2 2 2 2 2
left_child=1 2 -1 4 -2 -5 -3
right_child=3 6 -4 5 -6 -7 -8
leaf_value=0.0064763917820712669 0.0055697310061574986 0.0031700136335647902 0.0022561172817761152 0.001150402499304354 0.00064598552873517041 0.0054538017083029236 0.0094093394073436667
leaf_count=6681 3138 250 7232 6797 1370 645 8686
internal_value=0 37.4848 23.5771 14.4065 21.9145 8.2946 45.2703
internal_count=34799 22849 13913 11950 4508 7442 8936
shrinkage=0.000206632


Tree=25
num_leaves=8
num_cat=0
split_feature=56 56 243 388 337 364 383
split_gain=84813.6 87881.5 28887.6 9144.81 8510.95 5440.68 4065.81
threshold=1.5000000000000002 1.0000000180025095e-35 1.5000000000000002 -0.20670200956096171 1.5000000000000002 4.5000000000000009 -1.8191829844749785
decision_type=2 2 2 2 2 2 2
left_child=1 2 -1 4 -2 -5 -3
right_child=3 6 -4 5 -6 -7 -8
leaf_value=0.0064345222677475496 0.0057053147349884091 0.0031598692906205875 0.0022507093574421996 0.0011486750723825497 0.0011590219123811683 0.0054292804434017492 0.0093221725278275006
leaf_count=6681 2888 250 7232 6749 1620 693 8686
internal_value=0 37.1971 23.4611 14.362 21.8139 8.27912 44.8534
internal_count=34799 22849 13913 11950 4508 7442 8936
shrinkage=0.000206632


Tree=26
num_leaves=7
num_cat=0
split_feature=56 56 380 394 232 390
split_gain=83359.8 86012.1 28499.7 9088.06 8393.26 3978.08
threshold=1.5000000000000002 1.0000000180025095e-35 2.6609974909542871 0.93542477250030942 2.5000000000000004 0.30933078952466581
decision_type=2 2 2 2 2 2
left_child=1 2 -1 4 -2 -3
right_child=3 5 -4 -5 -6 -7
leaf_value=0.0024866006012484415 0.0038840020751367038 0.0093728677773029043 0.0065555400100901443 0.010957932704715238 0.0011560307538319684 0.0074453131938174988
leaf_count=7935 6054 7541 5978 67 5829 1395
internal_value=0 36.9138 23.3462 14.3178 13.1493 44.4441
internal_count=34799 22849 13913 11950 11883 8936
shrinkage=0.000206632


Tree=27
num_leaves=8
num_cat=0
split_feature=56 56 243 388 337 204 383
split_gain=81940.2 84197.1 28146.7 9026.55 8409.4 5398.56 3943.1
threshold=1.5000000000000002 1.0000000180025095e-35 1.5000000000000002 -0.20670200956096171 3.5000000000000004 4.5000000000000009 -1.8191829844749785
decision_type=2 2 2 2 2 2 2
left_child=1 2 -1 4 -2 -5 -3
right_child=3 6 -4 5 -6 -7 -8
leaf_value=0.0063535563967546949 0.0053106015425844 0.0031208046995521159 0.0022392502159795176 0.0011431245579961939 -0.0002060987863788839 0.0053946242353694321 0.0091531211081712551
leaf_count=6681 3479 250 7232 6797 1029 645 8686
internal_value=0 36.6348 23.2324 14.2738 21.6449 8.23852 44.0422
internal_count=34799 22849 13913 11950 4508 7442 8936
shrinkage=0.000206632


Tree=28
num_leaves=8
num_cat=0
split_feature=56 56 243 388 130 364 383
split_gain=80554.3 82434 27771.9 8943.08 8349.18 5369.97 3859.49
threshold=1.5000000000000002 1.0000000180025095e-35 1.5000000000000002 -0.20670200956096171 4.5000000000000009 4.5000000000000009 -1.8191829844749785
decision_type=2 2 2 2 2 2 2
left_child=1 2 -1 4 -2 -5 -3
right_child=3 6 -4 5 -6 -7 -8
leaf_value=0.0063132548519090979 0.0054702016759862896 0.0031109635824620382 0.0022339200048969981 0.0011412762578187079 0.0006360794750091645 0.005374462363209858 0.0090706492378239759
leaf_count=6681 3138 250 7232 6749 1370 693 8686
internal_value=0 36.36 23.1197 14.2301 21.5467 8.22324 43.6477
internal_count=34799 22849 13913 11950 4508 7442 8936
shrinkage=0.000206632


Tree=29
num_leaves=8
num_cat=0
split_feature=56 56 8 388 337 204 390
split_gain=79200.6 80721.1 27419.2 8860.74 8291.01 5345.09 3810.52
threshold=1.5000000000000002 1.0000000180025095e-35 2.5000000000000004 -0.20670200956096171 3.5000000000000004 4.5000000000000009 0.30933078952466581
decision_type=2 2 8 2 2 2 2
left_child=1 2 -1 4 -2 -5 -3
right_child=3 6 -4 5 -6 -7 -8
leaf_value=0.0024653696388598685 0.0052584137331506547 0.0091215793028319413 0.0064318639643089716 0.0011393874765966269 -0.00020612413325273604 0.0053565156809025592 0.0072588562323775653
leaf_count=7913 3479 7541 6000 6797 1029 645 1395
internal_value=0 36.0893 23.008 14.1866 21.4494 8.20801 43.2601
internal_count=34799 22849 13913 11950 4508 7442 8936
shrinkage=0.000206632


Tree=30
num_leaves=7
num_cat=0
split_feature=56 56 243 394 232 383
split_gain=77878.6 79056.9 27073.7 8793.46 8236.94 3746.06
threshold=1.5000000000000002 1.0000000180025095e-35 1.5000000000000002 0.93542477250030942 2.5000000000000004 -1.8191829844749785
decision_type=2 2 2 2 2 2
left_child=1 2 -1 4 -2 -3
right_child=3 5 -4 -5 -6 -7
leaf_value=0.0062354037593749991 0.0038322940737066783 0.003073377445198245 0.0022225560453611312 0.010697654162271652 0.001143994811442431 0.0089105755685671192
leaf_count=6681 6054 250 7232 67 5829 8686
internal_value=0 35.8227 22.8975 14.1434 12.9934 42.8795
internal_count=34799 22849 13913 11950 11883 8936
shrinkage=0.000206632


Tree=31
num_leaves=8
num_cat=0
split_feature=56 56 243 388 130 364 390
split_gain=76586.5 77439.2 26718.7 8747.61 8192.31 5300.8 3684.3
threshold=1.5000000000000002 1.0000000180025095e-35 1.5000000000000002 -0.20670200956096171 4.5000000000000009 4.5000000000000009 0.30933078952466581
decision_type=2 2 2 2 2 2 2
left_child=1 2 -1 4 -2 -5 -3
right_child=3 6 -4 5 -6 -7 -8
leaf_value=0.0061965826893465217 0.0053980877562100921 0.0089609171191738692 0.0022173026060226466 0.0011339802052926812 0.00062989687233941654 0.0053207115296774648 0.0071436768188655282
leaf_count=6681 3138 7541 7232 6749 1370 693 1395
internal_value=0 35.56 22.788 14.1005 21.2856 8.16816 42.5055
internal_count=34799 22849 13913 11950 4508 7442 8936
shrinkage=0.000206632


Tree=32
num_leaves=8
num_cat=0
split_feature=56 56 8 388 337 293 383
split_gain=75324.4 75866.8 26387 8667.87 8145.95 5275.97 3637.88
threshold=1.5000000000000002 1.0000000180025095e-35 2.5000000000000004 -0.20670200956096171 3.5000000000000004 5.5000000000000009 -1.8191829844749785
decision_type=2 2 8 2 2 2 2
left_child=1 2 -1 4 -2 -5 -3
right_child=3 6 -4 5 -6 -7 -8
leaf_value=0.0024447246304761016 0.0051904934577011478 0.0030368113218444187 0.0063123569640128078 0.00067147821330325753 -0.00020616505174037998 0.0036538644436237755 0.0087560915577118339
leaf_count=7913 3479 250 6000 5296 1029 2146 8686
internal_value=0 35.3011 22.6796 14.0578 21.1906 8.15313 42.1381
internal_count=34799 22849 13913 11950 4508 7442 8936
shrinkage=0.000206632


Tree=33
num_leaves=8
num_cat=0
split_feature=56 56 243 388 130 204 390
split_gain=74091.4 74337.6 26057.2 8589.13 8070.65 5261.4 3564.42
threshold=1.5000000000000002 1.0000000180025095e-35 1.5000000000000002 -0.20670200956096171 4.5000000000000009 4.5000000000000009 0.30933078952466581
decision_type=2 2 2 2 2 2 2
left_child=1 2 -1 4 -2 -5 -3
right_child=3 6 -4 5 -6 -7 -8
leaf_value=0.0061215516579195108 0.0053450001613001754 0.0088058475236266753 0.0022061099177197625 0.0011300518348722158 0.00062592532847851408 0.0052905508298018451 0.0070322024936086457
leaf_count=6681 3138 7541 7232 6797 1370 645 1395
internal_value=0 35.0461 22.5721 14.0153 21.0965 8.13813 41.777
internal_count=34799 22849 13913 11950 4508 7442 8936
shrinkage=0.000206632


Tree=34
num_leaves=7
num_cat=0
split_feature=56 56 243 394 77 383
split_gain=72885.8 72850.6 25720.7 8515.97 8117.35 3534.62
threshold=1.5000000000000002 1.0000000180025095e-35 1.5000000000000002 0.93542477250030942 1.1499023437500002 -1.8191829844749785
decision_type=2 2 2 2 2 2
left_child=1 2 -1 4 -2 -3
right_child=3 5 -4 -5 -6 -7
leaf_value=0.006084131035369855 0.00091464451565010795 0.0030012209885496208 0.0022009314567206805 0.010450362002830922 0.003644236262876363 0.0086069093901548991
leaf_count=6681 4980 250 7232 67 6903 8686
internal_value=0 34.7947 22.4657 13.9732 12.8411 41.4221
internal_count=34799 22849 13913 11950 11883 8936
shrinkage=0.000206632


Tree=35
num_leaves=8
num_cat=0
split_feature=56 56 8 388 337 364 383
split_gain=71707.1 71403.8 25408.8 8478.84 8006.52 5219.28 3463.94
threshold=1.5000000000000002 1.0000000180025095e-35 2.5000000000000004 -0.20670200956096171 3.5000000000000004 4.5000000000000009 -1.8191829844749785
decision_type=2 2 8 2 2 2 2
left_child=1 2 -1 4 -2 -5 -3
right_child=3 6 -4 5 -6 -7 -8
leaf_value=0.0024244284320137201 0.0051240912210100279 0.0029920979982913784 0.0061971860842089405 0.0011247856685807744 -0.00020620706686471431 0.0052562598970342699 0.0085340160145667959
leaf_count=7913 3479 250 6000 6749 1029 693 8686
internal_value=0 34.5468 22.3603 13.9312 20.9365 8.09942 41.0732
internal_count=34799 22849 13913 11950 4508 7442 8936
shrinkage=0.000206632


Tree=36
num_leaves=8
num_cat=0
split_feature=56 56 243 388 337 293 390
split_gain=70555 69996.2 25093.4 8402.54 7931.88 5205.19 3423.42
threshold=1.5000000000000002 1.0000000180025095e-35 1.5000000000000002 -0.20670200956096171 3.5000000000000004 5.5000000000000009 0.30933078952466581
decision_type=2 2 2 2 2 2 2
left_child=1 2 -1 4 -2 -5 -3
right_child=3 6 -4 5 -6 -7 -8
leaf_value=0.0060117704715536881 0.0050976569977429602 0.0085838226393164536 0.0021899058826220716 0.00066601743317221043 -0.00020620580072992954 0.0036154768219829954 0.0068662269520506705
leaf_count=6681 3479 7541 7232 5296 1029 2146 1395
internal_value=0 34.3026 22.2558 13.8895 20.8446 8.08463 40.7302
internal_count=34799 22849 13913 11950 4508 7442 8936
shrinkage=0.000206632


Tree=37
num_leaves=8
num_cat=0
split_feature=56 56 380 388 130 204 383
split_gain=69428.8 68626.6 24782.1 8327.22 7886.66 5181.33 3368.05
threshold=1.5000000000000002 1.0000000180025095e-35 2.6609974909542871 -0.20670200956096171 4.5000000000000009 4.5000000000000009 -1.8191829844749785
decision_type=2 2 2 2 2 2 2
left_child=1 2 -1 4 -2 -5 -3
right_child=3 6 -4 5 -6 -7 -8
leaf_value=0.0024111603796698007 0.0052525910366182796 0.0029577805216760861 0.0061225812174168356 0.0011209081561098782 0.00061656190176155882 0.0052270291447342465 0.0083922926681824113
leaf_count=7935 3138 250 5978 6797 1370 645 8686
internal_value=0 34.0617 22.1524 13.8481 20.7534 8.06987 40.3929
internal_count=34799 22849 13913 11950 4508 7442 8936
shrinkage=0.000206632


Tree=38
num_leaves=7
num_cat=0
split_feature=56 56 243 394 232 390
split_gain=68326.9 67293.3 24484.8 8253.62 7980.46 3316.75
threshold=1.5000000000000002 1.0000000180025095e-35 1.5000000000000002 0.93542477250030942 2.5000000000000004 0.30933078952466581
decision_type=2 2 2 2 2 2
left_child=1 2 -1 4 -2 -3
right_child=3 5 -4 -5 -6 -7
leaf_value=0.0059409943943205578 0.0037371004615092537 0.0084415005976535805 0.0021790647939411889 0.010214671487599263 0.0011186408649157137 0.0067633721907723789
leaf_count=6681 6054 7541 7232 67 5829 1395
internal_value=0 33.8243 22.0499 13.8069 12.6922 40.0612
internal_count=34799 22849 13913 11950 11883 8936
shrinkage=0.000206632


Tree=39
num_leaves=8
num_cat=0
split_feature=56 56 243 388 337 293 383
split_gain=67249.1 65995.5 24176.4 8223.69 7797 5148.26 3276.34
threshold=1.5000000000000002 1.0000000180025095e-35 1.5000000000000002 -0.20670200956096171 3.5000000000000004 5.5000000000000009 -1.8191829844749785
decision_type=2 2 2 2 2 2 2
left_child=1 2 -1 4 -2 -5 -3
right_child=3 6 -4 5 -6 -7 -8
leaf_value=0.005905741759966881 0.005033584035248592 0.0029243436201334648 0.0021740084140617413 0.00066185606393877566 -0.00020624572514132419 0.0035850722019758465 0.0082552320633107225
leaf_count=6681 3479 250 7232 5296 1029 2146 8686
internal_value=0 33.5902 21.9483 13.7659 20.5995 8.03146 39.7349
internal_count=34799 22849 13913 11950 4508 7442 8936
shrinkage=0.000206632


Tree=40
num_leaves=8
num_cat=0
split_feature=56 56 8 388 130 364 390
split_gain=66195.2 64731.6 23890.6 8150.69 7743.82 5128.68 3215.14
threshold=1.5000000000000002 1.0000000180025095e-35 2.5000000000000004 -0.20670200956096171 4.5000000000000009 4.5000000000000009 0.30933078952466581
decision_type=2 2 8 2 2 2 2
left_child=1 2 -1 4 -2 -5 -3
right_child=3 6 -4 5 -6 -7 -8
leaf_value=0.0023913050793051183 0.0051858164576948059 0.0083038468192869266 0.0060143306106235995 0.0011136046384340177 0.00061072466094275548 0.0051828669773067359 0.0066636393593134781
leaf_count=7913 3138 7541 6000 6749 1370 693 1395
internal_value=0 33.3593 21.8476 13.7252 20.5105 8.01688 39.414
internal_count=34799 22849 13913 11950 4508 7442 8936
shrinkage=0.000206632


Tree=41
num_leaves=8
num_cat=0
split_feature=56 56 243 388 337 293 383
split_gain=65163.8 63500.8 23601.1 8078.61 7692.75 5105.71 3188.57
threshold=1.5000000000000002 1.0000000180025095e-35 1.5000000000000002 -0.20670200956096171 3.5000000000000004 5.5000000000000009 -1.8191829844749785
decision_type=2 2 2 2 2 2 2
left_child=1 2 -1 4 -2 -5 -3
right_child=3 6 -4 5 -6 -7 -8
leaf_value=0.0058375186125514469 0.0049865707374320408 0.0028917507303242618 0.002163255051737019 0.00065999759007068486 -0.00020626987073128956 0.0035649730303922494 0.0081226077900901795
leaf_count=6681 3479 250 7232 5296 1029 2146 8686
internal_value=0 33.1316 21.7479 13.6847 20.4223 8.00237 39.0982
internal_count=34799 22849 13913 11950 4508 7442 8936
shrinkage=0.000206632



feature importances:
D19_SOZIALES=84
_isMissingUnknown_9=29
_isMissingUnknown_4=25
KBA13_OPEL=22
KBA13_HERST_ASIEN=17
_isMissingUnknown_11=17
_isMissingUnknown_1=16
KBA05_MAXAH=15
D19_GESAMT_DATUM_Value_INCREASE=14
_isMissingUnknown_15=13
KBA13_KW_40=11
LP_STATUS_FEIN_Value_OTHER=8
ANZ_HH_TITEL=4
SEMIO_DOM=4
EINGEZOGENAM_HH_JAHR=2

pandas_categorical:[]
