tree
version=v2
num_class=1
num_tree_per_iteration=1
label_index=0
max_feature_idx=492
objective=binary sigmoid:1
feature_names=AGER_TYP AKT_DAT_KL ALTER_KIND1 ALTER_KIND2 ALTER_KIND3 ALTER_KIND4 ALTERSKATEGORIE_FEIN ANZ_HAUSHALTE_AKTIV ANZ_HH_TITEL ANZ_KINDER ANZ_PERSONEN ARBEIT BALLRAUM CAMEO_DEUG_2015 CJT_GESAMTTYP CJT_KATALOGNUTZER CJT_TYP_1 CJT_TYP_2 CJT_TYP_3 CJT_TYP_4 CJT_TYP_5 CJT_TYP_6 D19_BANKEN_ANZ_12 D19_BANKEN_ANZ_24 D19_BANKEN_DIREKT D19_BANKEN_GROSS D19_BANKEN_LOKAL D19_BANKEN_ONLINE_QUOTE_12 D19_BANKEN_REST D19_BEKLEIDUNG_GEH D19_BEKLEIDUNG_REST D19_BILDUNG D19_BIO_OEKO D19_BUCH_CD D19_DIGIT_SERV D19_DROGERIEARTIKEL D19_ENERGIE D19_FREIZEIT D19_GARTEN D19_GESAMT_ANZ_12 D19_GESAMT_ANZ_24 D19_GESAMT_ONLINE_QUOTE_12 D19_HANDWERK D19_HAUS_DEKO D19_KINDERARTIKEL D19_KONSUMTYP D19_KONSUMTYP_MAX D19_KOSMETIK D19_LEBENSMITTEL D19_LOTTO D19_NAHRUNGSERGAENZUNG D19_RATGEBER D19_REISEN D19_SAMMELARTIKEL D19_SCHUHE D19_SONSTIGE D19_SOZIALES D19_TECHNIK D19_TELKO_ANZ_12 D19_TELKO_ANZ_24 D19_TELKO_MOBILE D19_TELKO_ONLINE_QUOTE_12 D19_TELKO_REST D19_TIERARTIKEL D19_VERSAND_ANZ_12 D19_VERSAND_ANZ_24 D19_VERSAND_ONLINE_QUOTE_12 D19_VERSAND_REST D19_VERSI_ANZ_12 D19_VERSI_ANZ_24 D19_VERSI_DATUM D19_VERSI_OFFLINE_DATUM D19_VERSI_ONLINE_DATUM D19_VERSI_ONLINE_QUOTE_12 D19_VERSICHERUNGEN D19_VOLLSORTIMENT D19_WEIN_FEINKOST EINGEZOGENAM_HH_JAHR EWDICHTE EXTSEL992 FINANZ_ANLEGER FINANZ_HAUSBAUER FINANZ_MINIMALIST FINANZ_SPARER FINANZ_UNAUFFAELLIGER FINANZ_VORSORGER FINANZTYP FIRMENDICHTE GEBAEUDETYP GEBAEUDETYP_RASTER GEBURTSJAHR GEMEINDETYP GFK_URLAUBERTYP GREEN_AVANTGARDE HEALTH_TYP HH_DELTA_FLAG HH_EINKOMMEN_SCORE INNENSTADT KBA05_ALTER1 KBA05_ALTER2 KBA05_ALTER3 KBA05_ALTER4 KBA05_ANHANG KBA05_ANTG1 KBA05_ANTG2 KBA05_ANTG3 KBA05_ANTG4 KBA05_AUTOQUOT KBA05_BAUMAX KBA05_CCM1 KBA05_CCM2 KBA05_CCM3 KBA05_CCM4 KBA05_DIESEL KBA05_FRAU KBA05_GBZ KBA05_HERST1 KBA05_HERST4 KBA05_HERST5 KBA05_HERSTTEMP KBA05_KRSAQUOT KBA05_KRSHERST1 KBA05_KRSHERST2 KBA05_KRSHERST3 KBA05_KRSOBER KBA05_KRSVAN KBA05_KRSZUL KBA05_KW1 KBA05_KW2 KBA05_KW3 KBA05_MAXAH KBA05_MAXBJ KBA05_MAXHERST KBA05_MAXSEG KBA05_MAXVORB KBA05_MOD1 KBA05_MOD2 KBA05_MOD3 KBA05_MOD4 KBA05_MOD8 KBA05_MODTEMP KBA05_MOTOR KBA05_MOTRAD KBA05_SEG1 KBA05_SEG10 KBA05_SEG2 KBA05_SEG3 KBA05_SEG4 KBA05_SEG5 KBA05_SEG6 KBA05_SEG7 KBA05_SEG8 KBA05_SEG9 KBA05_VORB0 KBA05_VORB1 KBA05_VORB2 KBA05_ZUL1 KBA05_ZUL2 KBA05_ZUL3 KBA05_ZUL4 KBA13_ANTG1 KBA13_ANTG2 KBA13_ANTG3 KBA13_ANTG4 KBA13_ANZAHL_PKW KBA13_AUDI KBA13_AUTOQUOTE KBA13_BAUMAX KBA13_BJ_1999 KBA13_BJ_2000 KBA13_BJ_2004 KBA13_BJ_2006 KBA13_BJ_2008 KBA13_BJ_2009 KBA13_BMW KBA13_CCM_0_1400 KBA13_CCM_1000 KBA13_CCM_1200 KBA13_CCM_1400 KBA13_CCM_1401_2500 KBA13_CCM_1500 KBA13_CCM_1600 KBA13_CCM_1800 KBA13_CCM_2000 KBA13_CCM_2500 KBA13_CCM_2501 KBA13_CCM_3000 KBA13_CCM_3001 KBA13_FAB_ASIEN KBA13_FAB_SONSTIGE KBA13_FIAT KBA13_FORD KBA13_GBZ KBA13_HALTER_20 KBA13_HALTER_25 KBA13_HALTER_30 KBA13_HALTER_35 KBA13_HALTER_40 KBA13_HALTER_45 KBA13_HALTER_50 KBA13_HALTER_55 KBA13_HALTER_60 KBA13_HALTER_65 KBA13_HALTER_66 KBA13_HERST_ASIEN KBA13_HERST_AUDI_VW KBA13_HERST_BMW_BENZ KBA13_HERST_EUROPA KBA13_HERST_FORD_OPEL KBA13_HERST_SONST KBA13_HHZ KBA13_KMH_0_140 KBA13_KMH_110 KBA13_KMH_140 KBA13_KMH_140_210 KBA13_KMH_180 KBA13_KMH_210 KBA13_KMH_250 KBA13_KMH_251 KBA13_KRSAQUOT KBA13_KRSHERST_AUDI_VW KBA13_KRSHERST_BMW_BENZ KBA13_KRSHERST_FORD_OPEL KBA13_KRSSEG_KLEIN KBA13_KRSSEG_OBER KBA13_KRSSEG_VAN KBA13_KRSZUL_NEU KBA13_KW_0_60 KBA13_KW_110 KBA13_KW_120 KBA13_KW_121 KBA13_KW_30 KBA13_KW_40 KBA13_KW_50 KBA13_KW_60 KBA13_KW_61_120 KBA13_KW_70 KBA13_KW_80 KBA13_KW_90 KBA13_MAZDA KBA13_MERCEDES KBA13_MOTOR KBA13_NISSAN KBA13_OPEL KBA13_PEUGEOT KBA13_RENAULT KBA13_SEG_GELAENDEWAGEN KBA13_SEG_KLEINST KBA13_SEG_KLEINWAGEN KBA13_SEG_KOMPAKTKLASSE KBA13_SEG_MINIVANS KBA13_SEG_MINIWAGEN KBA13_SEG_MITTELKLASSE KBA13_SEG_OBEREMITTELKLASSE KBA13_SEG_OBERKLASSE KBA13_SEG_SONSTIGE KBA13_SEG_SPORTWAGEN KBA13_SEG_UTILITIES KBA13_SEG_VAN KBA13_SEG_WOHNMOBILE KBA13_SITZE_4 KBA13_SITZE_5 KBA13_SITZE_6 KBA13_TOYOTA KBA13_VORB_0 KBA13_VORB_1 KBA13_VORB_1_2 KBA13_VORB_2 KBA13_VORB_3 KBA13_VW KK_KUNDENTYP KKK KOMBIALTER KONSUMNAEHE KONSUMZELLE MIN_GEBAEUDEJAHR MOBI_RASTER MOBI_REGIO NATIONALITAET_KZ ONLINE_AFFINITAET ORTSGR_KLS9 OST_WEST_KZ PLZ8_ANTG1 PLZ8_ANTG2 PLZ8_ANTG3 PLZ8_ANTG4 PLZ8_BAUMAX REGIOTYP RELAT_AB RETOURTYP_BK_S RT_KEIN_ANREIZ RT_SCHNAEPPCHEN RT_UEBERGROESSE SEMIO_DOM SEMIO_ERL SEMIO_FAM SEMIO_KAEM SEMIO_KRIT SEMIO_KULT SEMIO_LUST SEMIO_MAT SEMIO_PFLICHT SEMIO_RAT SEMIO_REL SEMIO_SOZ SEMIO_TRADV SEMIO_VERT SHOPPER_TYP SOHO_KZ STRUKTURTYP TITEL_KZ UMFELD_ALT UMFELD_JUNG UNGLEICHENN_FLAG VERDICHTUNGSRAUM VERS_TYP VHA VHN VK_DHT4A VK_DISTANZ VK_ZG11 W_KEIT_KIND_HH WOHNDAUER_2008 WOHNLAGE ZABEOTYP ANREDE_KZ ALTERSKATEGORIE_GROB ALTER_HH_Value_0 CAMEO_DEUINTL_2015_Value_0 CAMEO_DEUINTL_2015_Value_1 D19_BANKEN_DATUM_Value_ACTIVITY_WITHIN_MONTHS D19_BANKEN_DATUM_Value_INCREASE D19_BANKEN_OFFLINE_DATUM_Value_ACTIVITY_WITHIN_MONTHS D19_BANKEN_OFFLINE_DATUM_Value_INCREASE D19_BANKEN_ONLINE_DATUM_Value_ACTIVITY_WITHIN_MONTHS D19_BANKEN_ONLINE_DATUM_Value_INCREASE D19_GESAMT_DATUM_Value_ACTIVITY_WITHIN_MONTHS D19_GESAMT_DATUM_Value_INCREASE D19_GESAMT_OFFLINE_DATUM_Value_ACTIVITY_WITHIN_MONTHS D19_GESAMT_OFFLINE_DATUM_Value_INCREASE D19_GESAMT_ONLINE_DATUM_Value_ACTIVITY_WITHIN_MONTHS D19_GESAMT_ONLINE_DATUM_Value_INCREASE D19_TELKO_DATUM_Value_ACTIVITY_WITHIN_MONTHS D19_TELKO_DATUM_Value_INCREASE D19_TELKO_OFFLINE_DATUM_Value_ACTIVITY_WITHIN_MONTHS D19_TELKO_OFFLINE_DATUM_Value_INCREASE D19_TELKO_ONLINE_DATUM_Value_ACTIVITY_WITHIN_MONTHS D19_TELKO_ONLINE_DATUM_Value_INCREASE D19_VERSAND_DATUM_Value_ACTIVITY_WITHIN_MONTHS D19_VERSAND_DATUM_Value_INCREASE D19_VERSAND_OFFLINE_DATUM_Value_ACTIVITY_WITHIN_MONTHS D19_VERSAND_OFFLINE_DATUM_Value_INCREASE D19_VERSAND_ONLINE_DATUM_Value_ACTIVITY_WITHIN_MONTHS D19_VERSAND_ONLINE_DATUM_Value_INCREASE LP_FAMILIE_FEIN_Value_CHILD LP_FAMILIE_FEIN_Value_FAMILY LP_FAMILIE_FEIN_Value_GENERATIONAL LP_FAMILIE_GROB_Value_FAMILY LP_LEBENSPHASE_FEIN_Value_AGE LP_LEBENSPHASE_FEIN_Value_INCOME LP_LEBENSPHASE_FEIN_Value_OTHER LP_LEBENSPHASE_GROB_Value_AGE LP_LEBENSPHASE_GROB_Value_INCOME LP_STATUS_FEIN_Value_INCOME LP_STATUS_FEIN_Value_OTHER LP_STATUS_GROB_Value_INCOME PRAEGENDE_JUGENDJAHRE_Value_0 PRAEGENDE_JUGENDJAHRE_Value_2 PRAEGENDE_JUGENDJAHRE_Value_3 EINGEFUEGT_AM_Day EINGEFUEGT_AM_DayOfYear EINGEFUEGT_AM_DayOfWeek EINGEFUEGT_AM_DaysInMonth EINGEFUEGT_AM_IsMonthStart EINGEFUEGT_AM_IsMonthEnd EINGEFUEGT_AM_IsQuarterStart EINGEFUEGT_AM_IsQuarterEnd EINGEFUEGT_AM_IsYearStart EINGEFUEGT_AM_IsYearEnd EINGEFUEGT_AM_Season _isMissingUnknown_1 _isMissingUnknown_2 _isMissingUnknown_3 _isMissingUnknown_4 _isMissingUnknown_5 _isMissingUnknown_6 _isMissingUnknown_7 _isMissingUnknown_8 _isMissingUnknown_9 _isMissingUnknown_10 _isMissingUnknown_11 _isMissingUnknown_12 _isMissingUnknown_13 _isMissingUnknown_14 _isMissingUnknown_15 _isMissingUnknown_16 _isMissingUnknown_17 _isMissingUnknown_18 _isMissingUnknown_19 _isMissingUnknown_20 CAMEO_DEU_2015_1A CAMEO_DEU_2015_1B CAMEO_DEU_2015_1C CAMEO_DEU_2015_1D CAMEO_DEU_2015_1E CAMEO_DEU_2015_2A CAMEO_DEU_2015_2B CAMEO_DEU_2015_2C CAMEO_DEU_2015_2D CAMEO_DEU_2015_3A CAMEO_DEU_2015_3B CAMEO_DEU_2015_3C CAMEO_DEU_2015_3D CAMEO_DEU_2015_4A CAMEO_DEU_2015_4B CAMEO_DEU_2015_4C CAMEO_DEU_2015_4D CAMEO_DEU_2015_4E CAMEO_DEU_2015_5A CAMEO_DEU_2015_5B CAMEO_DEU_2015_5C CAMEO_DEU_2015_5D CAMEO_DEU_2015_5E CAMEO_DEU_2015_5F CAMEO_DEU_2015_6A CAMEO_DEU_2015_6B CAMEO_DEU_2015_6C CAMEO_DEU_2015_6D CAMEO_DEU_2015_6E CAMEO_DEU_2015_6F CAMEO_DEU_2015_7A CAMEO_DEU_2015_7B CAMEO_DEU_2015_7C CAMEO_DEU_2015_7D CAMEO_DEU_2015_7E CAMEO_DEU_2015_8A CAMEO_DEU_2015_8B CAMEO_DEU_2015_8C CAMEO_DEU_2015_8D CAMEO_DEU_2015_9A CAMEO_DEU_2015_9B CAMEO_DEU_2015_9C CAMEO_DEU_2015_9D CAMEO_DEU_2015_9E CAMEO_DEU_2015_XX D19_LETZTER_KAUF_BRANCHE_D19_BANKEN_DIREKT D19_LETZTER_KAUF_BRANCHE_D19_BANKEN_GROSS D19_LETZTER_KAUF_BRANCHE_D19_BANKEN_LOKAL D19_LETZTER_KAUF_BRANCHE_D19_BANKEN_REST D19_LETZTER_KAUF_BRANCHE_D19_BEKLEIDUNG_GEH D19_LETZTER_KAUF_BRANCHE_D19_BEKLEIDUNG_REST D19_LETZTER_KAUF_BRANCHE_D19_BILDUNG D19_LETZTER_KAUF_BRANCHE_D19_BIO_OEKO D19_LETZTER_KAUF_BRANCHE_D19_BUCH_CD D19_LETZTER_KAUF_BRANCHE_D19_DIGIT_SERV D19_LETZTER_KAUF_BRANCHE_D19_DROGERIEARTIKEL D19_LETZTER_KAUF_BRANCHE_D19_ENERGIE D19_LETZTER_KAUF_BRANCHE_D19_FREIZEIT D19_LETZTER_KAUF_BRANCHE_D19_GARTEN D19_LETZTER_KAUF_BRANCHE_D19_HANDWERK D19_LETZTER_KAUF_BRANCHE_D19_HAUS_DEKO D19_LETZTER_KAUF_BRANCHE_D19_KINDERARTIKEL D19_LETZTER_KAUF_BRANCHE_D19_KOSMETIK D19_LETZTER_KAUF_BRANCHE_D19_LEBENSMITTEL D19_LETZTER_KAUF_BRANCHE_D19_LOTTO D19_LETZTER_KAUF_BRANCHE_D19_NAHRUNGSERGAENZUNG D19_LETZTER_KAUF_BRANCHE_D19_RATGEBER D19_LETZTER_KAUF_BRANCHE_D19_REISEN D19_LETZTER_KAUF_BRANCHE_D19_SAMMELARTIKEL D19_LETZTER_KAUF_BRANCHE_D19_SCHUHE D19_LETZTER_KAUF_BRANCHE_D19_SONSTIGE D19_LETZTER_KAUF_BRANCHE_D19_TECHNIK D19_LETZTER_KAUF_BRANCHE_D19_TELKO_MOBILE D19_LETZTER_KAUF_BRANCHE_D19_TELKO_REST D19_LETZTER_KAUF_BRANCHE_D19_TIERARTIKEL D19_LETZTER_KAUF_BRANCHE_D19_UNBEKANNT D19_LETZTER_KAUF_BRANCHE_D19_VERSAND_REST D19_LETZTER_KAUF_BRANCHE_D19_VERSICHERUNGEN D19_LETZTER_KAUF_BRANCHE_D19_VOLLSORTIMENT D19_LETZTER_KAUF_BRANCHE_D19_WEIN_FEINKOST PRAEGENDE_JUGENDJAHRE_Value_1_FDJ_-_communist_party_youth_organisation PRAEGENDE_JUGENDJAHRE_Value_1_Generation_Golf PRAEGENDE_JUGENDJAHRE_Value_1_Swords_into_ploughshares PRAEGENDE_JUGENDJAHRE_Value_1_digital_media_kids PRAEGENDE_JUGENDJAHRE_Value_1_ecological_awareness PRAEGENDE_JUGENDJAHRE_Value_1_economic_miracle PRAEGENDE_JUGENDJAHRE_Value_1_family_orientation PRAEGENDE_JUGENDJAHRE_Value_1_generation_68_-_student_protestors PRAEGENDE_JUGENDJAHRE_Value_1_milk_bar_-_Individualisation PRAEGENDE_JUGENDJAHRE_Value_1_opponents_to_the_building_of_the_Wall PRAEGENDE_JUGENDJAHRE_Value_1_peace_movement PRAEGENDE_JUGENDJAHRE_Value_1_reconstruction_years PRAEGENDE_JUGENDJAHRE_Value_1_war_years
feature_infos=[-1:3] [-2:9] [2:18] [5:18] none none [-2:25] [0:353] [0:20] [0:6] [0:24] [-2:9] [-2:7] [-2:9] [-2:6] [-2:5] [-2:5] [-2:5] [-2:5] [-2:5] [-2:5] [-2:5] [0:6] [0:6] [0:7] [0:6] [0:7] [-2:10] [0:7] [0:7] [0:7] [0:7] [0:7] [0:7] [0:7] [0:7] [0:7] [0:7] [0:7] [0:6] [0:6] [-2:10] [0:7] [0:7] [0:7] [-2:9] [1:9] [0:7] [0:7] [-2:7] [0:7] [0:7] [0:7] [0:7] [0:7] [0:7] [-2:5] [0:7] [0:5] [0:5] [0:7] [-2:10] [0:7] [0:7] [0:6] [0:6] [-2:10] [0:7] [0:5] [0:6] [1:10] [1:10] none [-2:10] [0:7] [0:7] [0:7] [-1:3.30078125] [-2:6] [1:56] [1:5] [1:5] [1:5] [1:5] [1:5] [1:5] [1:6] [-2:5] [-2:8] [-2:5] [0:11.300000000000001] [11:50] [1:12] [0:1] [-1:3] [-2:1] [-2:6] [-2:8] [-2:4] [-2:5] [-2:5] [-2:5] [-2:3] [-2:4] [-2:4] [-2:3] [-2:2] [-2:5] [-2:5] [-2:5] [-2:5] [-2:5] [-2:4] [-2:4] [-2:5] [-2:5] [-2:5] [-2:5] [-2:5] [-2:5] [-2:5] [-2:5] [-2:5] [-2:5] [-2:3] [-2:3] [-2:3] [-2:5] [-2:5] [-2:4] [-2:5] [-2:4] [-2:5] [-2:4] [-2:3] [-2:4] [-2:5] [-2:5] [-2:5] [-2:3] [-2:6] [-2:4] [-2:3] [-2:3] [-2:4] [-2:5] [-2:5] [-2:5] [-2:4] [-2:1] [-2:3] [-2:3] [-2:3] [-2:5] [-2:5] [-2:5] [-2:5] [-2:5] [-2:5] [-2:5] [-2:4] [-2:4] [-2:3] [-2:2] [0:2300] [-2:5] [-2:5] [-2:5] [-2:5] [-2:5] [-2:5] [-2:5] [-2:5] [-2:5] [-2:5] [-2:5] [-2:5] [-2:5] [-2:5] [-2:5] [-2:5] [-2:5] [-2:5] [-2:5] [-2:5] [-2:5] [-2:5] [-2:5] [-2:5] [-2:5] [-2:5] [-2:5] [-2:5] [-2:5] [-2:5] [-2:5] [-2:5] [-2:5] [-2:5] [-2:5] [-2:5] [-2:5] [-2:5] [-2:5] [-2:5] [-2:5] [-2:5] [-2:5] [-2:5] [-2:5] [-2:5] [-2:5] [-2:3] [-2:5] [-2:5] [-2:5] [-2:5] [-2:5] [-2:3] [-2:5] [-2:5] [-2:5] [-2:5] [-2:3] [-2:3] [-2:3] [-2:3] [-2:5] [-2:5] [-2:5] [-2:5] [-2:3] [-2:5] [-2:5] [-2:5] [-2:5] [-2:5] [-2:5] [-2:5] [-2:5] [-2:5] [-2:4] [-2:5] [-2:5] [-2:5] [-2:5] [-2:5] [-2:5] [-2:5] [-2:5] [-2:5] [-2:5] [-2:5] [-2:5] [-2:5] [-2:5] [-2:5] [-2:5] [-2:5] [-2:5] [-2:5] [-2:5] [-2:5] [-2:5] [-2:5] [-2:5] [-2:5] [-2:5] [-2:5] [-2:5] [-2:6] [-2:4] [1:9] [-2:7] [-2:1] [-1:3.099609375] [-2:6] [-2:6] [-1:3] [-2:5] [-2:9] [-2:2] [-2:4] [-2:4] [-2:3] [-2:2] [-2:5] [-2:7] [-2:5] [-2:5] [-2:5] [-2:5] [-2:5] [1:7] [1:7] [1:7] [1:7] [1:7] [1:7] [1:7] [1:7] [1:7] [1:7] [1:7] [1:7] [1:7] [1:7] [-1:3] [-2:1] [-2:3] [-2:5] [-2:5] [-2:5] [-2:1] [0:45] [-1:2] [-2:5] [-2:4] [1:11] [1:13] [1:11] [-2:6] [-2:9] [-2:8] [1:6] [1:2] [1:9] [0:10.1015625] [-2:5] [-2:5] [0:5] [0:5] [0:5] [0:5] [0:5] [0:5] [0:5] [0:5] [0:5] [0:5] [0:5] [0:5] [0:5] [0:5] [0:5] [0:5] [0:5] none [0:5] [0:5] [0:5] [0:5] [0:5] [0:5] [-2:3] [-2:8] [-2:3] [-2:4] [-2:5] [-2:7] none [-2:3] [-2:4] [-2:7] [-2:8] [-2:2] [-1:6] [-1:2] [-1:3] [1:31] [2:365] [-2:6] [28:31] [0:1] none none none none none [0:3] [-2.2083146064174635:14.259193305521343] [-5.2266586160317701:6.1135041603235534] [-6.3144945203165612:6.0770542173820825] [-2.616796517584147:8.1530105039188836] [-3.0540729225044014:7.3736377913611442] [-1.5481024585681533:5.7935991918011727] [-1.8367647932651929:3.5991429413803937] [-3.1529604240351721:3.0947390738493477] [-0.98093477921175021:0.9713992095496804] [-0.98049511908664311:1.7887197137894397] [-1.6232912618877773:1.7401795814018106] [-1.5320520748853079:2.4835398028808431] [-1.2020469363457102:1.1916233369037497] [-0.90516040822178256:3.9969032047591613] [-1.4306446823096799:1.4613847047569262] [-1.0406915982371046:1.8634039434443368] [-2.7853555493882616:2.8486835363082426] [-1.2829023721743935:1.2229279825376977] [-1.4705490182854528:1.9169812592173574] [-1.2114417118988876:1.7305862506292544] [0:1] none none [0:1] none [0:1] [0:1] [0:1] [0:1] none [0:1] [0:1] [0:1] [0:1] [0:1] [0:1] [0:1] none [0:1] [0:1] [0:1] [0:1] none none none [0:1] [0:1] [0:1] [0:1] [0:1] [0:1] [0:1] none none [0:1] [0:1] [0:1] [0:1] [0:1] [0:1] [0:1] [0:1] [0:1] [0:1] none [0:1] [0:1] none none [0:1] [0:1] none none [0:1] none [0:1] [0:1] [0:1] none none [0:1] none none [0:1] none [0:1] none none [0:1] [0:1] [0:1] [0:1] [0:1] [0:1] none [0:1] [0:1] [0:1] [0:1] none none [0:1] none [0:1] [0:1] [0:1] [0:1] [0:1] [0:1] [0:1] [0:1] [0:1] [0:1]
tree_sizes=3272 3232 2838 3001

Tree=0
num_leaves=41
num_cat=0
split_feature=56 56 8 390 77 327 316 379 102 326 325 388 173 188 92 353 227 253 314 327 238 171 176 287 204 29 325 399 79 177 164 364 259 36 380 79 180 29 399 277
split_gain=73244.7 117748 18166.5 5748.25 4858.92 4410.25 4015.35 5062.86 4605.06 3576.79 3413.31 3401.6 3484.59 3018.14 4324.53 2990.49 3213.76 3438.54 2951.59 2841.98 2636.64 2680.76 2078.17 1890.68 1753.34 1731.35 1614.97 1530.24 1477.02 1370.61 1258.96 943.602 872.67 728.407 570.972 430.73 223.17 217.129 171.832 53.5935
threshold=1.5000000000000002 1.0000000180025095e-35 1.0000000180025095e-35 0.30802901983357517 1.2500000000000002 7.8515625000000009 1.0000000180025095e-35 1.0000000180025095e-35 1.0000000180025095e-35 1.5000000000000002 1.5000000000000002 0.29295353982342714 1.5000000000000002 3.5000000000000004 5.5000000000000009 2.5000000000000004 2.5000000000000004 3.5000000000000004 1.0000000180025095e-35 5.3515625000000009 3.5000000000000004 3.5000000000000004 2.5000000000000004 2.5000000000000004 4.5000000000000009 5.5000000000000009 1.5000000000000002 0.0030811569046651226 52.500000000000007 2.5000000000000004 525.50000000000011 5.5000000000000009 2.5000000000000004 1.5000000000000002 -2.1306745634200874 14.500000000000002 4.5000000000000009 2.5000000000000004 -0.016435542017308163 3.5000000000000004
decision_type=2 2 8 2 2 10 2 2 2 2 2 2 2 2 10 2 2 2 8 10 2 2 2 2 2 2 2 2 10 2 10 2 2 2 2 10 2 2 2 2
left_child=1 2 20 6 5 -5 23 8 28 10 -4 12 38 14 18 16 17 -14 -10 34 27 35 -16 -3 25 37 -11 33 -8 39 -31 -28 -29 36 -18 -22 -1 -13 -2 -25
right_child=11 3 9 4 -6 -7 7 -9 13 26 -12 24 15 -15 22 -17 19 -19 -20 -21 21 -23 -24 29 -26 -27 31 32 -30 30 -32 -33 -34 -35 -36 -37 -38 -39 -40 -41
leaf_value=-4.3825393148936245 -4.3823543296379723 -4.1089540202028116 -4.1425789032020131 -4.1735122691974862 -4.0892660878114944 -4.3820247360893338 -4.2896123972185727 -4.0311783667537275 -4.3167314745554872 -4.3284056638519424 -4.2384245015459676 -4.3825418570310966 -4.1490341807521567 -4.0446506326850384 -4.1660683834435783 -4.38220988474193 -4.3108947332719065 -4.316179782906203 -4.1529299174809102 -4.2398595306555018 -4.3108947332719065 -4.2073151182719029 -4.0590219915285379 -3.9861216609237826 -4.276056954508987 -4.2964231387835037 -4.196994430882568 -4.351805095814111 -4.1722810707886868 -4.1334956310304314 -4.040094191041792 -4.2699438351898023 -4.2587636085953706 -4.3122933006452424 -4.382279866458723 -4.3820188459268703 -4.3442264471324963 -4.3453103114152185 -4.3440771535695335 -4.0432120784453289
leaf_count=4333 1131 821 1075 484 469 478 503 719 504 961 2054 4506 625 615 613 711 455 499 455 881 455 500 676 483 569 745 524 584 479 510 590 1627 465 466 868 473 457 472 455 509
internal_value=0 32.5676 15.1203 46.9801 33.332 20.9561 48.7435 44.5471 40.7283 24.0792 29.2872 7.98391 12.5106 44.1491 39.5824 16.175 18.9537 28.4464 25.9785 12.476 5.55792 15.2628 45.9023 53.6202 3.38024 1.72518 17.5647 2.90727 25.5558 56.1183 49.9879 21.0449 11.8516 0.795534 3.56054 5.3211 -0.332062 -0.357461 0.960533 60.4286
internal_count=34799 22882 13974 8908 1431 962 7477 4564 3845 6241 3129 11917 5625 2863 2248 4039 3328 1124 959 2204 7733 1428 1289 2913 6292 5723 3112 6305 982 2092 1100 2151 1049 5256 1323 928 4790 4978 1586 992
shrinkage=1


Tree=1
num_leaves=40
num_cat=0
split_feature=56 56 8 77 390 237 388 173 222 122 213 77 238 159 326 303 155 358 31 325 137 307 225 399 79 399 325 338 382 79 231 382 300 184 309 229 392 164 381
split_gain=47530.8 64291.2 13656.2 3208.36 4191.36 3550.78 2892.86 2868.85 2669.91 2574.39 2415.31 2401.88 2255.16 2273.03 2247.57 2124.7 2116.39 2098.67 1929.9 1881.28 1707.4 1713.87 1679.28 2342.33 1495.27 1379.14 1198.82 810.978 730.132 688.366 672.228 649.691 605.408 601.085 549.909 218.027 216.533 170.187 70.9104
threshold=1.5000000000000002 1.0000000180025095e-35 1.0000000180025095e-35 1.7500000000000002 0.35708554554444555 2.5000000000000004 0.29295353982342714 1.5000000000000002 3.5000000000000004 1.5000000000000002 3.5000000000000004 1.6499023437500002 3.5000000000000004 1.5000000000000002 1.5000000000000002 2.5000000000000004 2.5000000000000004 1.5000000000000002 3.5000000000000004 1.5000000000000002 3.5000000000000004 1.5000000000000002 1.5000000000000002 -0.010909782083103487 38.500000000000007 0.0030811569046651226 1.5000000000000002 1.0000000180025095e-35 -0.82847438567231124 26.500000000000004 1.5000000000000002 0.050836519395741749 1.5000000000000002 2.5000000000000004 2.5000000000000004 4.5000000000000009 -0.52870714459342649 293.50000000000006 0.43811742009904237
decision_type=2 2 8 2 2 2 2 2 2 2 2 2 2 2 2 2 2 2 2 2 2 2 2 2 8 2 2 2 2 8 2 2 2 2 2 2 2 10 2
left_child=1 2 12 4 8 -6 7 37 18 -9 15 17 25 -14 19 -10 -13 -11 20 -4 24 -22 23 -8 -3 28 -16 -27 -1 -24 33 -28 -19 -26 -5 -31 -30 -2 -20
right_child=6 3 14 34 5 -7 22 9 10 11 -12 16 13 -15 26 -17 -18 32 38 -21 21 -23 29 -25 30 27 31 -29 36 35 -32 -33 -34 -35 -36 -37 -38 -39 -40
leaf_value=0.064199919298505714 0.032028954949278682 0.2032950937638881 0.18540444922412502 0.21769744103245667 0.17922740223079775 0.022214058909989308 0.13020606073119328 0.16875228630053704 0.17318533798965061 0.11622018021395393 0.21451114887828573 0.17633564459396969 -0.0057102323054338492 0.12320282767655186 0.04558270287914945 0.060198332832449408 0.04867485001707153 0.058426298917363194 0.14881960750412512 0.11997838459117477 0.23103848783570813 0.1440394366534592 0.061400789372341967 -0.005767960284937956 0.26633821134296082 0.022657821755444785 0.1517925143080795 0.10922841986685278 0.0311601661315698 -0.0061117189968657674 0.28505695105336842 0.09505354709366115 -0.0060039596416020281 0.21547129062810261 0.26726913578598471 0.031546033145202934 -0.0061132705896150769 -0.0059293577796265288 0.18819802664397667
leaf_count=458 456 891 1075 534 589 547 585 545 527 511 654 512 545 883 961 560 564 455 459 2054 483 652 477 671 465 582 519 467 467 4104 469 1632 1452 773 849 455 4331 1130 456
internal_value=0 26.5314 13.7085 35.3189 33.6126 20.5386 7.55345 11.5147 34.8689 14.571 28.2006 11.6193 5.34128 13.8508 20.7342 21.122 20.2643 6.64235 36.6859 24.4601 38.0536 31.6137 3.29187 11.5387 39.9986 2.83993 15.7346 10.9914 0.787084 0.839378 42.2462 18.4784 1.9635 39.4309 41.506 -0.310408 -0.335698 0.949363 28.1667
internal_count=34799 22882 13974 8908 7525 1136 11917 5625 6389 4039 1741 3494 7733 1428 6241 1087 1076 2418 4648 3129 3733 1135 6292 1256 2598 6305 3112 1049 5256 5036 1707 2151 1907 1238 1383 4559 4798 1586 915
shrinkage=0.00610262


Tree=2
num_leaves=35
num_cat=0
split_feature=56 56 8 358 42 90 232 238 235 380 197 49 107 381 327 393 326 390 399 42 31 84 79 141 281 302 92 394 45 244 386 135 185 7
split_gain=33279.1 40034.2 10612.6 2544.6 3834.7 3293.66 2254.1 1947.64 1906.23 1715.1 2727.73 1628.96 2550.55 2498.61 1831.68 2197.57 1512.76 1346.63 1249.95 1238.42 1229 1203.83 1198.81 1123.16 1078.37 1017.42 902.683 885.37 711.155 693.005 450.709 292.716 217.856 206.538
threshold=1.5000000000000002 1.0000000180025095e-35 1.0000000180025095e-35 1.0000000180025095e-35 6.5000000000000009 2.4500000000000006 2.5000000000000004 3.5000000000000004 3.5000000000000004 -2.1246210875485896 2.5000000000000004 1.0000000180025095e-35 4.5000000000000009 0.27966154344294131 4.3515625000000009 -0.0086963266045194335 1.5000000000000002 0.30802901983357517 0.0030811569046651226 2.5000000000000004 2.5000000000000004 1.5000000000000002 54.500000000000007 2.5000000000000004 1.5000000000000002 4.5000000000000009 6.5000000000000009 -0.0033367747830080614 7.5000000000000009 4.5000000000000009 0.26696181455741708 1.5000000000000002 4.5000000000000009 17.500000000000004
decision_type=2 2 8 2 2 2 2 2 2 2 2 2 2 2 10 2 2 2 2 2 2 2 10 2 2 2 8 2 2 2 2 2 2 10
left_child=1 2 7 5 9 -2 -7 18 -9 10 23 12 17 -13 19 21 -4 20 29 -15 22 -16 26 -5 -12 33 30 -18 -20 32 -3 -28 -1 -11
right_child=3 11 16 4 -6 6 -8 8 -10 25 24 13 -14 14 15 -17 27 -19 28 -21 -22 -23 -24 -25 -26 -27 31 -29 -30 -31 -32 -33 -34 -35
leaf_value=-0.0061137213891445195 -0.0058262039526948695 0.1837857665975039 0.12841924199032739 0.14923512747535583 0.1377195009268905 0.16841021070344867 0.046497525069903879 0.12153931251193635 0.015437184896227097 -0.006129416234422775 0.071316642702367941 0.091654560794236478 0.12046080675989683 0.20906547143087065 0.12681690547221541 0.089015046274149467 0.071716581743926366 0.13432635460734188 0.10002026974764829 0.14693371385781834 0.14934800962165468 0.18620138086333737 0.22914289462538484 0.051759205794759122 -0.0060355737476557834 0.060369486152777416 0.1837932377992984 0.12581888478361905 0.021445504455841456 0.061280307811092921 0.138718290521638 0.21672692869367841 0.031362225051435932 0.028921840334326689
leaf_count=4315 721 515 3129 459 564 650 578 705 723 5032 520 683 694 727 724 716 2432 544 470 526 611 850 567 506 1732 684 591 680 579 480 556 604 461 471
internal_value=0 22.5012 12.5467 7.17003 5.30103 14.8003 20.703 5.13985 12.6711 3.75979 8.29159 28.5222 30.2613 25.9813 27.3737 23.9873 18.2299 31.3124 2.77539 31.3394 32.0541 26.9496 32.981 17.7726 2.65731 0.919587 31.1709 14.2541 10.2455 0.778761 27.2597 33.3873 -0.335847 -0.449574
internal_count=34799 22882 13974 11917 9968 1949 1228 7733 1428 9404 3217 8908 4682 4226 3543 2290 6241 3988 6305 1253 3444 1574 2833 965 2252 6187 2266 3112 1049 5256 1071 1195 4776 5503
shrinkage=0.00610262


Tree=3
num_leaves=37
num_cat=0
split_feature=56 56 8 77 169 397 123 305 268 340 6 139 122 300 77 6 330 146 303 164 92 184 96 169 326 393 118 90 398 231 396 127 364 164 277 16
split_gain=24511.5 27014.2 8451.46 2310.26 2397.98 1990.86 2069.4 1903.87 3642.6 1883.82 2089.53 1568.62 1551.83 1444.68 1220.53 1895.47 2404.08 1124.8 1626.18 1497.34 1269.17 1256.19 1193.97 1072.33 1069.69 864.638 806.784 973.442 731.539 659.161 534.706 419.701 386.776 110.874 101.49 7.35789
threshold=1.5000000000000002 1.0000000180025095e-35 1.0000000180025095e-35 1.2500000000000002 3.5000000000000004 -0.16840696617223341 3.5000000000000004 3.5000000000000004 1.5000000000000002 4.5000000000000009 10.500000000000002 2.5000000000000004 1.5000000000000002 5.5000000000000009 1.7500000000000002 13.500000000000002 1.0000000180025095e-35 3.5000000000000004 1.5000000000000002 576.50000000000011 6.5000000000000009 3.5000000000000004 2.5000000000000004 1.5000000000000002 1.5000000000000002 -0.017494064115303083 2.5000000000000004 2.7500000000000004 -0.02347664353703393 2.5000000000000004 -0.0084706997952303641 2.5000000000000004 3.5000000000000004 633.50000000000011 3.5000000000000004 2.5000000000000004
decision_type=2 2 8 2 2 2 2 2 2 2 2 2 2 2 2 2 2 2 2 10 8 2 2 2 2 2 2 2 2 2 2 2 2 10 2 2
left_child=1 2 9 11 5 34 7 8 -7 13 -11 12 -2 23 15 17 -17 20 -19 -20 21 22 -3 -1 35 -24 30 -28 -26 -14 -22 -16 -25 -10 -5 -4
right_child=3 14 24 4 -6 6 -8 -9 33 10 -12 -13 29 -15 31 16 -18 18 19 -21 26 -23 25 32 28 -27 27 -29 -30 -31 -32 -33 -34 -35 -36 -37
leaf_value=0.069131283265002896 0.075757874810301024 0.17123883141276727 0.12545792468181333 -0.0056744979994544061 -0.0059584214045860697 0.14149113549152434 0.015742768090340115 0.15761525694792222 -0.0057570611107600703 0.13281077005978875 -0.0056177441743227689 0.081035865824728964 -0.0061320272853893987 0.073877460056546551 0.14603044877074514 0.12792263751961644 0.017142208448494692 0.15785518769685586 0.050894798104921458 0.12647799829808407 0.19138936425382816 0.085064981003757867 0.086149452767167178 -0.0061254841143288039 0.066012770403743024 0.14279764776187218 0.16659980040371691 0.12141703173089601 0.11294573945235573 0.051036710156555476 0.15607079895001055 0.17621705417875846 0.030340717675999999 0.026866231906040629 0.026903803729677881 0.10929709790183832
leaf_count=552 622 529 549 475 1107 657 724 707 562 560 459 768 4856 894 622 688 508 471 604 550 492 544 544 4381 2443 526 612 803 669 524 654 761 887 455 460 2580
internal_value=0 19.5826 11.5704 6.82219 10.4793 12.7935 15.2291 17.9188 12.9159 4.95357 14.2712 3.44664 1.81246 3.15745 24.0066 23.1013 16.0582 23.8433 20.0647 15.8856 24.8086 21.7917 23.4877 1.45781 16.2738 19.9318 26.5324 23.9819 13.0276 0.0776505 28.7809 27.1324 0.105272 1.59398 1.83611 18.4809
internal_count=34799 22882 13974 11917 5147 4040 3105 2381 1674 7733 1019 6770 6002 6714 8908 7525 1196 6329 1625 1154 4704 2143 1599 5820 6241 1070 2561 1415 3112 5380 1146 1383 5268 1017 935 3129
shrinkage=0.00610262



feature importances:
D19_SOZIALES=8
EINGEZOGENAM_HH_JAHR=5
EXTSEL992=5
_isMissingUnknown_20=5
ANZ_HH_TITEL=4
ALTERSKATEGORIE_GROB=4
KBA13_ANZAHL_PKW=4
ANREDE_KZ=4
GFK_URLAUBERTYP=3
KBA13_KW_90=3
_isMissingUnknown_11=3
ALTER_HH_Value_0=3
SEMIO_MAT=2
SEMIO_REL=2
D19_BEKLEIDUNG_GEH=2
D19_BILDUNG=2
LP_LEBENSPHASE_FEIN_Value_AGE=2
D19_HANDWERK=2
LP_STATUS_FEIN_Value_OTHER=2
KBA13_BJ_2000=2
_isMissingUnknown_1=2
GEBURTSJAHR=2
KBA13_BJ_2009=2
MOBI_REGIO=2
_isMissingUnknown_3=2
_isMissingUnknown_9=2
KBA05_KRSHERST2=2
KBA13_CCM_2500=2
_isMissingUnknown_14=2
_isMissingUnknown_2=2
ALTERSKATEGORIE_FEIN=2
KBA13_KW_30=2
ANZ_HAUSHALTE_AKTIV=1
CJT_TYP_1=1
D19_ENERGIE=1
D19_KONSUMTYP=1
D19_LOTTO=1
FINANZ_UNAUFFAELLIGER=1
HH_EINKOMMEN_SCORE=1
KBA05_ANHANG=1
KBA05_AUTOQUOT=1
KBA05_HERST5=1
KBA05_KRSHERST3=1
KBA05_KW1=1
KBA05_MOD1=1
KBA05_MOD3=1
KBA05_MOD8=1
KBA05_MOTOR=1
KBA05_SEG3=1
KBA05_VORB2=1
KBA05_ZUL4=1
KBA13_BJ_2006=1
KBA13_CCM_1200=1
KBA13_CCM_1500=1
KBA13_CCM_2501=1
KBA13_FAB_ASIEN=1
KBA13_KW_0_60=1
OST_WEST_KZ=1
REGIOTYP=1
KBA13_KW_120=1
SEMIO_RAT=1
KBA13_KW_40=1
SEMIO_TRADV=1
SHOPPER_TYP=1
STRUKTURTYP=1
VERDICHTUNGSRAUM=1
VHA=1
KBA13_KRSHERST_FORD_OPEL=1
KBA13_KMH_140=1
KBA13_HERST_ASIEN=1
D19_BANKEN_DATUM_Value_ACTIVITY_WITHIN_MONTHS=1
D19_GESAMT_OFFLINE_DATUM_Value_ACTIVITY_WITHIN_MONTHS=1
D19_GESAMT_ONLINE_DATUM_Value_ACTIVITY_WITHIN_MONTHS=1
D19_VERSAND_ONLINE_DATUM_Value_INCREASE=1
KBA13_KW_61_120=1
KBA13_KW_80=1
EINGEFUEGT_AM_Season=1
KBA13_KRSSEG_VAN=1
KBA13_CCM_1000=1
KBA13_PEUGEOT=1
_isMissingUnknown_7=1
KBA13_SEG_OBEREMITTELKLASSE=1
KBA13_HALTER_40=1
_isMissingUnknown_13=1
KBA13_SEG_WOHNMOBILE=1
_isMissingUnknown_15=1
_isMissingUnknown_17=1
_isMissingUnknown_18=1
_isMissingUnknown_19=1
KBA13_VORB_3=1

pandas_categorical:[]
