tree
version=v2
num_class=1
num_tree_per_iteration=1
label_index=0
max_feature_idx=492
objective=binary sigmoid:1
feature_names=AGER_TYP AKT_DAT_KL ALTER_KIND1 ALTER_KIND2 ALTER_KIND3 ALTER_KIND4 ALTERSKATEGORIE_FEIN ANZ_HAUSHALTE_AKTIV ANZ_HH_TITEL ANZ_KINDER ANZ_PERSONEN ARBEIT BALLRAUM CAMEO_DEUG_2015 CJT_GESAMTTYP CJT_KATALOGNUTZER CJT_TYP_1 CJT_TYP_2 CJT_TYP_3 CJT_TYP_4 CJT_TYP_5 CJT_TYP_6 D19_BANKEN_ANZ_12 D19_BANKEN_ANZ_24 D19_BANKEN_DIREKT D19_BANKEN_GROSS D19_BANKEN_LOKAL D19_BANKEN_ONLINE_QUOTE_12 D19_BANKEN_REST D19_BEKLEIDUNG_GEH D19_BEKLEIDUNG_REST D19_BILDUNG D19_BIO_OEKO D19_BUCH_CD D19_DIGIT_SERV D19_DROGERIEARTIKEL D19_ENERGIE D19_FREIZEIT D19_GARTEN D19_GESAMT_ANZ_12 D19_GESAMT_ANZ_24 D19_GESAMT_ONLINE_QUOTE_12 D19_HANDWERK D19_HAUS_DEKO D19_KINDERARTIKEL D19_KONSUMTYP D19_KONSUMTYP_MAX D19_KOSMETIK D19_LEBENSMITTEL D19_LOTTO D19_NAHRUNGSERGAENZUNG D19_RATGEBER D19_REISEN D19_SAMMELARTIKEL D19_SCHUHE D19_SONSTIGE D19_SOZIALES D19_TECHNIK D19_TELKO_ANZ_12 D19_TELKO_ANZ_24 D19_TELKO_MOBILE D19_TELKO_ONLINE_QUOTE_12 D19_TELKO_REST D19_TIERARTIKEL D19_VERSAND_ANZ_12 D19_VERSAND_ANZ_24 D19_VERSAND_ONLINE_QUOTE_12 D19_VERSAND_REST D19_VERSI_ANZ_12 D19_VERSI_ANZ_24 D19_VERSI_DATUM D19_VERSI_OFFLINE_DATUM D19_VERSI_ONLINE_DATUM D19_VERSI_ONLINE_QUOTE_12 D19_VERSICHERUNGEN D19_VOLLSORTIMENT D19_WEIN_FEINKOST EINGEZOGENAM_HH_JAHR EWDICHTE EXTSEL992 FINANZ_ANLEGER FINANZ_HAUSBAUER FINANZ_MINIMALIST FINANZ_SPARER FINANZ_UNAUFFAELLIGER FINANZ_VORSORGER FINANZTYP FIRMENDICHTE GEBAEUDETYP GEBAEUDETYP_RASTER GEBURTSJAHR GEMEINDETYP GFK_URLAUBERTYP GREEN_AVANTGARDE HEALTH_TYP HH_DELTA_FLAG HH_EINKOMMEN_SCORE INNENSTADT KBA05_ALTER1 KBA05_ALTER2 KBA05_ALTER3 KBA05_ALTER4 KBA05_ANHANG KBA05_ANTG1 KBA05_ANTG2 KBA05_ANTG3 KBA05_ANTG4 KBA05_AUTOQUOT KBA05_BAUMAX KBA05_CCM1 KBA05_CCM2 KBA05_CCM3 KBA05_CCM4 KBA05_DIESEL KBA05_FRAU KBA05_GBZ KBA05_HERST1 KBA05_HERST4 KBA05_HERST5 KBA05_HERSTTEMP KBA05_KRSAQUOT KBA05_KRSHERST1 KBA05_KRSHERST2 KBA05_KRSHERST3 KBA05_KRSOBER KBA05_KRSVAN KBA05_KRSZUL KBA05_KW1 KBA05_KW2 KBA05_KW3 KBA05_MAXAH KBA05_MAXBJ KBA05_MAXHERST KBA05_MAXSEG KBA05_MAXVORB KBA05_MOD1 KBA05_MOD2 KBA05_MOD3 KBA05_MOD4 KBA05_MOD8 KBA05_MODTEMP KBA05_MOTOR KBA05_MOTRAD KBA05_SEG1 KBA05_SEG10 KBA05_SEG2 KBA05_SEG3 KBA05_SEG4 KBA05_SEG5 KBA05_SEG6 KBA05_SEG7 KBA05_SEG8 KBA05_SEG9 KBA05_VORB0 KBA05_VORB1 KBA05_VORB2 KBA05_ZUL1 KBA05_ZUL2 KBA05_ZUL3 KBA05_ZUL4 KBA13_ANTG1 KBA13_ANTG2 KBA13_ANTG3 KBA13_ANTG4 KBA13_ANZAHL_PKW KBA13_AUDI KBA13_AUTOQUOTE KBA13_BAUMAX KBA13_BJ_1999 KBA13_BJ_2000 KBA13_BJ_2004 KBA13_BJ_2006 KBA13_BJ_2008 KBA13_BJ_2009 KBA13_BMW KBA13_CCM_0_1400 KBA13_CCM_1000 KBA13_CCM_1200 KBA13_CCM_1400 KBA13_CCM_1401_2500 KBA13_CCM_1500 KBA13_CCM_1600 KBA13_CCM_1800 KBA13_CCM_2000 KBA13_CCM_2500 KBA13_CCM_2501 KBA13_CCM_3000 KBA13_CCM_3001 KBA13_FAB_ASIEN KBA13_FAB_SONSTIGE KBA13_FIAT KBA13_FORD KBA13_GBZ KBA13_HALTER_20 KBA13_HALTER_25 KBA13_HALTER_30 KBA13_HALTER_35 KBA13_HALTER_40 KBA13_HALTER_45 KBA13_HALTER_50 KBA13_HALTER_55 KBA13_HALTER_60 KBA13_HALTER_65 KBA13_HALTER_66 KBA13_HERST_ASIEN KBA13_HERST_AUDI_VW KBA13_HERST_BMW_BENZ KBA13_HERST_EUROPA KBA13_HERST_FORD_OPEL KBA13_HERST_SONST KBA13_HHZ KBA13_KMH_0_140 KBA13_KMH_110 KBA13_KMH_140 KBA13_KMH_140_210 KBA13_KMH_180 KBA13_KMH_210 KBA13_KMH_250 KBA13_KMH_251 KBA13_KRSAQUOT KBA13_KRSHERST_AUDI_VW KBA13_KRSHERST_BMW_BENZ KBA13_KRSHERST_FORD_OPEL KBA13_KRSSEG_KLEIN KBA13_KRSSEG_OBER KBA13_KRSSEG_VAN KBA13_KRSZUL_NEU KBA13_KW_0_60 KBA13_KW_110 KBA13_KW_120 KBA13_KW_121 KBA13_KW_30 KBA13_KW_40 KBA13_KW_50 KBA13_KW_60 KBA13_KW_61_120 KBA13_KW_70 KBA13_KW_80 KBA13_KW_90 KBA13_MAZDA KBA13_MERCEDES KBA13_MOTOR KBA13_NISSAN KBA13_OPEL KBA13_PEUGEOT KBA13_RENAULT KBA13_SEG_GELAENDEWAGEN KBA13_SEG_KLEINST KBA13_SEG_KLEINWAGEN KBA13_SEG_KOMPAKTKLASSE KBA13_SEG_MINIVANS KBA13_SEG_MINIWAGEN KBA13_SEG_MITTELKLASSE KBA13_SEG_OBEREMITTELKLASSE KBA13_SEG_OBERKLASSE KBA13_SEG_SONSTIGE KBA13_SEG_SPORTWAGEN KBA13_SEG_UTILITIES KBA13_SEG_VAN KBA13_SEG_WOHNMOBILE KBA13_SITZE_4 KBA13_SITZE_5 KBA13_SITZE_6 KBA13_TOYOTA KBA13_VORB_0 KBA13_VORB_1 KBA13_VORB_1_2 KBA13_VORB_2 KBA13_VORB_3 KBA13_VW KK_KUNDENTYP KKK KOMBIALTER KONSUMNAEHE KONSUMZELLE MIN_GEBAEUDEJAHR MOBI_RASTER MOBI_REGIO NATIONALITAET_KZ ONLINE_AFFINITAET ORTSGR_KLS9 OST_WEST_KZ PLZ8_ANTG1 PLZ8_ANTG2 PLZ8_ANTG3 PLZ8_ANTG4 PLZ8_BAUMAX REGIOTYP RELAT_AB RETOURTYP_BK_S RT_KEIN_ANREIZ RT_SCHNAEPPCHEN RT_UEBERGROESSE SEMIO_DOM SEMIO_ERL SEMIO_FAM SEMIO_KAEM SEMIO_KRIT SEMIO_KULT SEMIO_LUST SEMIO_MAT SEMIO_PFLICHT SEMIO_RAT SEMIO_REL SEMIO_SOZ SEMIO_TRADV SEMIO_VERT SHOPPER_TYP SOHO_KZ STRUKTURTYP TITEL_KZ UMFELD_ALT UMFELD_JUNG UNGLEICHENN_FLAG VERDICHTUNGSRAUM VERS_TYP VHA VHN VK_DHT4A VK_DISTANZ VK_ZG11 W_KEIT_KIND_HH WOHNDAUER_2008 WOHNLAGE ZABEOTYP ANREDE_KZ ALTERSKATEGORIE_GROB ALTER_HH_Value_0 CAMEO_DEUINTL_2015_Value_0 CAMEO_DEUINTL_2015_Value_1 D19_BANKEN_DATUM_Value_ACTIVITY_WITHIN_MONTHS D19_BANKEN_DATUM_Value_INCREASE D19_BANKEN_OFFLINE_DATUM_Value_ACTIVITY_WITHIN_MONTHS D19_BANKEN_OFFLINE_DATUM_Value_INCREASE D19_BANKEN_ONLINE_DATUM_Value_ACTIVITY_WITHIN_MONTHS D19_BANKEN_ONLINE_DATUM_Value_INCREASE D19_GESAMT_DATUM_Value_ACTIVITY_WITHIN_MONTHS D19_GESAMT_DATUM_Value_INCREASE D19_GESAMT_OFFLINE_DATUM_Value_ACTIVITY_WITHIN_MONTHS D19_GESAMT_OFFLINE_DATUM_Value_INCREASE D19_GESAMT_ONLINE_DATUM_Value_ACTIVITY_WITHIN_MONTHS D19_GESAMT_ONLINE_DATUM_Value_INCREASE D19_TELKO_DATUM_Value_ACTIVITY_WITHIN_MONTHS D19_TELKO_DATUM_Value_INCREASE D19_TELKO_OFFLINE_DATUM_Value_ACTIVITY_WITHIN_MONTHS D19_TELKO_OFFLINE_DATUM_Value_INCREASE D19_TELKO_ONLINE_DATUM_Value_ACTIVITY_WITHIN_MONTHS D19_TELKO_ONLINE_DATUM_Value_INCREASE D19_VERSAND_DATUM_Value_ACTIVITY_WITHIN_MONTHS D19_VERSAND_DATUM_Value_INCREASE D19_VERSAND_OFFLINE_DATUM_Value_ACTIVITY_WITHIN_MONTHS D19_VERSAND_OFFLINE_DATUM_Value_INCREASE D19_VERSAND_ONLINE_DATUM_Value_ACTIVITY_WITHIN_MONTHS D19_VERSAND_ONLINE_DATUM_Value_INCREASE LP_FAMILIE_FEIN_Value_CHILD LP_FAMILIE_FEIN_Value_FAMILY LP_FAMILIE_FEIN_Value_GENERATIONAL LP_FAMILIE_GROB_Value_FAMILY LP_LEBENSPHASE_FEIN_Value_AGE LP_LEBENSPHASE_FEIN_Value_INCOME LP_LEBENSPHASE_FEIN_Value_OTHER LP_LEBENSPHASE_GROB_Value_AGE LP_LEBENSPHASE_GROB_Value_INCOME LP_STATUS_FEIN_Value_INCOME LP_STATUS_FEIN_Value_OTHER LP_STATUS_GROB_Value_INCOME PRAEGENDE_JUGENDJAHRE_Value_0 PRAEGENDE_JUGENDJAHRE_Value_2 PRAEGENDE_JUGENDJAHRE_Value_3 EINGEFUEGT_AM_Day EINGEFUEGT_AM_DayOfYear EINGEFUEGT_AM_DayOfWeek EINGEFUEGT_AM_DaysInMonth EINGEFUEGT_AM_IsMonthStart EINGEFUEGT_AM_IsMonthEnd EINGEFUEGT_AM_IsQuarterStart EINGEFUEGT_AM_IsQuarterEnd EINGEFUEGT_AM_IsYearStart EINGEFUEGT_AM_IsYearEnd EINGEFUEGT_AM_Season _isMissingUnknown_1 _isMissingUnknown_2 _isMissingUnknown_3 _isMissingUnknown_4 _isMissingUnknown_5 _isMissingUnknown_6 _isMissingUnknown_7 _isMissingUnknown_8 _isMissingUnknown_9 _isMissingUnknown_10 _isMissingUnknown_11 _isMissingUnknown_12 _isMissingUnknown_13 _isMissingUnknown_14 _isMissingUnknown_15 _isMissingUnknown_16 _isMissingUnknown_17 _isMissingUnknown_18 _isMissingUnknown_19 _isMissingUnknown_20 CAMEO_DEU_2015_1A CAMEO_DEU_2015_1B CAMEO_DEU_2015_1C CAMEO_DEU_2015_1D CAMEO_DEU_2015_1E CAMEO_DEU_2015_2A CAMEO_DEU_2015_2B CAMEO_DEU_2015_2C CAMEO_DEU_2015_2D CAMEO_DEU_2015_3A CAMEO_DEU_2015_3B CAMEO_DEU_2015_3C CAMEO_DEU_2015_3D CAMEO_DEU_2015_4A CAMEO_DEU_2015_4B CAMEO_DEU_2015_4C CAMEO_DEU_2015_4D CAMEO_DEU_2015_4E CAMEO_DEU_2015_5A CAMEO_DEU_2015_5B CAMEO_DEU_2015_5C CAMEO_DEU_2015_5D CAMEO_DEU_2015_5E CAMEO_DEU_2015_5F CAMEO_DEU_2015_6A CAMEO_DEU_2015_6B CAMEO_DEU_2015_6C CAMEO_DEU_2015_6D CAMEO_DEU_2015_6E CAMEO_DEU_2015_6F CAMEO_DEU_2015_7A CAMEO_DEU_2015_7B CAMEO_DEU_2015_7C CAMEO_DEU_2015_7D CAMEO_DEU_2015_7E CAMEO_DEU_2015_8A CAMEO_DEU_2015_8B CAMEO_DEU_2015_8C CAMEO_DEU_2015_8D CAMEO_DEU_2015_9A CAMEO_DEU_2015_9B CAMEO_DEU_2015_9C CAMEO_DEU_2015_9D CAMEO_DEU_2015_9E CAMEO_DEU_2015_XX D19_LETZTER_KAUF_BRANCHE_D19_BANKEN_DIREKT D19_LETZTER_KAUF_BRANCHE_D19_BANKEN_GROSS D19_LETZTER_KAUF_BRANCHE_D19_BANKEN_LOKAL D19_LETZTER_KAUF_BRANCHE_D19_BANKEN_REST D19_LETZTER_KAUF_BRANCHE_D19_BEKLEIDUNG_GEH D19_LETZTER_KAUF_BRANCHE_D19_BEKLEIDUNG_REST D19_LETZTER_KAUF_BRANCHE_D19_BILDUNG D19_LETZTER_KAUF_BRANCHE_D19_BIO_OEKO D19_LETZTER_KAUF_BRANCHE_D19_BUCH_CD D19_LETZTER_KAUF_BRANCHE_D19_DIGIT_SERV D19_LETZTER_KAUF_BRANCHE_D19_DROGERIEARTIKEL D19_LETZTER_KAUF_BRANCHE_D19_ENERGIE D19_LETZTER_KAUF_BRANCHE_D19_FREIZEIT D19_LETZTER_KAUF_BRANCHE_D19_GARTEN D19_LETZTER_KAUF_BRANCHE_D19_HANDWERK D19_LETZTER_KAUF_BRANCHE_D19_HAUS_DEKO D19_LETZTER_KAUF_BRANCHE_D19_KINDERARTIKEL D19_LETZTER_KAUF_BRANCHE_D19_KOSMETIK D19_LETZTER_KAUF_BRANCHE_D19_LEBENSMITTEL D19_LETZTER_KAUF_BRANCHE_D19_LOTTO D19_LETZTER_KAUF_BRANCHE_D19_NAHRUNGSERGAENZUNG D19_LETZTER_KAUF_BRANCHE_D19_RATGEBER D19_LETZTER_KAUF_BRANCHE_D19_REISEN D19_LETZTER_KAUF_BRANCHE_D19_SAMMELARTIKEL D19_LETZTER_KAUF_BRANCHE_D19_SCHUHE D19_LETZTER_KAUF_BRANCHE_D19_SONSTIGE D19_LETZTER_KAUF_BRANCHE_D19_TECHNIK D19_LETZTER_KAUF_BRANCHE_D19_TELKO_MOBILE D19_LETZTER_KAUF_BRANCHE_D19_TELKO_REST D19_LETZTER_KAUF_BRANCHE_D19_TIERARTIKEL D19_LETZTER_KAUF_BRANCHE_D19_UNBEKANNT D19_LETZTER_KAUF_BRANCHE_D19_VERSAND_REST D19_LETZTER_KAUF_BRANCHE_D19_VERSICHERUNGEN D19_LETZTER_KAUF_BRANCHE_D19_VOLLSORTIMENT D19_LETZTER_KAUF_BRANCHE_D19_WEIN_FEINKOST PRAEGENDE_JUGENDJAHRE_Value_1_FDJ_-_communist_party_youth_organisation PRAEGENDE_JUGENDJAHRE_Value_1_Generation_Golf PRAEGENDE_JUGENDJAHRE_Value_1_Swords_into_ploughshares PRAEGENDE_JUGENDJAHRE_Value_1_digital_media_kids PRAEGENDE_JUGENDJAHRE_Value_1_ecological_awareness PRAEGENDE_JUGENDJAHRE_Value_1_economic_miracle PRAEGENDE_JUGENDJAHRE_Value_1_family_orientation PRAEGENDE_JUGENDJAHRE_Value_1_generation_68_-_student_protestors PRAEGENDE_JUGENDJAHRE_Value_1_milk_bar_-_Individualisation PRAEGENDE_JUGENDJAHRE_Value_1_opponents_to_the_building_of_the_Wall PRAEGENDE_JUGENDJAHRE_Value_1_peace_movement PRAEGENDE_JUGENDJAHRE_Value_1_reconstruction_years PRAEGENDE_JUGENDJAHRE_Value_1_war_years
feature_infos=[-1:3] [-2:9] [2:18] [5:18] none none [-2:25] [0:353] [0:17] [0:6] [0:24] [-2:9] [-2:7] [-2:9] [-2:6] [-2:5] [-2:5] [-2:5] [-2:5] [-2:5] [-2:5] [-2:5] [0:6] [0:6] [0:7] [0:6] [0:7] [-2:10] [0:7] [0:7] [0:7] [0:7] [0:7] [0:7] [0:7] [0:7] [0:7] [0:7] [0:7] [0:6] [0:6] [-2:10] [0:7] [0:7] [0:7] [-2:9] [1:9] [0:7] [0:7] [-2:7] [0:7] [0:7] [0:7] [0:7] [0:7] [0:7] [-2:5] [0:7] [0:5] [0:5] [0:7] [-2:10] [0:7] [0:7] [0:6] [0:6] [-2:10] [0:7] [0:5] [0:6] [1:10] [1:10] none [-2:10] [0:7] [0:7] [0:7] [-1:3.30078125] [-2:6] [1:56] [1:5] [1:5] [1:5] [1:5] [1:5] [1:5] [1:6] [-2:5] [-2:8] [-2:5] [0:11.300000000000001] [11:50] [1:12] [0:1] [-1:3] [-2:1] [-2:6] [-2:8] [-2:4] [-2:5] [-2:5] [-2:5] [-2:3] [-2:4] [-2:4] [-2:3] [-2:2] [-2:5] [-2:5] [-2:5] [-2:5] [-2:5] [-2:4] [-2:4] [-2:5] [-2:5] [-2:5] [-2:5] [-2:5] [-2:5] [-2:5] [-2:5] [-2:5] [-2:5] [-2:3] [-2:3] [-2:3] [-2:5] [-2:5] [-2:4] [-2:5] [-2:4] [-2:5] [-2:4] [-2:3] [-2:4] [-2:5] [-2:5] [-2:5] [-2:3] [-2:6] [-2:4] [-2:3] [-2:3] [-2:4] [-2:5] [-2:5] [-2:5] [-2:4] [-2:1] [-2:3] [-2:3] [-2:3] [-2:5] [-2:5] [-2:5] [-2:5] [-2:5] [-2:5] [-2:5] [-2:4] [-2:4] [-2:3] [-2:2] [0:2300] [-2:5] [-2:5] [-2:5] [-2:5] [-2:5] [-2:5] [-2:5] [-2:5] [-2:5] [-2:5] [-2:5] [-2:5] [-2:5] [-2:5] [-2:5] [-2:5] [-2:5] [-2:5] [-2:5] [-2:5] [-2:5] [-2:5] [-2:5] [-2:5] [-2:5] [-2:5] [-2:5] [-2:5] [-2:5] [-2:5] [-2:5] [-2:5] [-2:5] [-2:5] [-2:5] [-2:5] [-2:5] [-2:5] [-2:5] [-2:5] [-2:5] [-2:5] [-2:5] [-2:5] [-2:5] [-2:5] [-2:5] [-2:3] [-2:5] [-2:5] [-2:5] [-2:5] [-2:5] [-2:3] [-2:5] [-2:5] [-2:5] [-2:5] [-2:3] [-2:3] [-2:3] [-2:3] [-2:5] [-2:5] [-2:5] [-2:5] [-2:3] [-2:5] [-2:5] [-2:5] [-2:5] [-2:5] [-2:5] [-2:5] [-2:5] [-2:5] [-2:4] [-2:5] [-2:5] [-2:5] [-2:5] [-2:5] [-2:5] [-2:5] [-2:5] [-2:5] [-2:5] [-2:5] [-2:5] [-2:5] [-2:5] [-2:5] [-2:5] [-2:5] [-2:5] [-2:5] [-2:5] [-2:5] [-2:5] [-2:5] [-2:5] [-2:5] [-2:5] [-2:5] [-2:5] [-2:6] [-2:4] [1:9] [-2:7] [-2:1] [-1:3.099609375] [-2:6] [-2:6] [-1:3] [-2:5] [-2:9] [-2:2] [-2:4] [-2:4] [-2:3] [-2:2] [-2:5] [-2:7] [-2:5] [-2:5] [-2:5] [-2:5] [-2:5] [1:7] [1:7] [1:7] [1:7] [1:7] [1:7] [1:7] [1:7] [1:7] [1:7] [1:7] [1:7] [1:7] [1:7] [-1:3] [-2:1] [-2:3] [-2:5] [-2:5] [-2:5] [-2:1] [0:45] [-1:2] [-2:5] [-2:4] [1:11] [1:13] [1:11] [-2:6] [-2:9] [-2:8] [1:6] [1:2] [1:9] [0:10.1015625] [-2:5] [-2:5] [0:5] [0:5] [0:5] [0:5] [0:5] [0:5] [0:5] [0:5] [0:5] [0:5] [0:5] [0:5] [0:5] [0:5] [0:5] [0:5] [0:5] none [0:5] [0:5] [0:5] [0:5] [0:5] [0:5] [-2:3] [-2:8] [-2:3] [-2:4] [-2:5] [-2:7] none [-2:3] [-2:4] [-2:7] [-2:8] [-2:2] [-1:6] [-1:2] [-1:3] [1:31] [2:365] [-2:6] [28:31] [0:1] none none none none none [0:3] [-2.2083146064174635:14.259193305521343] [-5.9007107396731966:6.1135041603235534] [-6.3144945203165612:6.0770542173820825] [-2.616796517584147:8.1530105039188836] [-3.0540729225044014:7.3736377913611442] [-1.5481024585681533:5.7935991918011727] [-1.8367647932651929:3.5991429413803937] [-3.1529604240351721:3.0947390738493477] [-0.93000990082538249:0.9713992095496804] [-0.98049511908664311:1.7887197137894397] [-1.6232912618877773:1.7401795814018106] [-1.5320520748853079:2.4835398028808431] [-1.2020469363457102:1.1916233369037497] [-0.90516040822178256:3.9969032047591613] [-1.4306446823096799:1.4613847047569262] [-0.95433020651213563:1.8634039434443368] [-2.2282674429409637:2.8486835363082426] [-1.2829023721743935:1.2229279825376977] [-1.4705490182854528:1.9169812592173574] [-1.2002262351081203:1.7305862506292544] [0:1] none none [0:1] none [0:1] [0:1] [0:1] [0:1] none none [0:1] [0:1] [0:1] [0:1] [0:1] [0:1] none [0:1] [0:1] [0:1] [0:1] none none none [0:1] [0:1] none [0:1] [0:1] [0:1] [0:1] none none [0:1] [0:1] [0:1] [0:1] [0:1] [0:1] [0:1] [0:1] [0:1] none none [0:1] [0:1] none none [0:1] [0:1] none none [0:1] none [0:1] [0:1] [0:1] none none [0:1] none none [0:1] none [0:1] none none [0:1] [0:1] [0:1] [0:1] [0:1] [0:1] none [0:1] [0:1] [0:1] [0:1] none none [0:1] none [0:1] [0:1] [0:1] [0:1] [0:1] [0:1] [0:1] [0:1] [0:1] [0:1]
tree_sizes=3621 4333 3792 3403 3547 3877 3548 3965 3892 3805 3571 3872 3727 3726 3905 3728 4671 3560 3888 3730 3807

Tree=0
num_leaves=46
num_cat=0
split_feature=56 56 195 358 42 380 197 276 14 165 45 292 46 295 251 158 79 40 399 90 24 289 92 290 77 390 300 79 326 325 325 142 387 146 195 355 164 33 326 92 49 361 33 33 208
split_gain=225413 186276 75599.6 20251.7 22283.4 21698.5 15628.9 13446.5 13257.7 14182.9 12765.9 12287.6 16556.4 16394 11121.6 11002.5 10150.8 9601.83 7820.88 6865.03 4459.63 4333.34 5370.48 3869.89 3382.63 6228.08 11667.7 3697.9 3327.5 7125.95 5062.07 3288.76 3268.06 3492.09 9144.85 3426.4 2089.11 4423.07 1071.98 962.537 892.956 951.865 612.794 502.873 477.876
threshold=1.5000000000000002 1.0000000180025095e-35 1.5000000000000002 1.0000000180025095e-35 6.5000000000000009 -2.1246210875485896 2.5000000000000004 3.5000000000000004 2.5000000000000004 3.5000000000000004 4.5000000000000009 1.5000000000000002 2.5000000000000004 2.5000000000000004 2.5000000000000004 1.5000000000000002 23.500000000000004 4.5000000000000009 -0.030555010539126567 2.4500000000000006 4.5000000000000009 4.5000000000000009 7.5000000000000009 1.5000000000000002 1.7500000000000002 0.36378897304785479 3.5000000000000004 53.500000000000007 1.5000000000000002 1.5000000000000002 1.5000000000000002 2.5000000000000004 -0.23144385953220423 2.5000000000000004 2.5000000000000004 2.0000000000000004 466.50000000000006 4.5000000000000009 2.5000000000000004 4.5000000000000009 6.5000000000000009 2.0000000000000004 5.5000000000000009 5.5000000000000009 2.5000000000000004
decision_type=2 2 2 2 2 2 2 2 2 2 2 2 2 2 2 2 8 2 2 2 2 2 8 2 2 2 2 8 2 2 2 2 2 2 2 2 8 2 2 8 2 2 2 2 2
left_child=1 2 15 7 5 6 18 10 9 11 19 12 -4 -13 -8 21 -7 -10 -5 -2 24 22 28 -22 25 27 -27 31 30 -30 -1 32 -3 42 -35 -36 37 -29 -31 -26 43 -42 -34 -38 -41
right_child=3 20 8 4 -6 16 14 -9 17 -11 -12 13 -14 -15 -16 -17 -18 -19 -20 -21 23 -23 -24 -25 39 26 -28 36 29 38 -32 -33 33 34 35 -37 40 -39 -40 44 41 -43 -44 -45 -46
leaf_value=-4.3404202053499574 -4.3700551157244902 -4.349567568122894 -4.3535473483319471 -4.3455074869443449 -4.3499655600711975 -4.3619915061241024 -4.360530097289308 -4.388936178082659 -4.3889439875438603 -4.3889412092033266 -4.3889326616528725 -4.3889347281004296 -4.3889420490332265 -4.3442529817091362 -4.3889427086058577 -4.3753703204925678 -4.3889448917052531 -4.3607629723588701 -4.3736723046198396 -4.3429041066395522 -4.3379046664876597 -4.3401919012442614 -4.3707835657565823 -4.3526632429649732 -4.3366830435818606 -4.3728259721276244 -4.3390967863327221 -4.3348051542250534 -4.3693759725396681 -4.3525597917224488 -4.351113432732336 -4.350335858766968 -4.3318606517474976 -4.359339717436904 -4.3330771314705583 -4.3442062759273643 -4.3310966697895799 -4.3506718938524775 -4.3460359752391549 -4.3340526325686763 -4.3394853108800149 -4.3333381394449013 -4.3361717241592403 -4.3341380442177746 -4.3307905503128152
leaf_count=863 365 371 484 485 572 417 569 533 2868 1121 390 463 1374 629 1670 570 5819 385 489 677 389 578 386 571 370 455 440 534 694 1021 1752 391 386 527 391 564 628 400 721 370 374 389 377 463 513
internal_value=0 59.8415 40.5589 23.6742 18.1725 13.8509 28.1914 41.4834 20.3414 28.2766 47.9687 34.6284 20.1075 48.1423 13.5286 51.6349 3.00293 6.35798 45.9402 54.1257 69.1729 53.0939 51.1583 59.2121 69.8168 68.5466 55.4431 69.4996 52.2407 46.9267 55.9208 66.0987 67.2001 68.3654 63.682 68.1262 71.8432 66.6715 51.5857 73.901 73.3192 70.1922 72.8905 74.6757 75.0653
internal_count=34798 22812 13909 11986 10021 9449 3213 1965 7324 4071 1432 2950 1858 1092 2239 6585 6236 3253 974 1042 8903 6015 5437 960 7943 6690 895 5795 5051 2436 2615 3007 2616 2245 1482 955 2788 934 1742 1253 1854 763 763 1091 883
shrinkage=1


Tree=1
num_leaves=54
num_cat=0
split_feature=46 96 46 67 77 306 220 137 390 371 86 296 383 301 189 136 265 352 390 55 120 321 397 353 177 386 140 380 364 164 76 164 392 326 111 398 297 239 245 263 11 79 311 164 164 315 108 289 79 75 237 292 326
split_gain=104497 57585.8 48671.2 20923 18214.6 17972.2 20490.6 17582.3 16335.8 15887.5 13753.7 13493.3 13281.2 12757.8 13292.5 11653.3 10632.5 9590.93 6499.1 7513.82 15666.6 9565.95 6367 17839.6 6329.63 6802.44 5874.88 7210.65 5409.5 5405.95 5338.45 6391.81 4925 4575 3840.61 3320.04 3192.16 3081.31 2454.21 2330.13 2228.85 4443.43 3070.63 2286.71 3603.9 3148.82 2199.94 1363.68 1033.89 956.188 845.239 773.896 879.105
threshold=2.5000000000000004 2.5000000000000004 1.5000000000000002 4.5000000000000009 1.3500976562500002 5.5000000000000009 2.5000000000000004 3.5000000000000004 0.25084413587414484 1.5000000000000002 5.5000000000000009 6.5000000000000009 -1.8947009482943478 2.5000000000000004 2.5000000000000004 3.5000000000000004 2.5000000000000004 1.0000000180025095e-35 -0.24025421614931636 5.5000000000000009 3.5000000000000004 5.5000000000000009 0.10243296125916355 1.0000000180025095e-35 2.5000000000000004 0.31911481713288004 2.5000000000000004 12.276650289683806 3.5000000000000004 668.50000000000011 2.5000000000000004 543.50000000000011 -0.026579549028240973 1.5000000000000002 3.5000000000000004 0.0085974272036903835 6.5000000000000009 3.5000000000000004 3.5000000000000004 3.5000000000000004 2.5000000000000004 45.500000000000007 2.5000000000000004 576.50000000000011 392.50000000000006 1.5000000000000002 1.0000000180025095e-35 3.5000000000000004 47.500000000000007 3.5000000000000004 2.5000000000000004 1.5000000000000002 2.5000000000000004
decision_type=2 2 2 2 2 2 2 2 2 2 2 2 2 2 2 2 2 2 2 2 2 2 2 2 2 2 2 2 2 10 2 8 2 2 2 2 2 2 2 2 2 8 2 8 10 2 2 2 8 2 2 2 2
left_child=2 7 8 4 11 6 10 24 13 -7 -6 28 -4 14 -1 -10 -15 40 34 20 21 -20 -18 -24 26 -26 27 -2 -3 -22 36 -32 -30 47 38 -5 37 46 48 -16 41 -14 -43 44 50 -46 -21 -29 -19 -45 -42 52 -35
right_child=1 3 12 35 5 9 -8 -9 15 -11 -12 -13 17 16 39 -17 22 18 19 30 29 -23 23 -25 25 -27 -28 33 32 -31 31 -33 -34 51 -36 -37 -38 -39 -40 -41 43 42 -44 49 45 -47 -48 -49 -50 -51 -52 -53 -54
leaf_value=0.037570890107932013 0.014630574827863596 -0.00076009338392669262 0.015031135519041323 0.026514804175959805 0.041111576335425622 0.043344186086661372 -0.00075890968510602128 -0.00075245606517183308 -0.00075712385227002122 -0.00075005333033980324 -0.00075102222632132101 0.031510707996976979 0.036183023692995912 0.014101210668339526 -0.00075496108186316204 0.031779664145481952 0.04998940432101974 0.047372179165514276 0.046645414211391456 0.05226829150822572 -0.00075308170598273577 0.024234743397888669 -0.00075152867842875545 0.043883130859178464 -0.00074842811953817513 0.033491209163005013 0.04767270824992445 0.03956990638075486 0.027465808334295183 0.027082764588771582 0.042310934597685083 0.015633029293270997 -0.00075096531728674216 0.03173587214118883 0.038905588499344522 0.044270978526069864 0.035345689666422278 0.038680232292628805 0.041662287592947732 0.017726295246746591 0.052884184529002246 0.03963195850482755 0.051977675981833484 0.053886896183620366 0.031387366009140015 0.046562030423470083 0.044978086398680436 0.045985523507021245 0.053091773773292578 0.04968870468751823 0.047455058064258704 0.026684387029081703 0.037168072939229232
leaf_count=456 471 3908 445 388 424 640 2041 564 1156 447 490 421 590 492 772 405 437 370 688 506 583 669 507 548 389 365 536 2697 365 365 368 423 486 1367 560 370 419 492 384 365 368 377 438 619 405 404 726 399 487 535 367 380 924
internal_value=0 39.4551 58.3001 25.8309 21.3712 31.473 18.8847 48.7815 40.7914 48.5845 40.2982 9.86665 61.6141 46.1381 29.236 17.9032 53.1157 62.0666 58.4393 55.2075 46.8681 54.5603 57.1572 47.1716 50.0938 30.3185 51.3164 49.3424 4.11883 19.064 59.1834 45.471 21.0814 50.4803 64.0869 51.3104 61.7223 63.4013 66.4902 8.95551 65.861 61.3857 65.367 67.3309 63.8879 55.7422 65.6238 54.1713 68.5385 69.9356 67.904 44.4032 45.5385
internal_count=34798 18072 16726 9980 9222 4042 2955 8092 5138 1087 914 5180 11588 3577 1593 1561 1984 11143 7040 5239 2305 1357 1492 1055 7528 754 6774 6238 4759 948 2934 791 851 5767 1801 758 2143 1724 1241 1137 4103 1405 815 2698 1544 809 1232 3096 857 1154 735 2671 2291
shrinkage=0.000751977


Tree=2
num_leaves=47
num_cat=0
split_feature=56 56 195 358 42 380 197 14 165 161 276 281 45 198 79 350 158 40 130 232 164 19 289 24 6 92 299 270 49 171 349 243 327 326 325 325 271 390 326 77 392 123 164 13 164 381
split_gain=189221 149175 65056.9 18171.3 20115.6 20222 13961.8 12344.8 13046.6 12200.3 11995.8 11446.8 11154.1 10287.3 9574.57 9522.52 9433.22 8978.92 6792.67 5901.94 4063.42 3858.09 5753.85 3415.25 4501.87 2803.9 4367.8 3990.99 2438.72 3031.02 9403.22 2279.82 1874.54 1862.4 5946.45 5161.71 1766.91 1730.23 1437.72 1241.32 3189.61 1419.75 2465.69 1220.76 681.332 492.506
threshold=1.5000000000000002 1.0000000180025095e-35 1.5000000000000002 1.0000000180025095e-35 6.5000000000000009 -2.1246210875485896 2.5000000000000004 2.5000000000000004 3.5000000000000004 3.5000000000000004 3.5000000000000004 1.5000000000000002 4.5000000000000009 2.5000000000000004 23.500000000000004 1.0000000180025095e-35 1.5000000000000002 4.5000000000000009 3.5000000000000004 2.5000000000000004 528.50000000000011 4.5000000000000009 3.5000000000000004 4.5000000000000009 12.500000000000002 4.5000000000000009 4.5000000000000009 3.5000000000000004 5.5000000000000009 3.5000000000000004 1.0000000180025095e-35 3.5000000000000004 7.3515625000000009 1.5000000000000002 1.5000000000000002 1.5000000000000002 2.5000000000000004 -0.43350597999460022 2.5000000000000004 1.3500976562500002 0.25941974245587923 2.5000000000000004 576.50000000000011 5.5000000000000009 648.50000000000011 0.40388319518091192
decision_type=2 2 2 2 2 2 2 2 2 2 2 2 2 2 8 2 2 2 2 2 8 2 2 2 2 8 2 2 2 2 2 2 10 2 2 2 2 2 2 2 2 2 10 2 8 2
left_child=1 2 16 10 5 6 18 8 9 13 12 -8 19 37 -7 20 21 -9 -5 -2 -15 -1 33 25 -25 26 -3 31 39 32 -31 36 43 34 -23 -35 -28 -4 -37 40 41 -27 -43 44 -30 -41
right_child=3 23 7 4 -6 14 11 17 -10 -11 -12 -13 -14 15 -16 -17 -18 -19 -20 -21 -22 22 -24 24 -26 28 27 -29 29 30 -32 -33 -34 35 -36 38 -38 -39 -40 45 -42 42 -44 -45 -46 -47
leaf_value=0.024873139923389503 0.043001178340715616 0.033652438198541065 0.017399670543558732 0.039442972990778272 0.035614475253095128 0.024768765702936287 0.027794407540328938 -0.00075971470458584018 -0.00075693209964990159 -0.00075479632964759965 -0.00075205499208051436 -0.00075868295905710944 -0.00074844013164409413 0.026788785808646565 -0.00076063223761825061 0.041191938755884998 0.012330378008729466 0.025821860027914811 0.013874267383767467 0.022229823845076439 -0.00074820679736385806 0.043838056488552449 0.046503452190153005 0.04460119299175009 0.025837847984968149 0.051473596033593243 0.044670821860218521 0.034013727134679171 0.047174492887769308 0.015797691101688521 0.046211022986686598 0.039491711447604723 0.0408998075412179 0.018918682521080605 0.032513752033029253 0.032170195720228563 0.050718460949466311 -0.00075017595547028075 0.039631868839632538 0.051848458220402016 0.037924749255140874 0.040921723065689343 0.049638480172215782 0.044954840156631905 0.051396509873582089 0.048808559525709574
leaf_count=611 553 521 365 496 572 417 513 2868 1121 738 533 1726 390 365 5819 679 570 385 478 489 374 861 475 591 369 485 638 405 380 387 371 389 406 639 1763 983 547 429 683 642 377 522 525 540 423 385
internal_value=0 54.926 38.0964 22.6146 17.4545 13.3544 26.7791 19.5655 27.0061 32.8491 38.9214 13.0349 44.7071 38.3131 2.91536 45.2774 47.8797 6.18348 42.877 50.0868 22.8826 49.1562 50.2216 62.7968 54.4276 63.3306 59.7781 61.487 64.4303 61.5644 53.1683 63.0953 63.436 47.8776 50.5559 43.9093 64.6511 12.2842 47.7914 65.9845 64.208 65.4427 62.6825 64.7537 66.551 67.9654
internal_count=34798 22812 13909 11986 10021 9449 3213 7324 4071 2950 1965 2239 1432 2212 6236 1418 6585 3253 974 1042 739 6015 5404 8903 960 7943 2500 1979 5443 2507 758 1574 1749 4929 2624 2305 1185 794 1666 2936 1909 1532 1047 1343 803 1027
shrinkage=0.000751977


Tree=3
num_leaves=42
num_cat=0
split_feature=56 56 8 358 42 380 76 86 55 197 276 281 323 164 79 475 36 399 164 229 370 327 398 15 14 394 325 92 142 305 303 98 273 236 232 137 399 31 307 323 299
split_gain=172035 132792 59013.4 17114.9 18962.9 19559.2 14735.3 16153.1 17116.8 13116.8 11272.6 11026 11017 10377 9319.1 8912.72 8413.59 6443.33 3255.47 3151.17 5883.54 2910.92 7745.73 2833.5 8688.99 2708.85 1926.89 1817.98 3748.69 2266.7 2327.83 1422.03 1400.94 1465.38 2131.92 1595.47 2484 2234.98 1113.05 1104.6 515.24
threshold=1.5000000000000002 1.0000000180025095e-35 1.0000000180025095e-35 1.0000000180025095e-35 6.5000000000000009 -2.1246210875485896 5.5000000000000009 2.5000000000000004 5.5000000000000009 2.5000000000000004 3.5000000000000004 1.5000000000000002 2.5000000000000004 452.50000000000006 23.500000000000004 1.0000000180025095e-35 1.5000000000000002 -0.030555010539126567 976.50000000000011 4.5000000000000009 42.500000000000007 7.3515625000000009 0.011466677712249922 4.5000000000000009 3.5000000000000004 -0.0033367747830080614 1.5000000000000002 4.5000000000000009 1.5000000000000002 2.5000000000000004 2.5000000000000004 1.5000000000000002 1.5000000000000002 3.5000000000000004 3.5000000000000004 3.5000000000000004 -0.015876555198512606 1.0000000180025095e-35 2.5000000000000004 2.5000000000000004 6.5000000000000009
decision_type=2 2 8 2 2 2 2 2 2 2 2 2 2 8 8 2 2 2 10 2 10 10 2 2 2 2 2 8 2 2 2 2 2 2 2 2 2 2 2 2 2
left_child=1 2 6 10 5 9 7 8 13 17 12 -11 -2 -1 -7 -14 18 -5 -9 21 -21 27 31 24 -4 26 -25 28 29 38 -31 -23 -29 34 35 37 -37 39 -3 -34 -41
right_child=3 19 23 4 -6 14 -8 16 -10 11 -12 -13 15 -15 -16 -17 -18 -19 -20 20 -22 22 -24 25 -26 -27 -28 32 -30 30 -32 -33 33 -35 -36 36 -38 -39 -40 40 -42
leaf_value=-0.00074853816858220471 -0.0007497143828447538 0.048847957197983669 0.035036717537242024 0.038090249812353281 0.034374962723568561 0.024160193038661348 0.033618827404751833 -0.00076041328451508872 -0.00075672280736002523 0.027031645880489508 -0.00075204093718147646 -0.00075867354545635767 0.041876904744890787 0.037224417971241278 -0.00076062436354420245 0.014064462946332981 0.026011573357690734 0.013522580655834832 0.016630374790844359 0.043441612194611318 0.022996689560287508 0.040474388459581873 0.028635627024432387 0.037901847955105615 -0.00074965903065115486 0.041765716826499807 0.032736839551550038 0.048979860804611759 0.032277085680148539 0.044265647715739952 0.032703127677071411 0.046861958894374889 0.043461262648356196 0.048589589826728383 0.03796285266661753 0.045336304015983257 0.033407915268170524 0.040208650246170152 0.04309655522270648 0.049482958443513698 0.046394703758708446
leaf_count=381 386 391 459 485 572 417 634 4172 1008 513 533 1726 580 715 5819 466 366 489 376 501 411 517 696 1459 379 633 3327 695 423 395 401 580 383 602 434 370 368 465 372 486 413
internal_value=0 52.7186 37.0162 22.2229 17.2174 13.2129 20.3217 15.8295 30.3477 26.2357 37.7941 12.9 43.231 42.2726 2.90683 48.5446 6.03653 41.5183 1.69331 59.9316 52.0648 60.4322 55.7268 46.5949 35.6961 47.7069 46.0754 61.2548 58.2397 59.8395 54.108 59.6358 62.1997 61.2145 60.0277 60.8545 55.6396 62.088 62.7028 63.3781 64.5174
internal_count=34798 22812 13909 11986 10021 9449 7652 7018 2104 3213 1965 2239 1432 1096 6236 1046 4914 974 4548 8903 912 7991 1793 6257 838 5419 4786 6198 1982 1559 796 1097 4216 3521 2919 2485 738 1747 763 1282 899
shrinkage=0.000751977


Tree=4
num_leaves=44
num_cat=0
split_feature=56 56 195 358 42 380 197 14 165 161 281 276 323 181 79 40 158 388 90 49 19 289 24 6 222 44 213 99 229 370 122 384 326 325 325 123 54 90 300 10 326 33 98
split_gain=156949 118770 55981.8 16141.2 17904.1 18928.7 12342.5 11538.8 12112.2 11157.6 10629.8 10613.5 10292.7 9387.72 9076.03 8495.32 8112.27 7832.61 6869.03 6151.56 3215.95 4818.65 2847.55 3804.83 2415.58 7039.22 2999.6 5327.8 1793.99 1681.02 2723.14 1669.03 1585.64 4949.59 4642.84 1526.7 2729.11 1685.41 2127.78 1309.34 1240.69 965.454 920.115
threshold=1.5000000000000002 1.0000000180025095e-35 1.5000000000000002 1.0000000180025095e-35 6.5000000000000009 -2.1246210875485896 2.5000000000000004 2.5000000000000004 3.5000000000000004 3.5000000000000004 1.5000000000000002 3.5000000000000004 2.5000000000000004 3.5000000000000004 23.500000000000004 4.5000000000000009 1.5000000000000002 0.32139980918997452 2.4500000000000006 1.0000000180025095e-35 4.5000000000000009 3.5000000000000004 4.5000000000000009 12.500000000000002 3.5000000000000004 2.5000000000000004 3.5000000000000004 2.5000000000000004 4.5000000000000009 228.50000000000003 4.5000000000000009 0.10094232882940067 1.5000000000000002 1.5000000000000002 1.5000000000000002 3.5000000000000004 1.5000000000000002 1.8500000000000003 2.5000000000000004 2.5000000000000004 2.5000000000000004 4.5000000000000009 1.5000000000000002
decision_type=2 2 2 2 2 2 2 2 2 2 2 2 2 2 8 2 2 2 2 2 2 2 2 2 2 2 2 2 2 10 2 2 2 2 2 2 2 2 2 10 2 2 2
left_child=1 2 16 11 5 6 19 8 9 13 -8 12 -2 17 -7 -9 20 -4 -14 -5 -1 32 24 -24 28 26 27 -26 29 30 35 -15 33 -22 -34 36 37 38 -3 41 -36 -39 -37
right_child=3 22 7 4 -6 14 10 15 -10 -11 -12 -13 18 31 -16 -17 -18 -19 -20 -21 21 -23 23 -25 25 -27 -28 -29 -30 -31 -32 -33 34 -35 40 42 -38 39 -40 -41 -42 -43 -44
leaf_value=0.023645653235755928 -0.00074969783105028665 0.044046432836229645 0.016913578177265208 0.036849275397232893 0.033219726183882962 0.023580909941331017 0.026309869583108113 -0.00075980771410137985 -0.00075704545512875871 -0.00075488286173523884 -0.00075866413643018782 -0.00075202686194387504 0.014813110438797307 0.016792247275645964 -0.00076061649238500862 0.024595834200286774 0.011940537532045921 0.038318370530267411 0.039601760884527201 0.013167881948712845 0.040433208553701326 0.042793451636772707 0.040794192645070046 0.024138089308715249 0.022674307641436076 0.024743363221822082 0.045367804077097555 0.04158846315408854 0.039145068743451458 0.047491160781274029 0.035272127895109612 -0.00075076270856034655 0.017865019767817705 0.03046435242365313 0.030153719690126497 0.043015653824799507 0.035460181934263327 0.046913226169621965 0.035824349412501372 0.040982436490220764 0.036858124069942787 0.043393711424638777 0.047301994359727498
leaf_count=611 386 413 711 501 572 417 513 2868 1121 738 1726 533 425 365 5819 385 570 704 621 473 861 475 591 369 389 506 591 604 629 387 417 432 639 1763 983 410 497 676 602 550 683 712 560
internal_value=0 50.6847 35.9966 21.8447 16.9869 13.0744 25.7144 18.9538 25.9625 31.3872 12.768 36.7305 41.8496 36.3842 2.89835 6.069 44.659 42.7989 46.814 40.2441 45.7809 46.7101 57.3207 49.9885 57.7853 54.2091 56.3704 50.8989 58.6454 59.0762 58.3805 11.8603 44.6262 47.0072 41.0768 58.8476 57.6528 58.4273 54.2753 59.73 44.619 60.7879 61.4769
internal_count=34798 22812 13909 11986 10021 9449 3213 7324 4071 2950 2239 1965 1432 2212 6236 3253 6585 1415 1046 974 6015 5404 8903 960 7943 2090 1584 993 5853 5224 4837 797 4929 2624 2305 4420 3450 2953 1015 1938 1666 1388 970
shrinkage=0.000751977


Tree=5
num_leaves=48
num_cat=0
split_feature=56 56 195 397 397 197 156 77 14 165 213 164 77 198 118 298 40 390 158 350 164 19 289 24 6 388 383 393 77 390 182 79 51 43 156 183 326 325 325 394 163 326 49 96 318 233 355
split_gain=143638 106698 51960.5 15285.3 16301 14546.7 11099 11524 11095.9 11603.3 9871.63 12556 10273.9 9814.7 15426.1 9812.59 8251.14 8154.3 7491.47 7268.33 2931.04 2930.48 4312.59 2516.98 3435.64 2502.12 2226.99 2076.15 2044.27 3439.74 8587.74 1897.06 2462.82 1958.16 1443.48 3543.16 1435.47 4452.69 4276.86 1287.57 1140.21 1122.02 768.662 1088.22 976.941 569.222 317.158
threshold=1.5000000000000002 1.0000000180025095e-35 1.5000000000000002 -0.16840696617223341 0.10302041297860394 2.5000000000000004 3.5000000000000004 1.8500976562500002 2.5000000000000004 3.5000000000000004 2.5000000000000004 531.50000000000011 1.1499023437500002 2.5000000000000004 2.5000000000000004 1.5000000000000002 4.5000000000000009 -0.053502592127286502 1.5000000000000002 1.0000000180025095e-35 1018.5000000000001 4.5000000000000009 3.5000000000000004 4.5000000000000009 12.500000000000002 0.66878547025443524 -0.43540458202849508 0.031735146850161843 1.7500000000000002 0.36378897304785479 2.5000000000000004 53.500000000000007 2.5000000000000004 5.5000000000000009 2.5000000000000004 3.5000000000000004 1.5000000000000002 1.5000000000000002 1.5000000000000002 -0.05834526527336991 1.0000000180025095e-35 2.5000000000000004 3.5000000000000004 3.5000000000000004 6.5000000000000009 1.5000000000000002 3.5000000000000004
decision_type=2 2 2 2 2 2 2 2 2 2 2 10 2 2 2 2 2 2 2 2 10 2 2 2 2 2 2 2 2 2 2 8 2 2 2 2 2 2 2 2 2 2 2 2 10 2 2
left_child=1 2 18 20 15 6 7 25 9 13 11 -7 -13 27 -15 -5 -10 -17 21 -16 -2 -1 36 26 -25 -6 -3 -4 29 31 -31 32 33 34 -28 40 37 -23 -38 -33 -36 -40 44 -44 -41 -30 -47
right_child=3 23 8 4 5 10 -8 -9 16 -11 -12 12 -14 14 19 17 -18 -19 -20 -21 -22 22 -24 24 -26 -27 28 -29 45 30 -32 39 -34 -35 35 -37 38 -39 41 42 -42 -43 43 -45 -46 46 -48
leaf_value=0.023090767666188755 -0.0007598291144326366 0.033244793719533275 -0.00075507025012897552 -0.00074958346528626401 -0.00075795780834229736 -0.00075795593554232703 0.036990717903167811 0.03199371009467436 -0.00075979915517696949 -0.00075703495261157151 -0.00076012035283196068 -0.00075186674887473166 0.033877553705917829 -0.00075507937564091721 0.018151884036052821 0.040596234683147617 0.023996386732866734 0.018072979069787321 0.011793623465019002 0.039358452805751502 0.016218599438660452 0.038847646973387953 0.041021414094868598 0.039181091625954012 0.023560949531686901 0.016529030147764485 0.043540068097715899 0.016497405941475696 0.041272039303588547 0.040068542849510051 0.01325512966378257 0.039477568524995454 0.031626256630602693 0.033734636900603639 0.043309583346097066 0.029164538783067444 0.017544040484291919 0.029553518492805467 0.029260780100119697 0.045266940085603079 0.037438990065088752 0.03553520135478732 0.043730649969210451 0.038444372734643753 0.041149733287389773 0.045482718307751503 0.043250412080034134
leaf_count=611 2432 374 712 398 1141 1258 460 423 2868 1121 2953 503 567 685 629 494 385 622 570 559 367 861 475 591 369 368 715 365 368 417 433 722 432 424 441 426 639 1763 983 623 427 683 391 508 422 374 446
internal_value=0 48.8044 35.0324 21.4795 25.1613 19.6098 31.5779 20.8406 18.6764 25.4517 10.8762 21.1927 34.3144 30.6485 37.0545 40.7113 6.03722 45.444 43.192 44.4947 3.18057 44.2412 45.1087 54.9313 48.1602 6.28448 55.3579 8.91418 55.6017 54.7045 45.8249 55.3388 53.1555 54.1015 55.0832 52.4498 43.1618 45.3861 39.8314 56.8683 55.0131 43.1553 57.753 55.3904 58.9361 58.4469 59.2927
internal_count=34798 22812 13909 11986 9187 7673 2392 1932 7324 4071 5281 2328 1070 2950 1873 1514 3253 1116 6585 1188 2799 6015 5404 8903 960 1509 7943 1077 7569 6381 850 5531 2865 2433 2009 1294 4929 2624 2305 2666 868 1666 1944 899 1045 1188 820
shrinkage=0.000751977


Tree=6
num_leaves=44
num_cat=0
split_feature=56 56 195 397 397 1 132 291 366 161 399 181 394 96 298 172 295 158 299 370 390 19 289 229 370 287 327 397 75 316 370 92 259 44 287 211 40 315 129 387 113 350 92
split_gain=131852 96244.2 48330 14711.5 15284.8 11028.8 13769.1 13970 11184.9 10735 14301.6 13382.2 10388.6 10198.4 9206.29 7546.9 7496.93 6935.24 3848.09 3168.08 2903.15 2678.47 3876.13 2427.54 4844.72 2126.89 2064.15 7568.85 9224.36 1470.52 3060.6 3258 6815.56 2291.69 1452.21 1710.68 1265.1 2908.58 1040.68 741.919 570.282 324.697 235.266
threshold=1.5000000000000002 1.0000000180025095e-35 1.5000000000000002 -0.16840696617223341 0.10302041297860394 1.5000000000000002 3.5000000000000004 3.5000000000000004 1.5000000000000002 2.5000000000000004 0.0030811569046651226 3.5000000000000004 -0.05834526527336991 3.5000000000000004 1.5000000000000002 2.5000000000000004 4.5000000000000009 1.5000000000000002 5.5000000000000009 141.50000000000003 -0.76571119523866915 4.5000000000000009 3.5000000000000004 4.5000000000000009 42.500000000000007 5.5000000000000009 7.3515625000000009 0.10730932401213818 5.5000000000000009 1.0000000180025095e-35 54.500000000000007 4.5000000000000009 2.5000000000000004 5.5000000000000009 2.5000000000000004 1.5000000000000002 1.5000000000000002 1.5000000000000002 1.5000000000000002 -0.17016243554261229 1.5000000000000002 1.5000000000000002 5.5000000000000009
decision_type=2 2 2 2 2 2 2 2 2 2 2 2 2 2 2 2 2 2 2 8 2 2 2 2 10 2 10 2 2 2 8 10 2 2 2 2 2 2 2 2 2 2 10
left_child=1 2 17 20 14 6 8 -8 13 11 19 12 -4 -6 -5 -14 -16 21 -7 -11 -2 -1 -23 26 -25 -9 29 28 -28 34 31 32 -31 36 35 -3 37 -33 -29 -36 -41 -38 -42
right_child=3 23 9 4 5 18 7 25 -10 10 -12 -13 15 -15 16 -17 -18 -19 -20 -21 -22 22 -24 24 -26 -27 27 38 -30 30 -32 33 -34 -35 39 -37 41 -39 -40 40 42 -43 -44
leaf_value=0.022561411890191861 0.016079681404231636 0.032074461472631828 -0.00075252923353760076 -0.00074956715393894289 0.030741205333204815 0.035655254261035808 0.034373291107368115 -0.00075586368814547708 -0.00076072212259146218 -0.000760468531875225 0.026017804677071914 -0.00075683154160367696 0.038642578463186431 -0.00075525719820171454 0.037640175003363655 0.01693433693858876 0.013078028939205953 0.011650226617015117 0.01512664313227154 0.016418999677153857 -0.00075984651755399836 0.031426263709029706 0.039392473433886882 0.038386650095916117 0.020766968654938087 0.01626624221772122 0.033208047425791844 0.037068252826256365 -0.00075265952493179858 0.013163544808581711 0.042495167142058386 0.028804040888910361 0.036408948134845895 0.032002865045330141 0.038980905832201894 0.040697085805553888 0.040071581049650827 0.040520090796927512 0.042099080989251546 0.04031113781480903 0.041928896779822991 0.042813548684831566 0.043684663624031082
leaf_count=611 368 368 509 398 444 366 556 781 4018 3674 656 970 476 737 641 673 475 570 406 366 2431 4929 475 501 411 365 422 553 389 398 676 388 613 445 377 366 374 388 429 416 422 373 594
internal_value=0 47.0608 34.119 21.126 24.6807 19.3135 15.313 30.0827 7.3585 18.4069 10.1351 28.2865 35.9146 24.8927 39.4854 41.8362 43.9258 41.8195 38.842 1.96025 3.1707 42.8029 43.6148 52.7362 46.2193 8.28849 53.1469 49.4074 34.521 53.7946 52.3557 50.3111 43.1566 52.1957 55.205 50.8782 53.4408 49.8559 53.4306 56.1223 56.7006 55.537 57.403
internal_count=34798 22812 13909 11986 9187 7673 6901 1702 5199 7324 4696 2628 1658 1181 1514 1149 1116 6585 772 4040 2799 6015 5404 8903 912 1146 7991 1793 811 6198 3655 2979 1011 1968 2543 734 1523 776 982 1809 1432 747 1016
shrinkage=0.000751977


Tree=7
num_leaves=49
num_cat=0
split_feature=56 56 195 397 397 197 14 165 161 156 77 213 164 77 298 398 35 198 118 390 158 382 19 289 388 229 370 268 327 397 65 222 388 280 381 119 31 137 183 326 325 325 125 15 326 243 164 318
split_gain=121365 87137.9 45042.5 14168.9 14354.3 13433.9 10411.2 10843.9 9908.65 9769.72 10602.3 9457.69 11744.9 9362.06 8655.45 8262.31 7860.15 7289.3 10648.1 7135.99 6435.27 2866.06 2455.2 3497.4 2407.56 2167.07 4413.61 2087.36 1838.36 6834.18 4263.49 1371.43 3428.14 2400.54 4352.47 1388.58 2573.74 1878.47 1304.6 1265.38 3902.04 3831.59 1142.47 1038.48 988.049 733.225 680.807 543.668
threshold=1.5000000000000002 1.0000000180025095e-35 1.5000000000000002 -0.16840696617223341 0.10302041297860394 2.5000000000000004 2.5000000000000004 3.5000000000000004 3.5000000000000004 3.5000000000000004 1.8500976562500002 2.5000000000000004 531.50000000000011 1.1499023437500002 1.5000000000000002 -0.033793580983287476 4.5000000000000009 2.5000000000000004 2.5000000000000004 -0.053502592127286502 1.5000000000000002 -0.35564104512234479 4.5000000000000009 3.5000000000000004 0.66878547025443524 4.5000000000000009 42.500000000000007 2.5000000000000004 7.3515625000000009 0.10730932401213818 2.5000000000000004 3.5000000000000004 0.62148907400805709 5.5000000000000009 0.32857452501341916 2.5000000000000004 5.5000000000000009 3.5000000000000004 3.5000000000000004 1.5000000000000002 1.5000000000000002 1.5000000000000002 2.5000000000000004 1.5000000000000002 2.5000000000000004 2.5000000000000004 590.50000000000011 4.5000000000000009
decision_type=2 2 2 2 2 2 2 2 2 2 2 2 10 2 2 2 2 2 2 2 2 2 2 2 2 2 10 2 10 2 2 2 2 2 2 2 2 2 2 2 2 2 2 2 2 2 10 10
left_child=1 2 20 21 14 9 7 8 15 10 24 12 -7 -14 -5 -4 -8 -17 -19 -16 22 -2 -1 39 -6 28 -27 -20 31 30 -30 35 33 34 -33 36 37 38 46 40 -24 -41 45 -31 -43 -37 -3 -47
right_child=3 25 6 4 5 11 16 -9 -10 -11 -12 -13 13 -15 19 17 -18 18 27 -21 -22 -23 23 -25 -26 26 -28 -29 29 43 -32 32 -34 -35 -36 42 -38 -39 -40 41 -42 44 -44 -45 -46 47 -48 -49
leaf_value=0.02205585489263619 -0.00075985901315725587 0.038712922734278891 -0.00075229515806645743 -0.00074955083376523955 -0.00075805108696592235 -0.00075804932287353607 -0.00075998372755925101 -0.00075713430620693765 -0.00075512780004158438 0.034702087735362361 0.030328161903748506 -0.00076018988308422368 -0.00075197218767270805 0.03203264293629942 0.03770793681000003 0.010472319887548855 0.023002303379760645 -0.00074969473402626975 0.039541530651556842 0.017202465714487882 0.011510220264022715 0.015897430495957175 0.036239916640176027 0.037889860699154294 0.016006276949061638 0.036959097822302604 0.020338007379488966 0.02794377038212283 0.012149501444334529 0.034254178397922913 0.031943819615308074 0.023243533437087741 0.025473052239076543 0.040695005736124057 0.038134831706062904 0.038851733719051249 0.030456909457818419 0.034365321516836911 0.035908590356902019 0.016693012606572352 0.027811579440051047 0.027543228824383564 0.036100243935894782 0.039930025394741664 0.033253047117002138 0.042238483568656442 0.04199556450509314 0.039685298663001044
leaf_count=611 2429 507 458 398 1141 1258 2839 1121 738 460 423 2953 503 567 494 632 414 374 381 622 570 370 861 475 368 501 411 367 439 378 372 440 370 454 387 650 450 647 495 639 1763 983 386 604 683 577 371 464
internal_value=0 45.4394 33.2529 20.7842 24.2185 19.0263 18.1452 24.5518 29.4086 30.2318 20.2039 10.6553 20.5394 32.8137 38.3323 33.8464 5.94133 37.5469 42.8802 42.5071 40.5329 3.1609 41.4566 42.2182 6.18216 50.7124 44.6558 48.016 51.0921 47.6245 33.6355 51.6908 48.9704 50.4885 45.6119 52.3598 50.6173 51.5901 52.9291 40.5069 42.5278 37.4689 53.6777 51.3539 40.5009 54.2639 54.2314 55.1757
internal_count=34798 22812 13909 11986 9187 7673 7324 4071 2950 2392 1932 5281 2328 1070 1514 2212 3253 1754 1122 1116 6585 2799 6015 5404 1509 8903 912 748 7991 1793 811 6198 1651 1281 827 4547 2470 2020 1373 4929 2624 2305 2077 982 1666 1691 878 1041
shrinkage=0.000751977


Tree=8
num_leaves=48
num_cat=0
split_feature=56 56 195 397 397 197 161 14 165 213 164 387 79 6 150 390 398 172 350 96 92 363 64 232 11 382 229 14 327 397 75 382 92 142 222 90 292 296 146 201 390 15 295 355 231 97 13
split_gain=112001 79173.5 42057 13655.1 13500.7 12836.5 10098.1 9735.36 10750.5 9235.74 11285.5 9175.14 9831.1 8453.69 8187.26 8008.16 7835.95 7642.78 6243.86 7238.74 4966.09 6674.04 4893.85 3603.59 2851.48 2531.87 1943.12 2892.86 1644.53 6192.38 8441.77 1540.37 1263.49 2771.31 1642.44 1046.19 2128.44 4345.39 1184.18 952.262 929.823 928.101 845.529 618.712 415.447 778.674 352.314
threshold=1.5000000000000002 1.0000000180025095e-35 1.5000000000000002 -0.16840696617223341 0.10302041297860394 2.5000000000000004 3.5000000000000004 2.5000000000000004 3.5000000000000004 2.5000000000000004 531.50000000000011 -0.15044424209489052 55.500000000000007 8.5000000000000018 1.0000000180025095e-35 -0.053502592127286502 -0.033793580983287476 1.0000000180025095e-35 1.0000000180025095e-35 4.5000000000000009 7.5000000000000009 2.5000000000000004 1.5000000000000002 2.5000000000000004 1.5000000000000002 -0.53083337153591781 4.5000000000000009 2.5000000000000004 7.3515625000000009 0.10730932401213818 5.5000000000000009 -0.73494209988603487 4.5000000000000009 1.5000000000000002 3.5000000000000004 4.7500000000000009 2.5000000000000004 3.5000000000000004 3.5000000000000004 2.5000000000000004 -0.37983917819943308 1.5000000000000002 1.5000000000000002 2.0000000000000004 1.5000000000000002 5.5000000000000009 5.5000000000000009
decision_type=2 2 2 2 2 2 2 2 2 2 10 2 8 2 2 2 2 2 2 2 8 2 2 2 2 2 2 2 10 2 2 2 8 2 2 2 2 2 2 2 2 2 2 2 2 2 2
left_child=1 2 20 24 13 11 7 8 16 10 -7 -6 22 -5 -12 -15 -4 -9 19 -18 25 -22 -13 -20 -2 -1 28 -28 32 30 -30 -14 33 34 39 36 38 -38 42 -3 -40 -31 -34 -27 45 46 -44
right_child=3 26 6 4 5 9 -8 17 -10 -11 14 12 31 15 -16 -17 18 -19 23 -21 21 -23 -24 -25 -26 43 27 -29 29 41 -32 -33 35 -35 -36 -37 37 -39 40 -41 -42 -43 44 -45 -46 -47 -48
leaf_value=0.037236408793475805 0.015821319638642604 0.03392509626139828 -0.00075227996325749017 -0.00075058193498042235 -0.00075484926224288185 -0.00075803896964332911 -0.00075901541589230717 0.024086170547756528 -0.00075587658868532797 -0.00076018116704008182 -0.00075179815148698444 0.03565057722298854 -0.0007523972917834375 0.037237487116404872 0.030505257998510595 0.016058540099663871 0.028184799554849111 -0.00075937715705972166 0.037511272143857806 -0.00075456283155339273 0.027081450290764905 -0.00075429725652881861 0.014656441010489579 0.021359101415243813 -0.00075989484355180013 0.030016026211491534 0.035621816673865478 0.023429699804466055 0.031296076764125401 0.033113251421904112 -0.00075308757047355473 0.015434956965149583 0.035293450009950773 0.026666623602911884 0.031145648208656056 0.039841504151914793 0.03641439850058055 0.020039506342962379 0.037109012642836066 0.038651407971084711 0.031146576560550081 0.038389431347754133 0.039854928015444706 0.024834962621140516 0.04017190349456462 0.035183184039906723 0.037449210557309494
leaf_count=383 373 411 458 387 648 1258 1863 375 869 2953 453 563 437 445 617 682 367 2005 370 606 443 462 379 411 2426 4891 483 429 422 378 389 365 415 423 433 599 417 365 370 715 365 604 470 406 422 394 399
internal_value=0 43.9277 32.43 20.4535 23.7736 18.7475 17.8908 21.8482 28.1779 10.5637 20.216 29.5475 34.3417 37.2455 32.0104 41.323 32.9929 8.06431 36.5024 22.3494 39.3237 25.5508 42.0806 43.9226 3.15114 40.5919 48.8406 43.1962 49.1928 45.9681 32.7961 10.8622 49.7479 47.4718 48.7064 50.4577 49.761 43.9992 50.5487 50.0397 46.6773 49.435 51.2932 39.4998 51.8583 50.9711 51.9319
internal_count=34798 22812 13909 11986 9187 7673 7324 5461 3081 5281 2328 2392 1744 1514 1070 1127 2212 2380 1754 973 6585 905 942 781 2799 5680 8903 912 7991 1793 811 802 6198 1982 1559 4216 3617 782 2835 1126 735 982 2100 5297 1685 1263 869
shrinkage=0.000751977


Tree=9
num_leaves=47
num_cat=0
split_feature=56 56 8 397 397 197 392 336 161 391 117 156 77 156 396 6 390 122 382 390 216 326 92 290 325 325 24 6 383 90 92 31 183 307 77 390 249 222 395 199 277 148 384 326 96 359
split_gain=103610 72172.6 39012.7 13167.9 12715.7 12275.3 11936.2 9774.64 15193.4 10392.7 8836.33 8770.1 9718.53 8215.34 8028.48 7977 7365.49 7054.78 2993.77 2812.12 2319.52 2308.4 4099.09 3138.28 3077.16 2866.18 1898.91 2624.03 1771.21 1645.15 1597.04 2960.22 1911.93 1607.26 1469.59 2769.79 1596.79 1032.75 1937.87 1144.38 2029.38 649.332 625.042 367.53 291.949 287.673
threshold=1.5000000000000002 1.0000000180025095e-35 1.0000000180025095e-35 -0.16840696617223341 0.10302041297860394 2.5000000000000004 -0.022898251938333777 1.5000000000000002 2.5000000000000004 -0.37747586459019461 4.5000000000000009 3.5000000000000004 1.8500976562500002 2.5000000000000004 0.019130243074669918 8.5000000000000018 -0.053502592127286502 4.5000000000000009 -0.23601808065425059 -0.76571119523866915 2.5000000000000004 1.5000000000000002 7.5000000000000009 3.5000000000000004 1.5000000000000002 1.5000000000000002 4.5000000000000009 12.500000000000002 -0.43540458202849508 4.0500000000000007 4.5000000000000009 5.5000000000000009 3.5000000000000004 2.5000000000000004 1.5498046875000002 0.38503591619275074 3.5000000000000004 2.5000000000000004 0.049431310687740974 3.5000000000000004 3.5000000000000004 1.5000000000000002 0.088430695771017295 2.5000000000000004 2.5000000000000004 1.0000000180025095e-35
decision_type=2 2 8 2 2 2 2 2 2 2 2 2 2 2 2 2 2 2 2 2 2 2 8 2 2 2 2 2 2 2 8 2 2 2 2 2 2 2 2 2 2 2 2 2 2 2
left_child=1 2 6 19 15 11 7 8 9 -1 17 12 20 -9 -8 -5 -17 18 -7 -2 -6 25 23 -23 -25 -4 28 -28 -3 -11 31 32 33 42 35 36 37 44 39 40 -39 -36 -30 -26 -32 -27
right_child=3 26 21 4 5 10 14 13 -10 29 -12 -13 -14 -15 -16 16 -18 -19 -20 -21 -22 22 -24 24 43 45 27 -29 30 -31 34 -33 -34 -35 41 -37 -38 38 -40 -41 -42 -43 -44 -45 -46 -47
leaf_value=0.03380052348084267 0.015628531157222826 0.028716387592141804 0.033900508868611165 -0.0007505654048314736 0.015488204846700399 -0.00076071606915813835 -0.00076042695232556273 -0.00074932863713520793 -0.00075968359602606643 -0.00075336151139028366 0.02522560493075918 0.032689229955758188 0.028637031465909239 0.032545115000098795 0.023128158277051159 0.035893066423171228 0.015798240991639585 0.022630332872038774 0.015386000080702631 -0.00075987488607508322 -0.00075821849609363564 0.035478241250605502 0.011580423734787846 0.015649609248116807 0.026032501288568495 0.026900183148436514 0.033678999653767319 0.020846080562718375 0.038307138754657244 0.0153005446803391 0.038703609682515412 0.023733780864364718 0.030031118201746327 0.031743528218422586 0.036433594629083542 0.026361579259538762 0.032144642672435622 0.036631619440829176 0.028423276419202448 0.038260878476357209 0.029813066676623735 0.038968074567736807 0.034715630267312524 0.029586124018601914 0.036741716925415509 0.030246055542583149
leaf_count=366 368 374 1085 387 365 4039 2954 365 2053 528 471 460 423 653 368 445 682 405 366 2431 1144 368 489 655 981 1667 591 369 417 365 418 379 658 571 681 409 711 571 373 398 587 467 412 647 517 365
internal_value=0 42.5148 31.6473 20.1332 23.3448 18.4769 18.4605 24.7483 17.0392 30.6494 10.4737 28.8933 19.4855 37.5556 5.58042 36.2193 40.0669 5.87423 1.67913 3.14144 6.04523 38.533 35.0751 36.8905 33.9833 40.9057 47.1042 41.6248 47.4464 10.0258 47.6472 45.3089 46.2736 47.7233 48.3803 47.3588 47.8344 48.5252 47.075 48.0194 46.018 50.4107 49.4479 36.8364 50.3126 36.7938
internal_count=34798 22812 13909 11986 9187 7673 7652 4330 3312 1259 5281 2392 1932 1018 3322 1514 1127 4810 4405 2799 1509 6257 3140 2651 2283 3117 8903 960 7943 893 7569 2437 2058 1400 5132 3984 3575 2864 1929 1556 1158 1148 829 1628 935 2032
shrinkage=0.000751977


Tree=10
num_leaves=44
num_cat=0
split_feature=56 56 195 397 298 397 388 289 66 161 14 165 164 1 172 398 198 118 295 158 52 164 19 289 128 229 92 388 33 55 186 86 390 152 386 336 325 49 13 359 287 297 366
split_gain=96062.3 65993.4 36886.4 12706.2 12028.7 11346.5 9816.66 16363.9 11670.5 9562.21 9054.33 9982.68 8813 7361.02 7264.73 7191.74 6230.94 9221.89 6099.81 5460.03 3970.29 2791.71 2045.31 2916.94 1742.16 3235.7 5725.99 1714.33 1629.18 3601.07 2392.55 3450.83 2182.56 1612.64 1128.87 945.224 836.142 646.335 1652.98 596.944 455.702 273.131 175.408
threshold=1.5000000000000002 1.0000000180025095e-35 1.5000000000000002 -0.16840696617223341 1.5000000000000002 0.10302041297860394 -0.25644968712685368 2.5000000000000004 2.5000000000000004 3.5000000000000004 2.5000000000000004 3.5000000000000004 636.50000000000011 1.5000000000000002 1.0000000180025095e-35 -0.033793580983287476 2.5000000000000004 2.5000000000000004 4.5000000000000009 1.5000000000000002 2.5000000000000004 1018.5000000000001 4.5000000000000009 3.5000000000000004 1.5000000000000002 4.5000000000000009 6.5000000000000009 0.29833032705810042 5.5000000000000009 2.5000000000000004 2.5000000000000004 4.5000000000000009 0.30853709134211843 1.5000000000000002 0.38665623640173852 1.5000000000000002 1.5000000000000002 1.0000000180025095e-35 5.5000000000000009 2.5000000000000004 2.5000000000000004 4.5000000000000009 2.5000000000000004
decision_type=2 2 2 2 2 2 2 2 2 2 2 2 10 2 2 2 2 2 2 2 2 10 2 2 2 2 10 2 2 2 2 2 2 2 2 2 2 2 2 2 2 2 2
left_child=1 2 19 21 13 18 8 -8 12 10 11 15 20 -5 -12 -4 -17 -18 -6 22 -7 -2 -1 36 39 28 -27 -19 32 -30 31 -31 34 35 37 42 -24 40 -39 -3 -26 -42 -32
right_child=3 24 9 4 5 6 7 -9 -10 -11 14 -13 -14 -15 -16 16 17 27 -20 -21 -22 -23 23 -25 25 26 -28 -29 29 30 33 -33 -34 -35 -36 -37 -38 38 -40 -41 41 -43 -44
leaf_value=0.020477493303451947 -0.00075988738461472028 0.037492807302372852 -0.00075236504412297704 -0.00076002832176343853 0.033089362885892516 -0.00075360110557290091 0.027606090110093504 -0.00076033998431988554 -0.00075667024005666419 -0.00075905457409668512 0.02308445914970907 -0.00075598498672839291 0.033742424787348471 0.022726957111090962 -0.00075946478102931279 0.010014278030807296 -0.0007502929030431258 0.025859761442364407 0.011940889025050427 0.01087991314376632 0.022370798485555989 0.015525083239795552 0.029796016545515575 0.034351794673996655 0.034386386339235922 0.011495660127580283 0.031993287501581542 0.035957473198134228 0.023035768499891515 0.018262181079647222 0.035630827302907633 0.032078534097394029 0.028931569363342582 0.030961063940656768 0.032388479967374519 0.032641998308871004 0.026778089213640405 0.035692438933446743 0.028712484722994588 0.034283705318320923 0.035587049902795563 0.037271182130422006 0.037456421377432332
leaf_count=611 2432 426 458 2202 641 527 494 2764 761 1863 375 869 590 368 2005 632 374 380 475 570 365 367 1500 475 435 400 450 368 492 387 376 641 565 702 710 449 3429 584 389 409 484 636 368
internal_value=0 41.1915 30.902 19.8233 22.9318 26.6219 21.0959 11.0576 29.5722 17.3994 21.1469 27.0925 35.6703 7.13982 7.91723 31.5637 34.7848 39.4421 38.897 37.1151 17.2988 3.1318 37.9164 38.5766 45.489 44.9476 36.803 43.8901 45.3925 43.5822 44.4678 39.2239 46.4589 46.0225 46.9726 47.4947 37.0735 47.5541 45.5214 48.5628 48.2933 48.8603 48.8358
internal_count=34798 22812 13909 11986 9187 6617 5501 3258 2243 7324 5461 3081 1482 2570 2380 2212 1754 1122 1116 6585 892 2799 6015 5404 8903 8068 850 748 7218 3415 2923 1028 3803 1895 3238 1193 4929 2528 973 835 1555 1120 744
shrinkage=0.000751977


Tree=11
num_leaves=48
num_cat=0
split_feature=56 56 195 397 298 397 388 289 66 161 14 165 164 1 35 81 198 295 350 92 363 164 393 382 326 325 128 34 229 92 325 33 55 186 86 390 139 299 386 336 314 119 222 178 232 359 326
split_gain=89258.6 60513.5 34613.8 12267.5 11522.1 10636.7 9368.5 15790.9 11119.5 9288.77 8676.38 9556.95 8192.77 7157.5 7078.5 6914.09 6905.73 5667.07 5084.83 4257.81 5961.6 3875 2771.35 2170.47 1928.08 2255.01 1571.05 3109.86 2648.49 5107.2 1537.52 1294.21 3177.14 2020.47 3035.87 1588.99 1292.98 1771.86 986.343 910.017 620.501 1178.51 937.833 565.901 252.197 79.6504 76.3371
threshold=1.5000000000000002 1.0000000180025095e-35 1.5000000000000002 -0.16840696617223341 1.5000000000000002 0.10302041297860394 -0.25644968712685368 2.5000000000000004 2.5000000000000004 3.5000000000000004 2.5000000000000004 3.5000000000000004 636.50000000000011 1.5000000000000002 3.5000000000000004 2.5000000000000004 2.5000000000000004 4.5000000000000009 1.0000000180025095e-35 7.5000000000000009 2.5000000000000004 400.50000000000006 -0.089540224186537606 -0.53083337153591781 1.5000000000000002 1.5000000000000002 1.5000000000000002 2.5000000000000004 4.5000000000000009 6.5000000000000009 1.5000000000000002 5.5000000000000009 2.5000000000000004 2.5000000000000004 4.5000000000000009 0.30853709134211843 1.5000000000000002 5.5000000000000009 0.38665623640173852 1.5000000000000002 8.5000000000000018 1.5000000000000002 3.5000000000000004 2.5000000000000004 1.5000000000000002 5.5000000000000009 2.5000000000000004
decision_type=2 2 2 2 2 2 2 2 2 2 2 2 10 2 2 2 2 2 2 8 2 10 2 2 2 2 2 2 2 10 2 2 2 2 2 2 2 2 2 2 10 2 2 2 2 2 2
left_child=1 2 19 22 13 17 8 -8 12 10 11 15 21 -5 -12 -4 -17 -6 -18 23 -21 -7 -2 -1 25 -25 43 28 31 -30 -26 35 -33 34 -34 38 39 -38 40 -35 41 -28 44 -3 -43 -46 -32
right_child=3 26 9 4 5 6 7 -9 -10 -11 14 -13 -14 -15 -16 16 18 -19 -20 20 -22 -23 -24 24 30 -27 27 -29 29 -31 46 32 33 36 -36 -37 37 -39 -40 -41 -42 42 -44 -45 45 -47 -48
leaf_value=0.033923486581080006 0.015421916757093011 0.032981984228881385 -0.00075314194025715982 -0.00076001898848901959 0.032024840388028039 0.021972767277782992 0.026857225860372813 -0.00076033104047947388 -0.00075665780099285439 -0.00075904524003260552 -0.00075946480361757001 -0.0007559734763231393 0.032634750288508735 0.022215094381677968 0.022606428075520154 0.0092328846343155257 0.016795419624456319 0.0117945744472305 0.033710187344760993 0.0249050788795999 -0.00075512454941347373 -0.00075378903808865359 -0.00075990886964544388 0.031769488119112003 0.01845054914074153 0.026074205691537497 0.03036748179144768 0.022177572647552421 0.011811137277312617 0.031325365273965358 0.025352579222184039 0.022853061747867116 0.018391900476336646 0.035863416752853629 0.031362230543121788 0.028767205542737609 0.024716410850985842 0.033231408241979565 0.031416275985778126 0.031582955090976771 0.03616064032294905 0.033837357001924841 0.031576240675957767 0.036117154879169826 0.036088667353291339 0.035031872291146834 0.026932948843006572
leaf_count=383 368 391 435 2202 641 369 494 2764 761 1863 2005 869 590 368 375 695 586 475 496 443 462 523 2431 956 711 1849 489 367 379 428 1048 475 369 586 613 521 369 464 666 374 377 371 472 444 371 377 733
internal_value=0 39.9494 30.1915 19.5226 22.5331 26.0891 20.7565 10.9596 28.9181 17.1657 20.8061 26.5412 34.7284 7.09702 7.86524 30.8218 33.9185 37.784 38.9146 36.1009 23.7732 17.0682 3.12222 37.2188 36.2457 38.3893 43.9825 43.476 43.7171 36.3863 32.671 44.1157 42.5102 43.3345 38.5567 45.0572 44.7573 41.2226 45.4894 46.3592 46.0143 45.335 46.0462 46.8506 46.8384 47.4155 34.6744
internal_count=34798 22812 13909 11986 9187 6617 5501 3258 2243 7324 5461 3081 1482 2570 2380 2212 1777 1116 1082 6585 905 892 2799 5680 5297 2805 8903 8068 7701 807 2492 6894 3250 2775 982 3644 1793 833 3123 960 2457 2080 1591 835 1119 748 1781
shrinkage=0.000751977


Tree=12
num_leaves=46
num_cat=0
split_feature=56 56 195 397 77 7 155 123 161 14 205 205 172 398 198 397 176 158 350 382 11 160 11 396 92 16 326 325 24 6 222 44 213 99 119 110 250 325 31 265 150 182 249 202 135
split_gain=83103.4 55638.7 32528.7 11850.6 10976.1 11008.4 10421.7 10194.5 9027.35 8320.6 9154.64 7724.4 6948.77 6715.4 5944.46 5295.47 10555.9 4959.43 4918.87 4291.83 2738.15 2698.68 2364.01 1847.95 1807.46 2622.31 1734.59 2828.29 1562.49 2228.56 1536.66 4690.22 2018.55 3652.78 1640.35 2598.92 2020.91 1026.07 967.416 685.776 673.351 566.13 427.773 286.67 336.969
threshold=1.5000000000000002 1.0000000180025095e-35 1.5000000000000002 -0.16840696617223341 1.1499023437500002 11.500000000000002 3.5000000000000004 3.5000000000000004 3.5000000000000004 2.5000000000000004 3.5000000000000004 3.5000000000000004 1.0000000180025095e-35 -0.033793580983287476 2.5000000000000004 0.10871693310347856 2.5000000000000004 1.5000000000000002 1.0000000180025095e-35 -0.79144186711681352 1.5000000000000002 3.5000000000000004 3.5000000000000004 0.0095360410503566601 7.5000000000000009 2.5000000000000004 1.5000000000000002 1.5000000000000002 4.5000000000000009 12.500000000000002 3.5000000000000004 2.5000000000000004 3.5000000000000004 2.5000000000000004 2.5000000000000004 3.5000000000000004 3.5000000000000004 1.5000000000000002 2.5000000000000004 2.5000000000000004 1.5000000000000002 1.5000000000000002 2.5000000000000004 3.5000000000000004 1.0000000180025095e-35
decision_type=2 2 2 2 2 8 2 2 2 2 2 2 2 2 2 2 2 2 2 2 2 2 2 2 8 2 2 2 2 2 2 2 2 2 2 2 2 2 2 2 2 2 2 2 2
left_child=1 2 17 20 6 7 21 11 9 10 13 15 -11 -4 -15 22 -17 24 -16 -13 -2 -5 -6 -9 25 -1 27 -27 30 -30 34 32 33 -32 35 36 38 -28 39 -3 41 -36 -41 44 -43
right_child=3 28 8 4 5 -7 -8 23 -10 12 -12 19 -14 14 18 16 -18 -19 -20 -21 -22 -23 -24 -25 -26 26 37 -29 29 -31 31 -33 -34 -35 40 -37 -38 -39 -40 42 -42 43 -44 -45 -46
leaf_value=0.032408014702476125 0.015258133368947104 0.030902043631860863 -0.00075258843550391038 -0.00076061032629819018 0.034855335415689095 -0.00075778986916960026 0.022407492980119587 -0.00075688460871153472 -0.00075903591080081414 0.022262089531659084 -0.00075664415372851972 0.021408189731198599 -0.00075949667024707162 0.0095112066693245692 0.01619619199418583 0.027872118234992214 -0.00075612731703084547 0.01047439394151679 0.032547122902972528 -0.00075592463471492227 -0.00075993738628376086 0.014686217273313651 0.023797979759727833 0.014469650340912741 0.020488818640634222 0.031454084144223508 0.0188409332800865 0.02471709242268285 0.030521590346458287 0.019176443714079311 0.017232229621190632 0.018883432729414219 0.033613788293685248 0.030926148861379978 0.031831199706461609 0.025804549944100592 0.027583510796249305 0.025141021940483364 0.029039526275790584 0.035096647127843397 0.031615051247832614 0.033446260989131948 0.032887494835139551 0.033250582034075819 0.035395691454893748
leaf_count=520 373 485 471 2736 459 949 694 762 1863 375 818 370 2005 667 613 688 715 570 512 659 2426 365 421 369 647 793 665 1688 591 369 389 506 591 604 457 687 654 1702 398 400 670 403 617 561 521
internal_value=0 38.781 29.5134 19.2312 22.1482 26.8843 11.2871 29.5391 16.9384 20.4764 26.0125 32.9718 7.81394 30.1128 33.1207 36.6398 27.6091 35.1409 37.5633 15.0102 3.11269 2.59925 42.667 7.64849 35.8778 36.5624 35.1469 37.3538 42.5741 37.8284 42.8688 40.3966 41.9022 38.0035 43.4599 41.8775 42.8046 31.7711 43.8052 44.4661 44.6812 45.2182 45.2823 45.716 46.2952
internal_count=34798 22812 13909 11986 9187 5392 3795 4443 7324 5461 3081 3312 2380 2263 1792 2283 1403 6585 1125 1029 2799 3101 880 1131 6015 5368 4848 2481 8903 960 7943 2090 1584 993 5853 3241 2554 2367 1900 1502 2612 1942 1017 1485 924
shrinkage=0.000751977


Tree=13
num_leaves=46
num_cat=0
split_feature=56 56 8 397 298 392 394 397 108 289 66 284 350 57 164 396 1 295 77 383 395 326 92 290 77 390 327 79 51 387 137 359 366 397 49 258 164 182 92 289 148 290 364 164 326
split_gain=77522 51285.4 30639.1 11454 10736 10579.7 9577.59 9527.59 7978.87 14969.6 10557.8 7631.92 11751.1 9350.02 7507.72 7366.26 6806.62 5053.43 3930.34 2719.61 2430.41 1689.11 3433 2709.41 1477.07 3741.69 11697.6 1743.35 2849.53 1604.44 1337.97 4203.74 1056.96 1467.75 824.829 1188.6 1133.12 638.244 558.83 461.166 441.175 380.823 688.874 26.9624 8.77132
threshold=1.5000000000000002 1.0000000180025095e-35 1.0000000180025095e-35 -0.16840696617223341 1.5000000000000002 -0.022898251938333777 -0.05834526527336991 0.10302041297860394 1.0000000180025095e-35 2.5000000000000004 2.5000000000000004 1.5000000000000002 3.5000000000000004 5.5000000000000009 636.50000000000011 0.019130243074669918 1.5000000000000002 4.5000000000000009 1.1499023437500002 -0.19490380621378245 0.019927561929124513 1.5000000000000002 7.5000000000000009 3.5000000000000004 1.7500000000000002 0.36378897304785479 8.3515625000000018 53.500000000000007 5.5000000000000009 -0.2394888460325203 3.5000000000000004 5.5000000000000009 2.5000000000000004 0.10730932401213818 6.5000000000000009 3.5000000000000004 584.50000000000011 1.5000000000000002 4.5000000000000009 3.5000000000000004 1.5000000000000002 1.5000000000000002 1.0000000180025095e-35 579.50000000000011 2.5000000000000004
decision_type=2 2 8 2 2 2 2 2 2 2 2 2 2 2 10 2 2 2 2 2 2 2 8 2 2 2 10 8 2 2 2 2 2 2 2 2 8 2 8 2 2 2 2 10 2
left_child=1 2 5 19 16 6 -1 17 10 -10 14 13 -13 20 18 -7 -5 -6 -9 -2 -8 39 23 -23 25 27 -27 28 29 -3 32 -32 33 -31 37 36 -36 -29 -26 -4 -40 -39 -43 -34 -25
right_child=3 24 21 4 7 15 11 8 9 -11 -12 12 -14 -15 -16 -17 -18 -19 -20 -21 -22 22 -24 44 38 26 -28 34 -30 30 31 -33 43 -35 35 -37 -38 41 40 -41 -42 42 -44 -45 -46
leaf_value=-0.00075804700430978644 0.015163684656660407 0.023567626116062668 0.026851020333732538 -0.00076010957520334678 0.030259130257952217 -0.00076068546527826306 0.032618334230281446 0.021510058826140287 0.025889696692260555 -0.00076036809161884661 -0.00075707412135351052 -0.00075904088344716785 0.025803113827115615 -0.00075340642491672971 0.0307357458879494 0.021420097523242383 0.021290638780465609 0.011458684885439809 -0.0007547652186954732 -0.00075994105103022885 0.020046987416425254 0.031846944204941059 0.010760214674132915 0.02282380742667545 0.030160588279689281 0.029095278686359544 -0.00075832953475887452 0.029924047796077009 0.020193903029252974 0.031799222766576367 0.03092842067771593 0.016099045068363994 0.033160791733746586 0.026028159238867019 0.028077359812844992 0.026234217843766023 0.03313186372449875 0.033785951316278734 0.031803431953814756 0.029895406508018564 0.033948089996404189 0.029371195321351556 0.033062250899030199 0.032369201927858068 0.023435769570270808
leaf_count=1071 370 374 2713 2202 641 2954 448 368 482 2698 799 1499 438 469 603 368 368 475 551 2429 405 368 489 1357 403 624 500 416 399 446 365 413 365 589 459 444 366 527 590 404 407 382 465 369 926
internal_value=0 37.6802 28.8654 18.9483 21.7764 17.4036 23.0525 25.1192 20.1126 10.96 27.3334 26.8061 15.8902 34.4335 32.8503 5.38459 6.96741 35.8781 16.2793 3.10321 39.3193 34.5576 31.7307 33.2889 41.2546 40.6247 33.0496 41.1841 39.4234 40.1013 40.6797 36.4287 41.741 39.3878 42.3917 40.394 41.8784 43.2455 43.2911 36.4692 43.9429 43.793 42.6315 43.6378 30.7095
internal_count=34798 22812 13909 11986 9187 7652 4330 6617 5501 3180 2321 3259 1937 1322 1522 3322 2570 1116 919 2799 853 6257 3140 2651 8903 7503 1124 6379 3320 2921 2547 778 1769 1035 3059 1269 825 1790 1400 3117 997 1374 847 734 2283
shrinkage=0.000751977


Tree=14
num_leaves=48
num_cat=0
split_feature=56 56 123 336 144 358 386 123 268 392 254 357 394 243 276 334 323 266 116 164 475 237 386 15 279 326 325 325 77 390 91 222 213 173 79 99 92 31 137 388 287 318 326 175 296 164 164
split_gain=72444.1 47386.8 28863.5 12268.2 11639.1 10773.9 11469.9 10916.7 10369.2 9698.19 8688.42 8670.26 7917.29 7709.74 7362.43 7321.16 6845.77 5376.45 6592.58 5095.51 5014.63 3149.7 2977.36 2205.91 5126.2 1409.37 2318.95 1823.71 1347.02 3438.97 7560.99 1630.01 3168.76 4374.21 1252.7 3334.38 9523.68 951.127 749.535 733.704 672.915 693.381 649.491 460.766 398.474 182.868 46.9204
threshold=1.5000000000000002 1.0000000180025095e-35 2.5000000000000004 4.5000000000000009 1.5000000000000002 1.0000000180025095e-35 0.33745768965706507 3.5000000000000004 1.0000000180025095e-35 -0.025654133929059051 3.5000000000000004 3.5000000000000004 -0.05834526527336991 4.5000000000000009 3.5000000000000004 1.0000000180025095e-35 2.5000000000000004 2.5000000000000004 2.5000000000000004 371.50000000000006 1.0000000180025095e-35 2.5000000000000004 0.33745768965706507 4.5000000000000009 3.5000000000000004 1.5000000000000002 1.5000000000000002 1.5000000000000002 1.7500000000000002 0.36378897304785479 26.000000000000004 3.5000000000000004 3.5000000000000004 2.5000000000000004 38.500000000000007 2.5000000000000004 5.5000000000000009 3.5000000000000004 3.5000000000000004 0.40022506259073121 2.5000000000000004 2.5000000000000004 2.5000000000000004 1.0000000180025095e-35 5.5000000000000009 617.50000000000011 595.50000000000011
decision_type=2 2 2 2 2 2 2 2 2 2 2 2 2 2 2 2 2 2 2 10 2 2 2 2 2 2 2 2 2 2 10 2 2 2 8 2 10 2 2 2 2 8 2 2 2 10 8
left_child=1 2 4 11 12 14 13 8 -8 -5 15 -4 -1 -7 16 17 -2 -10 21 -6 -18 -19 23 24 -14 26 -25 -27 29 31 -31 34 33 -33 35 -3 -37 38 43 -40 -30 -42 -29 -36 45 -45 -39
right_child=5 28 3 9 19 6 7 -9 10 -11 -12 -13 22 -15 -16 -17 20 18 -20 -21 -22 -23 -24 25 -26 27 -28 42 40 30 -32 32 -34 -35 37 36 -38 46 39 -41 41 -43 -44 44 -46 -47 -48
leaf_value=-0.00075357375438224743 -0.00075131645589737478 0.031135666119368442 -0.00076123347678768956 0.029970952550719427 0.02070534583863165 -0.00076112115641855792 -0.00075822815258057134 -0.00075935124378912096 0.031571766295246932 -0.00075436207478656026 -0.00075584571978855059 0.018024456551914918 -0.00075473650314556416 0.021148378946215685 -0.00075358102725928849 -0.00075313907583294496 0.030602928324545774 0.029479011649151416 -0.00075428325264573269 -0.00075817834280105477 0.011702764097780713 0.01251669312323548 0.03193175576993517 0.029605469018112864 0.024339777839808913 0.017030363759691927 0.02415856399464365 0.02283274675679739 0.02944556473919388 0.028548154722109639 0.0082895105373926269 0.028349828202956878 0.03060603749659814 0.015285905383295696 0.029914540480058722 -0.00075926908685258309 0.028033827250076734 0.027839162638031156 0.031024714201367605 0.026532582099418396 0.029750961239074288 0.032944629086259815 0.027043032211795635 0.031850129648557879 0.0306755089140411 0.033228029611350483 0.029139362715568818
leaf_count=454 386 617 3766 375 365 4033 1022 1502 583 579 675 726 370 374 533 466 580 367 562 1049 466 437 502 960 449 722 1840 993 515 564 560 428 654 650 396 393 435 366 399 373 403 482 759 444 433 426 365
internal_value=0 36.6409 28.2455 13.2129 32.2493 18.6739 14.8297 20.341 24.3677 29.72 28.1924 5.84402 33.7347 3.94591 29.4902 31.3972 33.0416 34.0977 25.2588 11.5546 36.3438 32.1491 34.3795 33.3152 24.3313 34.1181 35.835 31.1877 40.0155 39.4222 32.2445 39.9493 37.0574 31.5807 40.6167 38.0193 31.3086 41.3207 41.8476 39.3228 41.9301 42.8009 33.247 42.4879 42.9516 43.5426 37.9645
internal_count=34798 22812 13909 5446 8463 11986 10021 5614 4112 954 3090 4492 7049 4407 1965 2415 1432 1949 1366 1414 1046 804 6595 6093 819 5274 2800 2474 8903 7503 1124 6379 1732 1078 4647 1445 828 3202 2471 772 1400 885 1752 1699 1303 870 731
shrinkage=0.000751977


Tree=15
num_leaves=46
num_cat=0
split_feature=56 56 123 336 396 358 392 268 254 398 40 357 157 16 144 276 45 382 175 49 21 8 92 31 24 290 383 92 299 270 243 326 325 325 326 49 171 10 201 350 218 77 146 79 259
split_gain=67817.3 43884.1 27320.9 11821.7 11674 10276.2 9213.98 8926.04 8721.8 12967.9 11084.7 8477.73 8418.74 7966.12 7775.4 7030.62 6542.85 5524.13 3171.98 2692.59 2799.99 8534.67 2719.37 1822.26 1298.01 1937.07 1386.85 1137.29 2246.34 2098.89 1154.95 1075.04 3460.06 1895.52 1050.4 1030.85 1290.42 857.743 831.912 641.569 514.944 522.351 1379.78 486.008 180.909
threshold=1.5000000000000002 1.0000000180025095e-35 2.5000000000000004 4.5000000000000009 -0.047964915494848846 1.0000000180025095e-35 -0.025654133929059051 1.0000000180025095e-35 1.5000000000000002 -0.030810725230439883 2.5000000000000004 3.5000000000000004 2.5000000000000004 1.5000000000000002 2.5000000000000004 3.5000000000000004 4.5000000000000009 -0.70797030752981804 2.5000000000000004 6.5000000000000009 4.5000000000000009 10.500000000000002 7.5000000000000009 2.5000000000000004 4.5000000000000009 1.5000000000000002 -0.43540458202849508 4.5000000000000009 4.5000000000000009 3.5000000000000004 3.5000000000000004 1.5000000000000002 1.5000000000000002 1.5000000000000002 2.5000000000000004 5.5000000000000009 3.5000000000000004 2.5000000000000004 2.5000000000000004 2.5000000000000004 1.5000000000000002 1.3500976562500002 3.5000000000000004 45.500000000000007 2.5000000000000004
decision_type=2 2 2 2 2 2 2 2 2 2 2 2 2 2 2 2 2 2 2 2 2 8 10 2 2 2 2 8 2 2 2 2 2 2 2 2 2 10 2 2 2 2 2 10 2
left_child=1 2 4 11 -1 15 -5 -7 10 12 13 -4 -10 -9 19 16 18 -15 -2 20 22 -22 -6 -14 26 -26 -3 28 -28 30 38 33 -33 -23 -34 40 37 39 -30 -37 41 42 43 -29 -43
right_child=5 24 3 6 14 7 -8 8 9 -11 -12 -13 23 17 -16 -17 -18 -19 -20 -21 21 31 -24 -25 25 -27 27 35 29 -31 -32 32 34 -35 -36 36 -38 -39 -40 -41 -42 44 -44 -45 -46
leaf_value=-0.00075700853592187446 0.029783767880910823 0.023784231830044956 -0.00076122459721610525 0.029096383236042741 0.03264338955437486 -0.00076040448603987166 -0.00075434833841017234 -0.00075313823669395966 0.025714315580759678 -0.00076103054843933322 -0.00075775738681905982 0.01769993308156502 -0.00075720590306342737 0.031990550986100916 -0.00075354047367052958 -0.00075356682619542468 -0.0007513176762983044 0.014950118466338586 0.016659506814983155 0.012165187706240496 -0.00075454989816735383 0.028288632234909149 0.021338211701580012 0.01390454512973464 0.029186528416492368 0.021119176242313395 0.021626639693139368 0.029427517743567569 0.027294629543576046 0.021753551219704119 0.025042782793527545 0.013165443874294937 0.022078042076185724 0.023451430466332607 0.027267432764097706 0.031277912814094887 0.025515763354861346 0.027078513337855471 0.031072088944678514 0.028251977315323674 0.028324390003435767 0.030659369153277997 0.025029040095786742 0.031647709530238169 0.032048152937309927
leaf_count=781 564 374 3766 375 436 2281 579 488 641 3346 917 726 853 435 502 533 390 693 478 430 548 1039 465 367 389 571 510 697 447 399 379 697 1019 1868 678 546 717 634 702 486 415 375 366 462 434
internal_value=0 35.6583 27.6519 13.076 31.4812 18.4072 29.0629 14.6586 17.6045 11.1591 25.9224 5.81467 22.7763 31.7147 32.4078 28.8438 32.2352 35.8775 35.3913 33.025 33.4576 32.1753 39.5246 7.05746 38.8498 34.7004 39.106 39.2672 37.467 38.4276 39.3413 33.0385 30.498 34.5046 33.0078 39.829 38.3407 39.3092 40.2112 40.362 40.638 40.9528 39.945 40.7555 41.9949
internal_count=34798 22812 13909 5446 8463 11986 954 10021 7740 5207 2533 4492 1861 1616 7682 1965 1432 1128 1042 7180 6750 5849 901 1220 8903 960 7943 7569 2437 1927 1528 5301 2394 2907 1697 5132 2383 1666 1149 1032 2749 2334 1525 1159 809
shrinkage=0.000751977


Tree=16
num_leaves=58
num_cat=0
split_feature=46 96 46 235 298 137 390 117 80 161 136 288 383 304 301 189 265 65 104 213 24 100 293 177 299 140 380 289 172 385 387 478 383 316 370 263 66 233 475 139 74 246 326 325 325 75 249 394 109 14 191 79 326 328 222 304 384
split_gain=28102.4 22369.5 11408.4 9989.99 9267.73 8539.82 8512.98 8175.93 7776 9168.5 7192.71 5808.08 5676.92 5616.44 5404.8 7242.03 4805.54 4766.08 7079.46 6081.09 2963.05 8932.52 2875.7 2538.3 3851.96 3816.44 2922.51 2271.75 2070.71 1822.24 1747.97 1712.65 7512.97 1539.74 2567.17 4632.42 3044.17 6624.2 2427.97 3827.51 1663.04 2217.85 1475.9 1804.98 1734.92 1421.12 1099.61 1523.94 1041.89 906.674 710.219 565.53 538.256 455.563 545.732 412.501 180.728
threshold=2.5000000000000004 2.5000000000000004 1.5000000000000002 3.5000000000000004 2.5000000000000004 3.5000000000000004 0.25084413587414484 1.5000000000000002 1.5000000000000002 2.5000000000000004 3.5000000000000004 1.5000000000000002 -1.8947009482943478 2.5000000000000004 2.5000000000000004 2.5000000000000004 2.5000000000000004 1.0000000180025095e-35 1.0000000180025095e-35 3.5000000000000004 2.5000000000000004 3.5000000000000004 4.5000000000000009 2.5000000000000004 5.5000000000000009 2.5000000000000004 12.276650289683806 4.5000000000000009 2.5000000000000004 -0.31793451238439935 -0.069004413118492716 1.0000000180025095e-35 -0.18682209692261634 1.0000000180025095e-35 54.500000000000007 4.5000000000000009 3.5000000000000004 2.5000000000000004 1.0000000180025095e-35 1.5000000000000002 1.5000000000000002 3.5000000000000004 1.5000000000000002 1.5000000000000002 1.5000000000000002 4.5000000000000009 3.5000000000000004 0.076861510792135171 1.5000000000000002 2.5000000000000004 2.5000000000000004 52.500000000000007 2.5000000000000004 4.5000000000000009 3.5000000000000004 3.5000000000000004 0.086176471143399172
decision_type=2 2 2 2 2 2 2 2 2 2 2 2 2 2 2 2 2 2 2 2 2 2 2 2 2 2 2 2 2 2 2 2 2 2 8 2 2 2 2 2 2 2 2 2 2 2 2 2 2 2 2 8 2 2 2 2 2
left_child=2 5 6 4 8 23 14 -6 9 -3 -8 -5 -4 -9 15 -1 -16 18 -15 -20 31 22 -22 25 -25 26 -2 45 -19 -11 -17 33 51 46 35 36 38 -38 40 -40 41 49 44 -44 -28 -18 48 -48 -14 -35 -36 -33 -45 54 55 -50 -57
right_child=1 3 12 11 7 -7 10 13 -10 29 -12 -13 20 17 16 30 27 28 19 -21 21 -23 -24 24 -26 -27 42 -29 -30 -31 -32 32 -34 34 50 -37 37 -39 39 -41 -42 -43 43 52 -46 -47 47 -49 53 -51 -52 -53 -54 -55 -56 56 -58
leaf_value=0.025044340199446211 0.011128286541488373 0.026840049497384867 0.010204162470438791 0.018256844126541674 -0.00075632484994056894 -0.0007551589403595434 -0.00076003625744529052 -0.00075203243317317693 -0.00076037668595369434 0.013469559102736535 0.021380768430492601 -0.00076084211935820688 0.025207081376701183 -0.00075589802962223345 0.010627039959886541 0.0136309207410095 0.023416562975471955 0.020376676622775616 0.026487530193416414 -0.00075125468532006743 0.016154944572681972 -0.00075816971455062163 0.028209256707113762 -0.00075227858374593277 0.02229346660608144 0.030602169893838158 0.027572696440262525 0.019671186877635239 0.029980602991984556 -0.00075776722009666822 -0.00075803035402186361 0.023292598859430583 -0.00075559405287801962 0.028898281560381961 0.030687892810735432 0.010441774877105868 0.024669021647271593 -0.00075736679542156866 0.025834032397235702 0.010159780926633969 0.030621091014820422 0.018851212373584062 0.015811356821844862 0.021661037070513579 0.02315482180800112 0.030662324816594103 0.019995606602226709 0.028119734007836163 0.029013472949294818 0.023710500768572205 0.027535884236097177 0.028197724837118944 0.025277659761937309 0.027619201760694607 0.027756990737368242 0.030092164242936578 0.031521831531981112
leaf_count=456 471 370 445 401 665 564 1156 403 1789 365 405 2369 406 700 492 366 400 469 608 401 427 472 563 386 368 536 1083 537 490 950 771 370 377 642 444 383 501 403 503 378 495 428 781 1153 2013 555 375 386 546 394 604 366 737 449 452 394 385
internal_value=0 27.1389 35.1114 19.4924 22.5789 31.6309 27.9704 27.5754 13.1125 21.24 13.3959 6.06259 36.272 29.8045 31.0051 21.3772 34.5309 31.3358 23.4337 29.776 36.4833 30.4392 34.1732 32.2684 21.5934 32.8604 31.5806 36.5525 36.6619 6.47842 7.16019 36.9019 32.0149 37.2224 35.9813 34.3818 35.0514 26.8715 36.1911 30.2775 37.6248 35.2898 32.1126 29.2617 33.7488 38.6179 38.4327 34.7706 39.0124 36.941 39.1459 35.38 31.1583 39.4368 39.8462 40.366 41.1312
internal_count=34798 18072 16726 9980 7210 8092 5138 3736 3474 1685 1561 2770 11588 3071 3577 1593 1984 2668 1709 1009 11143 1462 990 7528 754 6774 6238 1492 959 1315 1137 9681 1113 8568 5175 4127 3744 904 2840 881 1959 1464 5767 2671 3096 955 3393 761 2632 1036 1048 736 1890 2226 1777 1325 779
shrinkage=0.000751977


Tree=17
num_leaves=44
num_cat=0
split_feature=56 56 123 396 359 321 397 298 397 388 289 66 150 1 164 196 295 52 90 189 398 164 328 19 289 229 370 77 6 317 79 238 241 112 307 184 146 326 164 350 123 164 326
split_gain=60746.4 38372.1 24848.5 10753.6 10390.4 11752 10205.1 9464.49 8062.23 7593.65 13360.2 9025.64 6215.86 6203.69 5980.15 4181.44 4172.67 3368.89 3081.65 5398 2568 2552.9 2501.9 1581.67 1475.71 1219.89 2940.15 1013.12 2312.38 5215.19 1193.24 1649.87 1317.16 1169.77 2762.44 769.367 641.029 525.18 450.197 441.314 282.834 402.707 192.508
threshold=1.5000000000000002 1.0000000180025095e-35 2.5000000000000004 -0.047964915494848846 4.5000000000000009 5.5000000000000009 -0.16840696617223341 1.5000000000000002 0.10302041297860394 -0.25644968712685368 2.5000000000000004 2.5000000000000004 1.5000000000000002 1.5000000000000002 636.50000000000011 3.5000000000000004 4.5000000000000009 2.5000000000000004 3.4500000000000006 1.5000000000000002 0.23688216114952138 1018.5000000000001 3.5000000000000004 4.5000000000000009 3.5000000000000004 4.5000000000000009 42.500000000000007 1.7500000000000002 13.500000000000002 2.5000000000000004 53.500000000000007 1.5000000000000002 2.5000000000000004 1.5000000000000002 1.5000000000000002 2.5000000000000004 3.5000000000000004 1.5000000000000002 466.50000000000006 2.5000000000000004 3.5000000000000004 767.50000000000011 2.5000000000000004
decision_type=2 2 2 2 2 2 2 2 2 2 2 2 2 2 10 2 2 2 2 2 2 10 2 2 2 2 10 2 2 2 8 2 2 2 2 2 2 2 8 2 2 10 2
left_child=1 2 3 -1 20 -6 21 13 16 11 -11 14 15 -8 17 18 -9 -10 19 23 -4 -2 -7 -5 37 27 -27 28 30 -30 31 35 -33 34 -34 -3 38 -25 -32 -29 41 -40 -39
right_child=6 25 4 12 5 22 7 8 9 10 -12 -13 -14 -15 -16 -17 -18 -19 -20 -21 -22 -23 -24 24 -26 26 -28 39 29 -31 36 32 33 -35 -36 -37 -38 42 40 -41 -42 -43 -44
leaf_value=-0.00075715992877313282 -0.00076016002342680559 0.024938262702097997 -0.00076107211179290914 0.015927404068694129 -0.00075874530173428633 0.012586481902142141 -0.00076041449761554084 0.027439608519455993 -0.0007545179996332063 0.023427095161678225 -0.00076072010064659901 -0.00075726155134247803 -0.00075249895879504303 0.019646447104910272 0.027893767091683556 0.0095542770305121327 0.010848793908228167 0.019761687048781434 0.030063414853935988 -0.00075102750060773802 0.013781888885886828 0.014300509588337538 0.026892796332116525 0.024184835412339682 0.0279589359299026 0.027037238439201611 0.015251788816082142 0.029738959158004355 0.014261942391905666 0.027747115162897306 0.027241714158748331 0.023604698292608403 0.028532897817203581 0.029518161295449732 0.019920701092200562 0.018830374682428631 0.026651396859836713 0.021031981201254223 0.029375130484576982 0.02779837743332738 0.030168772191686132 0.027071479898640376 0.023097529361661203
leaf_count=781 2432 366 3030 476 1134 427 2202 641 527 494 2764 761 433 368 590 606 475 365 499 371 366 367 489 2623 406 501 411 655 682 391 583 566 459 634 523 368 727 1348 624 610 375 428 920
internal_value=0 33.8684 26.5171 30.0583 12.7484 22.21 17.8128 20.3551 23.3455 18.8413 10.2072 25.6882 30.9119 6.67061 30.4048 31.4053 32.7794 15.7142 31.9813 30.9568 2.21562 3.00039 31.4222 31.4621 31.9312 36.7596 32.8429 37.0013 36.4865 31.1315 36.9537 35.4988 36.424 37.3321 34.8356 30.2431 37.9216 31.0336 38.4324 38.6258 38.9214 38.2225 29.2812
internal_count=34798 22812 13909 8463 5446 2050 11986 9187 6617 5501 3258 2243 7682 2570 1482 7249 1116 892 6643 6144 3396 2799 916 5773 5297 8903 912 7991 6726 1073 5653 2916 2182 1616 982 734 2737 4891 2010 1265 1427 1052 2268
shrinkage=0.000751977


Tree=18
num_leaves=48
num_cat=0
split_feature=56 56 195 397 298 161 397 388 289 66 198 144 247 1 394 164 390 164 92 363 390 358 164 83 128 34 380 326 325 316 255 216 30 363 307 100 249 325 309 330 307 398 178 92 17 86 326
split_gain=57131.9 35750.4 23341.6 9889.54 9111 7869.71 7625.9 7286.79 12955.3 8659.8 6974.94 7168.78 9585.45 6053.07 5864.25 5622.23 4073.48 3301.63 3052.66 4900.5 2550.31 2526.52 2237.71 1681.96 1127.56 2332.43 1134.22 1122.86 1447.6 1098.99 1658.61 5238.31 1712.32 1268.95 2031.67 1180.01 1167.43 1079.44 846.641 820.946 558.003 413.258 407.008 297.472 216.62 171.441 56.7987
threshold=1.5000000000000002 1.0000000180025095e-35 1.5000000000000002 -0.16840696617223341 1.5000000000000002 3.5000000000000004 0.10302041297860394 -0.25644968712685368 2.5000000000000004 2.5000000000000004 2.5000000000000004 1.5000000000000002 3.5000000000000004 1.5000000000000002 -0.05834526527336991 636.50000000000011 -0.053502592127286502 400.50000000000006 7.5000000000000009 2.5000000000000004 -0.76571119523866915 4.5000000000000009 693.50000000000011 1.5000000000000002 1.5000000000000002 2.5000000000000004 -1.9110695650322769 1.5000000000000002 1.5000000000000002 1.0000000180025095e-35 2.5000000000000004 3.5000000000000004 2.5000000000000004 4.5000000000000009 2.5000000000000004 2.5000000000000004 3.5000000000000004 1.5000000000000002 1.5000000000000002 1.0000000180025095e-35 2.5000000000000004 0.072219600464237463 2.5000000000000004 4.5000000000000009 1.5000000000000002 3.5000000000000004 2.5000000000000004
decision_type=2 2 2 2 2 2 2 2 2 2 2 2 2 2 2 10 2 10 8 2 2 2 10 2 2 2 2 2 2 2 2 2 2 2 2 2 2 2 2 2 2 2 2 10 2 2 2
left_child=1 2 18 20 13 10 16 9 -9 15 22 14 -13 -5 -12 17 -6 -8 23 -20 -2 -16 -4 -1 42 26 29 28 -25 36 31 32 -31 34 -32 -35 39 -29 -37 41 44 43 -3 -26 -40 -45 -39
right_child=3 24 5 4 6 -7 7 8 -10 -11 11 12 -14 -15 21 -17 -18 -19 19 -21 -22 -23 -24 27 25 -27 -28 37 -30 30 33 -33 -34 35 -36 38 -38 46 40 -41 -42 -43 -44 45 -46 -47 -48
leaf_value=0.028226256966008455 0.014281655426154572 0.02682510003295735 -0.00075942570202162387 -0.00076040496227714849 0.027656059313086317 -0.00075935096919510145 0.019459896791718181 0.022887178430201573 -0.00076071094120800471 -0.00075724895415796149 -0.00075129835045192558 -0.0007602588814706715 0.021191491095951986 0.019263325438934172 0.027506803575179581 0.027136475282769718 0.01385813980212088 -0.00075471689567209216 0.021248505730037507 -0.0007572841585412023 -0.00076019851866127128 0.013300125760327393 0.014093996366266012 0.026072974062838289 0.027286532447202486 0.018305428602764875 0.021873769688611024 0.016124864261955071 0.021902325688891611 0.027161154324683887 0.01976585655279799 0.0089194869466794596 0.019751715846659797 0.023765838826366261 0.026972112883802836 0.024344731285535107 0.024437247183979282 0.021519799092734201 0.028069233002104805 0.024869427502015568 0.026443705592113842 0.026738942772517541 0.029229164803877359 0.028160363225213404 0.029626359847603815 0.029458820085648943 0.022783434834616978
leaf_count=385 368 391 1457 2202 494 1863 369 494 2764 761 402 1656 590 368 622 590 622 523 443 462 2431 367 367 958 412 367 394 713 1853 471 571 405 401 507 414 379 569 1054 456 433 526 478 444 375 394 516 717
internal_value=0 33.0293 25.9941 17.5705 20.0414 15.6316 22.9365 18.571 10.1237 25.1953 18.7162 22.5665 13.1522 6.63316 30.0774 29.7208 31.9891 15.5238 30.3302 20.5736 2.99153 33.4206 4.70335 31.1857 35.7763 35.3874 35.5747 30.3961 31.8796 35.7329 34.7582 31.2437 33.7309 35.6018 32.3557 36.4696 36.7791 27.8561 37.1523 37.3033 37.7224 37.7232 37.9691 38.1815 38.5124 38.6415 29.3866
internal_count=34798 22812 13909 11986 9187 7324 6617 5501 3258 2243 5461 3637 2246 2570 1391 1482 1116 892 6585 905 2799 989 1824 5680 8903 8068 7701 5295 2811 7307 4524 1277 872 3247 985 2262 2783 2484 1755 2214 1376 1781 835 1303 850 891 1771
shrinkage=0.000751977


Tree=19
num_leaves=46
num_cat=0
split_feature=56 56 123 336 396 397 397 197 392 357 213 164 139 144 77 336 45 363 195 196 77 326 325 319 325 326 229 370 277 392 92 221 190 215 33 237 253 101 259 311 177 380 371 326 159
split_gain=53807.8 33368.2 22589.6 10662.8 9934.39 9593.8 11270.3 9231.94 8006.56 7804.7 7566.41 8358.12 6825.64 6627.84 6217.51 6209.52 6362.08 3681.98 3590.31 3398.68 2930.41 1676.63 1808.1 1670.13 1641.51 4013.84 1110.75 2677.55 962.224 2806.99 3899.88 981.806 3008.95 1962.48 828.747 540.769 1119.06 2261.74 612.502 628.746 378.253 354.923 310.239 236.446 200.178
threshold=1.5000000000000002 1.0000000180025095e-35 2.5000000000000004 4.5000000000000009 -0.047964915494848846 -0.11000174607609559 0.10302041297860394 2.5000000000000004 -0.025654133929059051 3.5000000000000004 2.5000000000000004 531.50000000000011 2.5000000000000004 2.5000000000000004 1.1499023437500002 3.5000000000000004 2.5000000000000004 2.5000000000000004 2.5000000000000004 3.5000000000000004 1.1499023437500002 1.5000000000000002 1.5000000000000002 3.5000000000000004 1.5000000000000002 2.5000000000000004 4.5000000000000009 42.500000000000007 3.5000000000000004 0.24850972171862587 4.5000000000000009 3.5000000000000004 2.5000000000000004 2.5000000000000004 4.5000000000000009 1.0000000180025095e-35 3.5000000000000004 3.5000000000000004 2.5000000000000004 2.5000000000000004 2.5000000000000004 14.017125764126908 1.5000000000000002 2.5000000000000004 1.5000000000000002
decision_type=2 2 2 2 2 2 2 2 2 2 2 10 2 2 2 2 2 2 2 2 2 2 2 8 2 2 2 10 2 2 10 2 2 2 2 2 2 2 2 2 2 2 2 2 2
left_child=1 2 4 9 -1 12 18 15 -5 -4 11 -9 -2 19 -13 16 17 -8 -7 20 21 22 -6 -18 25 -23 28 -28 35 31 -31 32 -30 -34 -35 44 38 -38 39 -37 -33 -26 -40 -43 -3
right_child=5 26 3 8 13 6 7 10 -10 -11 -12 14 -14 -15 -16 -17 23 -19 -20 -21 -22 24 -24 -25 41 -27 27 -29 29 30 -32 40 33 34 -36 36 37 -39 42 -41 -42 43 -44 -45 -46
leaf_value=-0.00075728796893735466 -0.00076111766214849756 0.026991800236411036 -0.00076145959657089222 0.026634238352540272 0.025543512908992805 0.011256607666292648 0.018825712020866227 -0.00075884111059157312 -0.00075464617017223371 0.016478873403184643 -0.00076102879294977514 -0.00075364631321400406 0.019934249276685374 -0.00075395258605658641 0.024413652106135848 -0.00075597886683707676 0.028575687542510261 -0.00075726217387839278 0.026964035806925475 0.0097877537024750969 0.027904763836685952 0.020612831275401776 0.021156312372415918 0.018349057592820881 0.01759036505841936 -0.00075677426918276179 0.025626676664134991 0.01461694101631106 0.017645259361318683 0.0090669938068677989 0.023761915633536621 0.027981915175274819 0.020209196057031649 0.027738650603655289 0.024723971165510766 0.027047489883655886 0.026232140984280308 0.0182356754900787 0.028500402269245807 0.023118632244916924 0.025821248210907626 0.020631486750452149 0.026587917169409218 0.023174778569449203 0.028563268052884155
leaf_count=781 2978 378 3766 375 1084 415 366 1258 579 726 2953 503 379 502 567 608 372 657 541 568 676 447 2016 389 377 409 501 411 491 407 708 696 433 692 679 366 592 434 525 376 445 977 390 626 379
internal_value=0 32.2314 25.4916 12.4686 28.7686 17.3348 20.1558 16.027 27.0501 5.5968 9.32235 17.231 5.10324 29.5572 25.9672 24.2044 27.4495 13.4876 32.24 30.0833 30.5755 29.4337 31.1265 34.2322 26.4689 19.0211 34.8451 31.1989 35.0696 34.1648 28.4563 34.9642 33.7444 34.728 35.6491 35.9026 35.2942 32.7023 36.2363 34.2063 36.4635 28.2827 37.1389 29.0338 37.2482
internal_count=34798 22812 13909 5446 8463 11986 8629 7673 954 4492 5281 2328 3357 7682 1070 2392 1784 1023 956 7180 6612 5936 3100 761 2836 856 8903 912 7991 4551 1115 3436 2295 1804 1371 3440 2683 1026 1657 742 1141 1980 915 1603 757
shrinkage=0.000751977


Tree=20
num_leaves=47
num_cat=0
split_feature=56 56 123 336 396 397 298 357 292 77 164 164 144 1 323 123 196 77 390 97 300 391 326 325 325 326 229 370 77 390 327 222 246 213 31 383 137 130 79 98 350 292 388 299 270 326
split_gain=50746.6 31199.5 21496.9 10304.3 9518.5 9311.27 8558.25 7644.73 7453.56 7002.34 13973.3 12946.1 6344.45 5779.04 5019.15 4159.59 3218.2 2726.27 2484.62 1994.06 2727.56 1932.99 1573.18 1688.86 1554.46 3878.08 1031.53 2515.7 888.996 2510.22 8221.23 1080.82 3241.57 1283.75 770.894 2228.69 722.711 1246.23 461.172 566.692 405.154 323.977 252.072 585.68 249.316 217.951
threshold=1.5000000000000002 1.0000000180025095e-35 2.5000000000000004 4.5000000000000009 -0.047964915494848846 -0.16840696617223341 1.5000000000000002 3.5000000000000004 1.5000000000000002 1.1499023437500002 380.50000000000006 475.50000000000006 2.5000000000000004 1.5000000000000002 2.5000000000000004 3.5000000000000004 3.5000000000000004 1.1499023437500002 -0.76571119523866915 4.5000000000000009 3.5000000000000004 0.067459487979774094 1.5000000000000002 1.5000000000000002 1.5000000000000002 2.5000000000000004 4.5000000000000009 42.500000000000007 1.7500000000000002 0.36378897304785479 8.3515625000000018 3.5000000000000004 3.5000000000000004 3.5000000000000004 5.5000000000000009 -0.20960733740196683 3.5000000000000004 3.5000000000000004 38.500000000000007 1.5000000000000002 4.5000000000000009 -1.0000000180025095e-35 0.47177013188529499 5.5000000000000009 1.5000000000000002 2.5000000000000004
decision_type=2 2 2 2 2 2 2 2 2 2 8 8 2 2 2 2 2 2 2 2 2 2 2 2 2 2 2 10 2 2 10 2 2 2 2 2 2 2 8 2 2 2 2 2 2 2
left_child=1 2 4 7 -1 18 13 -4 -5 10 -8 21 16 -7 -13 19 17 22 -2 -16 -21 -11 23 -6 25 -24 28 -28 29 31 -31 34 33 -33 36 -36 38 -38 39 -3 44 45 43 -40 -30 -26
right_child=5 26 3 8 12 6 9 -9 -10 11 -12 14 -14 -15 15 -17 -18 -19 -20 20 -22 -23 24 -25 41 -27 27 -29 40 30 -32 32 -34 -35 35 -37 37 -39 42 -41 -42 -43 -44 -45 -46 -47
leaf_value=-0.00075727547092863513 0.013956607621592102 0.023100080837673041 -0.00076145057416787882 -0.00075502666312235553 0.024909874471909114 -0.00076047766596221264 0.022855492036813953 0.016207303014462153 0.025790696547974192 -0.00075984245777620252 -0.00076119515785634604 0.0087025291340828131 -0.00075393788796390248 0.018534960904694472 0.028991767520823497 0.010481462190393642 0.0096883073965414387 0.027148641825644363 -0.00076021008403443391 0.011241815393594499 0.025797616718031196 0.013135438332681682 0.020192623674898838 0.020716424073554972 0.020212018561815311 -0.00075675762913370395 0.024990398650572957 0.014403260069947922 0.026319007329996816 0.024109756009854936 -0.00076001201558712037 0.022327169866500608 0.013898113466495797 0.026682793093230749 0.026039477017527908 0.017020966724790778 0.026469210051020053 0.021695494097233738 0.024313361602043067 0.026624718803159534 0.025031622751104723 0.017331031835910931 0.027657017669785448 0.027270938174895377 0.027844447806761267 0.022629319955382504
leaf_count=781 368 404 3766 541 1084 2202 560 726 413 1115 2257 603 502 368 447 474 568 676 2431 415 381 365 447 2016 977 409 501 411 457 575 446 725 399 466 394 376 440 584 368 380 377 375 691 478 431 628
internal_value=0 31.4717 25.0083 12.3468 28.1574 17.1053 19.445 5.56982 26.5064 22.187 12.8674 25.9586 28.913 6.52335 30.3849 32.6709 29.4167 29.8875 2.97104 34.8053 29.0965 5.33991 28.7952 30.4151 25.9487 18.746 33.962 30.4864 34.1753 33.711 27.7657 34.1338 31.9184 33.2672 34.659 31.8522 35.0257 32.9594 35.5542 33.7636 35.6386 27.6913 36.0457 35.1986 36.1906 28.3995
internal_count=34798 22812 13909 5446 8463 11986 9187 4492 954 6617 2817 3800 7682 2570 2320 1717 7180 6612 2799 1243 796 1480 5936 3100 2836 856 8903 912 7991 6726 1021 5705 1590 1191 4115 770 3345 1024 2321 784 1265 1980 1537 846 888 1605
shrinkage=0.000751977



feature importances:
D19_SOZIALES=38
ALTERSKATEGORIE_GROB=35
KBA13_ANZAHL_PKW=35
ANREDE_KZ=30
_isMissingUnknown_18=30
_isMissingUnknown_11=22
GFK_URLAUBERTYP=22
EINGEZOGENAM_HH_JAHR=21
RETOURTYP_BK_S=16
EXTSEL992=15
KBA13_HALTER_30=13
CJT_GESAMTTYP=12
_isMissingUnknown_9=11
KBA13_ANTG2=11
KBA05_KRSHERST3=11
EINGEFUEGT_AM_DayOfYear=10
SEMIO_KULT=10
D19_VERSAND_OFFLINE_DATUM_Value_ACTIVITY_WITHIN_MONTHS=10
KBA13_KW_120=10
KBA13_HALTER_40=9
_isMissingUnknown_19=9
KBA13_KRSHERST_FORD_OPEL=9
KBA13_KMH_140=9
ALTERSKATEGORIE_FEIN=8
D19_BANKEN_DIREKT=8
KBA05_ZUL3=8
D19_LOTTO=8
KBA13_AUDI=8
D19_GESAMT_DATUM_Value_ACTIVITY_WITHIN_MONTHS=8
_isMissingUnknown_4=8
_isMissingUnknown_1=8
_isMissingUnknown_13=8
ALTER_HH_Value_0=7
AKT_DAT_KL=7
CJT_TYP_4=7
SEMIO_FAM=7
D19_BILDUNG=7
D19_BUCH_CD=7
KBA05_MOD3=7
KBA13_HALTER_45=7
LP_LEBENSPHASE_FEIN_Value_AGE=7
SEMIO_LUST=7
_isMissingUnknown_3=7
_isMissingUnknown_15=7
_isMissingUnknown_17=7
MOBI_RASTER=6
HH_EINKOMMEN_SCORE=6
GEBURTSJAHR=6
D19_VERSAND_ONLINE_QUOTE_12=6
D19_GESAMT_ANZ_24=6
LP_LEBENSPHASE_FEIN_Value_INCOME=5
LP_STATUS_FEIN_Value_INCOME=5
FINANZTYP=5
RT_KEIN_ANREIZ=5
SHOPPER_TYP=5
RT_UEBERGROESSE=5
KBA13_BJ_2008=5
_isMissingUnknown_7=5
KBA05_SEG10=5
D19_KONSUMTYP_MAX=5
WOHNLAGE=5
KBA05_ZUL1=5
_isMissingUnknown_8=5
ARBEIT=4
CJT_KATALOGNUTZER=4
REGIOTYP=4
KBA05_SEG3=4
KBA13_SEG_KOMPAKTKLASSE=4
D19_HANDWERK=4
KBA13_OPEL=4
D19_KONSUMTYP=4
LP_FAMILIE_GROB_Value_FAMILY=4
D19_VOLLSORTIMENT=4
D19_SONSTIGE=4
KBA13_KW_40=4
ANZ_HH_TITEL=4
_isMissingUnknown_20=4
KBA13_SEG_WOHNMOBILE=3
KBA13_VORB_1=3
KK_KUNDENTYP=3
OST_WEST_KZ=3
SEMIO_KAEM=3
VK_DHT4A=3
CAMEO_DEUG_2015=3
KBA05_MOTRAD=3
LP_FAMILIE_FEIN_Value_FAMILY=3
KBA05_SEG7=3
D19_KINDERARTIKEL=3
SEMIO_MAT=3
PRAEGENDE_JUGENDJAHRE_Value_0=3
KBA13_FAB_SONSTIGE=3
VHA=3
KBA05_ALTER1=3
KBA05_ALTER2=3
_isMissingUnknown_5=3
KBA13_CCM_2000=3
KBA13_HALTER_35=3
KBA05_HERST5=3
KBA05_HERSTTEMP=3
KBA13_CCM_1200=3
KBA05_KW2=3
KBA13_CCM_1800=3
KBA13_VORB_3=3
KBA05_MOD8=3
KBA13_KW_80=3
D19_LETZTER_KAUF_BRANCHE_D19_UNBEKANNT=3
D19_REISEN=2
SEMIO_PFLICHT=2
SEMIO_SOZ=2
D19_RATGEBER=2
UMFELD_ALT=2
VERS_TYP=2
KBA05_SEG5=2
KBA05_KRSHERST2=2
W_KEIT_KIND_HH=2
D19_DIGIT_SERV=2
CJT_TYP_1=2
ANZ_PERSONEN=2
KBA05_MODTEMP=2
CAMEO_DEUINTL_2015_Value_0=2
KBA05_HERST4=2
KBA13_KW_50=2
KBA05_MAXAH=2
KBA13_CCM_0_1400=2
KBA13_SEG_GELAENDEWAGEN=2
KBA13_BJ_2006=2
LP_STATUS_FEIN_Value_OTHER=2
KBA05_MOD2=2
KBA13_TOYOTA=2
EINGEFUEGT_AM_DayOfWeek=2
KBA13_HERST_AUDI_VW=2
_isMissingUnknown_2=2
KBA05_BAUMAX=2
KBA13_CCM_1600=2
KBA13_HALTER_60=2
MOBI_REGIO=2
KBA13_KMH_210=2
KBA05_ALTER3=2
INNENSTADT=2
_isMissingUnknown_12=2
D19_WEIN_FEINKOST=2
_isMissingUnknown_14=2
KBA13_SEG_OBERKLASSE=2
_isMissingUnknown_16=2
D19_DROGERIEARTIKEL=2
KBA13_CCM_1400=2
SEMIO_KRIT=2
D19_VERSAND_ANZ_24=2
KBA13_CCM_3000=2
FINANZ_SPARER=1
GEMEINDETYP=1
KBA13_VORB_1_2=1
KBA05_ALTER4=1
KBA05_ANTG2=1
KKK=1
KONSUMNAEHE=1
KBA05_CCM1=1
KBA05_CCM2=1
ONLINE_AFFINITAET=1
ORTSGR_KLS9=1
KBA05_CCM3=1
PLZ8_ANTG3=1
KBA05_CCM4=1
RELAT_AB=1
KBA05_DIESEL=1
KBA05_HERST1=1
RT_SCHNAEPPCHEN=1
KBA05_KRSAQUOT=1
SEMIO_DOM=1
KBA05_KRSVAN=1
KBA05_KW3=1
KBA05_MAXHERST=1
KBA05_MOD1=1
KBA05_SEG9=1
KBA05_VORB2=1
KBA05_ZUL4=1
SEMIO_REL=1
KBA13_ANTG1=1
SEMIO_TRADV=1
SEMIO_VERT=1
KBA13_ANTG4=1
STRUKTURTYP=1
KBA13_BJ_2009=1
VERDICHTUNGSRAUM=1
KBA13_CCM_1000=1
KBA13_CCM_2500=1
VHN=1
KBA13_FIAT=1
VK_DISTANZ=1
KBA13_FORD=1
KBA13_HALTER_50=1
D19_SCHUHE=1
ANZ_HAUSHALTE_AKTIV=1
KBA13_HERST_FORD_OPEL=1
KBA13_KMH_0_140=1
D19_BANKEN_DATUM_Value_ACTIVITY_WITHIN_MONTHS=1
D19_BANKEN_ONLINE_DATUM_Value_ACTIVITY_WITHIN_MONTHS=1
CJT_TYP_2=1
D19_VERSAND_DATUM_Value_INCREASE=1
KBA13_KMH_180=1
D19_VERSAND_ONLINE_DATUM_Value_ACTIVITY_WITHIN_MONTHS=1
D19_VERSAND_ONLINE_DATUM_Value_INCREASE=1
CJT_TYP_6=1
KBA05_ZUL2=1
KBA13_KMH_251=1
KBA13_KRSHERST_AUDI_VW=1
LP_LEBENSPHASE_GROB_Value_AGE=1
KBA13_KRSHERST_BMW_BENZ=1
D19_BEKLEIDUNG_REST=1
D19_ENERGIE=1
KBA13_KW_30=1
D19_HAUS_DEKO=1
D19_TECHNIK=1
KBA13_KW_61_120=1
KBA13_KW_70=1
D19_VERSAND_ANZ_12=1
KBA13_KW_90=1
_isMissingUnknown_6=1
KBA13_MAZDA=1
KBA13_MOTOR=1
D19_VERSAND_REST=1
KBA13_RENAULT=1
D19_VERSICHERUNGEN=1
KBA13_SEG_KLEINST=1
FINANZ_ANLEGER=1
KBA13_SEG_MINIVANS=1
KBA13_SEG_MINIWAGEN=1
KBA13_SEG_OBEREMITTELKLASSE=1
KBA13_HALTER_65=1
KBA13_SEG_SONSTIGE=1
KBA13_SEG_VAN=1
FINANZ_HAUSBAUER=1
D19_LETZTER_KAUF_BRANCHE_D19_VOLLSORTIMENT=1

pandas_categorical:[]
