tree
version=v2
num_class=1
num_tree_per_iteration=1
label_index=0
max_feature_idx=492
objective=binary sigmoid:1
feature_names=AGER_TYP AKT_DAT_KL ALTER_KIND1 ALTER_KIND2 ALTER_KIND3 ALTER_KIND4 ALTERSKATEGORIE_FEIN ANZ_HAUSHALTE_AKTIV ANZ_HH_TITEL ANZ_KINDER ANZ_PERSONEN ARBEIT BALLRAUM CAMEO_DEUG_2015 CJT_GESAMTTYP CJT_KATALOGNUTZER CJT_TYP_1 CJT_TYP_2 CJT_TYP_3 CJT_TYP_4 CJT_TYP_5 CJT_TYP_6 D19_BANKEN_ANZ_12 D19_BANKEN_ANZ_24 D19_BANKEN_DIREKT D19_BANKEN_GROSS D19_BANKEN_LOKAL D19_BANKEN_ONLINE_QUOTE_12 D19_BANKEN_REST D19_BEKLEIDUNG_GEH D19_BEKLEIDUNG_REST D19_BILDUNG D19_BIO_OEKO D19_BUCH_CD D19_DIGIT_SERV D19_DROGERIEARTIKEL D19_ENERGIE D19_FREIZEIT D19_GARTEN D19_GESAMT_ANZ_12 D19_GESAMT_ANZ_24 D19_GESAMT_ONLINE_QUOTE_12 D19_HANDWERK D19_HAUS_DEKO D19_KINDERARTIKEL D19_KONSUMTYP D19_KONSUMTYP_MAX D19_KOSMETIK D19_LEBENSMITTEL D19_LOTTO D19_NAHRUNGSERGAENZUNG D19_RATGEBER D19_REISEN D19_SAMMELARTIKEL D19_SCHUHE D19_SONSTIGE D19_SOZIALES D19_TECHNIK D19_TELKO_ANZ_12 D19_TELKO_ANZ_24 D19_TELKO_MOBILE D19_TELKO_ONLINE_QUOTE_12 D19_TELKO_REST D19_TIERARTIKEL D19_VERSAND_ANZ_12 D19_VERSAND_ANZ_24 D19_VERSAND_ONLINE_QUOTE_12 D19_VERSAND_REST D19_VERSI_ANZ_12 D19_VERSI_ANZ_24 D19_VERSI_DATUM D19_VERSI_OFFLINE_DATUM D19_VERSI_ONLINE_DATUM D19_VERSI_ONLINE_QUOTE_12 D19_VERSICHERUNGEN D19_VOLLSORTIMENT D19_WEIN_FEINKOST EINGEZOGENAM_HH_JAHR EWDICHTE EXTSEL992 FINANZ_ANLEGER FINANZ_HAUSBAUER FINANZ_MINIMALIST FINANZ_SPARER FINANZ_UNAUFFAELLIGER FINANZ_VORSORGER FINANZTYP FIRMENDICHTE GEBAEUDETYP GEBAEUDETYP_RASTER GEBURTSJAHR GEMEINDETYP GFK_URLAUBERTYP GREEN_AVANTGARDE HEALTH_TYP HH_DELTA_FLAG HH_EINKOMMEN_SCORE INNENSTADT KBA05_ALTER1 KBA05_ALTER2 KBA05_ALTER3 KBA05_ALTER4 KBA05_ANHANG KBA05_ANTG1 KBA05_ANTG2 KBA05_ANTG3 KBA05_ANTG4 KBA05_AUTOQUOT KBA05_BAUMAX KBA05_CCM1 KBA05_CCM2 KBA05_CCM3 KBA05_CCM4 KBA05_DIESEL KBA05_FRAU KBA05_GBZ KBA05_HERST1 KBA05_HERST4 KBA05_HERST5 KBA05_HERSTTEMP KBA05_KRSAQUOT KBA05_KRSHERST1 KBA05_KRSHERST2 KBA05_KRSHERST3 KBA05_KRSOBER KBA05_KRSVAN KBA05_KRSZUL KBA05_KW1 KBA05_KW2 KBA05_KW3 KBA05_MAXAH KBA05_MAXBJ KBA05_MAXHERST KBA05_MAXSEG KBA05_MAXVORB KBA05_MOD1 KBA05_MOD2 KBA05_MOD3 KBA05_MOD4 KBA05_MOD8 KBA05_MODTEMP KBA05_MOTOR KBA05_MOTRAD KBA05_SEG1 KBA05_SEG10 KBA05_SEG2 KBA05_SEG3 KBA05_SEG4 KBA05_SEG5 KBA05_SEG6 KBA05_SEG7 KBA05_SEG8 KBA05_SEG9 KBA05_VORB0 KBA05_VORB1 KBA05_VORB2 KBA05_ZUL1 KBA05_ZUL2 KBA05_ZUL3 KBA05_ZUL4 KBA13_ANTG1 KBA13_ANTG2 KBA13_ANTG3 KBA13_ANTG4 KBA13_ANZAHL_PKW KBA13_AUDI KBA13_AUTOQUOTE KBA13_BAUMAX KBA13_BJ_1999 KBA13_BJ_2000 KBA13_BJ_2004 KBA13_BJ_2006 KBA13_BJ_2008 KBA13_BJ_2009 KBA13_BMW KBA13_CCM_0_1400 KBA13_CCM_1000 KBA13_CCM_1200 KBA13_CCM_1400 KBA13_CCM_1401_2500 KBA13_CCM_1500 KBA13_CCM_1600 KBA13_CCM_1800 KBA13_CCM_2000 KBA13_CCM_2500 KBA13_CCM_2501 KBA13_CCM_3000 KBA13_CCM_3001 KBA13_FAB_ASIEN KBA13_FAB_SONSTIGE KBA13_FIAT KBA13_FORD KBA13_GBZ KBA13_HALTER_20 KBA13_HALTER_25 KBA13_HALTER_30 KBA13_HALTER_35 KBA13_HALTER_40 KBA13_HALTER_45 KBA13_HALTER_50 KBA13_HALTER_55 KBA13_HALTER_60 KBA13_HALTER_65 KBA13_HALTER_66 KBA13_HERST_ASIEN KBA13_HERST_AUDI_VW KBA13_HERST_BMW_BENZ KBA13_HERST_EUROPA KBA13_HERST_FORD_OPEL KBA13_HERST_SONST KBA13_HHZ KBA13_KMH_0_140 KBA13_KMH_110 KBA13_KMH_140 KBA13_KMH_140_210 KBA13_KMH_180 KBA13_KMH_210 KBA13_KMH_250 KBA13_KMH_251 KBA13_KRSAQUOT KBA13_KRSHERST_AUDI_VW KBA13_KRSHERST_BMW_BENZ KBA13_KRSHERST_FORD_OPEL KBA13_KRSSEG_KLEIN KBA13_KRSSEG_OBER KBA13_KRSSEG_VAN KBA13_KRSZUL_NEU KBA13_KW_0_60 KBA13_KW_110 KBA13_KW_120 KBA13_KW_121 KBA13_KW_30 KBA13_KW_40 KBA13_KW_50 KBA13_KW_60 KBA13_KW_61_120 KBA13_KW_70 KBA13_KW_80 KBA13_KW_90 KBA13_MAZDA KBA13_MERCEDES KBA13_MOTOR KBA13_NISSAN KBA13_OPEL KBA13_PEUGEOT KBA13_RENAULT KBA13_SEG_GELAENDEWAGEN KBA13_SEG_KLEINST KBA13_SEG_KLEINWAGEN KBA13_SEG_KOMPAKTKLASSE KBA13_SEG_MINIVANS KBA13_SEG_MINIWAGEN KBA13_SEG_MITTELKLASSE KBA13_SEG_OBEREMITTELKLASSE KBA13_SEG_OBERKLASSE KBA13_SEG_SONSTIGE KBA13_SEG_SPORTWAGEN KBA13_SEG_UTILITIES KBA13_SEG_VAN KBA13_SEG_WOHNMOBILE KBA13_SITZE_4 KBA13_SITZE_5 KBA13_SITZE_6 KBA13_TOYOTA KBA13_VORB_0 KBA13_VORB_1 KBA13_VORB_1_2 KBA13_VORB_2 KBA13_VORB_3 KBA13_VW KK_KUNDENTYP KKK KOMBIALTER KONSUMNAEHE KONSUMZELLE MIN_GEBAEUDEJAHR MOBI_RASTER MOBI_REGIO NATIONALITAET_KZ ONLINE_AFFINITAET ORTSGR_KLS9 OST_WEST_KZ PLZ8_ANTG1 PLZ8_ANTG2 PLZ8_ANTG3 PLZ8_ANTG4 PLZ8_BAUMAX REGIOTYP RELAT_AB RETOURTYP_BK_S RT_KEIN_ANREIZ RT_SCHNAEPPCHEN RT_UEBERGROESSE SEMIO_DOM SEMIO_ERL SEMIO_FAM SEMIO_KAEM SEMIO_KRIT SEMIO_KULT SEMIO_LUST SEMIO_MAT SEMIO_PFLICHT SEMIO_RAT SEMIO_REL SEMIO_SOZ SEMIO_TRADV SEMIO_VERT SHOPPER_TYP SOHO_KZ STRUKTURTYP TITEL_KZ UMFELD_ALT UMFELD_JUNG UNGLEICHENN_FLAG VERDICHTUNGSRAUM VERS_TYP VHA VHN VK_DHT4A VK_DISTANZ VK_ZG11 W_KEIT_KIND_HH WOHNDAUER_2008 WOHNLAGE ZABEOTYP ANREDE_KZ ALTERSKATEGORIE_GROB ALTER_HH_Value_0 CAMEO_DEUINTL_2015_Value_0 CAMEO_DEUINTL_2015_Value_1 D19_BANKEN_DATUM_Value_ACTIVITY_WITHIN_MONTHS D19_BANKEN_DATUM_Value_INCREASE D19_BANKEN_OFFLINE_DATUM_Value_ACTIVITY_WITHIN_MONTHS D19_BANKEN_OFFLINE_DATUM_Value_INCREASE D19_BANKEN_ONLINE_DATUM_Value_ACTIVITY_WITHIN_MONTHS D19_BANKEN_ONLINE_DATUM_Value_INCREASE D19_GESAMT_DATUM_Value_ACTIVITY_WITHIN_MONTHS D19_GESAMT_DATUM_Value_INCREASE D19_GESAMT_OFFLINE_DATUM_Value_ACTIVITY_WITHIN_MONTHS D19_GESAMT_OFFLINE_DATUM_Value_INCREASE D19_GESAMT_ONLINE_DATUM_Value_ACTIVITY_WITHIN_MONTHS D19_GESAMT_ONLINE_DATUM_Value_INCREASE D19_TELKO_DATUM_Value_ACTIVITY_WITHIN_MONTHS D19_TELKO_DATUM_Value_INCREASE D19_TELKO_OFFLINE_DATUM_Value_ACTIVITY_WITHIN_MONTHS D19_TELKO_OFFLINE_DATUM_Value_INCREASE D19_TELKO_ONLINE_DATUM_Value_ACTIVITY_WITHIN_MONTHS D19_TELKO_ONLINE_DATUM_Value_INCREASE D19_VERSAND_DATUM_Value_ACTIVITY_WITHIN_MONTHS D19_VERSAND_DATUM_Value_INCREASE D19_VERSAND_OFFLINE_DATUM_Value_ACTIVITY_WITHIN_MONTHS D19_VERSAND_OFFLINE_DATUM_Value_INCREASE D19_VERSAND_ONLINE_DATUM_Value_ACTIVITY_WITHIN_MONTHS D19_VERSAND_ONLINE_DATUM_Value_INCREASE LP_FAMILIE_FEIN_Value_CHILD LP_FAMILIE_FEIN_Value_FAMILY LP_FAMILIE_FEIN_Value_GENERATIONAL LP_FAMILIE_GROB_Value_FAMILY LP_LEBENSPHASE_FEIN_Value_AGE LP_LEBENSPHASE_FEIN_Value_INCOME LP_LEBENSPHASE_FEIN_Value_OTHER LP_LEBENSPHASE_GROB_Value_AGE LP_LEBENSPHASE_GROB_Value_INCOME LP_STATUS_FEIN_Value_INCOME LP_STATUS_FEIN_Value_OTHER LP_STATUS_GROB_Value_INCOME PRAEGENDE_JUGENDJAHRE_Value_0 PRAEGENDE_JUGENDJAHRE_Value_2 PRAEGENDE_JUGENDJAHRE_Value_3 EINGEFUEGT_AM_Day EINGEFUEGT_AM_DayOfYear EINGEFUEGT_AM_DayOfWeek EINGEFUEGT_AM_DaysInMonth EINGEFUEGT_AM_IsMonthStart EINGEFUEGT_AM_IsMonthEnd EINGEFUEGT_AM_IsQuarterStart EINGEFUEGT_AM_IsQuarterEnd EINGEFUEGT_AM_IsYearStart EINGEFUEGT_AM_IsYearEnd EINGEFUEGT_AM_Season _isMissingUnknown_1 _isMissingUnknown_2 _isMissingUnknown_3 _isMissingUnknown_4 _isMissingUnknown_5 _isMissingUnknown_6 _isMissingUnknown_7 _isMissingUnknown_8 _isMissingUnknown_9 _isMissingUnknown_10 _isMissingUnknown_11 _isMissingUnknown_12 _isMissingUnknown_13 _isMissingUnknown_14 _isMissingUnknown_15 _isMissingUnknown_16 _isMissingUnknown_17 _isMissingUnknown_18 _isMissingUnknown_19 _isMissingUnknown_20 CAMEO_DEU_2015_1A CAMEO_DEU_2015_1B CAMEO_DEU_2015_1C CAMEO_DEU_2015_1D CAMEO_DEU_2015_1E CAMEO_DEU_2015_2A CAMEO_DEU_2015_2B CAMEO_DEU_2015_2C CAMEO_DEU_2015_2D CAMEO_DEU_2015_3A CAMEO_DEU_2015_3B CAMEO_DEU_2015_3C CAMEO_DEU_2015_3D CAMEO_DEU_2015_4A CAMEO_DEU_2015_4B CAMEO_DEU_2015_4C CAMEO_DEU_2015_4D CAMEO_DEU_2015_4E CAMEO_DEU_2015_5A CAMEO_DEU_2015_5B CAMEO_DEU_2015_5C CAMEO_DEU_2015_5D CAMEO_DEU_2015_5E CAMEO_DEU_2015_5F CAMEO_DEU_2015_6A CAMEO_DEU_2015_6B CAMEO_DEU_2015_6C CAMEO_DEU_2015_6D CAMEO_DEU_2015_6E CAMEO_DEU_2015_6F CAMEO_DEU_2015_7A CAMEO_DEU_2015_7B CAMEO_DEU_2015_7C CAMEO_DEU_2015_7D CAMEO_DEU_2015_7E CAMEO_DEU_2015_8A CAMEO_DEU_2015_8B CAMEO_DEU_2015_8C CAMEO_DEU_2015_8D CAMEO_DEU_2015_9A CAMEO_DEU_2015_9B CAMEO_DEU_2015_9C CAMEO_DEU_2015_9D CAMEO_DEU_2015_9E CAMEO_DEU_2015_XX D19_LETZTER_KAUF_BRANCHE_D19_BANKEN_DIREKT D19_LETZTER_KAUF_BRANCHE_D19_BANKEN_GROSS D19_LETZTER_KAUF_BRANCHE_D19_BANKEN_LOKAL D19_LETZTER_KAUF_BRANCHE_D19_BANKEN_REST D19_LETZTER_KAUF_BRANCHE_D19_BEKLEIDUNG_GEH D19_LETZTER_KAUF_BRANCHE_D19_BEKLEIDUNG_REST D19_LETZTER_KAUF_BRANCHE_D19_BILDUNG D19_LETZTER_KAUF_BRANCHE_D19_BIO_OEKO D19_LETZTER_KAUF_BRANCHE_D19_BUCH_CD D19_LETZTER_KAUF_BRANCHE_D19_DIGIT_SERV D19_LETZTER_KAUF_BRANCHE_D19_DROGERIEARTIKEL D19_LETZTER_KAUF_BRANCHE_D19_ENERGIE D19_LETZTER_KAUF_BRANCHE_D19_FREIZEIT D19_LETZTER_KAUF_BRANCHE_D19_GARTEN D19_LETZTER_KAUF_BRANCHE_D19_HANDWERK D19_LETZTER_KAUF_BRANCHE_D19_HAUS_DEKO D19_LETZTER_KAUF_BRANCHE_D19_KINDERARTIKEL D19_LETZTER_KAUF_BRANCHE_D19_KOSMETIK D19_LETZTER_KAUF_BRANCHE_D19_LEBENSMITTEL D19_LETZTER_KAUF_BRANCHE_D19_LOTTO D19_LETZTER_KAUF_BRANCHE_D19_NAHRUNGSERGAENZUNG D19_LETZTER_KAUF_BRANCHE_D19_RATGEBER D19_LETZTER_KAUF_BRANCHE_D19_REISEN D19_LETZTER_KAUF_BRANCHE_D19_SAMMELARTIKEL D19_LETZTER_KAUF_BRANCHE_D19_SCHUHE D19_LETZTER_KAUF_BRANCHE_D19_SONSTIGE D19_LETZTER_KAUF_BRANCHE_D19_TECHNIK D19_LETZTER_KAUF_BRANCHE_D19_TELKO_MOBILE D19_LETZTER_KAUF_BRANCHE_D19_TELKO_REST D19_LETZTER_KAUF_BRANCHE_D19_TIERARTIKEL D19_LETZTER_KAUF_BRANCHE_D19_UNBEKANNT D19_LETZTER_KAUF_BRANCHE_D19_VERSAND_REST D19_LETZTER_KAUF_BRANCHE_D19_VERSICHERUNGEN D19_LETZTER_KAUF_BRANCHE_D19_VOLLSORTIMENT D19_LETZTER_KAUF_BRANCHE_D19_WEIN_FEINKOST PRAEGENDE_JUGENDJAHRE_Value_1_FDJ_-_communist_party_youth_organisation PRAEGENDE_JUGENDJAHRE_Value_1_Generation_Golf PRAEGENDE_JUGENDJAHRE_Value_1_Swords_into_ploughshares PRAEGENDE_JUGENDJAHRE_Value_1_digital_media_kids PRAEGENDE_JUGENDJAHRE_Value_1_ecological_awareness PRAEGENDE_JUGENDJAHRE_Value_1_economic_miracle PRAEGENDE_JUGENDJAHRE_Value_1_family_orientation PRAEGENDE_JUGENDJAHRE_Value_1_generation_68_-_student_protestors PRAEGENDE_JUGENDJAHRE_Value_1_milk_bar_-_Individualisation PRAEGENDE_JUGENDJAHRE_Value_1_opponents_to_the_building_of_the_Wall PRAEGENDE_JUGENDJAHRE_Value_1_peace_movement PRAEGENDE_JUGENDJAHRE_Value_1_reconstruction_years PRAEGENDE_JUGENDJAHRE_Value_1_war_years
feature_infos=[-1:3] [-2:9] [2:18] [5:18] none none [-2:25] [0:353] [0:20] [0:6] [0:24] [-2:9] [-2:7] [-2:9] [-2:6] [-2:5] [-2:5] [-2:5] [-2:5] [-2:5] [-2:5] [-2:5] [0:6] [0:6] [0:7] [0:6] [0:7] [-2:10] [0:7] [0:7] [0:7] [0:7] [0:7] [0:7] [0:7] [0:7] [0:7] [0:7] [0:7] [0:6] [0:6] [-2:10] [0:7] [0:7] [0:7] [-2:9] [1:9] [0:7] [0:7] [-2:7] [0:7] [0:7] [0:7] [0:7] [0:7] [0:7] [-2:5] [0:7] [0:5] [0:5] [0:7] [-2:10] [0:7] [0:7] [0:6] [0:6] [-2:10] [0:7] [0:5] [0:5] [1:10] [1:10] none [-2:10] [0:7] [0:7] [0:7] [-1:3.30078125] [-2:6] [1:56] [1:5] [1:5] [1:5] [1:5] [1:5] [1:5] [1:6] [-2:5] [-2:8] [-2:5] [0:11.300000000000001] [11:50] [1:12] [0:1] [-1:3] [-2:1] [-2:6] [-2:8] [-2:4] [-2:5] [-2:5] [-2:5] [-2:3] [-2:4] [-2:4] [-2:3] [-2:2] [-2:5] [-2:5] [-2:5] [-2:5] [-2:5] [-2:4] [-2:4] [-2:5] [-2:5] [-2:5] [-2:5] [-2:5] [-2:5] [-2:5] [-2:5] [-2:5] [-2:5] [-2:3] [-2:3] [-2:3] [-2:5] [-2:5] [-2:4] [-2:5] [-2:4] [-2:5] [-2:4] [-2:3] [-2:4] [-2:5] [-2:5] [-2:5] [-2:3] [-2:6] [-2:4] [-2:3] [-2:3] [-2:4] [-2:5] [-2:5] [-2:5] [-2:4] [-2:1] [-2:3] [-2:3] [-2:3] [-2:5] [-2:5] [-2:5] [-2:5] [-2:5] [-2:5] [-2:5] [-2:4] [-2:4] [-2:3] [-2:2] [0:2300] [-2:5] [-2:5] [-2:5] [-2:5] [-2:5] [-2:5] [-2:5] [-2:5] [-2:5] [-2:5] [-2:5] [-2:5] [-2:5] [-2:5] [-2:5] [-2:5] [-2:5] [-2:5] [-2:5] [-2:5] [-2:5] [-2:5] [-2:5] [-2:5] [-2:5] [-2:5] [-2:5] [-2:5] [-2:5] [-2:5] [-2:5] [-2:5] [-2:5] [-2:5] [-2:5] [-2:5] [-2:5] [-2:5] [-2:5] [-2:5] [-2:5] [-2:5] [-2:5] [-2:5] [-2:5] [-2:5] [-2:5] [-2:3] [-2:5] [-2:5] [-2:5] [-2:5] [-2:5] [-2:3] [-2:5] [-2:5] [-2:5] [-2:5] [-2:3] [-2:3] [-2:3] [-2:3] [-2:5] [-2:5] [-2:5] [-2:5] [-2:3] [-2:5] [-2:5] [-2:5] [-2:5] [-2:5] [-2:5] [-2:5] [-2:5] [-2:5] [-2:4] [-2:5] [-2:5] [-2:5] [-2:5] [-2:5] [-2:5] [-2:5] [-2:5] [-2:5] [-2:5] [-2:5] [-2:5] [-2:5] [-2:5] [-2:5] [-2:5] [-2:5] [-2:5] [-2:5] [-2:5] [-2:5] [-2:5] [-2:5] [-2:5] [-2:5] [-2:5] [-2:5] [-2:5] [-2:6] [-2:4] [1:9] [-2:7] [-2:1] [-1:3.099609375] [-2:6] [-2:6] [-1:3] [-2:5] [-2:9] [-2:2] [-2:4] [-2:4] [-2:3] [-2:2] [-2:5] [-2:7] [-2:5] [-2:5] [-2:5] [-2:5] [-2:5] [1:7] [1:7] [1:7] [1:7] [1:7] [1:7] [1:7] [1:7] [1:7] [1:7] [1:7] [1:7] [1:7] [1:7] [-1:3] [-2:1] [-2:3] [-2:5] [-2:5] [-2:5] [-2:1] [0:45] [-1:2] [-2:5] [-2:4] [1:11] [1:13] [1:11] [-2:6] [-2:9] [-2:8] [1:6] [1:2] [1:9] [0:10.1015625] [-2:5] [-2:5] [0:5] [0:5] [0:5] [0:5] [0:5] [0:5] [0:5] [0:5] [0:5] [0:5] [0:5] [0:5] [0:5] [0:5] [0:5] [0:5] [0:5] none [0:5] [0:5] [0:5] [0:5] [0:5] [0:5] [-2:3] [-2:8] [-2:3] [-2:4] [-2:5] [-2:7] none [-2:3] [-2:4] [-2:7] [-2:8] [-2:2] [-1:6] [-1:2] [-1:3] [1:31] [2:365] [-2:6] [28:31] [0:1] none none none none none [0:3] [-2.2083146064174635:14.259193305521343] [-5.9007107396731966:6.1135041603235534] [-6.3144945203165612:6.0770542173820825] [-2.616796517584147:8.1530105039188836] [-3.0540729225044014:7.3736377913611442] [-1.5481024585681533:5.7935991918011727] [-1.8367647932651929:2.9454139953883369] [-3.1529604240351721:3.0947390738493477] [-0.98093477921175021:0.9713992095496804] [-0.98049511908664311:1.7887197137894397] [-1.6232912618877773:1.708438180165925] [-1.5320520748853079:1.8951077503745051] [-1.2020469363457102:1.1916233369037497] [-0.90516040822178256:3.9969032047591613] [-1.4306446823096799:1.4613847047569262] [-1.0406915982371046:1.8634039434443368] [-2.7853555493882616:2.8486835363082426] [-1.2829023721743935:1.2229279825376977] [-1.4705490182854528:1.9169812592173574] [-1.2114417118988876:1.7305862506292544] [0:1] none none [0:1] [0:1] [0:1] [0:1] [0:1] [0:1] none [0:1] [0:1] [0:1] [0:1] [0:1] [0:1] [0:1] none [0:1] [0:1] [0:1] [0:1] none none none [0:1] [0:1] none [0:1] [0:1] [0:1] [0:1] [0:1] none [0:1] [0:1] [0:1] [0:1] [0:1] [0:1] [0:1] [0:1] [0:1] [0:1] none [0:1] [0:1] none none [0:1] [0:1] none none [0:1] none [0:1] [0:1] [0:1] none none [0:1] none none [0:1] none [0:1] none none [0:1] [0:1] [0:1] [0:1] [0:1] [0:1] none [0:1] [0:1] [0:1] [0:1] none none [0:1] none [0:1] [0:1] [0:1] [0:1] [0:1] [0:1] [0:1] [0:1] [0:1] [0:1]
tree_sizes=3795 3297 4008 3754 3378 4643 3606 3447 3134 3857 3216 4071 3045 4148 3628 3608 3210

Tree=0
num_leaves=48
num_cat=0
split_feature=56 56 380 77 169 390 144 323 77 388 293 86 49 148 338 232 159 142 177 155 33 299 381 391 113 14 326 325 49 325 133 177 116 90 177 394 361 291 52 387 358 316 77 396 92 181 315
split_gain=146642 171003 44346.7 10240.7 7575.74 6920.46 9701.46 6343.94 6267.96 6266.42 6230.31 6740.76 5964.9 5578.76 5566.92 5494.44 5351.5 5453.13 5687.15 4895.78 4268.54 5661.86 5657.61 3820.2 4912.95 5843.24 3183.76 5378.77 2363.26 2269.95 1829.02 3382.46 1746.95 3575.01 1775.59 2642.13 1651.27 1213.37 1128.81 690.761 635.493 518.363 672.658 458.02 230.482 229.967 175.33
threshold=1.5000000000000002 1.0000000180025095e-35 2.6944424325165039 1.5498046875000002 3.5000000000000004 0.30933078952466581 2.5000000000000004 2.5000000000000004 1.2500000000000002 0.29295353982342714 5.5000000000000009 4.5000000000000009 5.5000000000000009 1.0000000180025095e-35 2.5000000000000004 2.5000000000000004 4.5000000000000009 2.5000000000000004 2.5000000000000004 2.5000000000000004 5.5000000000000009 4.5000000000000009 0.36205807291224551 -0.087253768427639544 1.5000000000000002 2.5000000000000004 1.5000000000000002 1.5000000000000002 6.5000000000000009 1.5000000000000002 1.5000000000000002 2.5000000000000004 3.5000000000000004 2.9500000000000006 1.5000000000000002 0.0676442562599925 2.0000000000000004 4.5000000000000009 2.5000000000000004 -0.03314429418017157 2.5000000000000004 1.0000000180025095e-35 1.4501953125000002 -0.0042723222580446077 7.5000000000000009 3.5000000000000004 1.5000000000000002
decision_type=2 2 2 2 2 2 2 2 2 2 2 2 2 2 2 2 2 2 2 2 2 2 2 2 2 2 2 2 2 2 2 2 2 2 2 2 2 2 2 2 2 2 2 2 8 2 2
left_child=1 2 16 10 7 20 8 39 38 19 13 -12 -11 14 -2 -13 17 23 -19 37 28 22 -22 -1 -25 -26 27 -4 41 -28 -30 -32 34 -34 35 -23 -36 -9 -7 -5 -29 45 44 -31 -43 46 -3
right_child=3 5 26 4 -6 6 -8 9 -10 12 11 15 -14 -15 -16 -17 -18 18 -20 -21 21 32 -24 24 25 -27 29 40 30 43 31 -33 33 -35 36 -37 -38 -39 -40 -41 -42 42 -44 -45 -46 -47 -48
leaf_value=-1.4457527265487049 -1.4457467579499925 -1.4416893246989884 -1.4422997813001146 -1.4457430108784424 -1.4457477955899767 -1.4427757825992695 -1.4449833326159212 -1.4431337515222289 -1.4414320278866197 -1.4457465248471992 -1.4457479384476084 -1.4429792631183829 -1.4432758745948624 -1.445753407677544 -1.4435628844823114 -1.4451302252624334 -1.4435809036383342 -1.4428613508936072 -1.4457392216727669 -1.4441852075446531 -1.4423346885037729 -1.4418153455834612 -1.4448805107901139 -1.445750865592319 -1.4438876016234641 -1.4457478915020174 -1.4443082255900368 -1.4435549143983784 -1.4414077831068677 -1.4434510357087824 -1.4417904632141874 -1.4432125594732539 -1.4418385263013231 -1.4436990351492476 -1.4420665371817634 -1.4435017206015031 -1.4413308376050502 -1.4419459208132743 -1.4440601817211456 -1.4446897489793433 -1.4428333796363171 -1.442186359465345 -1.4412831677254747 -1.4428007428285108 -1.4415895743463842 -1.4409724995500992 -1.4412050497057312
leaf_count=3056 715 499 1087 480 826 306 455 320 317 694 844 580 357 4844 561 583 569 327 359 561 350 306 391 1518 1322 838 844 1697 364 1672 524 516 313 370 676 316 808 314 330 305 320 469 422 312 357 325 479
internal_value=0 46.1038 26.0129 14.421 23.9598 58.5098 45.9071 28.2808 52.4553 33.1255 8.61581 19.9589 17.423 3.85109 17.8751 29.3637 11.7051 9.41361 28.0983 41.4569 59.8876 55.3634 38.1435 6.65784 11.9891 18.8444 37.8435 41.9588 62.6781 32.0469 56.6928 51.6263 57.7463 48.5289 59.616 50.2709 61.9087 49.9186 36.1058 6.18944 34.2766 64.7728 61.5506 35.5773 57.5142 66.8678 64.5004
internal_count=34798 22814 13921 11984 3857 8893 1408 3031 953 2246 8127 2007 1051 6120 1276 1163 7989 7420 686 1195 7485 3530 741 6734 3678 2160 5932 3104 3955 2828 1404 1040 2789 683 2106 622 1484 634 636 785 2017 2551 1248 1984 826 1303 978
shrinkage=0.332096


Tree=1
num_leaves=40
num_cat=0
split_feature=56 56 380 77 169 399 395 390 77 327 51 7 238 393 196 293 327 390 64 225 371 13 51 388 383 155 215 118 128 107 267 79 363 279 75 79 267 79 393
split_gain=143753 166636 43680.9 10143.9 7498.24 7740.13 6932.61 6690.98 8885.65 8771.71 6393.29 6356.78 5863.84 6856.32 5070.38 4600.45 6636.66 5914.44 4482.19 4184.43 3874.76 3455.83 3237.09 6268.84 2859.05 2361.39 2264.15 4536.57 2060.77 1907.94 2038.59 1912.04 1807.75 2455.55 1761.75 1603.86 1105.87 747.539 211.821
threshold=1.5000000000000002 1.0000000180025095e-35 2.6944424325165039 1.5498046875000002 3.5000000000000004 -0.002896962323818308 0.58933619581645591 0.30933078952466581 1.3500976562500002 7.8515625000000009 5.5000000000000009 12.500000000000002 3.5000000000000004 -0.01885269021113475 2.5000000000000004 5.5000000000000009 5.3515625000000009 1.0000000180025095e-35 1.5000000000000002 1.5000000000000002 1.0000000180025095e-35 3.5000000000000004 5.5000000000000009 0.6219799876246942 -0.010393194482677141 2.5000000000000004 2.5000000000000004 3.5000000000000004 1.5000000000000002 4.5000000000000009 1.5000000000000002 35.500000000000007 2.5000000000000004 3.5000000000000004 6.5000000000000009 53.500000000000007 1.5000000000000002 39.500000000000007 0.0022279027494937352
decision_type=2 2 2 2 2 2 2 2 2 10 2 8 2 2 2 2 10 2 2 2 2 2 2 2 2 2 2 2 2 2 2 10 2 2 2 8 2 8 2
left_child=1 2 12 6 5 10 15 22 9 -9 11 18 14 -14 19 24 -17 -18 25 -1 -15 -21 28 35 36 -5 27 -16 -3 30 -30 -31 -4 38 -32 -24 -2 -7 -34
right_child=3 7 32 4 -6 37 -8 8 -10 -11 -12 -13 13 20 26 16 17 -19 -20 21 -22 -23 23 -25 -26 -27 -28 -29 29 31 34 -33 33 -35 -36 -37 -38 -39 -40
leaf_value=0.0020401830927234193 0.00075748991670704087 0.00358493804679119 0.0025400850002162143 0.0028878838368727854 -4.8712461612559826e-05 0.00079711642219471165 0.0019210803711963984 0.0023405863225248779 0.0031734729649883957 -4.5303124311116918e-05 -4.2458890553939368e-05 -3.990357794698486e-05 -4.6954739285588948e-05 0.0022805087789184277 -4.8831360402624601e-05 -4.9780477123068201e-05 0.0020849827154811604 -4.3098237947182133e-05 0.0012052311774379256 0.0013615930490364632 0.00063522053282702559 -4.8981887918857374e-05 0.0022835631001345428 0.0011545734507089516 0.001130528074328042 0.0017782005558367492 -5.2899194344744002e-05 0.0016728889149675529 0.0023790357213620919 0.0019381699214631139 0.0032751070890823428 0.002976673498378843 0.0023083131065314011 0.00074554411056866349 0.0025411238724194454 0.0032515200198185261 -5.325739785956579e-05 -4.6497998974564541e-05 0.0019438558654167944
leaf_count=320 325 545 552 491 826 305 359 487 420 501 377 308 621 518 843 1027 544 400 556 469 398 868 314 386 402 412 3612 340 345 348 4269 504 372 329 395 379 5070 582 4679
internal_value=0 45.683 25.8764 14.3779 23.8443 28.1211 8.59968 57.8364 45.4917 30.0095 33.8287 37.6491 11.6761 24.2493 7.73241 6.39253 16.4755 28.3845 41.4476 18.9679 33.8151 10.9661 59.1822 49.6325 2.1313 47.7364 2.75224 12.2561 60.1907 59.068 60.0069 50.5721 37.5586 36.0951 60.5992 55.7665 0.134511 5.41643 37.0103
internal_count=34798 22814 13921 11984 3857 3031 8127 8893 1408 988 2144 1767 7989 1537 6452 7768 1971 944 1459 1657 916 1337 7485 1079 5797 903 4795 1183 6406 5861 5009 852 5932 5380 4664 693 5395 887 5051
shrinkage=5.34642e-05


Tree=2
num_leaves=49
num_cat=0
split_feature=46 46 10 390 65 383 289 382 241 112 232 77 153 35 287 287 328 126 263 24 103 154 392 194 137 151 222 75 30 306 289 17 327 307 301 29 170 355 142 237 172 276 307 289 381 164 182 305
split_gain=91090.3 45044.5 36687.6 11438.6 10909.2 9466.3 9284.64 8671.53 8032.42 7490.78 7260.39 7047.98 10299.2 6478.14 6307.2 8604.13 5962.95 6020.32 5908.82 5790.74 8709.49 6508.55 5743.89 5398.54 5143.22 4381.85 4183.19 7570.62 4171.66 7638.35 3568.61 5452.34 3483.87 3126.1 3078.3 3003.98 2920.57 6291.04 2916.46 2882.74 2690.59 2114.73 2175.18 3285.89 1980.15 791.938 561.176 494.834
threshold=2.5000000000000004 1.5000000000000002 3.5000000000000004 0.30933078952466581 1.0000000180025095e-35 -1.7324986007634211 4.5000000000000009 -0.70797030752981804 2.5000000000000004 1.5000000000000002 3.5000000000000004 1.4501953125000002 2.5000000000000004 2.5000000000000004 2.5000000000000004 5.5000000000000009 3.5000000000000004 1.5000000000000002 2.5000000000000004 2.5000000000000004 1.5000000000000002 4.5000000000000009 0.38572483251733042 3.5000000000000004 3.5000000000000004 1.0000000180025095e-35 3.5000000000000004 2.5000000000000004 1.0000000180025095e-35 1.5000000000000002 3.5000000000000004 2.5000000000000004 7.3515625000000009 1.5000000000000002 2.5000000000000004 2.5000000000000004 3.5000000000000004 3.5000000000000004 2.5000000000000004 1.0000000180025095e-35 2.5000000000000004 1.5000000000000002 2.5000000000000004 3.5000000000000004 0.32412627253001025 706.50000000000011 2.5000000000000004 2.5000000000000004
decision_type=2 2 8 2 2 2 2 2 2 2 2 2 2 2 2 2 2 2 2 2 2 2 2 2 2 2 2 2 2 2 2 2 10 2 2 2 2 2 2 2 2 2 2 2 2 10 2 2
left_child=1 3 7 6 5 -3 10 9 -8 16 18 35 -13 28 -14 40 17 -2 -1 21 -21 22 26 25 34 -18 32 -28 29 30 31 -4 -6 -22 -20 38 41 -38 -9 -5 -16 47 43 -43 -44 -11 -17 -7
right_child=2 4 13 39 19 36 8 11 -10 45 -12 12 14 -15 15 46 23 -19 24 20 33 -23 -24 -25 -26 -27 27 -29 -30 -31 -32 -33 -34 -35 -36 -37 37 -39 -40 -41 -42 42 44 -45 -46 -47 -48 -49
leaf_value=0.0019654733373079096 0.0030875757874044996 0.0012905326678509139 -6.9940451012891731e-05 0.0022990170148303947 0.0050468176348389543 0.0062013379693049734 0.0033543905263784843 -9.1758278753413362e-05 -8.5968944258005663e-05 -8.2500405130393344e-05 -6.9987980714365206e-05 -8.7913996019921742e-05 -7.7599026051291726e-05 -7.197186132420401e-05 0.0023354636916191997 0.0013762751742785022 0.0052094601022800802 -8.3010825792318227e-05 0.0032486546693403003 -7.7624828659953157e-05 0.0020978133350518383 0.0017851469882217757 0.0019342390299273704 0.0011697552556328757 0.0020339832091017039 0.0022276970641884782 -6.9444677463119777e-05 0.0042016291210294279 0.0048728958536486122 -7.579497541326539e-05 0.004628442978103422 0.0033725686521562394 0.0035937359293934726 0.0045977991338589236 0.0053709506363026089 0.002326349057050296 0.005350893271465749 0.0026130700895348135 0.0018607226141292644 -8.6968395818286985e-05 0.0047525785245121554 0.0041247308922071693 0.0029014015090882191 0.0058792801366181081 0.0049603287043753054 0.0013712130909701765 -7.0064726020821613e-05 0.0054471754491843966
leaf_count=599 508 325 316 317 3336 514 437 4016 1001 688 320 1343 476 350 311 305 356 722 370 474 360 447 401 369 376 331 310 1047 442 427 557 4771 691 433 559 312 499 524 427 1152 440 451 329 637 305 305 321 491
internal_value=0 46.8876 26.0908 27.8828 51.3068 56.9208 33.1959 16.1925 16.0686 25.7282 39.9385 11.1192 19.4847 36.8038 28.7176 34.3724 31.4775 18.2409 42.9749 46.6854 32.7931 48.501 49.5796 40.8922 48.1429 47.7584 50.5919 40.4161 37.8324 35.9628 37.3929 35.188 52.8507 41.9035 52.8254 3.96244 58.0603 49.2467 1.72242 6.6729 44.7329 60.0757 55.9654 59.2524 45.9524 4.76608 7.74572 64.2919
internal_count=34798 16705 18093 5131 11574 4075 3662 11230 1438 3279 2224 7951 3196 6863 1853 1377 2286 1230 1904 7499 1267 6232 5785 1056 1305 687 5384 1357 6513 6071 5644 5087 4027 793 929 4755 3750 1023 4443 1469 751 2727 1722 1088 634 993 626 1005
shrinkage=9.25138e-05


Tree=3
num_leaves=46
num_cat=0
split_feature=56 56 282 388 323 289 390 144 130 353 340 123 29 164 340 392 35 239 196 225 327 33 299 386 164 169 239 128 51 137 386 33 289 365 325 79 307 323 90 222 10 110 291 394 153
split_gain=138958 159244 41943.6 8944.88 7235.99 8152.04 6268.06 9251.44 6080.91 6145.02 6522.59 5997.53 5882.33 5808.26 5043.45 7227.96 5150.2 5021.94 4509.53 5196.04 4326.96 3988.92 5350.77 5077.15 3728.25 2940.05 2807.56 2641.3 4195.04 2827.74 2419.78 1960.15 1731.17 2432.74 1834.73 1331.14 2021.26 2831 1309.99 1155.83 1139.93 913.883 643.805 553.135 254.838
threshold=1.5000000000000002 1.0000000180025095e-35 -1.0000000180025095e-35 0.29295353982342714 2.5000000000000004 2.5000000000000004 0.30933078952466581 2.5000000000000004 4.5000000000000009 2.5000000000000004 1.5000000000000002 3.5000000000000004 5.5000000000000009 555.50000000000011 4.5000000000000009 -0.22208063154666932 5.5000000000000009 4.5000000000000009 2.5000000000000004 1.5000000000000002 8.8515625000000018 5.5000000000000009 4.5000000000000009 0.34590665588247449 503.50000000000006 1.5000000000000002 2.5000000000000004 2.5000000000000004 5.5000000000000009 3.5000000000000004 0.26040543312211029 3.5000000000000004 4.5000000000000009 1.5000000000000002 1.5000000000000002 55.500000000000007 2.5000000000000004 3.5000000000000004 3.4500000000000006 3.5000000000000004 4.5000000000000009 3.5000000000000004 3.5000000000000004 -0.039374626918342405 3.5000000000000004
decision_type=2 2 2 2 2 2 2 2 2 2 2 2 2 8 2 2 2 2 2 2 10 2 2 2 8 2 2 2 2 2 2 2 2 2 2 8 2 2 2 2 8 2 2 2 2
left_child=1 2 32 4 41 -6 21 20 9 10 11 -7 17 -14 16 -16 18 40 19 -4 31 35 23 -23 -12 -20 -21 38 29 -29 -10 -8 33 34 -1 36 39 -38 -24 44 -5 -2 -17 -37 -3
right_child=3 6 14 12 5 8 7 -9 30 -11 24 -13 13 -15 15 42 -18 -19 25 26 -22 22 27 -25 -26 -27 -28 28 -30 -31 -32 -33 -34 -35 -36 43 37 -39 -40 -41 -42 -43 -44 -45 -46
leaf_value=0.0029611409547002573 -6.5759879616272878e-05 0.0045263181348888923 0.0026842481137243591 -6.9826680092922915e-05 -6.3996971880783725e-05 0.0034332581561359243 0.0029411705046613681 0.00073019313456891739 0.0017842794667380997 -5.5473241890347002e-05 0.0023051085137937295 0.00089857695746018795 0.0027613154173290206 -5.7966110093896395e-05 0.0031013289774586179 0.0010398648509631905 0.0020921391494189505 0.0017791148833224842 0.001407262931016569 0.001778464383489913 0.0017669928799505944 0.003379851310683215 0.0045659378425054438 0.00085217345258076823 -5.8939780261956743e-05 -6.9709647187907669e-05 -6.5047538628569239e-05 0.0040528251792350794 0.0022046843222279884 0.0028319211075030727 -6.2067265870768652e-05 0.0043079767733865187 0.0032650321116097654 0.0012702698889589406 0.0023519611354344255 0.0040777434737642492 0.0026985699508803159 0.0040677544495037543 0.0035633735720668486 0.0035677667199498168 0.0010285198392091246 0.0010345624927465757 -5.7342628501893502e-05 0.0045656957565259719 0.0039423790520354725
leaf_count=1485 1106 633 311 4781 827 910 316 455 305 369 306 362 370 442 346 305 488 466 427 307 305 362 460 379 478 4375 975 1106 434 480 647 332 556 482 3442 620 529 399 309 388 309 306 422 1053 333
internal_value=0 44.8889 25.5911 14.2594 20.8408 25.0136 56.6072 44.7408 28.9476 33.695 36.9079 43.6271 6.9913 24.7588 11.6455 25.8577 8.64334 3.27201 6.16005 17.1503 51.0114 57.8939 53.5867 37.0739 17.2129 1.51964 7.64599 55.8614 51.9159 54.6139 10.1727 55.8386 36.893 35.47 36.6176 60.5455 57.6526 50.478 61.8797 60.5894 0.195157 3.14546 6.64376 63.2642 62.6324
internal_count=34798 22814 13921 11984 5616 4204 8893 1408 3377 2425 2056 1272 6368 812 7956 1073 6883 5556 6395 1593 953 7485 3530 741 784 4802 1282 2789 2020 1586 952 648 5965 5409 4927 3955 2282 928 769 1354 5090 1412 727 1673 966
shrinkage=7.0157e-05


Tree=4
num_leaves=41
num_cat=0
split_feature=56 56 282 388 323 289 232 238 159 66 90 293 143 276 307 96 217 262 316 370 336 207 119 326 300 300 327 396 289 387 291 21 79 287 7 159 312 238 359 46
split_gain=136282 155282 41322.7 8868.02 7164.18 8065.48 6015.01 5735.86 8637.27 5540.55 5388.48 5382.16 6862.45 5213.82 5106.92 4231.83 4490.37 8882.05 3627.42 3836.85 4823.91 3346.98 3456.82 3171.82 2625.23 2122.28 1953.2 1668.77 1478.7 1326.09 1272.14 1162.15 1126.83 2630.1 992.073 903.494 859.373 1357.83 832.651 771.176
threshold=1.5000000000000002 1.0000000180025095e-35 -1.0000000180025095e-35 0.29295353982342714 2.5000000000000004 2.5000000000000004 2.5000000000000004 3.5000000000000004 2.5000000000000004 3.5000000000000004 7.0500000000000007 5.5000000000000009 1.0000000180025095e-35 3.5000000000000004 1.5000000000000002 1.5000000000000002 3.5000000000000004 2.5000000000000004 1.0000000180025095e-35 54.500000000000007 4.5000000000000009 3.5000000000000004 2.5000000000000004 1.5000000000000002 4.5000000000000009 5.5000000000000009 7.8515625000000009 -0.029485126107294059 3.5000000000000004 -0.176493601128587 4.5000000000000009 4.5000000000000009 35.500000000000007 2.5000000000000004 1.5000000000000002 3.5000000000000004 4.5000000000000009 2.5000000000000004 1.5000000000000002 2.5000000000000004
decision_type=2 2 2 2 2 2 2 2 2 2 2 2 2 2 2 2 2 2 2 8 2 2 2 2 2 2 10 2 2 2 2 2 8 2 10 2 2 2 2 2
left_child=1 2 23 4 35 -6 9 15 39 14 18 32 -13 24 -7 -4 25 -18 26 20 21 22 -20 28 -8 -17 29 -27 -1 -3 -21 -25 33 -5 -23 -2 -31 -38 -14 -9
right_child=3 10 7 11 5 6 13 8 -10 -11 -12 12 38 -15 -16 16 17 -19 19 30 -22 34 -24 31 -26 27 -28 -29 -30 36 -32 -33 -34 -35 -36 -37 37 -39 -40 -41
leaf_value=0.0024956640410194481 -6.079784433868629e-05 0.0033911865925724421 0.0019676438881018857 0.0016411396690211816 -5.9176948021713721e-05 0.0014671441936087671 -6.019937072463816e-05 0.00095595225150249237 0.0025893668566582717 0.00067374525847633247 0.0018794197143018319 0.0022654528253373881 0.00094251827592986559 0.0022727202268732305 0.0032662988026864567 -6.4428498053590842e-05 0.0026539357909459607 -5.9390710830721201e-05 0.0026742497776687381 0.0032091378170841043 0.0021078070923468977 0.0040408758546828481 0.0035066778533123823 0.0026372123913654243 0.0015572111084231556 0.0016472660023366902 0.00301482038550942 -4.8889445787607958e-05 0.0032598970558001339 0.0041819427277284991 0.0040857369488236615 0.0018600607846378026 -6.4161897674450396e-05 -5.9069165484744255e-05 0.0033669391100288747 0.00094796256958700766 0.0040620871674634596 0.0033865453056369718 -5.9388339634055168e-05 -5.7448345011955951e-05
leaf_count=2708 1103 555 351 307 827 544 979 305 576 455 367 558 311 456 614 4255 340 856 1436 326 606 534 1175 406 329 305 390 316 398 1039 671 2453 3523 816 535 309 560 699 853 652
internal_value=0 44.4897 25.459 14.2171 20.7524 24.8872 28.7795 11.6171 23.9719 36.8154 55.9762 6.98049 18.1762 17.7779 42.1516 7.70913 5.63407 18.5841 56.4503 53.5826 50.9106 52.5425 48.5262 36.6215 7.44854 1.47886 59.7689 14.8649 40.6644 60.6747 60.4879 30.9488 1.59842 8.71168 58.6178 3.14293 61.8498 58.4323 3.95668 4.94285
internal_count=34798 22814 13921 11984 5616 4204 3377 7956 1533 1613 8893 6368 1722 1764 1158 6423 6072 1196 8526 5283 4286 3680 2611 5965 1308 4876 3243 621 3106 2853 997 2859 4646 1123 1069 1412 2298 1259 1164 957
shrinkage=6.48745e-05


Tree=5
num_leaves=57
num_cat=0
split_feature=46 46 45 0 352 6 232 117 397 19 163 194 54 110 233 44 43 130 53 305 112 128 204 233 391 144 117 352 103 387 29 149 391 51 290 155 384 177 231 305 326 255 301 43 305 213 366 81 316 316 165 276 318 164 279 382
split_gain=85354.3 41776.4 38330.5 13391.6 9704.14 8801.65 7884.63 7847.66 7830.54 7828.22 8268.89 6718.74 6461.47 7869.78 6424.96 5892.95 8855.89 8120.48 5840.87 5123.65 5904.1 5667.26 5788.2 4884.48 4777.39 5434.55 8442.32 4781.14 4476.65 4277.58 4054.64 4038.22 4498.83 3739.67 3713.18 3108.86 3068.07 2933.22 2850.08 3281.52 2499.86 2380.33 2076.93 1942.03 1938.92 2421.54 4134.38 1858.14 1486.38 1200.96 867.922 603.542 2491.54 562.96 211.223 195.117
threshold=2.5000000000000004 1.5000000000000002 1.5000000000000002 2.5000000000000004 1.0000000180025095e-35 16.500000000000004 2.5000000000000004 2.5000000000000004 0.11695493537479391 3.5000000000000004 1.0000000180025095e-35 2.5000000000000004 2.5000000000000004 2.5000000000000004 2.5000000000000004 5.5000000000000009 4.5000000000000009 3.5000000000000004 5.5000000000000009 3.5000000000000004 1.5000000000000002 3.5000000000000004 2.5000000000000004 2.5000000000000004 -0.069488906514260582 2.5000000000000004 2.5000000000000004 4.5000000000000009 2.5000000000000004 -0.52321121572558471 2.5000000000000004 1.0000000180025095e-35 0.1396845843515146 4.5000000000000009 3.5000000000000004 1.5000000000000002 0.073824444975350276 2.5000000000000004 2.5000000000000004 1.5000000000000002 1.5000000000000002 1.5000000000000002 2.5000000000000004 1.0000000180025095e-35 2.5000000000000004 2.5000000000000004 2.5000000000000004 4.5000000000000009 1.0000000180025095e-35 1.0000000180025095e-35 4.5000000000000009 1.5000000000000002 6.5000000000000009 525.50000000000011 2.5000000000000004 -0.68701728782642568
decision_type=2 2 2 2 2 2 2 2 2 2 2 2 2 2 2 2 2 2 2 2 2 2 2 2 2 2 2 2 2 2 2 2 2 2 2 2 2 2 2 2 2 2 2 2 2 2 2 2 2 2 2 2 8 10 2 2
left_child=1 6 9 19 29 15 7 18 28 35 12 14 13 34 -8 24 30 -18 -1 31 21 22 -21 -24 25 27 -27 -6 43 -3 -17 38 -33 44 54 -2 -13 48 41 -40 -36 -4 -39 -9 51 46 -46 -5 -26 -47 -43 55 -53 -12 -11 -31
right_child=2 4 3 47 5 -7 11 8 -10 10 53 36 -14 -15 -16 16 17 -19 -20 20 -22 -23 23 -25 37 26 -28 -29 -30 33 -32 32 -34 -35 40 -37 -38 42 39 -41 -42 50 -44 -45 45 49 -48 -49 -50 -51 -52 52 -54 -55 -56 -57
leaf_value=-7.1920032197175348e-05 0.0021400326414415726 0.0027711677308509533 0.0014520683908441361 0.0038508128355446919 0.0039844524159418455 -6.0532751611970859e-05 -6.2382510136994659e-05 0.0031292006541855212 -6.0047413718953657e-05 0.0033356217718061975 0.0011710093841749518 0.0019942306354800922 0.0045499334265640644 -6.5660831180343972e-05 0.0034546060594875978 -7.0082126603563446e-05 0.0043799903771605617 0.00097488516893041153 0.0027939936346796997 -6.0794176899009887e-05 -7.2527818537787848e-05 -6.6805493333715792e-05 0.0041200829075232733 0.0015421508427937375 0.0050043782213225231 0.0036780626320996883 0.0005643738236910474 0.0017240673532556881 0.00221326403384249 0.0046141960819892774 0.0025616171259178443 -6.3659663141011391e-05 0.0030013962676552338 0.0025614797540860642 0.0031238251301483832 -6.99912805362599e-05 -7.6293238095711193e-05 0.0041478839419940945 0.0026006408083276357 -6.4234646258731651e-05 0.0023337669649520529 -7.9609492874708403e-05 0.0025554950307585546 0.0046443805058634961 0.0022568271551717187 0.0048469912985620589 0.0043240525820447823 0.0019938836391422969 0.0039897952582754496 0.0039575423252832774 0.00089451826937489442 0.0048980569430549913 0.0035768169568036168 -6.1507076514299893e-05 0.0040633901535359332 0.0052710941353944721
leaf_count=725 416 446 478 315 2062 314 350 364 310 374 306 308 332 427 414 593 436 371 357 323 784 464 337 447 483 392 665 370 535 321 307 378 318 305 2511 599 1411 379 307 392 2240 4787 415 357 504 538 357 310 471 560 420 514 466 334 494 305
internal_value=0 45.6111 25.6781 14.0946 49.7816 45.3115 27.4278 34.4833 41.578 35.0914 37.0025 16.488 38.5892 36.3871 31.6656 46.1057 35.0208 45.7274 16.5722 10.8494 20.2465 26.9851 33.4534 40.0597 48.4797 43.9377 29.8759 47.6175 45.6719 54.8053 15.0166 6.95265 23.3836 55.8876 37.7775 13.7117 5.58915 54.3761 4.47126 18.7472 35.0302 2.15929 44.7918 52.0949 56.7362 52.7679 44.3405 40.3647 58.5861 56.6209 0.165026 59.9336 56.4951 7.48819 47.7704 63.162
internal_count=34798 16705 18093 10060 11574 7258 5131 2648 1566 8033 7018 2483 6378 6046 764 6944 1707 807 1082 9435 2355 1571 1107 784 5237 3489 1057 2432 1256 4316 900 7080 696 3870 5619 1015 1719 1748 6384 699 4751 5685 794 721 3565 1959 861 625 954 1098 5207 1606 980 640 868 626
shrinkage=7.99778e-05


Tree=6
num_leaves=44
num_cat=0
split_feature=56 56 282 388 353 340 130 390 144 29 291 98 55 164 238 159 239 96 194 384 155 320 75 326 325 217 280 383 320 128 320 325 233 340 182 10 273 264 314 381 364 397 177
split_gain=131743 148542 40203.8 8733.4 6579.85 7762.64 6061.54 5787.12 8848.59 5784.6 5736.82 7857.05 6032.03 5662.91 5651.66 8450.81 4948.71 4176.64 4847.4 4156.69 3871.84 3209.91 4410.92 3031.94 5005.71 2782.58 3881.66 2692.64 2425.36 2312.77 2479.15 2255.56 1731.75 1975.14 1958.07 1129.27 1105.8 854.798 773.765 768.153 469.635 413.984 129.717
threshold=1.5000000000000002 1.0000000180025095e-35 -1.0000000180025095e-35 0.29295353982342714 2.5000000000000004 3.5000000000000004 4.5000000000000009 0.30933078952466581 2.5000000000000004 5.5000000000000009 4.5000000000000009 2.5000000000000004 4.5000000000000009 555.50000000000011 3.5000000000000004 2.5000000000000004 4.5000000000000009 1.5000000000000002 1.5000000000000002 0.10643219241380118 2.5000000000000004 2.5000000000000004 5.5000000000000009 1.5000000000000002 1.5000000000000002 3.5000000000000004 4.5000000000000009 -0.5349577955232433 3.5000000000000004 1.5000000000000002 3.5000000000000004 1.5000000000000002 1.5000000000000002 4.5000000000000009 1.5000000000000002 4.5000000000000009 4.5000000000000009 2.5000000000000004 2.5000000000000004 0.24033095517990902 5.5000000000000009 -0.021916852607283262 1.5000000000000002
decision_type=2 2 2 2 2 2 2 2 2 2 2 2 2 8 2 2 2 2 2 2 2 10 2 2 2 2 2 2 10 2 10 2 2 2 2 10 2 2 8 2 2 2 2
left_child=1 2 23 4 5 6 10 27 21 16 11 38 -12 -11 17 39 35 -4 19 -19 -14 22 -9 24 -1 -20 -27 -3 -8 -29 32 -25 34 -34 -31 -5 42 -7 -2 -16 -26 -33 -32
right_child=3 7 14 9 -6 37 28 8 -10 13 12 -13 20 -15 15 -17 -18 18 25 -21 -22 -23 -24 31 40 26 -28 29 -30 30 36 41 33 -35 -36 -37 -38 -39 -40 -41 -42 -43 -44
leaf_value=0.0034866690472452936 -6.425791800425595e-05 0.0026489017898976602 0.0021657308871421768 -7.1797323598677074e-05 -6.6924197196432318e-05 0.0010570833671182868 -6.4298152349942463e-05 0.0035441621149729344 0.00073733670937613011 0.002789237316642637 0.00088324403272703391 0.0029168637468690761 0.003986438712689098 -5.9657647427262234e-05 0.0010583749286391679 0.0028396114040063363 0.0018048338794055525 -5.6706483471902258e-05 -7.1678662016170928e-05 0.0026234323790072594 0.0018050626703250792 0.0042269170068616633 0.00099675029477328762 0.0014123973406438089 0.0028890966215858321 0.0021853243288531055 -6.3889436366528792e-05 0.0045497467507570385 0.0018072605139848534 0.0022430090326322205 0.0046806877770161643 0.0029727430094202154 0.0040440120151398551 0.0031533180334955731 0.0036248250830056171 0.0010472898929158553 0.0035454278428067218 -6.6368980842765012e-05 0.0010524750202098553 -6.3912490986179889e-05 0.0022170835285772669 0.0023165606874891837 0.0042517494857886723
leaf_count=1087 674 309 351 4781 973 305 678 318 455 370 374 406 398 442 306 576 466 361 4379 336 305 319 316 861 332 345 651 601 307 312 315 315 3257 538 1085 309 309 891 305 651 1687 1683 759
internal_value=0 43.7333 25.1825 14.1065 20.5565 23.6144 28.1229 54.8185 43.5526 6.93781 32.8256 21.2365 41.8463 24.4356 11.5434 23.7455 3.24866 7.66724 5.60515 23.3029 48.4349 49.5708 39.042 36.0895 40.0093 2.33252 14.0108 56.0331 9.76113 56.4198 55.3403 30.568 53.4683 54.9819 47.6819 0.189783 59.9808 3.8034 4.76634 4.91933 32.7544 34.0179 61.4879
internal_count=34798 22814 13921 11984 5616 4643 3447 8893 1408 6368 2462 1385 1077 812 7956 1533 5556 6423 6072 697 703 953 634 5965 3106 5375 996 7485 985 7176 6575 2859 5192 3795 1397 5090 1383 1196 979 957 2019 1998 1074
shrinkage=7.21279e-05


Tree=7
num_leaves=42
num_cat=0
split_feature=56 56 380 77 399 239 64 340 90 159 311 142 236 122 173 79 318 188 371 90 77 6 317 81 49 133 340 139 79 289 359 325 318 14 386 350 298 287 141 394 100
split_gain=133819 151689 41268.7 9870.28 7254.86 5991.92 5297.11 5761.81 5266.91 5146.23 5653.38 9602.54 4816.49 8192.72 4778.42 4675.04 4557.16 4295.95 3995.57 5152.41 3725.89 3811.54 5858.53 3350.94 2251.12 3326.6 10879.3 2080.14 1969.95 1710.53 2224.87 1759.65 1657.52 1297.26 1294.63 1195.84 1180.81 1005.06 931.112 927.078 839.469
threshold=1.5000000000000002 1.0000000180025095e-35 2.6944424325165039 1.5498046875000002 -0.002896962323818308 4.5000000000000009 1.5000000000000002 4.5000000000000009 7.0500000000000007 4.5000000000000009 2.5000000000000004 1.5000000000000002 1.5000000000000002 3.5000000000000004 1.5000000000000002 54.500000000000007 9.5000000000000018 3.5000000000000004 1.5000000000000002 3.6500000000000008 1.7500000000000002 13.500000000000002 2.5000000000000004 4.5000000000000009 5.5000000000000009 1.5000000000000002 4.5000000000000009 2.5000000000000004 53.500000000000007 4.5000000000000009 2.5000000000000004 1.5000000000000002 2.5000000000000004 3.5000000000000004 0.3815007761906124 2.5000000000000004 2.5000000000000004 4.5000000000000009 2.5000000000000004 0.13152035931509634 3.5000000000000004
decision_type=2 2 2 2 2 2 2 2 2 2 2 2 2 2 2 8 10 2 2 2 2 2 2 2 2 2 2 2 8 2 2 2 10 2 2 2 2 2 2 2 2
left_child=1 2 9 5 6 12 7 14 20 10 11 18 13 39 -5 -7 -12 -8 -1 -20 21 24 -23 35 28 36 -27 -14 33 30 31 -4 -29 -3 -30 -16 -26 38 -22 -2 -6
right_child=3 8 29 4 40 15 17 -9 -10 -11 16 -13 27 -15 23 -17 -18 -19 19 -21 37 22 -24 -25 25 26 -28 32 34 -31 -32 -33 -34 -35 -36 -37 -38 -39 -40 -41 -42
leaf_value=-2.9110137598978246e-05 -2.8620719401971283e-05 0.0016833624019792189 0.0012632102769829857 0.00037122115652956392 -2.7725168660407119e-05 0.0012156125594656238 -2.7310507289707888e-05 -2.2946282746309354e-05 0.00087409334078075598 0.00093566517498631539 -3.0133002278634002e-05 0.0012135396389782434 -3.0238274172258143e-05 0.0010685713171270006 0.0016810266219998049 -2.2717080855232506e-05 0.00066881701426085112 0.00095333252074769246 -2.5611809561632587e-05 0.0011282990817686077 0.0018588204079750172 0.00067935626856998525 0.0016349113843649764 0.00069824402466877548 0.0014783568947035373 0.0015256879893308427 -2.3588447747894149e-05 -2.326111938012845e-05 0.0018910311180526745 0.0013973836726492508 0.00055614574457529202 0.001006333715979815 0.00075335046694772741 0.0013114063747699488 0.0015142812501915499 0.001154752655031099 0.0018930302030246127 0.0019712121092304398 0.0014895076979648172 0.0004468847890868514 0.00044751035428306456
leaf_count=1534 1180 1248 1480 377 829 351 728 316 367 569 4007 498 4794 547 324 306 568 325 487 326 347 533 340 347 329 1982 333 331 1191 547 467 3438 313 452 347 306 427 592 405 305 305
internal_value=0 44.1172 25.333 14.1766 23.4246 8.49646 28.6819 34.9363 55.3924 11.5451 9.29691 17.4961 5.88988 15.8655 38.9536 28.2646 2.89642 13.3583 8.38094 20.9442 55.8579 54.1661 41.8082 44.0603 55.1626 51.6197 47.5486 1.22329 57.6144 36.4712 35.0655 36.1461 14.3438 53.2514 60.7047 49.6899 58.7591 61.5834 56.7316 2.94291 4.07368
internal_count=34798 22814 13921 11984 3857 8127 2723 1670 8893 7989 7420 2845 7470 2032 1354 657 4575 1053 2347 813 8526 7182 873 977 6309 3071 2315 5438 3238 5932 5385 4918 644 1700 1538 630 756 1344 752 1485 1134
shrinkage=3.03774e-05


Tree=8
num_leaves=38
num_cat=0
split_feature=56 56 157 77 396 399 239 390 77 10 311 142 90 64 232 173 236 122 204 145 350 291 194 289 383 128 320 392 229 229 363 79 209 273 326 164 79
split_gain=129928 145943 40025.3 9728.24 7338.82 7132.94 5930.56 5692.04 8169.81 7360.4 5611.47 9009.83 6362.21 5188.1 4903.94 4797.88 4782.75 8102.13 4192.67 3182.33 3136.42 5316.72 2698.29 2715.4 2629.55 2244.92 2415.63 2332.01 2037.28 1915.7 1833.54 1745.23 1086.96 1070.18 1009.05 922.995 834.607
threshold=1.5000000000000002 1.0000000180025095e-35 1.5000000000000002 1.5498046875000002 -0.047964915494848846 -0.002896962323818308 4.5000000000000009 0.30933078952466581 1.3500976562500002 3.5000000000000004 2.5000000000000004 1.5000000000000002 4.6500000000000012 1.5000000000000002 2.5000000000000004 1.5000000000000002 1.5000000000000002 3.5000000000000004 3.5000000000000004 4.5000000000000009 1.5000000000000002 4.5000000000000009 1.5000000000000002 4.5000000000000009 -0.5349577955232433 1.5000000000000002 3.5000000000000004 0.70575461682571838 1.0000000180025095e-35 4.5000000000000009 4.5000000000000009 52.500000000000007 1.5000000000000002 4.5000000000000009 1.5000000000000002 763.50000000000011 17.500000000000004
decision_type=2 2 2 2 2 2 2 2 2 10 2 2 2 2 2 2 2 2 2 2 2 2 2 2 2 2 10 2 2 2 2 8 2 2 2 10 10
left_child=1 2 4 6 -1 13 16 24 9 -9 11 12 -4 15 -8 -5 17 35 -15 32 -17 -22 23 30 -3 -26 27 29 31 -27 34 -18 -12 -28 -6 -2 -7
right_child=3 7 10 5 22 36 14 8 -10 -11 19 -13 -14 18 -16 20 28 -19 -20 -21 21 -23 -24 -25 25 26 33 -29 -30 -31 -32 -33 -34 -35 -36 -37 -38
leaf_value=-6.0594824465626754e-05 -6.9146987534092808e-05 0.0026821829910102378 -7.0782059282174629e-05 0.000746915910123259 0.0028440394817978686 0.0010750845615804334 0.0029619225460610953 0.0029539754464349617 0.0041215749047112315 -6.1578240955524629e-05 0.001049214791379932 0.0028836888596218864 0.0021076068406245731 -6.5948300999583344e-05 -5.5730807094896073e-05 0.0035126443364300718 0.0018397272794779347 0.0025591005121301919 0.0022643382076045523 0.0017934435596124716 -5.7323420965565046e-05 0.002992834931346066 0.0013019851484230857 0.0035065817994910315 0.0045880291119448826 0.0039999402288693146 0.0044737684406350149 0.0026023257416707226 -7.3035472769640569e-05 0.003088647082612033 0.0014154368823353016 -5.7195412993765235e-05 -7.2654419921808439e-05 0.0035836864063183154 0.0023776870417589421 0.0010744416841808569 -6.69826962437108e-05
leaf_count=438 1180 309 1732 459 2556 305 337 526 420 462 314 505 506 723 320 539 305 547 330 318 350 322 493 568 601 4347 1074 325 4783 520 430 350 3691 309 2370 305 829
internal_value=0 43.4795 25.1042 14.0885 34.677 23.2258 8.45502 54.4126 43.2728 28.7083 9.68436 17.8877 8.72549 28.4017 28.0431 34.5478 5.86273 15.7721 13.2712 3.09427 39.5284 27.4271 35.9044 36.8678 55.6123 55.9927 54.9309 53.0868 1.21615 53.6933 35.0754 14.0667 0.506628 59.4976 36.0194 2.9281 4.05689
internal_count=34798 22814 13921 11984 6855 3857 8127 8893 1408 988 7066 2743 2238 2723 657 1670 7470 2032 1053 4323 1211 672 6417 5924 7485 7176 6575 5192 5438 4867 5356 655 4005 1383 4926 1485 1134
shrinkage=7.33679e-05


Tree=9
num_leaves=47
num_cat=0
split_feature=56 56 380 108 293 130 390 164 232 260 238 113 390 144 397 196 301 295 97 321 238 33 299 381 135 318 191 51 139 116 363 371 19 316 379 255 370 151 7 236 188 386 74 164 277 398
split_gain=127486 142419 39716.9 6443.54 8084.65 7219.18 7945.06 7183.87 6443.04 5874.36 5604.32 6445.56 5515.37 8593.65 5316.86 4918.64 5084.72 4900.17 4634.84 4423.01 4160.75 3610.96 4972.43 5138.47 3588.73 3005.48 2540.78 2456.76 1669.64 1823.64 1626.09 1580.14 1223.19 1181.01 3642.24 4630.79 1514.61 1163.73 1087.91 1022.37 2667.6 916.367 823.524 782.835 716.501 140.581
threshold=1.5000000000000002 1.0000000180025095e-35 2.6944424325165039 1.0000000180025095e-35 5.5000000000000009 4.5000000000000009 -0.036366427162772809 609.50000000000011 2.5000000000000004 3.5000000000000004 3.5000000000000004 2.5000000000000004 0.30933078952466581 2.5000000000000004 -0.10316248628889732 2.5000000000000004 2.5000000000000004 4.5000000000000009 4.5000000000000009 5.5000000000000009 2.5000000000000004 5.5000000000000009 4.5000000000000009 0.36205807291224551 1.5000000000000002 1.5000000000000002 4.5000000000000009 5.5000000000000009 1.5000000000000002 3.5000000000000004 2.5000000000000004 1.0000000180025095e-35 4.5000000000000009 1.0000000180025095e-35 1.0000000180025095e-35 2.5000000000000004 41.500000000000007 1.0000000180025095e-35 27.500000000000004 1.5000000000000002 3.5000000000000004 0.060575923489484686 3.5000000000000004 460.50000000000006 4.5000000000000009 0.033176413845285399
decision_type=2 2 2 2 2 2 2 8 2 2 2 2 2 2 2 2 2 2 2 2 2 2 2 2 2 10 2 2 2 2 2 2 2 2 2 2 10 2 8 2 2 2 2 8 2 2
left_child=1 2 10 5 39 6 8 14 9 18 15 24 21 25 -6 16 -1 43 -2 -18 -16 33 23 -23 -12 -14 38 28 29 -24 -4 -20 -32 44 35 -35 -37 -30 -17 40 -5 -7 -8 -10 -3 -34
right_child=3 12 30 4 7 41 42 -9 17 -11 11 -13 13 -15 20 26 19 -19 31 -21 -22 22 27 -25 -26 -27 -28 -29 37 -31 32 -33 45 34 -36 36 -38 -39 -40 -41 -42 -43 -44 -45 -46 -47
leaf_value=-7.2354761167002954e-05 0.0044141441755751569 0.0049263371931627213 0.0036260984274319027 -7.4312926173148675e-05 -6.1921959695390166e-05 0.0011725434386648944 -7.3634716914370568e-05 -7.3398336761118778e-05 0.0011656868986792666 0.00085082448939060445 -7.3134998075540788e-05 0.0034602946916970148 0.0027450009644422527 0.00081824748203357162 0.001113627691124578 -8.0030437686480922e-05 0.00072036549951943064 0.0027866203410104192 0.0030379365380208872 0.0032312862414936088 0.0038726150242322172 0.0037525640340969773 0.0048227955858472643 0.00091356344933956864 0.0021767675152484754 0.0044071611868917874 0.0016041966000426373 0.0033442972276707256 0.0043590844755172454 0.0036075172768961945 0.0016704359014427593 0.0011493436118292842 0.0027926734517790637 0.0023979572434775624 0.0050970820662869969 0.0045386115513009941 0.0035157857593033233 0.003327192661754646 0.0011444342150945612 -7.9797950880583821e-05 0.00199972340714369 -7.6047431125431767e-05 0.001169378261216306 -7.2469992888920279e-05 0.0042729414197282866 0.0033144278595603508
leaf_count=713 340 1353 552 907 331 306 824 804 306 439 777 350 445 455 325 4052 532 360 305 412 352 350 932 391 410 508 425 586 402 337 387 311 4688 439 354 883 465 532 318 3557 310 1182 306 719 461 305
internal_value=0 43.1042 24.977 14.0474 8.18979 19.8619 24.3428 20.9513 29.5605 37.7703 11.4597 23.565 53.8283 42.9021 30.9742 7.61114 18.5393 16.2103 43.7136 27.6643 38.3927 55.0021 50.9988 35.4329 11.9304 48.7632 2.7128 53.1337 54.8739 57.6851 35.7637 28.9766 34.4021 57.4603 54.5859 50.4273 53.4308 48.6222 0.383375 1.51702 7.9721 2.90553 4.04274 4.51256 59.78 35.1552
internal_count=34798 22814 13921 11984 6586 5398 3910 1812 2780 1395 7989 1537 8893 1408 1008 6452 1657 1385 956 944 677 7485 3530 741 1187 953 4795 2789 2203 1269 5932 616 5380 3955 2141 1787 1348 934 4370 4774 1217 1488 1130 1025 1814 4993
shrinkage=8.06534e-05


Tree=10
num_leaves=39
num_cat=0
split_feature=56 56 380 388 353 173 122 29 211 238 159 225 181 90 204 246 74 232 316 372 336 164 177 326 264 127 301 371 120 289 330 387 97 361 10 361 213 164
split_gain=125112 139018 39144.6 8554.93 6455.42 6093.76 5966.16 5715.33 5828.95 5555.91 8274.84 5343.61 8367.48 4895.15 4488.41 3694.37 5109.26 5673.27 3166.33 3096.4 3348.66 3038.58 2986.28 2774.77 2757.09 2558.4 2266.38 1852.5 1449.16 1344.6 1343.91 1347.65 1624.1 1281.87 1127.52 1007.45 796.692 764.887
threshold=1.5000000000000002 1.0000000180025095e-35 2.6944424325165039 0.29295353982342714 2.5000000000000004 1.5000000000000002 1.5000000000000002 5.5000000000000009 1.5000000000000002 3.5000000000000004 2.5000000000000004 2.5000000000000004 3.5000000000000004 7.0500000000000007 4.5000000000000009 4.5000000000000009 4.5000000000000009 2.5000000000000004 1.0000000180025095e-35 29.500000000000004 4.5000000000000009 512.50000000000011 1.0000000180025095e-35 1.5000000000000002 1.5000000000000002 4.5000000000000009 4.5000000000000009 2.5000000000000004 2.5000000000000004 3.5000000000000004 1.0000000180025095e-35 -0.23989571862380313 7.5000000000000009 1.0000000180025095e-35 4.5000000000000009 2.0000000000000004 3.5000000000000004 356.50000000000006
decision_type=2 2 2 2 2 2 2 2 2 2 2 2 2 2 2 2 2 2 2 8 2 10 2 2 2 2 2 2 2 2 2 2 2 2 8 2 2 8
left_child=1 2 9 4 5 24 -7 14 -9 15 37 12 22 18 34 16 25 -18 30 20 26 -14 -8 29 -2 -1 28 35 -20 -4 31 -3 36 -25 -5 -21 -33 -11
right_child=3 13 23 7 -6 6 11 8 -10 10 -12 -13 21 -15 -16 -17 17 -19 19 27 -22 -23 -24 33 -26 -27 -28 -29 -30 -31 -32 32 -34 -35 -36 -37 -38 -39
leaf_value=-7.3463239954871969e-05 0.0018248943300778764 0.0034673172535636741 0.0027446495358474017 -7.3527701228661145e-05 -6.8558065866155442e-05 0.0033324550185413436 0.001782994808544505 0.0028719947023000845 -6.1535559301096091e-05 0.0010774630410653335 0.0028642553722761188 0.0029404447827496905 0.0010469182688433388 0.0020648029544978381 0.0017048431972214485 0.0020537699516262296 0.0025395326979902148 -6.4631055237085249e-05 0.0030791421496914268 0.0037665345102928204 0.0025108950236938424 0.0033118665796054905 -7.0689536801179693e-05 0.0020622213309046127 -6.8791537457252042e-05 0.0012956806030337007 0.0025844050520891192 0.0033362010458329178 0.0038720366789995442 0.0035604427200026873 0.0035771084653998864 0.0042009358055983487 0.0033671339059482622 0.0029784175498712233 0.0010718533280565394 0.0046453296888422499 0.0046337136171577635 -6.5552823013670234e-05
leaf_count=4499 307 370 2706 4730 973 453 316 358 454 305 576 476 312 367 519 392 463 598 563 315 604 307 1466 2444 1006 500 410 364 2651 398 571 1332 306 384 307 376 664 656
internal_value=0 42.736 24.8511 14.0066 20.349 23.3491 27.6925 6.91204 24.2225 11.4321 23.4533 22.5967 16.6969 53.2574 3.23948 7.59848 5.59423 20.1135 53.6956 51.0681 48.6555 34.9732 5.30402 35.5086 7.31561 1.40384 50.0634 57.0436 51.1264 39.2203 56.7235 57.7518 58.6412 30.2325 0.200471 59.806 59.5615 4.87143
internal_count=34798 22814 13921 11984 5616 4643 3330 6368 812 7989 1537 2877 2401 8893 5556 6452 6060 1061 8526 5283 4228 619 1782 5932 1313 4999 3624 1055 3214 3104 3243 2672 2302 2828 5037 691 1996 961
shrinkage=7.38779e-05


Tree=11
num_leaves=50
num_cat=0
split_feature=56 56 380 77 399 395 390 144 77 123 323 352 118 382 29 192 126 261 353 33 299 386 81 86 279 292 273 326 325 325 49 79 133 92 79 389 155 393 79 393 174 100 158 399 75 358 397 307 393
split_gain=127585 142583 39728.1 9639.3 7051.62 6660.14 5440.37 8516.64 5435.8 5153.18 5338.32 5107 6726.58 5480.29 5065.01 5677.56 4021.1 5425.98 3898.28 3551.1 4893.76 4756.79 3325.01 3225.45 4157.09 5446.44 2879.37 2839.8 4831.63 2122.58 2062.5 1862.49 1582.52 1571.61 6790.81 1501.02 1428.5 1304.22 1059.44 1371.99 866.602 833.556 691.473 613.481 589.32 571.288 464.031 243.575 226.29
threshold=1.5000000000000002 1.0000000180025095e-35 2.6944424325165039 1.5498046875000002 -0.002896962323818308 0.58933619581645591 0.30933078952466581 2.5000000000000004 1.2500000000000002 3.5000000000000004 2.5000000000000004 4.5000000000000009 3.5000000000000004 -0.84488110153804497 5.5000000000000009 3.5000000000000004 1.5000000000000002 3.5000000000000004 2.5000000000000004 5.5000000000000009 4.5000000000000009 0.34590665588247449 4.5000000000000009 5.5000000000000009 2.5000000000000004 1.5000000000000002 3.5000000000000004 1.5000000000000002 1.5000000000000002 1.5000000000000002 6.5000000000000009 40.500000000000007 1.5000000000000002 6.5000000000000009 34.500000000000007 0.59541762514155583 2.5000000000000004 -0.01885269021113475 55.500000000000007 -0.01885269021113475 2.5000000000000004 3.5000000000000004 2.5000000000000004 -0.0035962098311932002 5.5000000000000009 2.5000000000000004 0.02238655597517317 1.5000000000000002 -0.010523628790493482
decision_type=2 2 2 2 2 2 2 2 2 2 2 2 2 2 2 2 2 2 2 2 2 2 2 2 2 2 2 2 2 2 2 10 2 10 10 2 2 2 8 2 2 2 2 2 2 2 2 2 2
left_child=1 2 11 5 9 14 19 8 26 10 -5 13 43 -1 16 -16 17 40 22 30 21 -21 31 24 25 -15 -8 28 -4 -29 38 -12 -32 34 -22 48 -36 -35 39 -3 -2 -6 -39 -13 -11 -30 -31 -41 -34
right_child=3 6 27 4 41 -7 7 -9 -10 44 18 12 -14 23 15 -17 -18 -19 -20 20 33 -23 -24 -25 -26 -27 -28 29 45 46 32 -33 35 37 36 -37 -38 42 -40 47 -42 -43 -44 -45 -46 -47 -48 -49 -50
leaf_value=0.0012072386980801265 0.0005622423830337768 0.0019191300947678307 0.0018752951827427343 0.00034171621877075828 -3.5921825050577131e-05 0.0013693010807425241 0.0017062939345560469 0.00040241756160290558 0.0023193114358150543 -3.1253647316663163e-05 0.0020795362878019744 -3.1750554255303037e-05 0.0016918834702822638 0.00015432276079910308 0.0014265810387458892 -3.3643699855251655e-05 -3.9207903262396553e-05 0.0012989417950663854 0.00049326301474173179 0.0018104894552555385 0.00077764801621328812 0.00046237416470333727 0.00083486602455038372 -3.8757887684698502e-05 -3.7604669298700115e-05 0.0011538862312246514 0.0005458805867150691 0.00077486005810544975 0.0011927220806229636 0.0016216759497055294 0.0023127806925689678 0.0013244445228526526 0.0021609770894723515 0.0019389106118570371 0.002235118334465686 0.0014174910974205563 0.0016961771461763996 0.00248784059998925 0.002436840381705197 0.0024361302678944062 -3.6706740641038588e-05 0.00057589809506740819 0.0021211382915153651 0.00057410510002376834 0.0005705584028639375 0.0015857348761284266 0.0012508722246210922 0.002143004407424454 0.0017858960424817177
leaf_count=449 314 612 1087 544 829 359 323 455 317 370 384 397 351 1169 416 521 5083 394 364 362 396 379 380 3000 1454 864 313 844 1697 306 364 376 329 637 530 389 424 309 1117 381 1040 305 493 305 305 320 1678 441 322
internal_value=0 43.1181 24.9802 14.0483 23.1189 8.44005 53.8516 42.9828 48.8036 28.2412 32.5385 11.4607 25.7472 8.48166 6.27807 21.9866 3.30793 13.4178 37.3236 55.0173 51.0407 35.558 41.4249 6.00463 11.0698 17.5969 33.9648 35.7695 39.5401 30.4203 57.4567 46.5724 52.103 53.1573 48.3549 47.5744 52.81 56.1655 59.326 56.0451 3.28818 4.05414 59.2091 6.79771 7.0138 32.4351 33.7413 59.0227 51.4217
internal_count=34798 22814 13921 11984 3857 8127 8893 1408 953 2723 2048 7989 1053 6936 7768 937 6831 1748 1504 7485 3530 741 1140 6487 3487 2033 636 5932 3104 2828 3955 760 1404 2789 1350 1040 954 1439 2551 1434 1354 1134 802 702 675 2017 1984 822 651
shrinkage=3.93446e-05


Tree=12
num_leaves=37
num_cat=0
split_feature=45 96 390 199 381 121 51 164 388 6 83 70 63 16 164 240 299 36 380 173 202 21 235 148 428 107 388 212 203 164 324 326 164 362 171 318
split_gain=64004.8 13743.6 12087.7 10479.4 10451.9 11556.1 10238 9877.41 7276.42 7063.72 6387.78 6210.53 5823.85 5102.2 5042.72 4861.73 8617.66 4807.6 4780.6 4766.13 4483.51 5989.94 4542.53 4226.95 3695.13 3719.27 7276.57 3588.34 3254.45 2464.42 2227.65 1767.33 1716.37 1351.89 1037.87 788.444
threshold=3.5000000000000004 2.5000000000000004 0.30933078952466581 3.5000000000000004 -0.29894698238937017 1.5000000000000002 5.5000000000000009 402.50000000000006 0.6219799876246942 16.500000000000004 1.5000000000000002 9.5000000000000018 3.5000000000000004 2.5000000000000004 612.50000000000011 3.5000000000000004 4.5000000000000009 2.5000000000000004 -2.0791129549029868 2.5000000000000004 4.5000000000000009 4.5000000000000009 1.5000000000000002 1.5000000000000002 1.0000000180025095e-35 4.5000000000000009 -0.30440481136923975 1.5000000000000002 3.5000000000000004 748.50000000000011 1.5000000000000002 1.5000000000000002 736.50000000000011 3.5000000000000004 4.5000000000000009 2.5000000000000004
decision_type=2 2 2 2 2 2 2 8 2 2 2 2 2 2 8 2 2 2 2 2 2 2 2 2 2 2 2 2 2 8 2 2 10 2 2 10
left_child=2 10 4 9 5 13 12 -8 11 15 18 -9 24 33 -13 16 -4 20 23 -18 22 -22 -3 -2 25 27 -27 -6 -17 -7 -24 -15 -10 -1 -32 -5
right_child=1 17 3 35 6 29 7 8 32 -11 -12 14 -14 31 -16 28 19 -19 -20 -21 21 -23 30 -25 -26 26 -28 -29 -30 -31 34 -33 -34 -35 -36 -37
leaf_value=0.00256363584967191 0.0025533512145210768 0.0013015784180035292 -4.2084169020347162e-05 -4.3608379358486973e-05 0.0021752941543717254 -4.35889630950733e-05 -4.2626303663839416e-05 0.0025996506962109841 -3.8416722416587488e-05 -3.9305563999545035e-05 -3.8179197710600707e-05 -3.7385626289488683e-05 0.0010247869751234717 0.0018055228867906907 0.0018115413086496541 0.0026180626072991381 0.0022329219212350528 0.0015419989457450603 0.00057883607995667388 0.00059871154979037168 0.0018612615444503591 -4.0479114625718649e-05 0.00084771934329220221 0.0012244073636184273 0.001194882625360573 -3.7643118437154451e-05 0.0019822551835654363 0.0025203930324522875 0.00139225838694005 0.0011706260685812916 -4.7748797463414962e-05 0.0014199279236242026 0.0011528169392759104 0.0018460672496153033 0.00064831943267397853 0.00068365049700372502
leaf_count=422 376 407 587 768 8741 768 633 394 371 413 369 334 553 2544 504 343 448 412 376 358 358 479 486 441 440 340 1375 2045 352 305 4240 2453 308 416 334 305
internal_value=0 16.8023 40.1209 28.0492 41.4 34.5667 43.5784 31.0161 36.18 33.8022 33.2668 42.4287 45.1093 37.1525 28.6376 37.0848 28.0765 10.7467 38.2775 37.9113 8.49603 23.6644 5.25816 44.0341 45.6294 46.0254 37.2687 47.0112 47.1115 8.81192 2.50312 34.0901 13.156 48.2407 0.315235 4.21083
internal_count=34798 8278 26520 3574 22946 6908 16038 2544 1911 2501 1562 1232 13494 5835 838 2088 1393 6716 1193 806 6304 837 5467 817 12941 12501 1715 10786 695 1073 5060 4997 679 838 4574 1073
shrinkage=4.80681e-05


Tree=13
num_leaves=51
num_cat=0
split_feature=56 56 157 77 396 399 395 51 311 127 137 390 144 77 19 29 192 393 214 323 123 126 261 81 33 359 51 79 350 194 363 326 325 325 312 211 49 92 79 137 79 393 287 316 385 133 390 45 92 255
split_gain=122474 134768 38195.9 9460.5 7034.01 6907.91 6534.45 5650.93 5512.37 5900.93 5820.91 5129.62 8238.09 5240.07 5032.22 4986.97 5566.91 4982.29 5348.47 4809.09 5089.15 3974.91 5321.34 3570.5 3394.15 3066.14 2909.35 4626.3 2730.68 2532.99 2395.72 2404.44 3600.98 2090.84 2015.72 4512.37 1979.75 1960.86 1608.03 1539.55 1019.85 1313.64 969.623 898.107 883.433 834.406 1848.59 825.898 283.124 267.4
threshold=1.5000000000000002 1.0000000180025095e-35 1.5000000000000002 1.5498046875000002 -0.047964915494848846 -0.002896962323818308 0.58933619581645591 5.5000000000000009 2.5000000000000004 4.5000000000000009 3.5000000000000004 0.30933078952466581 2.5000000000000004 1.2500000000000002 2.5000000000000004 5.5000000000000009 3.5000000000000004 -0.023859217750349767 3.5000000000000004 2.5000000000000004 3.5000000000000004 1.5000000000000002 3.5000000000000004 4.5000000000000009 5.5000000000000009 4.5000000000000009 2.5000000000000004 51.500000000000007 1.5000000000000002 1.5000000000000002 2.5000000000000004 1.5000000000000002 1.5000000000000002 1.5000000000000002 4.5000000000000009 1.5000000000000002 6.5000000000000009 6.5000000000000009 45.500000000000007 3.5000000000000004 55.500000000000007 -0.01885269021113475 2.5000000000000004 1.0000000180025095e-35 -0.33043182539924298 1.5000000000000002 -0.041903826807157353 3.5000000000000004 5.5000000000000009 2.5000000000000004
decision_type=2 2 2 2 2 2 2 2 2 2 2 2 2 2 2 2 2 2 2 2 2 2 2 2 2 2 2 8 2 2 2 2 2 2 2 2 2 8 10 2 8 2 2 2 2 2 2 2 10 2
left_child=1 2 4 6 -1 7 15 14 10 -10 17 24 13 28 -5 21 -17 -4 25 -16 23 22 44 -21 36 -19 34 -28 -13 30 -6 32 -32 -33 42 37 40 -36 -37 45 41 -3 -26 -43 -2 -38 -47 -7 -44 -42
right_child=3 11 8 5 29 47 -8 -9 9 -11 -12 12 -14 -15 19 16 -18 18 -20 20 -22 -23 -24 -25 26 -27 27 -29 -30 -31 31 33 -34 -35 35 38 39 -39 -40 -41 49 43 48 -45 -46 46 -48 -49 -50 -51
leaf_value=-6.5695441780504838e-05 0.0011490375320421919 0.0037745647718669577 -6.7383937626735194e-05 -6.1908895656968518e-05 0.0036544238020880253 -7.2587542083920356e-05 0.0027206170758025151 -6.6828961398885392e-05 -7.8773693617765193e-05 0.0022097143128032726 -7.3654628999533838e-05 0.0033528786587252446 0.00079750812848599978 0.0045640646390159422 0.00078391040411433062 0.0028342954233383107 -6.8024904248092932e-05 0.0017712404515327607 -6.2736795059874413e-05 0.0038438262848370171 0.00091495079157227202 -7.9160521571925238e-05 0.0025814139140663498 0.0017376205194376093 0.0036539224097437016 0.0036621001766586579 0.0010301221283011658 0.0036758380301770911 0.0010888394373502858 0.0013899487896876844 0.0036113784473615182 0.0013759435138953145 0.0025035868447608298 0.0025689454109694859 0.0033243156708229146 0.0034320323518442254 0.004636874291986429 0.0015840286612399434 0.0045425251686744455 0.0031659168911821215 0.0043134190216439451 0.0048892591091541067 0.0041367292907839373 0.0041180982810300098 -7.4200845908777908e-05 0.0029126645207870655 0.004343625151101602 0.0011512441389165556 0.00476241309218763 0.0048852108397470827
leaf_count=438 305 612 497 343 586 828 359 472 3934 389 963 327 455 317 469 416 521 541 363 689 393 5083 394 357 334 379 323 503 309 493 981 729 1845 1783 319 447 307 380 416 417 321 310 362 512 1049 355 325 306 446 796
internal_value=0 42.1808 24.6269 13.8847 33.8226 22.8067 8.34954 27.8304 9.58781 3.06738 17.659 52.4413 41.9994 47.6413 31.2074 6.21171 21.694 24.3028 29.9896 34.2147 38.4535 3.27158 13.2654 43.2378 53.557 36.0942 49.7192 39.2448 33.2226 34.9991 35.916 34.2359 37.8671 28.943 51.6208 47.073 55.9092 33.2719 52.472 50.736 57.7143 54.5444 55.5275 57.4165 3.25282 53.2578 48.7091 4.00976 57.5453 60.2353
internal_count=34798 22814 13921 11984 6855 3857 8127 2723 7066 4323 2743 8893 1408 953 2251 7768 937 1780 1283 1908 1439 6831 1748 1046 7485 920 3530 826 636 6417 5924 5338 2826 2512 2704 1562 3955 699 863 1404 2551 1434 1142 822 1354 987 680 1134 808 1117
shrinkage=7.94187e-05


Tree=14
num_leaves=44
num_cat=0
split_feature=56 56 380 388 353 173 101 263 55 97 159 142 177 45 177 306 90 196 84 388 490 316 255 153 361 161 386 370 336 119 241 289 363 107 386 369 49 11 393 388 399 307 177
split_gain=120242 131629 37767.7 8394.55 6338.64 5951.44 5474.1 6401.78 5472.1 4948.88 4945.41 5096.56 5220.48 4921.55 6006.07 5752.54 4660.58 3734.41 6251.39 6965.28 3118.79 2982.89 3400.23 8662.11 7540.01 2732.43 2331.81 2019.36 3173.45 2123.8 1858.87 1513.92 2081.43 1266.16 1114.74 1011.49 778.968 2596.23 1013.09 584.335 540.129 428.601 365.977
threshold=1.5000000000000002 1.0000000180025095e-35 2.6944424325165039 0.29295353982342714 2.5000000000000004 1.5000000000000002 3.5000000000000004 2.5000000000000004 4.5000000000000009 4.5000000000000009 4.5000000000000009 2.5000000000000004 2.5000000000000004 3.5000000000000004 2.5000000000000004 4.5000000000000009 7.0500000000000007 2.5000000000000004 1.5000000000000002 0.2820525793610838 1.0000000180025095e-35 1.0000000180025095e-35 2.5000000000000004 2.5000000000000004 1.0000000180025095e-35 1.5000000000000002 0.14478944838528263 54.500000000000007 4.5000000000000009 2.5000000000000004 3.5000000000000004 4.5000000000000009 4.5000000000000009 4.5000000000000009 -0.78527007648592695 20.500000000000004 1.0000000180025095e-35 2.5000000000000004 -0.023859217750349767 0.3902224226996584 -0.01750605306313464 1.5000000000000002 2.5000000000000004
decision_type=2 2 2 2 2 2 2 2 2 2 2 2 2 2 2 2 2 2 2 2 2 2 2 2 2 2 2 10 2 2 2 2 2 2 2 8 2 2 2 2 2 2 2
left_child=1 2 10 4 5 25 7 40 -9 -10 11 17 -13 20 15 -15 21 18 -1 -20 34 33 23 -23 -25 -2 -8 28 29 -24 35 32 -4 36 -5 -19 38 -38 -3 -39 -7 -29 -40
right_child=3 16 31 13 -6 6 26 8 9 -11 -12 12 -14 14 -16 -17 -18 30 19 -21 -22 22 27 24 -26 -27 -28 41 -30 -31 -32 -33 -34 -35 -36 -37 37 39 42 -41 -42 -43 -44
leaf_value=-3.4026960522206371e-05 0.00090095112484734458 0.0018077988078780984 0.0012723737433493357 0.00053072438193304031 -3.4190018816739429e-05 -2.819576836779179e-05 0.00090214117313790578 0.00055446533048710705 0.0018914777622985187 0.00099041609263586603 0.0011026920273721349 0.0014681974536392413 -2.8989613272716738e-05 0.0016178094274185983 -3.2980842883853811e-05 -2.7518916920547332e-05 0.0010096227722256694 -3.6556508960924513e-05 -2.9777041355424737e-05 0.0016190234538387691 0.00085650181017781662 0.0019910779743856732 0.0016827019352933777 -3.1440867685658035e-05 0.0014222126494612593 -3.4308444487429391e-05 -3.2726963159638632e-05 0.0022346821892426007 0.0012095903315529285 0.0020079305920562849 0.00056219634129955692 0.00160500966294057 0.00064889846430152655 0.0016733225759993427 -3.6603177988853584e-05 0.00048492258596985352 0.0013443313200127358 0.0017693835782772783 0.0022364592862546464 0.0021540531126996274 0.00052670684087365168 0.0019015356208835067 0.0020288907549031376
leaf_count=926 305 402 4918 305 973 322 305 584 488 670 569 327 359 320 706 306 367 4161 397 319 332 469 1365 471 577 1008 656 315 436 1321 588 547 467 422 4399 343 352 315 727 358 305 329 667
internal_value=0 41.8286 24.5044 13.8447 20.082 23.0278 27.2799 31.7901 36.5507 42.1402 11.3403 9.14146 26.7586 6.84197 19.3226 31.8998 51.9004 6.48074 16.3031 29.3939 2.49804 52.3212 49.799 42.2661 28.1132 7.24266 9.79978 51.7802 49.6667 51.062 2.48246 34.846 33.5431 55.2232 0.270439 0.334146 56.0205 51.8962 57.5573 55.3287 7.44311 57.6891 58.7765
internal_count=34798 22814 13921 11984 5616 4643 3330 2369 1742 1158 7989 7420 686 6368 1332 626 8893 6734 1642 716 5036 8526 5283 1517 1048 1313 961 3766 3122 2686 5092 5932 5385 3243 4704 4504 2821 1025 1796 673 627 644 1394
shrinkage=3.68137e-05


Tree=15
num_leaves=44
num_cat=0
split_feature=56 56 157 77 396 395 7 51 352 395 340 29 192 390 77 327 397 383 101 126 385 362 184 79 386 33 128 51 267 194 289 129 49 362 325 90 243 388 392 79 231 383 77
split_gain=118062 128583 37193.1 9322.84 6863 6428.74 5682.35 5728.9 5163.05 6102.09 4997.9 4936.88 5474.25 4899.51 7373.49 7794.95 4898.56 5714.46 6576.5 3947.38 4971.48 3735.03 5161.05 5362.85 3561.82 3230.51 3286.67 5123.49 2953.17 2440 2470.88 1868.47 1858.98 1653.11 1394.74 1190.53 1117.43 1147.12 1088.66 962.368 867.273 546.386 311.983
threshold=1.5000000000000002 1.0000000180025095e-35 1.5000000000000002 1.5498046875000002 -0.047964915494848846 0.58933619581645591 12.500000000000002 5.5000000000000009 4.5000000000000009 -0.011776386124354858 4.5000000000000009 5.5000000000000009 3.5000000000000004 0.30933078952466581 1.3500976562500002 7.8515625000000009 -0.19827265725547596 -0.16414933117290359 3.5000000000000004 1.5000000000000002 -0.33906647762159675 3.5000000000000004 2.5000000000000004 48.500000000000007 0.26484716703388217 5.5000000000000009 2.5000000000000004 5.5000000000000009 3.5000000000000004 1.5000000000000002 4.5000000000000009 2.5000000000000004 6.5000000000000009 3.5000000000000004 1.5000000000000002 3.4500000000000006 3.5000000000000004 -0.1523739431763329 0.41637225669724093 55.500000000000007 1.5000000000000002 -0.20714868407338649 1.2500000000000002
decision_type=2 2 2 2 2 2 8 2 2 2 2 2 2 2 2 10 2 2 2 2 2 2 2 8 2 2 2 2 2 2 2 2 2 2 2 2 2 2 2 8 2 2 2
left_child=1 2 4 5 -1 11 7 10 21 -10 16 19 -13 25 15 -15 -5 18 -18 20 -2 38 -23 -24 -25 32 35 28 31 30 33 -28 39 34 -6 -27 37 -34 -4 41 -22 -3 -43
right_child=3 13 8 6 29 -7 -8 -9 9 -11 -12 12 -14 14 -16 -17 17 -19 -20 -21 40 22 23 24 -26 26 27 -29 -30 -31 -32 -33 36 -35 -36 -37 -38 -39 -40 -41 -42 42 -44
leaf_value=-3.9271114336816454e-05 0.0014850217755467839 0.0022800286773063411 -4.6945693680469747e-05 -3.6257660587516358e-05 0.0018682435693953264 0.0016066818583445252 -4.2507703517213809e-05 -4.1054579446739543e-05 -4.0034311356636914e-05 0.0017789301266259343 -3.8267782376148389e-05 0.001674864556034206 -4.0656221221044926e-05 0.0018910272980799921 0.002521188727224572 -4.0652385014037473e-05 0.0016204116316339537 0.0024199035612623224 -4.0581443337713806e-05 -4.7302420794864348e-05 -4.4268959731149767e-05 -4.4610230405561548e-05 -4.0566130160365997e-05 0.00058102611316630576 0.002068370212095925 0.002739515585657886 0.0024619504659827022 0.0011899182340930205 0.001519762905489286 0.00082513655191123966 0.002164150748084263 0.0017172179299845898 0.0020192999484243868 0.00089513338498933186 0.0015174958624642704 0.0021868508001879564 0.0018637583475808112 0.0025894136625932611 0.00068286124390157894 0.0027942128529941657 0.0006790757143487335 0.0024557711854583785 0.0027947475240355825
leaf_count=438 417 555 3494 319 1484 359 693 549 481 453 388 416 521 487 420 501 1073 325 510 5083 1025 1127 514 371 318 539 1249 549 446 493 568 354 390 425 3447 393 353 661 308 1117 306 554 325
internal_value=0 41.4817 24.383 13.8049 33.3734 8.31375 22.6204 25.8617 9.5462 24.7085 29.1296 6.1886 21.5324 51.3697 41.2491 27.6124 31.9806 34.7749 27.2664 3.26107 13.1857 6.29272 13.8104 23.0724 32.6963 52.4481 48.7366 45.0356 47.6134 34.5213 35.4122 49.8742 54.7194 33.7275 34.6007 54.7314 49.741 51.7209 0.574018 56.4526 3.29925 53.3949 55.4599
internal_count=34798 22814 13921 11984 6855 8127 3857 3164 7066 934 2615 7768 937 8893 1408 988 2227 1908 1583 6831 1748 6132 2330 1203 689 7485 3530 2598 2049 6417 5924 1603 3955 5356 4931 932 1404 1051 3802 2551 1331 1434 879
shrinkage=4.74551e-05


Tree=16
num_leaves=39
num_cat=0
split_feature=56 56 380 77 395 7 51 238 159 340 123 249 90 323 388 96 217 262 252 77 317 324 315 314 395 116 222 300 330 211 396 363 7 325 287 158 164 357
split_gain=115939 125633 36706.8 9237.71 6366.44 5627.93 5666.94 5432.99 7997.86 4938.07 4849.07 4561.75 4452.2 4298.27 4031.84 3970.49 4316.85 8368.34 3289.24 3231.14 3173.3 3113.22 4645.71 2757.18 2569.99 2143.65 2086.32 2043.15 1862.89 1707.7 1620.17 1459.98 1070.35 1054.04 964.292 1043.27 754.945 410.852
threshold=1.5000000000000002 1.0000000180025095e-35 2.6944424325165039 1.5498046875000002 0.58933619581645591 12.500000000000002 5.5000000000000009 3.5000000000000004 2.5000000000000004 4.5000000000000009 3.5000000000000004 4.5000000000000009 7.0500000000000007 2.5000000000000004 0.41058065328496729 1.5000000000000002 3.5000000000000004 2.5000000000000004 4.5000000000000009 1.7500000000000002 1.5000000000000002 3.5000000000000004 1.5000000000000002 1.5000000000000002 -0.20487043305920147 1.0000000180025095e-35 3.5000000000000004 5.5000000000000009 2.5000000000000004 3.5000000000000004 -0.029485126107294059 2.5000000000000004 15.500000000000002 1.5000000000000002 4.5000000000000009 2.5000000000000004 356.50000000000006 1.0000000180025095e-35
decision_type=2 2 2 2 2 8 2 2 2 2 2 2 2 2 2 2 2 2 2 2 2 2 2 10 2 2 2 2 2 2 2 2 8 2 2 2 8 2
left_child=1 2 7 4 11 6 9 15 36 10 13 18 19 -5 -13 -1 27 -18 25 21 -15 24 -23 -20 -3 -2 28 -17 -26 -28 -29 -4 -27 37 35 -21 -9 -33
right_child=3 12 31 5 -6 -7 -8 8 -10 -11 -12 14 -14 20 -16 16 17 -19 23 34 -22 22 -24 -25 26 32 29 30 -30 -31 -32 33 -34 -35 -36 -37 -38 -39
leaf_value=0.001914444299380954 0.0010672743898191824 0.0025292641420180191 0.0028428174681804429 0.00074002571679536455 0.0022287649372690855 -5.9361887950321564e-05 -5.73322732876399e-05 0.00095506393630770403 0.002512770951131484 -5.3439953967355537e-05 0.00057791099090593928 0.0024322186097765395 0.0017938489785195386 0.0013399746484052373 -5.1080308236236908e-05 -6.5845973805123552e-05 0.002584995817313892 -6.0801121797333486e-05 -5.0433342705146213e-05 0.0037300078795603829 0.002922396830674107 0.0012107977621615574 0.003114844818808464 0.002077429011412711 0.0035496841756064539 -6.616898502988842e-05 0.0027703378078995579 0.0016265642603967684 0.0028095643588591369 0.0035560688516028663 -5.0573252480836577e-05 0.0025514202837707231 0.00090043343167575316 0.0020391263243266906 0.0039364451208705031 0.0029502283505569108 -5.8860683788505109e-05 0.0018981036930824609
leaf_count=354 541 587 552 405 359 693 549 305 576 388 529 305 367 392 333 4267 342 860 319 331 901 414 470 308 3642 5636 1211 305 534 324 324 1397 326 3646 592 421 656 337
internal_value=0 41.1406 24.2629 13.7652 8.29878 22.5164 25.7268 11.2868 23.0749 28.9593 31.7762 6.17998 50.8499 35.7751 24.0234 7.50837 5.49552 17.9714 3.85246 51.2558 39.7075 49.7443 39.2694 19.776 50.6337 1.73272 51.3168 1.43533 52.7143 45.8005 14.3229 34.3635 0.00291639 33.0899 56.3553 51.9086 4.82406 37.0398
internal_count=34798 22814 13921 11984 8127 3857 3164 7989 1537 2615 2227 7768 8893 1698 638 6452 6098 1202 7130 8526 1293 7182 884 627 6298 6503 5711 4896 4176 1535 629 5932 5962 5380 1344 752 961 1734
shrinkage=6.62726e-05



feature importances:
D19_SOZIALES=28
EINGEZOGENAM_HH_JAHR=19
EXTSEL992=17
KBA13_ANZAHL_PKW=15
_isMissingUnknown_11=14
_isMissingUnknown_9=13
ANREDE_KZ=12
RETOURTYP_BK_S=12
D19_RATGEBER=11
GEBURTSJAHR=10
ALTERSKATEGORIE_GROB=9
KBA13_CCM_1200=9
_isMissingUnknown_1=9
D19_GESAMT_ONLINE_DATUM_Value_ACTIVITY_WITHIN_MONTHS=8
_isMissingUnknown_14=8
KBA13_KW_90=8
VHA=8
D19_BEKLEIDUNG_GEH=8
KBA05_ZUL4=8
_isMissingUnknown_7=8
D19_BUCH_CD=7
KBA05_SEG10=7
_isMissingUnknown_16=7
D19_LOTTO=7
_isMissingUnknown_20=7
WOHNLAGE=7
KBA13_KW_40=7
ALTER_HH_Value_0=6
ANZ_HAUSHALTE_AKTIV=6
KBA05_KW2=6
LP_STATUS_FEIN_Value_INCOME=6
_isMissingUnknown_17=6
SHOPPER_TYP=6
_isMissingUnknown_4=6
REGIOTYP=6
KBA13_HALTER_25=6
ANZ_PERSONEN=5
VK_DHT4A=5
KBA13_MAZDA=5
RT_SCHNAEPPCHEN=5
_isMissingUnknown_18=5
SEMIO_LUST=5
D19_VERSAND_ONLINE_DATUM_Value_INCREASE=5
KBA13_BJ_2009=5
D19_KONSUMTYP_MAX=5
_isMissingUnknown_2=5
KBA05_VORB2=5
KBA05_MOTRAD=5
EINGEFUEGT_AM_DayOfWeek=4
_isMissingUnknown_13=4
SEMIO_TRADV=4
LP_LEBENSPHASE_GROB_Value_AGE=4
GFK_URLAUBERTYP=4
D19_VERSAND_ONLINE_DATUM_Value_ACTIVITY_WITHIN_MONTHS=4
D19_KONSUMTYP=4
VK_ZG11=4
KBA13_SEG_SONSTIGE=4
D19_VOLLSORTIMENT=4
FINANZ_HAUSBAUER=4
HH_EINKOMMEN_SCORE=4
SEMIO_PFLICHT=4
_isMissingUnknown_8=4
KBA05_KRSZUL=4
KBA05_MAXAH=4
KBA05_MAXSEG=4
SEMIO_DOM=4
KBA05_MOD3=4
KBA05_KRSHERST3=4
KBA13_HALTER_35=4
EINGEFUEGT_AM_DayOfYear=3
MOBI_RASTER=3
LP_LEBENSPHASE_GROB_Value_INCOME=3
KBA13_KW_50=3
UMFELD_ALT=3
INNENSTADT=3
D19_VERSAND_ANZ_12=3
SEMIO_MAT=3
KBA05_HERST1=3
KBA13_KRSSEG_VAN=3
KBA05_VORB0=3
ONLINE_AFFINITAET=3
KBA13_BJ_2000=3
KBA05_ZUL2=3
KBA13_KRSHERST_FORD_OPEL=3
KBA13_KMH_250=3
KBA13_GBZ=3
KBA05_AUTOQUOT=3
LP_LEBENSPHASE_FEIN_Value_INCOME=3
_isMissingUnknown_3=3
D19_GESAMT_DATUM_Value_ACTIVITY_WITHIN_MONTHS=3
KBA13_HERST_ASIEN=3
ALTERSKATEGORIE_FEIN=3
KBA13_KW_70=3
D19_VERSAND_OFFLINE_DATUM_Value_ACTIVITY_WITHIN_MONTHS=3
_isMissingUnknown_12=3
KBA13_KMH_0_140=3
KBA05_KRSHERST2=3
_isMissingUnknown_15=3
KBA13_VORB_2=3
KONSUMNAEHE=3
CJT_TYP_4=3
PLZ8_ANTG1=3
KBA05_MOD8=2
KBA05_SEG5=2
KBA05_SEG8=2
KBA05_ZUL3=2
KBA13_CCM_1600=2
KBA13_CCM_1800=2
KBA13_FAB_ASIEN=2
KBA13_SITZE_6=2
KBA13_KMH_140=2
KBA13_KW_120=2
KBA13_KW_30=2
KBA13_MOTOR=2
KBA13_SITZE_5=2
KBA13_TOYOTA=2
KBA13_VORB_0=2
SEMIO_VERT=2
UMFELD_JUNG=2
VERDICHTUNGSRAUM=2
VERS_TYP=2
VHN=2
ZABEOTYP=2
D19_BANKEN_DATUM_Value_ACTIVITY_WITHIN_MONTHS=2
LP_LEBENSPHASE_FEIN_Value_AGE=2
CJT_GESAMTTYP=2
CJT_TYP_6=2
D19_DROGERIEARTIKEL=2
D19_HAUS_DEKO=2
D19_SONSTIGE=2
_isMissingUnknown_5=2
_isMissingUnknown_6=2
D19_VERSICHERUNGEN=2
FINANZTYP=2
KBA05_ALTER3=2
KBA05_ALTER4=2
KBA05_ANTG1=2
KBA05_CCM2=2
KBA05_CCM4=2
KBA05_DIESEL=2
KBA05_HERST4=2
KBA05_HERST5=2
KBA05_HERSTTEMP=2
KBA05_KW1=2
ORTSGR_KLS9=1
KBA05_SEG6=1
KBA05_SEG2=1
KBA05_SEG1=1
RT_KEIN_ANREIZ=1
KBA05_MOTOR=1
RT_UEBERGROESSE=1
KBA05_MOD1=1
SEMIO_FAM=1
SEMIO_KULT=1
KBA05_KW3=1
KBA05_KRSHERST1=1
KBA05_KRSAQUOT=1
AGER_TYP=1
KBA13_HALTER_50=1
KBA05_BAUMAX=1
KBA05_ALTER1=1
KBA13_KMH_110=1
KBA13_HERST_EUROPA=1
KBA13_FORD=1
FINANZ_UNAUFFAELLIGER=1
KBA13_CCM_2500=1
FINANZ_SPARER=1
D19_VERSI_DATUM=1
W_KEIT_KIND_HH=1
D19_VERSAND_ONLINE_QUOTE_12=1
KBA13_KW_61_120=1
D19_VERSAND_ANZ_24=1
D19_TIERARTIKEL=1
D19_SCHUHE=1
CAMEO_DEUINTL_2015_Value_0=1
KBA13_BMW=1
D19_SAMMELARTIKEL=1
D19_GESAMT_OFFLINE_DATUM_Value_ACTIVITY_WITHIN_MONTHS=1
D19_REISEN=1
D19_KINDERARTIKEL=1
D19_ENERGIE=1
D19_BEKLEIDUNG_REST=1
LP_FAMILIE_FEIN_Value_FAMILY=1
LP_FAMILIE_GROB_Value_FAMILY=1
KBA13_KW_80=1
D19_BANKEN_DIREKT=1
CJT_TYP_2=1
CJT_TYP_1=1
CAMEO_DEUG_2015=1
LP_STATUS_FEIN_Value_OTHER=1
LP_STATUS_GROB_Value_INCOME=1
PRAEGENDE_JUGENDJAHRE_Value_0=1
EINGEFUEGT_AM_Day=1
ARBEIT=1
KBA13_BJ_2008=1
EINGEFUEGT_AM_DaysInMonth=1
EINGEFUEGT_AM_Season=1
KBA13_BJ_2006=1
KBA13_MERCEDES=1
KBA13_KMH_140_210=1
KBA13_OPEL=1
KBA13_SEG_GELAENDEWAGEN=1
KBA13_SEG_KOMPAKTKLASSE=1
KBA13_SEG_MITTELKLASSE=1
KBA13_BJ_2004=1
KBA13_SITZE_4=1
_isMissingUnknown_10=1
KBA13_KMH_180=1
KBA13_HERST_SONST=1
KBA13_HALTER_66=1
KBA13_HALTER_65=1
KBA13_AUDI=1
KBA13_ANTG4=1
KBA13_ANTG2=1
MOBI_REGIO=1
_isMissingUnknown_19=1
KBA05_VORB1=1
CAMEO_DEU_2015_6E=1
PRAEGENDE_JUGENDJAHRE_Value_1_peace_movement=1

pandas_categorical:[]
