tree
version=v2
num_class=1
num_tree_per_iteration=1
label_index=0
max_feature_idx=492
objective=binary sigmoid:1
feature_names=AGER_TYP AKT_DAT_KL ALTER_KIND1 ALTER_KIND2 ALTER_KIND3 ALTER_KIND4 ALTERSKATEGORIE_FEIN ANZ_HAUSHALTE_AKTIV ANZ_HH_TITEL ANZ_KINDER ANZ_PERSONEN ARBEIT BALLRAUM CAMEO_DEUG_2015 CJT_GESAMTTYP CJT_KATALOGNUTZER CJT_TYP_1 CJT_TYP_2 CJT_TYP_3 CJT_TYP_4 CJT_TYP_5 CJT_TYP_6 D19_BANKEN_ANZ_12 D19_BANKEN_ANZ_24 D19_BANKEN_DIREKT D19_BANKEN_GROSS D19_BANKEN_LOKAL D19_BANKEN_ONLINE_QUOTE_12 D19_BANKEN_REST D19_BEKLEIDUNG_GEH D19_BEKLEIDUNG_REST D19_BILDUNG D19_BIO_OEKO D19_BUCH_CD D19_DIGIT_SERV D19_DROGERIEARTIKEL D19_ENERGIE D19_FREIZEIT D19_GARTEN D19_GESAMT_ANZ_12 D19_GESAMT_ANZ_24 D19_GESAMT_ONLINE_QUOTE_12 D19_HANDWERK D19_HAUS_DEKO D19_KINDERARTIKEL D19_KONSUMTYP D19_KONSUMTYP_MAX D19_KOSMETIK D19_LEBENSMITTEL D19_LOTTO D19_NAHRUNGSERGAENZUNG D19_RATGEBER D19_REISEN D19_SAMMELARTIKEL D19_SCHUHE D19_SONSTIGE D19_SOZIALES D19_TECHNIK D19_TELKO_ANZ_12 D19_TELKO_ANZ_24 D19_TELKO_MOBILE D19_TELKO_ONLINE_QUOTE_12 D19_TELKO_REST D19_TIERARTIKEL D19_VERSAND_ANZ_12 D19_VERSAND_ANZ_24 D19_VERSAND_ONLINE_QUOTE_12 D19_VERSAND_REST D19_VERSI_ANZ_12 D19_VERSI_ANZ_24 D19_VERSI_DATUM D19_VERSI_OFFLINE_DATUM D19_VERSI_ONLINE_DATUM D19_VERSI_ONLINE_QUOTE_12 D19_VERSICHERUNGEN D19_VOLLSORTIMENT D19_WEIN_FEINKOST EINGEZOGENAM_HH_JAHR EWDICHTE EXTSEL992 FINANZ_ANLEGER FINANZ_HAUSBAUER FINANZ_MINIMALIST FINANZ_SPARER FINANZ_UNAUFFAELLIGER FINANZ_VORSORGER FINANZTYP FIRMENDICHTE GEBAEUDETYP GEBAEUDETYP_RASTER GEBURTSJAHR GEMEINDETYP GFK_URLAUBERTYP GREEN_AVANTGARDE HEALTH_TYP HH_DELTA_FLAG HH_EINKOMMEN_SCORE INNENSTADT KBA05_ALTER1 KBA05_ALTER2 KBA05_ALTER3 KBA05_ALTER4 KBA05_ANHANG KBA05_ANTG1 KBA05_ANTG2 KBA05_ANTG3 KBA05_ANTG4 KBA05_AUTOQUOT KBA05_BAUMAX KBA05_CCM1 KBA05_CCM2 KBA05_CCM3 KBA05_CCM4 KBA05_DIESEL KBA05_FRAU KBA05_GBZ KBA05_HERST1 KBA05_HERST4 KBA05_HERST5 KBA05_HERSTTEMP KBA05_KRSAQUOT KBA05_KRSHERST1 KBA05_KRSHERST2 KBA05_KRSHERST3 KBA05_KRSOBER KBA05_KRSVAN KBA05_KRSZUL KBA05_KW1 KBA05_KW2 KBA05_KW3 KBA05_MAXAH KBA05_MAXBJ KBA05_MAXHERST KBA05_MAXSEG KBA05_MAXVORB KBA05_MOD1 KBA05_MOD2 KBA05_MOD3 KBA05_MOD4 KBA05_MOD8 KBA05_MODTEMP KBA05_MOTOR KBA05_MOTRAD KBA05_SEG1 KBA05_SEG10 KBA05_SEG2 KBA05_SEG3 KBA05_SEG4 KBA05_SEG5 KBA05_SEG6 KBA05_SEG7 KBA05_SEG8 KBA05_SEG9 KBA05_VORB0 KBA05_VORB1 KBA05_VORB2 KBA05_ZUL1 KBA05_ZUL2 KBA05_ZUL3 KBA05_ZUL4 KBA13_ANTG1 KBA13_ANTG2 KBA13_ANTG3 KBA13_ANTG4 KBA13_ANZAHL_PKW KBA13_AUDI KBA13_AUTOQUOTE KBA13_BAUMAX KBA13_BJ_1999 KBA13_BJ_2000 KBA13_BJ_2004 KBA13_BJ_2006 KBA13_BJ_2008 KBA13_BJ_2009 KBA13_BMW KBA13_CCM_0_1400 KBA13_CCM_1000 KBA13_CCM_1200 KBA13_CCM_1400 KBA13_CCM_1401_2500 KBA13_CCM_1500 KBA13_CCM_1600 KBA13_CCM_1800 KBA13_CCM_2000 KBA13_CCM_2500 KBA13_CCM_2501 KBA13_CCM_3000 KBA13_CCM_3001 KBA13_FAB_ASIEN KBA13_FAB_SONSTIGE KBA13_FIAT KBA13_FORD KBA13_GBZ KBA13_HALTER_20 KBA13_HALTER_25 KBA13_HALTER_30 KBA13_HALTER_35 KBA13_HALTER_40 KBA13_HALTER_45 KBA13_HALTER_50 KBA13_HALTER_55 KBA13_HALTER_60 KBA13_HALTER_65 KBA13_HALTER_66 KBA13_HERST_ASIEN KBA13_HERST_AUDI_VW KBA13_HERST_BMW_BENZ KBA13_HERST_EUROPA KBA13_HERST_FORD_OPEL KBA13_HERST_SONST KBA13_HHZ KBA13_KMH_0_140 KBA13_KMH_110 KBA13_KMH_140 KBA13_KMH_140_210 KBA13_KMH_180 KBA13_KMH_210 KBA13_KMH_250 KBA13_KMH_251 KBA13_KRSAQUOT KBA13_KRSHERST_AUDI_VW KBA13_KRSHERST_BMW_BENZ KBA13_KRSHERST_FORD_OPEL KBA13_KRSSEG_KLEIN KBA13_KRSSEG_OBER KBA13_KRSSEG_VAN KBA13_KRSZUL_NEU KBA13_KW_0_60 KBA13_KW_110 KBA13_KW_120 KBA13_KW_121 KBA13_KW_30 KBA13_KW_40 KBA13_KW_50 KBA13_KW_60 KBA13_KW_61_120 KBA13_KW_70 KBA13_KW_80 KBA13_KW_90 KBA13_MAZDA KBA13_MERCEDES KBA13_MOTOR KBA13_NISSAN KBA13_OPEL KBA13_PEUGEOT KBA13_RENAULT KBA13_SEG_GELAENDEWAGEN KBA13_SEG_KLEINST KBA13_SEG_KLEINWAGEN KBA13_SEG_KOMPAKTKLASSE KBA13_SEG_MINIVANS KBA13_SEG_MINIWAGEN KBA13_SEG_MITTELKLASSE KBA13_SEG_OBEREMITTELKLASSE KBA13_SEG_OBERKLASSE KBA13_SEG_SONSTIGE KBA13_SEG_SPORTWAGEN KBA13_SEG_UTILITIES KBA13_SEG_VAN KBA13_SEG_WOHNMOBILE KBA13_SITZE_4 KBA13_SITZE_5 KBA13_SITZE_6 KBA13_TOYOTA KBA13_VORB_0 KBA13_VORB_1 KBA13_VORB_1_2 KBA13_VORB_2 KBA13_VORB_3 KBA13_VW KK_KUNDENTYP KKK KOMBIALTER KONSUMNAEHE KONSUMZELLE MIN_GEBAEUDEJAHR MOBI_RASTER MOBI_REGIO NATIONALITAET_KZ ONLINE_AFFINITAET ORTSGR_KLS9 OST_WEST_KZ PLZ8_ANTG1 PLZ8_ANTG2 PLZ8_ANTG3 PLZ8_ANTG4 PLZ8_BAUMAX REGIOTYP RELAT_AB RETOURTYP_BK_S RT_KEIN_ANREIZ RT_SCHNAEPPCHEN RT_UEBERGROESSE SEMIO_DOM SEMIO_ERL SEMIO_FAM SEMIO_KAEM SEMIO_KRIT SEMIO_KULT SEMIO_LUST SEMIO_MAT SEMIO_PFLICHT SEMIO_RAT SEMIO_REL SEMIO_SOZ SEMIO_TRADV SEMIO_VERT SHOPPER_TYP SOHO_KZ STRUKTURTYP TITEL_KZ UMFELD_ALT UMFELD_JUNG UNGLEICHENN_FLAG VERDICHTUNGSRAUM VERS_TYP VHA VHN VK_DHT4A VK_DISTANZ VK_ZG11 W_KEIT_KIND_HH WOHNDAUER_2008 WOHNLAGE ZABEOTYP ANREDE_KZ ALTERSKATEGORIE_GROB ALTER_HH_Value_0 CAMEO_DEUINTL_2015_Value_0 CAMEO_DEUINTL_2015_Value_1 D19_BANKEN_DATUM_Value_ACTIVITY_WITHIN_MONTHS D19_BANKEN_DATUM_Value_INCREASE D19_BANKEN_OFFLINE_DATUM_Value_ACTIVITY_WITHIN_MONTHS D19_BANKEN_OFFLINE_DATUM_Value_INCREASE D19_BANKEN_ONLINE_DATUM_Value_ACTIVITY_WITHIN_MONTHS D19_BANKEN_ONLINE_DATUM_Value_INCREASE D19_GESAMT_DATUM_Value_ACTIVITY_WITHIN_MONTHS D19_GESAMT_DATUM_Value_INCREASE D19_GESAMT_OFFLINE_DATUM_Value_ACTIVITY_WITHIN_MONTHS D19_GESAMT_OFFLINE_DATUM_Value_INCREASE D19_GESAMT_ONLINE_DATUM_Value_ACTIVITY_WITHIN_MONTHS D19_GESAMT_ONLINE_DATUM_Value_INCREASE D19_TELKO_DATUM_Value_ACTIVITY_WITHIN_MONTHS D19_TELKO_DATUM_Value_INCREASE D19_TELKO_OFFLINE_DATUM_Value_ACTIVITY_WITHIN_MONTHS D19_TELKO_OFFLINE_DATUM_Value_INCREASE D19_TELKO_ONLINE_DATUM_Value_ACTIVITY_WITHIN_MONTHS D19_TELKO_ONLINE_DATUM_Value_INCREASE D19_VERSAND_DATUM_Value_ACTIVITY_WITHIN_MONTHS D19_VERSAND_DATUM_Value_INCREASE D19_VERSAND_OFFLINE_DATUM_Value_ACTIVITY_WITHIN_MONTHS D19_VERSAND_OFFLINE_DATUM_Value_INCREASE D19_VERSAND_ONLINE_DATUM_Value_ACTIVITY_WITHIN_MONTHS D19_VERSAND_ONLINE_DATUM_Value_INCREASE LP_FAMILIE_FEIN_Value_CHILD LP_FAMILIE_FEIN_Value_FAMILY LP_FAMILIE_FEIN_Value_GENERATIONAL LP_FAMILIE_GROB_Value_FAMILY LP_LEBENSPHASE_FEIN_Value_AGE LP_LEBENSPHASE_FEIN_Value_INCOME LP_LEBENSPHASE_FEIN_Value_OTHER LP_LEBENSPHASE_GROB_Value_AGE LP_LEBENSPHASE_GROB_Value_INCOME LP_STATUS_FEIN_Value_INCOME LP_STATUS_FEIN_Value_OTHER LP_STATUS_GROB_Value_INCOME PRAEGENDE_JUGENDJAHRE_Value_0 PRAEGENDE_JUGENDJAHRE_Value_2 PRAEGENDE_JUGENDJAHRE_Value_3 EINGEFUEGT_AM_Day EINGEFUEGT_AM_DayOfYear EINGEFUEGT_AM_DayOfWeek EINGEFUEGT_AM_DaysInMonth EINGEFUEGT_AM_IsMonthStart EINGEFUEGT_AM_IsMonthEnd EINGEFUEGT_AM_IsQuarterStart EINGEFUEGT_AM_IsQuarterEnd EINGEFUEGT_AM_IsYearStart EINGEFUEGT_AM_IsYearEnd EINGEFUEGT_AM_Season _isMissingUnknown_1 _isMissingUnknown_2 _isMissingUnknown_3 _isMissingUnknown_4 _isMissingUnknown_5 _isMissingUnknown_6 _isMissingUnknown_7 _isMissingUnknown_8 _isMissingUnknown_9 _isMissingUnknown_10 _isMissingUnknown_11 _isMissingUnknown_12 _isMissingUnknown_13 _isMissingUnknown_14 _isMissingUnknown_15 _isMissingUnknown_16 _isMissingUnknown_17 _isMissingUnknown_18 _isMissingUnknown_19 _isMissingUnknown_20 CAMEO_DEU_2015_1A CAMEO_DEU_2015_1B CAMEO_DEU_2015_1C CAMEO_DEU_2015_1D CAMEO_DEU_2015_1E CAMEO_DEU_2015_2A CAMEO_DEU_2015_2B CAMEO_DEU_2015_2C CAMEO_DEU_2015_2D CAMEO_DEU_2015_3A CAMEO_DEU_2015_3B CAMEO_DEU_2015_3C CAMEO_DEU_2015_3D CAMEO_DEU_2015_4A CAMEO_DEU_2015_4B CAMEO_DEU_2015_4C CAMEO_DEU_2015_4D CAMEO_DEU_2015_4E CAMEO_DEU_2015_5A CAMEO_DEU_2015_5B CAMEO_DEU_2015_5C CAMEO_DEU_2015_5D CAMEO_DEU_2015_5E CAMEO_DEU_2015_5F CAMEO_DEU_2015_6A CAMEO_DEU_2015_6B CAMEO_DEU_2015_6C CAMEO_DEU_2015_6D CAMEO_DEU_2015_6E CAMEO_DEU_2015_6F CAMEO_DEU_2015_7A CAMEO_DEU_2015_7B CAMEO_DEU_2015_7C CAMEO_DEU_2015_7D CAMEO_DEU_2015_7E CAMEO_DEU_2015_8A CAMEO_DEU_2015_8B CAMEO_DEU_2015_8C CAMEO_DEU_2015_8D CAMEO_DEU_2015_9A CAMEO_DEU_2015_9B CAMEO_DEU_2015_9C CAMEO_DEU_2015_9D CAMEO_DEU_2015_9E CAMEO_DEU_2015_XX D19_LETZTER_KAUF_BRANCHE_D19_BANKEN_DIREKT D19_LETZTER_KAUF_BRANCHE_D19_BANKEN_GROSS D19_LETZTER_KAUF_BRANCHE_D19_BANKEN_LOKAL D19_LETZTER_KAUF_BRANCHE_D19_BANKEN_REST D19_LETZTER_KAUF_BRANCHE_D19_BEKLEIDUNG_GEH D19_LETZTER_KAUF_BRANCHE_D19_BEKLEIDUNG_REST D19_LETZTER_KAUF_BRANCHE_D19_BILDUNG D19_LETZTER_KAUF_BRANCHE_D19_BIO_OEKO D19_LETZTER_KAUF_BRANCHE_D19_BUCH_CD D19_LETZTER_KAUF_BRANCHE_D19_DIGIT_SERV D19_LETZTER_KAUF_BRANCHE_D19_DROGERIEARTIKEL D19_LETZTER_KAUF_BRANCHE_D19_ENERGIE D19_LETZTER_KAUF_BRANCHE_D19_FREIZEIT D19_LETZTER_KAUF_BRANCHE_D19_GARTEN D19_LETZTER_KAUF_BRANCHE_D19_HANDWERK D19_LETZTER_KAUF_BRANCHE_D19_HAUS_DEKO D19_LETZTER_KAUF_BRANCHE_D19_KINDERARTIKEL D19_LETZTER_KAUF_BRANCHE_D19_KOSMETIK D19_LETZTER_KAUF_BRANCHE_D19_LEBENSMITTEL D19_LETZTER_KAUF_BRANCHE_D19_LOTTO D19_LETZTER_KAUF_BRANCHE_D19_NAHRUNGSERGAENZUNG D19_LETZTER_KAUF_BRANCHE_D19_RATGEBER D19_LETZTER_KAUF_BRANCHE_D19_REISEN D19_LETZTER_KAUF_BRANCHE_D19_SAMMELARTIKEL D19_LETZTER_KAUF_BRANCHE_D19_SCHUHE D19_LETZTER_KAUF_BRANCHE_D19_SONSTIGE D19_LETZTER_KAUF_BRANCHE_D19_TECHNIK D19_LETZTER_KAUF_BRANCHE_D19_TELKO_MOBILE D19_LETZTER_KAUF_BRANCHE_D19_TELKO_REST D19_LETZTER_KAUF_BRANCHE_D19_TIERARTIKEL D19_LETZTER_KAUF_BRANCHE_D19_UNBEKANNT D19_LETZTER_KAUF_BRANCHE_D19_VERSAND_REST D19_LETZTER_KAUF_BRANCHE_D19_VERSICHERUNGEN D19_LETZTER_KAUF_BRANCHE_D19_VOLLSORTIMENT D19_LETZTER_KAUF_BRANCHE_D19_WEIN_FEINKOST PRAEGENDE_JUGENDJAHRE_Value_1_FDJ_-_communist_party_youth_organisation PRAEGENDE_JUGENDJAHRE_Value_1_Generation_Golf PRAEGENDE_JUGENDJAHRE_Value_1_Swords_into_ploughshares PRAEGENDE_JUGENDJAHRE_Value_1_digital_media_kids PRAEGENDE_JUGENDJAHRE_Value_1_ecological_awareness PRAEGENDE_JUGENDJAHRE_Value_1_economic_miracle PRAEGENDE_JUGENDJAHRE_Value_1_family_orientation PRAEGENDE_JUGENDJAHRE_Value_1_generation_68_-_student_protestors PRAEGENDE_JUGENDJAHRE_Value_1_milk_bar_-_Individualisation PRAEGENDE_JUGENDJAHRE_Value_1_opponents_to_the_building_of_the_Wall PRAEGENDE_JUGENDJAHRE_Value_1_peace_movement PRAEGENDE_JUGENDJAHRE_Value_1_reconstruction_years PRAEGENDE_JUGENDJAHRE_Value_1_war_years
feature_infos=[-1:3] [-2:9] [2:18] [5:18] none none [-2:25] [0:353] [0:20] [0:6] [0:24] [-2:9] [-2:7] [-2:9] [-2:6] [-2:5] [-2:5] [-2:5] [-2:5] [-2:5] [-2:5] [-2:5] [0:6] [0:6] [0:7] [0:6] [0:7] [-2:10] [0:7] [0:7] [0:7] [0:7] [0:7] [0:7] [0:7] [0:7] [0:7] [0:7] [0:7] [0:6] [0:6] [-2:10] [0:7] [0:7] [0:7] [-2:9] [1:9] [0:7] [0:7] [-2:7] [0:7] [0:7] [0:7] [0:7] [0:7] [0:7] [-2:5] [0:7] [0:5] [0:5] [0:7] [-2:10] [0:7] [0:7] [0:6] [0:6] [-2:10] [0:7] [0:5] [0:6] [1:10] [1:10] none [-2:10] [0:7] [0:7] [0:7] [-1:3.30078125] [-2:6] [1:56] [1:5] [1:5] [1:5] [1:5] [1:5] [1:5] [1:6] [-2:5] [-2:8] [-2:5] [0:11.300000000000001] [11:50] [1:12] [0:1] [-1:3] [-2:1] [-2:6] [-2:8] [-2:4] [-2:5] [-2:5] [-2:5] [-2:3] [-2:4] [-2:4] [-2:3] [-2:2] [-2:5] [-2:5] [-2:5] [-2:5] [-2:5] [-2:4] [-2:4] [-2:5] [-2:5] [-2:5] [-2:5] [-2:5] [-2:5] [-2:5] [-2:5] [-2:5] [-2:5] [-2:3] [-2:3] [-2:3] [-2:5] [-2:5] [-2:4] [-2:5] [-2:4] [-2:5] [-2:4] [-2:3] [-2:4] [-2:5] [-2:5] [-2:5] [-2:3] [-2:6] [-2:4] [-2:3] [-2:3] [-2:4] [-2:5] [-2:5] [-2:5] [-2:4] [-2:1] [-2:3] [-2:3] [-2:3] [-2:5] [-2:5] [-2:5] [-2:5] [-2:5] [-2:5] [-2:5] [-2:4] [-2:4] [-2:3] [-2:2] [0:2300] [-2:5] [-2:5] [-2:5] [-2:5] [-2:5] [-2:5] [-2:5] [-2:5] [-2:5] [-2:5] [-2:5] [-2:5] [-2:5] [-2:5] [-2:5] [-2:5] [-2:5] [-2:5] [-2:5] [-2:5] [-2:5] [-2:5] [-2:5] [-2:5] [-2:5] [-2:5] [-2:5] [-2:5] [-2:5] [-2:5] [-2:5] [-2:5] [-2:5] [-2:5] [-2:5] [-2:5] [-2:5] [-2:5] [-2:5] [-2:5] [-2:5] [-2:5] [-2:5] [-2:5] [-2:5] [-2:5] [-2:5] [-2:3] [-2:5] [-2:5] [-2:5] [-2:5] [-2:5] [-2:3] [-2:5] [-2:5] [-2:5] [-2:5] [-2:3] [-2:3] [-2:3] [-2:3] [-2:5] [-2:5] [-2:5] [-2:5] [-2:3] [-2:5] [-2:5] [-2:5] [-2:5] [-2:5] [-2:5] [-2:5] [-2:5] [-2:5] [-2:4] [-2:5] [-2:5] [-2:5] [-2:5] [-2:5] [-2:5] [-2:5] [-2:5] [-2:5] [-2:5] [-2:5] [-2:5] [-2:5] [-2:5] [-2:5] [-2:5] [-2:5] [-2:5] [-2:5] [-2:5] [-2:5] [-2:5] [-2:5] [-2:5] [-2:5] [-2:5] [-2:5] [-2:5] [-2:6] [-2:4] [1:9] [-2:7] [-2:1] [-1:3.099609375] [-2:6] [-2:6] [-1:3] [-2:5] [-2:9] [-2:2] [-2:4] [-2:4] [-2:3] [-2:2] [-2:5] [-2:7] [-2:5] [-2:5] [-2:5] [-2:5] [-2:5] [1:7] [1:7] [1:7] [1:7] [1:7] [1:7] [1:7] [1:7] [1:7] [1:7] [1:7] [1:7] [1:7] [1:7] [-1:3] [-2:1] [-2:3] [-2:5] [-2:5] [-2:5] [-2:1] [0:45] [-1:2] [-2:5] [-2:4] [1:11] [1:13] [1:11] [-2:6] [-2:9] [-2:8] [1:6] [1:2] [1:9] [0:10.1015625] [-2:5] [-2:5] [0:5] [0:5] [0:5] [0:5] [0:5] [0:5] [0:5] [0:5] [0:5] [0:5] [0:5] [0:5] [0:5] [0:5] [0:5] [0:5] [0:5] none [0:5] [0:5] [0:5] [0:5] [0:5] [0:5] [-2:3] [-2:8] [-2:3] [-2:4] [-2:5] [-2:7] none [-2:3] [-2:4] [-2:7] [-2:8] [-2:2] [-1:6] [-1:2] [-1:3] [1:31] [2:365] [-2:6] [28:31] [0:1] none none none none none [0:3] [-2.2083146064174635:14.259193305521343] [-5.9007107396731966:6.1135041603235534] [-6.3144945203165612:6.0770542173820825] [-2.616796517584147:7.6289744505079868] [-3.0540729225044014:7.3736377913611442] [-1.5481024585681533:5.7935991918011727] [-1.8367647932651929:3.5991429413803937] [-3.1529604240351721:3.0947390738493477] [-0.98093477921175021:0.94649061610188512] [-0.98049511908664311:1.7887197137894397] [-1.6232912618877773:1.7401795814018106] [-1.5320520748853079:2.4835398028808431] [-1.2020469363457102:1.1916233369037497] [-0.90516040822178256:3.9969032047591613] [-1.4306446823096799:1.4613847047569262] [-1.0406915982371046:1.8634039434443368] [-2.7853555493882616:2.8486835363082426] [-1.2829023721743935:1.2229279825376977] [-1.4705490182854528:1.9169812592173574] [-1.2114417118988876:1.7305862506292544] [0:1] none none [0:1] none [0:1] [0:1] [0:1] [0:1] none [0:1] [0:1] [0:1] [0:1] [0:1] [0:1] [0:1] none [0:1] [0:1] [0:1] [0:1] none none none [0:1] [0:1] none [0:1] [0:1] [0:1] [0:1] none none [0:1] [0:1] [0:1] [0:1] [0:1] [0:1] [0:1] [0:1] [0:1] [0:1] none [0:1] [0:1] none none [0:1] [0:1] none none [0:1] none [0:1] [0:1] [0:1] none none [0:1] none none [0:1] none [0:1] none none [0:1] [0:1] [0:1] [0:1] [0:1] [0:1] none [0:1] [0:1] [0:1] [0:1] none none [0:1] none [0:1] [0:1] [0:1] [0:1] [0:1] [0:1] [0:1] [0:1] [0:1] [0:1]
tree_sizes=2035 2157 2307 2246 2162 2475 2569

Tree=0
num_leaves=25
num_cat=0
split_feature=56 56 8 388 323 358 249 204 392 70 388 388 319 233 15 388 390 77 173 326 394 226 262 33
split_gain=184627 197343 58057.4 18253.4 13054.6 10961.3 11916.8 9833.01 9091.2 7983.85 7741.07 8401.96 9145.82 8494.44 6977.58 6618.14 5410.68 9492.73 5118.37 3101.32 4995.26 1339 1062.48 1054.24
threshold=1.5000000000000002 1.0000000180025095e-35 2.5000000000000004 0.29295353982342714 2.5000000000000004 1.0000000180025095e-35 2.5000000000000004 4.5000000000000009 0.18054327745395835 8.5000000000000018 0.46696085491014305 0.31939936323495061 2.5000000000000004 2.5000000000000004 3.5000000000000004 0.64638524898838268 0.3070090200266285 1.1499023437500002 1.5000000000000002 1.5000000000000002 -0.0033367747830080614 2.5000000000000004 2.5000000000000004 5.5000000000000009
decision_type=2 2 8 2 2 2 2 2 2 2 2 2 8 2 2 2 2 2 2 2 2 2 2 2
left_child=1 2 10 4 22 -6 -7 9 14 15 11 12 -1 -13 -8 -5 23 -18 -14 -4 -21 -12 -2 -3
right_child=3 16 19 7 5 6 8 -9 -10 -11 21 13 18 -15 -16 -17 17 -19 -20 20 -22 -23 -24 -25
leaf_value=-1.4349217455305632 -1.451391917649467 -1.406291554237296 -1.4221753666261148 -1.4635724408414752 -1.4198342403729323 -1.4636101569985467 -1.4357582101076085 -1.4345043712739591 -1.4252801660251933 -1.4636671887870247 -1.463644056331979 -1.4243927243088337 -1.4456583619779082 -1.4542808911177307 -1.4635975538094013 -1.4337793196193969 -1.4377423825702289 -1.4114987856301262 -1.4636525459982024 -1.4356963074604288 -1.4190118709161215 -1.4514290127485299 -1.4636048781380786 -1.4108574802636813
leaf_count=773 496 4013 3115 651 687 1006 643 593 976 4529 1894 659 950 699 853 566 732 695 2414 2357 523 498 936 3541
internal_value=0 55.3097 33.7651 20.7516 29.6092 34.7426 27.3626 9.93086 34.0049 5.39115 16.9235 21.5542 14.6261 35.5168 18.8862 22.0811 66.5848 54.7222 6.979 46.0851 39.7954 2.91063 5.26914 67.7674
internal_count=34799 22863 13882 11936 5597 4165 3478 6339 2472 5746 7887 5495 4137 1358 1496 1217 8981 1427 3364 5995 2880 2392 1432 7554
shrinkage=0.332096


Tree=1
num_leaves=26
num_cat=0
split_feature=56 56 194 238 388 1 381 77 232 158 283 389 262 153 148 350 372 390 77 393 326 79 164 102 326
split_gain=135302 133718 46639.5 15901.7 15704.2 9668.55 9327.39 12668.6 9838.04 9184.82 6358.36 6325.9 6249.25 7322.21 6164.3 4900.41 3417.77 3006.65 6411.88 2522.32 4959.15 1473.9 1278.07 475.159 6.98015
threshold=1.5000000000000002 1.0000000180025095e-35 1.5000000000000002 3.5000000000000004 0.29295353982342714 2.5000000000000004 0.25153832717011665 1.8500976562500002 2.5000000000000004 1.5000000000000002 2.5000000000000004 -0.37121917624870099 2.5000000000000004 3.5000000000000004 1.0000000180025095e-35 1.5000000000000002 30.500000000000004 0.3070090200266285 1.1499023437500002 0.0022279027494937352 1.5000000000000002 54.500000000000007 374.50000000000006 2.5000000000000004 2.5000000000000004
decision_type=2 2 2 2 2 2 2 2 2 2 2 2 2 2 2 2 8 2 2 2 2 8 10 2 2
left_child=1 2 9 11 6 12 8 14 -2 19 -5 -4 13 -6 -8 -9 -13 21 -19 -1 -21 23 -16 -3 -22
right_child=4 17 3 10 5 -7 7 15 -10 -11 -12 16 -14 -15 22 -17 -18 18 -20 20 24 -23 -24 -25 -26
leaf_value=0.031766379348691517 0.033716060313016077 0.036161893193855293 0.017488669863751274 0.029842880265754632 -0.00059287543931793975 0.022294752673689053 0.016965040352574585 0.030357891260229135 0.0077138281250158361 0.0066232484670960667 0.010438353868249699 -0.00064372894782954791 -0.00064333929744254871 0.02183291720102476 0.0087077750535457313 0.012420538073446778 0.010980068654097619 0.018721750445359401 0.035421460390803287 0.028637304370895539 0.021461665101803664 0.038781560985405243 -0.00062733589363721297 0.029820611383374489 0.017197096200947025
leaf_count=1248 532 3506 609 529 898 566 859 564 567 693 841 4304 4296 579 497 654 788 732 695 2481 1338 3455 1924 593 1051
internal_value=0 48.3587 31.0876 14.34 19.7046 9.67782 27.5378 21.3934 41.7165 40.2694 33.3985 6.6212 5.23984 18.3047 11.1288 37.1164 2.60901 56.7221 48.013 41.8643 39.1088 57.5614 2.70428 54.8247 30.6912
internal_count=34799 22863 13882 7071 11936 6339 5597 4498 1099 6811 1370 5701 5773 1477 3280 1218 5092 8981 1427 6118 4870 7554 2421 4099 2389
shrinkage=0.00064956


Tree=2
num_leaves=28
num_cat=0
split_feature=56 56 194 238 388 353 90 159 1 204 158 173 389 370 77 315 161 77 90 79 316 393 222 222 92 79 176
split_gain=102682 95379.2 37763.2 13925.4 13647.8 10289.1 10874.6 8842.74 8587.77 7404.13 7299.96 6480.3 5794.3 3608.51 3506.04 4594.02 2926.68 2022.51 8720.65 3010.09 2002.31 1736.02 1559.66 1467.84 1146.33 938.653 1592.76
threshold=1.5000000000000002 1.0000000180025095e-35 1.5000000000000002 3.5000000000000004 0.29295353982342714 2.5000000000000004 2.3500000000000001 1.5000000000000002 2.5000000000000004 4.5000000000000009 1.5000000000000002 1.5000000000000002 -0.37121917624870099 145.50000000000003 1.5498046875000002 1.5000000000000002 2.5000000000000004 1.7500000000000002 5.4500000000000011 39.500000000000007 1.0000000180025095e-35 0.0022279027494937352 3.5000000000000004 1.5000000000000002 7.5000000000000009 47.500000000000007 2.5000000000000004
decision_type=2 2 2 2 2 2 2 2 2 2 2 2 2 10 2 2 2 2 2 10 2 2 2 2 10 10 2
left_child=1 2 10 12 5 6 16 -5 9 23 21 -8 -4 -14 15 -13 -2 18 20 -20 -3 24 25 -6 -1 26 -22
right_child=4 17 3 7 8 -7 11 -9 -10 -11 -12 14 13 -15 -16 -17 -18 -19 19 -21 22 -23 -24 -25 -26 -27 -28
leaf_value=0.053602277067735557 0.024143007100798256 0.058371197937370299 0.028395820964352197 -0.00096667273921174175 0.014731931977225159 -0.0010425304122442017 0.016246638450503927 0.043896121968411479 0.035586094458329276 0.030621747831211035 0.011174062716139915 0.042004909435293107 -0.0011143521196880998 0.019871657283854236 0.050560612131541768 0.011788021225755889 -0.0010418216000678796 0.060009658520821157 0.043567105170111343 0.020125909221776692 0.03859292535965278 0.040000164425042679 0.04484746782465527 -0.0011154310577900636 0.038902523711003598 0.056472270125909441 0.05349922290886041
leaf_count=658 495 2430 609 528 517 995 871 842 566 539 693 712 4375 717 927 628 969 1399 547 571 626 4870 1060 4717 590 1765 583
internal_value=0 43.0194 28.8146 13.8325 18.7655 25.7552 28.9415 30.8386 9.4371 5.16248 36.5418 34.154 6.50472 2.5871 38.2224 29.2102 9.23799 49.4953 48.2433 32.0735 49.3294 37.8497 46.7865 0.818041 43.4961 48.2484 43.1745
internal_count=34799 22863 13882 7071 11936 5597 4602 1370 6339 5773 6811 3138 5701 5092 2267 1340 1464 8981 7582 1118 6464 6118 4034 5234 1248 2974 1209
shrinkage=0.00112399


Tree=3
num_leaves=27
num_cat=0
split_feature=56 56 169 382 399 14 369 319 350 201 382 56 55 117 21 133 213 77 77 6 395 316 289 79 213 222
split_gain=81072.9 67257.3 30972.3 10073.6 13818.8 11872.7 8655.05 7843 10500.7 7057.77 6882.04 5889.11 5796.87 5582.88 4092.83 3806.44 3605.78 1385.51 1231.69 6335.35 2227.82 1499.85 1189.69 937.657 2389.53 367.695
threshold=2.5000000000000004 1.0000000180025095e-35 1.5000000000000002 -0.58588819302063722 -0.0025782745287257071 1.5000000000000002 17.500000000000004 7.5000000000000009 1.0000000180025095e-35 2.5000000000000004 -0.83356855031491428 1.5000000000000002 3.5000000000000004 3.5000000000000004 2.5000000000000004 1.5000000000000002 2.5000000000000004 2.4501953125000004 1.7500000000000002 13.500000000000002 -0.13243232273009223 1.0000000180025095e-35 4.5000000000000009 52.500000000000007 2.5000000000000004 3.5000000000000004
decision_type=2 2 2 2 2 2 10 8 2 2 2 2 2 2 2 2 2 2 2 2 2 2 2 10 2 2
left_child=1 2 15 5 12 9 14 10 13 -2 -4 18 -5 -9 -7 22 -13 -12 19 21 -21 -3 -1 24 -23 -25
right_child=3 11 7 4 -6 6 -8 8 -10 -11 17 16 -14 -15 -16 -17 -18 -19 -20 20 -22 23 -24 25 -26 -27
leaf_value=0.028245371689505507 -0.0007291954799683117 0.039209522993104456 0.023109745744993321 0.0099096007039038373 -0.00079364929748678716 0.016131934789685196 0.022368097152484064 -0.00081289698527818545 0.032443675107835822 0.030092751367338889 -0.00084205421911685634 0.03065996458542487 0.034991529469037039 0.021936801410802616 -0.00085036337060112783 0.010208685383437924 0.0094344227721800036 0.01092504215396119 0.040045209174445304 0.014947240019568505 0.029860049905259485 0.026135466969844624 0.035133735341075431 0.038234323116822067 0.035761665590249618 0.031538114844966346
leaf_count=5473 515 2405 505 504 1038 588 726 1435 714 866 3540 597 854 560 5659 528 589 502 1399 552 633 949 625 1474 1061 508
internal_value=0 38.5383 26.8537 16.3387 27.2359 11.457 6.03827 13.7794 22.4761 27.9279 6.25491 43.4431 35.4889 10.1729 1.80843 33.6457 28.1066 1.21716 43.9599 42.9762 30.1576 43.8784 34.4561 41.7338 38.4579 43.7387
internal_count=34799 24049 13882 10750 2396 8354 6973 7256 2709 1381 4547 10167 1358 1995 6247 6626 1186 4042 8981 7582 1185 6397 6098 3992 2010 1982
shrinkage=0.000852367


Tree=4
num_leaves=26
num_cat=0
split_feature=56 56 194 238 382 399 14 112 159 0 55 389 226 55 56 370 355 90 390 327 92 358 51 79 128
split_gain=65054.2 51582.8 26176.1 11523.5 8781.68 11906.1 10605.7 7056.17 6970.59 6120.57 4976.71 4967.35 4859.66 4649.53 4348.38 3336.41 3269.03 2126.8 1022.99 1852.29 992.529 2351.44 834.134 3917.58 340.565
threshold=2.5000000000000004 1.0000000180025095e-35 1.5000000000000002 3.5000000000000004 -0.58588819302063722 -0.0025782745287257071 1.5000000000000002 1.0000000180025095e-35 1.5000000000000002 2.5000000000000004 1.0000000180025095e-35 -0.37121917624870099 1.5000000000000002 3.5000000000000004 1.5000000000000002 145.50000000000003 2.0000000000000004 2.9500000000000006 0.33168119643013177 8.3515625000000018 9.5000000000000018 1.5000000000000002 5.5000000000000009 54.500000000000007 1.5000000000000002
decision_type=2 2 2 2 2 2 2 2 2 2 2 2 2 2 2 10 2 2 2 10 8 2 2 8 2
left_child=1 2 12 11 6 13 7 -2 -5 10 16 -4 20 -6 18 -13 -8 -16 22 -20 21 -1 24 -24 -3
right_child=4 14 3 8 5 -7 9 -9 -10 -11 -12 15 -14 -15 17 -17 -18 -19 19 -21 -22 -23 23 -25 -26
leaf_value=0.023971656327783093 -0.00068772592677805722 0.034436842421129411 0.017731036563539679 -0.00068043536653011503 0.0089081574982969331 -0.00073372978655985145 0.020447484289600203 0.02638220414436207 0.026623998367690908 0.020479347791866741 -0.00078602455267330574 -0.0007819352932286589 0.007482024774974276 0.029337057651082955 0.009395205524608501 0.012959248474930572 -0.00067585349785612126 0.024937019616247533 0.030090980921665202 0.02012717660858214 0.017330619712389445 0.030800116684683618 0.017572043636982337 0.03119127332764025 0.031446283488706359
leaf_count=4865 546 539 609 528 504 1038 496 835 842 540 5421 4375 646 854 495 717 516 691 787 591 515 785 540 585 5939
internal_value=0 35.1229 25.1472 12.8791 15.6811 25.482 11.1245 26.0965 27.3021 5.93957 2.9524 6.18607 30.8915 32.5931 39.153 2.48625 16.8273 26.2816 39.5704 34.756 31.8172 32.4076 39.9965 35.6554 40.4683
internal_count=34799 24049 13882 7071 10750 2396 8354 1381 1370 6973 6433 5701 6811 1358 10167 5092 1012 1186 8981 1378 6165 5650 7603 1125 6478
shrinkage=0.000788188


Tree=5
num_leaves=30
num_cat=0
split_feature=56 56 194 238 382 14 55 397 112 159 291 284 389 158 56 370 77 164 213 11 11 320 393 77 51 92 79 305 79
split_gain=53123.2 40520.2 22109.4 10271.2 7711.04 9526.41 8319.06 6505.36 6130.69 6034.86 5711.47 7275.06 4601.96 4373.13 3296.89 3187.66 2881.25 1367.3 1084.18 2236.68 3195.92 1656.27 914.201 621.447 1697.92 564.379 487.434 326.08 189.151
threshold=2.5000000000000004 1.0000000180025095e-35 1.5000000000000002 3.5000000000000004 -0.58588819302063722 1.5000000000000002 2.5000000000000004 -0.11000174607609559 1.0000000180025095e-35 1.5000000000000002 2.5000000000000004 1.5000000000000002 -0.37121917624870099 1.5000000000000002 1.5000000000000002 145.50000000000003 1.1499023437500002 1097.5000000000002 3.5000000000000004 2.5000000000000004 1.5000000000000002 2.5000000000000004 0.0022279027494937352 1.5498046875000002 3.5000000000000004 7.5000000000000009 51.500000000000007 2.5000000000000004 31.500000000000004
decision_type=2 2 2 2 2 2 2 2 2 2 2 2 2 2 2 10 2 10 2 2 2 10 2 2 2 10 8 2 10
left_child=1 2 13 12 5 8 -6 -8 -2 -5 11 -7 -4 22 18 -14 -16 -12 19 20 -3 -22 25 24 27 -1 28 -21 -20
right_child=4 14 3 9 6 10 7 -9 -10 -11 17 -13 15 -15 16 -17 -18 -19 26 23 21 -23 -24 -25 -26 -27 -28 -29 -30
leaf_value=0.03482759260187273 -0.00084754082254402316 0.034403506031499761 0.020717162291541115 -0.00083854194348816189 -0.00089024131920660598 -0.00090865690896261273 0.011965403470699673 0.035188303773637603 0.030025679282949962 0.030277360693879041 -0.00096699971753542156 0.027785890583961425 -0.00096389925617364376 0.0086893602991906984 0.0097618076043942941 0.015352936928661099 0.030253456016795705 0.011777933857592357 0.036400476279778625 0.036432342662432726 0.019306357003027633 0.029658097880806158 0.02720327379804879 0.037523836557366921 0.025027546625890094 0.026563432661697705 0.037774240195333111 0.032431687465232735 0.031286640012682408
leaf_count=658 546 876 609 528 804 1077 892 700 835 842 4716 678 4375 693 582 717 604 502 510 1035 866 534 4870 826 526 590 1577 1382 849
internal_value=0 32.2766 23.6479 12.4649 15.0757 10.811 23.9457 28.9147 24.492 25.552 5.8441 16.4279 6.08363 28.669 35.6522 2.46612 24.6813 0.672798 35.9967 34.8549 31.159 25.6619 29.5091 36.1904 34.8367 33.1877 37.6503 35.7171 34.9916
internal_count=34799 24049 13882 7071 10750 8354 2396 1592 1381 1370 6973 1755 5701 6811 10167 5092 1186 5218 8981 6045 2276 1400 6118 3769 2943 1248 2936 2417 1359
shrinkage=0.000971684


Tree=6
num_leaves=31
num_cat=0
split_feature=56 56 194 50 232 394 369 387 283 389 389 309 202 194 283 158 56 388 259 327 92 393 393 213 222 107 139 361 92 128
split_gain=44067 32509.1 18871.2 7306.09 7982.7 7713.59 6207.6 5835.02 6357.04 5953.94 7433.29 5523.07 4942.78 4895.58 3820.01 3699.22 2561.81 4010.35 1763.65 1284.46 789.204 1350.08 711.919 527.61 4173.47 1453.79 594.887 418.775 400.778 321.839
threshold=2.5000000000000004 1.0000000180025095e-35 1.5000000000000002 4.5000000000000009 2.5000000000000004 0.37930622527582497 14.500000000000002 -0.020437857928248766 3.5000000000000004 -0.025359108591365417 0.67819694884690607 2.5000000000000004 3.5000000000000004 2.5000000000000004 2.5000000000000004 1.5000000000000002 1.5000000000000002 0.2592832962331249 2.5000000000000004 8.8515625000000018 3.5000000000000004 -0.023859217750349767 0.0022279027494937352 3.5000000000000004 3.5000000000000004 3.5000000000000004 1.5000000000000002 1.0000000180025095e-35 7.5000000000000009 3.5000000000000004
decision_type=2 2 2 2 2 2 10 2 2 2 2 2 2 2 2 2 2 2 2 10 8 2 2 2 2 2 2 2 10 2
left_child=1 2 15 5 -5 6 12 8 9 18 -11 -8 19 14 -14 22 20 -18 -4 -2 21 -3 28 24 29 -26 -25 -23 -1 -22
right_child=3 16 7 4 -6 -7 11 -9 -10 10 -12 -13 13 -15 -16 -17 17 -19 -20 -21 23 27 -24 26 25 -27 -28 -29 -30 -31
leaf_value=0.030643042041207103 -0.00092808305093596975 0.020696835911459897 0.016671888083036088 0.032163913868270742 -0.00081897940706423655 0.026351230435073366 -0.00082133556956517863 -0.00090552156494678006 -0.00088890593503581814 -0.00089893210866952744 0.022465970663034629 0.027235102191128402 -0.00079638267843332459 -0.00087867694733819856 0.023937067743920615 0.00814050728454839 0.029188138503412061 0.0077124562519708456 0.032091688560809815 0.010572887455548215 0.031984140587874549 0.025640649659319659 0.02435396078723721 0.033544594029787239 0.026903586772643803 0.017504049212930656 0.029788586353089078 0.031274931918012706 0.023849179882216073 0.028668156302034835
leaf_count=658 4671 546 511 598 585 650 559 1957 1411 1780 909 625 496 1147 908 693 496 690 503 511 2628 549 4870 1344 533 689 1056 593 590 1043
internal_value=0 29.872 22.3211 14.5153 27.1273 11.7561 9.08079 12.0769 15.5624 19.3598 11.6963 21.5526 5.80503 13.5594 20.3835 26.7509 32.7464 23.2639 29.1485 0.59973 33.0362 30.1133 27.4813 33.4803 32.5207 24.9806 34.8305 31.65 30.6667 33.656
internal_count=34799 24049 13882 10750 1183 9567 8917 7071 5114 3703 2689 1184 7733 2551 1404 6811 10167 1186 1014 5182 8981 1688 6118 7293 4893 1222 2400 1142 1248 3671
shrinkage=0.000931083



feature importances:
D19_SOZIALES=18
EINGEZOGENAM_HH_JAHR=9
_isMissingUnknown_9=7
EXTSEL992=7
_isMissingUnknown_10=6
KBA13_HALTER_25=6
_isMissingUnknown_14=5
GFK_URLAUBERTYP=5
KBA13_KW_90=4
KBA05_ZUL3=4
KBA13_KRSHERST_FORD_OPEL=4
D19_SONSTIGE=4
_isMissingUnknown_3=4
KBA13_KMH_140=4
PLZ8_ANTG2=3
_isMissingUnknown_11=3
CJT_GESAMTTYP=3
KBA05_ZUL4=3
EINGEFUEGT_AM_DayOfYear=3
GEBURTSJAHR=3
ALTERSKATEGORIE_GROB=3
D19_RATGEBER=2
AKT_DAT_KL=2
KBA13_KRSZUL_NEU=2
KBA13_KW_40=2
ARBEIT=2
KBA13_SITZE_6=2
VHA=2
VK_DISTANZ=2
D19_VERSAND_OFFLINE_DATUM_Value_ACTIVITY_WITHIN_MONTHS=2
KBA05_CCM4=2
LP_LEBENSPHASE_FEIN_Value_AGE=2
EINGEFUEGT_AM_Day=2
ALTER_HH_Value_0=2
_isMissingUnknown_15=2
_isMissingUnknown_20=2
KBA05_KW2=2
KBA13_ANZAHL_PKW=2
KBA13_BJ_2009=2
KBA13_HERST_ASIEN=2
ALTERSKATEGORIE_FEIN=1
ANZ_HH_TITEL=1
CJT_KATALOGNUTZER=1
CJT_TYP_6=1
D19_BUCH_CD=1
D19_NAHRUNGSERGAENZUNG=1
D19_VERSI_DATUM=1
KBA05_ANHANG=1
KBA05_AUTOQUOT=1
AGER_TYP=1
KBA05_HERST4=1
SEMIO_TRADV=1
STRUKTURTYP=1
VERS_TYP=1
KBA13_HALTER_65=1
KBA13_SEG_KOMPAKTKLASSE=1
VK_ZG11=1
WOHNLAGE=1
KBA13_CCM_1000=1
KBA13_BJ_2000=1
KBA13_SEG_WOHNMOBILE=1
D19_VERSAND_ONLINE_DATUM_Value_INCREASE=1
LP_FAMILIE_FEIN_Value_FAMILY=1
KBA13_KW_50=1
LP_LEBENSPHASE_GROB_Value_AGE=1
KBA13_HALTER_60=1
KBA13_ANTG2=1
EINGEFUEGT_AM_DaysInMonth=1
_isMissingUnknown_2=1
PLZ8_ANTG3=1
_isMissingUnknown_8=1
KBA05_VORB0=1
KBA05_SEG5=1
KBA05_MOD8=1
_isMissingUnknown_13=1
KBA05_MAXSEG=1
RETOURTYP_BK_S=1
_isMissingUnknown_16=1
_isMissingUnknown_18=1
RT_SCHNAEPPCHEN=1

pandas_categorical:[]
