tree
version=v2
num_class=1
num_tree_per_iteration=1
label_index=0
max_feature_idx=492
objective=binary sigmoid:1
feature_names=AGER_TYP AKT_DAT_KL ALTER_KIND1 ALTER_KIND2 ALTER_KIND3 ALTER_KIND4 ALTERSKATEGORIE_FEIN ANZ_HAUSHALTE_AKTIV ANZ_HH_TITEL ANZ_KINDER ANZ_PERSONEN ARBEIT BALLRAUM CAMEO_DEUG_2015 CJT_GESAMTTYP CJT_KATALOGNUTZER CJT_TYP_1 CJT_TYP_2 CJT_TYP_3 CJT_TYP_4 CJT_TYP_5 CJT_TYP_6 D19_BANKEN_ANZ_12 D19_BANKEN_ANZ_24 D19_BANKEN_DIREKT D19_BANKEN_GROSS D19_BANKEN_LOKAL D19_BANKEN_ONLINE_QUOTE_12 D19_BANKEN_REST D19_BEKLEIDUNG_GEH D19_BEKLEIDUNG_REST D19_BILDUNG D19_BIO_OEKO D19_BUCH_CD D19_DIGIT_SERV D19_DROGERIEARTIKEL D19_ENERGIE D19_FREIZEIT D19_GARTEN D19_GESAMT_ANZ_12 D19_GESAMT_ANZ_24 D19_GESAMT_ONLINE_QUOTE_12 D19_HANDWERK D19_HAUS_DEKO D19_KINDERARTIKEL D19_KONSUMTYP D19_KONSUMTYP_MAX D19_KOSMETIK D19_LEBENSMITTEL D19_LOTTO D19_NAHRUNGSERGAENZUNG D19_RATGEBER D19_REISEN D19_SAMMELARTIKEL D19_SCHUHE D19_SONSTIGE D19_SOZIALES D19_TECHNIK D19_TELKO_ANZ_12 D19_TELKO_ANZ_24 D19_TELKO_MOBILE D19_TELKO_ONLINE_QUOTE_12 D19_TELKO_REST D19_TIERARTIKEL D19_VERSAND_ANZ_12 D19_VERSAND_ANZ_24 D19_VERSAND_ONLINE_QUOTE_12 D19_VERSAND_REST D19_VERSI_ANZ_12 D19_VERSI_ANZ_24 D19_VERSI_DATUM D19_VERSI_OFFLINE_DATUM D19_VERSI_ONLINE_DATUM D19_VERSI_ONLINE_QUOTE_12 D19_VERSICHERUNGEN D19_VOLLSORTIMENT D19_WEIN_FEINKOST EINGEZOGENAM_HH_JAHR EWDICHTE EXTSEL992 FINANZ_ANLEGER FINANZ_HAUSBAUER FINANZ_MINIMALIST FINANZ_SPARER FINANZ_UNAUFFAELLIGER FINANZ_VORSORGER FINANZTYP FIRMENDICHTE GEBAEUDETYP GEBAEUDETYP_RASTER GEBURTSJAHR GEMEINDETYP GFK_URLAUBERTYP GREEN_AVANTGARDE HEALTH_TYP HH_DELTA_FLAG HH_EINKOMMEN_SCORE INNENSTADT KBA05_ALTER1 KBA05_ALTER2 KBA05_ALTER3 KBA05_ALTER4 KBA05_ANHANG KBA05_ANTG1 KBA05_ANTG2 KBA05_ANTG3 KBA05_ANTG4 KBA05_AUTOQUOT KBA05_BAUMAX KBA05_CCM1 KBA05_CCM2 KBA05_CCM3 KBA05_CCM4 KBA05_DIESEL KBA05_FRAU KBA05_GBZ KBA05_HERST1 KBA05_HERST4 KBA05_HERST5 KBA05_HERSTTEMP KBA05_KRSAQUOT KBA05_KRSHERST1 KBA05_KRSHERST2 KBA05_KRSHERST3 KBA05_KRSOBER KBA05_KRSVAN KBA05_KRSZUL KBA05_KW1 KBA05_KW2 KBA05_KW3 KBA05_MAXAH KBA05_MAXBJ KBA05_MAXHERST KBA05_MAXSEG KBA05_MAXVORB KBA05_MOD1 KBA05_MOD2 KBA05_MOD3 KBA05_MOD4 KBA05_MOD8 KBA05_MODTEMP KBA05_MOTOR KBA05_MOTRAD KBA05_SEG1 KBA05_SEG10 KBA05_SEG2 KBA05_SEG3 KBA05_SEG4 KBA05_SEG5 KBA05_SEG6 KBA05_SEG7 KBA05_SEG8 KBA05_SEG9 KBA05_VORB0 KBA05_VORB1 KBA05_VORB2 KBA05_ZUL1 KBA05_ZUL2 KBA05_ZUL3 KBA05_ZUL4 KBA13_ANTG1 KBA13_ANTG2 KBA13_ANTG3 KBA13_ANTG4 KBA13_ANZAHL_PKW KBA13_AUDI KBA13_AUTOQUOTE KBA13_BAUMAX KBA13_BJ_1999 KBA13_BJ_2000 KBA13_BJ_2004 KBA13_BJ_2006 KBA13_BJ_2008 KBA13_BJ_2009 KBA13_BMW KBA13_CCM_0_1400 KBA13_CCM_1000 KBA13_CCM_1200 KBA13_CCM_1400 KBA13_CCM_1401_2500 KBA13_CCM_1500 KBA13_CCM_1600 KBA13_CCM_1800 KBA13_CCM_2000 KBA13_CCM_2500 KBA13_CCM_2501 KBA13_CCM_3000 KBA13_CCM_3001 KBA13_FAB_ASIEN KBA13_FAB_SONSTIGE KBA13_FIAT KBA13_FORD KBA13_GBZ KBA13_HALTER_20 KBA13_HALTER_25 KBA13_HALTER_30 KBA13_HALTER_35 KBA13_HALTER_40 KBA13_HALTER_45 KBA13_HALTER_50 KBA13_HALTER_55 KBA13_HALTER_60 KBA13_HALTER_65 KBA13_HALTER_66 KBA13_HERST_ASIEN KBA13_HERST_AUDI_VW KBA13_HERST_BMW_BENZ KBA13_HERST_EUROPA KBA13_HERST_FORD_OPEL KBA13_HERST_SONST KBA13_HHZ KBA13_KMH_0_140 KBA13_KMH_110 KBA13_KMH_140 KBA13_KMH_140_210 KBA13_KMH_180 KBA13_KMH_210 KBA13_KMH_250 KBA13_KMH_251 KBA13_KRSAQUOT KBA13_KRSHERST_AUDI_VW KBA13_KRSHERST_BMW_BENZ KBA13_KRSHERST_FORD_OPEL KBA13_KRSSEG_KLEIN KBA13_KRSSEG_OBER KBA13_KRSSEG_VAN KBA13_KRSZUL_NEU KBA13_KW_0_60 KBA13_KW_110 KBA13_KW_120 KBA13_KW_121 KBA13_KW_30 KBA13_KW_40 KBA13_KW_50 KBA13_KW_60 KBA13_KW_61_120 KBA13_KW_70 KBA13_KW_80 KBA13_KW_90 KBA13_MAZDA KBA13_MERCEDES KBA13_MOTOR KBA13_NISSAN KBA13_OPEL KBA13_PEUGEOT KBA13_RENAULT KBA13_SEG_GELAENDEWAGEN KBA13_SEG_KLEINST KBA13_SEG_KLEINWAGEN KBA13_SEG_KOMPAKTKLASSE KBA13_SEG_MINIVANS KBA13_SEG_MINIWAGEN KBA13_SEG_MITTELKLASSE KBA13_SEG_OBEREMITTELKLASSE KBA13_SEG_OBERKLASSE KBA13_SEG_SONSTIGE KBA13_SEG_SPORTWAGEN KBA13_SEG_UTILITIES KBA13_SEG_VAN KBA13_SEG_WOHNMOBILE KBA13_SITZE_4 KBA13_SITZE_5 KBA13_SITZE_6 KBA13_TOYOTA KBA13_VORB_0 KBA13_VORB_1 KBA13_VORB_1_2 KBA13_VORB_2 KBA13_VORB_3 KBA13_VW KK_KUNDENTYP KKK KOMBIALTER KONSUMNAEHE KONSUMZELLE MIN_GEBAEUDEJAHR MOBI_RASTER MOBI_REGIO NATIONALITAET_KZ ONLINE_AFFINITAET ORTSGR_KLS9 OST_WEST_KZ PLZ8_ANTG1 PLZ8_ANTG2 PLZ8_ANTG3 PLZ8_ANTG4 PLZ8_BAUMAX REGIOTYP RELAT_AB RETOURTYP_BK_S RT_KEIN_ANREIZ RT_SCHNAEPPCHEN RT_UEBERGROESSE SEMIO_DOM SEMIO_ERL SEMIO_FAM SEMIO_KAEM SEMIO_KRIT SEMIO_KULT SEMIO_LUST SEMIO_MAT SEMIO_PFLICHT SEMIO_RAT SEMIO_REL SEMIO_SOZ SEMIO_TRADV SEMIO_VERT SHOPPER_TYP SOHO_KZ STRUKTURTYP TITEL_KZ UMFELD_ALT UMFELD_JUNG UNGLEICHENN_FLAG VERDICHTUNGSRAUM VERS_TYP VHA VHN VK_DHT4A VK_DISTANZ VK_ZG11 W_KEIT_KIND_HH WOHNDAUER_2008 WOHNLAGE ZABEOTYP ANREDE_KZ ALTERSKATEGORIE_GROB ALTER_HH_Value_0 CAMEO_DEUINTL_2015_Value_0 CAMEO_DEUINTL_2015_Value_1 D19_BANKEN_DATUM_Value_ACTIVITY_WITHIN_MONTHS D19_BANKEN_DATUM_Value_INCREASE D19_BANKEN_OFFLINE_DATUM_Value_ACTIVITY_WITHIN_MONTHS D19_BANKEN_OFFLINE_DATUM_Value_INCREASE D19_BANKEN_ONLINE_DATUM_Value_ACTIVITY_WITHIN_MONTHS D19_BANKEN_ONLINE_DATUM_Value_INCREASE D19_GESAMT_DATUM_Value_ACTIVITY_WITHIN_MONTHS D19_GESAMT_DATUM_Value_INCREASE D19_GESAMT_OFFLINE_DATUM_Value_ACTIVITY_WITHIN_MONTHS D19_GESAMT_OFFLINE_DATUM_Value_INCREASE D19_GESAMT_ONLINE_DATUM_Value_ACTIVITY_WITHIN_MONTHS D19_GESAMT_ONLINE_DATUM_Value_INCREASE D19_TELKO_DATUM_Value_ACTIVITY_WITHIN_MONTHS D19_TELKO_DATUM_Value_INCREASE D19_TELKO_OFFLINE_DATUM_Value_ACTIVITY_WITHIN_MONTHS D19_TELKO_OFFLINE_DATUM_Value_INCREASE D19_TELKO_ONLINE_DATUM_Value_ACTIVITY_WITHIN_MONTHS D19_TELKO_ONLINE_DATUM_Value_INCREASE D19_VERSAND_DATUM_Value_ACTIVITY_WITHIN_MONTHS D19_VERSAND_DATUM_Value_INCREASE D19_VERSAND_OFFLINE_DATUM_Value_ACTIVITY_WITHIN_MONTHS D19_VERSAND_OFFLINE_DATUM_Value_INCREASE D19_VERSAND_ONLINE_DATUM_Value_ACTIVITY_WITHIN_MONTHS D19_VERSAND_ONLINE_DATUM_Value_INCREASE LP_FAMILIE_FEIN_Value_CHILD LP_FAMILIE_FEIN_Value_FAMILY LP_FAMILIE_FEIN_Value_GENERATIONAL LP_FAMILIE_GROB_Value_FAMILY LP_LEBENSPHASE_FEIN_Value_AGE LP_LEBENSPHASE_FEIN_Value_INCOME LP_LEBENSPHASE_FEIN_Value_OTHER LP_LEBENSPHASE_GROB_Value_AGE LP_LEBENSPHASE_GROB_Value_INCOME LP_STATUS_FEIN_Value_INCOME LP_STATUS_FEIN_Value_OTHER LP_STATUS_GROB_Value_INCOME PRAEGENDE_JUGENDJAHRE_Value_0 PRAEGENDE_JUGENDJAHRE_Value_2 PRAEGENDE_JUGENDJAHRE_Value_3 EINGEFUEGT_AM_Day EINGEFUEGT_AM_DayOfYear EINGEFUEGT_AM_DayOfWeek EINGEFUEGT_AM_DaysInMonth EINGEFUEGT_AM_IsMonthStart EINGEFUEGT_AM_IsMonthEnd EINGEFUEGT_AM_IsQuarterStart EINGEFUEGT_AM_IsQuarterEnd EINGEFUEGT_AM_IsYearStart EINGEFUEGT_AM_IsYearEnd EINGEFUEGT_AM_Season _isMissingUnknown_1 _isMissingUnknown_2 _isMissingUnknown_3 _isMissingUnknown_4 _isMissingUnknown_5 _isMissingUnknown_6 _isMissingUnknown_7 _isMissingUnknown_8 _isMissingUnknown_9 _isMissingUnknown_10 _isMissingUnknown_11 _isMissingUnknown_12 _isMissingUnknown_13 _isMissingUnknown_14 _isMissingUnknown_15 _isMissingUnknown_16 _isMissingUnknown_17 _isMissingUnknown_18 _isMissingUnknown_19 _isMissingUnknown_20 CAMEO_DEU_2015_1A CAMEO_DEU_2015_1B CAMEO_DEU_2015_1C CAMEO_DEU_2015_1D CAMEO_DEU_2015_1E CAMEO_DEU_2015_2A CAMEO_DEU_2015_2B CAMEO_DEU_2015_2C CAMEO_DEU_2015_2D CAMEO_DEU_2015_3A CAMEO_DEU_2015_3B CAMEO_DEU_2015_3C CAMEO_DEU_2015_3D CAMEO_DEU_2015_4A CAMEO_DEU_2015_4B CAMEO_DEU_2015_4C CAMEO_DEU_2015_4D CAMEO_DEU_2015_4E CAMEO_DEU_2015_5A CAMEO_DEU_2015_5B CAMEO_DEU_2015_5C CAMEO_DEU_2015_5D CAMEO_DEU_2015_5E CAMEO_DEU_2015_5F CAMEO_DEU_2015_6A CAMEO_DEU_2015_6B CAMEO_DEU_2015_6C CAMEO_DEU_2015_6D CAMEO_DEU_2015_6E CAMEO_DEU_2015_6F CAMEO_DEU_2015_7A CAMEO_DEU_2015_7B CAMEO_DEU_2015_7C CAMEO_DEU_2015_7D CAMEO_DEU_2015_7E CAMEO_DEU_2015_8A CAMEO_DEU_2015_8B CAMEO_DEU_2015_8C CAMEO_DEU_2015_8D CAMEO_DEU_2015_9A CAMEO_DEU_2015_9B CAMEO_DEU_2015_9C CAMEO_DEU_2015_9D CAMEO_DEU_2015_9E CAMEO_DEU_2015_XX D19_LETZTER_KAUF_BRANCHE_D19_BANKEN_DIREKT D19_LETZTER_KAUF_BRANCHE_D19_BANKEN_GROSS D19_LETZTER_KAUF_BRANCHE_D19_BANKEN_LOKAL D19_LETZTER_KAUF_BRANCHE_D19_BANKEN_REST D19_LETZTER_KAUF_BRANCHE_D19_BEKLEIDUNG_GEH D19_LETZTER_KAUF_BRANCHE_D19_BEKLEIDUNG_REST D19_LETZTER_KAUF_BRANCHE_D19_BILDUNG D19_LETZTER_KAUF_BRANCHE_D19_BIO_OEKO D19_LETZTER_KAUF_BRANCHE_D19_BUCH_CD D19_LETZTER_KAUF_BRANCHE_D19_DIGIT_SERV D19_LETZTER_KAUF_BRANCHE_D19_DROGERIEARTIKEL D19_LETZTER_KAUF_BRANCHE_D19_ENERGIE D19_LETZTER_KAUF_BRANCHE_D19_FREIZEIT D19_LETZTER_KAUF_BRANCHE_D19_GARTEN D19_LETZTER_KAUF_BRANCHE_D19_HANDWERK D19_LETZTER_KAUF_BRANCHE_D19_HAUS_DEKO D19_LETZTER_KAUF_BRANCHE_D19_KINDERARTIKEL D19_LETZTER_KAUF_BRANCHE_D19_KOSMETIK D19_LETZTER_KAUF_BRANCHE_D19_LEBENSMITTEL D19_LETZTER_KAUF_BRANCHE_D19_LOTTO D19_LETZTER_KAUF_BRANCHE_D19_NAHRUNGSERGAENZUNG D19_LETZTER_KAUF_BRANCHE_D19_RATGEBER D19_LETZTER_KAUF_BRANCHE_D19_REISEN D19_LETZTER_KAUF_BRANCHE_D19_SAMMELARTIKEL D19_LETZTER_KAUF_BRANCHE_D19_SCHUHE D19_LETZTER_KAUF_BRANCHE_D19_SONSTIGE D19_LETZTER_KAUF_BRANCHE_D19_TECHNIK D19_LETZTER_KAUF_BRANCHE_D19_TELKO_MOBILE D19_LETZTER_KAUF_BRANCHE_D19_TELKO_REST D19_LETZTER_KAUF_BRANCHE_D19_TIERARTIKEL D19_LETZTER_KAUF_BRANCHE_D19_UNBEKANNT D19_LETZTER_KAUF_BRANCHE_D19_VERSAND_REST D19_LETZTER_KAUF_BRANCHE_D19_VERSICHERUNGEN D19_LETZTER_KAUF_BRANCHE_D19_VOLLSORTIMENT D19_LETZTER_KAUF_BRANCHE_D19_WEIN_FEINKOST PRAEGENDE_JUGENDJAHRE_Value_1_FDJ_-_communist_party_youth_organisation PRAEGENDE_JUGENDJAHRE_Value_1_Generation_Golf PRAEGENDE_JUGENDJAHRE_Value_1_Swords_into_ploughshares PRAEGENDE_JUGENDJAHRE_Value_1_digital_media_kids PRAEGENDE_JUGENDJAHRE_Value_1_ecological_awareness PRAEGENDE_JUGENDJAHRE_Value_1_economic_miracle PRAEGENDE_JUGENDJAHRE_Value_1_family_orientation PRAEGENDE_JUGENDJAHRE_Value_1_generation_68_-_student_protestors PRAEGENDE_JUGENDJAHRE_Value_1_milk_bar_-_Individualisation PRAEGENDE_JUGENDJAHRE_Value_1_opponents_to_the_building_of_the_Wall PRAEGENDE_JUGENDJAHRE_Value_1_peace_movement PRAEGENDE_JUGENDJAHRE_Value_1_reconstruction_years PRAEGENDE_JUGENDJAHRE_Value_1_war_years
feature_infos=[-1:3] [-2:9] [2:18] [5:18] none none [-2:25] [0:353] [0:20] [0:6] [0:24] [-2:9] [-2:7] [-2:9] [-2:6] [-2:5] [-2:5] [-2:5] [-2:5] [-2:5] [-2:5] [-2:5] [0:6] [0:6] [0:7] [0:6] [0:7] [-2:10] [0:7] [0:7] [0:7] [0:7] [0:7] [0:7] [0:7] [0:7] [0:7] [0:7] [0:7] [0:6] [0:6] [-2:10] [0:7] [0:7] [0:7] [-2:9] [1:9] [0:7] [0:7] [-2:7] [0:7] [0:7] [0:7] [0:7] [0:7] [0:7] [-2:5] [0:7] [0:5] [0:5] [0:7] [-2:10] [0:7] [0:7] [0:6] [0:6] [-2:10] [0:7] [0:5] [0:5] [1:10] [1:10] none [-2:10] [0:7] [0:7] [0:7] [-1:3.30078125] [-2:6] [1:56] [1:5] [1:5] [1:5] [1:5] [1:5] [1:5] [1:6] [-2:5] [-2:8] [-2:5] [0:11.300000000000001] [11:50] [1:12] [0:1] [-1:3] [-2:1] [-2:6] [-2:8] [-2:4] [-2:5] [-2:5] [-2:5] [-2:3] [-2:4] [-2:4] [-2:3] [-2:2] [-2:5] [-2:5] [-2:5] [-2:5] [-2:5] [-2:4] [-2:4] [-2:5] [-2:5] [-2:5] [-2:5] [-2:5] [-2:5] [-2:5] [-2:5] [-2:5] [-2:5] [-2:3] [-2:3] [-2:3] [-2:5] [-2:5] [-2:4] [-2:5] [-2:4] [-2:5] [-2:4] [-2:3] [-2:4] [-2:5] [-2:5] [-2:5] [-2:3] [-2:6] [-2:4] [-2:3] [-2:3] [-2:4] [-2:5] [-2:5] [-2:5] [-2:4] [-2:1] [-2:3] [-2:3] [-2:3] [-2:5] [-2:5] [-2:5] [-2:5] [-2:5] [-2:5] [-2:5] [-2:4] [-2:4] [-2:3] [-2:2] [0:2300] [-2:5] [-2:5] [-2:5] [-2:5] [-2:5] [-2:5] [-2:5] [-2:5] [-2:5] [-2:5] [-2:5] [-2:5] [-2:5] [-2:5] [-2:5] [-2:5] [-2:5] [-2:5] [-2:5] [-2:5] [-2:5] [-2:5] [-2:5] [-2:5] [-2:5] [-2:5] [-2:5] [-2:5] [-2:5] [-2:5] [-2:5] [-2:5] [-2:5] [-2:5] [-2:5] [-2:5] [-2:5] [-2:5] [-2:5] [-2:5] [-2:5] [-2:5] [-2:5] [-2:5] [-2:5] [-2:5] [-2:5] [-2:3] [-2:5] [-2:5] [-2:5] [-2:5] [-2:5] [-2:3] [-2:5] [-2:5] [-2:5] [-2:5] [-2:3] [-2:3] [-2:3] [-2:3] [-2:5] [-2:5] [-2:5] [-2:5] [-2:3] [-2:5] [-2:5] [-2:5] [-2:5] [-2:5] [-2:5] [-2:5] [-2:5] [-2:5] [-2:4] [-2:5] [-2:5] [-2:5] [-2:5] [-2:5] [-2:5] [-2:5] [-2:5] [-2:5] [-2:5] [-2:5] [-2:5] [-2:5] [-2:5] [-2:5] [-2:5] [-2:5] [-2:5] [-2:5] [-2:5] [-2:5] [-2:5] [-2:5] [-2:5] [-2:5] [-2:5] [-2:5] [-2:5] [-2:6] [-2:4] [1:9] [-2:7] [-2:1] [-1:3.099609375] [-2:6] [-2:6] [-1:3] [-2:5] [-2:9] [-2:2] [-2:4] [-2:4] [-2:3] [-2:2] [-2:5] [-2:7] [-2:5] [-2:5] [-2:5] [-2:5] [-2:5] [1:7] [1:7] [1:7] [1:7] [1:7] [1:7] [1:7] [1:7] [1:7] [1:7] [1:7] [1:7] [1:7] [1:7] [-1:3] [-2:1] [-2:3] [-2:5] [-2:5] [-2:5] [-2:1] [0:45] [-1:2] [-2:5] [-2:4] [1:11] [1:13] [1:11] [-2:6] [-2:9] [-2:8] [1:6] [1:2] [1:9] [0:10.1015625] [-2:5] [-2:5] [0:5] [0:5] [0:5] [0:5] [0:5] [0:5] [0:5] [0:5] [0:5] [0:5] [0:5] [0:5] [0:5] [0:5] [0:5] [0:5] [0:5] none [0:5] [0:5] [0:5] [0:5] [0:5] [0:5] [-2:3] [-2:8] [-2:3] [-2:4] [-2:5] [-2:7] none [-2:3] [-2:4] [-2:7] [-2:8] [-2:2] [-1:6] [-1:2] [-1:3] [1:31] [2:365] [-2:6] [28:31] [0:1] none none none none none [0:3] [-2.2083146064174635:14.259193305521343] [-5.9007107396731966:6.1135041603235534] [-6.3144945203165612:6.0770542173820825] [-2.616796517584147:8.1530105039188836] [-3.0540729225044014:7.3736377913611442] [-1.5481024585681533:5.7935991918011727] [-1.8367647932651929:2.9454139953883369] [-3.1529604240351721:3.0947390738493477] [-0.98093477921175021:0.9713992095496804] [-0.98049511908664311:1.7887197137894397] [-1.6232912618877773:1.708438180165925] [-1.5320520748853079:1.8951077503745051] [-1.2020469363457102:1.1916233369037497] [-0.90516040822178256:3.9969032047591613] [-1.4306446823096799:1.4613847047569262] [-1.0406915982371046:1.8634039434443368] [-2.7853555493882616:2.8486835363082426] [-1.2829023721743935:1.2229279825376977] [-1.4705490182854528:1.9169812592173574] [-1.2114417118988876:1.7305862506292544] [0:1] none none [0:1] [0:1] [0:1] [0:1] [0:1] [0:1] none [0:1] [0:1] [0:1] [0:1] [0:1] [0:1] [0:1] none [0:1] [0:1] [0:1] [0:1] none none none [0:1] [0:1] none [0:1] [0:1] [0:1] [0:1] [0:1] none [0:1] [0:1] [0:1] [0:1] [0:1] [0:1] [0:1] [0:1] [0:1] [0:1] none [0:1] [0:1] none none [0:1] [0:1] none none [0:1] none [0:1] [0:1] [0:1] none none [0:1] none none [0:1] none [0:1] none none [0:1] [0:1] [0:1] [0:1] [0:1] [0:1] none [0:1] [0:1] [0:1] [0:1] none none [0:1] none [0:1] [0:1] [0:1] [0:1] [0:1] [0:1] [0:1] [0:1] [0:1] [0:1]
tree_sizes=4539

Tree=0
num_leaves=58
num_cat=0
split_feature=56 56 380 77 169 399 395 390 144 77 327 51 7 238 159 29 233 196 301 323 321 383 33 76 235 126 261 277 302 326 325 128 51 191 325 49 64 139 102 137 7 151 177 385 113 155 330 17 164 388 212 151 383 397 314 79 277
split_gain=146613 170919 44314.1 10230.4 7566.82 7801.83 6920.64 6826.43 9671.41 7368.37 6876.92 6433.05 6406.66 5877.64 8879.45 5243.1 9132.52 5082.6 5269.77 4862.92 4639.24 4439.45 4206.82 9998.58 4161.37 4119.76 5664.35 4075.85 3849.37 3134.58 5297.5 2714.52 4778.94 2593.2 2251.44 2143.54 2033.31 1706.84 1667.6 1567.77 1402.8 1167.96 1159.68 1052.31 1016.31 989.161 952.876 850.403 725.306 705.081 691.171 3436.66 637.796 552.025 413.368 211.703 848.088
threshold=1.5000000000000002 1.0000000180025095e-35 2.6944424325165039 1.5498046875000002 3.5000000000000004 -0.002896962323818308 0.58933619581645591 0.30933078952466581 2.5000000000000004 1.3500976562500002 7.8515625000000009 5.5000000000000009 12.500000000000002 3.5000000000000004 2.5000000000000004 5.5000000000000009 1.5000000000000002 2.5000000000000004 2.5000000000000004 2.5000000000000004 5.5000000000000009 -1.7324986007634211 5.5000000000000009 6.5000000000000009 3.5000000000000004 1.5000000000000002 3.5000000000000004 4.5000000000000009 4.5000000000000009 1.5000000000000002 1.5000000000000002 2.5000000000000004 5.5000000000000009 4.5000000000000009 1.5000000000000002 6.5000000000000009 1.5000000000000002 1.5000000000000002 2.5000000000000004 3.5000000000000004 32.500000000000007 1.5000000000000002 1.0000000180025095e-35 0.23504507603076755 2.5000000000000004 2.5000000000000004 1.5000000000000002 2.5000000000000004 628.50000000000011 -0.1523739431763329 1.5000000000000002 1.0000000180025095e-35 0.32091996310028237 -0.021916852607283262 1.5000000000000002 55.500000000000007 3.5000000000000004
decision_type=2 2 2 2 2 2 2 2 2 2 8 2 8 2 2 2 2 2 2 2 2 2 2 2 2 2 2 2 2 2 2 2 2 2 2 2 2 2 2 2 8 2 2 2 2 2 2 2 10 2 2 2 2 2 8 8 2
left_child=1 2 13 6 5 11 15 21 9 10 -9 12 19 17 43 25 -17 18 -1 -5 48 -3 35 28 -16 26 41 36 31 30 -4 37 38 40 52 46 45 -24 42 49 -19 -2 -33 -15 -7 -21 55 -32 -20 -37 51 -44 -31 -36 -51 56 -23
right_child=3 7 29 4 -6 44 -8 8 -10 -11 -12 -13 -14 14 24 16 -18 33 20 27 -22 22 23 -25 -26 -27 -28 -29 -30 34 47 32 -34 -35 53 39 -38 -39 -40 -41 -42 -43 50 -45 -46 -47 -48 -49 -50 54 -52 -53 -54 -55 -56 -57 -58
leaf_value=-4.3579402419694704 -4.3580755306657384 -4.2078307712995482 -4.0977816668826117 -4.2869598195453271 -4.3579912564191554 -4.3579055198439205 -4.1726952419804508 -4.1150010045512442 -4.3002225075667884 -4.0261669728388663 -4.3574823851396349 -4.3576148350075954 -4.3574642372316053 -4.3579469028482185 -4.092784386698705 -4.1241202292588799 -4.3579122429207926 -4.3582532832902015 -4.3574340741440247 -4.0486848501912664 -4.1449695822665458 -4.0168499274616467 -4.0146697915900589 -4.3572487045816048 -4.2771499383404139 -4.3582657183172113 -4.1816680336044465 -4.2701953189800621 -4.1904616520233455 -4.2764660514885389 -4.13110815846969 -4.1288256480113876 -4.1930787299881738 -4.2513987904285422 -4.1314305302912668 -4.0998140996858368 -4.1856252197985144 -4.1118473666920261 -4.1619302710694077 -4.1277767713678175 -4.2622277574625516 -4.2622277574625516 -4.031901568517644 -4.2613510380173931 -4.2613510380173931 -4.1393245258242839 -4.0824615664546693 -4.1938449695817361 -4.2613510380173931 -4.073173847750418 -4.0163536313843551 -4.1375061792921617 -4.2019373643472893 -4.1855268095334042 -4.0150607760589541 -4.0089778888613052 -4.0661073205677294
leaf_count=713 1116 252 1087 353 826 652 359 354 455 284 315 377 308 726 277 274 663 4132 297 280 412 539 517 243 299 5083 394 268 320 608 295 288 444 425 296 345 304 240 237 405 238 238 390 235 235 254 320 1722 235 353 237 514 236 1688 260 950 631
internal_value=0 46.1004 26.0086 14.4187 23.9457 28.2599 8.61515 58.5026 45.8529 52.3801 35.0033 34.0065 37.8491 11.7029 24.2922 6.40431 22.5955 7.7498 18.9984 41.6759 28.4454 59.8794 60.2854 55.6653 40.6317 3.37571 13.7183 46.1533 56.8827 37.8308 41.9341 58.103 54.096 2.7629 32.0225 63.1135 50.408 64.4523 56.8582 57.1258 0.406316 3.36267 58.38 4.9929 5.44602 55.2182 65.2018 34.241 9.10991 59.9197 60.1994 56.5607 20.6326 35.5405 62.7734 66.065 63.101
internal_count=34798 22814 13921 11984 3857 3031 8127 8893 1408 953 669 2144 1767 7989 1537 7768 937 6452 1657 1459 944 7485 7233 3430 576 6831 1748 1106 3187 5932 3104 2867 2110 4795 2828 3803 838 757 1666 1363 4370 1354 1429 961 887 534 2440 2017 532 958 1141 904 844 1984 613 2120 1170
shrinkage=1



feature importances:
ANZ_HAUSHALTE_AKTIV=2
D19_RATGEBER=2
D19_SOZIALES=2
EINGEZOGENAM_HH_JAHR=2
KBA05_SEG8=2
MOBI_REGIO=2
_isMissingUnknown_4=2
ANREDE_KZ=2
D19_LOTTO=1
D19_VERSAND_ANZ_12=1
D19_WEIN_FEINKOST=1
EXTSEL992=1
KBA05_ANHANG=1
KBA05_DIESEL=1
KBA05_KRSZUL=1
KBA05_KW2=1
KBA05_MOD3=1
KBA05_MOD8=1
KBA05_SEG10=1
KBA05_VORB2=1
KBA05_ZUL4=1
KBA13_ANZAHL_PKW=1
KBA13_BJ_2000=1
KBA13_CCM_1200=1
KBA13_FORD=1
KBA13_HALTER_35=1
KBA13_KMH_110=1
KBA13_KW_50=1
KBA13_KW_61_120=1
KBA13_KW_90=1
KBA13_SITZE_5=1
CJT_TYP_2=1
SEMIO_PFLICHT=1
SEMIO_RAT=1
VERDICHTUNGSRAUM=1
W_KEIT_KIND_HH=1
D19_BEKLEIDUNG_GEH=1
D19_BUCH_CD=1
ALTERSKATEGORIE_GROB=1
ALTER_HH_Value_0=1
D19_BANKEN_DATUM_Value_ACTIVITY_WITHIN_MONTHS=1
_isMissingUnknown_1=1
WOHNLAGE=1
_isMissingUnknown_6=1
_isMissingUnknown_9=1
_isMissingUnknown_11=1
_isMissingUnknown_16=1
_isMissingUnknown_18=1
_isMissingUnknown_20=1

pandas_categorical:[]
