tree
version=v2
num_class=1
num_tree_per_iteration=1
label_index=0
max_feature_idx=492
objective=binary sigmoid:1
feature_names=AGER_TYP AKT_DAT_KL ALTER_KIND1 ALTER_KIND2 ALTER_KIND3 ALTER_KIND4 ALTERSKATEGORIE_FEIN ANZ_HAUSHALTE_AKTIV ANZ_HH_TITEL ANZ_KINDER ANZ_PERSONEN ARBEIT BALLRAUM CAMEO_DEUG_2015 CJT_GESAMTTYP CJT_KATALOGNUTZER CJT_TYP_1 CJT_TYP_2 CJT_TYP_3 CJT_TYP_4 CJT_TYP_5 CJT_TYP_6 D19_BANKEN_ANZ_12 D19_BANKEN_ANZ_24 D19_BANKEN_DIREKT D19_BANKEN_GROSS D19_BANKEN_LOKAL D19_BANKEN_ONLINE_QUOTE_12 D19_BANKEN_REST D19_BEKLEIDUNG_GEH D19_BEKLEIDUNG_REST D19_BILDUNG D19_BIO_OEKO D19_BUCH_CD D19_DIGIT_SERV D19_DROGERIEARTIKEL D19_ENERGIE D19_FREIZEIT D19_GARTEN D19_GESAMT_ANZ_12 D19_GESAMT_ANZ_24 D19_GESAMT_ONLINE_QUOTE_12 D19_HANDWERK D19_HAUS_DEKO D19_KINDERARTIKEL D19_KONSUMTYP D19_KONSUMTYP_MAX D19_KOSMETIK D19_LEBENSMITTEL D19_LOTTO D19_NAHRUNGSERGAENZUNG D19_RATGEBER D19_REISEN D19_SAMMELARTIKEL D19_SCHUHE D19_SONSTIGE D19_SOZIALES D19_TECHNIK D19_TELKO_ANZ_12 D19_TELKO_ANZ_24 D19_TELKO_MOBILE D19_TELKO_ONLINE_QUOTE_12 D19_TELKO_REST D19_TIERARTIKEL D19_VERSAND_ANZ_12 D19_VERSAND_ANZ_24 D19_VERSAND_ONLINE_QUOTE_12 D19_VERSAND_REST D19_VERSI_ANZ_12 D19_VERSI_ANZ_24 D19_VERSI_DATUM D19_VERSI_OFFLINE_DATUM D19_VERSI_ONLINE_DATUM D19_VERSI_ONLINE_QUOTE_12 D19_VERSICHERUNGEN D19_VOLLSORTIMENT D19_WEIN_FEINKOST EINGEZOGENAM_HH_JAHR EWDICHTE EXTSEL992 FINANZ_ANLEGER FINANZ_HAUSBAUER FINANZ_MINIMALIST FINANZ_SPARER FINANZ_UNAUFFAELLIGER FINANZ_VORSORGER FINANZTYP FIRMENDICHTE GEBAEUDETYP GEBAEUDETYP_RASTER GEBURTSJAHR GEMEINDETYP GFK_URLAUBERTYP GREEN_AVANTGARDE HEALTH_TYP HH_DELTA_FLAG HH_EINKOMMEN_SCORE INNENSTADT KBA05_ALTER1 KBA05_ALTER2 KBA05_ALTER3 KBA05_ALTER4 KBA05_ANHANG KBA05_ANTG1 KBA05_ANTG2 KBA05_ANTG3 KBA05_ANTG4 KBA05_AUTOQUOT KBA05_BAUMAX KBA05_CCM1 KBA05_CCM2 KBA05_CCM3 KBA05_CCM4 KBA05_DIESEL KBA05_FRAU KBA05_GBZ KBA05_HERST1 KBA05_HERST4 KBA05_HERST5 KBA05_HERSTTEMP KBA05_KRSAQUOT KBA05_KRSHERST1 KBA05_KRSHERST2 KBA05_KRSHERST3 KBA05_KRSOBER KBA05_KRSVAN KBA05_KRSZUL KBA05_KW1 KBA05_KW2 KBA05_KW3 KBA05_MAXAH KBA05_MAXBJ KBA05_MAXHERST KBA05_MAXSEG KBA05_MAXVORB KBA05_MOD1 KBA05_MOD2 KBA05_MOD3 KBA05_MOD4 KBA05_MOD8 KBA05_MODTEMP KBA05_MOTOR KBA05_MOTRAD KBA05_SEG1 KBA05_SEG10 KBA05_SEG2 KBA05_SEG3 KBA05_SEG4 KBA05_SEG5 KBA05_SEG6 KBA05_SEG7 KBA05_SEG8 KBA05_SEG9 KBA05_VORB0 KBA05_VORB1 KBA05_VORB2 KBA05_ZUL1 KBA05_ZUL2 KBA05_ZUL3 KBA05_ZUL4 KBA13_ANTG1 KBA13_ANTG2 KBA13_ANTG3 KBA13_ANTG4 KBA13_ANZAHL_PKW KBA13_AUDI KBA13_AUTOQUOTE KBA13_BAUMAX KBA13_BJ_1999 KBA13_BJ_2000 KBA13_BJ_2004 KBA13_BJ_2006 KBA13_BJ_2008 KBA13_BJ_2009 KBA13_BMW KBA13_CCM_0_1400 KBA13_CCM_1000 KBA13_CCM_1200 KBA13_CCM_1400 KBA13_CCM_1401_2500 KBA13_CCM_1500 KBA13_CCM_1600 KBA13_CCM_1800 KBA13_CCM_2000 KBA13_CCM_2500 KBA13_CCM_2501 KBA13_CCM_3000 KBA13_CCM_3001 KBA13_FAB_ASIEN KBA13_FAB_SONSTIGE KBA13_FIAT KBA13_FORD KBA13_GBZ KBA13_HALTER_20 KBA13_HALTER_25 KBA13_HALTER_30 KBA13_HALTER_35 KBA13_HALTER_40 KBA13_HALTER_45 KBA13_HALTER_50 KBA13_HALTER_55 KBA13_HALTER_60 KBA13_HALTER_65 KBA13_HALTER_66 KBA13_HERST_ASIEN KBA13_HERST_AUDI_VW KBA13_HERST_BMW_BENZ KBA13_HERST_EUROPA KBA13_HERST_FORD_OPEL KBA13_HERST_SONST KBA13_HHZ KBA13_KMH_0_140 KBA13_KMH_110 KBA13_KMH_140 KBA13_KMH_140_210 KBA13_KMH_180 KBA13_KMH_210 KBA13_KMH_250 KBA13_KMH_251 KBA13_KRSAQUOT KBA13_KRSHERST_AUDI_VW KBA13_KRSHERST_BMW_BENZ KBA13_KRSHERST_FORD_OPEL KBA13_KRSSEG_KLEIN KBA13_KRSSEG_OBER KBA13_KRSSEG_VAN KBA13_KRSZUL_NEU KBA13_KW_0_60 KBA13_KW_110 KBA13_KW_120 KBA13_KW_121 KBA13_KW_30 KBA13_KW_40 KBA13_KW_50 KBA13_KW_60 KBA13_KW_61_120 KBA13_KW_70 KBA13_KW_80 KBA13_KW_90 KBA13_MAZDA KBA13_MERCEDES KBA13_MOTOR KBA13_NISSAN KBA13_OPEL KBA13_PEUGEOT KBA13_RENAULT KBA13_SEG_GELAENDEWAGEN KBA13_SEG_KLEINST KBA13_SEG_KLEINWAGEN KBA13_SEG_KOMPAKTKLASSE KBA13_SEG_MINIVANS KBA13_SEG_MINIWAGEN KBA13_SEG_MITTELKLASSE KBA13_SEG_OBEREMITTELKLASSE KBA13_SEG_OBERKLASSE KBA13_SEG_SONSTIGE KBA13_SEG_SPORTWAGEN KBA13_SEG_UTILITIES KBA13_SEG_VAN KBA13_SEG_WOHNMOBILE KBA13_SITZE_4 KBA13_SITZE_5 KBA13_SITZE_6 KBA13_TOYOTA KBA13_VORB_0 KBA13_VORB_1 KBA13_VORB_1_2 KBA13_VORB_2 KBA13_VORB_3 KBA13_VW KK_KUNDENTYP KKK KOMBIALTER KONSUMNAEHE KONSUMZELLE MIN_GEBAEUDEJAHR MOBI_RASTER MOBI_REGIO NATIONALITAET_KZ ONLINE_AFFINITAET ORTSGR_KLS9 OST_WEST_KZ PLZ8_ANTG1 PLZ8_ANTG2 PLZ8_ANTG3 PLZ8_ANTG4 PLZ8_BAUMAX REGIOTYP RELAT_AB RETOURTYP_BK_S RT_KEIN_ANREIZ RT_SCHNAEPPCHEN RT_UEBERGROESSE SEMIO_DOM SEMIO_ERL SEMIO_FAM SEMIO_KAEM SEMIO_KRIT SEMIO_KULT SEMIO_LUST SEMIO_MAT SEMIO_PFLICHT SEMIO_RAT SEMIO_REL SEMIO_SOZ SEMIO_TRADV SEMIO_VERT SHOPPER_TYP SOHO_KZ STRUKTURTYP TITEL_KZ UMFELD_ALT UMFELD_JUNG UNGLEICHENN_FLAG VERDICHTUNGSRAUM VERS_TYP VHA VHN VK_DHT4A VK_DISTANZ VK_ZG11 W_KEIT_KIND_HH WOHNDAUER_2008 WOHNLAGE ZABEOTYP ANREDE_KZ ALTERSKATEGORIE_GROB ALTER_HH_Value_0 CAMEO_DEUINTL_2015_Value_0 CAMEO_DEUINTL_2015_Value_1 D19_BANKEN_DATUM_Value_ACTIVITY_WITHIN_MONTHS D19_BANKEN_DATUM_Value_INCREASE D19_BANKEN_OFFLINE_DATUM_Value_ACTIVITY_WITHIN_MONTHS D19_BANKEN_OFFLINE_DATUM_Value_INCREASE D19_BANKEN_ONLINE_DATUM_Value_ACTIVITY_WITHIN_MONTHS D19_BANKEN_ONLINE_DATUM_Value_INCREASE D19_GESAMT_DATUM_Value_ACTIVITY_WITHIN_MONTHS D19_GESAMT_DATUM_Value_INCREASE D19_GESAMT_OFFLINE_DATUM_Value_ACTIVITY_WITHIN_MONTHS D19_GESAMT_OFFLINE_DATUM_Value_INCREASE D19_GESAMT_ONLINE_DATUM_Value_ACTIVITY_WITHIN_MONTHS D19_GESAMT_ONLINE_DATUM_Value_INCREASE D19_TELKO_DATUM_Value_ACTIVITY_WITHIN_MONTHS D19_TELKO_DATUM_Value_INCREASE D19_TELKO_OFFLINE_DATUM_Value_ACTIVITY_WITHIN_MONTHS D19_TELKO_OFFLINE_DATUM_Value_INCREASE D19_TELKO_ONLINE_DATUM_Value_ACTIVITY_WITHIN_MONTHS D19_TELKO_ONLINE_DATUM_Value_INCREASE D19_VERSAND_DATUM_Value_ACTIVITY_WITHIN_MONTHS D19_VERSAND_DATUM_Value_INCREASE D19_VERSAND_OFFLINE_DATUM_Value_ACTIVITY_WITHIN_MONTHS D19_VERSAND_OFFLINE_DATUM_Value_INCREASE D19_VERSAND_ONLINE_DATUM_Value_ACTIVITY_WITHIN_MONTHS D19_VERSAND_ONLINE_DATUM_Value_INCREASE LP_FAMILIE_FEIN_Value_CHILD LP_FAMILIE_FEIN_Value_FAMILY LP_FAMILIE_FEIN_Value_GENERATIONAL LP_FAMILIE_GROB_Value_FAMILY LP_LEBENSPHASE_FEIN_Value_AGE LP_LEBENSPHASE_FEIN_Value_INCOME LP_LEBENSPHASE_FEIN_Value_OTHER LP_LEBENSPHASE_GROB_Value_AGE LP_LEBENSPHASE_GROB_Value_INCOME LP_STATUS_FEIN_Value_INCOME LP_STATUS_FEIN_Value_OTHER LP_STATUS_GROB_Value_INCOME PRAEGENDE_JUGENDJAHRE_Value_0 PRAEGENDE_JUGENDJAHRE_Value_2 PRAEGENDE_JUGENDJAHRE_Value_3 EINGEFUEGT_AM_Day EINGEFUEGT_AM_DayOfYear EINGEFUEGT_AM_DayOfWeek EINGEFUEGT_AM_DaysInMonth EINGEFUEGT_AM_IsMonthStart EINGEFUEGT_AM_IsMonthEnd EINGEFUEGT_AM_IsQuarterStart EINGEFUEGT_AM_IsQuarterEnd EINGEFUEGT_AM_IsYearStart EINGEFUEGT_AM_IsYearEnd EINGEFUEGT_AM_Season _isMissingUnknown_1 _isMissingUnknown_2 _isMissingUnknown_3 _isMissingUnknown_4 _isMissingUnknown_5 _isMissingUnknown_6 _isMissingUnknown_7 _isMissingUnknown_8 _isMissingUnknown_9 _isMissingUnknown_10 _isMissingUnknown_11 _isMissingUnknown_12 _isMissingUnknown_13 _isMissingUnknown_14 _isMissingUnknown_15 _isMissingUnknown_16 _isMissingUnknown_17 _isMissingUnknown_18 _isMissingUnknown_19 _isMissingUnknown_20 CAMEO_DEU_2015_1A CAMEO_DEU_2015_1B CAMEO_DEU_2015_1C CAMEO_DEU_2015_1D CAMEO_DEU_2015_1E CAMEO_DEU_2015_2A CAMEO_DEU_2015_2B CAMEO_DEU_2015_2C CAMEO_DEU_2015_2D CAMEO_DEU_2015_3A CAMEO_DEU_2015_3B CAMEO_DEU_2015_3C CAMEO_DEU_2015_3D CAMEO_DEU_2015_4A CAMEO_DEU_2015_4B CAMEO_DEU_2015_4C CAMEO_DEU_2015_4D CAMEO_DEU_2015_4E CAMEO_DEU_2015_5A CAMEO_DEU_2015_5B CAMEO_DEU_2015_5C CAMEO_DEU_2015_5D CAMEO_DEU_2015_5E CAMEO_DEU_2015_5F CAMEO_DEU_2015_6A CAMEO_DEU_2015_6B CAMEO_DEU_2015_6C CAMEO_DEU_2015_6D CAMEO_DEU_2015_6E CAMEO_DEU_2015_6F CAMEO_DEU_2015_7A CAMEO_DEU_2015_7B CAMEO_DEU_2015_7C CAMEO_DEU_2015_7D CAMEO_DEU_2015_7E CAMEO_DEU_2015_8A CAMEO_DEU_2015_8B CAMEO_DEU_2015_8C CAMEO_DEU_2015_8D CAMEO_DEU_2015_9A CAMEO_DEU_2015_9B CAMEO_DEU_2015_9C CAMEO_DEU_2015_9D CAMEO_DEU_2015_9E CAMEO_DEU_2015_XX D19_LETZTER_KAUF_BRANCHE_D19_BANKEN_DIREKT D19_LETZTER_KAUF_BRANCHE_D19_BANKEN_GROSS D19_LETZTER_KAUF_BRANCHE_D19_BANKEN_LOKAL D19_LETZTER_KAUF_BRANCHE_D19_BANKEN_REST D19_LETZTER_KAUF_BRANCHE_D19_BEKLEIDUNG_GEH D19_LETZTER_KAUF_BRANCHE_D19_BEKLEIDUNG_REST D19_LETZTER_KAUF_BRANCHE_D19_BILDUNG D19_LETZTER_KAUF_BRANCHE_D19_BIO_OEKO D19_LETZTER_KAUF_BRANCHE_D19_BUCH_CD D19_LETZTER_KAUF_BRANCHE_D19_DIGIT_SERV D19_LETZTER_KAUF_BRANCHE_D19_DROGERIEARTIKEL D19_LETZTER_KAUF_BRANCHE_D19_ENERGIE D19_LETZTER_KAUF_BRANCHE_D19_FREIZEIT D19_LETZTER_KAUF_BRANCHE_D19_GARTEN D19_LETZTER_KAUF_BRANCHE_D19_HANDWERK D19_LETZTER_KAUF_BRANCHE_D19_HAUS_DEKO D19_LETZTER_KAUF_BRANCHE_D19_KINDERARTIKEL D19_LETZTER_KAUF_BRANCHE_D19_KOSMETIK D19_LETZTER_KAUF_BRANCHE_D19_LEBENSMITTEL D19_LETZTER_KAUF_BRANCHE_D19_LOTTO D19_LETZTER_KAUF_BRANCHE_D19_NAHRUNGSERGAENZUNG D19_LETZTER_KAUF_BRANCHE_D19_RATGEBER D19_LETZTER_KAUF_BRANCHE_D19_REISEN D19_LETZTER_KAUF_BRANCHE_D19_SAMMELARTIKEL D19_LETZTER_KAUF_BRANCHE_D19_SCHUHE D19_LETZTER_KAUF_BRANCHE_D19_SONSTIGE D19_LETZTER_KAUF_BRANCHE_D19_TECHNIK D19_LETZTER_KAUF_BRANCHE_D19_TELKO_MOBILE D19_LETZTER_KAUF_BRANCHE_D19_TELKO_REST D19_LETZTER_KAUF_BRANCHE_D19_TIERARTIKEL D19_LETZTER_KAUF_BRANCHE_D19_UNBEKANNT D19_LETZTER_KAUF_BRANCHE_D19_VERSAND_REST D19_LETZTER_KAUF_BRANCHE_D19_VERSICHERUNGEN D19_LETZTER_KAUF_BRANCHE_D19_VOLLSORTIMENT D19_LETZTER_KAUF_BRANCHE_D19_WEIN_FEINKOST PRAEGENDE_JUGENDJAHRE_Value_1_FDJ_-_communist_party_youth_organisation PRAEGENDE_JUGENDJAHRE_Value_1_Generation_Golf PRAEGENDE_JUGENDJAHRE_Value_1_Swords_into_ploughshares PRAEGENDE_JUGENDJAHRE_Value_1_digital_media_kids PRAEGENDE_JUGENDJAHRE_Value_1_ecological_awareness PRAEGENDE_JUGENDJAHRE_Value_1_economic_miracle PRAEGENDE_JUGENDJAHRE_Value_1_family_orientation PRAEGENDE_JUGENDJAHRE_Value_1_generation_68_-_student_protestors PRAEGENDE_JUGENDJAHRE_Value_1_milk_bar_-_Individualisation PRAEGENDE_JUGENDJAHRE_Value_1_opponents_to_the_building_of_the_Wall PRAEGENDE_JUGENDJAHRE_Value_1_peace_movement PRAEGENDE_JUGENDJAHRE_Value_1_reconstruction_years PRAEGENDE_JUGENDJAHRE_Value_1_war_years
feature_infos=[-1:3] [-2:9] [2:18] [5:18] none none [-2:25] [0:353] [0:20] [0:6] [0:24] [-2:9] [-2:7] [-2:9] [-2:6] [-2:5] [-2:5] [-2:5] [-2:5] [-2:5] [-2:5] [-2:5] [0:6] [0:6] [0:7] [0:6] [0:7] [-2:10] [0:7] [0:7] [0:7] [0:7] [0:7] [0:7] [0:7] [0:7] [0:7] [0:7] [0:7] [0:6] [0:6] [-2:10] [0:7] [0:7] [0:7] [-2:9] [1:9] [0:7] [0:7] [-2:7] [0:7] [0:7] [0:7] [0:7] [0:7] [0:7] [-2:5] [0:7] [0:5] [0:5] [0:7] [-2:10] [0:7] [0:7] [0:6] [0:6] [-2:10] [0:7] [0:5] [0:6] [1:10] [1:10] none [-2:10] [0:7] [0:7] [0:7] [-1:3.30078125] [-2:6] [1:56] [1:5] [1:5] [1:5] [1:5] [1:5] [1:5] [1:6] [-2:5] [-2:8] [-2:5] [0:11.300000000000001] [11:50] [1:12] [0:1] [-1:3] [-2:1] [-2:6] [-2:8] [-2:4] [-2:5] [-2:5] [-2:5] [-2:3] [-2:4] [-2:4] [-2:3] [-2:2] [-2:5] [-2:5] [-2:5] [-2:5] [-2:5] [-2:4] [-2:4] [-2:5] [-2:5] [-2:5] [-2:5] [-2:5] [-2:5] [-2:5] [-2:5] [-2:5] [-2:5] [-2:3] [-2:3] [-2:3] [-2:5] [-2:5] [-2:4] [-2:5] [-2:4] [-2:5] [-2:4] [-2:3] [-2:4] [-2:5] [-2:5] [-2:5] [-2:3] [-2:6] [-2:4] [-2:3] [-2:3] [-2:4] [-2:5] [-2:5] [-2:5] [-2:4] [-2:1] [-2:3] [-2:3] [-2:3] [-2:5] [-2:5] [-2:5] [-2:5] [-2:5] [-2:5] [-2:5] [-2:4] [-2:4] [-2:3] [-2:2] [0:2300] [-2:5] [-2:5] [-2:5] [-2:5] [-2:5] [-2:5] [-2:5] [-2:5] [-2:5] [-2:5] [-2:5] [-2:5] [-2:5] [-2:5] [-2:5] [-2:5] [-2:5] [-2:5] [-2:5] [-2:5] [-2:5] [-2:5] [-2:5] [-2:5] [-2:5] [-2:5] [-2:5] [-2:5] [-2:5] [-2:5] [-2:5] [-2:5] [-2:5] [-2:5] [-2:5] [-2:5] [-2:5] [-2:5] [-2:5] [-2:5] [-2:5] [-2:5] [-2:5] [-2:5] [-2:5] [-2:5] [-2:5] [-2:3] [-2:5] [-2:5] [-2:5] [-2:5] [-2:5] [-2:3] [-2:5] [-2:5] [-2:5] [-2:5] [-2:3] [-2:3] [-2:3] [-2:3] [-2:5] [-2:5] [-2:5] [-2:5] [-2:3] [-2:5] [-2:5] [-2:5] [-2:5] [-2:5] [-2:5] [-2:5] [-2:5] [-2:5] [-2:4] [-2:5] [-2:5] [-2:5] [-2:5] [-2:5] [-2:5] [-2:5] [-2:5] [-2:5] [-2:5] [-2:5] [-2:5] [-2:5] [-2:5] [-2:5] [-2:5] [-2:5] [-2:5] [-2:5] [-2:5] [-2:5] [-2:5] [-2:5] [-2:5] [-2:5] [-2:5] [-2:5] [-2:5] [-2:6] [-2:4] [1:9] [-2:7] [-2:1] [-1:3.099609375] [-2:6] [-2:6] [-1:3] [-2:5] [-2:9] [-2:2] [-2:4] [-2:4] [-2:3] [-2:2] [-2:5] [-2:7] [-2:5] [-2:5] [-2:5] [-2:5] [-2:5] [1:7] [1:7] [1:7] [1:7] [1:7] [1:7] [1:7] [1:7] [1:7] [1:7] [1:7] [1:7] [1:7] [1:7] [-1:3] [-2:1] [-2:3] [-2:5] [-2:5] [-2:5] [-2:1] [0:45] [-1:2] [-2:5] [-2:4] [1:11] [1:13] [1:11] [-2:6] [-2:9] [-2:8] [1:6] [1:2] [1:9] [0:10.1015625] [-2:5] [-2:5] [0:5] [0:5] [0:5] [0:5] [0:5] [0:5] [0:5] [0:5] [0:5] [0:5] [0:5] [0:5] [0:5] [0:5] [0:5] [0:5] [0:5] none [0:5] [0:5] [0:5] [0:5] [0:5] [0:5] [-2:3] [-2:8] [-2:3] [-2:4] [-2:5] [-2:7] none [-2:3] [-2:4] [-2:7] [-2:8] [-2:2] [-1:6] [-1:2] [-1:3] [1:31] [2:365] [-2:6] [28:31] [0:1] none none none none none [0:3] [-2.2083146064174635:14.259193305521343] [-5.2266586160317701:6.1135041603235534] [-6.3144945203165612:6.0770542173820825] [-2.616796517584147:8.1530105039188836] [-3.0540729225044014:7.3736377913611442] [-1.5481024585681533:5.7935991918011727] [-1.8367647932651929:3.5991429413803937] [-3.1529604240351721:3.0947390738493477] [-0.98093477921175021:0.9713992095496804] [-0.98049511908664311:1.7887197137894397] [-1.6232912618877773:1.7401795814018106] [-1.5320520748853079:2.4835398028808431] [-1.2020469363457102:1.1916233369037497] [-0.90516040822178256:3.9969032047591613] [-1.4306446823096799:1.4613847047569262] [-1.0406915982371046:1.8634039434443368] [-2.7853555493882616:2.8486835363082426] [-1.2829023721743935:1.2229279825376977] [-1.4705490182854528:1.9169812592173574] [-1.2114417118988876:1.7305862506292544] [0:1] none none [0:1] none [0:1] [0:1] [0:1] [0:1] none [0:1] [0:1] [0:1] [0:1] [0:1] [0:1] [0:1] none [0:1] [0:1] [0:1] [0:1] none none none [0:1] [0:1] [0:1] [0:1] [0:1] [0:1] [0:1] none none [0:1] [0:1] [0:1] [0:1] [0:1] [0:1] [0:1] [0:1] [0:1] [0:1] none [0:1] [0:1] none none [0:1] [0:1] none none [0:1] none [0:1] [0:1] [0:1] none none [0:1] none none [0:1] none [0:1] none none [0:1] [0:1] [0:1] [0:1] [0:1] [0:1] none [0:1] [0:1] [0:1] [0:1] none none [0:1] none [0:1] [0:1] [0:1] [0:1] [0:1] [0:1] [0:1] [0:1] [0:1] [0:1]
tree_sizes=4623 4839 4704

Tree=0
num_leaves=59
num_cat=0
split_feature=56 56 8 383 388 173 353 238 101 263 159 326 301 171 390 62 77 327 235 325 92 96 156 133 82 199 388 316 372 102 77 325 359 90 386 330 207 92 314 293 371 7 371 387 287 33 387 393 80 49 229 306 355 380 326 312 290 326
split_gain=140139 175352 42960.5 10688.5 9984.59 9650.87 7950.34 7790.07 7086.23 8020.21 6614.14 6487.46 6378.59 6180.38 5941.06 9724.39 5924.82 8309.44 5851.91 5188.65 5106.29 4990.92 5397.51 4330.91 6123.72 4177.08 4485 3766.2 4842.1 8542.56 7260.02 3733.29 3790.65 3366.45 3232.1 3210.62 3338.32 3706.49 4859.97 2774.58 2268.73 2244.74 2195.13 1929.35 1461.15 4341.26 1256.39 1195.04 1027.57 863.746 844.032 588.794 526.652 392.409 435.1 331.225 152.184 107.676
threshold=1.5000000000000002 1.0000000180025095e-35 1.0000000180025095e-35 -1.8202881172513108 0.29295353982342714 1.5000000000000002 2.5000000000000004 3.5000000000000004 3.5000000000000004 2.5000000000000004 1.5000000000000002 1.5000000000000002 6.5000000000000009 2.5000000000000004 0.30802901983357517 3.5000000000000004 1.3500976562500002 7.8515625000000009 3.5000000000000004 1.5000000000000002 1.5000000000000002 1.5000000000000002 4.5000000000000009 1.5000000000000002 3.5000000000000004 1.5000000000000002 0.66901801229460778 1.0000000180025095e-35 29.500000000000004 1.0000000180025095e-35 1.3500976562500002 1.5000000000000002 1.5000000000000002 4.0500000000000007 0.10678346712722167 3.5000000000000004 3.5000000000000004 6.5000000000000009 1.0000000180025095e-35 2.5000000000000004 1.0000000180025095e-35 6.5000000000000009 2.5000000000000004 -0.046655693059413188 2.5000000000000004 5.5000000000000009 0.076918444353249238 0.016373515577824811 1.5000000000000002 6.5000000000000009 1.5000000000000002 4.5000000000000009 5.0000000000000009 14.017125764126908 2.5000000000000004 4.5000000000000009 2.5000000000000004 2.5000000000000004
decision_type=2 2 8 2 2 2 2 2 2 2 2 2 2 2 2 2 2 10 2 2 10 2 2 2 2 2 2 2 8 2 2 2 2 2 2 2 2 10 10 2 2 10 2 2 2 2 2 2 2 2 2 2 2 2 2 2 2 2
left_child=1 2 7 -3 5 46 8 21 9 50 -9 19 20 -11 27 16 17 -16 -12 -4 -6 -1 39 -15 -25 26 -22 44 29 30 41 47 53 -26 -10 36 37 38 -31 43 -39 -29 -30 -23 45 51 -2 -13 -38 52 -7 -5 -46 -33 -55 -51 -21 -49
right_child=4 3 11 14 12 6 -8 10 34 13 18 31 -14 23 15 -17 -18 -19 -20 56 25 22 -24 24 33 -27 -28 28 42 35 -32 32 -34 -35 -36 -37 48 40 -40 -41 -42 -43 -44 -45 49 -47 -48 57 -50 55 -52 -53 -54 54 -56 -57 -58 -59
leaf_value=-4.2187542812482492 -4.3813159498543559 -4.3804026692960889 -4.1140082559796172 -4.112197716359919 -4.230529909362355 -4.2824392901474759 -4.3811336355154289 -4.3810183365841215 -4.2213053934997715 -4.3180907532696784 -4.1364920900074607 -4.3805909662205638 -4.1811915872585939 -4.0875788526819452 -4.1240998096173467 -4.3806320704133874 -4.0519025948592926 -4.3807159632597248 -4.3226693891945791 -4.2387999220544907 -4.3809087505637185 -4.3804615375249467 -4.2325931013954143 -4.380648597091005 -4.2548453040845597 -4.381466163382056 -4.1824114894870705 -4.3808202347124858 -4.0264044401281449 -4.2745444751743067 -4.1084043137821542 -4.2886468736870071 -4.1223127981916186 -4.0975697340926471 -4.3811378755949262 -4.1909166857588964 -4.0839520525322008 -4.0555407559040617 -4.1080879015246872 -4.3814671800651297 -4.1593240625829857 -4.2309057241669947 -4.1211341116929363 -4.2213053934997715 -4.0230498134354438 -4.2093251689315778 -4.2824392901474759 -4.2588863790033615 -4.0181515915747985 -4.0518145685585383 -4.3808202347124858 -4.0354751990450293 -4.0716948246376248 -4.2472372830206035 -4.2015689199153234 -4.110353608821506 -4.1919479081822963 -4.3014209413420978
leaf_count=351 1351 237 1075 241 398 235 711 545 235 420 423 288 238 441 420 302 334 335 460 285 445 251 407 308 343 4970 241 387 522 438 272 257 317 240 719 356 422 548 353 5061 327 261 313 235 953 318 235 360 268 313 387 238 388 974 603 362 1769 313
internal_value=0 46.5657 25.9307 59.425 15.1974 22.1999 27.3997 11.1538 31.093 36.2961 26.1782 37.3797 7.32802 41.6657 59.8588 47.947 52.638 38.5497 35.3989 43.2025 4.94965 6.47102 4.09486 46.3452 35.2185 2.28648 19.7729 61.217 57.8321 54.3212 34.5795 29.2765 33.7531 43.7555 10.5099 57.6733 59.2 53.7449 41.7509 1.25753 59.5057 14.805 66.1507 18.6939 64.9123 57.4512 2.84415 15.0593 66.154 66.665 8.03558 63.239 68.5602 28.4109 29.7407 60.1334 35.6706 20.0651
internal_count=34799 22882 13974 8908 11917 5625 4039 7733 3328 2374 1428 6241 6292 1752 8671 1391 1089 755 883 3129 6054 6305 5954 1332 891 5656 686 7280 4467 3632 920 3112 2151 583 954 2712 2356 1666 791 5547 875 648 835 486 2813 797 1586 961 690 2016 622 479 1341 1834 1577 675 2054 673
shrinkage=1


Tree=1
num_leaves=61
num_cat=0
split_feature=56 56 8 388 173 238 383 353 227 323 225 399 15 171 323 299 78 399 46 394 190 246 77 253 390 62 77 10 55 222 213 205 384 92 25 76 16 364 296 8 92 381 13 51 248 394 45 290 325 107 139 39 33 79 359 77 49 352 255 79
split_gain=82138.8 87383.9 29242.3 7802.04 7278.14 6143.78 5938.35 5887.66 5232.39 6179.81 5104.63 5748.72 4983.83 4867.82 4807.16 4756.44 4735.52 4568.86 4360.99 3551.73 3433.92 3377.66 2844.92 2409.82 2373.32 5887.09 2525.75 5472.72 2312.46 2076.55 3741.8 2809.16 6173.69 2481.17 2159.02 2131 1503.85 3363.72 1356.35 1337.27 1322.05 1214.25 994.023 3143.92 1273.18 983.567 951.92 896.146 835.969 782.979 676.025 670.952 645.178 561.049 517.43 505.252 345.704 125.718 88.8617 32.8382
threshold=1.5000000000000002 1.0000000180025095e-35 1.0000000180025095e-35 0.29295353982342714 1.5000000000000002 3.5000000000000004 -1.8202881172513108 2.5000000000000004 2.5000000000000004 2.5000000000000004 1.5000000000000002 -0.010909782083103487 4.5000000000000009 3.5000000000000004 3.5000000000000004 5.5000000000000009 3.5000000000000004 0.0030811569046651226 3.5000000000000004 -0.025803298336064342 1.5000000000000002 4.5000000000000009 1.9501953125000002 3.5000000000000004 0.30802901983357517 3.5000000000000004 1.3500976562500002 3.5000000000000004 5.5000000000000009 3.5000000000000004 3.5000000000000004 3.5000000000000004 0.087114686059483068 7.5000000000000009 3.5000000000000004 6.5000000000000009 2.5000000000000004 2.5000000000000004 1.5000000000000002 1.0000000180025095e-35 7.5000000000000009 0.14182014174592941 5.5000000000000009 1.0000000180025095e-35 2.5000000000000004 0.032210842271949792 5.5000000000000009 1.5000000000000002 1.5000000000000002 4.5000000000000009 1.5000000000000002 1.5000000000000002 2.5000000000000004 44.500000000000007 4.5000000000000009 1.0498046875000002 6.5000000000000009 3.5000000000000004 2.5000000000000004 53.500000000000007
decision_type=2 2 8 2 2 2 2 2 2 2 2 2 2 2 2 2 2 2 2 2 2 2 2 2 2 2 2 10 2 2 2 2 2 10 2 2 2 2 2 8 8 2 2 2 2 2 2 2 2 2 2 2 2 10 2 2 2 2 2 8
left_child=1 2 5 4 41 17 -3 8 9 -6 11 14 15 22 -5 16 -10 21 -19 -4 -12 38 -7 45 29 26 27 -26 -15 34 31 32 -31 -32 35 42 40 -38 -1 -22 54 -2 49 44 -44 -11 -14 -20 -39 52 56 -17 59 -34 -21 -51 -46 58 -54 -8
right_child=3 6 19 10 7 13 24 -9 12 23 20 -13 46 28 -16 51 -18 18 47 36 39 -23 -24 -25 25 -27 -28 -29 -30 30 33 -33 53 -35 -36 -37 37 48 -40 -41 -42 -43 43 -45 50 -47 -48 -49 -50 55 -52 -53 57 -55 -56 -57 -58 -59 -60 -61
leaf_value=0.087230823599474025 0.091048402414326116 -0.003971855500367309 -0.004139598065800435 0.21139556568453 -0.0042868360354507262 -0.0047406052033055097 0.24257483749427342 -0.0047050997361786908 0.058893131843340718 0.17539556954722477 0.12724379165912975 -0.0046906711302569428 -0.0047828603183606129 0.078311217157990679 -0.0041302948673252564 -0.0043820665561199873 0.23102442559652017 0.18659787021682922 0.088747423609064735 0.16661407632736336 -0.0050367571719745798 0.12457566388691563 0.13853537271222538 0.11295390333919558 0.19770362251934029 -0.0042018428243404144 0.23602073123862977 -0.0043045934302095752 0.21870888273726352 0.19082220503969413 0.18317769319066113 0.22027386033150911 0.069861509382905557 0.26074617794401728 0.16011784055852904 0.15510240321024951 -0.004142526896811962 0.17383178605824273 -0.0050392236978304156 0.086279150527047516 0.14059885158345184 -0.0048922249681192451 0.19061131499716771 0.1264898548119251 0.25799392588534248 0.25505409819945346 0.081447898855681655 -0.0045831405843314334 0.1443274282863814 0.23152718542692094 0.20510905274045896 0.080603686227094157 0.21272246942740794 -0.0044230260503128364 0.23588094918142449 0.17625337404956187 0.21215567530349652 0.20554104910160081 0.24562247891265299 0.26525397378529314
leaf_count=239 235 237 251 316 302 691 494 711 346 265 285 671 804 256 269 334 247 290 235 242 4509 300 237 318 439 302 334 316 244 400 441 281 237 282 366 288 244 1427 4717 242 421 1351 477 312 385 239 235 524 3390 285 350 238 277 309 266 267 237 301 749 542
internal_value=0 36.7061 22.6443 13.9698 19.6996 10.4761 44.1666 23.707 26.4424 35.6692 7.01974 19.921 18.9956 22.8194 31.9456 26.7303 35.4942 6.2286 19.9731 30.9577 2.57152 2.43689 9.64666 40.5145 44.4076 37.553 40.3934 31.6505 35.3144 45.143 40.6461 33.6418 27.0548 46.4945 46.2687 46.7089 31.6034 30.0021 0.242683 0.293822 38.095 2.79041 47.1161 44.1326 45.6894 45.2617 4.18487 6.33789 30.7982 48.4318 47.6915 7.55498 49.26 6.80391 42.8731 42.5904 49.5947 46.5987 47.5746 51.2108
internal_count=34799 22882 13974 11917 5625 7733 8908 4039 3328 1124 6292 1256 2204 1428 585 1165 593 6305 1049 6241 5036 5256 928 822 8671 1391 1089 755 500 7280 1950 1227 946 723 5330 4964 5990 5061 4956 4751 929 1586 4676 1761 1449 504 1039 759 4817 2915 972 572 2363 546 508 552 622 1327 1026 1036
shrinkage=0.00503312


Tree=2
num_leaves=59
num_cat=0
split_feature=56 56 8 77 397 397 238 11 249 388 291 159 227 254 399 383 158 80 273 329 314 246 326 239 175 291 235 399 327 42 31 241 304 273 299 383 390 234 387 222 370 312 213 49 137 267 139 389 327 290 289 247 307 370 330 389 172 231
split_gain=53654 51312.9 21038.9 6563.33 5767.68 6093.97 4981.93 4866.21 4466.7 4321.54 5497.25 4142.15 4006.7 4227.81 3918.42 3853.09 3809.45 3528.66 3485.33 3179.87 2981.57 2932.18 2780.13 2757.7 2550.29 2307.99 2302.28 2267.97 1550.51 1303.45 1287 2467.08 1938.56 1746.58 4795.2 2119 1526.42 4681.65 1179.38 1068.64 1889.74 2274.88 1067.75 1086.51 1008.27 1530.49 1480.78 867.685 712.558 586.747 653.318 578.604 572.301 1702.55 321.86 309.929 232.442 106.616
threshold=1.5000000000000002 1.0000000180025095e-35 1.0000000180025095e-35 1.1499023437500002 -0.11000174607609559 0.10243296125916355 3.5000000000000004 2.5000000000000004 4.5000000000000009 -0.25644968712685368 2.5000000000000004 1.5000000000000002 3.5000000000000004 3.5000000000000004 0.0030811569046651226 -1.8202881172513108 3.5000000000000004 2.5000000000000004 3.5000000000000004 3.5000000000000004 14.500000000000002 4.5000000000000009 1.5000000000000002 4.5000000000000009 2.5000000000000004 3.5000000000000004 3.5000000000000004 0.037307080132411276 4.8515625000000009 6.5000000000000009 3.5000000000000004 3.5000000000000004 2.5000000000000004 2.5000000000000004 4.5000000000000009 -0.20893543981756554 0.35708554554444555 2.5000000000000004 -0.85326323196997833 3.5000000000000004 42.500000000000007 4.5000000000000009 3.5000000000000004 6.5000000000000009 3.5000000000000004 3.5000000000000004 2.5000000000000004 -0.16193318084925643 7.8515625000000009 1.5000000000000002 3.5000000000000004 1.5000000000000002 1.5000000000000002 42.500000000000007 2.5000000000000004 -0.04935212008241522 1.0000000180025095e-35 1.5000000000000002
decision_type=2 2 8 2 2 2 2 2 2 2 2 2 2 2 2 2 2 2 2 2 8 2 2 2 2 2 2 2 8 2 2 2 2 2 2 2 2 2 2 2 10 2 2 2 2 2 2 2 10 2 2 2 2 10 2 2 2 2
left_child=1 2 6 8 20 7 14 -6 23 12 19 -8 13 18 21 -3 26 47 24 -11 -5 29 49 38 -7 -24 -13 -27 -20 -1 36 32 -32 -34 -35 -36 39 48 -2 44 42 -42 43 -41 46 52 51 -16 -38 -4 -51 -17 -46 -54 56 -29 -53 -58
right_child=3 15 22 4 5 9 11 -9 -10 10 -12 16 -14 -15 17 30 -18 -19 28 -21 -22 -23 25 -25 -26 27 -28 55 -30 -31 31 -33 33 34 35 -37 37 -39 -40 40 41 -43 -44 -45 45 -47 -48 -49 -50 50 -52 54 53 -55 -56 -57 57 -59
leaf_value=-0.0050391635225928355 0.076430810623283024 -0.0039675257611719176 0.099516036830310739 -0.0049514146909060202 -0.0041316952936706845 0.20662870992791704 -0.0046316426138274403 0.20019532336452575 0.13522740336083006 -0.0041267502326581247 -0.0049550939585436271 0.18769626119418253 -0.0045672826516781574 -0.0044415719784242046 0.084658771792694446 0.16764123606430201 -0.004347585640235155 0.16165628744677377 0.11964263466122922 0.17664962472865511 0.11675657157339135 0.11018567168968936 0.17020785431916638 0.105865031396551 0.073904686609297554 -0.0044553914717256962 0.065101514730509027 0.099772226018468732 -0.0043104785507469025 0.083872525403228315 0.089768340583516515 0.059045199048984899 0.20047954975413904 -0.0043841596227865015 0.19188412076454545 0.10485233502656439 0.19075256421087405 0.042028282655354847 -0.0050378995902575149 0.17442304946450324 0.16511743547351221 0.070046757696813206 0.20012742495634006 0.098716535089151222 0.19235928848332409 0.10988411821863132 0.15053542530079769 -0.0046263209190641344 0.12982936300021594 0.14643732587715799 0.18778821348673269 0.17921531348529532 0.10402411473723322 0.18364245518736558 0.1696717256387141 0.13769412299955464 0.19747447518478101 0.21171716230550564
leaf_count=4711 235 237 257 1672 260 337 545 395 287 261 1848 286 472 375 235 356 288 296 235 240 238 300 345 307 261 348 309 2184 298 245 288 241 356 257 323 315 300 418 4196 323 299 401 338 245 432 266 412 518 258 2623 249 305 307 279 284 235 1181 487
internal_value=0 30.5025 20.1353 12.9401 17.0606 20.4246 9.88473 34.2247 5.37348 16.2429 7.86093 20.2828 22.5124 26.1034 6.00423 35.4711 26.0587 18.0076 29.8924 25.1155 4.45848 2.39493 26.4858 2.58022 36.1854 21.7828 31.3703 19.2444 14.0236 0.241111 35.6276 31.9018 33.2134 34.7035 29.9657 33.5045 36.242 30.0373 0.322585 36.737 33.4364 26.1684 36.2741 31.0058 37.5002 34.251 38.4244 5.8841 35.0649 29.5972 30.2126 39.0354 35.6643 31.8937 39.5208 20.9185 39.8905 40.3641
internal_count=34799 22882 13974 11917 6892 4982 7733 655 5025 4327 2349 1428 1978 1506 6305 8908 883 1049 1131 501 1910 5256 6241 4738 598 3112 595 2767 533 4956 8671 1780 1539 1251 895 638 6891 976 4431 5915 1606 700 906 568 4309 1284 3025 753 558 3129 2872 2613 1018 586 2257 2419 1973 1668
shrinkage=0.00503312



feature importances:
EINGEZOGENAM_HH_JAHR=6
D19_SOZIALES=6
GFK_URLAUBERTYP=4
ANZ_HH_TITEL=4
_isMissingUnknown_20=4
ALTERSKATEGORIE_GROB=4
_isMissingUnknown_4=4
_isMissingUnknown_9=4
KBA13_KW_90=3
D19_LOTTO=3
RT_KEIN_ANREIZ=3
ANREDE_KZ=3
ALTER_HH_Value_0=3
_isMissingUnknown_8=3
_isMissingUnknown_11=3
KBA13_BJ_2006=2
WOHNLAGE=2
KBA13_KW_0_60=2
D19_TELKO_REST=2
KBA13_SEG_GELAENDEWAGEN=2
KONSUMNAEHE=2
EXTSEL992=2
RT_SCHNAEPPCHEN=2
SEMIO_LUST=2
UMFELD_JUNG=2
VERDICHTUNGSRAUM=2
KBA13_BJ_2009=2
KBA13_KMH_140=2
FINANZ_ANLEGER=2
KBA05_MOD8=2
D19_BANKEN_DATUM_Value_ACTIVITY_WITHIN_MONTHS=2
KBA13_KRSHERST_FORD_OPEL=2
LP_LEBENSPHASE_FEIN_Value_INCOME=2
EINGEFUEGT_AM_DayOfYear=2
EINGEFUEGT_AM_DayOfWeek=2
D19_BUCH_CD=2
D19_VERSAND_ONLINE_DATUM_Value_INCREASE=2
KBA13_KW_61_120=2
_isMissingUnknown_10=2
KBA05_ZUL4=2
_isMissingUnknown_15=2
_isMissingUnknown_18=2
KBA05_ZUL1=1
KBA05_ZUL3=1
KBA13_BJ_2008=1
KBA13_FIAT=1
KBA13_HALTER_50=1
KBA13_HERST_AUDI_VW=1
KBA13_HERST_EUROPA=1
KBA13_KRSSEG_VAN=1
KBA13_KW_120=1
KBA13_KW_30=1
KBA13_KW_60=1
ANZ_HAUSHALTE_AKTIV=1
KBA13_MAZDA=1
KBA13_MOTOR=1
ANZ_PERSONEN=1
KBA13_SEG_KLEINST=1
KBA13_SEG_KLEINWAGEN=1
KBA13_SEG_KOMPAKTKLASSE=1
KBA13_SEG_OBEREMITTELKLASSE=1
KBA13_SEG_OBERKLASSE=1
KBA13_SEG_SONSTIGE=1
KBA13_TOYOTA=1
KBA13_VORB_2=1
ARBEIT=1
REGIOTYP=1
RETOURTYP_BK_S=1
CAMEO_DEUG_2015=1
CJT_KATALOGNUTZER=1
SEMIO_DOM=1
SEMIO_KAEM=1
CJT_TYP_1=1
SEMIO_PFLICHT=1
SEMIO_SOZ=1
SEMIO_VERT=1
SHOPPER_TYP=1
D19_BANKEN_GROSS=1
D19_BILDUNG=1
VHA=1
D19_GESAMT_ANZ_12=1
D19_HANDWERK=1
D19_KONSUMTYP=1
D19_RATGEBER=1
CAMEO_DEUINTL_2015_Value_1=1
D19_SONSTIGE=1
D19_VERSAND_ONLINE_DATUM_Value_ACTIVITY_WITHIN_MONTHS=1
D19_WEIN_FEINKOST=1
LP_FAMILIE_FEIN_Value_FAMILY=1
EWDICHTE=1
LP_STATUS_FEIN_Value_OTHER=1
FINANZ_MINIMALIST=1
GEBURTSJAHR=1
KBA13_CCM_0_1400=1
_isMissingUnknown_1=1
_isMissingUnknown_2=1
D19_KONSUMTYP_MAX=1
_isMissingUnknown_5=1
_isMissingUnknown_7=1
HH_EINKOMMEN_SCORE=1
KBA05_ALTER4=1
KBA05_ANHANG=1
KBA05_AUTOQUOT=1
_isMissingUnknown_14=1
KBA05_MAXSEG=1
KBA05_MOD3=1
EINGEFUEGT_AM_DaysInMonth=1

pandas_categorical:[]
